tree
version=v2
num_class=1
num_tree_per_iteration=1
label_index=0
max_feature_idx=7
objective=binary sigmoid:1
feature_names=Age Employment Education Marital Occupation Income Gender Hours
feature_infos=[17:82] 4:0:2:5:3:1 4:2:1:5:8:10:0:9:14:15:7:3:13:11:12:6:-1 2:0:1:4:5:3:-1 2:6:1:8:9:10:5:12:0:3:11:7:4:-1 [609.72000000000003:421075.29999999999] 1:0:-1 [1:99]
tree_sizes=2399 2424 2439 2455 2427 2417 2437 2440 2407 2408 2430 2437 2417 2414 2411 2419 2415 2431 2442 2410 2440 2411 2431 2437 2437 2456 2441 2447 2435 2451 2471

Tree=0
num_leaves=31
num_cat=3
split_feature=3 4 5 7 0 7 0 7 7 5 0 5 7 5 7 0 5 0 0 5 6 7 0 0 5 0 7 0 0 7
split_gain=169.911 61.1126 25.1098 17.6672 12.7853 12.5907 12.0037 7.175 6.52416 6.4949 6.0016 8.00476 5.40577 5.06406 4.74354 4.03333 4.9 3.98766 3.92551 3.63071 3.47615 3.43422 4.02861 2.96031 2.72726 2.71627 4.39262 2.14869 2.07818 3.34712
threshold=0 1 51187.615000000013 40.500000000000007 35.500000000000007 48.500000000000007 32.500000000000007 36.500000000000007 48.500000000000007 26204.600000000002 36.500000000000007 41742.94000000001 37.500000000000007 55177.310000000005 38.500000000000007 59.500000000000007 40433.185000000005 36.500000000000007 42.500000000000007 29999.785000000003 2 57.000000000000007 32.500000000000007 49.500000000000007 128860.51500000001 45.500000000000007 18.500000000000004 58.500000000000007 27.500000000000004 44.500000000000007
decision_type=9 9 8 8 8 10 8 8 10 10 8 10 8 10 10 8 8 10 8 10 9 10 8 8 8 10 10 8 10 10
left_child=1 10 3 18 28 7 -5 -6 17 -8 11 -1 -12 14 -9 16 -11 -4 -2 -7 -19 22 -10 -20 -24 26 -22 -16 -3 -30
right_child=2 4 8 6 5 19 9 13 21 15 12 -13 -14 -15 27 -17 -18 20 23 -21 25 -23 24 -25 -26 -27 -28 -29 29 -31
leaf_value=-0.051428571428571428 -0.18596491228070178 -0.16470588235294112 -0.18443316412859562 -0.16521739130434773 -0.14736842105263157 -0.018181818181818174 -0.087999999999999953 -0.016393442622950821 -0.15862068965517229 0.1400000000000001 -0.0086956521739130436 0.10476190476190478 0.095000000000000001 0.033333333333333333 -0.065346534653465349 -0.039999999999999987 -0 -0.17795275590551182 -0.054545454545454508 0.074285714285714288 -0.028571428571428567 -0.17647058823529413 -0.016666666666666673 -0.14285714285714288 -0.11304347826086954 -0.16428571428571428 -0.1372549019607843 -0.11538461538461538 -0.13124999999999998 -0.046153846153846156
leaf_count=35 57 34 591 23 38 33 25 61 29 20 23 21 160 24 101 20 20 127 22 35 21 34 24 49 23 56 51 52 64 26
internal_value=0 -0.216867 -1.5 -0.966102 -0.622047 -0.476744 -0.37037 -0.666667 -1.69456 -0.0235294 0.551971 0.0714286 0.819672 -0.537815 -0.635514 0.333333 0.7 -1.75414 -1.46875 0.294118 -1.5451 -1.23636 -1 -1.15493 -0.638298 -1.3125 -1.05556 -0.823529 -1.22581 -1.06667
internal_count=1899 707 1192 236 468 344 108 276 956 85 239 56 183 238 214 60 40 846 128 68 255 110 76 71 47 128 72 153 124 90
cat_boundaries=0 1 2 3
cat_threshold=4 70 1
shrinkage=0.1


Tree=1
num_leaves=31
num_cat=3
split_feature=3 4 5 7 0 7 0 7 7 7 0 5 5 5 7 0 0 5 0 5 6 7 0 0 0 7 5 5 0 5
split_gain=139.275 49.6083 20.7178 14.4569 10.4456 10.221 9.80683 5.87812 5.4256 5.40254 6.0213 5.76381 5.2721 4.10869 3.85833 3.33809 3.27538 3.99969 3.26949 2.94564 2.89426 2.84193 3.31247 2.43174 2.24687 3.59626 2.22254 2.16556 3.00697 1.82571
threshold=0 1 51187.615000000013 40.500000000000007 35.500000000000007 48.500000000000007 32.500000000000007 36.500000000000007 48.500000000000007 26.500000000000004 36.500000000000007 38282.855000000003 26204.600000000002 55177.310000000005 38.500000000000007 36.500000000000007 59.500000000000007 40433.185000000005 42.500000000000007 29999.785000000003 2 57.000000000000007 32.500000000000007 49.500000000000007 45.500000000000007 18.500000000000004 128860.51500000001 20551.335000000003 38.500000000000007 209925.29000000001
decision_type=9 9 8 8 8 10 8 8 10 8 8 10 10 10 10 10 8 8 8 10 9 10 8 8 10 10 8 8 10 8
left_child=1 9 3 18 -3 7 -5 -6 15 -1 11 -11 -8 14 -9 -4 17 -14 -2 -7 -17 22 -10 -20 25 -22 -24 -16 -29 -12
right_child=2 4 8 6 5 19 12 13 21 10 29 -13 16 -15 27 20 -18 -19 23 -21 24 -23 26 -25 -26 -27 -28 28 -30 -31
leaf_value=-0.041420991121981221 -0.16887349295826756 -0.11080572543133849 -0.16745796195392826 -0.14975042439932848 -0.13337975053797574 -0.016365037730418749 -0.079359119085312346 -0.014755121772754887 -0.14369185863961145 -0.044887941323598475 0.097293363991451859 0.09209816080976567 0.12664134433245344 0.030008646465373962 -0.017635076920459583 -0.16147594814125543 -0.036014930258220564 -0 -0.049128781753469138 0.066952838233702641 -0.025719730091543876 -0.16010926163313921 -0.015001084482476444 -0.1292528913667971 -0.14889414735189321 -0.12413372967452321 -0.10207656375097218 -0.12686406556018717 -0.062511871032728969 0.047814009757666191
leaf_count=20 57 124 591 23 38 33 25 61 29 32 128 20 20 24 23 127 20 20 22 35 21 34 24 49 56 51 23 44 86 39
internal_value=0 -0.195615 -1.35944 -0.873641 -0.561104 -0.429806 -0.334346 -0.601151 -1.53703 0.497608 0.672063 0.0774168 -0.0211791 -0.484664 -0.572766 -1.59165 0.300604 0.631657 -1.33006 0.264922 -1.39984 -1.11827 -0.903213 -1.04351 -1.18725 -0.95338 -0.575445 -0.742596 -0.842765 0.857374
internal_count=1899 707 1192 236 468 344 108 276 956 239 219 52 85 238 214 846 60 40 128 68 255 110 76 71 128 72 47 153 130 167
cat_boundaries=0 1 2 3
cat_threshold=4 70 1
shrinkage=0.1


Tree=2
num_leaves=31
num_cat=3
split_feature=3 4 5 7 0 7 0 7 7 7 0 5 5 5 5 0 7 0 6 5 0 7 7 0 0 5 5 0 0 0
split_gain=116.471 40.4101 17.641 11.9001 8.62674 8.3291 6.68938 4.90607 4.61826 4.40425 4.92033 4.6928 3.34325 3.33203 3.25011 3.23199 3.16107 2.85275 2.40965 2.39627 2.35 3.4725 2.30318 2.65855 2.1635 1.77711 2.78557 2.41849 3.14708 1.76185
threshold=0 1 53620.505000000012 40.500000000000007 35.500000000000007 48.500000000000007 32.500000000000007 36.500000000000007 48.500000000000007 26.500000000000004 36.500000000000007 38282.855000000003 55177.310000000005 26204.600000000002 42641.255000000012 42.500000000000007 38.500000000000007 36.500000000000007 2 29999.785000000003 45.500000000000007 18.500000000000004 57.000000000000007 41.500000000000007 59.500000000000007 20551.335000000003 32411.935000000001 45.500000000000007 51.500000000000007 27.500000000000004
decision_type=9 9 8 8 8 10 8 8 10 8 8 10 10 10 10 8 10 10 9 10 10 10 10 8 8 8 8 10 10 10
left_child=1 9 3 15 29 7 -5 -6 17 -1 11 -11 16 -8 -15 -2 -9 -4 -19 -7 21 -20 23 -10 -17 -18 -27 -28 -29 -3
right_child=2 4 8 6 5 19 13 12 22 10 -12 -13 -14 14 -16 24 25 18 20 -21 -22 -23 -24 -25 -26 26 27 28 -30 -31
leaf_value=-0.037284100210835051 -0.15683225588953242 -0.1399502311848593 -0.15474246909323974 -0.12563971919033953 -0.12184634508414348 -0.01473186808823237 -0.071803494346194777 -0.01328205898802726 -0.12084980223585649 -0.040469501324083855 0.07763968206013723 0.083398328065532087 0.027028345208249517 0.055036586683786276 -0.034382842943568075 -0.062465046589222889 -0.015885379304100396 -0.14852932517558901 -0.014582957721266826 0.060485938478120498 -0.14158195031703136 -0.11317519944265089 -0.14648537339907339 -0.043512816089119888 -0.13055316965504124 -0.12998928310388877 -0.090266803911360882 0.032902559035384582 -0.071220031640598022 -0.086052408290879456
leaf_count=20 62 34 582 26 38 33 25 61 36 32 167 20 24 36 30 40 23 127 20 35 52 51 33 36 36 30 52 20 28 90
internal_value=0 -0.177058 -1.24635 -0.819402 -0.507884 -0.388633 -0.348793 -0.543852 -1.41842 0.449848 0.608227 0.0699735 -0.43776 -0.09404 0.142335 -1.22281 -0.517475 -1.46927 -1.28871 0.238952 -1.088 -0.850765 -1.02001 -0.81934 -0.945656 -0.671833 -0.763014 -0.602179 -0.277943 -1.00758
internal_count=1899 707 1192 255 468 344 117 276 937 239 219 52 238 91 66 138 214 832 250 68 123 71 105 72 76 153 130 100 48 124
cat_boundaries=0 1 2 3
cat_threshold=4 70 1
shrinkage=0.1


Tree=3
num_leaves=31
num_cat=2
split_feature=3 4 5 7 0 0 5 5 0 5 7 0 7 0 7 0 5 0 7 0 7 7 0 5 7 5 0 0 5 5
split_gain=98.7182 36.1285 15.4684 10.2038 7.55941 6.98018 5.43801 5.87229 4.79374 4.79163 5.5606 4.78954 4.48919 4.33268 4.31903 4.67156 3.56688 3.16792 4.23261 3.08302 3.00997 2.79571 2.6842 2.94636 2.59905 3.66313 2.56218 2.36504 1.9424 1.91678
threshold=0 1 51187.615000000013 40.500000000000007 44.500000000000007 32.500000000000007 21522.910000000003 26976.930000000004 27.500000000000004 41377.985000000008 37.500000000000007 35.500000000000007 48.500000000000007 42.500000000000007 45.500000000000007 52.500000000000007 26204.600000000002 36.500000000000007 48.500000000000007 54.500000000000007 57.000000000000007 38.500000000000007 59.500000000000007 40433.185000000005 35.500000000000007 36356.030000000006 42.500000000000007 45.500000000000007 46007.790000000008 20946.475000000002
decision_type=9 9 8 8 10 8 10 10 8 8 10 8 10 8 10 8 10 10 10 8 10 10 8 8 8 10 8 10 10 10
left_child=1 4 3 26 6 -5 13 -8 -4 19 -11 -3 -10 21 24 -16 -7 18 28 -6 -14 -1 23 -18 -13 29 -2 -28 -9 -26
right_child=2 11 8 5 9 16 7 17 12 10 -12 14 20 -15 15 -17 22 -19 -20 -21 -22 -23 -24 -25 25 -27 27 -29 -30 -31
leaf_value=-0.030662269705126852 -0.14497539214775215 -0.099799219753287274 -0.15318632255220277 -0.1278663054098603 0.16983161146212394 -0.065119472470152762 -0.10947552842849757 -0.072010190595138829 -0.12828281113393225 -0.047183458347498805 0.082684271968754441 -0.11480476527185735 -0.05479708240710144 0.13431683902398939 0.05287462848673246 -0.069562213686756066 0.11092757810426307 0.052546698152888371 0.065800583532412388 0.06945929210323358 -0.13370812422292022 0.071176192086744056 -0.034373993178584972 0.0016505442333428105 -0.050196438590540883 -0.0066940619968199741 -0.046802936631671135 -0.12101046351669838 -0.0052414343515848156 -0.098899647076446676
leaf_count=20 57 103 290 23 27 25 20 34 574 20 40 32 62 22 31 21 20 43 21 23 30 24 20 20 83 52 33 38 37 54
internal_value=0 -0.160734 -1.15193 -0.727729 0.307102 -0.273439 0.129907 -0.0765858 -1.3101 0.775939 0.392755 -0.563428 -1.21448 0.6134 -0.48569 0.0336712 -0.0114611 0.0745242 -0.136853 1.23675 -0.798673 0.249182 0.253714 0.55596 -0.609059 -0.520531 -1.12084 -0.866523 -0.372178 -0.693147
internal_count=1899 707 1192 236 331 108 221 155 956 110 60 376 666 66 273 52 85 135 92 50 92 44 60 40 221 189 128 71 71 137
cat_boundaries=0 1 2
cat_threshold=4 2758
shrinkage=0.1


Tree=4
num_leaves=31
num_cat=4
split_feature=2 3 3 7 4 0 0 0 5 7 5 5 0 0 7 5 7 5 5 0 7 0 0 5 7 5 5 0 5 5
split_gain=85.8476 41.5997 29.021 11.5773 9.7768 12.3661 6.26083 6.97919 4.86361 4.59779 4.2826 3.63441 3.19534 2.89371 2.74041 4.56083 2.34401 2.20908 2.26713 3.03312 4.67527 2.39834 2.13949 1.79667 1.68327 1.80208 2.14982 2.2013 1.6096 4.57547
threshold=0 1 2 30.500000000000004 3 37.500000000000007 45.500000000000007 60.500000000000007 66524.885000000009 8.5000000000000018 29045.955000000005 53620.505000000012 48.500000000000007 26.500000000000004 40.500000000000007 26204.600000000002 57.000000000000007 20946.475000000002 46007.790000000008 29.500000000000004 45.500000000000007 39.500000000000007 28.500000000000004 113773.87500000001 38.500000000000007 54263.790000000008 36865.170000000006 34.500000000000007 36356.030000000006 48115.525000000009
decision_type=9 9 9 8 9 10 8 10 10 10 10 8 8 10 8 10 10 8 10 10 8 8 10 8 8 10 8 10 8 8
left_child=2 4 9 -4 5 -2 16 12 17 -1 -7 14 -8 -11 -3 -16 24 -5 19 -19 -21 -22 -17 -15 -6 26 27 -26 -14 -30
right_child=1 11 3 8 6 10 7 -9 -10 13 -12 -13 28 23 15 22 -18 18 -20 20 21 -23 -24 -25 25 -27 -28 -29 29 -31
leaf_value=-0.011023674041055163 -0.066412103907971462 -0.12484891515746638 -0.07745169651736894 0.14585531915842029 -0.14689696392443463 -0.0016809768839422493 0.038750815580363626 -0.14023204970084643 0.0045290667703936022 -0.15590418832543818 0.11117526995896257 -0.13574854969704095 -0.057716756735973013 -0.10440744532860945 -0.15065560671218411 -0.095054456625858097 -0.024896924101506429 0.017439663913749525 0.12486512703047498 0.13473019728396349 0.10555755225647895 0.020058565083265159 -0.011260423874890195 -0.031355445144022429 -0.10326146362004072 -0.030912835528444468 -0.11439314118860749 -0.030076672448351577 0.067906720380801713 -0.039748841523068873
leaf_count=33 41 111 24 22 21 20 28 24 37 29 44 777 72 37 23 20 24 38 34 44 20 41 34 24 34 22 87 34 20 80
internal_value=0 -0.948255 0.153642 0.51388 -0.418519 0.143869 -0.552439 -0.36599 0.73002 -0.568383 0.757298 -1.23746 -0.243374 -1.01335 -1.03744 -0.744818 -0.846295 0.854083 0.778685 0.666747 0.843746 0.481092 -0.422808 -0.757714 -0.919441 -0.855353 -0.93243 -0.66145 -0.346501 -0.181194
internal_count=1899 1516 383 260 551 105 446 224 236 123 64 965 200 90 188 77 222 199 177 143 105 61 54 61 198 177 155 68 172 100
cat_boundaries=0 1 2 3 4
cat_threshold=170 12 3 6
shrinkage=0.1


Tree=5
num_leaves=31
num_cat=5
split_feature=3 4 2 2 0 5 0 5 5 0 5 0 5 0 7 0 7 0 6 5 7 5 5 7 0 0 7 0 0 0
split_gain=73.5643 28.0349 19.7094 10.9917 10.3897 10.6581 4.922 5.99921 11.5966 4.77412 4.66724 4.60948 4.12319 3.8106 4.47137 4.38281 3.46955 3.35821 2.76148 3.90231 3.83021 2.60684 2.55521 2.9098 2.14627 1.96889 1.95635 1.78561 1.77967 1.71429
threshold=0 1 2 3 31.500000000000004 51707.865000000013 45.500000000000007 20551.335000000003 26699.965000000004 49.500000000000007 39379.360000000008 64.500000000000014 58855.245000000003 35.500000000000007 38.500000000000007 49.500000000000007 44.500000000000007 43.500000000000007 4 27598.990000000002 40.500000000000007 29198.300000000007 162938.25000000003 67.500000000000014 33.500000000000007 60.500000000000007 38.500000000000007 30.500000000000004 40.500000000000007 26.500000000000004
decision_type=9 9 9 9 8 10 10 8 8 10 10 8 8 8 10 8 10 10 9 10 8 10 10 8 10 10 10 10 8 8
left_child=1 13 4 16 26 10 7 -5 -9 -8 11 -6 18 -1 -15 -16 17 21 -4 -20 28 -3 23 27 -18 -11 -2 -10 -21 -28
right_child=2 3 12 6 5 -7 9 8 22 25 -12 -13 -14 14 15 -17 24 -19 19 20 -22 -23 -24 -25 -26 -27 29 -29 -30 -31
leaf_value=-0.11575483300894406 -0.15005861962452419 0.068486960996211238 -0.14094899428876045 0.061256136418731469 0.052983975792633635 -0.063223026323501005 0.10652627000286044 -0.17961070946853744 -0.020367884083640889 0.023574488232227186 0.11620302183680448 -0.051706978102434936 -0.13101346735266148 -0.11158092254981 -0.0013532356861050291 -0.076732132050057536 0.1683213643825982 0.10496230036965935 -0.12669811088948077 -0.14605641967103436 -0.016881382185846207 -0.012726894969033484 0.046638118896899013 0.016497009170750327 0.080027377622999829 -0.050389960429225659 -0.12306700771005569 -0.073913610678736683 -0.065456366225441792 -0.039338622194051695
leaf_count=70 27 30 49 29 44 89 25 21 51 59 23 30 730 49 63 63 20 32 58 22 47 35 21 41 26 20 21 52 28 24
internal_value=0 -0.130703 -1.00011 0.165182 -0.305191 -0.10325 -0.0588563 -0.241912 -0.376491 0.295811 0.362128 0.108795 -1.17633 -0.637629 -0.588576 -0.389146 0.565076 0.510232 -0.972254 -0.837063 -0.582693 0.24714 -0.195247 -0.291874 1.18599 0.0502503 -1.04972 -0.474508 -0.995486 -0.775822
internal_count=1899 707 1192 462 258 186 319 215 186 104 97 74 934 245 175 126 143 97 204 155 97 65 165 144 46 79 72 103 50 45
cat_boundaries=0 1 2 3 4 5
cat_threshold=4 5417 8363 34 1
shrinkage=0.1


Tree=6
num_leaves=31
num_cat=4
split_feature=3 4 2 0 5 2 5 0 5 5 0 5 0 7 5 0 7 0 5 5 7 0 5 7 5 7 5 0 0 0
split_gain=63.8968 23.0646 21.1527 9.07817 9.52107 8.98955 4.15323 4.00905 4.87113 9.81024 3.92523 3.80095 3.38453 3.80403 3.73151 3.26029 2.91259 2.79686 2.48379 2.27744 3.23423 2.20442 3.56693 3.3739 2.12581 1.95122 1.85394 1.80001 1.59968 1.51383
threshold=0 1 2 31.500000000000004 51707.865000000013 3 39379.360000000008 45.500000000000007 20551.335000000003 26699.965000000004 49.500000000000007 53620.505000000012 35.500000000000007 38.500000000000007 48713.115000000005 64.500000000000014 44.500000000000007 43.500000000000007 37729.365000000013 26976.930000000004 40.500000000000007 36.500000000000007 41742.94000000001 67.500000000000014 29198.300000000007 38.500000000000007 29426.910000000003 33.500000000000007 60.500000000000007 42.500000000000007
decision_type=9 9 9 8 10 9 10 10 8 8 10 8 8 10 10 8 10 10 8 10 8 8 10 8 10 10 10 10 10 10
left_child=1 12 3 25 6 16 15 8 -7 -10 -9 19 -1 -14 18 -5 17 24 26 -4 29 22 -11 -23 -3 -2 -15 -18 -12 -21
right_child=2 5 11 4 -6 7 -8 10 9 21 28 -13 13 14 -16 -17 27 -19 -20 20 -22 23 -24 -25 -26 -27 -28 -29 -30 -31
leaf_value=-0.10789590045929087 -0.14305182447603032 0.061990041649754205 -0.12170310974870786 0.051665277563452273 -0.055132781018911253 0.054977976302058196 0.11804818190475758 0.096970837971789653 -0.16683030347260594 -0.085246352245645723 0.021256553818929033 -0.12394533768675618 -0.10285095841008143 -0.054978626571980639 0.044185696952842073 -0.03883379125416548 0.15459104910049937 0.095923355946554253 -0.079934596335518582 -0.13145886838319004 -0.035196938340056404 -0.019311171848743876 0.0079883269880417097 0.06952543106973115 -0.011449441440002275 -0.067159001397972456 0.02320079923562015 0.073052031503975365 -0.045512029860726472 -0.064152635409661471
leaf_count=70 26 30 66 43 86 29 22 25 21 40 59 762 49 26 20 28 20 32 56 41 52 72 30 23 35 42 24 26 20 24
internal_value=0 -0.118911 -0.93692 -0.233328 -0.0370759 0.149472 0.41067 -0.0532818 -0.218793 -0.340722 0.267489 -1.11329 -0.582667 -0.535483 -0.352233 0.166596 0.512675 0.462395 -0.505321 -0.897551 -0.723364 -0.176008 -0.452367 0.0238516 0.223014 -0.959111 -0.177062 1.08555 0.0453185 -1.05217
internal_count=1899 707 1192 247 179 462 93 319 215 186 104 945 245 175 126 71 143 97 106 183 117 165 70 95 65 68 50 46 79 65
cat_boundaries=0 1 2 3 4
cat_threshold=4 5417 171 34
shrinkage=0.1


Tree=7
num_leaves=31
num_cat=4
split_feature=3 4 2 0 5 0 5 7 5 5 0 0 5 0 0 5 7 5 5 0 5 0 5 5 0 7 0 7 6 7
split_gain=55.6338 19.6517 18.9255 7.76216 7.80629 5.1119 3.74001 3.46743 3.365 2.97813 3.72673 2.98669 3.14327 2.80401 2.78873 2.48024 3.82697 2.17682 2.10819 2.53474 1.99232 2.07284 1.9056 1.84616 2.36153 1.82482 1.8078 2.90108 1.78345 1.56322
threshold=0 1 2 31.500000000000004 51707.865000000013 35.500000000000007 53620.505000000012 48.500000000000007 39379.360000000008 61153.55000000001 60.500000000000007 45.500000000000007 39080.670000000006 41.500000000000007 47.500000000000007 55810.17500000001 51.000000000000007 35933.035000000011 14529.765000000001 24.500000000000004 40640.725000000013 27.500000000000004 21522.910000000003 29426.910000000003 51.500000000000007 38.500000000000007 33.500000000000007 24.500000000000004 3 40.500000000000007
decision_type=9 9 9 8 10 8 8 10 10 10 10 10 10 10 8 8 8 8 10 8 10 10 8 8 10 10 8 10 9 10
left_child=1 22 3 25 8 20 18 9 14 10 11 12 13 17 -5 16 -9 -7 -4 -20 21 -3 -1 -24 26 -2 -25 -28 -21 -8
right_child=2 5 6 4 -6 7 29 15 -10 -11 -12 -13 -14 -15 -16 -17 -18 -19 19 28 -22 -23 23 24 -26 -27 27 -29 -30 -31
leaf_value=0.09479821866928563 -0.13732662090173361 -0.14719272493879976 -0.14391848325882359 0.062022983128013853 -0.050549051793735214 -0.047101843212975045 -0.12276376868592896 0.10710731992340401 0.10629958561920805 0.023498087556607598 -0.11453574435786279 -0.0042817657100319984 -0.10541203266075788 -0.097912257847780626 -0.020388034495940593 -0.043035809259856818 -0.0070640926257172767 0.018433332720996995 -0.13799866207204839 -0.11760280562622349 -0.036812984298249793 -0.071651747126385015 -0.010814587162733365 0.013162252363370522 -0.0048878685348347096 -0.062144156100638594 0.014480154020453309 0.093229654351464478 -0.051962312514179335 -0.095991296472771048
leaf_count=27 26 23 24 30 86 47 632 21 22 34 27 92 34 23 41 20 28 39 27 23 45 60 29 29 32 42 27 70 109 130
internal_value=0 -0.108501 -0.880245 -0.213626 -0.033947 -0.329084 -1.05261 -0.237096 0.369959 -0.334428 -0.408431 -0.327577 -0.513667 -0.343044 0.150024 0.169634 0.414051 -0.172891 -0.835088 -0.747126 -0.722439 -0.917354 0.365774 0.364321 0.451739 -0.900116 0.576798 0.71135 -0.631474 -1.18035
internal_count=1899 707 1192 247 179 493 945 365 93 296 262 235 143 109 71 69 49 86 183 159 128 83 214 187 158 68 126 97 132 762
cat_boundaries=0 1 2 3 4
cat_threshold=4 196 171 1
shrinkage=0.1


Tree=8
num_leaves=31
num_cat=5
split_feature=3 4 7 2 5 7 6 0 0 6 7 5 0 5 0 5 5 0 0 0 7 5 7 5 5 7 5 7 5 5
split_gain=49.9693 43.1181 10.1939 6.78224 5.22925 4.96734 5.03538 4.63012 4.08582 7.09046 5.79465 10.902 2.99652 2.97857 2.92595 2.6157 2.47233 2.44034 2.67089 2.21352 2.17931 6.11597 2.07326 1.89861 2.44216 2.32641 1.97701 2.25005 2.38114 1.89533
threshold=0 1 37.500000000000007 2 96756.040000000023 37.500000000000007 3 27.500000000000004 44.500000000000007 4 61.000000000000007 45388.020000000004 38.500000000000007 49920.335000000006 57.500000000000007 174577.87500000003 9103.0400000000027 32.500000000000007 40.500000000000007 24.500000000000004 52.500000000000007 77731.335000000006 48.500000000000007 16641.210000000003 27598.990000000002 52.500000000000007 65069.490000000013 45.500000000000007 35200.215000000004 29999.785000000003
decision_type=9 9 8 9 8 8 9 8 8 9 8 8 10 8 8 10 10 8 10 10 8 8 8 8 8 8 8 8 10 10
left_child=12 2 17 4 29 15 19 -8 9 16 13 -12 -1 14 -10 -3 -5 -2 -19 -7 -14 -22 -18 -9 25 -25 27 28 -26 -4
right_child=1 5 3 8 -6 6 7 23 10 -11 11 -13 20 -15 -16 -17 22 18 -20 -21 21 -23 -24 24 26 -27 -28 -29 -30 -31
leaf_value=-0.11743135093977138 -0.1221624926255019 -0.11931262751592382 -0.03606237589536903 0.05594674145062567 -0.092544259789615307 -0.15316435332244055 -0.10839814207806775 0.007132048416598584 0.13243561946177082 0.10737239398429151 0.13197000863570763 -0.077749332400253127 -0.10139320166827635 0.1557630376998318 0.038071794599986455 -0.032961970036930875 -0.053498144403605633 0.023018590547355736 -0.082335561270705709 -0.078384675713069896 0.042185360985978082 -0.10469622051340298 0.019142667632959142 -0.052511261041930594 -0.086043270561675364 -0.13485318429730295 -0.053577271571432321 0.0034165761802741968 -0.021167267412647139 0.032625263475919618
leaf_count=547 20 95 25 27 30 29 55 35 27 40 20 23 118 41 30 20 35 22 21 61 20 37 33 46 36 22 166 82 79 57
internal_value=0 -0.252964 0.241376 0.387065 -0.103027 -0.56938 -0.531935 -0.455276 0.517566 0.340999 0.846831 0.210898 -1.01441 1.1269 0.820754 -1.0328 0.0324287 -0.546243 -0.277921 -1.01818 -0.838907 -0.492469 -0.180148 -0.392164 -0.430793 -0.793194 -0.361949 -0.223684 -0.414146 0.119056
internal_count=1899 1177 451 388 112 726 611 521 276 135 141 43 722 98 57 115 95 63 43 90 175 57 68 466 431 68 363 197 115 82
cat_boundaries=0 1 2 3 4 5
cat_threshold=3 2756 20 1 2
shrinkage=0.1


Tree=9
num_leaves=31
num_cat=5
split_feature=3 4 7 2 7 6 0 5 0 0 7 5 5 0 7 5 6 0 5 0 0 0 0 5 5 5 0 5 5 7
split_gain=44.4681 35.7089 8.3792 6.73112 4.52013 4.4 4.19021 3.26156 2.94994 2.83823 2.70409 7.24734 6.12684 3.52749 3.79037 2.42344 2.33362 2.18191 2.70404 2.17534 2.21474 2.09391 2.01678 1.93431 2.25355 1.84948 1.5893 1.57056 2.04765 1.9987
threshold=0 1 37.500000000000007 2 37.500000000000007 3 27.500000000000004 96756.040000000023 38.500000000000007 37.500000000000007 98.500000000000014 95920.62000000001 48397.55000000001 46.500000000000007 48.500000000000007 174577.87500000003 4 44.500000000000007 139568.18500000003 32.500000000000007 40.500000000000007 24.500000000000004 34.500000000000007 30182.450000000004 39680.12000000001 122601.31000000001 42.500000000000007 16641.210000000003 27598.990000000002 52.500000000000007
decision_type=9 9 8 9 8 9 8 8 10 8 8 8 8 10 10 10 9 10 8 8 10 10 10 10 8 10 8 8 8 8
left_child=8 2 19 7 15 21 -7 9 -1 -4 11 13 -12 14 26 -3 -13 18 -10 -2 -21 -6 -16 -11 -25 -23 -5 -8 29 -29
right_child=1 4 3 10 5 6 27 -9 17 23 12 16 -14 -15 22 -17 -18 -19 -20 20 -22 25 -24 24 -26 -27 -28 28 -30 -31
leaf_value=-0.11255725541208157 -0.11613416698250328 -0.11370970459391475 -0.056598168779998653 -0.038761493786555551 -0.14683884894519747 -0.10314660605784708 0.0064111380728972241 -0.07208703020457459 -0.0023561019025294515 -0.022629417414056406 0.084856303606682879 0.097221550733458117 -0.039324636082267599 0.10749436349011317 0.11498624950047545 -0.029905615958341326 0.18760689279853693 -0.097764196999613112 -0.09446365182229001 0.020630797435771644 -0.075732237265073221 -0.10736025314443867 0.0302477305903254 0.096559706916507212 0.0042742430873226513 -0.029542839727814119 0.027476747242765137 -0.047888138503026562 -0.032937309102497335 -0.12511629668900603
leaf_count=547 20 95 24 31 29 55 35 34 33 22 34 27 35 33 24 20 23 112 30 22 21 34 24 23 22 27 32 46 363 22
internal_value=0 -0.231895 0.219087 0.351205 -0.5237 -0.487718 -0.416187 -0.0989016 -0.962863 0.0632395 0.495272 0.703258 0.222908 0.465764 0.290938 -0.975493 1.38708 -0.785546 -0.457567 -0.502847 -0.252524 -0.950872 0.726949 0.277131 0.521263 -0.72315 -0.0468479 -0.35699 -0.392528 -0.727544
internal_count=1899 1177 451 388 726 611 521 125 722 91 263 194 69 144 111 115 50 175 63 63 43 90 48 67 45 61 63 466 431 68
cat_boundaries=0 1 2 3 4 5
cat_threshold=3 2756 276 1 2
shrinkage=0.1


Tree=10
num_leaves=31
num_cat=4
split_feature=2 3 0 6 4 0 5 7 0 0 5 5 5 7 0 0 5 5 7 7 0 0 0 5 0 5 0 5 0 7
split_gain=41.3223 23.7752 11.2652 9.61437 5.77883 7.93172 3.65292 3.55027 3.3324 5.04427 3.18136 2.54206 2.41572 2.29708 2.21534 2.03058 3.08584 4.63278 3.34312 1.90623 1.95614 1.8988 1.88904 2.64671 2.21979 2.27613 1.76798 3.0938 1.66879 1.8997
threshold=0 1 29.500000000000004 2 3 36.500000000000007 79535.470000000016 40.500000000000007 45.500000000000007 54.500000000000007 29045.955000000005 116843.09000000001 110456.23500000002 40.500000000000007 37.500000000000007 41.500000000000007 27850.800000000003 31830.030000000002 40.500000000000007 38.500000000000007 42.500000000000007 28.500000000000004 35.500000000000007 37729.365000000013 31.500000000000004 42787.785000000011 42.500000000000007 53620.505000000012 48.500000000000007 34.500000000000007
decision_type=9 9 8 9 9 10 10 10 8 10 10 8 8 8 8 8 8 10 8 8 8 8 10 8 10 10 10 8 8 10
left_child=2 4 13 12 5 -2 14 11 19 28 -7 21 -4 -1 -5 -16 -17 -18 -19 -6 22 -3 24 -24 25 -21 27 -9 -10 -30
right_child=1 7 3 6 8 10 -8 26 9 -11 -12 -13 -14 -15 15 16 17 18 -20 20 -22 -23 23 -25 -26 -27 -28 -29 29 -31
leaf_value=-0.11920841752098608 -0.054094228330362072 -0.11505193352524663 -0.077245804685755787 0.10552331648139475 -0.12250104805528071 0.0010870854942417226 -0.01596728117004912 -0.02147178661279088 0.04064325465700333 -0.078390999539550546 0.096069628506590288 -0.11623574586912591 0.004459298090816511 -0.026951979776682379 0.0032550697636122916 0.11194088129619639 -0.01248887687112488 0.021956996447530089 0.11399544485673969 -0.069473075260443523 -0.11135353706552864 -0.078187258198346349 0.028624305539211449 -0.053466131411162646 -0.1044164012079397 0.010684446010174785 -0.023223322735234361 -0.09934522382789901 0.026045031105538793 -0.028124824417818207
leaf_count=33 37 122 39 37 21 22 35 32 28 54 46 401 30 25 33 38 41 30 42 48 21 266 29 39 38 26 37 107 37 105
internal_value=0 -0.63845 0.160252 0.321609 -0.252731 0.158898 0.504259 -0.89679 -0.358324 -0.218581 0.644634 -1.02262 -0.403379 -0.769815 0.59913 0.503412 0.606232 0.431554 0.75573 -0.58195 -0.521125 -0.88741 -0.446962 -0.18219 -0.627265 -0.401073 -0.658264 -0.782595 -0.0481289 -0.139406
internal_count=1899 1516 383 325 551 105 256 965 446 224 68 789 69 58 221 184 151 113 72 222 201 388 180 68 112 74 176 139 170 142
cat_boundaries=0 1 2 3 4
cat_threshold=170 12 1 6
shrinkage=0.1


Tree=11
num_leaves=31
num_cat=4
split_feature=3 4 0 3 2 7 5 5 5 0 5 7 0 7 5 0 5 7 5 7 5 5 0 0 5 5 5 5 0 0
split_gain=36.7437 27.1688 6.27719 4.79636 4.40002 4.86581 4.40872 3.84721 3.43996 3.28837 6.31959 3.4762 2.87603 2.36628 4.42361 2.62927 3.35442 2.13851 4.46994 2.09962 4.23467 1.91779 2.1497 1.8321 1.76644 1.75942 2.12154 3.21277 1.73639 1.62737
threshold=0 1 23.500000000000004 2 3 30.500000000000004 116843.09000000001 100253.60000000002 19547.170000000002 36.500000000000007 58855.245000000003 47.500000000000007 36.500000000000007 40.500000000000007 21796.220000000005 42.500000000000007 47117.580000000009 55.500000000000007 27598.990000000002 52.500000000000007 76662.580000000002 66976.60500000001 43.500000000000007 31.500000000000004 14885.470000000003 20551.335000000003 36356.030000000006 56158.150000000009 46.500000000000007 38.500000000000007
decision_type=9 9 8 9 9 8 8 10 8 10 10 10 10 10 10 10 8 8 10 8 8 10 10 10 10 10 10 10 8 8
left_child=12 2 -2 9 6 -6 -4 13 -5 17 11 24 -1 15 -15 -7 -17 23 -19 21 -21 -14 -23 25 -11 -3 -27 -28 29 -16
right_child=1 3 4 8 5 7 -8 -9 -10 10 -12 -13 19 14 28 16 -18 18 -20 20 -22 22 -24 -25 -26 26 27 -29 -30 -31
leaf_value=-0.10558722904084378 -0.10983227864311927 -0.0070188636740650861 0.0099045319196029834 0.0055223199894063862 -0.048703140611033945 0.0033023034397356606 -0.084009127006648837 0.14008926915675163 -0.091595214222277038 -0.01053064264770674 0.074420822536585288 0.034846802122440894 -0.11963811670925416 0.12847350753692796 0.052091859919449701 0.10551827804811509 0.0071688069496254813 -0.077296486125659009 0.034916645350212897 0.036134907770788746 -0.08413518934979336 -0.020867882805688978 -0.10166573251493637 -0.11492913746489589 -0.056322424220111002 -0.1132041956962041 0.016877108387417069 -0.095935935504770545 0.074884855296378158 -0.030740139722054468
leaf_count=522 20 31 93 20 25 86 33 21 288 61 32 33 61 35 20 35 28 30 35 21 43 35 40 26 94 31 23 22 34 21
internal_value=0 -0.190028 0.206039 -0.451043 0.274607 0.380003 -0.0922126 0.51298 -0.715188 -0.242884 -0.0965448 -0.244609 -0.877176 0.44416 0.677024 0.270249 0.6016 -0.472568 -0.157362 -0.718905 -0.384594 -0.88991 -0.632372 -0.630644 -0.3804 -0.507063 -0.681527 -0.396058 0.385636 0.102504
internal_count=1899 1177 451 726 431 305 126 280 308 418 220 188 722 259 110 149 63 198 65 200 64 136 75 133 155 107 76 45 75 41
cat_boundaries=0 1 2 3 4
cat_threshold=3 2756 4 20
shrinkage=0.1


Tree=12
num_leaves=31
num_cat=6
split_feature=2 3 0 6 4 0 7 0 5 0 0 5 5 5 6 5 5 0 7 0 6 5 5 0 5 5 5 5 0 0
split_gain=32.9499 21.1675 8.56589 7.27877 4.32911 6.04895 3.43928 3.21923 2.76065 2.75924 4.56682 2.56583 2.18653 2.42948 2.72847 2.03023 1.99536 2.07817 1.99202 1.48098 1.45943 4.02532 4.65548 1.41874 3.00088 2.48895 1.89296 1.40932 1.42941 1.35974
threshold=0 1 29.500000000000004 2 3 36.500000000000007 38.500000000000007 57.500000000000007 29045.955000000005 45.500000000000007 54.500000000000007 104403.65500000001 58855.245000000003 14529.765000000001 4 64044.585000000006 109795.02500000001 42.500000000000007 40.500000000000007 48.500000000000007 5 36356.030000000006 39379.360000000008 37.500000000000007 22990.930000000004 44393.19000000001 25371.050000000003 45063.370000000003 45.500000000000007 42.500000000000007
decision_type=9 9 8 9 9 10 8 10 10 8 10 10 8 10 9 10 10 8 8 8 9 8 10 10 10 10 10 10 8 8
left_child=2 4 18 16 5 -2 -3 12 -7 15 19 23 13 -8 -15 29 17 -4 -1 -11 21 -21 -23 24 -5 -26 -25 -28 -29 -6
right_child=1 6 3 11 9 8 7 -9 -10 10 -12 -13 -14 14 -16 -17 -18 -19 -20 20 -22 22 -24 26 25 -27 27 28 -30 -31
leaf_value=-0.11093876136218017 -0.046304625703563543 -0.11372940943469119 -0.11751006808473335 0.12286355551509148 -0.050331614642359815 0.00032163480597268519 -0.13459101648170388 -0.00033562904725743651 0.089778302645348654 0.043303834154270242 -0.07123005064328336 -0.020631449717532366 -0.091214224952205325 -0.11723082107580524 -0.035473425502561592 0.014698569021524756 0.022748422582181752 -0.022624292935664553 -0.021557979086218051 -0.072051275397651715 0.029887555118066608 0.059126975917871076 -0.050464315916141325 0.0091563793744554537 0.015222417447292941 0.10744127380597968 0.088485683188824105 0.07267852561560581 -0.0067247507051399731 -0.10494342875870218
leaf_count=33 36 257 20 34 174 22 21 28 45 27 54 26 523 29 118 20 20 29 25 41 32 37 29 54 40 20 41 20 21 23
internal_value=0 -0.564333 0.160749 0.303229 -0.203532 0.151927 -0.819156 -0.787834 0.590855 -0.29648 -0.166346 0.462915 -0.823176 -0.601978 -0.499509 -0.503679 -0.341626 -0.591532 -0.68557 -0.00207504 -0.0890292 -0.204355 0.105763 0.530588 0.7292 0.445359 0.391755 0.599981 0.323308 -0.571085
internal_count=1899 1516 383 325 540 103 976 719 67 437 220 256 691 168 147 217 69 49 58 166 139 107 66 230 94 60 136 82 41 197
cat_boundaries=0 1 2 3 4 5 6
cat_threshold=170 4 1 6 1 2
shrinkage=0.1


Tree=13
num_leaves=31
num_cat=6
split_feature=3 4 0 7 6 0 7 2 0 0 6 7 5 5 0 7 5 0 2 5 5 0 5 7 5 5 5 5 0 7
split_gain=30.3336 20.8391 4.8839 3.98658 3.65091 3.42959 3.09265 2.94597 2.82086 2.75393 2.51174 2.25202 6.25849 4.22693 2.22606 2.42522 2.00923 1.99693 1.94921 5.94687 3.27084 3.01336 2.97302 3.13681 2.7096 2.66484 2.74418 1.88345 1.8372 1.82243
threshold=0 1 23.500000000000004 37.500000000000007 2 27.500000000000004 37.500000000000007 3 36.500000000000007 39.500000000000007 4 98.500000000000014 95920.62000000001 48397.55000000001 46.500000000000007 48.500000000000007 196468.61500000002 24.500000000000004 5 21522.910000000003 26699.965000000004 36.500000000000007 55810.17500000001 42.500000000000007 52678.370000000003 30929.220000000005 55810.17500000001 42787.785000000011 46.500000000000007 52.500000000000007
decision_type=9 9 8 8 9 8 8 9 10 10 9 8 8 8 10 10 8 10 9 8 10 10 8 10 8 8 10 8 8 8
left_child=8 2 -2 16 17 -6 9 10 -1 -4 -8 12 14 -13 15 -9 -3 -5 19 -7 -20 24 23 -23 27 -21 -27 -22 -18 -10
right_child=1 3 6 4 5 18 7 11 29 -11 -12 13 -14 -15 -16 -17 28 -19 20 25 21 22 -24 -25 -26 26 -28 -29 -30 -31
leaf_value=-0.098892530492693823 -0.10193406289560346 -0.11011231282540068 0.022370472621072016 -0.13702591074433793 -0.089687687325111676 0.1045168170793237 0.015892950393584973 -0.0046920502818290737 -0.080832661081991553 -0.079968853679752205 -0.052250413143084463 0.069406983774237416 0.12545108665653334 -0.036641304912765786 0.088639372145269554 0.058789818295110464 -0.093672025262746234 -0.057658213293484153 -0.058794060923929872 -0.084626977464819245 -0.045381813530982668 -0.044939135067111606 0.078208155938655877 0.053704446484214997 -0.096951963631847854 0.018105033850901491 -0.072827173571395412 0.036001957952416633 0.0078713575711143475 -0.032271705004905477
leaf_count=522 20 74 28 29 55 21 82 61 136 24 38 34 49 34 33 48 21 61 149 21 38 42 25 21 34 72 22 21 20 64
internal_value=0 -0.155047 0.193588 -0.389823 -0.351721 -0.286651 0.254597 0.319462 -0.801455 -0.255071 -0.0307612 0.4121 0.603344 0.152374 0.374374 0.234379 -0.845972 -0.808018 -0.234426 0.0242839 -0.30466 -0.151791 0.125248 -0.108782 -0.437145 -0.165326 -0.00776949 -0.166088 -0.427483 -0.63996
internal_count=1899 1177 451 726 611 521 431 379 722 52 120 259 191 68 142 109 115 90 466 136 330 181 88 63 93 115 94 59 41 200
cat_boundaries=0 1 2 3 4 5 6
cat_threshold=3 2756 1 276 2 262
shrinkage=0.1


Tree=14
num_leaves=31
num_cat=6
split_feature=3 4 3 0 4 0 7 5 5 0 7 2 7 5 0 0 5 5 0 0 0 7 0 5 7 0 7 5 5 6
split_gain=26.7845 17.2632 4.28032 4.13743 3.42955 5.66755 3.6962 2.95577 2.89507 2.84031 2.53894 2.42719 2.40055 4.85776 2.29324 2.2518 2.13325 1.95531 1.89498 3.50282 1.87337 2.1959 1.9799 1.87313 5.61449 1.87158 1.78907 3.42674 4.13956 1.66743
threshold=0 1 2 23.500000000000004 3 36.500000000000007 38.500000000000007 19547.170000000002 36356.030000000006 25.500000000000004 37.500000000000007 4 48.500000000000007 105490.27 39.500000000000007 60.500000000000007 96756.040000000023 63449.420000000006 39.500000000000007 43.500000000000007 49.500000000000007 40.500000000000007 45.500000000000007 102390.01500000001 71.000000000000014 47.500000000000007 48.500000000000007 26098.345000000005 34598.850000000006 5
decision_type=9 9 9 8 9 10 10 8 10 8 8 9 8 8 10 8 8 10 10 10 10 10 8 8 8 10 10 10 10 9
left_child=9 3 4 -2 5 -3 -7 -4 20 -1 14 16 17 -14 -5 -10 -12 -11 -19 -20 21 22 -6 25 29 26 27 -13 -29 -25
right_child=1 2 7 10 8 6 -8 -9 15 12 11 23 13 -15 -16 -17 -18 18 19 -21 -22 -23 -24 24 -26 -27 -28 28 -30 -31
leaf_value=-0.11268752768728706 -0.097336791733354064 -0.10388224476475355 0.011977682354552228 0.020019241677670239 -0.050849796912232882 -0.084904013334629547 0.018808503844665331 -0.080503022415669159 0.046361156547461965 -0.11350845751184793 0.012660304152003138 -0.068034898077437858 -0.0088128772391101 -0.091645960040609931 -0.073872060258184047 -0.023954059530720807 -0.053765679068786203 -0.088433763035014032 0.046721839875464667 -0.083821622063412912 -0.056683549889925036 0.039685123530903699 0.010110580155916146 0.079170066080390344 -0.012318231579638921 0.074263153957928471 0.054802439359449999 0.097599603086986703 -0.0091587466522097781 0.15902542250567553
leaf_count=208 20 70 20 28 57 26 45 288 71 125 86 23 80 98 24 28 34 155 20 36 44 34 43 26 22 44 49 24 49 22
internal_value=0 -0.142368 -0.358662 0.176197 -0.177359 -0.420525 -0.153588 -0.608291 -0.0192028 -0.76145 0.231707 0.290822 -0.739643 -0.509856 -0.232031 0.264001 -0.0278392 -0.878622 -0.71585 -0.323333 -0.187307 -0.0603665 -0.22519 0.375559 0.735872 0.328909 0.217461 0.0482081 0.27061 1.15273
internal_count=1899 1177 726 451 418 141 71 308 277 722 431 379 514 178 52 99 120 336 211 56 178 134 100 259 70 189 145 96 73 48
cat_boundaries=0 1 2 3 4 5 6
cat_threshold=3 2756 4 5153 276 2
shrinkage=0.1


Tree=15
num_leaves=31
num_cat=6
split_feature=2 3 0 6 7 4 5 0 0 0 0 5 5 1 5 0 5 6 0 5 5 5 5 0 5 5 5 5 7 0
split_gain=23.8489 16.1415 6.25628 4.36635 3.51367 3.1977 4.30174 3.63084 3.05378 2.77586 2.58881 3.81792 2.198 2.40283 3.08117 2.64016 2.17681 2.22941 2.16774 2.15592 2.56248 2.01448 1.87342 1.81864 1.72806 1.9212 1.56704 1.53686 1.80882 1.46175
threshold=0 1 26.500000000000004 2 35.500000000000007 3 48713.115000000005 45.500000000000007 40.500000000000007 57.500000000000007 35.500000000000007 40433.185000000005 20946.475000000002 4 46007.790000000008 41.500000000000007 106221.48000000001 5 36.500000000000007 55810.17500000001 39379.360000000008 29045.955000000005 113773.87500000001 28.500000000000004 50285.275000000001 36356.030000000006 28164.625000000004 77731.335000000006 38.500000000000007 42.500000000000007
decision_type=9 9 8 9 8 9 10 8 10 10 8 8 8 9 8 10 10 9 10 10 10 10 8 8 10 10 10 8 10 8
left_child=2 5 -1 22 -3 6 10 8 -7 16 -2 21 -5 14 15 -14 17 -6 -8 20 26 -12 29 -19 25 -9 -15 -16 -29 -4
right_child=1 4 3 12 9 7 18 24 -10 -11 11 -13 13 19 27 -17 -18 23 -20 -21 -22 -23 -24 -25 -26 -27 -28 28 -30 -31
leaf_value=-0.10999486045089589 -0.061780088125989521 -0.10895690991735581 -0.10236328042112558 0.098082206661386659 -0.093555910546258281 -0.04155445986063841 0.018129876854539369 -0.014636226570697606 -0.11706127205566502 0.006092312167202271 0.0024511332161051679 -0.033796202668668111 -0.013284039938616723 0.013748067304964813 0.13375122508781923 0.084852557188459521 -0.095999667400330377 -0.089728299639244558 0.11176132071668302 -0.057089309927123036 0.074403528596567389 0.074882330921593618 0.015256178172375885 -0.043903117828031829 -0.061822995028970373 0.046989457040826695 -0.058349548281762656 0.11359025951295794 0.030201656965141568 -0.017039392881562684
leaf_count=28 38 229 23 25 139 131 22 112 31 28 34 63 34 46 24 21 222 88 22 29 25 35 33 270 25 27 21 22 29 23
internal_value=0 -0.469359 0.162755 0.247742 -0.71349 -0.159703 0.0464487 -0.287297 -0.570869 -0.684846 -0.0992776 0.0346583 0.371554 0.309379 0.444395 0.220809 -0.720321 -0.629642 0.642501 -0.0127237 0.138142 0.380527 -0.236232 -0.529353 -0.114025 -0.0215679 -0.0787789 0.895002 0.674678 -0.560849
internal_count=1899 1516 383 355 976 540 214 326 162 747 170 132 276 251 130 55 719 497 44 121 92 69 79 358 164 139 67 75 51 46
cat_boundaries=0 1 2 3 4 5 6
cat_threshold=170 4 1 2438 16 1
shrinkage=0.1


Tree=16
num_leaves=31
num_cat=6
split_feature=3 4 7 2 5 0 4 0 6 7 0 5 5 7 5 5 0 5 5 5 7 0 0 0 6 7 5 0 0 5
split_gain=21.8189 13.4053 5.7655 4.27295 9.48014 3.21842 3.0976 2.85352 2.27783 2.92152 3.00863 4.18439 2.9768 2.19225 4.33558 2.0533 3.78292 2.86021 2.01797 1.99707 2.41483 1.83874 1.76114 3.02827 1.64353 1.60639 1.40074 1.91684 1.34776 2.32339
threshold=0 1 37.500000000000007 2 17932.775000000005 31.500000000000004 3 25.500000000000004 4 61.000000000000007 39.500000000000007 52380.860000000008 26510.045000000002 48.500000000000007 105490.27 26098.345000000005 46.500000000000007 196468.61500000002 63449.420000000006 45063.370000000003 61.000000000000007 31.500000000000004 39.500000000000007 43.500000000000007 5 25.500000000000004 22990.930000000004 46.500000000000007 53.500000000000007 47550.600000000006
decision_type=9 9 8 9 8 10 9 8 9 8 10 8 8 8 8 10 8 8 10 10 8 8 10 10 9 8 10 8 10 10
left_child=7 25 15 4 -4 -6 19 -1 -8 10 11 21 -12 18 -15 16 -3 -17 -9 20 -5 -10 -20 -24 -21 -2 -11 -28 29 -7
right_child=1 2 3 6 5 28 8 13 9 26 12 -13 -14 14 -16 17 -18 -19 22 24 -22 -23 23 -25 -26 -27 27 -29 -30 -31
leaf_value=-0.10882186401270494 -0.028558030193118773 -0.12002492168622121 0.14290168738513662 0.0011211821362952777 -0.043503278307967214 0.043285012297638405 -0.10942731335803513 -0.10898152782745163 0.0071818947337331908 -0.045150992327578181 -0.09614668282452693 -0.13379348898224758 -0.0041449170592735311 -0.0049840764116670794 -0.085703367173765088 -0.12405994949976668 0.040886407466058351 -0.022227824806114502 -0.081673155705833791 0.077687775119417074 -0.073247086768235783 -0.075607287456850844 0.0468333358172194 -0.07709876268502773 -0.0032800410564100112 0.033645089369186684 0.069842267858026233 -0.026664369594060617 -0.026792813788060754 -0.027257009947762978
leaf_count=208 22 20 20 78 87 74 48 125 24 30 23 60 59 80 98 79 21 20 155 25 30 37 20 36 31 280 20 21 34 34
internal_value=0 -0.115778 -0.263882 -0.208988 0.0435161 -0.082537 -0.319662 -0.694488 -0.458849 -0.467395 -0.6092 -0.860232 -0.300291 -0.671664 -0.447094 -0.776711 -0.282745 -0.980009 -0.813767 -0.0158795 -0.187777 -0.450994 -0.640019 -0.254056 0.349013 0.252204 -0.0781819 0.187251 0.113351 0.231334
internal_count=1899 1177 875 735 249 229 486 722 322 274 203 121 82 514 178 140 41 99 336 164 108 61 211 56 56 302 71 41 142 108
cat_boundaries=0 1 2 3 4 5 6
cat_threshold=3 68 294 770 1 2
shrinkage=0.1


Tree=17
num_leaves=31
num_cat=5
split_feature=3 4 3 0 0 4 0 5 7 5 5 1 5 0 0 0 5 5 7 5 5 5 5 7 0 5 0 0 7 0
split_gain=19.1922 11.1531 3.48698 2.97291 2.88852 2.76182 3.23996 2.36863 2.26233 3.12023 2.87102 2.12241 2.76284 4.85859 3.92569 3.74384 6.20157 4.54728 2.07249 3.85722 1.92397 1.73886 1.73328 1.7284 2.00931 1.63616 1.62159 2.56035 1.54392 1.90687
threshold=0 1 2 23.500000000000004 25.500000000000004 3 39.500000000000007 19547.170000000002 45.500000000000007 29999.785000000003 36356.030000000006 4 30929.220000000005 44.500000000000007 51.500000000000007 42.500000000000007 44393.19000000001 59330.335000000006 48.500000000000007 105490.27 63449.420000000006 26098.345000000005 31830.030000000002 38.500000000000007 32.500000000000007 34265.095000000008 39.500000000000007 43.500000000000007 55.500000000000007 41.500000000000007
decision_type=9 9 9 8 8 9 8 8 10 10 8 9 8 10 10 8 10 10 8 8 10 8 8 8 10 8 10 10 8 8
left_child=4 3 5 -2 -1 6 -3 -4 10 -10 22 21 13 -13 15 17 -17 -14 20 -20 -6 -5 -7 -9 -25 -23 -22 -28 -27 -30
right_child=1 2 7 11 18 8 -8 23 9 -11 -12 12 14 -15 -16 16 -18 -19 19 -21 26 25 -24 24 -26 28 27 -29 29 -31
leaf_value=-0.10703091391760389 -0.089221086860299642 -0.10744047095881266 0.014301012940177408 -0.0052596585731860398 -0.10596088259761337 -0.022846781106290123 -0.026553344989785739 -0.11493339720414626 -0.014345909073521491 0.085267358748232006 0.0072880800022482499 -0.007389214187023283 -0.078740907732286328 0.12357543734518216 -0.080626919320116577 0.10163074521383111 -0.029885291368259168 0.052050603561728595 -0.0044962443492453366 -0.081765560204667964 -0.078348256499297511 0.092422317264656731 -0.090604412981940483 -0.088603031962292356 -0.038571540014833636 0.053653393986217095 0.041054011063476871 -0.073376135623090658 0.051815715024760026 -0.037534806679766303
leaf_count=208 20 46 20 35 125 69 64 66 27 28 159 34 38 22 34 36 33 20 80 98 155 32 25 111 111 101 20 36 21 25
internal_value=0 -0.106319 -0.286767 0.15121 -0.659204 -0.130979 -0.384474 -0.517348 -0.00972247 0.37018 -0.100981 0.197819 0.00541332 0.416519 -0.140813 0.0346079 0.381114 -0.371372 -0.635149 -0.41499 -0.778618 0.322319 -0.409767 -0.707 -0.608626 0.482637 -0.606261 -0.23465 0.382709 0.0507584
internal_count=1899 1177 726 451 722 418 110 308 308 55 253 431 217 56 161 127 69 58 514 178 336 214 94 288 222 179 211 56 147 46
cat_boundaries=0 1 2 3 4 5
cat_threshold=3 2756 4 5129 16
shrinkage=0.1


Tree=18
num_leaves=31
num_cat=5
split_feature=2 3 0 4 7 6 6 0 5 7 0 0 5 5 5 0 0 0 5 7 5 5 0 5 0 5 0 5 5 5
split_gain=17.4915 12.0411 4.66975 4.08021 3.38475 3.21895 2.97421 2.52121 3.40752 2.32713 2.69795 2.09998 4.15969 1.99508 2.23252 2.04197 1.70663 2.38907 3.56155 2.64956 1.86313 1.75437 4.48817 2.57288 4.79422 1.64138 1.61572 1.7645 2.18001 3.92721
threshold=0 1 26.500000000000004 2 37.500000000000007 3 4 36.500000000000007 52974.805000000008 17.500000000000004 33.500000000000007 57.500000000000007 33725.985000000008 113773.87500000001 82768.560000000012 25.500000000000004 54.500000000000007 44.500000000000007 33232.515000000007 77.500000000000014 164216.23500000002 56158.150000000009 40.500000000000007 45063.370000000003 29.500000000000004 50520.56500000001 29.500000000000004 38073.870000000003 26699.965000000004 21796.220000000005
decision_type=9 9 8 9 8 9 9 8 8 10 10 10 10 8 10 10 10 10 8 8 10 10 8 10 10 8 8 10 10 10
left_child=2 13 -1 5 9 7 -4 -3 -9 -5 -11 16 -13 14 -2 -16 17 20 -19 25 21 23 -23 26 -25 -20 -6 28 29 -28
right_child=1 3 6 4 11 -7 -8 8 -10 10 -12 12 -14 -15 15 -17 -18 18 19 -21 -22 22 -24 24 -26 -27 27 -29 -30 -31
leaf_value=-0.10383977561896499 -0.090428257792880939 -0.092399511223394945 -0.017508335789279895 0.017191306099038694 -0.061969491046535777 -0.1055135380602566 0.033986413748587366 -0.065168111401598741 0.03217049644245102 -0.12994205872816833 -0.035670893081966311 -0.032635375572585515 0.10872313728802441 -0.10614952038729156 -0.07748614460853831 0.008157057903146676 -0.063644533380598375 0.075826939076022934 -0.022333186048139789 -0.075567190207298338 0.053936470962498796 -0.0028626725755594479 -0.13053580922889962 0.11189462323485855 -0.02920015222570535 0.055339363914049658 -0.0059199725292089552 -0.069906919111334703 0.024115944067951173 -0.10506495289613003
leaf_count=28 171 48 79 20 49 90 276 39 37 41 48 20 20 323 56 49 28 36 24 22 24 44 30 22 24 26 111 22 67 25
internal_value=0 -0.38991 0.162445 -0.216437 -0.114052 -0.502239 0.236893 -0.413601 -0.178649 -0.556118 -0.757676 -0.0637295 0.419412 -0.759885 -0.702661 -0.344518 -0.100991 -0.0715602 0.213148 -0.0721714 -0.153303 -0.187028 -0.548616 -0.123233 0.351345 0.185719 -0.207094 -0.135817 -0.0689452 -0.236824
internal_count=1899 1516 383 917 703 214 355 124 76 109 89 594 40 599 276 105 554 526 108 72 418 394 74 320 46 50 274 225 203 136
cat_boundaries=0 1 2 3 4 5
cat_threshold=170 3 1065 2 1
shrinkage=0.1


Tree=19
num_leaves=31
num_cat=5
split_feature=3 4 7 0 2 5 0 0 5 0 5 6 7 5 5 0 0 0 7 5 5 7 5 0 5 5 0 5 6 7
split_gain=14.947 8.76131 4.32601 3.48684 3.03636 7.44666 2.92461 2.78319 2.6197 2.09494 3.12862 2.60477 2.00448 3.40843 1.97668 1.64934 1.70425 1.5779 4.30807 2.64865 2.55952 2.98406 3.31857 2.7453 2.70703 2.11428 1.47594 1.97543 1.73781 1.90967
threshold=0 1 37.500000000000007 23.500000000000004 2 17932.775000000005 25.500000000000004 60.500000000000007 14529.765000000001 42.500000000000007 27400.410000000003 3 48.500000000000007 105490.27 63449.420000000006 39.500000000000007 43.500000000000007 39.500000000000007 55.500000000000007 40640.725000000013 41742.94000000001 45.500000000000007 33981.585000000006 31.500000000000004 33725.985000000008 44393.19000000001 44.500000000000007 46007.790000000008 4 43.500000000000007
decision_type=9 9 8 8 9 8 8 8 8 8 10 9 8 8 8 10 10 10 8 8 10 8 8 10 8 10 10 8 9 10
left_child=6 17 9 -4 5 -5 -1 26 -6 -3 -11 -12 14 -14 -8 -16 -17 20 25 -20 21 24 -23 -22 -2 -19 28 -28 29 -7
right_child=1 2 3 4 8 7 12 -9 -10 10 11 -13 13 -15 15 16 -18 18 19 -21 23 22 -24 -25 -26 -27 27 -29 -30 -31
leaf_value=-0.10390742361332916 -0.082212569789448589 -0.11099156455741355 -0.11530890687957961 0.13037075207527191 -0.098331714898461833 -0.059773994285159851 -0.11779801356788655 -0.04643013838948104 -0.022335558574680493 0.037649336060254265 -0.0045618376853862911 -0.12479574348068778 -0.00011612212174949796 -0.075313785551883838 -0.076513308193396759 0.026298229822347047 -0.06110544666491672 0.055498951791500287 0.01029073812191861 -0.096371222449709193 0.034435578492126431 0.10575664484140868 -0.002252221527985601 0.12800883678829653 0.030302846921398303 -0.015773088825588154 0.072542697248702576 -0.0028859483124146629 0.036971901334366813 0.019424240183665099
leaf_count=208 21 64 32 20 24 40 65 57 440 22 21 33 80 98 200 23 48 68 23 25 38 26 26 25 20 30 32 34 31 25
internal_value=0 -0.0884353 -0.212622 -0.165715 -0.13997 0.0667798 -0.593871 -0.0444827 -0.238311 -0.686114 -0.412699 -0.773436 -0.567761 -0.345966 -0.718227 -0.598085 -0.250089 0.209274 0.0737164 -0.48321 0.393585 0.16946 0.504868 0.742008 -0.276584 0.339297 0.105514 0.352363 -0.078102 -0.285916
internal_count=1899 1177 875 735 703 239 722 219 464 140 76 54 514 178 336 271 71 302 146 48 156 93 52 63 41 98 162 66 96 65
cat_boundaries=0 1 2 3 4 5
cat_threshold=3 68 294 1 2
shrinkage=0.1


Tree=20
num_leaves=31
num_cat=4
split_feature=3 4 7 6 0 0 0 5 0 4 0 0 5 5 0 5 0 7 0 5 5 7 5 5 7 5 0 5 5 0
split_gain=16.992 7.27678 4.31853 2.83923 2.69045 2.56235 2.54958 2.55857 2.19927 2.27231 2.86603 3.18768 3.95662 2.83919 2.39526 2.46602 2.94875 2.30395 2.59371 2.23247 2.13816 2.1 3.4336 1.85731 1.79803 1.74916 1.54001 1.51459 1.496 1.42955
threshold=0 1 37.500000000000007 2 25.500000000000004 23.500000000000004 33.500000000000007 60688.105000000003 60.500000000000007 3 44.500000000000007 40.500000000000007 65069.490000000013 50520.56500000001 49.500000000000007 35439.865000000013 30.500000000000004 55.500000000000007 30.500000000000004 29198.300000000007 26098.345000000005 48.500000000000007 105490.27 11759.025000000003 38.500000000000007 63449.420000000006 40.500000000000007 145523.02500000005 44105.405000000006 43.500000000000007
decision_type=9 9 8 9 8 8 8 8 10 9 10 10 10 10 10 10 10 8 8 8 10 8 8 10 10 8 10 8 8 10
left_child=4 6 20 27 -1 -5 7 -2 9 13 11 12 17 14 15 16 -7 18 -11 -18 -3 25 -23 -19 -9 -6 -27 -4 -12 -28
right_child=1 2 3 5 21 8 -8 24 -10 10 28 -13 -14 -15 -16 -17 19 23 -20 -21 -22 22 -24 -25 -26 26 29 -29 -30 -31
leaf_value=-0.1027320664070524 -0.063633792463673872 -0.015831511693105909 -0.018980442870943609 -0.1143108108454854 -0.11639029730990956 -0.063972764169451871 0.026429124112054354 -0.028639201448294738 -0.079565904774293261 0.055404445722844559 0.05918803279932501 -0.076364290795431639 -0.10829876225410776 0.037634943639923243 -0.10722254743608375 -0.081131028676525996 -0.025670671325464578 0.098004997792449297 -0.024788837939691652 0.064618977024500146 -0.10687891176949947 -0.0022563363943806781 -0.075512983629764413 0.017837504084522584 0.065470989097951737 -0.076294085125948596 0.026944884656024848 -0.11460807989096077 0.0029977577366952133 -0.055475802990909151
leaf_count=213 36 30 21 23 67 36 340 22 22 30 55 29 22 30 23 34 26 22 90 29 76 87 106 38 22 227 20 33 35 55
internal_value=0 -0.0554781 -0.202469 -0.157721 -0.586518 -0.116859 0.162539 -0.190337 -0.0931925 -0.0628319 0.055427 -0.0770541 0.0268483 -0.23494 -0.426372 -0.297939 -0.0985079 0.118706 -0.068341 0.215564 -0.787108 -0.568257 -0.348686 0.462348 0.190603 -0.717898 -0.614718 -0.775488 0.377715 -0.278133
internal_count=1899 1124 704 598 775 544 420 80 521 499 321 231 202 178 148 125 91 180 120 55 106 562 193 60 44 369 302 54 90 75
cat_boundaries=0 1 2 3 4
cat_threshold=19 2246 1 1289
shrinkage=0.1


Tree=21
num_leaves=31
num_cat=6
split_feature=3 2 7 4 0 1 5 0 5 0 5 7 5 4 0 0 5 5 6 7 7 5 5 7 5 0 5 0 5 5
split_gain=14.7512 6.86189 4.18839 4.09475 2.82607 2.78213 2.71234 2.69586 2.51367 3.67282 3.43354 3.02659 2.44824 3.00866 4.34458 3.55805 2.81872 2.8009 2.63295 2.56326 2.3298 2.21297 3.02696 1.94947 3.02984 1.9427 1.71061 1.64507 1.62595 1.5718
threshold=0 1 37.500000000000007 2 36.500000000000007 3 30576.635000000006 25.500000000000004 42014.215000000004 34.500000000000007 34265.095000000008 44.500000000000007 17560.805000000004 4 53.500000000000007 61.500000000000007 39080.670000000006 29426.910000000003 5 45.500000000000007 43.500000000000007 32411.935000000001 45803.650000000009 48.500000000000007 105490.27 41.500000000000007 63449.420000000006 41.500000000000007 49094.930000000008 52380.860000000008
decision_type=9 9 8 9 8 9 10 8 8 8 8 10 8 9 10 8 8 8 9 8 8 10 10 8 8 8 8 10 10 8
left_child=7 12 -3 8 29 21 -7 -1 10 -10 27 28 -2 15 17 16 -14 25 -18 -16 -8 -6 -23 26 -25 -15 -9 -4 -11 -5
right_child=1 2 3 4 5 6 20 23 9 11 -12 -13 13 14 19 -17 18 -19 -20 -21 -22 22 -24 24 -26 -27 -28 -29 -30 -31
leaf_value=-0.1012890379927473 0.075555159434498934 -0.075050045422137168 -0.017038013644543739 -0.036044291429427416 -0.076887131319987922 0.054414465821237684 0.017849666256317131 -0.11466703486539348 0.11139160962776773 -0.045016712549362042 -0.074868392443048201 0.070409348566681781 0.063163059026878382 -0.060965838339326485 0.0098909884151790889 -0.088310345161992862 -0.078973091657812994 0.04922506133825736 0.025610614670296069 -0.097857749192295423 -0.083010931641839314 0.043124122738060086 -0.063206447045797171 -0.0020328249780685857 -0.071903365930042359 0.033608161685984995 -0.058177936124545762 0.047836532374352862 0.029693359780513885 -0.093715961734655809
leaf_count=213 33 105 45 54 72 48 33 67 27 34 31 27 25 22 27 33 29 199 25 20 20 22 38 87 106 20 302 34 27 74
internal_value=0 -0.0509797 -0.197936 -0.149615 -0.290176 -0.19592 0.111464 -0.554206 0.0873766 0.337107 -0.133241 0.133172 0.156582 0.125388 0.223034 -0.169328 0.0191769 0.379983 -0.295584 -0.378392 -0.203762 -0.34684 -0.157715 -0.535138 -0.322347 -0.134435 -0.684612 0.117126 -0.155514 -0.659138
internal_count=1899 1124 691 586 361 233 101 775 225 115 110 88 433 400 288 112 79 241 54 47 53 132 60 562 193 42 369 79 61 128
cat_boundaries=0 1 2 3 4 5 6
cat_threshold=19 174 836 16 1794 2
shrinkage=0.1


Tree=22
num_leaves=31
num_cat=5
split_feature=3 4 0 2 7 0 0 0 6 5 0 7 5 5 6 7 0 0 5 7 7 5 5 5 0 0 5 7 0 5
split_gain=12.752 5.62856 3.07408 2.87037 3.4153 3.48346 3.27678 2.71182 2.57913 2.8131 2.86844 1.88797 4.36023 1.86242 4.46445 1.65524 1.60147 1.53392 2.0955 3.86503 1.99797 1.33863 8.10858 3.954 1.32515 2.47068 2.10714 1.79744 2.19162 3.41807
threshold=0 1 23.500000000000004 2 36.500000000000007 57.500000000000007 60.500000000000007 38.500000000000007 3 17560.805000000004 36.500000000000007 52.500000000000007 79535.470000000016 107044.76000000001 4 38.500000000000007 38.500000000000007 45.500000000000007 33232.515000000007 44.500000000000007 48.500000000000007 105490.27 88155.265000000014 96756.040000000023 53.500000000000007 47.500000000000007 44105.405000000006 40.500000000000007 38.500000000000007 33099.840000000004
decision_type=9 9 8 9 8 10 8 10 9 10 10 8 8 10 9 8 8 8 10 8 10 10 10 10 10 10 8 10 8 10
left_child=7 8 -3 24 6 13 -5 15 9 16 -11 -9 -13 14 -6 -1 -2 -16 20 -20 -19 22 -17 -24 25 27 -26 -4 -29 -30
right_child=1 2 3 4 5 -7 -8 11 -10 10 -12 12 -14 -15 17 21 -18 18 19 -21 -22 -23 23 -25 26 -27 -28 28 29 -31
leaf_value=-0.10794318578629303 -0.037140316809663405 -0.091259374942483193 0.0072343262104594191 -0.0084142937562710768 -0.13655078997027514 0.073524730794892579 -0.1287504271378698 -0.054181560430133724 -0.091300347896528591 -0.10610802924855828 -0.012600772252930515 0.075159602683188068 -0.060802315095609273 0.054371078562333225 -0.020807190469406208 -0.079280226697543102 0.058784631857230533 0.010457549633795617 0.045618284527583347 -0.062941082794097866 0.080456802551086587 -0.091870353285491244 0.16773906230227079 -0.011944192128765099 0.026985480163059128 0.089761590853112139 -0.054900202950964976 0.083166328272834933 -0.039373863162396057 0.066023129247986895
leaf_count=165 20 36 186 33 21 28 32 134 84 49 36 21 44 31 182 210 22 73 26 40 26 150 20 31 36 29 31 42 27 34
internal_value=0 -0.0467762 0.0304553 0.0510303 -0.0688856 -0.0128702 -0.659088 -0.522294 -0.382204 -0.300057 -0.575705 -0.331157 0.0219052 -0.0687947 -0.108045 -0.736842 0.200868 -0.0592785 0.0878132 -0.214529 0.284465 -0.633952 -0.503774 0.628247 0.180001 0.261546 -0.0913069 0.20131 0.43791 0.170075
internal_count=1899 1124 913 877 492 427 65 775 211 127 85 199 65 399 368 576 42 347 165 66 99 411 261 51 385 318 67 289 103 61
cat_boundaries=0 1 2 3 4 5
cat_threshold=19 1065 174 2 1
shrinkage=0.1


Tree=23
num_leaves=31
num_cat=5
split_feature=2 3 4 0 5 0 5 4 0 5 0 5 0 6 5 5 0 7 5 7 5 0 5 0 0 0 5 5 5 7
split_gain=11.3207 7.62998 4.78224 3.34731 3.17387 3.3041 2.97248 2.70984 4.92575 2.00386 2.69035 2.52953 2.8972 1.8379 1.65585 1.52486 1.47463 1.37031 1.31953 1.31278 1.30074 2.13911 2.04686 1.25221 2.14503 1.79121 2.60262 3.21983 1.05406 0.99592
threshold=0 1 2 26.500000000000004 62897.960000000006 49.500000000000007 52974.805000000008 3 47.500000000000007 128860.51500000001 27.500000000000004 111041.49500000001 43.500000000000007 4 50285.275000000001 49920.335000000006 42.500000000000007 37.500000000000007 122601.31000000001 32.500000000000007 36356.030000000006 45.500000000000007 34265.095000000008 37.500000000000007 31.500000000000004 49.500000000000007 28164.625000000004 23727.675000000003 32888.67500000001 57.000000000000007
decision_type=9 9 9 8 10 8 8 9 8 10 8 8 8 9 8 10 10 8 8 8 10 10 10 8 10 10 8 10 8 10
left_child=3 4 9 -1 7 -6 15 8 -2 10 -3 12 -12 16 -10 -4 18 -15 -5 -9 22 -22 23 24 -21 26 27 -25 -27 -19
right_child=1 2 6 13 5 -7 -8 19 14 -11 11 -13 -14 17 -16 -17 -18 29 -20 20 21 -23 -24 25 -26 28 -28 -29 -30 -31
leaf_value=-0.099958918797653007 -0.11597941971373001 -0.10841580419410342 -0.048063598510671518 -0.069097837531331557 0.081650754055851496 -0.027339275386976964 -0.082817814782236598 -0.063766543562465999 0.02065277654356543 -0.079263937431733197 0.064831030241229562 0.09908637068129561 -0.037179261943447776 -0.02213716653490589 -0.062082780322161635 0.035360465288664274 0.038812719265883228 0.04105906443891854 0.0084584791472960118 0.016112529509525641 -0.00048503030544457481 0.069144043244469364 -0.076455324111605868 0.023092486644270091 -0.065194386847371472 0.0074665540030165768 0.049707140755186202 -0.08554017171663944 -0.058808203699083884 -0.0054759347317840717
leaf_count=28 54 23 131 34 37 21 671 21 27 23 32 32 44 24 20 20 24 225 21 34 70 29 21 36 39 21 64 20 26 27
internal_value=0 -0.288605 -0.495023 0.166917 -0.084472 0.398253 -0.624418 -0.151881 -0.409172 0.0450739 0.18917 0.314134 0.0713613 0.23212 -0.139392 -0.371986 -0.105707 0.314017 -0.336084 -0.0323854 -0.00847467 0.201034 -0.0920123 -0.0347331 -0.297969 0.0624196 0.199755 -0.137181 -0.302262 0.361887
internal_count=1899 1516 976 383 540 58 822 482 101 154 131 108 76 355 47 151 79 276 55 381 360 99 261 240 73 167 120 56 47 252
cat_boundaries=0 1 2 3 4 5
cat_threshold=170 4 196 4169 1
shrinkage=0.1


Tree=24
num_leaves=31
num_cat=5
split_feature=2 3 4 4 0 7 6 0 7 5 0 5 5 0 7 0 5 7 5 0 0 5 5 0 5 0 5 5 7 5
split_gain=10.6108 7.72007 3.06822 2.79814 3.8599 4.17609 2.62616 2.26175 2.10113 2.03821 1.93037 1.89739 4.27587 1.87688 1.82333 2.34285 2.28804 1.82153 3.45187 2.1543 3.53404 2.03995 1.92963 1.93906 2.54933 1.68063 2.79477 2.71909 2.79398 2.63917
threshold=0 1 2 3 31.500000000000004 40.500000000000007 4 37.500000000000007 57.000000000000007 174577.87500000003 27.500000000000004 106221.48000000001 98697.645000000004 62.500000000000007 40.500000000000007 32.500000000000007 74290.190000000017 67.500000000000014 22990.930000000004 45.500000000000007 31.500000000000004 44393.19000000001 20551.335000000003 37.500000000000007 35933.035000000011 34.500000000000007 25763.415000000005 29045.955000000005 55.500000000000007 34265.095000000008
decision_type=9 9 9 9 10 8 9 10 10 10 8 8 8 10 10 10 10 8 10 10 8 8 8 8 8 8 10 10 8 10
left_child=3 11 9 4 -1 -6 -4 14 -9 25 -8 12 -2 17 15 16 -5 19 -19 20 -12 -20 -22 -24 -25 26 -3 28 -27 -29
right_child=1 2 6 7 5 -7 10 8 -10 -11 13 -13 -14 -15 -16 -17 -18 18 21 -21 22 -23 23 24 -26 27 -28 29 -30 -31
leaf_value=-0.076324582097903479 -0.072135516305322944 0.04143526498031988 -0.077282371575338293 -0.011203582808715074 -0.058977366905289291 0.073945625072392163 -0.075011421369559766 0.020298506517250594 -0.060238793067837415 0.080247240660314578 0.030631622661601132 -0.098866267962284468 0.079279673623162128 -0.09555866136469103 0.088616464112585031 0.095137237147742082 0.078607839439885488 -0.045345195645423136 0.084266180848744154 0.0039078710394731056 0.007109760286501292 -0.0016526079659692451 -0.11546060269390079 -0.097041700215812335 -0.020489236677471909 0.0035732334797951171 -0.071581063027423272 0.099565893633681124 -0.080383706051195838 0.015047586676900291
leaf_count=53 208 21 94 62 23 28 67 146 20 20 39 345 24 22 48 23 31 33 29 92 22 29 39 38 71 79 46 24 27 96
internal_value=0 -0.281781 -0.147117 0.14847 -0.156348 0.178082 -0.256828 0.249978 0.106732 0.0382929 -0.225566 -0.635359 -0.562815 -0.179747 0.501424 0.328958 0.130568 -0.146996 0.131475 -0.23929 -0.384676 0.465975 -0.530937 -0.642 -0.486743 -0.00205254 -0.366497 0.0835717 -0.172694 0.326868
internal_count=1899 1465 888 434 104 51 575 330 166 313 481 577 232 414 164 116 93 392 91 301 209 58 170 148 109 293 67 226 106 120
cat_boundaries=0 1 2 3 4 5
cat_threshold=171 3 390 2818 1
shrinkage=0.1


Tree=25
num_leaves=31
num_cat=3
split_feature=3 2 5 0 0 7 0 5 0 0 5 0 0 5 5 5 6 7 5 0 0 5 0 5 0 7 5 5 0 7
split_gain=8.91452 4.51385 3.90011 3.46182 2.68271 2.31076 5.25394 3.00191 3.50524 3.03624 2.27374 1.90875 1.86925 1.85818 1.82851 2.88365 4.01983 2.35898 1.96869 3.00951 2.44058 1.82482 2.79172 1.74326 1.71899 1.79548 3.70279 2.28764 1.46731 1.40371
threshold=0 1 29198.300000000007 23.500000000000004 25.500000000000004 37.500000000000007 30.500000000000004 40944.540000000001 40.500000000000007 44.500000000000007 68187.335000000006 44.500000000000007 53.500000000000007 20551.335000000003 21522.910000000003 36356.030000000006 2 40.500000000000007 30316.580000000005 41.500000000000007 50.500000000000007 43286.670000000006 29.500000000000004 33488.780000000006 56.500000000000007 48.500000000000007 107044.76000000001 63449.420000000006 35.500000000000007 36.500000000000007
decision_type=9 9 8 8 8 10 8 8 8 8 8 10 10 10 8 8 9 10 10 10 8 8 8 8 10 8 10 10 10 8
left_child=4 2 11 -3 -1 6 -5 9 -9 -8 -10 13 -11 -2 17 16 18 -7 19 -16 -20 28 -23 -4 25 27 -27 -6 -17 -12
right_child=1 3 23 5 24 14 7 8 10 12 29 -13 -14 -15 15 21 -18 -19 20 -21 -22 22 -24 -25 -26 26 -28 -29 -30 -31
leaf_value=-0.096699465835261816 -0.0039461166096592453 -0.11235618512406487 0.038340645596002906 -0.11441494396123381 -0.10225835687372097 0.015433586218982177 -0.019755121291417793 0.034343904557994284 -0.10593428498659747 0.099265802371727482 0.019680911029238253 -0.13031843477366464 0.011200350856552075 -0.10406276786759948 -0.055226293434968238 0.026648965385065428 0.06827253432937995 0.11072122185753377 -0.014277757312887045 0.053776083888525256 -0.11973498865079218 0.09062508079156685 0.010376995258366464 -0.022430972595042013 0.027800269677409169 -0.0052312910630241448 -0.11213325117798117 -0.042523449446514185 0.11106436178975927 -0.054019725859330459
leaf_count=213 25 32 30 31 128 28 32 43 28 36 31 25 20 22 28 20 23 23 22 23 24 30 238 256 28 132 51 223 21 33
internal_value=0 -0.0310969 -0.244448 0.0677496 -0.44548 0.0934326 -0.094717 0.0186084 -0.217164 0.337936 -0.489765 -0.792329 0.672745 -0.482716 0.183285 0.132886 -0.161873 0.575474 -0.363334 -0.0651617 -0.709472 0.252231 0.180535 -0.152932 -0.422209 -0.468623 -0.250613 -0.634653 0.688442 -0.231093
internal_count=1899 1124 358 766 775 734 254 223 135 88 92 72 56 47 480 429 120 51 97 51 46 309 268 286 562 534 183 351 41 64
cat_boundaries=0 1 2 3
cat_threshold=19 58384 2
shrinkage=0.1


Tree=26
num_leaves=31
num_cat=5
split_feature=2 3 4 6 1 7 7 5 0 5 7 5 5 5 7 5 0 0 0 7 5 0 0 5 7 5 0 5 7 7
split_gain=8.49813 6.30176 2.58322 2.31544 2.006 2.64254 2.09609 4.81636 2.26337 1.98353 2.09136 2.47702 1.97846 3.69131 1.9237 3.10909 1.90436 1.67261 1.57929 1.64753 2.74834 1.82652 2.83821 1.57037 1.52536 1.47572 1.86934 2.10924 1.46988 2.36461
threshold=0 1 2 3 4 53.500000000000007 40.500000000000007 76662.580000000002 40.500000000000007 49094.930000000008 48.500000000000007 153245.12500000003 106221.48000000001 98697.645000000004 37.500000000000007 17560.805000000004 58.500000000000007 27.500000000000004 62.500000000000007 67.500000000000014 22990.930000000004 45.500000000000007 31.500000000000004 174577.87500000003 48.500000000000007 20551.335000000003 37.500000000000007 35933.035000000011 37.500000000000007 18.500000000000004
decision_type=9 9 9 9 9 10 8 10 10 10 10 10 8 10 10 10 8 8 10 8 10 10 8 10 8 8 8 8 10 10
left_child=4 12 23 24 5 6 7 8 -1 14 11 -11 13 -2 15 -6 -16 -5 19 21 -21 22 -19 28 -4 -24 -27 -28 29 -3
right_child=1 2 3 17 9 -7 -8 -9 -10 10 -12 -13 -14 -15 16 -17 -18 18 -20 20 -22 -23 25 -25 -26 26 27 -29 -30 -31
leaf_value=-0.054355513004915881 -0.066734600980400183 -0.0040918192003420329 -0.10419814698030445 -0.070756847608770809 -0.085843774525514394 -0.045077827045158399 0.067861410098529695 0.10293963851257425 0.040594144739020385 -0.085840083192540897 0.035563508658446347 0.016450472142666244 -0.096377015213834974 0.072792557514250109 0.0099409194187041194 0.032583395712339425 0.087489662864104048 0.025815289158259341 -0.089762818654250495 -0.039347625167841127 0.043490977615225024 0.0040002370124169575 0.0036745063396001138 0.071454742805288574 -0.020359642443299915 -0.11126668787947092 -0.088842571066658119 -0.01819270733920297 0.01115506033676592 -0.098075147087958101
leaf_count=43 208 66 61 67 22 20 100 32 21 54 20 20 345 24 52 25 25 39 22 33 58 92 22 20 33 39 38 71 198 29
internal_value=0 -0.247434 -0.128004 -0.230002 0.141125 0.285809 0.449695 0.177644 -0.190025 -0.0336218 -0.332061 -0.542199 -0.583241 -0.504411 0.141536 -0.220462 0.375245 -0.200396 -0.158403 -0.128948 0.137576 -0.217571 -0.353042 0.0412085 -0.728766 -0.488413 -0.588474 -0.437295 0.00678541 -0.256988
internal_count=1899 1465 888 575 434 216 196 96 64 218 94 74 577 232 124 47 77 481 414 392 91 301 209 313 94 170 148 109 293 95
cat_boundaries=0 1 2 3 4 5
cat_threshold=171 3 390 1 16
shrinkage=0.1


Tree=27
num_leaves=31
num_cat=4
split_feature=4 2 0 7 0 5 5 0 0 2 5 5 0 5 5 0 6 5 0 7 5 5 0 0 5 5 5 0 5 0
split_gain=7.30184 5.68266 4.54228 3.09874 2.77053 2.11792 2.09226 2.05564 1.98946 1.64228 3.50865 2.60381 3.47436 4.50871 2.2807 2.81873 2.14561 2.52169 2.28052 1.8745 2.41121 2.1326 4.67341 3.06561 2.48152 2.3758 1.66429 1.52995 1.47809 1.79192
threshold=0 1 36.500000000000007 35.500000000000007 42.500000000000007 79535.470000000016 122601.31000000001 44.500000000000007 25.500000000000004 2 99487.605000000025 29198.300000000007 49.500000000000007 23727.675000000003 34265.095000000008 67.500000000000014 3 19888.755000000001 38.500000000000007 98.500000000000014 71603.740000000005 100253.60000000002 43.500000000000007 42.500000000000007 36356.030000000006 46007.790000000008 29045.955000000005 44.500000000000007 186992.03500000003 37.500000000000007
decision_type=9 9 8 8 8 10 8 10 8 9 10 10 10 10 10 8 9 8 10 8 8 10 8 8 8 10 10 10 10 10
left_child=2 8 -1 4 -3 -4 -7 -8 -2 10 11 12 13 16 -13 -16 17 -5 -19 21 -21 23 -23 26 -25 -26 -11 -6 29 -10
right_child=1 3 5 9 27 6 7 -9 28 19 -12 14 -14 -15 15 -17 -18 18 -20 20 -22 22 -24 24 25 -27 -28 -29 -30 -31
leaf_value=-0.078398481504368581 -0.10732010985322725 -0.11702494269017345 -0.012189061547901238 -0.044851868818938323 0.046767564721806668 -0.12344321314718538 -0.079042177917581835 0.023773694504434853 0.041141120415810223 0.022255574916012408 -0.093844457378080254 0.063372028208506223 -0.1215639715685246 -0.11511444892863121 0.011800423037301715 -0.068279628536631096 -0.063943988105549507 0.0026593397415822866 0.10193895795909561 0.0077839794037193868 -0.091511140951566289 0.17572674997691795 -0.036662329947660117 -0.0041114492146634932 0.11304305595513245 0.0082489847623117962 -0.056761360627115558 -0.062455489424784488 0.089904589177711047 0.0069191424478211418
leaf_count=317 20 88 233 22 24 41 47 27 159 29 77 28 26 25 117 33 38 35 22 32 36 26 21 42 28 25 51 27 20 183
internal_value=0 -0.0106858 -0.377881 -0.140585 -0.66784 -0.24708 -0.616932 -0.324019 0.205183 -0.100868 -0.189093 -0.140513 -0.374272 -0.21315 0.0603423 -0.073011 0.0103148 0.200407 0.489547 0.0537914 -0.307073 0.180557 0.844576 0.084891 0.353545 0.715858 -0.30398 -0.148073 0.259007 0.223593
internal_count=1899 1234 665 852 139 348 115 74 382 713 423 346 168 142 178 150 117 79 57 290 68 222 47 175 95 53 80 51 362 342
cat_boundaries=0 1 2 3 4
cat_threshold=5163 171 32788 2
shrinkage=0.1


Tree=28
num_leaves=31
num_cat=5
split_feature=3 4 0 4 5 5 7 5 0 7 0 5 5 5 0 5 6 5 5 5 0 0 5 0 0 0 0 6 5 7
split_gain=6.40715 3.39032 2.4836 2.08434 3.16693 2.62744 2.24194 1.88134 1.73772 1.67064 2.13314 2.18531 1.62636 2.12445 1.61639 3.96717 1.5849 1.55658 1.52869 3.30838 3.63591 3.2639 2.20706 3.26351 2.42224 1.81302 1.46884 1.23352 2.94569 1.64743
threshold=0 1 25.500000000000004 2 139568.18500000003 42787.785000000011 35.500000000000007 16641.210000000003 53.500000000000007 40.500000000000007 28.500000000000004 16641.210000000003 48397.55000000001 27850.800000000003 44.500000000000007 99487.605000000025 3 194100.64500000005 47550.600000000006 36356.030000000006 30.500000000000004 36.500000000000007 93653.260000000024 31.500000000000004 40.500000000000007 54.500000000000007 44.500000000000007 4 23727.675000000003 34.500000000000007
decision_type=9 9 8 9 10 8 8 8 10 10 8 8 10 10 8 8 9 10 10 10 10 10 10 10 8 8 10 9 10 10
left_child=2 7 -1 17 5 -5 -7 -2 14 10 -3 -12 13 -11 -8 26 -9 -4 19 20 -13 -21 24 -24 -20 -26 -16 28 29 -22
right_child=1 9 3 4 -6 6 8 16 -10 12 11 18 -14 -15 15 -17 -18 -19 22 21 27 -23 23 -25 25 -27 -28 -29 -30 -31
leaf_value=-0.093432914554793522 0.044592239440723283 -0.053038763080730203 -0.09642238704524643 -0.092586317613112173 -0.088092716762869047 -0.10882916739473598 0.034673301025555249 -0.092609542297878517 0.098393010698815245 0.036887703287418784 -0.049871876823579728 0.058786552823920694 0.058251407903740816 -0.01409530280466896 0.09075860410765077 -0.11247714515662931 -0.023367352837109685 0.0040559297429895716 0.032143029256261543 0.003103361991666049 -0.03168247178223451 0.11801980807292881 -0.043780644693717619 0.062723876329556214 -0.11566708926446637 -0.028381294157635979 -0.017587988067244015 0.027950085038682754 -0.060445344317562655 0.042890044918318666
leaf_count=213 22 61 207 24 59 25 115 44 20 90 35 50 59 76 21 41 329 28 20 20 26 30 30 43 20 36 22 36 60 37
internal_value=0 -0.0174233 -0.380396 -0.358025 -0.060488 0.0460068 0.1455 -0.197651 0.219219 0.0722139 -0.00105876 0.0444994 0.238756 0.129375 0.121521 -0.226472 -0.277572 -0.547564 0.0938927 0.196853 0.0643175 0.704311 -0.104981 0.206042 -0.383624 -0.639384 0.318525 -0.113735 -0.221509 0.115211
internal_count=1899 1124 775 562 327 268 244 395 219 729 504 443 225 166 199 84 373 235 408 259 209 50 149 73 76 56 43 159 123 63
cat_boundaries=0 1 2 3 4 5
cat_threshold=19 5417 5667 1 2
shrinkage=0.1


Tree=29
num_leaves=31
num_cat=5
split_feature=0 4 2 0 1 0 0 5 7 5 7 5 5 5 0 0 5 5 6 0 5 6 0 7 0 5 0 0 0 5
split_gain=5.62089 5.02391 3.77648 3.17212 2.08107 3.16274 2.08647 2.37804 1.97467 2.53359 1.66964 2.54414 2.41269 2.08532 2.26465 1.97998 2.74706 3.48037 1.7643 1.64371 1.95768 1.57517 1.71233 3.35988 1.46844 1.46269 2.8336 1.5198 1.37079 1.73834
threshold=23.500000000000004 0 1 36.500000000000007 2 40.500000000000007 51.500000000000007 47550.600000000006 5.5000000000000009 106221.48000000001 40.500000000000007 98697.645000000004 74290.190000000017 63449.420000000006 31.500000000000004 35.500000000000007 52678.370000000003 36865.170000000006 3 44.500000000000007 14885.470000000003 4 65.500000000000014 24.500000000000004 37.500000000000007 190381.52000000005 34.500000000000007 46.500000000000007 48.500000000000007 36356.030000000006
decision_type=8 9 9 8 9 8 10 10 10 8 10 10 8 8 8 10 10 10 9 10 10 9 8 10 8 8 8 8 8 10
left_child=-1 3 -3 8 5 -5 -7 -8 9 -2 12 15 13 14 -4 16 17 -12 24 20 -6 25 -23 -24 -16 -14 -27 -28 -26 -30
right_child=1 2 10 4 19 6 7 -9 -10 -11 11 -13 21 -15 18 -17 -18 -19 -20 -21 -22 22 23 -25 28 26 27 -29 29 -31
leaf_value=-0.086503357440710915 0.046745593141527472 0.01911829613838394 0.060678868232457883 0.032679763886995526 0.052133437974985111 -0.088080120246768645 0.025028790086652337 -0.092823815158000561 -0.090081260407744362 -0.11283638688951787 -0.041440869940202733 0.094595300958143336 -0.079980074863714862 0.071776404998721718 -0.086286932340567626 0.021904926688622296 -0.10729089855445795 0.068887180370295273 0.021348426396296402 0.041687668890439629 -0.042634117175929562 -0.090673685623753164 0.086191579210527794 -0.098071138205583733 0.013189649686442945 0.09601387088961863 -0.081522940236563271 0.0036287398958005559 -0.066052142072976494 -0.00072752031231254665
leaf_count=218 20 371 27 30 24 116 28 23 165 23 47 29 43 30 26 91 25 20 54 61 66 104 20 26 41 25 22 36 51 37
internal_value=0 -0.0774527 0.0167103 -0.298844 -0.204732 -0.332545 -0.636353 -0.206942 -0.708679 -0.118798 -0.0949635 0.0678284 -0.192757 -0.0477794 -0.10939 -0.00971257 -0.261813 -0.0544507 -0.186668 0.0753929 -0.155768 -0.424186 -0.672335 -0.123002 -0.306045 -0.194999 -0.0270328 -0.281754 -0.213341 -0.376155
internal_count=1899 1681 1125 556 348 197 167 51 208 43 754 212 542 266 236 183 92 67 209 151 90 276 150 46 155 126 83 58 129 88
cat_boundaries=0 1 2 3 4 5
cat_threshold=5163 171 16 2 2
shrinkage=0.1


Tree=30
num_leaves=31
num_cat=3
split_feature=3 2 5 0 7 7 0 5 0 5 5 0 5 7 0 5 0 0 0 7 5 2 0 0 5 5 7 0 5 5
split_gain=5.2239 3.12529 3.14144 2.36932 2.23537 1.90241 4.14428 2.39916 1.92491 2.31417 1.83053 1.54318 1.69826 1.63189 3.73284 2.09127 1.88564 2.60755 1.48805 1.393 1.33943 1.28239 1.75931 3.56529 1.27856 1.40138 1.45052 1.26946 1.44852 1.23633
threshold=0 1 29198.300000000007 23.500000000000004 35.500000000000007 37.500000000000007 31.500000000000004 16138.325000000003 39.500000000000007 44105.405000000006 33488.780000000006 56.500000000000007 116843.09000000001 37.500000000000007 37.500000000000007 47550.600000000006 30.500000000000004 26.500000000000004 29.500000000000004 44.500000000000007 67716.045000000027 2 51.500000000000007 44.500000000000007 148013.82500000004 48713.115000000005 45.500000000000007 42.500000000000007 20551.335000000003 27400.410000000003
decision_type=9 9 8 8 8 10 8 8 10 8 8 10 8 10 8 10 8 10 8 10 10 9 10 10 10 8 8 10 10 10
left_child=4 2 27 -3 -1 6 -5 -7 -8 29 -4 12 13 14 -6 -15 17 -17 19 -9 -18 22 23 -20 25 26 -12 28 -2 -10
right_child=1 3 10 5 11 7 8 18 9 -11 24 -13 -14 15 -16 16 20 -19 21 -21 -22 -23 -24 -25 -26 -27 -28 -29 -30 -31
leaf_value=-0.093173344034108971 0.0066977027907003123 -0.10875056353648314 0.043289784435910875 -0.09594727650978524 -0.078751896457912127 0.076602202641225733 0.024186705649382138 0.10646978787673717 -0.024430254239892389 -0.059882665274103332 -0.012419839571668076 0.036013828526995112 -0.063277575629144697 -0.097164772434124982 0.065213849878245897 -0.055924834773084721 0.014889116184351327 0.092837854659640506 -0.030506689989751687 0.016464225648069774 -0.065532997204224661 0.015715946512924784 -0.077609442497815262 0.072802800953966226 -0.078911104372153762 0.0004544602826830076 -0.087264010453939833 -0.10145748057460385 -0.091220902175385837 0.051920731384883005
leaf_count=171 22 31 32 35 36 32 116 20 21 51 35 27 269 53 33 43 30 30 64 21 83 288 21 21 33 180 21 34 21 25
internal_value=0 -0.00908983 -0.186289 0.0758208 -0.342723 0.0970426 -0.0794117 0.180287 0.0340202 -0.217816 -0.0987812 -0.327536 -0.375067 -0.225839 0.156513 -0.378455 -0.202074 0.313382 0.133741 0.57712 -0.439516 0.092572 -0.105059 -0.0171642 -0.174823 -0.122278 -0.425097 -0.676496 -0.360496 0.147462
internal_count=1899 1124 378 746 775 715 248 467 213 97 301 604 577 308 69 239 186 73 435 41 113 394 106 85 269 236 56 77 43 46
cat_boundaries=0 1 2 3
cat_threshold=19 58896 260
shrinkage=0.1



feature importances:
Income=326
Age=306
Hours=157
Occupation=37
Gender=37
Marital=33
Education=29
Employment=5

pandas_categorical:[["Consultant", "PSFederal", "PSLocal", "PSState", "Private", "SelfEmp", "Volunteer"], ["Associate", "Bachelor", "College", "Doctorate", "HSgrad", "Master", "Preschool", "Professional", "Vocational", "Yr10", "Yr11", "Yr12", "Yr1t4", "Yr5t6", "Yr7t8", "Yr9"], ["Absent", "Divorced", "Married", "Married-spouse-absent", "Unmarried", "Widowed"], ["Cleaner", "Clerical", "Executive", "Farming", "Home", "Machinist", "Professional", "Protective", "Repair", "Sales", "Service", "Support", "Transport"], ["Female", "Male"]]
