tree
version=v3
num_class=3
num_tree_per_iteration=3
label_index=0
max_feature_idx=3
objective=multiclass num_class:3
feature_names=Petal.Length Petal.Width Sepal.Length Sepal.Width
feature_infos=[1:6.9000000000000004] [0.10000000000000001:2.5] [4.2999999999999998:7.9000000000000004] [2:4.4000000000000004]
tree_sizes=423 615 424 636 736 739 636 739 738 640 738 640 639 735 742 641 738 642 645 738 642 638 735 744 646 741 748 737 736 640 642 735 738

Tree=0
num_leaves=3
num_cat=0
split_feature=0 0
split_gain=49.115 8.90108
threshold=2.4500000000000006 2.4500000000000006
decision_type=8 10
left_child=-1 -2
right_child=1 -3
leaf_value=-0.94861228531534847 -1.079257449525818 -1.1736122903444903
leaf_weight=16.444444566965103 13.77777788043022 36.444444715976715
leaf_count=37 31 82
internal_value=0 -0.49115
internal_weight=0 50.2222
internal_count=150 113
shrinkage=1


Tree=1
num_leaves=5
num_cat=0
split_feature=3 1 2 0
split_gain=17.3678 14.3607 3.85116 3.54249
threshold=2.9500000000000006 1.7000000000000004 5.5500000000000007 4.0500000000000007
decision_type=10 8 10 10
left_child=1 2 -1 -2
right_child=3 -3 -4 -5
leaf_value=-1.0386122873270054 -1.1736122903444903 -1.1270605651660472 -0.94861228531534847 -1.1082897082392558
leaf_weight=8.8888889551162737 20.888889044523239 12.888888984918593 10.222222298383711 13.77777788043022
leaf_count=20 47 29 23 31
internal_value=0 0.53125 1.0814 -0.490385
internal_weight=0 32 19.1111 34.6667
internal_count=150 72 43 78
shrinkage=1


Tree=2
num_leaves=3
num_cat=0
split_feature=1 0
split_gain=47.3684 7.43927
threshold=1.7000000000000004 4.9500000000000011
decision_type=10 8
left_child=1 -1
right_child=-2 -3
leaf_value=-1.1736122903444903 -0.94861228531534847 -1.0928430577699266
leaf_weight=33.33333358168602 16.00000011920929 17.33333346247673
leaf_count=75 36 39
internal_value=0 -0.473684
internal_weight=0 50.6667
internal_count=150 114
shrinkage=1


Tree=3
num_leaves=5
num_cat=0
split_feature=1 0 3 0
split_gain=42.4559 9.15389 0.345924 0.002349
threshold=0.50000000000000011 3.9500000000000006 3.0500000000000003 4.6500000000000012
decision_type=8 8 10 10
left_child=-1 -2 3 -3
right_child=1 2 -4 -5
leaf_value=0.13495278769769289 0.043128349278191258 -0.07372613012622227 -0.050287117107221682 -0.071996191548735988
leaf_weight=17.244085729122162 9.0993029773235303 15.701365411281587 8.6607384681701642 15.695104658603666
leaf_count=37 20 36 20 37
internal_value=0 -0.474133 -0.679806 -0.728613
internal_weight=0 49.1565 40.0572 31.3965
internal_count=150 113 93 73
shrinkage=0.1


Tree=4
num_leaves=6
num_cat=0
split_feature=3 1 0 2 0
split_gain=15.114 11.7681 3.22975 3.00933 8.02734e-05
threshold=2.9500000000000006 1.7000000000000004 4.0500000000000007 5.5500000000000007 1.2500000000000002
decision_type=10 8 10 10 10
left_child=1 3 4 -1 -2
right_child=2 -3 -4 -5 -6
leaf_value=0.054215244646931671 -0.072603580151520838 -0.026682786971198216 -0.0094557655453100502 0.13218892180610606 -0.072199305178049886
leaf_weight=9.1260472536087054 8.5738851428031939 12.689214468002318 13.747201621532438 10.815642744302748 11.498391866683958
leaf_count=20 20 29 31 23 27
internal_value=0 0.48601 -0.467973 0.965053 -0.72372
internal_weight=0 32.6309 33.8195 19.9417 20.0723
internal_count=150 72 78 43 47
shrinkage=0.1


Tree=5
num_leaves=6
num_cat=0
split_feature=0 1 0 2 0
split_gain=40.585 2.90887 1.6943 0.080679 0.00128201
threshold=4.7500000000000009 1.7000000000000004 5.3500000000000005 1.0000000180025095e-35 4.6500000000000012
decision_type=10 8 10 10 8
left_child=1 3 -2 -1 -5
right_child=2 -3 -4 4 -6
leaf_value=-0.061812619162478689 0.080102259751594351 -0.010757068165651605 0.13558074446007001 -0.072497747811873944 -0.074005894409403764
leaf_weight=8.6642929017543775 10.10101839900017 10.985889256000517 12.097734540700911 15.827489227056505 8.7538418471813184
leaf_count=20 22 25 26 37 20
internal_value=0 -0.553685 1.10337 -0.701102 -0.730348
internal_weight=0 44.2315 22.1988 33.2456 24.5813
internal_count=150 102 48 77 57
shrinkage=0.1


Tree=6
num_leaves=5
num_cat=0
split_feature=1 0 3 0
split_gain=35.6398 8.22349 0.359794 0.00632768
threshold=0.50000000000000011 3.9500000000000006 3.4500000000000006 4.7500000000000009
decision_type=8 8 8 10
left_child=-1 -2 3 -3
right_child=1 2 -4 -5
leaf_value=0.11988188697045171 0.039360490330561729 -0.072528249952804769 -0.0482121202756019 -0.069597388278516165
leaf_weight=17.967369645833969 9.2401936054229719 14.519056379795076 9.0153914391994459 14.952812552452086
leaf_count=37 20 34 22 37
internal_value=0 -0.453548 -0.656937 -0.710413
internal_weight=0 47.7275 38.4873 29.4719
internal_count=150 113 93 71
shrinkage=0.1


Tree=7
num_leaves=6
num_cat=0
split_feature=3 0 0 0 0
split_gain=13.0968 10.2363 5.15448 3.05731 0.000315101
threshold=2.9500000000000006 4.8500000000000005 2.4500000000000006 4.0500000000000007 1.6500000000000001
decision_type=10 10 10 10 8
left_child=1 2 -1 4 -2
right_child=3 -3 -4 -5 -6
leaf_value=0.024128213328999022 -0.069847682003943062 -0.042674000533454999 0.11932720290703183 -0.0082807212183649958 -0.070664896604363273
leaf_weight=9.6710262596607226 10.982852041721346 9.5512908995151502 13.807753801345823 13.612215369939802 8.2717559337615949
leaf_count=21 27 22 29 31 20
internal_value=0 0.446076 0.801143 -0.445546 -0.701988
internal_weight=0 33.0301 23.4788 32.8668 19.2546
internal_count=150 72 50 78 47
shrinkage=0.1


Tree=8
num_leaves=6
num_cat=0
split_feature=0 1 3 2 0
split_gain=35.0133 4.82964 0.240402 0.0811065 0.00216644
threshold=4.9500000000000011 1.7000000000000004 3.0500000000000003 1.0000000180025095e-35 4.0500000000000007
decision_type=10 8 8 10 8
left_child=1 3 -2 -1 -5
right_child=2 -3 -4 4 -6
leaf_value=-0.059282892294107097 0.10242023318590542 0.0025702877307944606 0.12478514372549937 -0.069621616058142377 -0.071525495716276241
leaf_weight=8.3481978476047498 9.6325087547302264 13.901741862297056 9.5924472808837873 10.51260417699814 13.852353900671003
leaf_count=20 20 31 20 26 33
internal_value=0 -0.468064 1.13579 -0.677894 -0.70704
internal_weight=0 46.6149 19.225 32.7132 24.365
internal_count=150 110 40 79 59
shrinkage=0.1


Tree=9
num_leaves=5
num_cat=0
split_feature=0 0 0 1
split_gain=30.8266 6.90449 0.0091961 0.000368576
threshold=2.4500000000000006 2.4500000000000006 4.7500000000000009 1.8500000000000003
decision_type=8 10 10 10
left_child=-1 -2 -3 -4
right_child=1 2 3 -5
leaf_value=0.10958683602140817 0.015367539409684706 -0.070892587671638405 -0.067954467014118211 -0.067059015310808559
leaf_weight=18.305393159389496 13.85813784599304 14.021108567714689 8.9238272309303301 9.4796044826507551
leaf_count=37 31 34 23 25
internal_value=0 -0.437126 -0.689632 -0.674932
internal_weight=0 46.2827 32.4245 18.4034
internal_count=150 113 82 48
shrinkage=0.1


Tree=10
num_leaves=6
num_cat=0
split_feature=3 1 0 2 1
split_gain=11.4087 8.64277 2.88462 2.12549 0.000777303
threshold=2.9500000000000006 1.7000000000000004 4.0500000000000007 5.5500000000000007 0.35000000000000003
decision_type=10 8 10 10 8
left_child=1 3 4 -1 -2
right_child=2 -3 -4 -5 -6
leaf_value=0.045512669561814656 -0.067692614698015019 -0.024816899408390727 -0.0073724010009052323 0.10972960799136705 -0.069004725623375091
leaf_weight=9.4190768897533435 10.421732902526861 12.401591718196867 13.488039582967756 11.383097589015959 7.965914011001586
leaf_count=20 27 29 31 23 20
internal_value=0 0.412598 -0.424963 0.806526 -0.68261
internal_weight=0 33.2038 31.8757 20.8022 18.3876
internal_count=150 72 78 43 47
shrinkage=0.1


Tree=11
num_leaves=5
num_cat=0
split_feature=1 0 1 1
split_gain=30.8871 6.18466 0.015676 0.000634684
threshold=1.7000000000000004 4.9500000000000011 1.4500000000000002 0.50000000000000011
decision_type=10 8 8 10
left_child=1 2 3 -1
right_child=-2 -3 -4 -5
leaf_value=-0.067267179522115639 0.11243952161206423 0.0056634349362721173 -0.07247842389391479 -0.068455277467833683
leaf_weight=9.9076274633407646 17.755368202924728 17.115998476743698 11.887975513935087 8.2322128415107709
leaf_count=26 36 39 28 21
internal_value=0 -0.423106 -0.69656 -0.678064
internal_weight=0 47.1438 30.0278 18.1398
internal_count=150 114 75 47
shrinkage=0.1


Tree=12
num_leaves=5
num_cat=0
split_feature=0 1 1 2
split_gain=27.1767 6.14908 0.0114764 0.00331424
threshold=2.4500000000000006 0.50000000000000011 1.5500000000000003 5.7500000000000009
decision_type=10 8 10 10
left_child=1 -1 3 -2
right_child=2 -3 -4 -5
leaf_value=0.1017509097954845 -0.070403250195192876 0.013543353648940704 -0.065064612395589957 -0.067695888971950002
leaf_weight=18.384828805923462 8.5715317726135307 13.862020045518873 12.800386250019072 9.5697525739669782
leaf_count=37 21 31 36 25
internal_value=0 0.638329 -0.673573 -0.689751
internal_weight=0 32.2468 30.9417 18.1413
internal_count=150 68 82 46
shrinkage=0.1


Tree=13
num_leaves=6
num_cat=0
split_feature=3 0 0 0 0
split_gain=10.0149 7.64458 3.84535 2.678 0.000870834
threshold=2.9500000000000006 4.8500000000000005 2.4500000000000006 4.0500000000000007 1.2500000000000002
decision_type=10 10 10 10 10
left_child=1 2 -1 4 -2
right_child=3 -3 -4 -5 -6
leaf_value=0.01978758673853824 -0.067258605768827751 -0.039477987502498202 0.10124114599672843 -0.0070307448006779703 -0.065834561079608209
leaf_weight=9.7714198827743548 7.6092678308487001 9.1113132536411268 14.245275110006331 13.403403431177138 9.8570271730422956
leaf_count=21 20 22 29 31 27
internal_value=0 0.385132 0.68101 -0.406534 -0.66455
internal_weight=0 33.128 24.0167 30.8697 17.4663
internal_count=150 72 50 78 47
shrinkage=0.1


Tree=14
num_leaves=6
num_cat=0
split_feature=0 0 0 1 1
split_gain=27.0833 2.61125 1.08314 0.0119137 0.00108713
threshold=4.7500000000000009 1.0000000180025095e-35 5.3500000000000005 1.4500000000000002 0.50000000000000011
decision_type=10 10 10 8 8
left_child=1 -1 -2 4 -3
right_child=2 3 -4 -5 -6
leaf_value=-0.013387403127183227 0.061586048581945045 -0.06528654099565212 0.1047151564718125 -0.070344475995386541 -0.066904753672497194
leaf_weight=13.216297298669813 10.592749416828157 9.3043267726898247 12.931639194488524 10.174951076507567 7.496369093656539
leaf_count=31 22 26 26 25 20
internal_value=0 -0.498029 0.852946 -0.67644 -0.660086
internal_weight=0 40.1919 23.5244 26.9756 16.8007
internal_count=150 102 48 71 46
shrinkage=0.1


Tree=15
num_leaves=5
num_cat=0
split_feature=0 1 1 2
split_gain=23.7396 5.48634 0.0103538 0.00274866
threshold=2.4500000000000006 0.50000000000000011 1.5500000000000003 5.7500000000000009
decision_type=10 8 10 10
left_child=1 -1 3 -2
right_child=2 -3 -4 -5
leaf_value=0.094685937512934151 -0.068602925172207257 0.011402290275414491 -0.063456024162754546 -0.066078540759434493
leaf_weight=18.282052218914032 8.2155000269413048 13.941645622253416 12.013979285955427 9.0810380280017835
leaf_count=37 21 31 36 25
internal_value=0 0.586531 -0.657112 -0.672776
internal_weight=0 32.2237 29.3105 17.2965
internal_count=150 68 82 46
shrinkage=0.1


Tree=16
num_leaves=6
num_cat=0
split_feature=3 1 0 2 1
split_gain=8.76896 6.66569 2.54576 1.8144 0.00145633
threshold=2.9500000000000006 1.7000000000000004 4.0500000000000007 5.5500000000000007 0.35000000000000003
decision_type=10 8 10 10 8
left_child=1 3 4 -1 -2
right_child=2 -3 -4 -5 -6
leaf_value=0.038027783175742701 -0.064108385941354304 -0.023296740445574175 -0.0061471983126948158 0.097197905630599504 -0.065996178240847345
leaf_weight=9.5352776348590869 9.2599665224552208 12.014915376901625 13.253618836402891 11.352203994989393 7.3144436478614798
leaf_count=20 27 29 31 23 20
internal_value=0 0.360493 -0.388172 0.701863 -0.649415
internal_weight=0 32.9024 29.828 20.8875 16.5744
internal_count=150 72 78 43 47
shrinkage=0.1


Tree=17
num_leaves=5
num_cat=0
split_feature=1 0 1 1
split_gain=24.1752 5.35743 0.0206193 0.00160524
threshold=1.7000000000000004 4.9500000000000011 1.4500000000000002 0.50000000000000011
decision_type=10 8 8 8
left_child=1 2 3 -1
right_child=-2 -3 -4 -5
leaf_value=-0.063564888982626994 0.098195871476792457 0.0046911531604152991 -0.070067474233074203 -0.065560138332384749
leaf_weight=8.7052504122257286 17.911679059267044 16.993315786123276 11.203843921422957 7.5115379989147177
leaf_count=26 36 39 28 21
internal_value=0 -0.394271 -0.667684 -0.644891
internal_weight=0 44.4139 27.4206 16.2168
internal_count=150 114 75 47
shrinkage=0.1


Tree=18
num_leaves=5
num_cat=0
split_feature=0 0 1 2
split_gain=21.1818 4.97865 0.012377 0.00255537
threshold=2.4500000000000006 1.0000000180025095e-35 1.5500000000000003 5.7500000000000009
decision_type=10 10 10 10
left_child=1 -1 3 -2
right_child=2 -3 -4 -5
leaf_value=0.0098882091354004931 -0.067513214983212055 0.089602645731871988 -0.061916241364265094 -0.065033875454471854
leaf_weight=13.872960418462755 7.9609681665897432 18.001787155866623 11.169436961412428 8.6998828053474409
leaf_count=31 21 37 36 25
internal_value=0 0.549082 -0.644919 -0.662186
internal_weight=0 31.8747 27.8303 16.6609
internal_count=150 68 82 46
shrinkage=0.1


Tree=19
num_leaves=6
num_cat=0
split_feature=1 1 0 2 3
split_gain=8.09865 15.8146 4.7007 0.826389 0.00825641
threshold=1.7000000000000004 0.50000000000000011 1.5500000000000003 6.2500000000000009 3.2500000000000004
decision_type=10 10 10 8 10
left_child=1 2 4 -3 -1
right_child=-2 3 -4 -5 -6
leaf_value=-0.067830333830020587 -0.067337928391055638 0.098887482405484964 0.024548087217891403 0.0601677428407894 -0.063347968897793552
leaf_weight=8.5275301039218956 13.665947556495665 12.255600720643999 8.8971561789512617 10.017761796712874 7.9315850734710684
leaf_count=23 36 25 21 21 24
internal_value=0 0.199919 -0.340139 0.814727 -0.656703
internal_weight=0 47.6296 25.3563 22.2734 16.4591
internal_count=150 114 68 46 47
shrinkage=0.1


Tree=20
num_leaves=5
num_cat=0
split_feature=1 0 1 1
split_gain=21.306 5.15448 0.0225191 0.00207873
threshold=1.7000000000000004 4.9500000000000011 1.4500000000000002 0.50000000000000011
decision_type=10 8 8 10
left_child=1 2 3 -1
right_child=-2 -3 -4 -5
leaf_value=-0.062046514105211482 0.092306182625425892 0.0053130059393578554 -0.069093332755395476 -0.064384505828784452
leaf_weight=8.1083149015903491 17.773393571376801 16.832967281341553 10.900503307580946 7.1618232429027548
leaf_count=26 36 39 28 21
internal_value=0 -0.378555 -0.656214 -0.631431
internal_weight=0 43.0036 26.1706 15.2701
internal_count=150 114 75 47
shrinkage=0.1


Tree=21
num_leaves=5
num_cat=0
split_feature=1 0 3 0
split_gain=18.9026 5.74424 0.438875 0.0281044
threshold=0.50000000000000011 3.9500000000000006 3.4500000000000006 4.7500000000000009
decision_type=8 8 8 10
left_child=-1 -2 3 -3
right_child=1 2 -4 -5
leaf_value=0.085584603326088457 0.032656760899870317 -0.068468267553408096 -0.037186624843152653 -0.061614171495455353
leaf_weight=17.608141660690308 8.8001255691051465 12.896747678518301 7.2267576158046714 11.158410310745237
leaf_count=37 20 34 22 37
internal_value=0 -0.387178 -0.587967 -0.652889
internal_weight=0 40.082 31.2819 24.0552
internal_count=150 113 93 71
shrinkage=0.1


Tree=22
num_leaves=6
num_cat=0
split_feature=3 1 2 0 3
split_gain=7.17357 10.5416 4.80642 0.454777 0.100963
threshold=3.0500000000000003 1.7000000000000004 5.0500000000000007 4.8500000000000005 2.5500000000000003
decision_type=10 10 10 8 10
left_child=1 2 -1 -2 -4
right_child=3 -3 4 -5 -6
leaf_value=-0.0069376013079533441 -0.035454682102637865 -0.065265388693050416 0.07218418207027677 -0.066516687125508386 0.085925554425090561
leaf_weight=9.261105805635454 9.8343187868595141 9.9356899857521039 10.344731628894808 9.0519118309020978 11.067286878824232
leaf_count=22 30 28 22 25 23
internal_value=0 0.242554 0.532531 -0.503423 0.792867
internal_weight=0 40.6088 30.6731 18.8862 21.412
internal_count=150 95 67 55 45
shrinkage=0.1


Tree=23
num_leaves=6
num_cat=0
split_feature=0 1 3 2 0
split_gain=18.8175 3.48415 0.259612 0.0934536 0.0111374
threshold=4.9500000000000011 1.7000000000000004 3.0500000000000003 1.0000000180025095e-35 4.0500000000000007
decision_type=10 8 8 10 8
left_child=1 3 -2 -1 -5
right_child=2 -3 -4 4 -6
leaf_value=-0.050422558478265225 0.069312239738356804 0.0023979653068392625 0.092466035053589357 -0.061057197667682028 -0.065955562368079354
leaf_weight=6.824224621057513 9.6577033102512377 13.256507754325865 9.7129400968551618 7.6616079211235073 11.776329845190046
leaf_count=20 20 31 20 26 33
internal_value=0 -0.393945 0.809221 -0.604903 -0.640248
internal_weight=0 39.5187 19.3706 26.2622 19.4379
internal_count=150 110 40 79 59
shrinkage=0.1


Tree=24
num_leaves=5
num_cat=0
split_feature=0 0 1 2
split_gain=17.2777 3.96793 0.0105684 0.00231232
threshold=2.4500000000000006 1.0000000180025095e-35 1.5500000000000003 5.7500000000000009
decision_type=10 10 10 10
left_child=1 -1 3 -2
right_child=2 -3 -4 -5
leaf_value=0.0090717812821231834 -0.065266343878995048 0.081541735122248327 -0.059788238510183181 -0.062800350920777903
leaf_weight=13.507361173629763 7.3744791746139544 17.145314037799835 9.8277195394039136 7.8502261638641357
leaf_count=31 21 37 36 25
internal_value=0 0.496072 -0.623446 -0.639948
internal_weight=0 30.6527 25.0524 15.2247
internal_count=150 68 82 46
shrinkage=0.1


Tree=25
num_leaves=6
num_cat=0
split_feature=1 1 0 2 3
split_gain=6.40806 12.3131 4.11833 0.683864 0.00839195
threshold=1.7000000000000004 0.50000000000000011 1.5500000000000003 6.2500000000000009 3.2500000000000004
decision_type=10 10 10 8 10
left_child=1 2 4 -3 -1
right_child=-2 3 -4 -5 -6
leaf_value=-0.065923849878180549 -0.063907452468304052 0.088275772316294313 0.022413799954947272 0.052692720473548095 -0.061187688347376701
leaf_weight=7.9189242422580737 12.130728513002394 11.936375141143801 8.8194974362850171 9.8649148344993574 7.0914613008499146
leaf_count=23 36 25 21 21 24
internal_value=0 0.178655 -0.318205 0.721747 -0.636863
internal_weight=0 45.6312 23.8299 21.8013 15.0104
internal_count=150 114 68 46 47
shrinkage=0.1


Tree=26
num_leaves=6
num_cat=0
split_feature=0 0 0 1 1
split_gain=16.5147 2.20486 0.825211 0.0154594 0.00156065
threshold=4.7500000000000009 1.0000000180025095e-35 5.3500000000000005 1.4500000000000002 0.50000000000000011
decision_type=10 10 10 8 10
left_child=1 -1 -2 4 -3
right_child=2 3 -4 -5 -6
leaf_value=-0.010078920285543979 0.045624573252627976 -0.059518438767549975 0.084038433375679816 -0.065947358995902053 -0.061718226016762481
leaf_weight=12.488170146942137 10.27527377009392 6.9634721726179141 12.270428180694578 8.9100156128406507 6.0074449479579926
leaf_count=31 22 26 26 25 20
internal_value=0 -0.436055 0.665312 -0.627403 -0.605373
internal_weight=0 34.3691 22.5457 21.8809 12.9709
internal_count=150 102 48 71 46
shrinkage=0.1


Tree=27
num_leaves=6
num_cat=0
split_feature=1 2 3 3 0
split_gain=15.4217 6.75583 0.163024 0.0843151 0.0174024
threshold=0.50000000000000011 5.4500000000000011 3.4500000000000006 3.4500000000000006 4.7500000000000009
decision_type=10 10 8 8 10
left_child=1 2 -1 4 -2
right_child=3 -3 -4 -5 -6
leaf_value=0.069825318937823955 -0.06518523500318367 -0.031602840520704223 0.087463471766053388 -0.049107359543801896 -0.05891160943432612
leaf_weight=11.984908550977712 10.965002804994588 7.7304342091083518 9.3114119768142682 6.1247331947088233 7.4092197567224494
leaf_count=27 32 21 20 21 29
internal_value=0 0.48471 0.775373 -0.592684 -0.626555
internal_weight=0 29.0268 21.2963 24.499 18.3742
internal_count=150 68 47 82 61
shrinkage=0.1


Tree=28
num_leaves=6
num_cat=0
split_feature=3 1 2 2 3
split_gain=5.78206 8.34293 3.81681 0.447402 0.0635785
threshold=3.0500000000000003 1.7000000000000004 5.0500000000000007 5.4500000000000011 2.5500000000000003
decision_type=10 10 10 10 10
left_child=1 2 -1 -2 -4
right_child=3 -3 4 -5 -6
leaf_value=-0.0068563276797834419 -0.061007086115040576 -0.062671647862690347 0.065519182524021211 -0.028269866311288264 0.076603634136988896
leaf_weight=8.9411748349666613 10.059378027915956 8.8906543552875501 9.913196265697481 7.1359962224960318 10.82558813691139
leaf_count=22 35 28 22 20 23
internal_value=0 0.223042 0.477588 -0.474213 0.713052
internal_weight=0 38.5706 29.68 17.1954 20.7388
internal_count=150 95 67 55 45
shrinkage=0.1


Tree=29
num_leaves=5
num_cat=0
split_feature=1 0 1 1
split_gain=14.6221 4.33139 0.0242371 0.0015559
threshold=1.7000000000000004 4.9500000000000011 1.4500000000000002 0.50000000000000011
decision_type=10 8 8 10
left_child=1 2 3 -1
right_child=-2 -3 -4 -5
leaf_value=-0.058486013014361161 0.078993336679943668 0.0054052928279862593 -0.066224137306786085 -0.060729898556882669
leaf_weight=6.43110039830208 16.422840267419815 16.300408005714417 9.7824038416147214 5.9483727961778641
leaf_count=26 36 39 28 21
internal_value=0 -0.337238 -0.625039 -0.595642
internal_weight=0 38.4623 22.1619 12.3795
internal_count=150 114 75 47
shrinkage=0.1


Tree=30
num_leaves=5
num_cat=0
split_feature=0 1 1 2
split_gain=14.0098 3.49473 0.00837707 0.00121965
threshold=2.4500000000000006 0.50000000000000011 1.5500000000000003 5.7500000000000009
decision_type=10 8 10 10
left_child=1 -1 3 -2
right_child=2 -3 -4 -5
leaf_value=0.076165250280390451 -0.06297072075866017 0.0064307353908613016 -0.058016216138915715 -0.061087202658903821
leaf_weight=16.032871276140217 6.7025973945856112 13.024636685848234 8.5308214873075467 7.0582746416330338
leaf_count=37 21 31 36 25
internal_value=0 0.449077 -0.604783 -0.620046
internal_weight=0 29.0575 22.2917 13.7609
internal_count=150 68 82 46
shrinkage=0.1


Tree=31
num_leaves=6
num_cat=0
split_feature=3 1 2 0 1
split_gain=5.14516 7.24957 3.3282 0.447186 0.0825751
threshold=3.0500000000000003 1.7000000000000004 5.0500000000000007 4.8500000000000005 1.4500000000000002
decision_type=10 10 10 8 8
left_child=1 2 -1 -2 -4
right_child=3 -3 4 -5 -6
leaf_value=-0.0066751530650185301 -0.03011817394225377 -0.061324129009400277 0.073000159047621804 -0.063213012077187089 0.060235114403426153
leaf_weight=8.8034465759992617 8.4884040802717227 8.2865413427352888 10.66509994864464 7.8667806684970847 9.6555434465408307
leaf_count=22 30 28 24 25 21
internal_value=0 0.212033 0.446844 -0.460367 0.669347
internal_weight=0 37.4106 29.1241 16.3552 20.3206
internal_count=150 95 67 55 45
shrinkage=0.1


Tree=32
num_leaves=6
num_cat=0
split_feature=0 1 3 3 0
split_gain=13.2001 2.93544 0.232459 0.10165 0.0164238
threshold=4.9500000000000011 1.7000000000000004 3.0500000000000003 2.6500000000000008 3.9500000000000006
decision_type=10 8 8 10 8
left_child=1 3 -2 -1 -5
right_child=2 -3 -4 4 -6
leaf_value=-0.047907194367215619 0.058569045345628172 0.0031945182754608958 0.081411986145702331 -0.058179610477130911 -0.064928558308701409
leaf_weight=7.6738082170486477 8.8215341269969958 12.508285939693449 9.0000477433204633 6.222815573215482 8.5740125626325607
leaf_count=28 20 31 20 26 25
internal_value=0 -0.356332 0.701049 -0.572467 -0.620903
internal_weight=0 34.9789 17.8216 22.4706 14.7968
internal_count=150 110 40 79 51
shrinkage=0.1


end of trees

feature importances:
Petal.Length=56
Petal.Width=48
Sepal.Width=22
Sepal.Length=19

parameters:
[boosting: gbdt]
[objective: multiclass]
[metric: multi_logloss]
[tree_learner: serial]
[device_type: cpu]
[data: ]
[valid: ]
[num_iterations: 100]
[learning_rate: 0.1]
[num_leaves: 31]
[num_threads: -1]
[max_depth: -1]
[min_data_in_leaf: 20]
[min_sum_hessian_in_leaf: 0.001]
[bagging_fraction: 1]
[pos_bagging_fraction: 1]
[neg_bagging_fraction: 1]
[bagging_freq: 0]
[bagging_seed: 3]
[feature_fraction: 1]
[feature_fraction_bynode: 1]
[feature_fraction_seed: 2]
[early_stopping_round: 0]
[first_metric_only: 0]
[max_delta_step: 0]
[lambda_l1: 0]
[lambda_l2: 0]
[min_gain_to_split: 0]
[drop_rate: 0.1]
[max_drop: 50]
[skip_drop: 0.5]
[xgboost_dart_mode: 0]
[uniform_drop: 0]
[drop_seed: 4]
[top_rate: 0.2]
[other_rate: 0.1]
[min_data_per_group: 100]
[max_cat_threshold: 32]
[cat_l2: 10]
[cat_smooth: 10]
[max_cat_to_onehot: 4]
[top_k: 20]
[monotone_constraints: ]
[feature_contri: ]
[forcedsplits_filename: ]
[forcedbins_filename: ]
[refit_decay_rate: 0.9]
[cegb_tradeoff: 1]
[cegb_penalty_split: 0]
[cegb_penalty_feature_lazy: ]
[cegb_penalty_feature_coupled: ]
[verbosity: -1]
[max_bin: 255]
[max_bin_by_feature: ]
[min_data_in_bin: 3]
[bin_construct_sample_cnt: 200000]
[histogram_pool_size: -1]
[data_random_seed: 1]
[output_model: LightGBM_model.txt]
[snapshot_freq: -1]
[input_model: ]
[output_result: LightGBM_predict_result.txt]
[initscore_filename: ]
[valid_data_initscores: ]
[pre_partition: 0]
[enable_bundle: 1]
[max_conflict_rate: 0]
[is_enable_sparse: 1]
[sparse_threshold: 0.8]
[use_missing: 1]
[zero_as_missing: 0]
[two_round: 0]
[save_binary: 0]
[header: 0]
[label_column: ]
[weight_column: ]
[group_column: ]
[ignore_column: ]
[categorical_feature: ]
[predict_raw_score: 0]
[predict_leaf_index: 0]
[predict_contrib: 0]
[num_iteration_predict: -1]
[pred_early_stop: 0]
[pred_early_stop_freq: 10]
[pred_early_stop_margin: 10]
[convert_model_language: ]
[convert_model: gbdt_prediction.cpp]
[num_class: 3]
[is_unbalance: 0]
[scale_pos_weight: 1]
[sigmoid: 1]
[boost_from_average: 1]
[reg_sqrt: 0]
[alpha: 0.9]
[fair_c: 1]
[poisson_max_delta_step: 0.7]
[tweedie_variance_power: 1.5]
[max_position: 20]
[lambdamart_norm: 1]
[label_gain: ]
[metric_freq: 1]
[is_provide_training_metric: 0]
[eval_at: ]
[multi_error_top_k: 1]
[num_machines: 1]
[local_listen_port: 12400]
[time_out: 120]
[machine_list_filename: ]
[machines: ]
[gpu_platform_id: -1]
[gpu_device_id: -1]
[gpu_use_dp: 0]

end of parameters

pandas_categorical:[]
