tree
num_class=1
label_index=0
max_feature_idx=7
objective=poisson
sigmoid=-1
feature_names=age outwork female married kids hhninc educ self

Tree=0
num_leaves=31
split_feature=0 5 1 2 0 0 5 0 5 5 0 5 1 5 0 1 6 5 2 0 6 0 0 6 5 4 0 5 2 5
split_gain=2920.7150772374152 1510.9847533342036 630.3911810339996 1236.1526233085533 3288.058369812632 1508.6095495009886 566.99152148409485 656.96598555943274 567.81111650243474 692.65922642516307 556.08036240324327 536.54303543870265 662.42439245540118 1053.6236007095422 398.98095438214659 996.42802427317838 460.46774695694876 745.18982288031748 338.07734922555392 279.6724862966621 982.87181161000171 261.12009863837193 337.53444452368694 256.55845260198839 443.66595052851972 241.28839679368321 261.18987752645535 284.79801177214813 221.58001571556633 205.00107143153218
threshold=47.5 3.6758689880371103 1 0 35.5 41.5 2.0039999485015851 59.5 2.2975000143051147 2.7004954814910898 58.5 2.5876619815826398 1 2.4614999294280997 54.5 1 10.25 1.7899999618530249 0 49.5 10.25 50.5 52.5 10.902744770050049 3.4950000047683698 1 33.5 2.9939999580383301 1 1.0019999742507948
decision_type=0 0 1 1 0 0 0 0 0 0 0 0 1 0 0 1 0 0 1 0 0 0 0 0 0 1 0 0 1 0
left_child=2 6 3 4 -1 -6 14 8 -8 11 19 12 13 -10 15 16 17 -2 -4 20 -11 -14 -23 -21 -25 -5 -27 -28 -17 -16
right_child=1 -3 18 25 5 -7 7 -9 9 10 -12 -13 21 -15 29 28 -18 -19 -20 23 -22 22 -24 24 -26 26 27 -29 -30 -31
leaf_parent=4 17 1 18 25 5 5 8 7 13 20 10 11 21 13 29 28 16 17 18 23 20 22 22 24 24 26 27 27 28 29
leaf_value=0.53571429483744581 0.78021979350684356 0.63787376501574944 0.52882206414363064 0.6298701405967545 3.4571429160176486 1.561904788503842 0.57823130236422726 0.67131243884237113 2.3523809924417614 2.0109890452359496 1.6530612526412616 1.9897959522533701 0.37142857775396243 1.0408163442556091 0.75757577047719604 1.3047619269818682 2.180451164952411 2.116883152933422 0.68644455755954725 0.70807454621992838 0.74603175873659122 1.6571428853638315 0.86160715753022543 0.82448980995934518 1.6666666950498314 1.415584439691675 0.57539683519577511 1.1292517199113143 0.73891626874130445 1.0764854797736523
leaf_count=36 13 215 513 264 10 15 42 123 15 13 14 14 10 21 33 15 19 11 313 115 27 10 32 35 12 11 36 21 29 226
internal_value=0 9.2022442727505052 6.4783781719691556 7.7244639628808978 12.669789442931505 23.200000395093653 9.934516798513469 9.0979001845133656 9.9126985815106643 10.458221202361205 9.2460319034907315 13.025210305851623 11.931818385015838 15.873016143331727 11.102394904184136 13.316913198871067 17.408638170221494 13.928571665773587 5.8855068453004939 8.741159979129808 11.571428768488829 9.2032968600279155 10.510204260620364 8.0423281792880754 10.395136955143629 6.8158348837149729 8.8235295620285186 7.7944863482781583 9.3181819768695107 10.358521963497793
internal_count=2263 1044 1219 393 61 25 829 483 360 318 216 102 88 36 346 87 43 24 826 202 40 52 42 162 47 332 68 57 44 259


Tree=1
num_leaves=31
split_feature=0 5 5 6 0 2 0 1 7 3 5 1 3 4 0 5 6 4 5 2 0 5 0 3 4 6 5 5 1 0
split_gain=309.55952534011158 152.17005077238719 109.57883919012784 214.3641661270658 272.206151333246 153.06529939470101 290.47008107373131 169.59419286640184 134.21401948567473 110.23870913105384 100.1418024980012 104.67127561378766 152.63548491333768 255.27401864577314 542.51232932928178 294.60104078385291 173.20589071190693 155.38615323581143 116.23394146506507 89.54351051968888 97.316905502509599 123.28362864793758 67.060230738338532 66.219082337260261 145.77832894085282 66.32707114538789 66.158736318405829 75.617809161999901 63.315090443973531 97.017463827560277
threshold=51.5 4.6062450408935547 1.644999980926515 10.25 61.5 0 58.5 1 1 0 4.5505218505859393 1 0 1 38.5 1.6965000033378601 12.5 1 1.7150000333786051 0 57.5 1.4104999899864201 58.5 0 1 14.25 3.4950000047683698 4.7249999046325701 1 59.5
decision_type=0 0 0 0 0 1 0 1 1 1 0 1 1 1 0 0 0 1 0 1 0 0 0 1 1 0 0 0 1 0
left_child=1 10 3 9 5 7 -7 -5 -4 22 11 12 13 14 -1 -15 -17 -14 -19 -11 -21 -22 -2 24 -10 28 -27 -28 -25 -30
right_child=2 -3 8 4 -6 6 -8 -9 23 19 -12 -13 17 15 -16 16 -18 18 -20 20 21 -23 -24 25 -26 26 27 -29 29 -31
leaf_parent=14 22 1 8 7 4 6 6 7 24 19 10 11 17 15 14 16 16 18 18 20 21 21 22 28 24 26 27 27 29 29
leaf_value=0.95957880281204455 0.39035698150356679 0.20519322565872342 0.17506891353309714 0.32685154897950774 0.2956022493830171 0.96452580488059658 0.47204824062209272 0.73033532483467989 0.56610821857689098 0.19102902221425433 0.57186819630039909 0.27922216551012025 0.27054372636139418 0.15935927277487494 0.24902767756788025 0.77345064915576967 0.32495188201794978 0.11916330553109492 0.40989850591891497 0.26191007618806617 0.67842810925265984 0.35220372302251207 0.16048315799413909 0.34246861537754764 0.24415572726896051 0.1479620039933412 0.49941655391350831 0.19014831194685081 0.42541461340809256 0.25525461680440947
leaf_count=13 10 143 34 17 26 12 14 10 10 10 10 873 260 23 14 10 12 10 89 12 15 12 28 296 75 18 12 11 157 27
internal_value=0 2.9072821502968984 3.5326863261946384 4.0792485803347489 4.9635483573162205 5.9327614839305429 7.1868710338114843 4.6391514409698331 3.3775360076876084 3.2308012810098665 2.9943910847033091 2.9745594812242007 3.2865178654134293 4.2900827618373896 6.254201162747548 3.2410356786234109 5.4553294664602863 3.0624567595511074 3.8467842295765213 3.994007753466958 4.5157857652560844 5.2947814857289055 2.2401976129715306 3.4595025169712126 2.8157033299864032 3.5668435888190633 2.564261605262371 3.5629088250707803 3.6473952930558013 4.0213639190028907
internal_count=2263 1457 806 166 79 53 26 27 640 87 1314 1304 431 72 27 45 22 359 99 49 39 27 38 606 85 521 41 23 480 184


Tree=2
num_leaves=31
split_feature=0 1 3 2 0 5 5 5 5 4 6 6 5 5 4 5 2 5 5 5 5 6 0 5 5 6 5 5 6 5
split_gain=218.1485043343564 97.172709001928524 97.757597897169944 253.06792330350413 359.18081009339221 93.312205878577515 176.48519028533519 307.20151620188722 93.11607305371291 87.097346326446313 82.510796479216879 98.592521944031432 476.71627581045482 280.15715689456215 120.76785379654302 127.21315328042215 65.391881905369701 58.966289867748401 80.896057134338434 60.363595727857501 58.798282128677783 60.791526172317845 57.269083280862333 79.884863836653267 56.853434833676147 97.062817375108352 56.799211517977596 81.858556709926688 54.839273796730595 90.514994511505847
threshold=51.5 1 0 0 35.5 2.8990000486373901 2.6990175247192396 2.7421535253524749 1.6965000033378601 1 11.6591200828552 10.902744770050049 1.45250004529953 2.3960000276565552 1 1.894999980926515 0 1.7150000333786051 2.6990175247192396 2.3012515306472752 1.6965000033378601 9.5 41.5 2.9939999580383301 5.1299998760223406 16.5 3.4950000047683698 4.8739998340606707 10.902744770050049 3.8971951007843
decision_type=0 1 1 1 0 0 0 0 0 1 0 0 0 0 1 0 1 0 0 0 0 0 0 0 0 0 0 0 0 0
left_child=1 2 3 4 -1 6 10 -8 -5 -4 11 14 -13 -14 15 -2 20 -11 19 -19 -3 22 -22 -24 25 -18 -20 -28 -7 -30
right_child=5 16 9 8 -6 28 7 -9 -10 17 -12 12 13 -15 -16 -17 24 18 26 -21 21 -23 23 -25 -26 -27 27 -29 29 -31
leaf_parent=4 15 20 9 8 4 28 7 7 8 17 10 12 13 13 14 15 25 19 26 19 22 21 23 23 24 25 27 27 29 29
leaf_value=0.19067896503214496 0.51884614906423632 0.10295405722921779 0.21196863809248212 0.13221727759884463 0.66984221011469491 0.21173159104834297 0.76328878909769171 0.30773153058887187 0.33690022456429847 0.10309069634641808 0.17080987077049162 0.7609349479463603 0.19365896493431586 0.54732593125755236 0.2595343412910881 0.22146245119595662 0.23322948669187757 0.31398888924930252 0.16983758844510896 0.47952782867407662 0.18774585234237814 0.19208940729157808 0.23737404855605393 0.52182884498661319 0.11049420647620392 0.43126402251013496 0.41362421342238331 0.13761035633624838 0.32297379126345077 0.19546514195981257
leaf_count=17 16 44 289 26 11 179 10 29 19 10 33 11 45 14 328 12 334 35 27 13 21 527 12 11 22 15 14 10 75 54
internal_value=0 2.2433197848447044 2.5094158067447938 3.2256118082776664 4.7402484023146325 2.7199879502712627 2.8994749314764818 4.4165778858327602 2.1592743513712533 2.3544784623326027 2.785429409401631 2.8661575980043001 3.6161875656630338 2.7997504660990251 2.7172179123050224 4.0629233034098284 2.0948977945815526 2.8666455916085192 3.0077357179355757 3.6153553580538329 1.9298782355271742 1.9984225064951737 2.8840669844859037 3.682393009618198 2.3457891866898719 2.4189032147675276 2.3780013141864593 3.1830028965256427 2.3898032226666137 2.7527596258284497
internal_count=2263 1457 471 73 28 806 498 39 45 398 459 426 70 59 356 28 986 109 99 48 615 571 44 23 371 349 51 24 308 129


Tree=3
num_leaves=31
split_feature=0 2 6 5 5 5 6 5 5 0 0 0 0 0 1 5 5 0 5 6 0 5 0 3 5 1 5 5 5 0
split_gain=174.97241580668197 110.91078204029691 111.479111686137 101.57310316957137 94.844924625249405 311.30812625346312 91.516447410689125 86.830267867899238 77.336365228423801 201.20058558470555 370.70835226553618 96.941515916501203 73.770798902790375 267.92373487338 190.90462798807698 61.293696680664198 101.66623447059419 92.510938937441097 58.001010252018887 228.19526776726048 57.982686109007091 52.112731602840086 46.170806120967882 54.476751608024642 61.248626513189947 42.786174787981963 98.04516637728625 42.163544678425751 41.091015207150122 40.501842417953185
threshold=47.5 0 10.25 1.7899999618530249 0.93799999356269803 0.75599998235702515 11.9091200828552 2.137000083923335 2.7762874364852901 57.5 53.5 61.5 59.5 58.5 1 2.498882055282595 1.190012991428375 52.5 1.5950000286102299 10.902744770050049 49.5 2.0039999485015851 54.5 0 1.4104999899864201 1 1.6965000033378601 4.8949999809265154 1.375 57.5
decision_type=0 1 0 0 0 0 0 0 0 0 0 0 0 0 1 0 0 0 0 0 0 0 0 1 0 1 0 0 0 0
left_child=4 6 15 18 5 -1 12 -5 9 10 -9 29 13 25 -15 16 -3 20 19 -4 -18 22 -19 -24 -25 26 -2 28 -6 -10
right_child=1 2 3 7 27 -7 -8 8 11 -11 -12 -13 -14 14 -16 -17 17 21 -20 -21 -22 -23 23 24 -26 -27 -28 -29 -30 -31
leaf_parent=5 26 16 19 7 28 5 6 10 29 9 10 11 12 14 14 15 20 22 18 19 20 21 23 24 24 25 26 27 28 29
leaf_value=0.10971069813304313 0.13417662424543922 0.13059823947517832 0.19097652610611482 0.14772526995757268 0.103736422401425 0.56462362661773846 0.12592055674111297 0.23389942822594004 0.24117969384227 0.17536679990673865 0.68874099281771484 0.40941653363596875 0.15823801942945542 0.24297763701498717 0.58718296844118301 0.1824857753321045 0.26819614818328624 0.12544495357570379 0.44575262808728522 0.48018709640106733 0.43268615640552616 0.13442793502791237 0.1784235238200364 0.439689127433528 0.27011535943735315 0.19143726077373457 0.34665749681446667 0.1285763401214183 0.18597606981791218 0.14781697408590064
leaf_count=16 14 32 25 30 31 11 76 15 88 22 11 15 98 12 13 157 15 10 15 17 17 22 21 10 47 211 22 88 1073 29
internal_value=0 2.2226942825220344 2.4071930987798171 2.7228415250200473 1.8312092110480016 3.0576288439294919 1.9628548603930127 2.4866950602237479 2.674378868212131 3.3392250186745915 4.3928599048784571 2.3733846258903024 2.0982452569471084 2.2757539323138385 4.2009469552833352 2.1461432917727388 2.4037772672846294 2.6291290766846007 3.4251954638404052 3.0605855850978112 3.5274927462205672 2.3271108094690214 2.5349006755993688 2.7060828852867633 3.0241363709828222 2.0435661334350397 2.6627472887960968 1.7968978613528603 1.8345203989889578 2.1616148030074314
internal_count=2263 1044 598 267 1219 27 446 210 180 48 26 132 370 272 25 331 174 142 57 42 32 110 88 78 57 247 36 1192 1104 117


Tree=4
num_leaves=31
split_feature=0 5 5 0 2 6 6 0 0 5 6 0 5 5 5 0 0 3 5 7 5 5 0 5 0 5 5 5 5 6
split_gain=161.78301315172394 107.86223315008829 73.305547481607391 264.78476395232281 56.097033998159532 110.74587569927007 61.473639443629509 83.161251385426567 252.29152170276029 173.63331492819634 146.19164717268177 94.004028309586829 107.3942388463679 183.15910081781817 81.274687097727394 53.758315919556935 96.244829173831477 67.261777487192376 51.633950995068972 66.090848921325232 64.865152273188869 40.9225270754132 45.185818889010136 85.84018182342578 39.597707390978258 53.339269930280352 51.279473772740857 47.461870075586148 49.956371876283242 38.021889565744857
threshold=47.5 3.8971951007843 0.93799999356269803 36.5 0 13.75 10.25 57.5 53.5 2.7762874364852901 10.902744770050049 59.5 1.7899999618530249 1.2949999570846549 3.4950000047683698 48.5 52.5 0 3.6046119928359999 1 2.3339254856109601 2.7762874364852901 52.5 3.1940555572509801 62.5 1.1190000176429751 1.5549999475479099 2.498882055282595 1.6150000095367449 11.470709800720201
decision_type=0 0 0 0 1 0 0 0 0 0 0 0 0 0 0 0 0 1 0 1 0 0 0 0 0 0 0 0 0 0
left_child=2 4 3 -1 18 6 15 8 -8 10 -10 29 13 -13 -11 -6 17 -17 19 20 -2 -21 23 -23 25 -18 -27 28 -26 -9
right_child=1 -3 -4 -5 5 -7 7 11 9 14 -12 12 -14 -15 -16 16 24 -19 -20 21 -22 22 -24 -25 27 26 -28 -29 -30 -31
leaf_parent=3 20 1 2 3 15 5 8 29 10 14 10 13 12 13 14 17 25 17 18 21 20 23 22 23 28 26 26 27 28 29
leaf_value=0.09944279514653033 0.18299082074307493 0.14404499041006052 0.15481011160865663 0.49837778594713378 0.092215274935418312 0.40856974011777514 0.17869839361369699 0.063256711090452777 0.562227493403887 0.12547764394584468 0.3082793344385415 0.14374026751780283 0.16897026922063649 0.46490357847688746 0.36360360764545385 0.41371529057580886 0.066727559456310273 0.23872762410060072 0.29150347962103962 0.18563392715033666 0.4086153253463703 0.083114426660253427 0.10506261579121422 0.28136053717624965 0.20072549552340521 0.26871419435469662 0.16166580780527939 0.11285019856890324 0.34546002307711027 0.20004924589062836
leaf_count=17 12 183 1192 10 16 12 55 22 15 14 13 11 42 15 10 10 22 42 18 205 10 18 70 21 22 20 126 13 17 10
internal_value=0 1.9365522832042588 1.577300892953635 2.5912432635079412 2.0221853675289374 2.1527667429310329 2.1088901586937276 2.3590506493712868 2.7202604821690612 3.631297280665867 4.4893539246648508 1.9443617064104144 2.3819848977486484 3.2982436564549777 2.283622597672379 1.916430470385921 1.9913543071461401 2.7165634420312434 1.8237786464954513 1.7687225623825742 2.867631246365439 1.695211514616471 1.3640144453743734 1.9385212443066213 1.7935899250283889 1.6400876841215479 1.776701464638422 2.2828223496252598 2.6093315350881219 1.1132629312803832
internal_count=2263 1044 1219 27 861 507 495 207 107 52 28 100 68 26 24 288 272 52 354 336 22 314 109 39 220 168 146 52 39 32


Tree=5
num_leaves=31
split_feature=0 5 5 5 2 2 0 0 6 0 5 6 0 5 5 7 0 0 6 5 5 5 0 5 5 5 2 0 0 4
split_gain=149.44961460835839 93.789484003599682 65.705399411352118 61.0138094136164 207.22742509641756 58.795146063132961 68.950920335558294 57.960971056881135 69.437410503299361 133.15694739928995 101.91999207472918 124.14937297827532 77.440080541999578 57.45027544316315 48.43683458231817 59.540850777287687 49.61055350558172 85.140367730152548 99.426697423251994 44.078727737614145 70.242948610437679 95.129398816996854 79.078569216736696 67.419097796328515 46.55066526312396 41.279460616838236 38.155581907899659 58.48021943798733 72.649294391301851 42.836255580360614
threshold=47.5 3.6758689880371103 3.598480463027955 0.93799999356269803 0 0 48.5 57.5 10.25 53.5 2.7762874364852901 10.902744770050049 52.5 2.498882055282595 3.2618368864059453 1 51.5 54.5 10.902744770050049 2.0039999485015851 1.190012991428375 1.375 59.5 1.6150000095367449 3.1262760162353498 2.9939999580383301 0 48.5 61.5 1
decision_type=0 0 0 0 1 1 0 0 0 0 0 0 0 0 0 1 0 0 0 0 0 0 0 0 0 0 1 0 0 1
left_child=3 2 5 4 -1 14 -7 8 12 -10 11 -11 13 -8 15 -2 -17 18 -18 20 -9 -22 -23 -24 -21 -15 29 -28 -29 -3
right_child=1 26 -4 -5 -6 6 7 19 9 10 -12 -13 -14 25 -16 16 17 -19 -20 24 21 22 23 -25 -26 -27 27 28 -30 -31
leaf_parent=4 15 29 2 3 4 6 13 20 9 11 10 11 12 25 14 16 18 17 18 24 21 22 23 23 24 25 27 28 28 29
leaf_value=0.41118785483296377 0.2689422398191082 0.18455553109862777 0.30402290884362926 0.13666359718027823 0.079038663662875291 0.086172543166613047 0.29703410383776746 0.11499658500485202 0.1830450796399922 0.46796348508529517 0.20253503696543829 0.25159799279496226 0.14452226453152864 0.078179880921878164 0.087633157842866294 0.10552863939662922 0.30378895869609462 0.15306796364270631 0.081491857735236262 0.11967479847938889 0.32878024083106033 0.089108687026550434 0.14959124478952096 0.27066881024103334 0.22772366895244531 0.23449933982076709 0.31387495866638077 0.12315135947049452 0.29995878140543342 0.081326630608429637
leaf_count=11 20 23 16 1192 16 19 25 33 50 15 20 14 76 10 34 57 28 181 10 80 20 21 26 40 19 15 10 87 11 84
internal_value=0 1.725189734638835 1.810389132246476 1.3925356235305526 2.2757852602143327 1.7867262981525558 1.9166568842290046 1.9649297450508934 2.1745213053419712 2.5200197724785509 3.147474614542928 3.7111521267445551 1.8669738073729489 2.3980684741238409 1.5824485412575136 1.6621004161603132 1.5872104721694993 1.7165103154454027 2.5060802280028867 1.7513398101534567 1.957474485421886 2.1769817793177806 1.9021327437450619 2.2152645019795649 1.4178751642742682 1.7420471279058882 1.3228248079410427 1.6023835951447538 1.444799913966895 1.0373401168548788
internal_count=2263 1044 829 1219 27 813 483 464 225 99 49 29 126 50 330 296 276 219 38 239 140 107 87 66 99 25 215 108 98 107


Tree=6
num_leaves=31
split_feature=0 5 1 3 0 0 2 6 6 5 3 0 0 5 2 4 5 0 5 5 5 0 4 5 0 5 6 0 0 3
split_gain=140.24822549387136 84.002490378694347 53.997822529785481 109.85714645664825 201.29317966275903 254.92401402632856 38.897237825963202 69.268850568916605 43.359546538473296 65.256256172242502 121.51405016920194 65.271665810974355 111.82686967033828 134.54913479851928 38.087652571256513 41.172300667830768 57.251606666350426 76.16598737719778 61.795365161033317 36.576095936937918 34.868846554975335 54.714656502670323 94.030206601035047 125.58953362071259 60.468521687502971 47.108152512457536 37.981320818027598 59.781305984204892 34.102432576101364 69.662231034078786
threshold=47.5 3.8971951007843 1 0 35.5 40.5 0 13.75 10.25 1.7899999618530249 0 57.5 53.5 2.8734384775161752 0 1 1.999000012874605 43.5 3.993804931640625 1.6965000033378601 3.6046119928359999 49.5 1 2.9939999580383301 51.5 3.2618368864059453 11.6591200828552 59.5 56.5 0
decision_type=0 0 1 1 0 0 1 0 0 0 1 0 0 0 1 1 0 0 0 0 0 0 1 0 0 0 0 0 0 1
left_child=2 6 3 4 -1 -6 20 8 -8 28 -11 12 -12 -14 19 16 -16 -18 -19 -4 21 22 -2 -24 -23 26 27 -26 -10 -30
right_child=1 -3 14 -5 5 -7 7 -9 9 10 11 -13 13 -15 15 -17 17 18 -20 -21 -22 24 23 -25 25 -27 -28 -29 29 -31
leaf_parent=4 22 1 19 3 5 5 8 7 28 10 12 11 13 13 16 15 17 18 18 19 20 24 23 23 27 25 26 27 29 29
leaf_value=0.10433943323745479 0.057230749695523636 0.11513149468462058 0.038815432888286525 0.12798548112230249 0.50392395054330863 0.17339767057857544 0.15485887288982403 0.31062752881902744 0.30341054398384382 0.069273050653639187 0.16370842416114662 0.13966968733606619 0.44134448476402915 0.20488068299242498 0.28663288780483881 0.10895178881556965 0.12259313230630167 0.16511291973061687 0.37491202028989501 0.10836137990657256 0.23002834587846066 0.063891572948082814 0.1595153990675052 0.45352187679482503 0.18753267547802518 0.073586904306223874 0.091187108611034864 0.12060082018383909 0.26560443491571978 0.12424154516179234
leaf_count=34 10 183 39 330 11 18 288 12 13 34 40 47 10 19 13 156 119 15 10 474 18 39 12 10 125 30 32 78 27 17
internal_value=0 1.5627247768152062 1.2502160615241982 1.4395414820504173 2.1388012085215244 3.1434860777633946 1.6329066918789423 1.7337968645325104 1.70028270152355 1.8947245916169715 1.6791041774664992 1.9580949774823224 2.2958740794534314 3.0857386718797382 1.1496428368477003 1.3252330401641086 1.5609406707362943 1.4425746446086105 2.477455106596008 1.0325214411988948 1.4777816241136654 1.4344973890091015 2.2056553703352448 2.8932350291284981 1.3582433101712419 1.4575221472389421 1.5452565781723833 1.635649090026565 2.3644931856831528 2.113211448230699
internal_count=2263 1044 1219 393 63 29 861 507 495 207 150 116 69 29 826 313 157 144 25 513 354 336 32 22 304 265 235 203 57 44


Tree=7
num_leaves=31
split_feature=0 5 1 2 0 3 5 2 0 0 6 0 5 3 5 0 5 5 5 5 0 5 5 0 5 6 5 5 0 0
split_gain=129.60870419301318 78.841421621113113 47.995440795699778 101.62323892544214 198.55054514789583 206.32567959775713 44.764781685476009 43.588883564771095 49.641023973812935 45.867918861784347 50.192466876262188 95.05259093059658 88.344715734697502 106.31457235088624 99.502309667254849 65.608569389697664 45.297358029362385 35.312598101414096 57.21887600039372 67.765775401489691 60.946239687953266 50.064716861868533 36.772770541062357 33.822529883409516 33.661530664517841 33.55242746793283 92.829678854317706 46.988026641057559 39.449137984000146 34.592437992509957
threshold=47.5 3.6758689880371103 1 0 34.5 0 3.598480463027955 0 48.5 57.5 10.25 53.5 1.7150000333786051 0 2.7762874364852901 52.5 2.498882055282595 2.0039999485015851 1.190012991428375 1.375 59.5 1.6150000095367449 3.1940555572509801 62.5 1.9600000381469751 10.25 2.7762874364852901 2.9020000696182251 56.5 51.5
decision_type=0 0 1 1 0 1 0 1 0 0 0 0 0 1 0 0 0 0 0 0 0 0 0 0 0 0 0 0 0 0
left_child=2 6 3 4 -1 -6 7 25 -9 10 15 -12 -13 -14 -15 16 -10 18 -11 -20 -21 -22 -19 -23 -5 26 -2 -27 29 -29
right_child=1 -3 -4 24 5 -7 -8 8 9 17 11 12 13 14 -16 -17 -18 22 19 20 21 23 -24 -25 -26 27 -28 28 -30 -31
leaf_parent=4 26 1 2 24 5 5 6 8 16 18 11 12 13 14 14 15 16 22 19 20 21 23 22 23 24 27 26 29 28 29
leaf_value=0.069469618361268526 0.13258566351726356 0.10813216375611059 0.10453722363520367 0.077992146435212656 0.43270100989320009 0.16701413739185991 0.24406147214203885 0.072742511726502423 0.24881844289599458 0.09300711787562907 0.15217518273084318 0.37510059209372271 0.068496897436164536 0.37322965847280765 0.17755626466462926 0.11869969959935728 0.1460114129207469 0.098309302605347565 0.26708691918760036 0.073152493475899166 0.12471645009407904 0.18261243248776265 0.19023050923803261 0.28737463275742164 0.12653527131493078 0.13895361290290043 0.32088595481601634 0.064854395184945401 0.033515302797335458 0.16451403486519378
leaf_count=32 39 215 826 71 10 19 16 19 25 33 50 10 11 10 18 76 25 81 20 21 26 25 18 15 261 195 11 25 33 27
internal_value=0 1.4306964674333666 1.1379878809022081 1.311612661539717 1.9573739523567766 2.7540744663172441 1.5042662230366368 1.4853981612961451 1.5904852048125613 1.6282148467079787 1.8030678458583969 2.0764160399988532 2.5630810661394849 2.1665786398894604 2.6768445761014985 1.5549588553553007 2.0145592356959492 1.4486169164816547 1.6217801823529698 1.8068282519141901 1.5844457530076079 1.8392035713706909 1.1655935354485383 2.2307432516324366 1.1600449310096914 1.3183970994251757 1.7548196440139066 1.2382533211990836 0.85501442077083711 1.1858389312458026
internal_count=2263 1044 1219 393 61 29 829 813 483 464 225 99 49 39 28 126 50 239 140 107 87 66 99 40 332 330 50 280 85 52


Tree=8
num_leaves=31
split_feature=0 5 1 2 0 3 5 2 0 0 5 5 0 5 0 6 0 5 5 6 5 6 5 2 4 5 0 6 6 0
split_gain=121.21192604211865 72.511728834331734 44.395352165365694 95.092025800431657 173.86138582312117 171.30062790095769 35.268907732714069 39.560555650431525 41.552598597638735 42.737864749107757 43.333525687415204 53.293823010339565 49.425430751712028 34.97008349920452 88.164867877058441 69.746155447169258 45.490643041591056 89.925009850289484 60.532061166531548 78.211142114733207 45.320862159007902 36.791018089402669 36.54088365624915 32.688511147378449 30.820022657332515 40.303926406405935 55.043674404106582 106.9818767638256 30.048677163696595 29.912781118661087
threshold=47.5 3.6758689880371103 1 0 34.5 0 3.598480463027955 0 48.5 58.5 1.190012991428375 1.375 62.5 1.630925476551055 53.5 10.25 51.5 2.2975000143051147 2.7421535253524749 10.25 2.3339254856109601 10.25 1.999000012874605 0 1 1.999000012874605 42.5 10.25 11.470709800720201 48.5
decision_type=0 0 1 1 0 1 0 1 0 0 0 0 0 0 0 0 0 0 0 0 0 0 0 1 1 0 0 0 0 0
left_child=2 6 3 4 -1 -6 7 29 -9 13 12 -12 -11 14 -10 -16 20 21 19 -19 -15 22 -18 -4 25 -25 -27 -28 -20 -2
right_child=1 -3 23 -5 5 -7 -8 8 9 10 11 -13 -14 16 15 -17 17 18 28 -21 -22 -23 -24 24 -26 26 27 -29 -30 -31
leaf_parent=4 29 1 23 3 5 5 6 8 14 12 11 11 12 20 15 15 22 19 28 19 20 21 22 25 24 26 27 27 28 29
leaf_value=0.06467525715972812 0.19601319983701712 0.099441946401568893 0.085471862100701707 0.1065331115857306 0.38977574228564293 0.15568913106949844 0.21915969646836381 0.069082650536404611 0.091187998603295337 0.0041969418655927295 0.22951394899164496 0.13039556360597215 0.16345850835930731 0.24853093074980814 0.17429204317886673 0.32899004969968121 0.053414953472682658 0.12093590529952103 0.11397704228148745 0.2746402648427721 0.15461475223382157 0.021986127623225521 0.18345614196811033 0.23185074824228333 0.091718901276793552 0.10099135842375183 0.35824690212068505 0.11295486573059202 0.20801566962794682 0.11787380550346382
leaf_count=32 17 215 513 332 10 19 16 19 13 19 16 162 10 22 18 12 13 16 59 21 37 20 14 13 156 114 10 20 12 313
internal_value=0 1.3225062013315689 1.0457104193666737 1.2088857581921413 1.8185220000215654 2.5349832505126333 1.3913527569535784 1.3747430888145775 1.4724649493483934 1.5057480891184796 1.3112535239907233 1.4101616859786246 0.63748705468840616 1.6491804909444072 2.0661845990873751 2.5326110857006952 1.5540732382361684 1.3920847028731322 1.6725512693809998 2.1768404232676279 1.9452014794719228 0.76057732284604451 1.1963428947698689 0.95849003814039857 1.1134518798358253 1.3060609356552266 1.2093165903530918 1.94427073533469 1.3311313385901293 1.2190088962842986
internal_count=2263 1044 1219 393 61 29 829 813 483 464 207 178 29 257 43 30 214 155 108 37 59 47 27 826 313 157 144 30 71 330


Tree=9
num_leaves=31
split_feature=0 5 1 2 0 3 5 4 5 7 3 5 5 6 5 2 6 0 0 0 6 0 0 2 5 5 5 0 2 6
split_gain=112.88484399294794 66.934433967719997 41.265000119407887 89.735566967191744 155.03524513424077 146.85769055437913 29.142129027961346 47.185255318546751 70.12965605913314 54.495644200930656 49.576029375844882 48.70983319912321 46.391553396471636 58.693509569472326 57.200996875439614 40.339656312727129 49.779388707069529 56.011274978022811 67.617373094005075 38.904128213942158 36.793349509909604 34.566453820732562 28.790091801923438 28.518457205361756 28.329500519124849 29.240404625198721 40.945325121996348 80.019536084951568 27.735986714650551 40.353886725364873
threshold=47.5 3.6758689880371103 1 0 34.5 0 1.808499991893765 1 3.598480463027955 1 0 2.0705000162124652 1.7150000333786051 10.902744770050049 1.375 0 11.470709800720201 51.5 53.5 59.5 10.25 62.5 53.5 0 1.6965000033378601 4.0575001239776594 3.9801313877105704 41.5 0 10.902744770050049
decision_type=0 0 1 1 0 1 0 1 0 1 1 0 0 0 0 1 0 0 0 0 0 0 0 1 0 0 0 0 1 0
left_child=2 6 3 4 -1 -6 12 11 9 -9 -11 -8 13 19 -15 16 17 -12 -19 20 -2 -21 -22 24 -4 26 -26 -28 -3 -30
right_child=1 28 23 -5 5 -7 7 8 -10 10 15 -13 -14 14 -16 -17 -18 18 -20 21 22 -23 -24 -25 25 -27 27 -29 29 -31
leaf_parent=4 20 28 24 3 5 5 11 9 8 10 17 11 12 14 14 15 16 18 18 21 22 21 22 23 26 25 27 27 29 29
leaf_value=0.060449347110916929 0.11162594086722047 0.06976495349555345 0.025133466956982105 0.098548257763941022 0.35663049284152964 0.14596431459846845 0.17709687513916358 0.22872220157345857 0.24819219042740792 0.075725182910056157 0.052884235187874468 0.063311881625567112 0.19071549048687861 0.25559978628215335 0.12808954792366509 0.14398566676878496 0.057585603660926868 0.24420872361478274 0.12387050528598696 0.049993276751962051 0.1149892485106689 0.12348387462499327 0.20799683286683474 0.10272287923487729 0.084973211800150675 0.047383373391677794 0.07253810492256664 0.30792359405042108 0.085714803666865652 0.16278682723838733
leaf_count=32 57 107 39 332 10 19 13 15 13 65 28 68 48 17 20 221 48 16 84 36 12 42 26 313 371 79 14 10 70 38
internal_value=0 1.2300985880937889 0.96821592418309999 1.1223663305889515 1.7020668906332723 2.3559547361713089 1.2948007838214175 1.223025394606305 1.2877129780299166 1.2508858287425253 1.2168921394097751 0.83027513673640918 1.4416388140057084 1.3318651126523235 1.9125053512616903 1.2889046230762893 1.0825295007200395 1.2621320867283996 1.4512626528584467 1.1942617614857349 1.4188809398725155 0.90261339785547956 1.7812870153402134 0.88565001680180455 0.79024417410018932 0.83192076409851723 0.90166602075233826 1.7062256153165314 0.92067003310706419 1.1357663819642865
internal_count=2263 1044 1219 393 61 29 829 571 490 477 462 81 258 210 37 397 176 128 100 173 95 78 38 826 513 474 395 24 215 108


Tree=10
num_leaves=31
split_feature=0 5 1 2 0 3 5 4 5 7 3 5 5 6 5 2 6 0 0 0 6 0 1 5 5 0 5 0 2 4
split_gain=105.25595648026319 61.82426186918201 38.632608266808802 85.215655607642475 140.14799555881609 128.83708738787641 26.399195667084314 40.232698042213997 58.94960718819857 44.416666308802178 42.787471429986908 42.215842379124012 38.598804353255446 50.901551011133051 48.464487822534409 34.854674084739599 43.110093325026355 48.058303292153255 56.462917592677172 34.013319165513053 33.024918402128264 30.214476430430494 26.637777672311472 26.602335060803313 58.517237634677031 25.614294591711996 25.3380825902791 27.717413539824634 25.121546536494179 24.735493065582546
threshold=47.5 3.6758689880371103 1 0 34.5 0 1.808499991893765 1 3.598480463027955 1 0 2.0705000162124652 1.7150000333786051 10.902744770050049 1.375 0 11.470709800720201 51.5 53.5 59.5 10.25 62.5 1 1.5549999475479099 1.1190000176429751 57.5 1.9600000381469751 28.5 0 1
decision_type=0 0 1 1 0 1 0 1 0 1 1 0 0 0 0 1 0 0 0 0 0 0 1 0 0 0 0 0 1 1
left_child=2 6 3 4 -1 -6 12 11 9 -9 -11 -8 13 19 -15 16 17 -12 -19 20 23 -21 25 24 -2 -22 -5 -28 -4 -30
right_child=1 -3 28 26 5 -7 7 8 -10 10 15 -13 -14 14 -16 -17 -18 18 -20 21 22 -23 -24 -25 -26 -27 27 -29 29 -31
leaf_parent=4 24 1 28 26 5 5 11 9 8 10 17 11 12 14 14 15 16 18 18 21 25 21 22 23 24 25 27 27 29 29
leaf_value=0.056691062139434811 0.049197051727951677 0.08575377094904367 0.073475860838497484 0.060328261763775703 0.33000480101490309 0.13749568863653686 0.16375340252742454 0.20726518202710925 0.22613364428762314 0.071562712969587619 0.050198404705790435 0.060136733683452674 0.17612354963275165 0.23473583579490709 0.12014899095599932 0.13402811912482868 0.054600609440699749 0.22202125049506069 0.11539238663456974 0.047717222755577299 0.17282788326523471 0.11558636183163705 0.23000648610785912 0.041725619634096732 0.18090932789456807 0.070852500719676845 0.15373949564094469 0.093267312326397844 0.11181889713922771 0.078324108758145883
leaf_count=32 19 215 513 71 10 19 13 15 13 65 28 68 48 17 20 221 48 16 84 36 16 42 12 15 23 10 29 232 157 156
internal_value=0 1.1500867564194803 0.90165136237637666 1.0481247903618329 1.6023899930159504 2.2058216950242411 1.2110294980046659 1.1438784149184087 1.2021495215215947 1.1685525383816298 1.1379552111786833 0.78535896770225866 1.3480167174588882 1.2490685724497781 1.7762552226463406 1.2031893391267721 1.0141998471138611 1.1770004214374068 1.3466514707978248 1.1222998993911606 1.3276413706275205 0.85252511577484258 1.6628882702084882 1.045085375049605 1.2690559558713703 1.400701282498743 0.91692629597718556 1.0021835085249684 0.82305238087118249 0.9533394898034262
internal_count=2263 1044 1219 393 61 29 829 571 490 477 462 81 258 210 37 397 176 128 100 173 95 78 38 57 42 26 332 261 826 313


Tree=11
num_leaves=31
split_feature=0 5 5 5 5 5 4 5 6 7 5 3 5 6 3 5 5 0 6 6 5 5 5 0 5 5 6 1 0 0
split_gain=98.943073669039222 58.020990096023525 37.006727195276198 151.06798550128482 28.360510450438142 26.134500317366474 37.440134846135606 41.789561661006246 226.27042963249005 38.333887780991518 38.001631024225844 35.088901296767972 32.652839623005548 44.726393382300785 44.224756629148203 30.615916375929146 30.450169420206066 30.384923843937599 29.882586473606239 29.865055792264229 27.443531094607351 41.24082487849887 145.68560661928905 36.003952659135393 29.861951682097995 28.187583218881571 55.665724039210829 28.9221536783799 26.689512789557227 24.730460193103113
threshold=47.5 3.8971951007843 0.93799999356269803 0.75599998235702515 4.8949999809265154 1.808499991893765 1 3.6046119928359999 10.902744770050049 1 2.0705000162124652 0 1.7150000333786051 10.902744770050049 0 3.5536204576492301 3.4950000047683698 59.5 10.25 14.75 1.999000012874605 2.7004954814910898 2.644023060798645 61.5 2.3960000276565552 3.1035754680633549 9.5 1 62.5 53.5
decision_type=0 0 0 0 0 0 1 0 0 1 0 1 0 0 1 0 0 0 0 0 0 0 0 0 0 0 0 1 0 0
left_child=2 5 3 -1 -4 12 10 9 -9 -8 -7 -11 13 17 -15 16 19 18 -2 20 -13 22 23 -22 -25 -23 -27 -28 -19 -20
right_child=1 -3 4 -5 -6 6 7 8 -10 11 -12 15 -14 14 -16 -17 -18 28 29 -21 21 25 -24 24 -26 26 27 -29 -30 -31
leaf_parent=3 18 1 4 3 4 10 9 8 8 11 10 20 12 14 14 15 16 28 29 19 23 25 22 24 24 26 27 27 28 29
leaf_value=0.032034298739885746 0.098505134354891638 0.077020209329460326 0.085058547043523849 0.276144999875229 0.048748444912871641 0.1525100609050275 0.19010531910701986 0.015139673133390055 0.30836309724110839 0.067806313897237111 0.056454748361095423 0.05866049101962019 0.16389143041678972 0.21727435818020746 0.10999703387566165 0.035320222044818821 0.16831396220643147 0.045608299715011014 0.099752089283472484 0.024442687020597084 0.13043525319416979 0.074994035173506987 0.30812402842051645 0.10872779537954046 -0.0067561718934454401 0.21539171493764939 0.13739545225153049 0.04569942356767423 0.10868350645365997 0.1826795825816202
leaf_count=16 57 183 1104 11 88 13 15 16 16 65 71 23 48 18 19 13 26 36 12 13 144 91 11 17 12 14 21 22 42 26
internal_value=0 1.0807096877203319 0.84364776361851002 1.436592539671897 0.82561612391820194 1.1328567860019494 1.069750260745775 1.1229120656603793 1.732345583558873 1.0849368128046171 0.73288308192384433 1.0573029109529104 1.2678395280729842 1.177810095660099 1.6610244545642645 1.1135796814007184 1.1417040046201876 1.060134422555709 1.2504685732089427 1.1009678163258803 1.128123268991998 1.1688447539624591 1.3274891507450097 1.2050249289544066 0.63334164534157378 0.94425592856473461 1.2469989747619046 0.91932367567779461 0.80775191828330739 1.5626977613018949
internal_count=2263 1044 1219 27 1192 861 603 519 32 487 84 472 258 210 37 407 394 173 95 368 355 332 184 173 29 148 57 43 78 38


Tree=12
num_leaves=31
split_feature=0 5 1 2 0 3 2 5 5 2 0 0 4 5 0 5 5 6 5 6 5 7 0 1 5 2 0 6 6 0
split_gain=94.791006392395502 56.353869381726781 36.601345837589179 81.202905927408437 131.55998784379238 114.04960679020257 23.064778846192212 23.494193248251577 22.653665208788311 22.417367179111636 35.328175874278998 42.003410919225246 28.896223173101092 30.609505496592192 22.336099351615758 36.305167418763631 33.506025734107084 59.45547421850145 44.980910367700687 37.793517602893559 24.953320712489585 29.343518996691728 39.319373607571379 50.987908097348651 33.2643546605903 31.091775913494985 35.737043447176347 53.503511799387582 34.349216016804803 109.88904684404451
threshold=47.5 3.6758689880371103 1 0 34.5 0 0 1.6965000033378601 1.7150000333786051 0 61.5 48.5 1 4.9749999046325701 59.5 2.0039999485015851 1.6150000095367449 10.902744770050049 1.7899999618530249 10.25 3.598480463027955 1 48.5 1 2.498882055282595 0 57.5 9.5 10.25 53.5
decision_type=0 0 1 1 0 1 1 0 0 1 0 0 1 0 0 0 0 0 0 0 0 1 0 1 0 1 0 0 0 0
left_child=2 14 3 4 -1 -6 7 -4 -9 12 11 -11 13 -3 20 16 17 -16 -18 -20 21 24 23 -23 -2 -24 28 -28 -27 -30
right_child=1 9 6 -5 5 -7 -8 8 -10 10 -12 -13 -14 -15 15 -17 18 -19 19 -21 -22 22 25 -25 -26 26 27 -29 29 -31
leaf_parent=4 24 13 7 3 5 5 6 8 8 11 10 11 12 13 17 15 18 17 19 19 20 23 25 23 24 28 27 27 29 29
leaf_value=0.047973618114616555 0.10936978943402467 0.05446768385355532 0.016148782999670229 0.080518933640140913 0.30130710828280055 0.12564986145369766 0.083782328066300246 0.1530581226906397 0.065003781617829035 0.18907112514589255 0.1850709485576548 0.067844831144003304 0.039302468586419767 0.18923302992510577 0.065739819910514613 0.071316021050420397 0.21248798246540956 0.16854422212999468 0.15882749822522693 0.0671736116928877 0.17614117378578081 0.13310473453997565 0.096109439779829789 -0.00068344053902583786 0.22106302725975563 0.11350005192045538 0.14218243608148082 0.046008093735746686 0.097279780416306777 0.20151970347566134
leaf_count=32 15 13 39 332 10 19 313 11 463 10 11 87 84 10 68 123 16 17 23 24 15 11 202 21 13 124 28 35 47 47
internal_value=0 1.0196524320627274 0.79100046480859021 0.92938508266537334 1.454983959885332 2.0223558640992843 0.71676767681834241 0.63460739344903794 0.67055416747359098 0.74859933506037135 0.93189545222910075 0.81372664884337054 0.55602292524049801 1.1284461339883887 1.0759710195825238 0.94817197113607965 1.1116739921710979 0.89667249646520919 1.3913656177371243 1.1381373827566532 1.1331516367692491 1.1143431279707534 1.0862827644527469 0.528532741843037 1.6243725740721908 1.1225573834244658 1.2280867374968978 0.88203897088776417 1.3216723574344051 1.5335178327521506
internal_count=2263 1044 1219 393 61 29 826 513 474 215 108 97 107 23 829 271 148 85 63 47 558 543 515 32 28 483 281 63 218 94


Tree=13
num_leaves=31
split_feature=0 5 1 2 0 0 5 4 5 5 7 3 5 6 5 2 6 0 0 0 6 0 2 5 5 5 3 0 4 5
split_gain=89.657012107285482 52.654224403505395 34.623346062485098 77.755945922161004 121.25217788793685 105.75533757906305 22.048977404336711 30.424547863663747 48.116857899827664 34.348867412027545 28.107659780226868 33.08595485018418 27.381846529638324 37.163610612647403 40.47553303758275 27.227259387674394 34.600065274933115 40.690571389262686 46.879472473931173 25.403667732896338 28.437418859908803 23.933597387428392 23.357132908373842 22.076077410577994 49.704053831662151 21.474323354904186 22.868957715230522 38.520749661215063 33.572075566940043 21.249726518671118
threshold=47.5 3.6758689880371103 1 0 34.5 38.5 1.808499991893765 1 3.598480463027955 3.0517305135726902 1 0 1.7150000333786051 10.902744770050049 1.375 0 11.470709800720201 51.5 53.5 59.5 10.25 62.5 0 1.5549999475479099 1.1190000176429751 1.9600000381469751 0 44.5 1 2.6990175247192396
decision_type=0 0 1 1 0 0 0 1 0 0 1 1 0 0 0 1 0 0 0 0 0 0 1 0 0 0 1 0 1 0
left_child=2 6 3 4 -1 -6 12 9 10 22 -9 -12 13 19 -15 16 17 -13 -19 20 23 -21 29 24 -2 -5 -27 28 -28 -8
right_child=1 -3 -4 25 5 -7 7 8 -10 -11 11 15 -14 14 -16 -17 -18 18 -20 21 -22 -23 -24 -25 -26 26 27 -29 -30 -31
leaf_parent=4 24 1 2 25 5 5 29 10 8 9 11 17 12 14 14 15 16 18 18 21 20 21 22 23 24 26 28 27 28 29
leaf_value=0.045420746482945133 0.037284707273891597 0.070633376283071911 0.067443118994491888 0.048073069521604825 0.29047621469268131 0.12295823878379029 0.022770168938470448 0.1645437611628181 0.19119989543475588 0.0085848529120120289 0.059612826116708033 0.038871031203371702 0.14663884741647934 0.19726330868879371 0.09823589180223441 0.11241818807466422 0.044242441800471349 0.18873552792882592 0.096585845395321543 0.039922876963231546 0.14168276237134766 0.098332687845847769 0.12433769050775073 0.031687199424153809 0.15324233997584644 0.15136079860914167 0.078398388509022268 0.023851961577431528 0.13985741496512435 0.10834941955386471
leaf_count=32 19 215 826 71 11 18 21 15 13 22 65 28 48 17 20 221 48 16 84 36 38 42 24 15 23 13 184 34 30 14
internal_value=0 0.96522911445438908 0.74577475838847473 0.8785427106738507 1.3854010562452768 1.9175353884440525 1.0188369048147439 0.96007910097542015 1.0080746224806623 0.65913648795771396 0.97877309911686716 0.95481253420716861 1.1382280099316413 1.0577377812483608 1.4825136683686782 1.0091183130725305 0.84871694884482929 0.98691710295549262 1.1348504584612205 0.95264068561506088 1.1209535897184271 0.7264766214129148 0.86593508640261396 0.86974992934210771 1.0627144419206074 0.75847153962766478 0.83332357108986699 0.79200802607061338 0.88273779695216514 0.57530037691265234
internal_count=2263 1044 1219 393 61 29 829 571 490 81 477 462 258 210 37 397 176 128 100 173 95 78 59 57 42 332 261 248 214 35


Tree=14
num_leaves=31
split_feature=0 5 5 5 5 5 4 5 5 5 7 0 0 5 5 1 5 5 6 1 6 5 5 5 6 3 0 6 0 0
split_gain=85.345062928261541 49.866234124558105 33.117804621839468 127.46629499026523 24.263273432489768 20.646456083529756 27.111305119516146 42.772551386527766 32.890946695386617 26.615462118986898 63.465236311941226 46.759777793794456 37.001994636850441 59.454317354591922 86.923870401570412 43.254867719490903 41.335817999747974 33.739883538611025 84.446483909240101 49.970603901173774 27.056764378404694 35.646781407595199 28.668251994608795 24.070365610126373 33.715416907788267 37.113248713051803 23.232491265233193 26.063374176688967 21.592069613781263 21.166220749467186
threshold=47.5 3.6758689880371103 0.93799999356269803 0.75599998235702515 4.8949999809265154 1.808499991893765 1 3.598480463027955 2.0705000162124652 2.2975000143051147 1 48.5 59.5 2.7004954814910898 2.507394552230835 1 2.498882055282595 3.1035754680633549 10.25 1 10.902744770050049 2.0039999485015851 1.999000012874605 1.7150000333786051 10.902744770050049 0 59.5 10.25 62.5 63.5
decision_type=0 0 0 0 0 0 1 0 0 0 1 0 0 0 0 1 0 0 0 1 0 0 0 0 0 1 0 0 0 0
left_child=2 5 3 -1 -4 23 8 9 -7 20 -11 -12 13 14 15 16 -13 -15 -19 -20 21 22 -8 24 26 -26 27 -2 -28 -14
right_child=1 -3 4 -5 -6 6 7 -9 -10 10 11 12 29 17 -16 -17 -18 18 19 -21 -22 -23 -24 -25 25 -27 28 -29 -30 -31
leaf_parent=3 27 1 4 3 4 8 22 7 8 10 11 16 29 17 14 15 16 18 19 19 20 21 22 23 25 25 28 27 28 29
leaf_value=0.023890041596246653 0.082815305215376625 0.066742562526947408 0.071069178628847693 0.23870584902663536 0.038653137501511822 0.13354955687196982 0.06138070964412258 0.17904029291852688 0.047195415764473843 0.21267542706640113 0.0056846850485649291 0.20808401674111121 0.058225758959421982 0.064595413582660396 0.26250244602016698 0.084335176407556223 0.10103228103689058 0.21649592888893765 0.14651896738006367 0.047425301216474557 0.025630627663186523 0.044866354960004344 0.13058329537357546 0.13842004051462789 0.18474153265909987 0.091279074111446201 0.038335020401859245 0.13449650891951739 0.093327744160517881 0.13098382317051904
leaf_count=16 57 215 1104 11 88 13 23 13 68 11 14 14 76 77 10 39 16 16 20 38 28 41 40 48 18 19 36 38 42 14
internal_value=0 0.91653669063325127 0.70501482559269701 1.2431795543179156 0.68857242189715961 0.96799274018174686 0.911806363183151 0.95636410291213214 0.63006030594468021 0.9288615034899248 1.0045771131605283 0.96106540155316988 1.0023941202559159 1.1039350192559039 1.4267854935340023 1.2187666559857091 1.6065168708867141 0.89871850802886888 1.1420204861054917 0.84671348189160522 0.73413129060968796 0.84617476910321665 1.0652215398552742 1.0819614992854529 1.0071587286294952 1.4050493304301679 0.90787245568736274 1.0664463580368018 0.69336832359485912 0.69785234205770641
internal_count=2263 1044 1219 27 1192 829 571 490 81 477 345 334 320 230 79 69 30 151 74 58 132 104 63 258 210 37 173 95 78 90


Tree=15
num_leaves=31
split_feature=0 5 1 2 0 0 2 0 6 0 5 4 5 0 6 2 0 0 4 0 5 4 0 6 0 5 4 5 5 5
split_gain=82.815966187811682 47.650840570780474 33.137012111618333 73.863739844713336 115.27923279356878 42.825173341962284 21.681006779409586 20.839766718119336 59.70337799255347 37.331002262513323 66.559701295444995 19.808104566806094 27.802285622254828 40.478129575283504 40.508217117102788 19.276652195407053 29.860820755564589 34.947266168169648 24.461159471750776 24.61045816751097 19.259733362723694 21.36967031952031 26.106423363765515 24.467239644323982 20.140179964701986 18.976598227759041 24.626622167401138 38.290520915815932 30.125349827370783 23.727151433522977
threshold=47.5 3.6758689880371103 1 0 35.5 41.5 0 41.5 10.902744770050049 43.5 4.0819804668426496 1 1.999000012874605 43.5 10.902744770050049 0 61.5 48.5 1 52.5 1.9600000381469751 1 34.5 10.902744770050049 43.5 1.808499991893765 1 3.598480463027955 3.0517305135726902 2.2975000143051147
decision_type=0 0 1 1 0 0 1 0 0 0 0 1 0 0 0 1 0 0 1 0 0 1 0 0 0 0 1 0 0 0
left_child=2 25 3 4 -1 -6 7 -4 -9 10 -10 12 -8 -14 -15 18 17 -17 19 -3 -5 24 -23 -24 -22 -2 28 29 -27 -28
right_child=1 15 6 20 5 -7 11 8 9 -11 -12 -13 13 14 -16 16 -18 -19 -20 -21 21 22 23 -25 -26 26 27 -29 -30 -31
leaf_parent=4 25 19 7 20 5 5 12 8 10 9 10 11 13 14 14 17 16 17 18 19 24 22 23 23 24 28 29 27 28 29
leaf_value=0.048843342937860447 0.10307758073811413 0.045744021188663997 0.043907027832367163 0.042180852846710165 0.23904748407186652 0.13172487761044671 0.15921259453538072 0.036770961593426077 0.24242145060019626 0.079050285131532935 0.04465003546233013 0.056924970359592701 0.063779504629285874 0.20468447727265546 0.066500673171068017 0.16244139301321042 0.16018202601966197 0.056907184051826834 0.031223560074657999 0.1617086588359869 0.073018776317761908 0.17026688332959519 0.055280121381524883 0.14020381637675514 0.021181888128312624 0.079118038774351529 0.070315310644415138 0.16854002949533384 0.0068772309885805228 0.095598203300026705
leaf_count=36 258 13 345 71 10 15 13 90 15 53 10 156 119 13 12 10 11 87 84 10 180 11 28 14 28 59 132 13 22 345
internal_value=0 0.87322794399387405 0.66720867594667943 0.79414717958544967 1.2767359553028796 1.8471380742195607 0.59900610134880317 0.52214984467880221 0.69123787526859393 1.0688065672606015 1.6635447135545973 0.71230777893746944 0.8499025366996571 0.77687708498531904 1.4000855447324725 0.6322568186247165 0.7957664558955424 0.68993538618688777 0.45897293061318672 0.96366529340456764 0.67973222182792037 0.74878602300134833 1.0372612775731824 0.83848145172651234 0.66194109924174904 0.92291027210674725 0.86959611837300888 0.91145336830682 0.6031750125443186 0.88553014668884633
internal_count=2263 1044 1219 393 61 25 826 513 168 78 25 313 157 144 25 215 108 97 107 23 332 261 53 42 208 829 571 490 81 477


Tree=16
num_leaves=31
split_feature=0 5 1 3 5 0 0 6 5 4 5 0 5 2 0 0 2 0 5 5 6 0 0 2 0 0 5 2 0 1
split_gain=78.035226502686783 44.799461110716948 31.637600383766085 72.072503685923834 121.45038452308285 127.05829070128283 122.48873949036761 23.018095997227647 23.331587558131105 43.128222623664897 43.069825252271357 45.526383266423181 39.006240850303129 71.043844323388726 60.907560337578843 33.161145299386476 55.016568013957055 39.128939658697561 39.934145129496756 60.667676268650212 42.202342761751908 46.974996762541394 37.803017008335075 32.909898544559042 27.207386811598099 76.625178775212362 75.492825727783668 37.295567776735595 24.556420659388991 21.118108185651728
threshold=47.5 3.8971951007843 1 0 0.80099999904632557 35.5 41.5 17.5 2.0039999485015851 1 2.2975000143051147 59.5 2.498882055282595 0 58.5 49.5 0 51.5 2.8159660100936899 2.5876619815826398 11.9091200828552 52.5 56.5 0 54.5 53.5 1.5048184990882851 0 63.5 1
decision_type=0 0 1 1 0 0 0 0 0 1 0 0 0 1 0 0 1 0 0 0 0 0 0 1 0 0 0 1 0 1
left_child=2 7 3 4 -1 -6 -7 8 24 -10 -11 12 13 -12 15 16 -14 -17 19 23 21 -20 -21 -19 25 26 -2 -28 -13 -18
right_child=1 -3 -4 -5 5 6 -8 -9 9 10 11 28 14 -15 -16 17 29 18 20 22 -22 -23 -24 -25 -26 -27 27 -29 -30 -31
leaf_parent=4 26 1 2 3 5 6 6 7 9 10 13 28 16 13 14 17 29 23 21 22 20 21 22 23 24 25 27 27 28 29
leaf_value=0.012882810261335205 0.0089932471352858253 0.057468533789227075 0.056831222016007148 0.064649045947228354 0.071533124024676792 0.34092525018790837 0.12453802463703612 0.15184851316391351 0.040792468373655459 0.040968026143991934 0.071342701594356281 0.046648707435330027 0.20583737221907372 0.20955690526642656 0.18017972182443698 0.025039047157490352 0.12990092960836314 0.15078731952281077 0.14478947276764528 0.24786780693402713 0.14216515884508935 0.042707608439928733 0.11849759023725862 0.0454958861054163 0.087712825558891372 0.20156744247640163 0.078170714773123331 0.15821869017391679 0.12495764900844514 0.033971954040416009
leaf_count=17 18 183 826 330 24 10 12 14 70 55 15 80 15 14 16 32 10 11 13 11 17 86 10 22 258 18 25 26 13 12
internal_value=0 0.83223965235156494 0.6343435478242121 0.75705573478488286 1.2342630090586806 1.6618381678479215 2.3863371662065362 0.87498530858277712 0.86473597911760003 0.79247908198008987 0.85022269441289999 0.9081179184687812 1.0006240441550764 1.475957845383467 0.93021805794294521 0.86138049729550403 1.2932742869916471 0.77977354241366714 0.87317781857793686 1.2151046297015251 0.69954984505917295 0.56854471785432081 1.8500462368567894 0.79332348662036323 0.9587304220224232 1.1820404285979618 0.95200633928320522 1.2316390862023388 0.57837678000274906 0.81236393112022764
internal_count=2263 1044 1219 393 63 46 22 861 847 502 432 377 284 29 255 239 37 202 170 54 116 99 21 33 345 87 69 51 93 22


Tree=17
num_leaves=31
split_feature=0 5 5 0 5 5 1 3 0 4 5 6 6 5 6 0 0 0 5 2 5 0 0 6 5 0 2 0 0 4
split_gain=75.12738716036074 42.685443357513577 32.42279322356535 112.10580953439145 20.771479226940301 19.411246255313927 27.638536366863491 93.697080511731656 63.97369854524726 36.372552691791498 39.211666544120106 34.345135471354482 27.031123596086616 29.184772776661418 48.880283971368442 23.409489958991806 19.023901710835229 17.798550580947904 29.374392365930703 29.927121964824664 47.659920764664832 55.327050959129984 44.010646003334443 76.339447369846027 28.292541391648086 36.931650795451048 17.294168870490637 25.97350173005367 30.645622221312735 21.660390522939352
threshold=47.5 3.6758689880371103 0.93799999356269803 36.5 4.8949999809265154 1.9099999666214 1 0 35.5 1 2.6990175247192396 10.902744770050049 10.652744770050049 1.7899999618530249 11.9091200828552 45.5 42.5 59.5 2.0039999485015851 0 1.2949999570846549 62.5 61.5 9.5 1.5950000286102299 62.5 0 61.5 48.5 1
decision_type=0 0 0 0 0 0 1 1 0 1 0 0 0 0 0 0 0 0 0 1 0 0 0 0 0 0 1 0 0 1
left_child=2 17 3 -1 5 12 7 8 -7 -9 -11 -12 15 14 -14 -4 -6 -2 19 -19 21 -21 23 -22 -24 -26 29 28 -28 -3
right_child=1 26 4 -5 16 6 -8 9 -10 10 11 -13 13 -15 -16 -17 -18 18 -20 20 22 -23 24 -25 25 -27 27 -29 -30 -31
leaf_parent=3 17 29 15 3 16 8 6 9 8 10 11 11 14 13 14 15 16 19 18 21 23 21 24 23 25 25 28 27 28 29
leaf_value=0.025789635219436471 0.088965641449249788 0.087316709760046324 0.039566638148333361 0.22279179947542227 0.011406198968252505 0.088521260945442146 0.057364811536521065 0.057181685834803576 0.25408400920075347 0.1542710798366515 0.00380141666997934 0.12047713274270302 0.17229244480738079 0.028014818369441714 0.043545828386039737 -0.029901233260739457 0.067709026597662939 0.053374296653768832 0.053358248911150152 -0.0092291742093406869 0.087086635285817782 0.11973982147704419 0.053111339298784234 0.25617078351044936 0.055275577533392697 0.17246167242307903 0.14741551029738617 0.14522586511261643 0.051333796581621141 0.027329771333632853
leaf_count=17 558 23 114 10 57 13 634 205 10 24 13 13 18 25 19 16 31 46 123 19 12 14 20 12 10 15 10 11 87 84
internal_value=0 0.7957784519284552 0.60349491932130661 1.1213667415849136 0.58776282390508139 0.60751345552158409 0.64094431756453674 0.77863953926177765 1.7312625719973793 0.67819079722367781 1.0642153751125811 0.63596729595461121 0.44627377979184107 0.75262130896088031 1.0669645701328518 0.30359202501680277 0.31546661705940254 0.84169335874927509 0.73398660023855278 0.87206476021076207 1.0128078252321444 0.51331055840402362 1.2277771863084734 1.7470837205358252 0.9546662105229119 1.2831393481787123 0.57186272564750673 0.72329785405240254 0.62561635800303006 0.41021517908165889
internal_count=2263 1044 1219 27 1192 1104 912 278 23 255 50 26 192 62 37 130 88 829 271 148 102 33 69 24 45 25 215 108 97 107


Tree=18
num_leaves=31
split_feature=0 5 5 5 2 6 5 0 0 5 6 5 5 6 0 5 0 4 5 0 5 0 6 5 5 5 5 6 5 6
split_gain=71.894857782602685 40.543398032839377 30.780265984185917 105.12431971725323 21.611446792710467 41.975377505652204 31.271578057737315 36.590912730984428 38.91750105793426 74.635187535134605 37.066051173392736 31.04936661417338 62.165869127465783 30.21755816488519 24.566213952017392 24.119276972924126 30.066447044679649 50.210290350979022 63.670627974551508 34.150936883397719 29.14230668650282 23.954513671119912 48.482233548564494 19.914422409126587 18.88147726166676 18.215444459028163 60.603866787334709 26.439724578555058 30.088076764884079 42.86614274866406
threshold=47.5 3.8971951007843 0.93799999356269803 0.75599998235702515 0 13.75 2.498882055282595 54.5 53.5 1.5048184990882851 9.5 2.5876619815826398 2.7004954814910898 11.9091200828552 55.5 3.6046119928359999 49.5 1 2.9939999580383301 51.5 3.2618368864059453 54.5 10.902744770050049 2.3339254856109601 4.8949999809265154 1.190012991428375 1.375 10.902744770050049 1.6150000095367449 9.5
decision_type=0 0 0 0 1 0 0 0 0 0 0 0 0 0 0 0 0 1 0 0 0 0 0 0 0 0 0 0 0 0
left_child=2 4 3 -1 15 6 7 8 9 -6 -11 -8 -13 -14 -9 16 17 -2 -19 -18 21 22 -21 25 -4 -16 -27 28 -28 -30
right_child=1 -3 24 -5 5 -7 11 14 -10 10 -12 12 13 -15 23 -17 19 18 -20 20 -22 -23 -24 -25 -26 26 27 -29 29 -31
leaf_parent=3 17 1 24 3 9 5 11 14 8 10 10 12 13 13 25 15 19 18 18 22 20 21 22 23 24 26 28 27 29 29
leaf_value=0.017414388297471602 0.012105058704571183 0.052081881778812081 0.057868381055101836 0.2047539753099975 0.0029533141056332004 0.17350775822237019 0.028473952786386942 0.024153416617519966 0.18050990813586609 0.1611507971339671 0.080245574512774892 0.16358563679830807 0.060732122997565932 0.13066831116353059 0.058371333643444295 0.12730841341276744 0.0170040388521976 0.075619810162282447 0.24383510485030674 0.13346226366949723 0.021357209237990865 0.066523602314199973 0.018456456656878967 0.014753049620633516 0.030176552182617711 0.16344657105712165 0.053746949076487506 0.039681422612786642 0.088697966799796787 0.17197423115057545
leaf_count=16 10 183 1104 11 13 12 37 16 16 27 19 16 146 15 35 18 39 12 10 32 30 191 12 10 88 23 29 24 51 18
internal_value=0 0.76169536891149692 0.57531936807326822 1.0742296075869795 0.80146597277278986 0.86336974540935152 0.84157497073147414 0.94134882553203125 1.202464116086803 1.0316140235907252 1.284522306099865 0.69616752521147851 0.78220409654420242 0.68182032394570291 0.83172745271279691 0.70535578874588234 0.67550163800048613 1.1421084958431484 1.5345738435986491 0.62783996335072412 0.68865407622048036 0.74530422975040511 1.0545454179908686 0.87795826195712734 0.56008903506036067 0.91061180576179612 0.98033227607525375 0.83968608608997131 0.9498027897654765 1.1178605011549856
internal_count=2263 1044 1219 27 861 507 495 281 75 59 46 214 177 161 206 354 336 32 22 304 265 235 44 190 1192 180 145 122 98 69


Tree=19
num_leaves=31
split_feature=0 5 5 0 5 6 4 5 5 3 0 5 4 5 7 5 5 5 5 6 1 6 5 5 5 2 0 2 5 5
split_gain=69.643289914615707 39.468479401305103 29.396610261429714 98.975182517886481 17.684269348546422 22.135640835494428 41.10214797871572 85.874614754457895 31.437781393341879 23.560659962421397 20.351544525915187 45.749946723562061 21.225351414323995 37.727981864210733 40.001005277395507 29.028675722319178 22.749461091877492 73.682171667873604 25.815041687383314 46.692755158532094 39.555754045306813 23.743834874045774 18.794755466277991 46.497035301547598 36.247000022042243 53.76784428106771 45.940506433895436 31.20312348341011 17.19131885625643 17.364860959354701
threshold=47.5 3.6758689880371103 0.93799999356269803 36.5 1.808499991893765 10.902744770050049 1 1.5950000286102299 1.375 0 59.5 1.999000012874605 1 3.598480463027955 1 2.0705000162124652 2.7004954814910898 2.5876619815826398 3.1035754680633549 10.25 1 11.6591200828552 2.2975000143051147 2.0571019649505597 2.498882055282595 0 52.5 0 4.8949999809265154 1.9099999666214
decision_type=0 0 0 0 0 0 1 0 0 1 0 0 1 0 1 0 0 0 0 0 1 0 0 0 0 1 0 1 0 0
left_child=2 4 3 -1 5 6 7 -2 -7 -10 11 -6 15 14 -14 -13 17 21 -18 -20 -21 22 23 -16 25 -24 -26 -28 29 -4
right_child=1 -3 28 -5 10 8 -8 -9 9 -11 -12 12 13 -15 16 -17 18 -19 19 20 -22 -23 24 -25 26 -27 27 -29 -30 -31
leaf_parent=3 7 1 29 3 11 8 6 7 9 9 10 15 14 13 23 15 18 17 19 20 20 21 25 23 26 25 27 27 28 29
leaf_value=0.022339617159383873 0.034032340057555788 0.05190396356153032 0.04014663483671746 0.20311276541052972 0.0080292540538390907 0.15898333269610876 0.07280283045308189 0.20939428292730566 0.027106804474990878 0.11368606812920952 0.056009587013348544 0.12757340021092947 0.1635028534217422 0.16214912067438772 0.10728744525424255 0.040901581748236181 0.045049602883678402 0.19830859662524877 0.1486073017910623 0.11384527592519647 0.032240780899199642 0.013936113357840493 0.067415900756585531 0.022052597572780303 -0.0047409371597048316 0.18899647311153192 0.1681694748231278 0.063697076473099426 0.028879919350039064 0.058264213228852085
leaf_count=17 10 215 192 10 20 17 188 13 10 20 151 10 12 12 28 58 80 10 19 21 40 12 13 31 13 14 11 16 88 912
internal_value=0 0.73076207615372568 0.54890779591786865 1.0313842919316885 0.77403603464766546 0.87407270144687343 0.80559282629053763 1.3658786584486222 1.1473655353555194 0.84755716593168817 0.72461200114652546 0.77628539233451743 0.81236734602689842 0.86029552103249574 0.8263145819912211 0.55667430413363617 0.79088945820385959 0.91800930064643071 0.65710297351828106 0.84881689725345344 0.63207175610850219 0.81715175594239597 0.87305993233599877 0.67131632241343153 1.0340055527602554 1.3922781110735325 0.71978421964259554 1.0688785171897552 0.53411884060582326 0.55164978825735367
internal_count=2263 1044 1219 27 829 258 211 23 47 30 571 420 400 332 320 68 308 148 160 80 61 138 126 59 67 27 40 27 1192 1104


Tree=20
num_leaves=31
split_feature=0 5 1 2 0 3 2 5 5 5 0 4 5 0 5 5 6 4 5 5 3 0 5 4 5 7 5 5 5 5
split_gain=67.736063497647137 38.020589901163476 28.788501392490161 70.879343158115603 110.12438415779667 95.342213139174589 21.017542396716863 18.50457362413718 17.091675416075873 26.965253011450557 48.72573528773772 16.960873806048539 23.635719438726028 34.05065622579383 37.263309849648181 16.361918842889281 20.65286571065144 37.85272243800091 76.920724430763102 28.947975593057208 21.520895397121748 19.520989788361021 42.33325498104341 19.814195561395309 34.312528851503544 36.008712989205492 26.660428723589774 21.709252105277869 67.495533032025492 23.839339309387924
threshold=47.5 3.6758689880371103 1 0 34.5 0 0 1.6965000033378601 4.0575001239776594 3.9801313877105704 41.5 1 1.999000012874605 43.5 3.993804931640625 1.808499991893765 10.902744770050049 1 1.5950000286102299 1.375 0 59.5 1.999000012874605 1 3.598480463027955 1 2.0705000162124652 2.7004954814910898 2.5876619815826398 3.1035754680633549
decision_type=0 0 1 1 0 1 1 0 0 0 0 1 0 0 0 0 0 1 0 0 1 0 0 1 0 1 0 0 0 0
left_child=2 15 3 4 -1 -6 7 -4 9 -9 -11 12 -8 -14 -15 16 17 18 -2 -18 -21 22 -17 26 25 -25 -24 28 -27 -29
right_child=1 -3 6 -5 5 -7 11 8 -10 10 -12 -13 13 14 -16 21 19 -19 -20 20 -22 -23 23 24 -26 27 -28 29 -30 -31
leaf_parent=4 18 1 7 3 5 5 12 9 8 10 10 11 13 14 14 22 19 17 18 20 20 21 26 25 24 28 26 29 28 29
leaf_value=0.026501414081038711 0.033083817858377627 0.049620051405901998 0.00013522494554861787 0.053086943052233861 0.24016887609107332 0.092153677490172767 0.1342345152208477 0.042926976268100631 0.017548384182914798 0.034133195818749636 0.19235261394408501 0.044345968739677409 0.050432244948116961 0.06607443811203334 0.19464314697452564 0.0078363955871620893 0.15187160576928649 0.070002057950522154 0.19735972024822118 0.026381070444315688 0.10864269954324096 0.053737294446842436 0.12150656253132713 0.15496545477395188 0.15421333369550472 0.078808776886176046 0.039443188922561385 0.043402041807394841 0.18866092722395966 0.081391839090775436
leaf_count=32 10 215 39 332 10 19 13 371 79 14 10 156 119 15 10 20 17 188 13 10 20 151 10 12 12 138 58 80 10 80
internal_value=0 0.70246322696535235 0.52455942924106747 0.63753687825874283 1.0909034912337219 1.5685492414641755 0.4636811327951757 0.39140648857128751 0.42063891990086716 0.46681750844761061 1.0321023289540252 0.57059362424874438 0.69219544359921426 0.62736402508372247 1.1700953372501681 0.74455348763319418 0.83985552862651214 0.77417305272661163 1.3045148784427962 1.1008475307776169 0.81486426624529662 0.69735107887862258 0.74751593362604785 0.78167999763476603 0.82748977220904907 0.79515242623073767 0.53617706851731017 0.76155482403160868 0.88457817238289704 0.63179531949469359
internal_count=2263 1044 1219 393 61 29 826 513 474 395 24 313 157 144 25 829 258 211 23 47 30 571 420 400 332 320 68 308 148 160


Tree=21
num_leaves=31
split_feature=0 5 1 2 0 0 2 5 5 0 2 6 5 4 5 0 5 2 5 0 0 5 5 0 5 5 0 7 4 5
split_gain=64.76428938034087 36.499509957013515 27.532239425158878 68.450053931062484 104.20298431127463 40.871768787397684 19.43813758788599 16.943506843009345 15.935969628552471 19.014318226374087 15.737558199444464 24.01687316660923 24.203044940857524 19.0898709427832 21.793635081267524 15.642867734640731 25.532802421089571 26.366154630749122 44.329329943794278 48.730836131303519 35.322093425746743 61.917141941577256 24.141240872103822 31.581943443749225 15.597866692493398 25.721101529589362 34.132803746830149 15.520074663129606 15.289622955185337 19.734217905273965
threshold=47.5 3.6758689880371103 1 0 35.5 41.5 0 1.6965000033378601 1.9600000381469751 28.5 0 10.902744770050049 3.9990279674530047 1 4.9749999046325701 59.5 2.0039999485015851 0 1.2949999570846549 62.5 61.5 1.7899999618530249 1.5950000286102299 62.5 4.0225210189819354 3.9801313877105704 39.5 1 1 1.999000012874605
decision_type=0 0 1 1 0 0 1 0 0 0 1 0 0 1 0 0 0 1 0 0 0 0 0 0 0 0 0 1 1 0
left_child=2 15 3 4 -1 -6 7 -4 -5 -10 13 -12 -13 14 -3 -2 17 -17 19 -19 21 -20 -22 -24 25 -9 -27 -8 29 -29
right_child=1 10 6 8 5 -7 27 24 9 -11 11 12 -14 -15 -16 16 -18 18 20 -21 22 -23 23 -25 -26 26 -28 28 -30 -31
leaf_parent=4 15 14 7 8 5 5 27 25 9 9 11 12 12 13 14 17 16 19 21 19 22 21 23 23 24 26 26 29 28 29
leaf_value=0.034242849601185392 0.07599211758244212 0.028897749867974207 0.00013055844736032613 0.028520797293499975 0.20763115053499834 0.10802234280508838 -0.011087646789906076 0.04104147332420819 0.095661881408219615 0.051635346426910915 0.042416643558610752 0.15591437333273817 0.066812175238447985 0.020003157579307512 0.13157473642744297 0.043538020188792742 0.043779139409854749 -0.014812627489476288 0.23589234605898823 0.10176920579498594 0.044900230396244543 0.088693217209759923 0.046364506065943528 0.1511358600122816 0.017070414849545478 0.038857341127851414 0.17158565651542179 0.1264623368787007 0.044333317542742598 0.062113683911766721
leaf_count=36 558 13 39 71 10 15 10 371 29 232 70 10 28 84 10 46 123 19 10 14 20 14 10 15 80 13 10 13 149 141
internal_value=0 0.67568942571289836 0.5030332458010901 0.61264266094209452 1.0541080042730013 1.5693713894191625 0.44386984856574813 0.37470318265135932 0.50846226843160436 0.56774137234441702 0.47499939983018274 0.61472394530304619 0.938477320189119 0.32539721967713664 0.74420388241625757 0.71656468536347839 0.61896008961748361 0.74291634805267392 0.86991477103550341 0.40565368604469243 1.0697650460834223 1.5128865697098512 0.83110590013492769 1.1221473163800428 0.40232788142811127 0.44635749933686442 1.0031854864683825 0.54579277008803584 0.56699531174797024 0.68149431450560083
internal_count=2263 1044 1219 393 61 25 826 513 332 261 215 108 38 107 23 829 271 148 102 33 69 24 45 25 474 394 23 313 303 154


Tree=22
num_leaves=31
split_feature=0 5 5 5 5 6 5 5 0 0 5 3 0 5 0 4 5 5 5 7 0 5 5 0 5 6 1 1 0 5
split_gain=61.840139828563224 34.671269169132074 27.059100648624735 91.903894153343856 15.520495032221561 19.976195098239145 41.04921661681459 24.40215007719496 22.315150847467976 32.731923981425837 18.963772464958794 26.223524661961648 35.859963559011391 19.210799731732386 18.735944670428012 17.373308633741544 30.024094193937344 23.997088043601231 18.577241067637146 46.695094533043516 40.971258878061917 30.571371541112285 121.97970533161725 47.937081991156504 32.95784142124154 58.825475554960803 25.732841493194698 25.323805277703173 29.587387135804136 49.092897328071615
threshold=47.5 3.6758689880371103 0.93799999356269803 0.75599998235702515 1.808499991893765 10.25 1.7899999618530249 1.7899999618530249 61.5 60.5 1.630925476551055 0 57.5 1.2949999570846549 58.5 1 3.598480463027955 3.0517305135726902 2.2975000143051147 1 48.5 2.7004954814910898 2.644023060798645 61.5 3.1035754680633549 9.5 1 1 58.5 2.498882055282595
decision_type=0 0 0 0 0 0 0 0 0 0 0 1 0 0 0 1 0 0 0 1 0 0 0 0 0 0 1 1 0 0
left_child=2 4 3 -1 5 6 10 8 9 -7 11 13 -13 -2 -8 17 18 -6 -17 -20 -21 22 23 27 -23 -26 -27 28 29 -22
right_child=1 -3 -4 -5 15 7 14 -9 -10 -11 -12 12 -14 -15 -16 16 -18 -19 19 20 21 24 -24 -25 25 26 -28 -29 -30 -31
leaf_parent=3 13 1 2 3 17 9 14 7 8 9 10 12 12 13 14 18 16 17 19 20 29 24 22 23 25 26 26 27 28 29
leaf_value=0.011028987010739455 0.0044097354328052332 0.045610242310492238 0.04690543487829886 0.18012150561035378 0.058929522140020757 0.099489201024025073 0.16139332789628549 0.041804968665437467 0.064042377134429077 0.18778773831672649 0.0053716534252225469 0.026609863062505387 0.10992478268643942 0.073191359521012953 0.077192651491411246 0.050386629785856257 0.13132548065189517 -0.0024457032013570131 0.15892365263187683 -0.010151844865715645 0.18544780362446711 0.040415631409589391 0.22408437630798567 -0.0052998516310037965 0.15454352570399307 0.09245553433737401 0.03413346783558887 0.058226243294069883 0.058496681127709442 0.075849870212746681
leaf_count=16 27 215 1192 11 59 69 10 19 30 10 16 18 34 15 10 132 13 22 11 14 12 110 11 18 18 30 42 42 20 17
internal_value=0 0.65048929919389042 0.48297566353765031 0.9346838572556021 0.68997331009309959 0.78129055769060241 0.64660893196651548 0.90048386158695981 0.97710505850835627 1.0934524125726306 0.5218999650295677 0.6065765676127981 0.82444641013561215 0.30944566022975817 1.2100163840034257 0.64470644254629539 0.67738010190908315 0.43288992446708041 0.65566934208922178 0.71386064076774614 0.67877243925990327 0.7146956745019486 0.8933445795748679 0.73405899945152087 0.59222988020589329 0.80360936624242585 0.60045166892319313 0.85389994461501517 1.065264187412315 1.3136047503041905
internal_count=2263 1044 1219 27 829 258 130 128 109 79 110 94 52 42 20 571 490 81 477 345 334 320 120 109 200 90 72 91 49 29


Tree=23
num_leaves=31
split_feature=0 5 1 2 0 3 2 0 6 0 5 6 4 0 5 0 0 5 5 5 6 4 0 5 3 0 5 4 5 7
split_gain=60.370575823371837 33.540314208114296 26.531199933952735 65.982427237801232 99.960596608644721 88.509362497567508 18.187044433702681 15.921181526422345 45.7184261426044 29.240523948847056 44.869688957738646 15.624133519952249 15.11557374794603 25.058563305504407 28.27432203435805 15.102349028198631 20.151076266856023 14.60807138234901 20.019032344236223 14.595763851400307 19.317478158744279 34.095266133993846 68.058025525953639 25.996120734459367 19.042240345945757 16.972915466516042 37.561965122981292 17.37705093129523 29.432747218024588 30.204938428127662
threshold=47.5 3.6758689880371103 1 0 34.5 0 0 41.5 10.902744770050049 43.5 4.0819804668426496 10.25 1 33.5 2.9939999580383301 42.5 41.5 4.8949999809265154 4.4705054759979248 1.808499991893765 10.902744770050049 1 53.5 1.375 0 59.5 1.999000012874605 1 3.598480463027955 1
decision_type=0 0 1 1 0 1 1 0 0 0 0 0 1 0 0 0 0 0 0 0 0 1 0 0 1 0 0 1 0 1
left_child=2 19 3 4 -1 -6 7 -4 11 10 -10 -9 15 -14 -15 16 -5 18 -8 20 21 22 -2 -22 -25 26 -21 -28 29 -29
right_child=1 -3 6 12 5 -7 17 8 9 -11 -12 -13 13 14 -16 -17 -18 -19 -20 25 23 -23 -24 24 -26 -27 27 28 -30 -31
leaf_parent=4 22 1 7 16 5 5 18 11 10 9 10 11 13 14 14 15 16 17 18 26 23 21 22 24 24 25 27 29 28 29
leaf_value=0.022113841953483825 0.031468726102308019 0.043761750216798768 0.027131002101788718 0.043042967172731178 0.22171661261325792 0.082840704104286567 0.050613254011406622 0.072910829357463222 0.18174686328257014 0.055182180757600147 0.03024066112861561 0.010854958406452099 0.13105449365718899 0.02439576373745167 0.096048426673580087 0.015022609338718081 0.11322648117490784 0.013823599980448029 0.11383063249064258 0.0046826494362155469 0.13848423477982874 0.062290609221616194 0.18109032210120765 0.022308337614511536 0.09819902372461671 0.047624304531744863 0.047395555662953122 0.13786712893953432 0.13814001626240732 0.068115342588492625
leaf_count=32 10 215 345 200 10 19 269 14 15 53 10 76 11 36 21 52 12 30 14 20 17 188 13 10 20 151 68 12 12 308
internal_value=0 0.62761304259524509 0.46322952191436245 0.56936376214216278 0.99663236319018011 1.4375513928821457 0.40590972129678826 0.33981486812366313 0.47771212126467877 0.78255192427244757 1.266700119393785 0.20960149166718126 0.46838696455188378 0.67298718076484187 0.53236470382450896 0.40866314471997811 0.46969398127540601 0.50308100181545157 0.53800760801290681 0.66615028468968129 0.7539971950131138 0.69192396884353313 1.1813665569844893 1.0002536809145994 0.73457011700214914 0.62252258161917418 0.66812105429264645 0.69928624619563617 0.74103379251232437 0.7115423738465082
internal_count=2263 1044 1219 393 61 29 826 513 168 78 25 90 332 68 57 264 212 313 283 829 258 211 23 47 30 571 420 400 332 320


Tree=24
num_leaves=31
split_feature=0 5 5 1 2 0 0 5 5 0 4 0 0 5 2 1 6 0 2 6 6 0 5 6 2 5 5 5 0 0
split_gain=57.65476656766532 32.818796516502744 101.52112067286862 25.640268432940616 63.809066220845807 95.270462823938544 39.317364227494068 19.505131832939696 26.17329044457577 44.796871054845042 37.005893514209731 23.343768536250536 54.979259648744005 58.901953059795233 33.810521441190843 17.650063332022285 32.738357903256485 42.746304925511652 16.928280718533642 15.54948562086696 27.113560633905223 39.799414949118159 58.120976443184475 22.903952625540001 44.570402658930163 42.239886043059073 24.703634894250854 27.536517364924464 21.966523500933945 27.86057775557326
threshold=47.5 2.7004954814910898 2.6990175247192396 1 0 35.5 41.5 2.0039999485015851 2.2975000143051147 60.5 1 54.5 53.5 1.5048184990882851 0 1 10.25 56.5 0 10.902744770050049 9.5 49.5 3.6900000572204599 11.470709800720201 0 3.6290000677108747 4.5005218982696551 3.6900000572204599 57.5 59.5
decision_type=0 0 0 1 1 0 0 0 0 0 1 0 0 0 1 1 0 0 1 0 0 0 0 0 1 0 0 0 0 0
left_child=3 2 7 4 5 -1 -7 11 -9 10 -10 12 13 -2 -15 16 -12 -18 -5 20 21 22 -3 25 -25 -21 27 -26 -23 -30
right_child=1 19 -4 18 -6 6 -8 8 9 -11 15 -13 -14 14 -16 -17 17 -19 -20 23 -22 28 -24 24 26 -27 -28 -29 29 -31
leaf_parent=5 13 22 2 18 4 6 6 8 10 9 16 11 12 14 14 15 17 17 18 25 20 28 22 24 27 25 26 27 29 29
leaf_value=0.029580342673540101 -0.0011122497580373005 0.1675767197649084 0.19410081918164601 0.032631144497361514 0.045069562721636987 0.19305252504670725 0.097748350581931653 0.025287178284599178 -0.00043855694167410061 0.0042534155266501479 0.0577310203769692 0.063966431040376984 0.15498539502389239 0.054635368950653643 0.12575351294128476 0.065305952885599761 0.08505156928955826 0.19472408050772483 0.048287182171680043 0.04368743413772562 0.029716922883938818 0.029571718134470751 0.022753044083644595 0.025567317723146511 0.074430866857899139 0.1367796844158011 0.021948889200093649 0.15472498666676598 0.13115631842541917 0.044059580180732749
leaf_count=36 18 13 11 513 332 10 15 62 14 28 19 259 18 25 26 51 13 12 313 22 164 71 12 81 31 26 15 14 13 26
internal_value=0 0.60548755980464908 0.67755866372906493 0.44586804780872524 0.54952127565962461 0.96637234923794402 1.4449924297210346 0.64753867413445532 0.52837488030350499 0.63387394783019557 0.75021374869404034 0.71014452194793098 0.90338189799341484 0.71772615402531226 0.94481294485579193 0.84034425158742387 1.0342374797151839 1.3342600675419385 0.38982016209622905 0.50743155998045719 0.43687037337613227 0.59766811899125616 1.116763994303329 0.61944630154926117 0.51747346990761223 0.91485863888868413 0.81867843526831185 0.97554292985529012 0.46103204217562849 0.76016514482757769
internal_count=2263 1044 556 1219 393 61 25 545 199 137 109 346 87 69 51 95 44 25 826 488 299 135 25 189 141 48 60 45 110 39


Tree=25
num_leaves=31
split_feature=0 5 5 2 5 0 5 1 3 0 4 6 6 6 5 6 0 0 5 2 5 0 0 6 5 0 2 0 0 4
split_gain=55.722475324876996 32.563246980854956 24.734833203434164 86.007377738165204 14.28151947122808 15.471690480156129 14.024152201403808 23.615248758771713 79.897998013862093 51.224832540276253 32.18443397568862 32.919580183762349 37.736280731958942 21.851672506064091 23.240773942699008 37.253543074060232 20.253851325692903 13.958874042047455 22.035398335313232 24.869626539544015 40.147255003696785 44.492198630013874 29.97270177538104 55.457380628961346 22.450289255761419 28.470995453503662 13.730372832776524 21.232791933717664 25.320754581870858 17.145480214965655
threshold=47.5 3.6758689880371103 0.93799999356269803 0 4.8949999809265154 42.5 1.9099999666214 1 0 35.5 1 10.25 11.470709800720201 10.652744770050049 1.7899999618530249 11.9091200828552 45.5 59.5 2.0039999485015851 0 1.2949999570846549 62.5 61.5 9.5 1.5950000286102299 62.5 0 61.5 48.5 1
decision_type=0 0 0 1 0 0 0 1 1 0 1 0 0 0 0 0 0 0 0 1 0 0 0 0 0 0 1 0 0 1
left_child=2 17 3 -1 6 -6 13 8 9 -8 -10 -12 -13 16 15 -15 -4 -2 19 -19 21 -21 23 -22 -24 -26 29 28 -28 -3
right_child=1 26 4 -5 5 -7 7 -9 10 -11 11 12 -14 14 -16 -17 -18 18 -20 20 22 -23 24 -25 25 -27 27 -29 -30 -31
leaf_parent=3 17 29 16 3 5 5 9 7 10 9 11 12 12 15 14 15 16 19 18 21 23 21 24 23 25 25 28 27 28 29
leaf_value=0.16809479462047622 0.066248030891455825 0.064920336432515061 0.02595165005783134 0.0080081308693199342 0.0024830255418156863 0.050831640362516466 0.068249777270167761 0.039936799514073723 0.039582171974072627 0.20725728602420565 0.027598512665057313 0.15290944536502027 0.048775706058195097 0.1347946759353017 0.01575912589132648 0.029290107003572919 -0.035818451310079061 0.035438889581006126 0.036846902925406329 -0.018588280602044233 0.063507608361933254 0.089872667299826223 0.037424980408504831 0.19670663734928495 0.039432963349578846 0.13630454774376624 0.11639076423970857 0.11425945820927437 0.034631619076775755 0.014709731333372817
leaf_count=11 558 23 114 16 57 31 13 634 205 10 17 20 13 18 25 19 16 46 123 19 12 14 20 12 10 15 10 11 87 84
internal_value=0 0.58523678750678509 0.42926201618952137 0.85172918487673432 0.41614851347420295 0.20029762600478887 0.43142765318778681 0.45807463677334143 0.57791016145520091 1.4025991347735283 0.49013339733936373 0.8322236033906143 1.1067440157109667 0.30128806797200169 0.56056148545112849 0.82189515588262652 0.17866608116683871 0.62270660307441661 0.53295500828444409 0.64452269192677591 0.7643296296496831 0.33349863151457743 0.94835711499687803 1.3412622740539408 0.73335627042050877 1.0059710652796128 0.40046058371936549 0.52711333368663726 0.44330462042125257 0.26374436618765135
internal_count=2263 1044 1219 27 1192 88 1104 912 278 23 255 50 33 192 62 37 130 829 271 148 102 33 69 24 45 25 215 108 97 107


Tree=26
num_leaves=31
split_feature=0 5 5 1 2 0 0 5 5 0 4 0 0 5 2 1 6 0 2 5 0 6 6 0 5 5 5 5 0 0
split_gain=53.77617119209981 31.147626631498724 93.049708705689 23.84850482289346 60.280149243914764 91.544399797271637 37.556388524748172 17.875057868269664 24.827077246716101 41.011564221686655 34.496590062050302 21.951006797748846 50.010773640199716 54.752557839582209 31.571923147086096 16.647774937640293 30.016957532016079 37.409051879833868 15.992432154395942 15.162971259454366 14.937358967010141 14.321103489435075 25.04578567637833 36.812010430583143 53.087774485100027 22.350752236416326 112.27511140944131 27.349011966422793 20.243452742935915 25.099050423033262
threshold=47.5 2.7004954814910898 2.6990175247192396 1 0 35.5 41.5 2.0039999485015851 2.2975000143051147 60.5 1 54.5 53.5 1.5048184990882851 0 1 10.25 56.5 0 1.6965000033378601 55.5 10.902744770050049 9.5 49.5 3.6900000572204599 3.8971951007843 3.6046119928359999 5.9449999332427996 57.5 59.5
decision_type=0 0 0 1 1 0 0 0 0 0 1 0 0 0 1 1 0 0 1 0 0 0 0 0 0 0 0 0 0 0
left_child=3 2 7 4 5 -1 -7 11 -9 10 -10 12 13 -2 -15 16 -12 -18 19 -5 -13 22 23 24 -3 26 -23 -27 -25 -30
right_child=1 21 -4 18 -6 6 -8 8 9 -11 15 20 -14 14 -16 -17 17 -19 -20 -21 -22 25 -24 28 -26 27 -28 -29 29 -31
leaf_parent=5 13 24 2 19 4 6 6 8 10 9 16 20 12 14 14 15 17 17 18 19 20 26 22 28 24 27 26 27 29 29
leaf_value=0.02621866871554129 -0.0024649111502252925 0.15670762229744709 0.18190536191481144 -0.0046084925152170466 0.04170166118804676 0.18399416444850122 0.092229907352621085 0.022782185428386819 -0.0019450410697218054 0.0031445584241184587 0.05413457395073179 0.021128861214282642 0.14542273172995529 0.050815357725258407 0.11857609766777549 0.060975874578661028 0.080641813668633794 0.18138579182221559 0.044929159583074994 0.032408194995778711 0.062795002353420615 0.048147478823244827 0.027121426123012916 0.026887522701251044 0.020259027230916143 0.02416721265519468 0.17319443528629719 0.10930481781626721 0.12201639779681306 0.040744248699472935
leaf_count=36 18 13 11 39 332 10 15 62 14 28 19 19 18 25 26 51 13 12 313 474 240 87 164 71 12 72 18 12 13 26
internal_value=0 0.56575955045276893 0.63504753812912929 0.41342939312303151 0.51213574360008929 0.91140684630474811 1.3731529386595065 0.60643042742833453 0.49359359428197114 0.59496982220834893 0.70407500836502557 0.66550943661953599 0.85019293461080148 0.67450082693097091 0.88901947830779571 0.78939234637409184 0.97478556766927804 1.2562997552934512 0.35991371721375837 0.29879393018976186 0.59797457741482496 0.47135393421836969 0.40433795841147291 0.55668243021867525 1.047155837154035 0.5773775763580542 0.71244584151719037 0.36538990409203642 0.42635861058966962 0.7088686480615628
internal_count=2263 1044 556 1219 393 61 25 545 199 137 109 346 87 69 51 95 44 25 826 513 259 488 299 135 25 189 105 84 110 39


Tree=27
num_leaves=31
split_feature=0 5 5 4 5 5 5 6 5 5 0 0 5 3 0 5 0 1 0 5 5 0 5 0 4 5 7 5 0 3
split_gain=52.108147016509974 30.857631515518733 23.711720708573694 85.687367532572253 13.349107515403716 13.565257012501888 13.15745968139322 18.821055384332794 36.227819079519548 22.192279702902283 19.737238056499109 25.417709662179789 17.688364026204553 22.997698317355557 32.249382822001436 17.707864887596415 15.492043538246492 30.406529721837956 23.709295639271176 16.079547895145168 16.74114326625542 15.413329057765182 15.326463504565936 23.101178226702586 15.983502951609012 28.081989081933216 27.881044367421623 22.777373088683646 19.252649856016433 19.467963763486409
threshold=47.5 3.6758689880371103 0.93799999356269803 1 4.6699998378753698 1.375 1.808499991893765 10.25 1.7899999618530249 1.7899999618530249 61.5 60.5 1.630925476551055 0 57.5 1.2949999570846549 54.5 1 51.5 1.190012991428375 1.4174999594688451 58.5 1.999000012874605 59.5 1 3.598480463027955 1 3.0517305135726902 48.5 0
decision_type=0 0 0 1 0 0 0 0 0 0 0 0 0 1 0 0 0 1 0 0 0 0 0 0 1 0 1 0 0 1
left_child=2 6 3 -1 5 -4 7 8 12 10 11 16 13 15 -15 -2 18 19 -9 -18 -21 -10 -8 24 27 26 -26 -24 -28 -30
right_child=1 -3 4 -5 -6 -7 22 9 21 -11 -12 -13 -14 14 -16 -17 17 -19 -20 20 -22 -23 23 -25 25 -27 28 -29 29 -31
leaf_parent=3 15 1 5 3 4 5 22 18 21 9 10 11 12 14 14 15 19 17 18 20 20 21 27 23 26 25 28 27 29 29
leaf_value=0.15175337471066677 -0.0014510446726941017 0.036998370660525956 0.0069807919873513969 -0.0068828014568860854 0.019612231736654433 0.041195643177261085 0.022817133758830769 0.068024046821707471 0.1396576306133199 0.03311639482193842 0.054045614788719644 0.16100997642512918 -0.0012744523242928961 0.018700178150292394 0.095091517353094401 0.062600226863984865 0.097407323503856016 0.12848343645178337 0.15500404967668435 -0.0042274579828807746 0.064942218364861234 0.06610539413881604 0.055098264376467671 0.038731630061095465 0.1247999646471457 0.1262754763061677 0.015544155945432731 -0.010484189559009052 0.03184078867425881 0.067057037724312138
leaf_count=15 27 215 31 12 102 1059 30 10 10 19 30 10 16 18 34 15 10 13 10 11 15 10 52 141 12 12 19 16 39 250
internal_value=0 0.5479204964612695 0.39878804247640148 0.80743116231583845 0.3860687888238995 0.40195335322217829 0.58392453674089306 0.66516378903413942 0.53880285946584139 0.77705624093941894 0.84755278757113617 0.9529803311843752 0.42495557419075636 0.50405639098358468 0.70042894130975375 0.23339882864017666 0.86774704648049517 0.73457300919414592 1.1573295088297706 0.53375669387414271 0.35261191513918139 1.0478141593679382 0.54349595957367292 0.56166685132862149 0.61405524582029969 0.65302518688409017 0.62496721632806718 0.40315878240868974 0.59645028377939457 0.625543010441866
internal_count=2263 1044 1219 27 1192 1090 829 258 130 128 109 79 110 94 52 42 69 49 20 36 26 20 571 541 400 332 320 68 308 289


Tree=28
num_leaves=31
split_feature=1 0 5 5 6 7 0 0 0 5 0 6 5 5 0 5 5 4 6 2 0 0 5 6 0 0 0 2 6 0
split_gain=50.936177636864159 42.929234801484085 35.716570196851308 215.81108273121185 34.106788063316003 31.945193231867108 36.162341149556696 21.794651886486918 56.123343489472973 42.019728323920106 30.840005960564781 27.438589428261594 30.001634438301267 30.245060363771984 22.06644739079286 36.650479133278509 37.469410524167643 27.05465154065098 30.112592359623449 26.991788625040158 39.617778307803462 37.98978723722928 23.422478299521146 52.959509374358447 35.48726017376984 21.519677550649192 31.141041312833124 19.200701187079176 19.664243426912606 36.619955046607615
threshold=1 51.5 0.76899999380111717 0.93799999356269803 11.6591200828552 1 58.5 34.5 36.5 2.7295069694519047 38.5 10.25 2.3759999275207551 1.1190000176429751 57.5 1.5549999475479099 2.6990175247192396 1 10.902744770050049 0 51.5 53.5 1.375 10.902744770050049 63.5 47.5 52.5 0 16.5 33.5
decision_type=1 0 0 0 0 1 0 0 0 0 0 0 0 0 0 0 0 1 0 1 0 0 0 0 0 0 0 1 0 0
left_child=2 27 -1 -4 5 6 -3 -5 9 -9 -10 12 13 -12 15 -13 19 -18 -19 20 -17 -21 23 -16 -24 -15 -27 -2 -29 -30
right_child=1 4 3 7 -6 -7 -8 8 10 -11 11 14 -14 25 22 16 17 18 -20 21 -22 -23 24 -25 -26 26 -28 28 29 -31
leaf_parent=2 27 6 3 7 4 5 6 9 10 9 13 15 12 25 23 20 17 18 18 21 20 21 24 23 24 26 26 28 29 29
leaf_value=0.00061552885791216932 0.027469704187153839 -0.030343330754814352 0.2010378472368981 0.033183722532837877 0.019105075256286835 0.067132844110104131 0.069743740858319844 0.073641245188099988 0.0059830468737501492 0.19131221525994405 -0.0056015148731701761 0.010034141244066021 0.028853137592621203 0.021925875834259454 0.013414694346751729 0.19975646526700896 0.031775616494248413 0.038933400351614959 0.11003251049955556 0.062421375505072943 0.085692736599071034 0.13989151223717874 0.036188513318586753 0.14645989178483318 0.10342310187534705 0.11690713220357736 0.059585575076633535 0.039436176233453038 0.021934450683484943 0.15592812173389906
leaf_count=25 615 16 17 142 58 218 16 20 32 11 17 15 161 28 10 10 52 23 31 49 11 13 143 11 19 19 110 351 10 10
internal_value=0 0.39107882374214381 0.53802673653212396 0.55324825231545283 0.53967603321773561 0.60929608162318716 0.16964128374743206 0.51871601933854594 0.54655231179549668 1.1991470812092708 0.52296795907363602 0.54188907289659682 0.44326228289497938 0.56934569659214795 0.6241699602591958 0.72773255939041548 0.78781674932965773 0.58596635214162851 0.80933711500341032 0.99702794845979237 1.3957468819727645 0.84165343643920632 0.50857905606345311 0.91251692960782405 0.44201221778733585 0.62642202985817919 0.69448822158136692 0.33408940263262499 0.42232065986028344 0.89943055417916284
internal_count=2263 1294 969 944 308 250 32 927 785 31 754 722 335 174 387 204 189 106 54 83 21 62 183 21 162 157 129 986 371 20


Tree=29
num_leaves=31
split_feature=0 5 1 2 0 0 2 0 6 0 5 6 4 5 0 6 5 6 4 0 5 5 5 0 2 5 0 0 6 0
split_gain=49.114123126212462 29.57209204526157 22.297012284334414 58.971638142175323 87.521829529273617 37.070510288224682 14.253614720195287 14.176229785179103 39.103662346453945 24.782290335868453 36.803024826005654 13.640192759805853 13.609670161365642 18.111804588978487 28.795312549802816 55.783799692794148 15.27419762898711 14.353050867644193 13.402525347311098 23.668662856738521 24.97530417934734 13.243941075509206 13.359890619734529 13.395599152891094 13.242367313994009 47.378380222458077 24.882551775317779 25.590283771953409 34.97380899927407 64.300671227779446
threshold=47.5 3.6758689880371103 1 0 35.5 41.5 0 41.5 10.902744770050049 43.5 4.0819804668426496 10.25 1 1.999000012874605 42.5 10.25 4.4705054759979248 16.5 1 33.5 2.9939999580383301 3.598480463027955 1.808499991893765 33.5 0 3.56399345397949 48.5 57.5 10.25 53.5
decision_type=0 0 1 1 0 0 1 0 0 0 0 0 1 0 0 0 0 0 1 0 0 0 0 0 1 0 0 0 0 0
left_child=2 24 3 4 -1 -6 7 21 11 10 -10 -9 13 -8 16 -16 -15 -14 -5 -20 -21 22 -4 -24 25 -2 -26 28 -28 -30
right_child=1 -3 6 18 5 -7 12 8 9 -11 -12 -13 17 14 15 -17 -18 -19 19 20 -22 -23 23 -25 26 -27 27 -29 29 -31
leaf_parent=4 25 1 22 18 5 5 13 11 10 9 10 11 17 16 15 15 16 17 19 20 20 21 23 23 26 25 28 27 29 29
leaf_value=0.022729572559947325 0.044373203276633633 0.034180280687138076 0.0011058831592460391 0.031783100990823702 0.17546518230533437 0.085758528899570294 0.10352779718044364 0.061491284611637387 0.15551415970621529 0.045320116583441011 0.023100898377686557 0.0053752926936226457 0.024899561669070772 0.039531241235204351 0.17846109512420014 0.038741596707368001 -0.020822643014697155 0.081891583994012473 0.11569887153428766 0.016340574533879836 0.081242162356040315 -0.00029051858066340676 0.043476946251134331 0.016787417153716833 0.010529846775840082 0.13418999547531468 0.05566566620957103 0.050928907890399881 0.054508005077579393 0.1213727054757064
leaf_count=36 329 215 55 264 10 15 13 14 15 53 10 76 144 101 10 20 13 12 11 36 21 75 117 98 19 10 129 241 52 49
internal_value=0 0.51421428517510659 0.37094439493641862 0.4648500211026822 0.85382452183257884 1.2974886132675392 0.31993317186055281 0.2629561040139039 0.38902376126771615 0.65995421694442902 1.0863774739906762 0.14648906224520966 0.40287294941148888 0.50539536904784521 0.45116879241752472 0.87332269419580588 0.33188114197326252 0.29479512144974285 0.37231931359897269 0.5581541070794116 0.42644896338505905 0.20006312777262322 0.25476494268159122 0.31310744509339844 0.54904873563444057 0.47801686625688689 0.59456067140402136 0.61493119165659749 0.71599659990871112 0.89518174473058221
internal_count=2263 1044 1219 393 61 25 826 513 168 78 25 90 313 157 144 30 114 156 332 68 57 345 270 215 829 339 490 471 230 101


Tree=30
num_leaves=31
split_feature=1 0 5 5 6 0 0 0 7 2 5 6 5 5 5 0 0 5 0 6 5 5 0 5 5 5 4 5 0 5
split_gain=47.640034475592074 39.353783739460368 33.371172061876678 196.99345491765462 31.591669255297916 30.705430269290218 94.329429286405059 55.30193383796194 53.736890376415261 25.164124907160499 23.365328287219199 40.368488564313111 30.409389831323722 38.450235825679073 29.910261515251541 20.3393569825746 50.322443061857825 36.596799498669412 28.854838319044461 25.21249520597587 28.560672814000952 28.544716407588965 19.808554617729101 33.888185909395247 35.654814343979524 25.03729876482123 50.438246022152327 44.635471592915934 32.744978674797551 28.029713330978353
threshold=1 51.5 0.76899999380111717 0.93799999356269803 11.6591200828552 60.5 58.5 59.5 1 0 3.2618368864059453 10.902744770050049 2.6990175247192396 2.9461314678192148 3.0108975172042847 34.5 36.5 2.7295069694519047 38.5 10.25 2.3759999275207551 1.10800004005432 57.5 1.5549999475479099 2.6990175247192396 2.2975000143051147 1 2.0571019649505597 51.5 1.9099999666214
decision_type=1 0 0 0 0 0 0 0 1 1 0 0 0 0 0 0 0 0 0 0 0 0 0 0 0 0 1 0 0 0
left_child=2 -2 -1 -4 5 6 8 9 -3 -8 12 -12 -10 -14 -15 -5 17 -17 -18 20 21 -20 23 -21 25 27 -27 28 29 -25
right_child=1 4 3 15 -6 -7 7 -9 10 -11 11 -13 13 14 -16 16 18 -19 19 22 -22 -23 -24 24 -26 26 -28 -29 -30 -31
leaf_parent=2 1 8 3 15 4 5 9 7 12 9 11 11 13 14 14 17 18 17 21 23 20 21 22 29 24 26 26 27 28 29
leaf_value=-0.00053483753362566549 0.031100433278760265 -0.030599700370076196 0.18822073442690357 0.030838343384515451 0.017265092998566989 0.0093986462219825314 0.20209785486353138 0.043477165200623356 0.054195379699439973 0.10935614232632254 0.0046585737280002626 0.087811589796553541 0.17223510388232774 0.014088091149489106 0.12503321096225692 0.06911400604666193 0.0046438553448246043 0.17666874333066487 -0.011749888855185967 0.0084954281756335886 0.026621602112930427 0.058802203817404586 0.047901028324419344 0.087178329778077726 0.054645754809684012 0.040260462410767722 0.15866669960092195 -0.0076134303026276669 0.05388743080696129 0.18496461950493259
leaf_count=25 986 16 17 142 58 29 13 13 78 10 41 19 10 11 10 20 32 11 15 15 161 159 183 14 106 12 19 12 16 10
internal_value=0 0.36518853116800964 0.50588595237766221 0.52037281958444614 0.50579538295851112 0.5717931096225749 0.62537857746660441 1.2959490133642324 0.49492687538328639 1.6616190944958511 0.56925075157082428 0.32317170514547661 0.68419416171924541 1.0638859951126369 0.68334283259669548 0.48735974581769304 0.51392430346758522 1.1205660638106221 0.49165570044637513 0.50969280281881302 0.41597108389333015 0.53764182541794014 0.58759381850331138 0.68433044076361538 0.74102202288794505 0.94215050389217936 1.2394061284762838 0.75414476603604541 0.950036172049463 1.3086992378490954
internal_count=2263 1294 969 944 308 250 221 36 185 23 169 60 109 31 21 927 785 31 754 722 335 174 387 204 189 83 31 52 40 24



feature importances:
hhninc=350
age=269
educ=105
female=69
kids=47
outwork=40
married=33
self=17

feature information:
age=[25,64]
outwork=0,1
female=1,0
married=1,0
kids=0,1
hhninc=[0.015,25]
educ=[7,18]
self=0,1

pandas_categorical:null