tree
num_class=1
num_tree_per_iteration=1
label_index=0
max_feature_idx=6
objective=regression
feature_names=cylinders displacement horsepower weight acceleration model_year origin
feature_infos=4:8:6:3:5:-1 [70:455] [46:230] [1613:5140] [8:24.600000000000001] 78:73:76:79:82:75:80:71:81:77:74:70:72:-1 1:3:2:-1

Tree=0
num_leaves=31
num_cat=11
split_feature=0 3 1 0 5 5 5 2 5 1 5 1 4 4 3 2 4 3 3 2 2 1 2 5 5 6 5 4 4 4
split_gain=10537.709831179625 3100.1029672972918 1876.5005934702526 946.54726362105703 885.19120066543474 584.15244866642934 367.9890379076644 350.69436285359325 278.39480724837995 236.01259536393582 163.37988383750024 165.05998934650199 159.45156129569705 139.34667960434183 98.288745167130855 90.491561228143837 93.931256176694433 84.746770964548887 76.352461234170391 74.952351495155881 72.709669354499965 52.79121643897804 39.719241270162009 38.088001710891604 35.368437376194152 31.357801040248546 26.52751051013729 25.465030943354009 21.915585483823484 18.985785953176674
threshold=0 2221.5 212.5 1 2 3 4 90.5 5 93.5 6 117.5 22.949999999999999 16.850000000000001 2939 73 18.550000000000001 4236 3820.5 70.5 65.5 137.5 97.5 7 8 9 10 17.949999999999999 16.449999999999999 13.300000000000001
decision_type=9 8 10 9 9 9 9 10 9 10 9 8 8 8 8 10 10 8 10 8 8 10 8 9 9 9 9 8 8 8
left_child=3 5 4 6 10 20 -1 9 18 19 11 -3 15 -11 -8 16 -7 26 -5 -6 -2 -15 28 -4 -16 -12 -10 -26 -13 -19
right_child=1 2 23 8 7 12 14 -9 17 13 25 22 -14 21 24 -17 -18 29 -20 -21 -22 -23 -24 -25 27 -27 -28 -29 -30 -31
leaf_value=23.717115565556377 25.044115566033213 23.998948873696811 22.639115556496471 23.144933762676697 24.601115576046794 24.431782201546518 23.344115577916888 23.502115579861492 22.598829838396057 24.237782243508189 23.276448901909678 23.737661033670015 24.607115548867075 24.008948897936037 23.104168211616116 23.955972705756857 24.036115556973307 22.517463378768728 22.786961709462311 24.236961753478045 24.704291989610915 23.723115568689877 23.398115571755259 22.915115562695352 23.009990557152122 23.484544144546224 22.801448891180844 22.817282219348439 23.533115574139444 22.375615552681772
leaf_count=10 10 12 10 11 10 15 10 10 14 15 15 11 10 12 19 14 10 23 13 13 17 14 10 10 16 14 12 12 10 16
internal_value=0 4.1312947746150748 1.7095234724412482 -6.4088037778408484 2.953920253335613 9.4209531451526445 -3.5697968326953808 5.3827244494412394 -8.5460337253099077 6.2432396486401558 0.45764927400483024 1.6947293558786081 7.3629778988507333 4.8049392758346183 -4.5514150544870322 6.4495294460883503 7.58942681312561 -9.6207269338461074 -5.6354062855243683 8.8071664001630694 13.155797110663521 3.4046578132189236 0.47574970799107708 -7.3745730280876156 -5.15712616291452 -1.3766418818769783 -8.2222653810794544 -5.8717159288270135 1.2568557148887995 -10.553034635690542
internal_count=398 242 166 156 146 76 67 74 89 64 72 43 49 41 57 39 25 65 24 23 27 26 31 20 47 29 26 28 21 39
cat_boundaries=0 1 2 5 8 11 14 17 20 23 24 27
cat_threshold=320 64 0 0 32704 0 0 475136 0 0 360448 0 0 190464 0 0 29824 0 0 440256 0 0 151552 10 0 0 4864
shrinkage=1


Tree=1
num_leaves=31
num_cat=14
split_feature=0 3 1 0 5 5 1 5 5 5 4 3 6 5 5 3 1 3 3 2 2 2 6 3 1 6 4 3 5 5
split_gain=8535.5448297371258 2511.0833900289872 1519.9653799561179 766.70323449387251 720.92709642558134 473.16342935301418 451.25776877481985 366.9918480130608 298.07111866246873 225.49980176457575 129.15575112371607 127.05344664176152 121.84141665334755 86.880782386001329 85.905095560134157 79.613880086177574 76.778305614667488 69.418103367898766 61.845485703996587 58.894824377595342 57.854077544919619 55.224631210695563 40.566601036245345 32.502299107684394 32.229518851972557 25.399816295875148 25.014766349191632 21.917047730838249 21.216919757785263 16.354136854026365
threshold=0 2221.5 212.5 1 2 3 93.5 4 5 6 22.949999999999999 2400 7 8 9 2939 137.5 3958.5 3820.5 65.5 73 80.5 10 3432.5 241 11 14.6 3432.5 12 13
decision_type=9 8 10 9 9 9 8 9 9 9 8 10 9 9 9 8 10 8 10 8 10 8 9 10 8 9 8 8 9 9
left_child=3 5 4 8 14 19 -6 12 -1 18 13 -9 -8 -7 21 -10 -14 -11 -5 -2 -15 -3 -23 -4 27 -16 29 -17 -26 -19
right_child=1 2 23 9 6 10 7 11 15 17 -12 -13 16 20 25 24 -18 26 -20 -21 -22 22 -24 -25 28 -27 -28 -29 -30 -31
leaf_value=0.18228844165802005 1.3765884113311764 0.30896420001983632 -0.53623153686523428 -0.33267517144029779 1.049592896212231 0.34232870631597262 0.8457411722703414 0.32912463883558912 -0.15341155081987382 -0.66862278037837575 0.9832884216308595 -0.064940769308143187 0.59209813194142435 0.78963549978592806 -0.2143115516503652 -0.28900499592224749 0.27317047663606131 -0.93857735594113678 -0.65484999876755934 1.0707472128026625 0.49531182375821203 0.15596254413778132 -0.12232746511697766 -0.7911915302276612 -0.45421197631142357 -0.027025842666625971 -1.0618198490142823 -0.47641757268172047 -0.65062026977539045 -0.81038100579205696
leaf_count=10 10 10 10 11 11 11 11 15 10 14 10 18 18 17 15 12 13 24 13 17 11 11 10 10 11 14 10 13 11 17
internal_value=0 3.7181654101437775 1.5385712440383721 -5.7679232128728657 2.6585283097236942 8.4788579308476884 4.514603844129069 3.6373428268233936 -3.2128170439556465 -7.6914301040802107 6.6266803149970208 1.1417987075718967 5.5981274919495698 5.804576750558156 -0.0018466229240099588 -4.0962734405408829 4.5835427649078833 -8.6586540086911281 -5.0718653624256449 11.840217307761863 6.7400834134646823 1.1554694627561877 0.23443492111705599 -6.6371153354644772 -4.6414134261455944 -1.2389776110649109 -9.2001043394500126 -3.8645953583717345 -5.5241612304340713 -8.8542277173298167
internal_count=398 242 166 156 146 76 86 75 67 89 49 33 42 39 60 57 31 65 24 27 28 31 21 20 47 29 51 25 22 41
cat_boundaries=0 1 2 5 8 11 14 17 18 21 24 25 26 29 32
cat_threshold=320 64 0 0 16320 0 0 475136 0 0 491520 0 0 360448 0 0 190464 12 0 0 6016 0 0 13440 6 10 0 0 20608 0 0 960
shrinkage=0.1


Tree=2
num_leaves=31
num_cat=11
split_feature=0 3 1 0 5 5 1 5 5 5 3 2 4 0 3 5 3 3 1 2 2 4 3 5 1 3 5 2 1 3
split_gain=6913.7913165141426 2033.9775602011841 1231.1720314722966 621.02966607656981 583.95094708299109 383.26238192388519 365.51877862566334 297.2633918854616 241.4376030806493 220.82152435511489 113.30560165155589 105.31043345406113 104.61616570651177 72.768188378353116 106.66175818299985 70.37342941633915 69.196904528649611 64.487236045812892 57.23105410974398 47.704821337810699 46.861798309334972 46.82696861134081 40.203502608973515 28.370004319424538 26.105905260393797 23.66594295660866 21.074484260729378 20.832520086867135 18.087275304367495 17.752808745624804
threshold=0 2221.5 212.5 1 2 3 93.5 4 5 6 2586 97.5 22.949999999999999 7 2221.5 8 4361.5 2939 120.5 65.5 73 17.050000000000001 2845 9 241 2400 10 185 329 3432.5
decision_type=9 8 10 9 9 9 8 9 9 9 8 8 8 9 10 9 8 8 10 8 10 8 8 9 8 10 9 10 8 8
left_child=3 5 4 8 13 19 -6 10 -1 -5 -8 25 15 14 -3 -7 26 -10 -12 -2 -17 -16 -15 -4 29 -9 28 -18 -11 -19
right_child=1 2 23 9 6 12 7 11 17 16 18 -13 -14 22 21 20 27 24 -20 -21 -22 -23 -24 -25 -26 -27 -28 -29 -30 -31
leaf_value=0.16405960083007814 1.2389295959472653 0.28851925452550253 -0.71644121170043951 -0.32764916164534436 0.94463359632275334 0.30809583819725295 0.77956244512037798 0.35556552886962883 -0.13807040125131606 -0.63268898633810178 0.54632108489672326 -0.11881377295805857 0.88495958805084229 -0.014129130840301511 0.093666289001703248 0.71067193816689878 -0.80881959475003762 -0.26010449354847265 0.27443242222070696 0.96367247805875889 0.4457806424661116 -0.18027388499333308 -0.29769042089581488 -0.47823959827423085 -0.49717449383302176 0.13800660371780396 -0.55588424801826475 -0.97298768650401724 -0.7995019876039946 -0.42877581302936263
leaf_count=10 10 15 10 14 11 11 11 10 10 13 15 13 10 10 12 17 26 12 16 17 11 13 10 10 22 10 12 11 13 13
internal_value=0 3.3463488483170338 1.3847140919372261 -5.1911309151313247 2.3926754812263464 7.6309721319887203 4.0631434607297878 3.2736085603634515 -2.8915352776869021 -6.9222871815220692 5.0383147441205525 1.0276188719453234 5.9640122687025947 -0.0016619560619195303 0.77705594524741173 5.2241190349062281 -7.6028356870015461 -3.6866460296145656 4.059914525478117 10.656195587582058 6.0660750057016104 -0.48782601475715637 -1.5590977586805821 -5.9734040498733521 -4.1772719906999711 2.4678606629371642 -6.6550246414385343 -8.5762632473095035 -7.1609548697104817 -3.4781357967853546
internal_count=398 242 166 156 146 76 86 75 67 89 42 33 49 60 40 39 75 57 31 27 28 25 20 20 47 20 38 37 26 25
cat_boundaries=0 1 2 5 8 11 14 17 18 21 24 27
cat_threshold=320 64 0 0 16320 0 0 475136 0 0 491520 0 0 360448 0 0 180224 16 0 0 6016 0 0 440256 0 0 516032
shrinkage=0.1


Tree=3
num_leaves=31
num_cat=11
split_feature=0 2 3 5 2 5 3 5 3 0 1 3 3 3 3 5 2 5 3 5 3 0 5 3 2 5 2 4 1 1
split_gain=5600.1709861916343 1657.6193056794291 859.57907339952339 549.06031645860241 507.90798194276249 453.8026624318336 274.44964135429746 268.89868311206328 177.15153527042764 128.85675765821551 143.94642004778802 115.6577282743483 102.43488478399786 91.523934240624612 89.044539051695693 87.143825514835726 82.892711720555326 59.842002279026701 56.461739592508636 43.387265652637325 37.312457412719823 35.832282950315744 35.136538250596686 30.365711500405641 31.129665901920987 24.128890412419196 21.839513431887553 17.121827419228453 12.859935521231364 11.12468427293652
threshold=0 84.5 2953.5 1 142.5 2 2132.5 3 2503 4 109 2058 3958.5 2373.5 2080 5 106 6 2586 7 3049.5 8 9 2221.5 97.5 10 177.5 13.300000000000001 329 178
decision_type=9 8 10 9 10 9 8 9 8 9 8 10 10 10 8 9 8 9 8 9 8 9 9 10 8 9 10 10 8 10
left_child=4 5 3 8 7 14 11 -1 -3 10 -5 17 20 15 -2 -8 -4 -7 -11 -6 -9 -17 -10 -12 -25 27 28 -22 -21 -27
right_child=1 2 16 9 19 6 13 12 22 18 23 -13 -14 -15 -16 21 -18 -19 -20 26 25 -23 -24 24 -26 29 -28 -29 -30 -31
leaf_value=0.0049231557469618954 0.47106310237537719 0.87230931520462041 -0.26537181718274944 0.46371399760246279 -0.54358976682027182 0.9549876039678401 0.85624533494313571 -0.21265230583293096 0.22625327229499814 0.041326952278614035 0.18078630894422532 1.1871942043304444 -0.63959272801876077 0.33454954794475011 0.11355068605197104 0.63452846493039816 -0.64233572993959698 0.62513363551009771 -0.25813010238549289 -0.62054358612407323 -0.56318037943406518 0.39334535917097868 0.48005828956762947 0.081812151234883501 -0.14154246613228072 -0.42128319859504687 -0.85121715664863595 -0.39045664866765345 -0.76100108921527865 -0.29097670889214466
leaf_count=19 11 10 10 10 12 11 12 14 10 10 10 11 16 14 19 14 14 11 17 11 11 11 12 13 12 10 16 12 16 19
internal_value=0 3.0117139823326826 0.54179813898372231 1.7866764009589902 -4.6720178183645773 5.7849528239876555 6.9772982181360321 -3.340488057767991 5.2332266718149185 0.2548762805785777 1.2911225417628884 9.2243848126946073 -4.1259108954449983 5.5233010098922488 2.4463857203721999 6.3473355349253966 -4.8526743295757724 7.9006061973896893 -1.4722008213952735 -7.1171906514601275 -3.5756038930831533 5.2840789839625355 3.6469237262552436 0.33511756054524866 -0.25398065101355316 -3.9657410409014959 -7.586388693299404 -4.7306365033854609 -7.0377766202997281 -3.3590998120349029
internal_count=398 242 128 104 156 114 84 101 32 72 45 33 82 51 30 37 24 22 27 55 66 25 22 35 25 52 43 23 27 29
cat_boundaries=0 1 4 7 10 11 14 17 20 21 24 27
cat_threshold=320 0 0 491520 0 0 8064 0 0 491520 16 0 0 458752 0 0 483264 0 0 61440 16 0 0 262144 0 0 503744
shrinkage=0.1


Tree=4
num_leaves=31
num_cat=13
split_feature=0 2 1 5 0 3 3 5 5 5 5 5 2 3 1 4 3 3 5 1 3 3 5 2 5 1 5 2 5 3
split_gain=4536.1384257784521 1348.4782562978692 884.24557399674836 593.93581841282764 417.58420577699962 238.28103224601796 227.21443391270873 187.8655738839625 180.49489514858851 141.52807060617124 123.30982792962095 117.73844426361939 101.80796863849542 72.061310817825415 68.21551446349622 60.866762691443114 47.26074022150442 45.969334114387784 31.012572820937585 29.249568702504007 28.866664739368389 27.522255415100204 20.604522892719899 18.758112405802649 16.769411708924963 16.133552875090459 15.417977080479773 13.597345116952056 14.058655462453771 10.796690301039945
threshold=0 70.5 212.5 1 2 2503 2305 3 4 5 6 7 85.5 2080 120.5 18.75 4361.5 2845 8 113.5 2953.5 2953.5 9 127 10 241 11 185 12 3698.5
decision_type=9 8 10 9 9 8 10 9 9 9 9 9 10 10 8 8 8 10 9 8 8 8 9 10 9 8 9 10 9 8
left_child=4 7 3 5 8 -3 11 -2 -1 -6 -9 -5 19 15 -7 -12 23 18 -8 -13 -10 -16 -4 -11 -25 29 -27 28 -18 -22
right_child=1 2 22 6 9 14 17 10 20 16 13 12 -14 -15 21 -17 27 -19 -20 -21 25 -23 -24 24 -26 26 -28 -29 -30 -31
leaf_value=0.10260471059725836 0.29178794562816618 0.79757556915283212 -0.59201726198196414 -0.047187981435230807 -0.27056475196565904 0.56527416110038764 -0.15864215075969698 1.0806789088249207 -0.15908060789108278 -0.42851489565589218 0.73912882208824149 0.45345392514667771 0.055441121118409299 0.90394128886136138 0.33928165957331652 0.44349656999111176 -0.75094954013824455 -0.22022090094978922 0.053747107044116338 0.26499349581343784 -0.21000802576541894 0.12780195593833923 -0.3890171492099761 -0.68618978023529054 -0.52299121548147753 -0.32414053854617209 -0.49157018228010685 -0.7905671639875933 -0.59980287253856657 -0.35069893598556523
leaf_count=13 10 17 10 14 14 10 10 10 10 11 15 20 14 11 16 13 10 16 22 14 10 10 10 10 17 11 11 11 16 12
internal_value=0 2.7105425860543861 1.3702032852077715 2.1401879896454985 -4.2048159789007444 4.8901985658789577 0.81518289382392228 6.8678661802057492 -2.3191388447338075 -5.6243706754084384 7.6739859197820932 2.0797631290139003 2.8239923208290443 6.8707030560725775 3.4331299232112036 6.0187099075743129 -6.1691989978154504 -0.81823324329646618 -0.12624536019575316 3.758525718918142 -3.1244613884223833 2.5794331202140222 -4.9051720559597012 -5.3858979783560104 -5.8343512835326017 -3.473019413311373 -4.078553604131395 -6.9736703150981185 -6.5793620623075046 -2.867485222491351
internal_count=398 242 183 163 156 53 110 59 67 89 49 62 48 39 36 28 75 48 32 34 54 26 20 38 27 44 22 37 26 22
cat_boundaries=0 1 4 5 8 11 14 17 20 23 26 29 32 35
cat_threshold=320 0 0 491520 64 0 0 14720 0 0 491520 0 0 180224 0 0 81920 0 0 1792 0 0 9088 0 0 440256 0 0 2816 0 0 20608 0 0 768
shrinkage=0.1


Tree=5
num_leaves=31
num_cat=13
split_feature=0 2 1 5 0 3 5 3 5 2 5 2 0 5 5 4 4 3 5 3 4 6 3 5 1 4 3 5 2 3
split_gain=3674.2721767130629 1120.9977049390091 544.30159061625136 340.86095143005178 338.24321558535348 324.28987009969308 243.79231882176464 233.06746912220649 146.20086498636419 120.81091979468744 114.63774383802365 71.178177822257027 70.372030947909479 90.932261086515609 48.870898045124726 42.57184727650084 41.850170764963551 41.157149052765817 39.282264627843759 39.140865871548613 37.58556130183797 27.63968108947148 23.381998346613329 21.080318102576257 13.068178682324344 12.329997092260783 8.745318482085878 5.4914634139020109 4.4077864907897037 3.7441086572424638
threshold=0 88.5 109 1 2 2722.5 3 2503 4 111 5 84.5 6 7 8 15.350000000000001 16.550000000000001 2080 9 3958.5 16.850000000000001 10 2953.5 11 241 14.6 3698.5 12 101 4498.5
decision_type=9 10 8 9 9 8 9 8 9 10 9 8 9 9 9 10 8 8 9 8 8 9 8 9 8 8 8 9 10 8
left_child=4 2 6 7 8 14 20 -4 -1 18 -6 16 13 17 -3 -13 -5 -8 -7 -12 -2 -9 -10 -21 26 27 -24 29 -26 -25
right_child=1 5 3 11 10 9 12 21 22 -11 19 15 -14 -15 -16 -17 -18 -19 -20 23 -22 -23 24 25 28 -27 -28 -29 -30 -31
leaf_value=0.092344236603149998 0.67178788118892252 0.31976159825921058 0.74480922540028893 0.33726226150989524 -0.24350827591759816 -0.030400536954402924 0.47862361570199319 0.14518399330285878 -0.14317255020141603 -0.56079682937035202 -0.42179157874163464 -0.16918869838118555 0.20790490408738457 0.66707813329994681 0.037954555545002211 0.061946531779625835 0.073159469763437915 0.20393329322338105 -0.29402790894875153 -0.46225609302520754 0.88611918608347584 0.35564624816179274 -0.18900722678750748 -0.58979974660006418 -0.41183074170892875 -0.72065477848052983 -0.3156290411949158 -0.55360496464897613 -0.32230891612443058 -0.67434466838836671
leaf_count=13 18 10 15 10 14 10 12 13 10 13 17 15 12 16 16 17 15 10 13 10 15 12 10 11 11 10 12 17 11 10
internal_value=0 2.4394883205267517 3.7026364140626455 2.0940784018525145 -3.7843344318322263 -1.2277158219968118 5.5825174644768953 4.3318213179707525 -2.087224988739437 -3.1713130465812154 -5.0619336755088202 0.52373249580462777 4.1901850605010988 4.8568595930149678 1.4634187966585159 -0.46398107358254492 1.7880058646202088 3.5376437821171502 -1.7940731242946957 -5.5522791798909505 7.6921120159553755 2.4620587563514711 -2.8120152778509588 -5.9433856914783343 -3.1257174996320498 -6.2185575167338056 -2.5807367100973022 -5.9585600777676229 -3.6706982891667974 -6.3005923316592263
internal_count=398 242 180 97 156 62 83 40 67 36 89 57 50 38 26 32 25 22 23 75 33 25 54 58 44 48 22 38 22 21
cat_boundaries=0 1 4 5 8 11 14 15 18 21 24 25 28 31
cat_threshold=320 0 0 491520 64 0 0 507904 0 0 491520 0 0 180224 16 0 0 524224 0 0 254080 0 0 340096 2 0 0 12288 0 0 522112
shrinkage=0.1


Tree=6
num_leaves=31
num_cat=12
split_feature=0 2 1 5 2 5 3 3 5 3 5 5 2 3 4 1 3 4 5 3 4 5 4 5 6 5 4 3 5 4
split_gain=2976.1604725976686 916.47722952624599 595.82551955775023 399.70613591441207 280.5428184634859 179.36751391896837 150.91804447840582 150.66666746066346 133.08251539419848 99.11486274291633 87.922726204947821 83.564835516792755 66.185789730790702 58.136963617899028 52.277732520558061 48.981017253459697 47.758589197286824 36.972119530994746 24.92595850917337 21.891903142502173 21.641851557952066 19.86468516981429 17.926577345397845 16.01148940500218 13.005853860658933 10.067498835357128 12.681979483194539 9.2039625046156743 9.1024285106134357 7.860990897639482
threshold=0 70.5 212.5 1 142.5 2 2503 2305 3 2939 4 5 85.5 2080 18.75 120.5 3958.5 14.6 6 2953.5 14.850000000000001 7 13.1 8 9 10 13.300000000000001 2058 11 18.050000000000001
decision_type=9 8 10 9 10 9 8 10 9 8 9 9 10 10 8 8 10 8 9 8 10 9 8 9 9 9 10 10 9 8
left_child=4 8 3 6 5 -1 -3 11 -2 -7 -10 -5 20 14 -12 -8 25 -9 -6 -17 -13 -19 28 -4 -23 26 -11 -22 -20 -27
right_child=1 2 23 7 18 9 15 17 10 16 13 12 -14 -15 -16 19 -18 21 22 -21 27 24 -24 -25 -26 29 -28 -29 -30 -31
leaf_value=0.077460684974988314 0.2298296591639519 0.64342060685157776 -0.49554388999938964 -0.04842658787965775 -0.40131251628582298 -0.016965697028420188 0.46998311221599587 -0.23040758642283354 0.89466834306716925 -0.40617022854941232 0.61298153082529694 0.39994847604206635 0.04624544754624367 0.75709699175574574 0.33900076127969303 0.28210355862975117 -0.4916356846690178 -0.14199183553457259 -0.58336206436157212 0.093491940200328832 0.30567718505859365 0.11349138110876084 -0.64305126368999488 -0.31659423559904087 -0.030231811632128319 -0.29325748156098758 -0.2792682942416933 0.17000137656927108 -0.46174197420477869 -0.18152072310447695
leaf_count=15 10 17 10 14 13 11 10 11 10 14 15 14 14 11 13 16 16 10 10 10 10 10 16 10 17 17 18 10 16 10
internal_value=0 2.1955394973932219 1.0905615325833931 1.7226170124086135 -3.4059009886322875 -2.416304976338207 3.9785958073049223 0.63564541123130103 5.6228440323118436 -2.9728593646093855 6.3013231018368074 1.6654077929354483 2.2923959471906223 5.623025581622735 4.8577617353626659 2.8190020728442402 -3.3839957157770795 -0.69446433180322253 -5.2231591202995995 2.0956062846458874 3.0459012590786991 -0.21593117351467545 -5.5976934404600236 -4.0606906279921535 0.2299900049412692 -2.9684401548514932 -3.3478789050132036 2.3783928081393242 -5.0851893195739155 -2.518734969474651
internal_count=398 242 183 163 156 101 53 110 59 86 49 62 48 39 28 36 75 48 55 26 34 37 42 20 27 59 32 20 26 27
cat_boundaries=0 1 4 7 10 13 16 19 22 25 26 29 32
cat_threshold=320 0 0 491520 0 0 462848 0 0 14720 0 0 81920 0 0 1792 0 0 63488 0 0 896 0 0 440256 12 0 0 499648 0 0 512
shrinkage=0.1


Tree=7
num_leaves=31
num_cat=13
split_feature=0 2 1 3 1 5 5 1 5 2 5 3 0 1 5 3 5 1 3 2 5 4 6 3 3 5 5 4 2 5
split_gain=2410.689968729273 753.09969537286702 373.1420361123869 233.3542722010439 230.60792976463904 230.19772151264385 163.83524489848537 153.47112342871156 129.61816514411751 86.828265591409945 80.714589656788462 64.552016241698539 59.347326876806164 73.939500067834501 42.726783168699342 33.781254606563493 32.979052734838788 32.593399678953347 31.525604575655791 26.114542792854479 21.475087352696818 20.45816474499556 19.783501447187774 19.709416318723335 17.743873708936956 16.352268139285002 15.873097897117759 13.134188042153468 12.713546853598018 5.1523395758435981
threshold=0 88.5 109 2722.5 303 1 2 137.5 3 95.5 4 3958.5 5 93.5 6 3698.5 7 88.5 2503 115.5 8 13.949999999999999 9 3432.5 2271.5 10 11 15.050000000000001 177.5 12
decision_type=9 10 8 8 8 9 9 10 9 10 9 8 9 10 9 10 9 10 10 10 9 10 9 8 10 9 9 8 10 9
left_child=4 2 6 16 8 21 17 10 -1 -5 -7 14 13 -8 -6 20 -3 -2 29 -11 -10 -4 -15 -22 -23 -19 -13 -16 -28 -12
right_child=1 3 5 9 11 7 12 -9 15 19 18 26 -14 22 27 -17 -18 25 -20 -21 23 24 -24 -25 -26 -27 28 -29 -30 -31
leaf_value=0.1656718683242798 0.77026717012578794 0.25682086727835912 -0.14622913842851468 -0.033725086125460539 -0.45383389429612597 0.58016320381845743 0.55889985386063079 0.020284094382077456 -0.24732598397466871 -0.28027425554714025 0.40768728472969751 -0.37186025182406107 0.14876846522092821 0.38015688180923457 -0.28950255274772624 -0.39155633926391603 0.028858168162405485 0.64566002230752595 0.14473343521356583 -0.48617165305397725 -0.011339046098291871 0.098363558260294082 0.18581567989154293 -0.20988081157207492 -0.070265309512615212 0.47323207614774038 -0.46261141459147137 -0.12742733538150788 -0.57299173772335055 0.30850923955440507
leaf_count=10 11 11 11 11 11 14 17 16 27 14 11 12 12 10 10 10 15 11 10 11 10 13 11 10 12 11 30 10 16 10
internal_value=0 1.9759855358361089 3.0113139785205325 -1.0298067171186689 -3.065310886870019 1.679467965339877 4.5678087168159971 2.8629208595537747 -1.6640066945397143 -2.6785288079538279 3.808727051814397 -4.1202252788490128 3.4264120790362358 4.0386417927710632 -2.9553134575966866 -2.2465900941506813 1.2530392548069358 6.2971975619368479 2.908705445066575 -3.7086911045014856 -1.8914893923446219 -0.32582721652256119 2.7835910937615802 -1.1060992883518339 0.17421701729297637 5.5944604922763324 -4.7428505626218076 -2.0846494406461713 -5.010045704634293 3.6045964417003442
internal_count=398 242 180 62 156 97 83 61 67 36 45 89 50 38 31 57 26 33 31 25 47 36 21 20 25 22 58 20 46 21
cat_boundaries=0 1 4 7 10 13 14 17 20 23 24 27 30 33
cat_threshold=320 0 0 24512 0 0 507904 0 0 360448 0 0 221120 16 0 0 39680 0 0 245824 0 0 19072 4 0 0 360448 0 0 61440 0 0 270336
shrinkage=0.1


Tree=8
num_leaves=30
num_cat=10
split_feature=1 2 2 3 5 3 6 3 5 3 2 5 5 3 5 1 6 4 4 2 5 5 4 5 2 4 2 1 3
split_gain=1960.9445475037887 704.89668330852408 339.43459633096404 193.24449001462062 176.68624890226613 166.75980373905372 111.26659034580348 96.540217086387926 92.738753679396495 68.756170920381123 66.256355292066019 61.153659553552274 57.878671477279909 49.291484787946615 46.811241146310607 45.311332782670853 40.634506521772494 34.727502717032145 31.095325710422685 26.870213463768778 24.741747821226298 16.610589564870224 16.420355304897498 14.506908355877632 13.491583799444413 7.5936420521808827 6.3614632569410787 3.0519694321702673 0.94899549750559231
threshold=178 90.5 70.5 2953.5 0 3549 1 2203.5 2 2639.5 142.5 3 4 2080 5 88.5 6 16.550000000000001 18.75 127 7 8 15.850000000000001 9 106 17.050000000000001 172.5 350.5 4310
decision_type=10 10 8 10 9 8 9 10 9 8 8 9 9 10 9 10 9 8 8 10 9 9 8 9 10 8 10 10 8
left_child=1 2 8 16 6 14 -4 11 -1 -8 24 23 -10 18 -2 -9 -3 -17 -14 -5 -18 28 -13 -6 -7 -16 27 -23 -12
right_child=5 3 4 19 7 10 9 15 12 -11 21 22 13 -15 25 17 20 -19 -20 -21 -22 26 -24 -25 -26 -27 -28 -29 -30
leaf_value=0.68384911460535869 -0.0025780333753894357 0.12388579561375082 0.55926627675692242 -0.25991266315633593 0.16159622858871114 -0.17015296327216281 0.43199103772640213 -0.13549150894669926 0.17697339415550234 0.10495274691945977 -0.36423053264617911 0.23949342782680799 0.48186098979069625 0.63740381121635448 -0.17043940871953961 0.18429101854562757 0.015845084698362787 -0.028390202671289444 0.25862960144877434 -0.48094418482346973 -0.20148932546377174 -0.39741749763488765 0.40993813395500189 -0.00081127434968948338 -0.30457426160573964 -0.27837150422009554 -0.49583949666274219 -0.46183494528134661 -0.32066459417343141
leaf_count=14 17 16 15 11 11 14 10 17 10 18 10 13 13 10 16 14 11 17 12 11 10 19 10 11 16 11 19 12 10
internal_value=0 1.6713042265816231 2.587639860312144 -1.3572626984599283 1.7186448186197703 -2.9479949186142118 3.3948962728297989 0.94360382366244511 4.5907470750606665 2.217521364933678 -3.6618183174729348 1.9958734217617247 3.8914489196406472 4.4976531990936826 -1.3256690121171149 -0.042898924555629492 0.038263623476833909 0.67659381104092442 3.7470992338657378 -3.7042842398990286 -0.87647491569320357 -4.1946933576038905 3.1359982179558794 0.80392477119510819 -2.4184432238340379 -2.1441174392346984 -4.5027804470062254 -4.223532838206137 -3.4244756340980529
internal_count=398 254 195 59 136 144 43 93 59 28 100 45 45 35 44 48 37 31 25 22 21 70 23 22 30 27 50 31 20
cat_boundaries=0 3 4 7 10 13 16 17 20 23 26
cat_threshold=0 0 458752 12 0 0 344064 0 0 8064 0 0 14720 0 0 316672 8 0 0 440384 0 0 63488 0 0 4224
shrinkage=0.1


Tree=9
num_leaves=31
num_cat=9
split_feature=1 2 2 3 5 3 1 3 6 5 3 2 5 4 5 5 1 1 3 3 1 5 2 5 2 5 3 3 4 3
split_gain=1588.3650960646146 570.96631206938548 274.9420296619387 156.52803740771745 146.75460705240602 137.24286098508537 114.26260852849862 85.21804887628187 77.270433588144101 85.194402231749677 70.153726957847709 67.705500329450103 64.955608483780523 59.524063825523228 51.162481689700741 36.050918614702482 35.881933863153989 35.046928265475117 32.908277404394852 24.617479480087603 22.281336373342327 23.674447985267463 21.764874257356979 15.816655411229704 15.23399350200501 12.430492603433862 4.95576427581193 4.6580804515919851 3.5516976326579766 3.0472683818427555
threshold=178 90.5 70.5 2953.5 0 3758 106 2622.5 1 2 2305 65.5 3 18.25 4 5 231.5 261 2586 3179.5 113.5 6 127 7 88.5 8 4733.5 3549 11.550000000000001 3332.5
decision_type=10 10 8 10 9 8 8 8 9 9 10 10 9 8 9 9 10 10 8 8 8 9 10 9 8 9 8 10 10 10
left_child=1 2 8 15 6 12 -4 -8 9 -1 14 -11 -2 -10 -6 -3 -14 -7 -17 -9 25 -22 -5 -19 -12 -16 28 29 -25 -18
right_child=5 3 4 22 10 17 7 19 13 11 24 -13 16 -15 20 18 27 23 -20 -21 21 -23 -24 26 -26 -27 -28 -29 -30 -31
leaf_value=0.75652829051017767 0.085411927700042731 0.16563937142491342 0.58914599776268006 -0.23392139348116781 -0.065133860707283026 -0.21688226827365509 0.42772123721929695 0.19012057925329395 0.40569597244262684 0.59171262437647021 0.021237245202064509 0.2546197455662948 -0.060006398175443926 0.090724905449897059 0.33726396799087527 0.057939187551920214 -0.25947802290320388 -0.30479500066666376 -0.16301323260579792 0.0021416045048020106 -0.00038617953658103948 0.21220891313119364 -0.43284976915879692 -0.33807185563174152 -0.12380557467540106 0.18896558637229291 -0.4485442098818328 -0.30374782085418706 -0.41019661823908493 -0.18661078539761633
leaf_count=10 10 10 10 11 10 17 13 19 15 11 14 13 14 10 10 13 12 21 14 11 10 11 11 11 15 13 19 11 18 11
internal_value=0 1.5041738066118298 2.3288758759506236 -1.2215364225587602 1.5467803289922064 -2.6531954405363649 2.8467329654420883 2.1386569160968065 4.1316723909734163 5.112993666354348 0.71669009125914918 4.0912064835429192 -1.4644226277696675 2.7970754564553499 1.3904240638431575 0.034437269173763892 -1.9474521912634373 -3.4549259421697189 -0.5662873401134102 1.2119495517884691 1.8544610345058821 1.1097315471796763 -3.3338558131998237 -3.7717919626097749 -0.53784903010417673 2.534431435977635 -4.0884728183348971 -2.5022591010612598 -3.8283894966388572 -2.2462847453096639
internal_count=398 254 195 59 136 144 53 43 59 34 83 24 58 25 54 37 48 86 27 30 44 21 22 69 29 23 48 34 29 23
cat_boundaries=0 3 4 7 10 13 16 19 22 25
cat_threshold=0 0 491520 12 0 0 217088 0 0 425984 0 0 1536 0 0 232448 0 0 27008 0 0 64512 0 0 522176
shrinkage=0.1


Tree=10
num_leaves=30
num_cat=11
split_feature=1 3 5 2 3 2 4 0 5 4 1 5 5 0 1 3 3 3 5 5 5 5 1 4 2 3 4 5 2
split_gain=1286.5757225280422 465.64637355118407 276.89193967147037 148.09189080513909 133.51378974226759 114.11485555459114 93.454397492042034 73.531210774978078 65.623750460665235 61.151311611472124 79.949377939302963 60.48988373465491 51.668357768884789 55.672768773416635 50.449446165625147 37.178136553652621 27.404101326080493 24.771592786229252 24.92877779550053 22.527471200406687 22.431724402598888 17.525911340253089 9.2831030656374001 9.1651289253140504 8.8685840639032953 6.4548019221547293 2.4169966714020461 2.6172377843271875 1.7097397510732435
threshold=178 2953.5 0 77.5 2080 111 18.550000000000001 1 2 13.949999999999999 120.5 3 4 5 93.5 3549 2203.5 2080 6 7 8 9 99 17.949999999999999 90.5 4733.5 13.6 10 177.5
decision_type=10 10 9 8 8 8 8 9 9 8 10 9 9 9 8 8 10 10 9 9 9 9 10 8 8 8 8 9 8
left_child=1 2 4 12 21 8 -3 17 -2 -5 11 -11 -4 14 -14 -7 -13 -6 22 -9 -17 -1 -19 -10 -12 26 27 -22 -29
right_child=5 6 3 9 7 15 -8 19 23 10 24 16 13 -15 -16 20 -18 18 -20 -21 25 -23 -24 -25 -26 -27 -28 28 -30
leaf_value=0.38495164752006533 0.093509434970716634 -0.37827281250673184 0.58426119685173028 0.42857557952404024 0.16090778807799022 -0.16880843111624322 -0.041550117358565335 -0.25175587318160314 -0.12844341029139125 0.44648258360949433 0.072529164701700191 0.27063391506671902 0.57570541730293845 0.17066139294342564 0.28472363237630238 -0.22558661313617934 0.082493105530738839 0.0024849992990493767 -0.10045204957326254 -0.053633658525844397 -0.35632876157760623 0.19773032747209066 0.12863527068070002 -0.23389225043356421 -0.051780271259221168 -0.40368977973335674 -0.37054054186894347 -0.2680173408985137 -0.32649365663528446
leaf_count=10 12 17 14 10 18 18 16 11 17 11 12 15 13 11 11 17 16 10 12 12 12 10 14 16 11 19 13 10 10
internal_value=0 1.3537564175863435 1.8769616604997561 2.8669590388214394 0.61139800161430513 -2.3878758971631111 -2.1501332395004504 0.013472839706129842 -1.0674890582760175 1.9836306162675221 1.629457511810156 2.4501682938564393 4.2189923386488646 3.5695444867014885 4.4233876587823033 -2.9880517330208813 1.7352898111266475 0.65123321723054961 0.17231088545587328 -1.4838776118729426 -3.2769333823227589 2.91340987496078 0.76072657605012262 -1.7957012066335389 0.13076825763868249 -3.5481543708592653 -3.3417960352367824 -3.1940797232091427 -2.9725549876689912
internal_count=398 254 221 124 97 144 33 77 45 75 65 42 49 35 24 99 31 54 36 23 81 20 24 33 23 64 45 32 20
cat_boundaries=0 3 4 7 10 13 14 17 20 23 26 29
cat_threshold=0 0 32704 16 0 0 430080 0 0 196608 0 0 327680 16 0 0 31744 0 0 17280 0 0 57344 0 0 521024 0 0 768
shrinkage=0.1


Tree=11
num_leaves=31
num_cat=10
split_feature=0 2 1 5 3 3 4 1 5 5 5 5 2 1 4 3 5 1 3 3 0 3 2 4 6 2 5 3 3 4
split_gain=1045.8384337816049 344.1382406210202 180.07224728046322 136.38181909302529 117.97358799616035 109.46252007513658 96.948817249251761 84.795361769828787 89.743286672573902 83.753691932699894 61.707764198629015 61.152664971679314 44.012260723776507 35.200181082457789 27.868536974090979 24.229038612710951 22.242340290768045 17.748432568805931 17.033239288818606 25.694414155580716 24.230111933027501 12.347883156939204 12.272933414733018 13.791185860176519 12.008390753660933 9.8992798990032895 8.2590470083456466 8.4465658662068108 8.4065420996734588 5.9355982252122317
threshold=0 88.5 93.5 1 2722.5 3049.5 16.100000000000001 137.5 2 3 4 5 95.5 312.5 17.949999999999999 2027.5 6 113.5 2503 1972.5 7 3432.5 106 17.949999999999999 8 111 9 4655.5 3958.5 14.449999999999999
decision_type=9 10 8 9 8 8 8 10 9 9 9 9 10 8 8 8 9 10 10 10 9 8 10 8 9 10 9 8 10 10
left_child=5 2 6 14 16 10 -2 8 -5 -8 -1 21 -6 22 17 -11 -3 -4 19 -10 24 -7 23 -13 -21 -14 27 -15 -28 -24
right_child=1 4 3 7 12 11 9 -9 18 15 -12 13 25 26 -16 -17 -18 -19 -20 20 -22 -23 29 -25 -26 -27 28 -29 -30 -31
leaf_value=-0.15911631762981415 0.10589997649192812 -0.027716238200664524 0.15769316007693604 0.5357004469633101 -0.023576450280167843 -0.15110488831996916 0.23602603524923327 0.0032566227368079127 0.14401801373613507 0.45901495039463031 0.19218914546072477 -0.068656676701114805 -0.19811417683959001 -0.30403689968174907 -0.088133731707930568 0.66977525055408482 0.16239899783395229 -0.01429730753103892 0.10660483830918868 0.28070041152576986 0.17173406675768396 0.0060439784079790119 -0.19658316671848292 -0.2173215999053075 0.42266499345952807 -0.32406746424161476 -0.20059336523214971 -0.40104188552269576 -0.30991160028121056 -0.30553818702697755
leaf_count=10 10 10 12 10 11 10 11 16 19 10 10 12 12 29 20 12 16 12 12 13 12 10 10 13 11 13 12 13 17 10
internal_value=0 1.3015036184209869 2.0013752273749561 1.4410230240505868 -0.73038169789698815 -2.0189991966397383 3.7866834100595739 2.1273053583979444 2.5625758271833714 4.6132542116172388 0.16536413915455342 -2.3402290989624284 -1.9026633639716439 -2.6186643661007865 -0.0095282735472375698 5.739751141179692 0.89277753205253529 0.71697926272948587 2.1454969253252023 2.3810129709033805 2.8775636330505625 -0.72530454955995083 -1.9267276570304401 -1.4596243676729501 3.4576751157874241 -2.636098862886429 -3.0572158014270623 -3.3406225244204202 -2.6467646853677156 -2.5106067687273024
internal_count=398 242 180 137 62 156 43 93 77 33 20 136 36 116 44 22 26 24 67 55 36 20 45 25 24 25 71 42 29 20
cat_boundaries=0 1 4 7 10 13 16 19 20 21 24
cat_threshold=320 0 0 22464 0 0 65536 0 0 35968 0 0 26304 0 0 212992 0 0 270080 16 10 0 0 6976
shrinkage=0.1


Tree=12
num_leaves=31
num_cat=10
split_feature=0 2 3 5 5 5 3 3 2 2 1 0 4 1 4 1 5 5 1 4 1 3 5 1 3 2 5 3 5 3
split_gain=847.12913745827404 278.89381140687397 171.66855433492603 111.20979201223443 96.40526330531668 91.62512322603493 89.137619351987837 65.414642919316975 51.762471837016363 50.039751225672944 30.88997312708787 27.459454167714529 25.266696697563333 32.853990759739034 24.698401493090216 21.179679544441328 21.060425201376738 19.434492025266053 16.07905134826683 13.080230386979679 13.949142475238887 8.7036718353935356 8.2192282661447855 8.2165937772580833 7.6345043328298825 7.2074057300553136 6.4282665075426451 6.4219174765605942 3.3412788560532434 0.17951724980392214
threshold=0 84.5 3049.5 1 2 3 2132.5 2058 138.5 127 120.5 4 14.6 93.5 14.850000000000001 109 5 6 241 13.949999999999999 329 2722.5 7 329 2549 101 8 3758 9 4236
decision_type=9 8 10 9 9 9 8 10 8 10 8 9 10 10 10 10 9 9 8 8 8 8 9 10 10 8 9 10 9 10
left_child=4 5 3 10 8 16 7 17 -1 18 -3 15 -8 -14 -13 -5 -2 -7 22 20 -11 -12 -6 25 -17 -20 -22 -4 -27 -21
right_child=1 2 27 11 9 6 12 -9 -10 19 21 14 13 -15 -16 24 -18 -19 23 29 26 -23 -24 -25 -26 28 -28 -29 -30 -31
leaf_value=0.16730052395300427 -0.021742836385965348 0.30559493210166694 -0.19662556290626521 0.12064479457007514 -0.16609978199005127 0.40696006966119802 0.31064423302809402 0.61163813336329032 -0.1470547915995121 -0.17540226806612577 0.19168206974863999 -0.21517831683158867 0.2571616283234428 0.065804760138455196 -0.017120565254898631 -0.089872680753469436 0.14928520388073388 0.21898283687504849 -0.23533022349530999 -0.33442080259323115 -0.34559163053830466 0.070820325915701685 -0.051845379787332863 -0.27187183618545535 0.026347799255297732 -0.1803709876537323 -0.24739590883255003 -0.30995620727539064 -0.10348475116949812 -0.35336900830268858
leaf_count=11 12 16 10 18 10 11 15 11 10 17 11 10 17 19 17 10 18 11 11 10 12 13 17 10 13 10 15 10 13 10
internal_value=0 1.1713532650831717 0.15823721276137803 0.65659759492242575 -1.8170992792225802 2.3088870782164137 2.8446539355292253 4.1252701329984562 0.17607516547044119 -2.1271486372859392 1.9796714794414583 -0.12168116067700527 2.0160199254020754 1.561677256702549 -0.9047528806108015 0.39400021586476303 0.80873987774054212 3.1297145326812328 -1.5491171462435118 -2.7684023226611316 -2.4636083536527376 1.2621529183913178 -0.94161825047598946 -1.9219005595554004 -0.24182844226774963 -1.6875423824085909 -2.9103845181288541 -2.5329088509082793 -1.369135496409043 -3.4389490544795991
internal_count=398 242 128 108 156 114 84 33 21 135 40 68 51 36 27 41 30 22 71 64 44 24 27 44 23 34 27 20 23 20
cat_boundaries=0 1 4 7 10 11 14 17 20 23 26
cat_threshold=320 0 0 491648 0 0 491520 0 0 8064 16 0 0 2944 0 0 483264 0 0 2688 0 0 2816 0 0 24576
shrinkage=0.1


Tree=13
num_leaves=30
num_cat=9
split_feature=3 2 5 1 1 4 2 5 2 0 3 3 0 1 1 5 3 2 3 5 5 4 4 4 4 4 1 5 5
split_gain=693.32373849074872 290.27624331108007 157.37717929814181 118.69618731269861 60.273530706211744 59.954461065627981 57.206980194037612 52.654638399429643 85.238947336635363 44.549681597558525 43.004252114841876 38.819089143978708 34.753230773295208 28.084810138035664 18.498636213625616 16.230785561554441 15.999158065180708 11.243793389449152 10.820546633002749 10.803043758639161 9.6417806293312793 9.2383592406715138 7.8778832049195771 12.622411826483338 7.1635710117899762 6.5998680668509166 5.8332002773286149 5.7940811118314457 3.6121690810518885
threshold=3049.5 95.5 0 93.5 178 17.649999999999999 106 1 85.5 2 2722.5 2080 3 137.5 329 4 2132.5 68.5 3614.5 5 6 11.550000000000001 14.449999999999999 16.550000000000001 14.850000000000001 13.949999999999999 99 7 8
decision_type=10 10 9 8 8 8 8 9 8 9 8 10 9 10 8 9 8 10 10 9 9 10 10 10 10 8 10 9 9
left_child=1 2 9 5 -3 -4 12 8 26 11 -10 17 -2 16 18 -6 -9 -1 -8 -11 -13 27 -18 -24 -17 -20 -5 -16 -23
right_child=6 4 3 7 15 -7 14 13 10 19 -12 20 -14 -15 21 24 22 -19 25 -21 -22 28 23 -25 -26 -27 -28 -29 -30
leaf_value=0.21768858786672352 -0.16546160727739334 0.030011288664842907 0.23148903617492081 0.45130463749170291 -0.29180917306379839 0.52060900153592227 -0.11767759589772475 0.22949168023963773 0.25092939777033663 -0.14760468881577254 0.0030692640691995622 -0.079274391315200116 0.050280149227806492 -0.054704789649695162 -0.2599080305833083 -0.1997522448499997 0.17070025265216829 0.092482986129247227 -0.15374135456301946 -0.013421705799798168 0.047934136102692426 -0.33751807946425222 0.0026965610150779993 0.14584308835593138 -0.09048520947496097 -0.25205957988897959 0.34329352438449862 -0.1612960032441399 -0.26834183931350702
leaf_count=16 16 19 13 10 11 16 19 12 14 12 14 11 14 10 13 12 10 13 11 12 13 13 14 11 12 18 10 11 18
internal_value=0 0.93503826726228001 1.4645047371288964 2.1191749998799234 -1.1338029390683881 3.9100349982236993 -1.8630461549960582 1.6245565241468805 2.3962422676074007 0.3252084357180185 1.2699933091976814 0.83706069630482849 -0.64782120908300078 0.97471589807486325 -2.2169951683687934 -1.9122143873146602 1.2984954288348238 1.6156193881199277 -1.7633545125524204 -0.80513197307785356 -0.1036977229717498 -2.6128997407176278 0.95686524361371994 0.65681033045053483 -1.4511872716248035 -2.1476645993775336 3.9729908093810082 -2.1471085138618946 -2.9735123034446471
internal_count=398 265 211 134 54 29 133 105 48 77 28 53 30 57 103 35 47 29 48 24 24 55 35 25 24 29 20 24 31
cat_boundaries=0 3 6 7 8 11 14 17 20 23
cat_threshold=0 0 16320 0 0 360448 16 64 0 0 832 0 0 516928 0 0 896 0 0 704 0 0 510400
shrinkage=0.1


Tree=14
num_leaves=31
num_cat=8
split_feature=3 2 5 1 1 4 2 5 2 0 3 3 0 3 1 3 4 5 4 5 2 5 4 4 1 5 1 2 2 4
split_gain=561.59221998150338 235.12375524721025 127.47551234313039 96.143912236598567 48.821559943018833 48.563114087553856 46.337654052660866 42.6502571833351 69.043544441766727 36.08524236065 34.833445145421734 31.443462382465974 28.150117697921765 23.170315306588584 14.983895019433703 14.710653958515152 14.423805903227432 13.146936573644709 10.048720640673782 9.5447984775179862 9.1074725228767406 7.8098421103607851 7.5237822843792515 5.8024922103536198 4.7248908919777364 4.6410956490504134 4.3872417402558881 3.1838113275992725 3.1630396367932434 1.8532604289494294
threshold=3049.5 95.5 0 93.5 178 17.649999999999999 106 1 85.5 2 2722.5 2080 3 2373.5 329 1972.5 16.850000000000001 4 14.850000000000001 5 68.5 6 11.449999999999999 14.850000000000001 99 7 414.5 162.5 147.5 13.6
decision_type=10 10 9 8 8 8 8 9 8 9 8 10 9 10 8 10 8 9 10 9 10 9 10 10 10 9 8 8 10 10
left_child=1 2 9 5 -3 -4 12 8 24 11 -10 20 -2 15 19 -9 -17 -6 -11 29 -1 -13 26 -19 -5 -24 -16 -27 -21 -8
right_child=6 4 3 7 17 -7 14 13 10 18 -12 21 -14 -15 22 16 -18 23 -20 28 -22 -23 25 -25 -26 27 -28 -29 -30 -31
leaf_value=0.19591972881462422 -0.14891544710844756 0.027010159351323781 0.20834012994399434 0.40617416173219667 -0.26262825727462769 0.46854810044169426 -0.081200667843222607 0.038914389597872898 0.22583645944084438 -0.14280556061051106 0.0027623361242668973 -0.071346951750191775 0.045252136407153941 -0.0061234792487488855 -0.23306927084922782 0.11138001186773179 0.26013292616063899 -0.17977701922257738 -0.012940300857791534 -0.17214675564318896 0.083234688009207081 0.043140721464386342 -0.32069635510444644 -0.081436690005163348 0.30896417364478113 -0.28034884712912811 -0.13939705789089205 -0.20845639354416301 -0.24384012639522545 -0.13924861712889239
leaf_count=16 16 19 13 10 11 16 11 12 14 11 14 11 14 18 10 16 11 12 13 16 13 13 10 12 10 11 10 14 10 11
internal_value=0 0.84153442786268473 1.3180542488834022 1.9072574786841869 -1.0204226505701188 3.5190314814962189 -1.6767415337936771 1.4621008493361018 2.1566180191002786 0.29268758923008842 1.1429939778255565 0.75335462546011189 -0.58303908134500182 0.87724428532416365 -1.9952956461573688 1.3103884750833878 1.7198305102410141 -1.720992954501084 -0.72461878244454658 -1.5870190601951133 1.454057450052993 -0.093327954256286219 -2.3516097575426103 -1.3060685461387038 3.5756916768848894 -2.6311972511666162 -1.8623316437005997 -2.400890731215477 -1.9972112900935686 -1.102246424860575
internal_count=398 265 211 134 54 29 133 105 48 77 28 53 30 57 103 39 27 35 24 48 29 24 55 24 20 35 20 25 26 22
cat_boundaries=0 3 6 7 8 11 14 17 20
cat_threshold=0 0 16320 0 0 360448 16 64 0 0 832 0 0 157760 0 0 896 0 0 35008
shrinkage=0.1


Tree=15
num_leaves=31
num_cat=11
split_feature=0 1 2 5 3 6 1 1 6 2 5 3 5 5 2 3 2 5 4 4 4 4 1 3 5 0 4 2 5 2
split_gain=457.94906835489883 161.57937305367665 111.92287269482068 87.41484531335729 57.884388761102514 51.601989811348005 72.218958629834333 40.295822114425164 41.775908171411956 37.801847202020809 35.369583801070114 33.568554343049762 28.743047256108014 18.516771060344389 18.404398871250603 17.531849804462091 15.002530100919557 12.044806270677689 10.708031303374058 10.294144155609633 8.8610743574132229 8.0172202586466028 7.86007980205164 7.0766128443383138 6.3633705239454486 6.0491558212417971 7.5540093500099523 5.734222804270857 11.114941850749501 5.3551766712928597
threshold=0 212.5 67.5 1 3049.5 2 85.5 106 3 85.5 4 2845 5 6 90.5 1797.5 151 7 16.550000000000001 16.100000000000001 17.649999999999999 13.1 117.5 3958.5 8 9 12.550000000000001 142.5 10 80.5
decision_type=9 10 8 9 8 9 8 8 9 10 9 8 9 9 8 10 10 9 8 8 8 8 8 10 9 9 8 8 9 8
left_child=4 2 5 7 10 6 -2 -4 -9 13 -1 22 27 18 20 -15 23 -13 -5 -17 -10 -18 -11 25 -3 26 -14 28 -6 -21
right_child=1 24 3 9 12 -7 -8 8 14 11 -12 17 16 15 -16 19 21 -19 -20 29 -22 -23 -24 -25 -26 -27 -28 -29 -30 -31
leaf_value=-0.11371987998485565 0.134250838458538 -0.24150677084922792 0.34331257442633312 0.079116505458950978 -0.11552809819579123 0.12100872044615887 0.47682317793369294 0.28579945953992697 0.19312847875058636 -0.032496251389384258 0.14613344574516465 -0.055892966538667682 -0.15362277665796376 0.20684329122304917 -0.039586136341094973 0.13773505628108978 -0.20480020012706515 -0.20753277052532537 -0.056370117834636149 0.075583693155875556 0.060003917850553992 -0.3144625473022461 0.081959561059872316 -0.20356865136519722 -0.12869391232728952 -0.16796662995059575 -0.038895757089961659 -0.12629115129462803 0.033568795472383499 -0.019219835779883648
leaf_count=10 10 10 12 10 10 17 16 13 10 10 11 10 12 13 10 15 20 11 14 13 10 10 15 23 10 28 11 13 10 11
internal_value=0 0.87034207209944725 1.1177371164614505 0.76618017418320572 -1.3220385844418425 2.5648435997928298 3.4506458582786412 1.8128375399519097 1.3606640875859315 0.29432644371370797 0.22393766826107389 -0.42116505199152493 -1.5590130465349903 0.7273870858510858 0.71182086753348506 1.0627227783776247 -1.8170289176408774 -1.3532334005548841 0.00082641871025164926 0.72748606709333563 1.2656619830057023 -2.413543158521255 0.36177236080169678 -1.5751988199866704 -1.8510034158825874 -1.3675278993140834 -0.98753332516745385 -0.74587211941340659 -0.40979651361703873 0.32132075726985931
internal_count=398 240 220 177 158 43 26 55 43 122 21 46 137 76 30 52 104 21 24 39 20 30 25 74 20 51 23 33 20 24
cat_boundaries=0 1 4 5 6 9 12 15 18 21 22 25
cat_threshold=328 0 0 491520 12 12 0 0 25280 0 0 217088 0 0 3840 0 0 519552 0 0 144832 256 0 0 16384
shrinkage=0.1


Tree=16
num_leaves=31
num_cat=11
split_feature=0 1 1 5 6 3 5 2 5 3 5 6 3 5 1 2 5 3 3 5 2 4 4 3 3 4 2 3 3 5
split_gain=370.93874637601425 132.52147805843748 82.146372124569012 49.175349672718866 76.235594788139679 46.886355774267912 46.065682771731645 36.072951926879284 29.504309083932228 27.286053876987317 24.567112276798866 22.201322609146416 18.438495904737842 16.834305187060604 12.953752665323748 12.493470701020772 14.758870308162031 12.251462294837776 8.2088566324002681 15.607528865605977 8.1397529447098194 9.464729326151696 4.9380353995482835 4.8342181505355715 4.1974754261378422 3.9972021743841992 7.7505773940925806 3.3623358255699145 5.3789556910659826 6.4948622917343073
threshold=0 109 231.5 1 2 3049.5 3 52.5 4 2132.5 5 6 2586 7 312.5 95.5 8 2639.5 3049.5 9 106 17.949999999999999 14.449999999999999 3549 2895 11.449999999999999 162.5 4097 4498.5 10
decision_type=9 8 10 9 9 8 9 10 9 8 9 9 8 9 8 10 9 8 8 9 10 8 10 8 8 10 8 8 10 9
left_child=5 6 3 4 -3 8 -2 -8 -1 11 23 -9 -6 -11 20 16 18 -18 19 -5 21 -12 -22 -7 -14 26 -16 -27 29 -29
right_child=1 2 -4 15 12 10 7 9 -10 13 14 -13 24 -15 25 -17 17 -19 -20 -21 22 -23 -24 -25 -26 27 -28 28 -30 -31
leaf_value=-0.1041622930765152 0.31934132443534002 0.28960186421043344 -0.18495267804931192 0.088780297682835518 0.14230549527953071 -0.086531695020808388 0.28302007168531418 0.060729883238673205 0.13316955950788473 0.1339984742077914 -0.014271320899327592 0.25066974014043808 0.039368280421265139 -0.023024790237347284 -0.084553963989019376 -0.07818195434177623 0.01973665920751435 0.16465907566249371 -0.09767596513032914 -0.058734098143759177 -0.11421490520238874 -0.13742908743711621 -0.21359332740306855 0.0095357912778854387 -0.041959474384784701 -0.25065053538842635 -0.19820971171061197 -0.10497220890088516 -0.2492528407275677 -0.20765427947044368
leaf_count=10 18 18 17 13 12 11 14 10 11 11 12 16 11 18 10 17 14 10 10 16 10 13 10 10 15 11 15 11 10 14
internal_value=0 0.78330786921821227 0.22296812752675679 0.48202999102924127 1.2007425835721992 -1.1898347243513394 1.7687329321928409 1.3970771985857382 0.20154391610551448 1.0322821212085811 -1.4031117422315871 1.7761594902437468 0.39771708216224061 0.3653575834529153 -1.5832879427691986 -0.021068823750829323 0.18421311647675576 0.80120999397089088 -0.1954772696734812 0.073930448129901599 -1.1635369585620032 -0.78313359498977664 -1.6390411630272865 -0.40785272973811343 -0.075515781206866875 -1.8493272989568577 -1.5274741262197495 -2.0242475015313728 -1.8726807479347503 -1.6247416841983795
internal_count=398 240 153 136 56 158 87 69 21 55 137 26 38 29 116 80 63 24 39 29 45 25 20 21 26 71 25 46 35 25
cat_boundaries=0 1 4 5 8 11 14 15 18 21 24 27
cat_threshold=328 0 0 499712 12 0 0 458752 0 0 9920 0 0 212992 4 0 0 523456 0 0 524096 0 0 21504 0 0 40576
shrinkage=0.1


Tree=17
num_leaves=29
num_cat=10
split_feature=0 1 1 5 6 4 5 3 6 5 5 5 3 2 2 5 1 1 4 2 4 5 2 1 3 2 1 3
split_gain=300.46038326934769 107.34239960884987 67.4929608184503 41.180191822043632 61.75083096792018 40.577108093388091 75.357582146573378 37.977948476102057 34.857801372717276 33.865569037599414 24.137855420159635 20.492555077954734 14.935182613373712 10.2969121718628 10.035971328939828 13.570523733907812 20.034136818129632 9.845556198042658 7.6418911781892795 15.502332802805348 6.2354620625821902 3.8339645124769959 6.0037230545387459 3.9653029189898632 3.3999556100980439 2.6463799250329885 1.8234985038860643 0.17161777455342331
threshold=0 109 241 1 2 22.949999999999999 3 3049.5 4 5 6 7 2586 172.5 95.5 8 140.5 93.5 19.100000000000001 142.5 17.649999999999999 9 101 386.5 2895 106 312.5 2373.5
decision_type=9 8 10 9 9 8 9 8 9 9 9 9 8 10 10 9 8 10 8 8 8 9 10 8 8 10 10 10
left_child=7 5 3 4 -3 8 -7 10 -2 17 -1 18 -6 21 15 20 -17 -10 19 -9 27 23 -23 25 -14 -13 -27 -5
right_child=1 2 -4 14 12 6 -8 11 9 -11 -12 13 24 -15 -16 16 -18 -19 -20 -21 -22 22 -24 -25 -26 26 -28 -29
leaf_value=-0.094304982088506226 0.006362064599402641 0.26064167602194682 -0.18138758530219398 0.0082164476183243067 0.12807494833444555 0.099641304463148117 0.47893601179122913 0.025334192533046009 0.29199775439997511 0.063823581290872483 0.12036071230064736 -0.1052169522862909 0.035431453958153718 -0.217840723301235 -0.069145720369286012 -0.028103009408170516 0.1522381932607719 0.17309775902674751 -0.14441789776086808 -0.11387039073742927 -0.062517450985155612 -0.161653037071228 -0.060203065829617645 -0.19862315448430867 -0.037763530910015108 -0.18928663372993462 -0.13146725470821063 0.026743064932525158
leaf_count=10 19 18 15 10 12 11 10 16 15 19 11 17 11 19 18 11 14 13 10 16 19 10 14 13 15 10 12 10
internal_value=0 0.70497707972244827 0.20067130660583429 0.41964382395667926 1.0806683175531882 1.5918596462378729 2.8025783176223436 -1.0708512506625303 1.2066309780700866 1.6686989846540259 0.18138953067717098 -1.2628005675102216 0.35794537102705554 -1.5199589080011815 -0.031787537523863339 0.15374455608616699 0.72888064086437221 2.36794185119548 -0.68113289259019349 -0.44268099102191627 -0.21493242133575946 -1.3553468267483895 -1.0247388718028863 -1.5079351136463139 -0.06796421927328293 -1.3485029699140563 -1.5774879062717611 0.17479756275424735
internal_count=398 240 153 138 56 87 21 158 66 47 21 137 38 95 82 64 25 28 42 32 39 76 24 52 26 39 22 20
cat_boundaries=0 1 4 5 8 9 12 15 18 21 24
cat_threshold=328 0 0 499712 12 0 0 134528 4 0 0 519360 0 0 25280 0 0 225280 0 0 520128 0 0 36736
shrinkage=0.1


Tree=18
num_leaves=31
num_cat=10
split_feature=3 2 5 1 4 4 6 3 6 2 2 1 5 3 0 3 4 4 2 6 5 1 5 4 4 3 5 5 4 4
split_gain=245.50959119825131 107.55750417639537 63.820228240925474 42.25705792016339 58.406062237220596 31.445243285944386 27.949675583076861 27.271932812411492 23.321582203707408 21.001711904135561 19.079658963141032 24.312204326400952 17.500687134561723 15.755946004944093 13.524691274329788 13.663714672869993 13.47690452148483 10.024430754137596 9.5778564918960853 8.079901052101981 8.0046145151312924 6.9774596475067199 5.838162322988822 5.7568224346080683 4.0075554621094049 3.7019273347653652 3.3309850887124028 2.1082675454030522 1.9146236018968423 1.5225553672324992
threshold=3049.5 95.5 0 93.5 17.649999999999999 14.449999999999999 1 2080 2 106 67.5 159.5 3 2179.5 4 2442.5 18.050000000000001 14.850000000000001 131 5 6 329 7 11.550000000000001 20.600000000000001 2953.5 8 9 13.949999999999999 13.6
decision_type=10 10 9 8 8 8 9 8 9 8 10 8 9 10 9 8 8 10 10 9 9 8 9 10 8 8 9 9 10 10
left_child=1 2 7 4 -4 -5 -3 19 -7 12 16 13 -2 -12 15 -9 -10 -16 25 -1 -17 22 29 26 -14 -8 -23 -25 -24 -11
right_child=9 6 3 5 -6 8 18 14 10 21 11 -13 24 -15 17 20 -18 -19 -20 -21 -22 23 28 27 -26 -27 -28 -29 -30 -31
leaf_value=0.065064915232360368 0.070781451798975478 0.071949945187026784 0.098786290595307913 0.23914220492045085 0.41078538844982787 0.19859426404748642 -0.031362962971130996 -0.048180258355569099 0.05045674787834286 -0.040228415339846495 0.14072677113793108 0.2196654041297734 -0.046476670503616306 -0.014743655407801272 -0.14113619536161418 0.0082888107214655199 -0.093330583653666754 -0.010045621956565552 -0.17460600105779511 0.1921861255168914 0.1091084013796515 -0.15412441724194931 -0.1150762841105461 -0.21382801830768586 -0.13600382238626482 -0.10390635522849419 -0.079355008493770238 -0.16142512936802469 -0.17085498392581941 -0.092842885648662402
leaf_count=10 10 11 12 15 12 14 12 16 16 11 11 12 10 16 10 14 11 14 14 10 18 13 16 14 10 17 11 17 10 11
internal_value=0 0.55641084097606952 0.87870547384623954 1.3622743958341224 2.547858395225679 1.0627584380930977 -0.70292559486848338 0.25321958562278229 0.813634011009708 -1.1086381263120617 0.56496248354740219 1.0123284219358213 -0.37233013696968553 0.48596147999719336 -0.033734752744850188 0.27273134192607057 -0.081232760791425357 -0.64666694208669162 -1.0668017696156058 1.2862552037462591 0.6499983046669513 -1.3230967639845985 -1.0444905616459437 -1.5662439951165157 -0.91240246444940554 -0.7388839981165426 -1.198551048990339 -1.8509095017948458 -1.3652963019334352 -0.6653565049425445
internal_count=398 265 211 119 24 95 54 92 80 133 66 39 30 27 72 48 27 24 43 20 32 103 48 55 20 29 24 31 26 22
cat_boundaries=0 3 4 5 8 9 10 13 16 19 22
cat_threshold=0 0 32704 8 4 0 0 180224 16 6 0 0 18688 0 0 157760 0 0 704 0 0 510656
shrinkage=0.1


Tree=19
num_leaves=31
num_cat=12
split_feature=2 1 5 5 4 5 2 3 5 5 4 0 5 2 6 4 0 5 2 3 5 1 5 3 4 4 2 4 4 1
split_gain=201.16113330448013 86.603235170834196 71.571923158099793 46.502600265186011 39.116937703194537 30.382478524819717 23.025649943859531 20.082775017982499 31.361254291459787 16.939159482497697 15.129866378534732 16.052888541948157 17.617497842792314 13.476013119326922 13.438792125563708 12.255147962196155 10.967602199544341 9.9359968436534913 9.1204378809254649 10.971736031199507 4.9747313181002539 5.5784518879393801 4.5019526036795714 3.9700361696937705 3.2405302387198969 2.9471119510033787 2.8619666789173142 2.7023329233211566 2.4891904552730821 1.8343924336691444
threshold=85.5 178 0 1 15.050000000000001 2 106 2132.5 3 4 15.050000000000001 5 6 127 7 13.6 8 9 85.5 2845 10 329 11 4951.5 15.850000000000001 13.6 92.5 15.050000000000001 11.449999999999999 329
decision_type=8 8 9 9 10 9 10 8 9 9 8 9 9 8 9 10 9 9 10 8 9 8 9 8 10 8 10 10 8 10
left_child=2 3 14 15 13 -4 9 8 24 -6 -9 12 -12 17 -1 -2 -11 -3 -5 -20 21 -15 -18 25 -7 29 -24 -17 -23 -22
right_child=1 4 5 18 6 7 -8 10 -10 16 11 -13 -14 20 -16 27 22 -19 19 -21 23 28 26 -25 -26 -27 -28 -29 -30 -31
leaf_value=0.36187557406723503 0.19271302501360577 -0.11433336426104819 -0.092525708675384524 0.036983702182769772 0.11796335063197397 0.043223231371778699 -0.14590767625098428 0.15197188407182693 0.26597628178341048 0.064349176937883543 -0.018296463290850322 -0.054390876460820442 0.1442650535702705 -0.062032058900770015 0.19793172925710673 0.10856950994242319 -0.1071010034531355 0.0048063906707933963 -0.0090824379426378173 -0.12830657500487108 -0.088426614630346512 -0.10466773074120279 0.013138942886143916 -0.19957617521286011 0.11894143134355546 -0.16991558006654184 -0.060778271406888962 0.036743336319923402 -0.17522537320852283 -0.13788221672177314
leaf_count=10 15 14 10 15 11 13 12 12 14 11 12 16 15 17 10 11 10 14 19 13 12 10 10 13 10 18 11 10 10 20
internal_value=0 -0.47266764197063266 1.069313691990053 0.38151772102868431 -0.84001160636930272 0.73015235382698329 -0.20825167736754968 0.91008816258576897 1.4797254773611959 0.074954002287309127 0.52687760537320916 0.24980563271877376 0.72015490520883485 -1.1608271953155054 2.799036516621709 1.2367759299361043 -0.21436682019737505 -0.54763486795127392 -0.27357367302806296 -0.57517243624170078 -1.3325210469774902 -1.0414800110298235 -0.51876825520828851 -1.5034499093594531 0.76144187881246861 -1.3754488302394747 -0.25579597934016157 0.74366570122185205 -1.3994655197486281 -1.1933636593748815
internal_count=398 276 122 83 193 102 65 92 37 53 55 43 27 128 20 36 42 28 47 32 100 37 31 63 23 50 21 21 20 32
cat_boundaries=0 3 6 9 12 15 16 19 20 21 24 27 30
cat_threshold=0 0 327680 0 0 491712 0 0 2816 0 0 177280 0 0 201728 16 0 0 393152 6 16 0 0 36224 0 0 59456 0 0 464832
shrinkage=0.1


Tree=20
num_leaves=31
num_cat=14
split_feature=2 1 5 5 6 0 5 1 6 4 5 2 4 6 4 6 2 4 2 5 3 3 3 0 2 5 2 5 4 5
split_gain=162.94051872691321 70.148620534538281 57.973258194353733 38.311082767056625 32.651972565115244 27.834957344912198 24.609807308409984 17.195002458218973 14.966473022564522 24.251737180738917 14.700980542991203 14.37197948707098 11.854226482436351 23.655691579028581 17.585721386893248 10.885422530851855 7.887940936638671 7.7852962121169824 6.7529059621928678 6.7136941188972443 6.6650582847463511 5.2980174378035798 4.2957714082092906 7.131620582967253 3.4476216817796939 3.4097558214135262 3.2267689170377425 4.2577079352889617 2.5903311321888438 1.2523849219536061
threshold=85.5 178 0 1 2 3 4 93.5 5 13.6 6 65.5 16.449999999999999 7 17.649999999999999 8 151 12.050000000000001 115.5 9 2845 2845 3958.5 10 204 11 106 12 11.550000000000001 13
decision_type=8 8 9 9 9 9 9 8 9 10 9 10 8 9 10 9 8 10 8 9 10 8 8 9 8 9 10 9 10 9
left_child=2 3 15 8 -3 -6 -4 11 -2 -10 17 -8 19 -14 -15 -1 22 -7 21 -9 -18 -5 23 -12 28 -26 27 -19 -22 -24
right_child=1 4 6 18 5 10 7 12 9 -11 16 -13 13 14 -16 -17 20 26 -20 -21 24 -23 29 -25 25 -27 -28 -29 -30 -31
leaf_value=0.32568801999092106 0.18367449960538318 0.091706454212015329 -0.083273137360811239 -0.03156359450076706 0.061482087026039758 -0.11286488219219096 0.20847937967628238 0.056023979683717098 0.18561079978942865 -0.0051183426380157476 -0.0042583488548795373 0.072230317890644075 0.12620694866547216 0.034240509143897459 -0.13472176180644468 0.17813855350017543 -0.20312199608555864 -0.048658522746215266 0.021020662326079149 0.16418175050480796 -0.11857893615961071 -0.12434979140758516 -0.14429706091230565 -0.10768673410018284 -0.066494566927264839 -0.14294910043478007 -0.063153723864448494 0.037473547492514948 -0.19055575370788574 -0.099873474513490976
leaf_count=10 14 11 10 16 12 17 16 12 10 20 12 15 13 14 11 10 14 12 13 11 10 10 11 15 14 10 19 11 10 15
internal_value=0 -0.42540088433062023 0.96238231942912589 0.34336594262171583 -0.75601045239820519 -0.85713036964931477 0.65713711393376195 0.81907934084048739 0.98299639536575834 0.58458038171132409 -0.9610328101135297 1.4255241429613483 0.51088608074627939 0.16792581073547663 -0.40102890074253084 2.5191328674554825 -1.1754270964595783 -0.55768084766587911 -0.37826841432028091 1.0775160920684752 -1.4302534112417749 -0.67250593311081708 -0.89656056330170275 -0.61718562880048045 -1.2390367818191985 -0.98350622555396205 -0.32657476284796194 -0.07464923936387767 -1.5456734493374824 -1.1866806875914335
internal_count=398 276 122 83 193 182 102 92 44 30 170 31 61 38 25 20 111 59 39 23 58 26 53 27 44 24 42 23 20 26
cat_boundaries=0 3 6 7 8 11 12 15 16 17 20 21 24 27 30
cat_threshold=0 0 327680 0 0 509120 12 16 0 0 2816 8 0 0 161792 12 6 0 0 483264 256 0 0 491328 0 0 10240 0 0 960
shrinkage=0.1


Tree=21
num_leaves=30
num_cat=10
split_feature=3 5 1 6 2 2 2 2 4 6 4 3 5 2 1 4 5 3 5 3 2 5 1 2 5 4 5 5 4
split_gain=134.60607824430519 62.832902949446009 48.061837881608703 34.667718443669614 18.74887109013666 18.624484520582705 16.888066679260969 15.515758019248111 24.774502306737411 13.401530634575121 24.072385579785973 18.894492480760846 12.913647188371897 12.341885820617287 7.2147743900268342 8.7295822145280386 8.829919737901637 11.023178521070701 12.228336306435784 7.5610621266941305 6.8622766198823228 10.20450685756469 3.6533672546273266 4.1653029289500978 2.7186072866720021 2.6976324581437012 2.5163221884324614 2.1909257648954465 2.0606721732658215
threshold=3049.5 0 109 1 65.5 52.5 131 90.5 17.050000000000001 2 16.100000000000001 2250 3 70.5 212.5 13.6 4 2027.5 5 2549 127 6 350.5 127 7 11.550000000000001 8 9 13.1
decision_type=10 9 8 9 10 10 10 8 8 9 8 8 9 10 10 8 9 10 9 10 8 9 8 10 9 8 9 9 8
left_child=1 3 5 4 -1 -3 14 8 -5 11 -11 13 -2 -7 15 -4 19 -18 -19 24 21 -14 23 -22 -17 -24 -27 -25 -29
right_child=12 2 6 7 -6 9 -8 -9 -10 10 -12 -13 20 -15 -16 16 17 18 -20 -21 22 -23 25 27 -26 26 -28 28 -30
leaf_value=0.32306059628725042 -0.0057632482341049536 0.17864245096842449 0.080505985518296574 0.22786840823563656 0.14851285060867667 0.12436932493001221 -0.12674469596573287 -0.013084217558304471 0.027323281392455101 0.22794392585754389 0.0085247581452131266 -0.10055291555821895 -0.11392044782638551 -0.017177589305422524 -0.066721680642742864 -0.12576215039938687 0.079562773234728323 0.05197794063446614 -0.078594348672777398 0.001816091949448866 -0.036209164166145703 0.00088731043797451992 -0.095417312213352756 -0.069310174323618412 -0.05202467978000639 -0.11537828892469407 -0.17681511243184403 -0.093326191315427354 -0.1560478822412816
leaf_count=10 19 15 12 11 16 14 14 15 14 10 10 10 15 11 19 10 18 13 16 17 11 16 14 10 10 12 15 10 11
internal_value=0 0.41199665035841598 0.13157208518466756 1.2575192029277484 2.1564659894658971 0.79871593080461023 -0.23044395507421606 0.67320379167795186 1.1556313720345497 0.52934086383743717 1.1823434200137855 0.15619654602238109 -0.82089557580971961 0.62088682666420936 -0.10420011103801105 0.0072302765911445022 -0.10674537749340136 0.18092203568270865 -0.20061943121254444 -0.47216074017656817 -0.94810609138783131 -0.5466483065768355 -1.0980481555943478 -0.89075980163622825 -0.88893415089696648 -1.310392323063641 -1.4950985753977741 -1.0783517293692115 -1.2618041037182721
internal_count=398 265 199 66 26 70 129 40 25 55 20 35 133 25 115 96 84 47 29 37 114 31 83 42 20 41 27 31 21
cat_boundaries=0 3 4 5 8 11 14 17 20 23 26
cat_threshold=0 0 458752 12 12 0 0 147456 0 0 52032 0 0 13312 0 0 7168 0 0 523456 0 0 9984 0 0 44096
shrinkage=0.1


Tree=22
num_leaves=31
num_cat=12
split_feature=2 5 5 0 3 3 5 5 4 5 3 5 4 6 2 4 1 5 0 1 1 3 5 4 5 3 2 4 3 1
split_gain=109.40147784602905 49.139744159753768 40.569761557106574 35.785647773866401 23.485896272224693 19.070608239260654 25.300899169444314 16.365824127780186 14.445794200922528 13.88828194738119 11.228557251547134 10.741929988025163 9.5969646317003559 8.6835265452297961 8.3865381127714826 6.2510241002903513 10.655159264051719 6.1389784850263673 5.5651393265791906 21.089379145645641 5.4555915173801033 5.2843163018316801 4.666933569551091 4.1073615244950599 3.3967206470207154 3.3467845823736124 2.1930469751762054 2.1142393032264648 1.6509407021623836 1.6218848457314508
threshold=85.5 0 1 2 2939 2132.5 3 4 17.649999999999999 5 1847.5 6 17.050000000000001 7 111 18.25 212.5 8 9 120.5 304.5 4655.5 10 14.449999999999999 11 2639.5 185 15.850000000000001 4057.5 329
decision_type=8 9 9 9 8 8 9 9 8 9 10 9 10 9 8 8 10 9 9 8 10 8 9 10 9 10 8 10 10 10
left_child=2 14 13 10 9 6 27 8 -7 -5 -3 21 23 -1 -2 16 -13 -17 19 -9 24 29 -23 -12 -18 -11 28 -4 -22 -6
right_child=1 3 5 4 11 7 -8 18 -10 25 12 15 -14 -15 -16 17 20 -19 -20 -21 26 22 -24 -25 -26 -27 -28 -29 -30 -31
leaf_value=0.27497847139835357 0.037607267329638649 0.092327583488076931 0.0091776271661122618 0.1090902791172266 -0.075055899517610672 0.026301839846101668 0.19990622927160825 0.16677203920182493 -0.13976541876792908 -0.076151252239942513 0.06122863739728928 -0.15256899038329721 -0.091626965403556832 0.1431943559274077 0.15624667360232428 -0.083391511626541626 -0.068129867911338807 0.01535129722426919 0.011199212679639459 -0.018257701938802547 -0.095849654078483518 -0.20301645576953886 -0.11593162901699541 -0.010991146415472032 0.0071110855539639785 0.0056629834696650507 -0.12447343140840531 0.071436003223061567 -0.038387654423713689 -0.11542711775092518
leaf_count=10 11 16 12 10 24 11 17 14 10 10 14 15 10 10 13 10 10 17 17 11 10 10 16 18 15 10 10 10 10 17
internal_value=0 -0.34857435345960158 0.78857805104748657 -0.47879122432306526 -0.68483870220610621 0.53322783818840414 1.0827942194464879 0.19302007836197138 -0.52777807112960584 0.12867336782316366 0.2104020637684855 -0.83365188574804583 -0.061168896655241646 2.0908641366288068 1.0187027906067669 -0.62095027980538675 -0.778610664379916 -0.21220113461216292 0.55341915310776002 0.85358953099948853 -0.57486178089271889 -1.1415930167396566 -1.4942579315258906 0.20605009002611041 -0.22985295832157135 -0.35244134385138742 -0.86236913303534191 0.37476889010180126 -0.67118654251098619 -0.91795185126545953
internal_count=398 276 122 252 194 102 39 63 21 30 58 164 42 20 24 97 70 27 42 25 55 67 26 32 25 20 30 22 20 41
cat_boundaries=0 3 6 7 10 13 16 19 20 23 24 27 30
cat_threshold=0 0 196608 0 0 327680 16 0 0 175488 0 0 359360 0 0 37952 0 0 264128 6 0 0 14336 16 0 0 263488 0 0 57344
shrinkage=0.1


Tree=23
num_leaves=30
num_cat=9
split_feature=3 5 2 6 0 4 1 2 3 4 6 1 2 5 3 4 3 3 4 4 1 5 4 3 5 0 1 5 3
split_gain=89.806606959105679 45.602707237662649 28.364880359118501 62.686295942332947 22.83902130817383 19.428170409648615 13.171986555937387 15.00013635292987 12.131216540233105 10.898530586571219 10.625942655068734 19.202284201609579 17.203316749122461 10.800815913161134 8.1483819384125162 9.8659024646138374 7.9986579404610634 6.7523896265462291 6.6061176335514631 6.8304693234614255 6.5127844905388912 6.1966996173647138 5.9607683705193182 4.6499753267591402 4.1923049174491922 3.8849167778927836 5.9826146889728342 5.615086242494348 1.5314292143792301
threshold=3049.5 0 65.5 1 2 13.949999999999999 120.5 106 2895 18.75 3 97.5 90.5 4 1987.5 18.75 2549 2939 15.850000000000001 14.850000000000001 254 5 13.949999999999999 2203.5 6 7 329 8 4310
decision_type=10 9 8 9 9 8 10 8 8 10 9 8 8 9 8 8 8 8 10 10 8 9 10 10 9 9 10 9 10
left_child=1 4 3 -3 14 -4 10 8 -8 20 11 -7 23 -12 -1 18 -17 -6 19 -16 21 -2 25 -13 -19 26 27 -22 -28
right_child=9 2 5 -5 17 6 7 -9 -10 -11 13 12 -14 -15 15 16 -18 24 -20 -21 22 -23 -24 -25 -26 -27 28 -29 -30
leaf_value=0.1066578471660614 0.016773018928674551 0.33000409925977392 0.15087598798906102 -0.00048965517092834805 -0.017179613976794132 -0.063879729168755672 -0.045004193764179939 -0.11052874895659359 0.092015884284462252 0.019919838813635019 0.045419367104768758 0.06797389158835776 0.1665737577355825 0.18901511728763576 0.064177410472184393 -0.11040937960147855 0.013163130120797593 -0.04693433623549275 0.091252019678552954 -0.050015351514924658 -0.08963919336145576 -0.082879418879747369 -0.14023270474539862 -0.016606296369662651 -0.12450793071797017 -0.1185119735515293 -0.12788655698299403 0.00013793293190629856 -0.079958028718829163
leaf_count=10 13 12 17 11 17 14 12 11 14 13 10 13 13 11 10 10 11 11 15 11 11 12 18 13 19 17 10 19 20
internal_value=0 0.33652357577240832 0.69696635348315272 1.7194186887987282 -0.14090501575673556 0.51324444948113523 0.36077812230130574 -0.1263903199216804 0.28775848262012005 -0.6705168915170252 0.60436234341279882 0.36583422264962828 0.72647117651425874 1.2063618862912768 0.23397979704635358 0.087909854131571027 -0.45680922127905343 -0.67531528081645831 0.40566264812110198 0.043621541932225227 -0.76473604681280749 -0.31060151219367982 -0.88424513487047274 0.25683797609347564 -0.96064279407728459 -0.76313507738341757 -0.64357275757938626 -0.32780346708993119 -0.95934204806884127
internal_count=398 265 151 23 114 128 111 37 26 133 74 53 39 21 67 57 21 47 36 21 120 25 95 26 30 77 60 30 30
cat_boundaries=0 3 4 5 6 9 12 15 16 19
cat_threshold=0 0 28608 12 16 14 0 0 491456 0 0 151552 0 0 10368 256 0 0 41728
shrinkage=0.1


Tree=24
num_leaves=31
num_cat=5
split_feature=5 3 6 4 4 0 2 1 1 1 3 3 4 1 3 4 5 4 5 4 4 2 2 4 1 2 4 2 3 2
split_gain=76.492069345705801 59.501040569680818 28.591936438921635 25.352026318234902 27.390298035703196 20.024542243222157 11.071021243417945 10.93313812092569 10.799407316160597 21.773089175721221 10.462051729068474 10.431117335361829 9.7363241684749369 8.7858535990648505 10.929676154804795 7.1577258723475676 8.0525812496071243 7.039475904011911 4.9315427121269977 7.8467699906485517 5.6987247547750002 3.3466010042323555 3.1684524174661384 2.9311537184993561 2.6030563268452553 4.0855831553912765 2.3767355450368228 2.3063430860251506 2.0615027749750068 1.7515292069507584
threshold=0 2400 1 22.949999999999999 18.75 2 65.5 241 113.5 241 2549 2080 15.050000000000001 109 3216 15.550000000000001 3 13.300000000000001 4 18.050000000000001 17.649999999999999 85.5 101 13.1 329 185 12.050000000000001 78.5 3614.5 90.5
decision_type=9 8 9 8 10 9 10 8 8 8 10 10 10 10 8 10 9 10 9 8 8 10 10 10 8 8 10 10 10 8
left_child=2 3 6 4 11 13 -1 10 -4 29 -7 -2 -13 14 -3 16 -15 -12 20 22 24 -19 -20 -24 28 26 -26 -14 -9 -10
right_child=1 5 8 -5 -6 7 -8 18 9 -11 17 12 27 15 -16 -17 -18 21 19 -21 -22 -23 23 -25 25 -27 -28 -29 -30 -31
leaf_value=0.25812900662422172 0.12339722381439061 -0.029162465035915366 0.13059843426400966 0.16826136782765388 -0.12449157029390334 -0.079984134984643851 0.12552664359579521 -0.013903494104743001 -0.016736531257629389 0.12496055874119823 0.083209460675716398 0.090526992401906425 -0.048731609772552129 0.066657619178295144 0.10580466772119204 -0.092637919566848068 -0.054342615604400617 0.022551312060518691 -0.11911047212779523 0.0051288032356430506 -0.13645559966564177 -0.053810973915581907 -0.020722989893207942 -0.088075119230364055 -0.15104032874107357 -0.045789947001529593 -0.090236182655725222 0.017623635828495028 -0.075380495935678485 -0.073403425291180616
leaf_count=10 16 10 11 16 10 19 17 10 12 12 10 14 11 11 15 11 11 11 12 17 20 12 12 14 10 14 18 10 12 10
internal_value=0 -0.20602699056084903 0.93284442516192534 0.56223224775938241 0.26836170860734143 -0.44360113253136235 1.7463862990261987 -0.59987232929670997 0.44471930084336136 0.1660747284973588 -0.20870600236006653 0.56508276969486593 0.25930472697530477 0.071016084402799606 0.51817814618349078 -0.26774305330984521 0.061575017869472504 0.13164465225329905 -0.74620793361833193 -0.51342973790385504 -0.8986222284313824 -0.17289880622664225 -0.76606663512556172 -0.56989521074753546 -0.75301792586105876 -0.89897948410362005 -1.1195194911477822 -0.17133873772053493 -0.47436404194344173 -0.42494210363789037
internal_count=398 326 72 77 61 249 27 191 45 34 52 51 35 58 25 33 22 33 139 55 84 23 38 26 64 42 28 21 22 22
cat_boundaries=0 3 4 5 8 11
cat_threshold=0 0 458752 12 16 0 0 22656 0 0 8128
shrinkage=0.1


Tree=25
num_leaves=31
num_cat=10
split_feature=5 3 6 4 4 0 1 2 3 1 3 3 4 1 5 4 5 4 5 6 4 4 5 2 5 6 1 2 4 3
split_gain=61.958575000390972 48.19584257359849 23.159469633400683 20.535141404474714 22.186142345735711 16.21987887536131 9.043177998305282 8.9610956450570232 16.38414736845051 8.855841878147011 8.4742611304313336 8.4492053293785006 8.0432839937096965 7.1165416644050783 9.9346897260765825 5.7977581058792129 6.522591028006139 5.7019754083452154 3.9945497729025448 6.8211807926641921 11.654224052815138 4.615967171097914 2.8669516533802351 2.802902126895308 2.3335932153942074 2.3296399765947489 2.1084755856970432 3.3093221337457734 1.9251556133337502 1.6698171672314208
threshold=0 2400 1 22.949999999999999 18.75 2 79.5 60.5 2895 241 2549 2080 14.850000000000001 109 3 15.550000000000001 4 13.300000000000001 5 6 18.050000000000001 17.649999999999999 7 185 8 9 329 185 12.050000000000001 3614.5
decision_type=9 8 9 8 10 9 10 10 8 8 10 10 10 10 9 10 9 10 9 9 8 8 9 8 9 9 8 8 10 10
left_child=2 3 6 4 11 13 -1 -4 -9 10 -7 -2 -13 14 -3 16 -15 -12 21 20 23 26 -19 24 -20 -14 29 28 -28 -11
right_child=1 5 7 -5 -6 9 -8 8 -10 18 17 12 25 15 -16 -17 -18 22 19 -21 -22 -23 -24 -25 -26 -27 27 -29 -30 -31
leaf_value=0.081717145442962616 0.11105750312563033 -0.02448119494048032 -0.02308397377530734 0.15143523141741755 -0.11204241603612899 -0.071985718490261794 0.20156160492230868 0.011239039980702928 0.16208916505177817 -0.012513145208358762 0.07488851338624955 0.094146995720538237 -0.040272751838589714 0.05999185795133765 0.10251385638756411 -0.083374128964814276 -0.048908355154774395 -0.04652614318407499 -0.0024971278943121435 -0.11287277843803167 0.061189767379652371 -0.12281003996729851 0.024693931788206093 -0.10202540501952172 -0.067905493018527815 0.022038830506304896 -0.13593629300594326 -0.041210953066391609 -0.081212564061085388 -0.067842445522546771
leaf_count=10 16 11 15 16 10 19 17 18 12 10 10 11 12 11 14 11 11 13 10 12 11 20 10 10 12 12 10 14 18 12
internal_value=0 -0.18542428784346654 0.83955997663239634 0.50600902457999719 0.24152553878480293 -0.39924101497843323 1.5717476807810642 0.40024735414319568 0.71579090009133017 -0.53988509058601253 -0.18783539633911389 0.50857449940168387 0.23337425626814365 0.063914475384457353 0.46636033803224564 -0.24096875389417013 0.055417513982816177 0.11848017889441866 -0.67158713447693874 -0.46208675371652302 -0.27604739632197589 -0.8087600028319728 -0.15560893196126688 -0.58127851417521015 -0.38174417962066154 -0.091169606661424041 -0.67771612881915644 -0.80908153002106009 -1.007567529699632 -0.42692763561552222
internal_count=398 326 72 77 61 249 27 45 30 191 52 51 35 58 25 33 22 33 139 55 43 84 23 32 22 24 64 42 28 22
cat_boundaries=0 3 4 5 8 11 14 15 18 21 22
cat_threshold=0 0 458752 12 16 0 0 49536 0 0 22656 0 0 466880 10 0 0 43520 0 0 57344 12
shrinkage=0.1


Tree=26
num_leaves=31
num_cat=11
split_feature=5 3 2 5 6 2 4 2 1 2 5 4 1 0 1 5 1 1 5 4 5 4 2 5 1 1 5 6 4 3
split_gain=50.186446027135027 39.038632257942638 18.96040521689936 37.528001615605689 18.759167872791046 13.659302203442614 10.407329875860901 8.7673621146987344 8.7503608578330123 17.93403358575943 6.7414621641446564 7.323508327991588 8.6850041539635026 5.9903925241920568 10.080332304687007 12.512139057188133 8.9980895626109287 9.5936526923859038 5.0707802239848707 4.4492938129376753 7.0069317418693799 4.3663144578970901 4.1160221159182688 4.0314253960290323 3.9303469792910128 2.9354212251374086 2.8859234079253815 1.9563141375205984 1.7912568617413029 1.3413581611157728
threshold=0 2400 67.5 1 2 127 17.350000000000001 65.5 113.5 80.5 3 15.550000000000001 97.5 4 109 5 97.5 178 6 13.1 7 17.050000000000001 115.5 8 241 329 9 10 16.550000000000001 4236
decision_type=9 8 8 9 9 10 10 10 8 10 9 8 10 9 10 9 10 10 9 8 9 8 8 9 10 10 9 9 8 10
left_child=4 2 3 -2 7 13 10 -1 -6 -10 -4 12 -12 14 15 -3 21 -18 22 23 -21 -15 -16 -7 26 -25 -19 -20 -26 -27
right_child=1 5 6 -5 8 19 -8 -9 9 -11 11 -13 -14 16 18 -17 17 24 27 20 -22 -23 -24 25 28 29 -28 -29 -30 -31
leaf_value=0.21575527429580679 -0.0076685579121112818 -0.03917592436075211 -0.032657742703502829 0.26629494920372954 0.11354870423674585 -0.10050903314893896 -0.076489298939704908 0.09775258811081157 -0.070799079090356834 0.07547117569728902 -0.042644129320979107 0.1101588008304437 0.086121015325188635 -0.13590184097940269 0.046608114586426649 0.10179294048370245 0.051991554672519369 -0.046775235931078595 -0.034783207978072925 -0.063239648986769759 -0.15508974183064242 -0.051710553893021177 -0.036506319452415815 0.014549229741096494 -0.044319517233154977 -0.077785034850239743 0.015256190598011013 -0.089427083730697604 -0.10279748052358628 -0.02718093747442419
leaf_count=10 10 10 11 10 11 11 10 17 15 19 11 15 10 11 13 17 15 15 19 23 13 14 11 10 11 10 15 10 10 11
internal_value=0 -0.16688186288639859 0.45540811648810064 1.2931319564580916 0.75560397768600118 -0.35931691674919553 0.16146992702494589 1.4145728669784687 0.36022264411052068 0.10940180938033496 0.35856841988068944 0.56791853977160323 0.1867260622481505 -0.20113245196564242 -0.0015118835784960539 0.49582249800571138 -0.37662306153676012 -0.18309119010739255 -0.25487090815913005 -0.70610593569775426 -0.96407738069279325 -0.88754720211029048 0.085139989852905273 -0.48498755427343504 -0.38985787741109434 -0.30043495590648345 -0.15759522666533787 -0.53625923754840066 -0.72166166419074651 -0.51278126701003024
internal_count=398 326 77 20 72 249 57 27 45 34 47 36 21 171 80 27 91 66 53 78 36 25 24 42 51 31 30 29 21 21
cat_boundaries=0 3 6 7 10 11 14 17 20 23 26 27
cat_threshold=0 0 458752 0 0 38272 12 0 0 21248 272 0 0 49280 0 0 52352 0 0 53120 0 0 2560 0 0 503232 6
shrinkage=0.1


Tree=27
num_leaves=31
num_cat=12
split_feature=5 3 2 6 2 1 3 1 4 4 4 6 5 0 2 5 5 4 5 1 3 4 2 6 5 0 4 3 5 4
split_gain=40.65102073874467 31.621292702007203 15.357928164301404 15.194927715377844 11.593551616498505 9.466516953817294 21.366346176551787 8.7059886453450162 8.4299372089698057 8.2095560065880235 7.188840947251661 19.425460354492621 13.502825713474746 9.3600176280451493 5.6228279108869144 5.3688614107133672 5.3680107550522598 5.3345894549834654 5.1113164615436144 3.8347653942265891 3.6650882409406513 3.5662728195434337 3.3801756291903553 4.1849210668778714 3.3790375973379838 2.8416370175426406 2.5353382463045193 4.910002724701485 3.6073228380532565 1.0387968784430406
threshold=0 2400 67.5 1 106 241 2503 88.5 17.350000000000001 14.050000000000001 15.850000000000001 2 3 4 68.5 5 6 13.949999999999999 7 303 3412.5 15.550000000000001 73 8 9 10 12.050000000000001 4057.5 11 11.550000000000001
decision_type=9 8 8 9 10 8 10 10 10 10 10 9 9 9 10 9 9 10 9 10 8 8 10 9 9 9 10 8 9 8
left_child=3 2 7 9 10 6 -5 -2 16 -1 12 -12 -3 22 -13 -16 -4 18 26 -20 -17 -18 23 -14 -19 -24 27 -6 -28 -29
right_child=1 4 8 5 17 -7 -8 -9 -10 -11 11 14 13 -15 15 20 21 24 19 -21 -22 -23 25 -25 -26 -27 28 29 -30 -31
leaf_value=0.19920717775821681 0.050404650792479501 0.058181063724415644 -0.025445497222244741 0.098501060477324903 -0.13334439234300088 0.108479838926966 -0.064309016595545568 0.18235910236835481 -0.068840368390083326 0.085020021743634169 0.12091248877919639 0.043698368695649234 -0.017688255663961174 -0.10945059947277372 0.022313377596437933 -0.10046537736287482 0.019213532341425033 -0.056658385259409749 0.04190078306943177 -0.041946716730793317 -0.019939686506986617 0.083081131469872269 -0.041888065145096992 -0.094073762916601605 -0.12785217990477879 0.02413715363945812 0.0092932552099227912 -0.027375713959336273 -0.070595333209404559 -0.072956343144178398
leaf_count=10 10 14 12 14 11 12 19 10 10 17 13 11 16 19 10 13 17 12 10 12 10 18 11 13 15 16 10 10 13 10
internal_value=0 -0.1501936751740636 0.40986731133798693 0.68004357579371166 -0.32338522521995877 0.32420035522017215 0.047619251929449311 1.1638187658041717 0.14532294134985199 1.2731156100829442 -0.14214659930040982 0.13512831841383063 -0.31972716457806949 -0.48801422091821828 -0.18218884981152686 -0.38857969540086662 0.32271158502021052 -0.58028657846514464 -0.44464058375084087 -0.038342168216000901 -0.65454207425532129 0.5205972617891218 -0.28224022623284589 -0.51930034777213785 -0.96210493395725882 -0.027620095690643345 -0.61016956785762755 -0.79680931832521196 -0.35861164331436157 -0.50166028551757336
internal_count=398 326 77 72 249 45 33 20 57 27 146 57 89 75 44 33 47 103 76 22 23 35 56 29 27 27 54 31 23 20
cat_boundaries=0 3 4 5 8 9 12 15 18 19 22 23 26
cat_threshold=0 0 458752 12 12 0 0 36864 336 0 0 58368 0 0 22016 0 0 490432 2 0 0 44544 64 0 0 515200
shrinkage=0.1


Tree=28
num_leaves=31
num_cat=6
split_feature=3 0 1 2 5 5 4 1 2 4 4 1 1 3 5 1 5 2 4 6 3 4 3 4 1 1 4 2 4 3
split_gain=33.512578234297891 24.691863188752603 19.543418707171931 17.274211492763154 54.236778041749965 14.931935002360298 18.727297963815424 14.239083599186515 11.146739968998308 10.098721404272837 9.6014675894639687 9.3005227307276712 8.1033751489999233 16.91883246225466 10.86630038664569 7.7897257498705237 6.5234353145944404 5.1198156396694756 4.9761527565368011 3.0508259657432646 4.2978447285865933 3.730413143296889 3.0181987258234315 3.3962956856694113 2.8278546250557648 2.0311023467886891 1.1643736909989215 1.4736003574982917 1.4584989567799811 2.45897891415669
threshold=3049.5 0 117.5 67.5 1 2 16.449999999999999 97.5 68.5 18.25 18.050000000000001 140.5 90.5 3614.5 3 93.5 4 111 17.649999999999999 5 2400 14.449999999999999 4951.5 13.1 231.5 109 13.300000000000001 204 12.050000000000001 4236
decision_type=8 9 10 8 9 9 8 10 10 10 10 8 10 10 9 8 9 8 8 9 10 10 8 8 8 8 8 8 10 10
left_child=3 2 8 4 15 6 7 -5 -2 12 19 -8 13 -3 -14 -1 -9 18 -16 21 25 -7 26 -24 -22 -21 28 -28 29 -19
right_child=1 9 -4 5 -6 10 11 16 -10 -11 -12 -13 14 -15 17 -17 -18 22 -20 20 24 -23 23 -25 -26 -27 27 -29 -30 -31
leaf_value=0.06175762313333423 0.15675540204559049 -0.16685711145400997 -0.057686130454142892 -0.065031759757548574 0.26654538710912073 0.012284606007429267 0.064458586197967321 0.12057414822280409 0.02223641791126945 0.038829370395147375 -0.097949947823177688 0.19175923927263783 0.061181452572345724 -0.016327544195311412 0.026795348635641855 -0.057251358574086975 0.018786377810380034 -0.079366674274206142 -0.058392029752333964 0.0192102700471878 0.014873183058465226 -0.06347222301500062 -0.053493614968928405 -0.13401589274406434 -0.052143967896699908 0.079979615590789102 -0.076741532268731497 -0.032240605354309081 -0.012564428249994914 -0.014440620765089991
leaf_count=11 14 16 12 15 12 13 12 10 11 14 11 11 10 14 16 11 17 14 12 11 17 13 11 10 10 11 23 11 15 10
internal_value=0 -0.27043222881713663 0.47214666492230184 0.31136251126315345 0.95532751631210833 0.16636376840444836 0.52807510384859946 0.13086512110506496 0.97567049026489261 -0.42654256443281402 -0.1070227060591542 1.2534150723367929 -0.49696051355244386 -0.96609980066617329 -0.3903379482993235 0.022531322796236385 0.56485552037203757 -0.47248159371102688 -0.097135278163477778 0.02094055385949711 0.16785575000911343 -0.2559380850378567 -0.58428687919327549 -0.91837556766612194 -0.09947983961966303 0.49594942818988452 -0.48817917429012797 -0.62344173561124239 -0.370257966984541 -0.52314151978741086
internal_count=398 213 37 185 34 151 65 42 25 176 86 23 162 30 132 22 27 122 28 75 49 26 94 21 27 22 73 34 39 24
cat_boundaries=0 1 4 7 10 13 14
cat_threshold=16 0 0 458688 0 0 503872 0 0 67584 0 0 106496 4
shrinkage=0.1


Tree=29
num_leaves=30
num_cat=9
split_feature=5 2 5 4 2 3 1 6 3 1 6 4 4 3 6 5 3 1 1 5 2 4 4 1 4 3 5 5 4
split_gain=28.032828681788413 19.942438086085751 16.362950209664689 16.34099054955017 14.691225525468592 37.565546495490018 8.5555325866543122 7.4417599003029524 7.8798095306365195 8.2572576887469822 7.1223247710722113 8.3711616498579282 12.6170188922632 5.4422339908647466 5.2911608226796725 10.55071885346576 7.2444547099198537 11.500592661810284 5.9763258587280816 4.8422434077190495 3.9362736175906985 3.3941018545185111 3.0247757701814866 2.3219572269703894 1.8337436494812387 1.8022879940756527 2.4159586503273758 1.3787924993920786 1.0834797525833311
threshold=0 95.5 1 14.449999999999999 65.5 2027.5 140.5 2 1987.5 228 3 17.949999999999999 14.050000000000001 2795 4 5 2122.5 113.5 93.5 6 84.5 17.050000000000001 14.050000000000001 228 13.300000000000001 4057.5 7 8 15.350000000000001
decision_type=9 8 9 8 10 10 10 9 10 10 9 8 10 10 9 9 10 8 10 9 10 8 10 10 10 8 9 9 10
left_child=10 3 -3 -2 5 -5 14 -4 9 -9 -1 12 24 -10 16 -16 -6 -18 -17 27 -14 22 -15 -23 25 -12 -27 -13 -22
right_child=1 2 7 4 6 -7 -8 8 13 -11 11 19 20 21 15 18 17 -19 -20 -21 28 23 -24 -25 -26 26 -28 -29 -30
leaf_value=0.027835772041645314 0.16649756567044693 0.081945921151953593 0.052623264356092971 0.0015634902815024054 -0.095517018102109441 0.24486206092617732 0.087133057912190767 -0.15361768901348111 0.046817768500609834 -0.028063495186242189 -0.070000675879418855 -0.07663149990571233 0.049125234900336517 -0.024552473842221145 -0.055407153815031057 0.10604988358914849 0.088260032832622501 -0.050187265574932097 0.0062473630905151368 -0.12835075350908132 0.015292924507097761 0.031802385639060619 -0.088630788873594546 -0.034777096435427667 -0.081743053186477899 0.0082528062842108993 -0.053447802675267053 -0.03057480408595158 -0.024543174563182724
leaf_count=18 11 17 11 15 10 11 15 10 11 11 16 13 19 17 10 15 10 15 10 13 11 11 13 10 18 11 15 13 18
internal_value=0 0.22333456122600215 -0.083376608033840727 0.50239144473290831 0.38718039669969062 1.0449750093886485 0.18597263281836229 -0.2466554264637067 -0.34908637550311633 -0.87851206532546455 -0.31537547288744738 -0.38807749655731277 -0.24467568998914901 -0.16976477088586939 0.039110215753316878 0.3140429561691625 -0.23582252466252873 0.05191653788089752 0.66128875389695163 -0.78519019166915083 0.13746343553066254 -0.30736020254884283 -0.52319743689149623 0.00097870365494773497 -0.55038699040499828 -0.43593975835080656 -0.27343698884718692 -0.53603151995831955 -0.094329300882487463
internal_count=398 233 111 122 111 26 85 94 83 21 165 147 108 62 70 35 35 25 25 39 48 51 30 21 60 42 26 26 29
cat_boundaries=0 3 6 7 8 9 12 15 18 21
cat_threshold=0 0 15296 0 0 196608 8 4 6 0 0 229376 0 0 10624 0 0 515392 0 0 2304
shrinkage=0.1


Tree=30
num_leaves=31
num_cat=8
split_feature=5 3 4 4 3 4 1 4 2 2 1 4 1 3 3 4 4 5 4 5 2 5 4 3 5 1 5 6 1 5
split_gain=23.116193407563454 17.137193373102388 11.704799249427282 16.423075158212288 10.668128961994732 13.345062024824246 21.474536087859512 11.844225925473541 6.7976661079864176 7.2495362877727407 6.3710046351339908 6.095784412921021 7.6513761176062172 5.6655779105453341 4.9326747500357699 5.2950622085341488 4.2408770996362399 3.62154677229264 2.9738067500974683 3.0496365075902654 2.6191173504880148 2.2846148319661737 2.1322286228542762 3.4206124047261763 2.9439246184968688 2.3233995186732979 2.0351972873659925 1.932245496718501 1.9001029283392845 1.2223070675146293
threshold=0 2400 22.949999999999999 18.75 2939 14.6 120.5 16.850000000000001 106 73 109 18.25 350.5 2080 2080 14.850000000000001 13.949999999999999 1 15.550000000000001 2 97.5 3 12.050000000000001 4057.5 4 386.5 5 6 212.5 7
decision_type=9 8 8 10 10 8 8 10 10 8 8 10 8 10 10 10 10 9 10 9 8 9 10 8 9 8 9 9 10 9
left_child=4 2 3 14 5 -1 13 -8 9 -3 -11 12 18 -7 -2 -16 17 22 19 -12 -14 -18 23 -10 -24 -25 -20 -17 -21 -22
right_child=1 8 -4 -5 -6 6 7 -9 16 10 11 -13 20 -15 15 27 21 -19 26 28 29 -23 24 25 -26 -27 -28 -29 -30 -31
leaf_value=0.14056374341249467 0.078909609350375831 -0.073715034034103163 0.10603175353608095 -0.10724196970462799 0.1419268606399948 0.037878912488619479 -0.10815114796937751 0.032349302358925344 -0.09926028010936884 0.074306712150573731 -0.026775481924414635 0.053246240903224266 -0.0219783841417386 0.13236477023244583 0.069338050891052591 -0.042821527893344563 -0.042708539183844221 0.012368002633253734 0.010554186590015889 0.054149760264489394 -0.054913298040628437 -0.10190994832664726 0.018508172577077691 -0.070159761309623689 -0.049601382700105501 -0.0048944122778872652 -0.04629976808586541 0.013927121087908743 0.0067875699838623408 -0.10435633733868595
leaf_count=10 16 16 16 10 11 15 15 10 13 10 12 14 13 11 11 12 11 15 10 18 10 16 11 10 15 12 17 12 16 10
internal_value=0 -0.11325935244365978 0.29904256977576327 0.099363890278046249 0.51281317570828833 0.34935399968192349 0.14223960077152678 -0.51950967838056383 -0.24075834043922434 -0.10197976494386587 -0.023804924894983953 -0.08771092876171073 -0.16962061488544042 0.77853698457161391 0.32912537798869845 0.11885305089609964 -0.43747360279186837 -0.31652960585626333 0.011018743815079127 0.16565022204557192 -0.56921677201083209 -0.77790855712912699 -0.42477787606662415 -0.58591834338647975 -0.20785801621297231 -0.34560480019585654 -0.25242747835539003 -0.14447203402717909 0.31861670720664892 -0.79634817689657211
internal_count=398 326 77 61 72 61 51 25 249 146 130 120 106 26 51 35 103 76 73 46 33 27 61 35 26 22 27 24 34 20
cat_boundaries=0 3 6 9 12 15 18 19 22
cat_threshold=0 0 458752 0 0 524224 0 0 10048 0 0 36352 0 0 55296 0 0 3584 12 0 0 10432
shrinkage=0.1



feature importances:
model_year=234
weight=179
acceleration=153
horsepower=136
displacement=129
cylinders=47
origin=44

pandas_categorical:null