tree
version=v3
num_class=1
num_tree_per_iteration=1
label_index=0
max_feature_idx=12
objective=quantile
feature_names=AGE B CHAS CRIM DIS INDUS LSTAT NOX PTRATIO RAD RM TAX ZN
feature_infos=[2.8999999999999999:100] [2.52:396.89999999999998] 1:0:-1 [0.0090599999999999986:88.976200000000006] [1.1295999999999999:12.1265] [0.46000000000000002:27.739999999999998] [1.73:37.969999999999999] [0.38500000000000001:0.871] [12.6:22] [1:24] [3.5610000000000004:8.7799999999999994] [188:711] [0:100]
tree_sizes=617 628 644 630 797 879 858 886 872 816 883 878 1042 1043 968 1043 1058 1069 961 1058 1041 1112 1129 887 1125 1042 1213 1217 1205 1218 1039 1155 1385 1294 1230 1381 1374 1450 1385 1382 1286 1472 1374 1467 1393 1556 1549 1571 1475 1466 1351

Tree=0
num_leaves=6
num_cat=0
split_feature=10 6 10 4 11
split_gain=20.5872 3.17044 1.287 0.359617 0.14995
threshold=7.4370000000000003 5.1550000000000011 6.9720000000000004 1.4784000000000004 228.50000000000003
decision_type=10 8 10 8 8
left_child=1 -1 3 -3 -5
right_child=-2 2 -4 4 -6
leaf_value=36.320001244544983 36.410001373291017 36.410001373291017 35.102001379013018 34.795001282691921 33.910001373291017
leaf_weight=36 26 22 24 25 373
leaf_count=36 26 22 24 25 373
internal_value=0 -0.0520834 -0.0752252 -0.0880953 -0.0949749
internal_weight=0 480 444 420 398
internal_count=506 480 444 420 398
shrinkage=1


Tree=1
num_leaves=6
num_cat=0
split_feature=10 10 6 4 11
split_gain=20.8698 1.95753 0.969272 0.378956 0.14995
threshold=7.4370000000000003 6.9410000000000007 5.0550000000000006 1.4784000000000004 228.50000000000003
decision_type=10 10 8 8 8
left_child=1 2 -1 -4 -5
right_child=-2 -3 3 4 -6
leaf_value=1.3379997968673707 1.3589998626708983 0.21079991264359707 1.3589998626708983 -0.094500218868288507 -0.89100013732910177
leaf_weight=22 26 39 21 25 373
leaf_count=22 26 39 21 25 373
internal_value=0 -0.0583334 -0.0773243 -0.0880668 -0.0949749
internal_weight=0 480 441 419 398
internal_count=506 480 441 419 398
shrinkage=0.1


Tree=2
num_leaves=6
num_cat=1
split_feature=10 10 2 11 4
split_gain=19.1611 1.95753 1.02324 0.310603 0.171692
threshold=7.4370000000000003 6.9410000000000007 0 228.50000000000003 1.5136000000000001
decision_type=10 10 9 8 8
left_child=1 2 -1 -4 -5
right_child=-2 -3 3 4 -6
leaf_value=1.2330898896789477 1.2230998764038086 0.18971992137923765 0.46207471151348528 0.78109870958326233 -0.7760703425214599
leaf_weight=21 26 39 25 22 373
leaf_count=21 26 39 25 22 373
internal_value=0 -0.0583334 -0.0773243 -0.0880953 -0.0949367
internal_weight=0 480 441 420 395
internal_count=506 480 441 420 395
cat_boundaries=0 1
cat_threshold=2
shrinkage=0.1


Tree=3
num_leaves=6
num_cat=0
split_feature=10 10 4 11 4
split_gain=17.6121 1.99569 0.603265 0.51432 0.0450615
threshold=7.4370000000000003 6.9410000000000007 1.4784000000000004 228.50000000000003 7.8271500000000005
decision_type=10 10 8 8 10
left_child=1 2 -1 -4 -5
right_child=-2 -3 3 4 -6
leaf_value=1.1381701678488707 1.1007898887634278 0.17074792924131402 0.78999233983050354 -0.69429327168642674 -0.57568309270097207
leaf_weight=22 26 39 28 370 21
leaf_count=22 26 39 28 370 21
internal_value=0 -0.0604167 -0.0795919 -0.0880668 -0.0974425
internal_weight=0 480 441 419 391
internal_count=506 480 441 419 391
shrinkage=0.1


Tree=4
num_leaves=8
num_cat=0
split_feature=10 10 3 6 4 5 4
split_gain=15.7155 1.91784 1.36111 0.923973 0.350744 0.272283 0.0472452
threshold=7.4370000000000003 6.8530000000000006 0.056530000000000004 5.0550000000000006 1.4784000000000004 3.5400000000000005 6.8733500000000012
decision_type=10 10 10 8 8 8 10
left_child=1 3 -3 -1 -5 -6 -7
right_child=-2 2 -4 4 5 6 -8
leaf_value=0.98945773025553729 0.99071089988708472 -0.077326775945086024 0.30177288354563625 1.0266530596175432 0.0070969636329217822 -0.68786376599036247 -0.53486374875772735
leaf_weight=22 26 20 25 21 29 343 20
leaf_count=22 26 20 25 21 29 343 20
internal_value=0 -0.0520834 0.144444 -0.0724138 -0.0830509 -0.0897959 -0.0972452
internal_weight=0 480 45 435 413 392 363
internal_count=506 480 45 435 413 392 363
shrinkage=0.1


Tree=5
num_leaves=9
num_cat=0
split_feature=10 10 11 4 5 7 12 0
split_gain=15.7155 1.8008 1.10139 0.598486 0.670716 0.0420882 0.0144005 0.0327586
threshold=7.4370000000000003 6.7815000000000012 264.50000000000006 1.4784000000000004 3.3500000000000005 0.42700000000000005 87.500000000000014 67.950000000000003
decision_type=10 10 10 8 8 8 8 10
left_child=1 3 -3 -1 -5 -6 -7 -8
right_child=-2 2 -4 4 5 6 7 -9
leaf_value=0.92546971454811511 0.89163980989837632 0.081055910924093366 0.10969545991243308 0.44484436859530496 -0.22770939099015225 -0.65607746187031246 -0.21007743516736249 -0.62607742372335806
leaf_weight=21 26 28 27 32 20 294 38 20
leaf_count=21 26 28 27 32 20 294 38 20
internal_value=0 -0.0520834 0.118182 -0.0741177 -0.0826733 -0.0946237 -0.0971591 -0.0827586
internal_weight=0 480 55 425 404 372 352 58
internal_count=506 480 55 425 404 372 352 58
shrinkage=0.1


Tree=6
num_leaves=9
num_cat=0
split_feature=10 10 11 4 6 4 12 0
split_gain=14.4727 1.55725 0.981818 0.633198 0.398535 0.0399572 0.0133742 0.033871
threshold=7.4370000000000003 6.7815000000000012 254.50000000000003 1.4784000000000004 5.0550000000000006 7.6057500000000013 inf 69.950000000000017
decision_type=10 10 10 8 8 10 8 10
left_child=1 3 -3 -1 -5 6 -6 -8
right_child=-2 2 -4 4 5 -7 7 -9
leaf_value=0.83292274309330372 0.80247582890853841 0.10403027339727143 0.02939017294670947 0.81556283301983479 -0.59723978921693066 -0.42895572453891861 -0.27365912508599177 -0.56346965743136412
leaf_weight=21 26 22 33 20 301 21 42 20
leaf_count=21 26 22 33 20 301 21 42 20
internal_value=0 -0.0583334 0.1 -0.0788236 -0.0876238 -0.0947917 -0.0972452 -0.083871
internal_weight=0 480 55 425 404 384 363 62
internal_count=506 480 55 425 404 384 363 62
shrinkage=0.1


Tree=7
num_leaves=9
num_cat=0
split_feature=10 11 4 10 9 7 9 3
split_gain=12.9068 1.34819 0.909581 0.554107 0.79926 0.268642 0.0461538 0.142857
threshold=7.4370000000000003 222.50000000000003 1.4471000000000003 6.7815000000000012 2.5000000000000004 0.41905000000000009 1.0000000180025095e-35 0.086855000000000016
decision_type=10 8 8 10 10 8 10 10
left_child=1 -1 -3 5 -5 -4 7 -7
right_child=-2 2 3 4 -6 6 -8 -9
leaf_value=0.42400669752795422 0.72222824601768432 0.75266843693469887 0.06621836322190984 -0.039978113868120391 0.095447134134440823 0.049254310922146161 -0.52188045726985166 -0.57473516858332818
leaf_weight=20 26 21 28 24 23 20 294 50
leaf_count=20 26 21 28 24 23 20 294 50
internal_value=0 -0.0541667 -0.0652174 -0.0749431 0.0276596 -0.0872449 -0.0945055 -0.0714286
internal_weight=0 480 460 439 47 392 364 70
internal_count=506 480 460 439 47 392 364 70
shrinkage=0.1


Tree=8
num_leaves=9
num_cat=0
split_feature=10 6 6 12 4 6 4 0
split_gain=10.3744 1.26488 0.508937 0.523434 1.16224 0.325647 0.0417781 0.039899
threshold=7.4370000000000003 4.830000000000001 8.1800000000000015 34.500000000000007 4.4281000000000006 6.9250000000000007 1.5266000000000004 95.100000000000009
decision_type=10 8 10 8 10 10 8 10
left_child=1 -1 3 5 -5 7 -4 -3
right_child=-2 2 6 4 -6 -7 -8 -9
leaf_value=0.73480876618563784 0.65000542141591566 -0.31735890642524611 -1.3576592125926545 0.10813263576130386 -0.10357628981395657 0.044328940663619573 -0.5785577482541886 -0.083124282714103243
leaf_weight=28 26 79 22 26 35 20 250 20
leaf_count=28 26 79 22 26 35 20 250 20
internal_value=0 -0.05625 -0.0690266 -0.0277778 0.047541 -0.0663866 -0.0963236 -0.089899
internal_weight=0 480 452 180 61 119 272 99
internal_count=506 480 452 180 61 119 272 99
shrinkage=0.1


Tree=9
num_leaves=8
num_cat=1
split_feature=10 2 6 8 3 8 12
split_gain=7.78393 1.16236 0.436421 0.620579 0.265441 0.324107 0.180743
threshold=7.4795000000000007 0 9.5350000000000019 15.250000000000002 4.7822500000000012 18.650000000000002 77.500000000000014
decision_type=10 9 10 8 8 10 8
left_child=1 -1 3 -3 6 -6 -5
right_child=-2 2 -4 4 5 -7 -8
leaf_value=0.67013326035524179 0.58500487927432376 0.2239295997376928 -0.58270181702722967 -0.17199766047730031 0.18198552793280323 -0.40805542471122136 0.0047353618998678126
leaf_weight=23 24 23 232 107 28 32 37
leaf_count=23 24 23 232 107 28 32 37
internal_value=0 -0.0585062 -0.0694989 -0.038326 -0.0558824 -2.38419e-08 -0.0791667
internal_weight=0 482 459 227 204 60 144
internal_count=506 482 459 227 204 60 144
cat_boundaries=0 1
cat_threshold=2
shrinkage=0.1


Tree=10
num_leaves=9
num_cat=0
split_feature=10 6 10 4 6 8 6 5
split_gain=7.72867 1.14048 0.625738 0.32594 0.149036 0.264151 0.425926 0.0222281
threshold=7.4795000000000007 4.620000000000001 6.8530000000000006 1.4784000000000004 9.7250000000000032 18.650000000000002 7.1300000000000008 6.3050000000000006
decision_type=10 8 10 8 8 8 10 8
left_child=1 -1 3 -3 5 6 -5 -6
right_child=-2 2 -4 4 7 -7 -8 -9
leaf_value=0.64460438643868689 0.52650439134689153 0.70930513047978394 0.0084465069611586435 -0.058012797199041094 -0.37118516943564678 -0.22220546177589157 0.026147137319807723 -0.55752914843190138
leaf_weight=23 24 21 39 23 39 56 27 254
leaf_count=23 24 21 39 23 39 56 27 254
internal_value=0 -0.0564316 -0.0673203 -0.0785715 -0.0849624 -0.0528302 -2.38419e-08 -0.0965871
internal_weight=0 482 459 420 399 106 50 293
internal_count=506 482 459 420 399 106 50 293
shrinkage=0.1


Tree=11
num_leaves=9
num_cat=0
split_feature=10 6 10 4 3 8 11 10
split_gain=6.60955 1.1188 0.603438 0.313283 0.201696 0.336533 0.625 0.088964
threshold=7.4795000000000007 4.620000000000001 6.8530000000000006 1.4784000000000004 0.081930000000000017 17.850000000000005 309.00000000000006 1.0000000180025095e-35
decision_type=10 8 10 8 10 8 8 10
left_child=1 -1 3 -3 5 6 -5 -7
right_child=-2 2 -4 4 -6 7 -8 -9
leaf_value=0.58014394779481815 0.4738539522122025 0.63837461743180557 0.0076018562650429639 0.019082785402994511 -0.40778622310114443 -0.37273236278679034 -0.43894980075390128 -0.38883113767111821
leaf_weight=23 24 21 39 20 248 32 20 79
leaf_count=23 24 21 39 20 248 32 20 79
internal_value=0 -0.0543569 -0.0651416 -0.0761905 -0.0824562 -0.0536424 0.025 -0.081982
internal_weight=0 482 459 420 399 151 40 111
internal_count=506 482 459 420 399 151 40 111
shrinkage=0.1


Tree=12
num_leaves=11
num_cat=0
split_feature=10 6 4 8 11 0 8 10 4 1
split_gain=6.4071 1.11184 1.05402 0.840949 0.440367 0.237429 0.356567 0.282888 0.0457082 0.0352941
threshold=7.4795000000000007 9.7250000000000032 2.0467000000000009 15.250000000000002 228.50000000000003 26.050000000000004 17.700000000000006 7.097500000000001 5.408500000000001 392.57500000000005
decision_type=10 10 8 8 8 10 8 8 10 8
left_child=1 2 -1 -4 -5 -6 -7 9 -3 -8
right_child=-2 8 3 4 5 6 7 -9 -10 -11
leaf_value=0.63966612190411665 0.42646855699098229 -0.481185277169699 0.16720290084326714 0.04869494148040486 -0.24542197206700678 0.014861730865780746 -0.29674343831586708 0.2233317755566791 -0.40061472564519029 -0.24622525079384669
leaf_weight=23 24 213 23 20 74 21 20 20 20 48
leaf_count=23 24 213 23 20 74 21 20 20 20 48
internal_value=0 -0.0460581 0.000401583 -0.020354 -0.0408867 -0.0562842 -0.0266055 -0.0545455 -0.0957082 -0.0852941
internal_weight=0 482 249 226 203 183 109 88 233 68
internal_count=506 482 249 226 203 183 109 88 233 68
shrinkage=0.1


Tree=13
num_leaves=11
num_cat=0
split_feature=10 6 10 3 4 4 4 0 0 5
split_gain=5.88471 1.18938 0.554537 0.67584 0.298419 0.120903 0.276149 0.14881 0.104762 0.043603
threshold=7.4370000000000003 4.830000000000001 6.6170000000000009 0.099245000000000014 1.5136000000000001 3.9312500000000004 4.3607000000000005 58.750000000000007 70.800000000000011 4.6750000000000016
decision_type=10 8 10 8 8 10 10 10 10 8
left_child=1 -1 4 -4 -3 9 -7 -8 -5 -6
right_child=-2 2 3 8 5 6 7 -9 -10 -11
leaf_value=0.49306934366066302 0.38382170129188398 0.49335615103648717 0.035520686955944403 -0.088010830185968961 -0.006944380371348602 0.069171444482953579 -0.34845661661786964 -0.0079850053729897397 0.011532092367878131 -0.38665483925974353
leaf_weight=28 26 22 23 22 21 20 75 21 20 228
leaf_count=28 26 22 23 22 21 20 75 21 20 228
internal_value=0 -0.05 -0.0623894 0.0230769 -0.0767442 -0.0835617 -0.0568966 -0.0791667 -0.052381 -0.095984
internal_weight=0 480 452 65 387 365 116 96 42 249
internal_count=506 480 452 65 387 365 116 96 42 249
shrinkage=0.1


Tree=14
num_leaves=10
num_cat=0
split_feature=10 6 11 6 3 10 3 1 4
split_gain=5.82392 1.40171 0.519098 0.296371 0.247021 0.352417 0.238388 0.13986 0.0455947
threshold=7.6655000000000006 4.620000000000001 223.50000000000003 9.7250000000000032 0.069620000000000015 6.6170000000000009 1.9219800000000002 393.24500000000006 5.408500000000001
decision_type=10 8 8 10 8 10 10 8 10
left_child=1 -1 -3 4 -4 6 7 -6 -5
right_child=-2 2 3 8 5 -7 -8 -9 -10
leaf_value=0.45614369827509549 0.34543953116269538 0.026620378838920294 -0.080296419170261618 -0.39981170435308599 -0.080130042859338668 0.011402859874957505 0.47844927981403984 -0.26934400910855755 -0.32570759141888417
leaf_weight=25 20 21 57 207 39 37 20 60 20
leaf_count=25 20 21 57 207 39 37 20 60 20
internal_value=0 -0.0506173 -0.0631237 -0.0704546 -0.043662 -0.0230769 -0.0495799 -0.069697 -0.0955947
internal_weight=0 486 461 440 213 156 119 99 227
internal_count=506 486 461 440 213 156 119 99 227
shrinkage=0.1


Tree=15
num_leaves=11
num_cat=0
split_feature=10 6 6 4 6 10 0 0 4 0
split_gain=4.81424 1.40171 0.500201 0.4166 0.596771 0.198932 0.34012 0.187546 0.0457082 0.0267442
threshold=7.6655000000000006 4.620000000000001 9.7250000000000032 4.4281000000000006 6.5650000000000004 6.5915000000000008 40.350000000000001 89.700000000000003 5.408500000000001 21.250000000000004
decision_type=10 8 10 8 10 8 10 8 10 10
left_child=1 -1 3 4 7 -5 9 -3 -4 -7
right_child=-2 2 8 5 -6 6 -8 -9 -10 -11
leaf_value=0.41052932844758561 0.3108955780464257 0.18280884685063725 -0.36745719423389034 -0.26520216930674478 0.029679326677980303 -0.041606363949528491 0.030346379674363846 -0.3031048000478655 -0.29313683227699583 -0.0048665578130445263
leaf_weight=25 20 21 213 73 29 23 23 39 20 20
leaf_count=25 20 21 213 73 29 23 23 39 20 20
internal_value=0 -0.0506173 -0.0631237 -0.0298246 0.0235955 -0.0640288 -0.0242424 -0.0333334 -0.0957082 -0.0767442
internal_weight=0 486 461 228 89 139 66 60 233 43
internal_count=506 486 461 228 89 139 66 60 233 43
shrinkage=0.1


Tree=16
num_leaves=11
num_cat=0
split_feature=10 6 6 6 12 6 11 1 10 4
split_gain=4.81424 1.40171 0.377111 0.359604 0.487345 0.124968 0.0624889 0.0974529 0.0542612 0.128571
threshold=7.6655000000000006 4.620000000000001 9.7250000000000032 9.1900000000000031 92.500000000000014 7.1300000000000008 453.00000000000006 375.27000000000004 6.8295000000000003 5.4334000000000007
decision_type=10 8 10 10 8 10 8 10 8 8
left_child=1 -1 3 4 5 6 -3 -8 -4 -10
right_child=-2 2 8 -5 -6 -7 7 -9 9 -11
leaf_value=0.36947639560282686 0.27980602024178297 -0.10725613218186339 -0.31098123880915551 0.062789610570357327 0.012538046609196656 -0.0098928083360572822 -0.23876565861329535 0.077166122248588043 -0.37400351390448033 0.00031561210241699432
leaf_weight=25 20 88 177 21 39 37 22 21 36 20
leaf_count=25 20 88 177 21 39 37 22 21 36 20
internal_value=0 -0.0506173 -0.0631237 -0.0342106 -0.0468599 -0.0702381 -0.0847328 -0.0534884 -0.0914163 -0.0642857
internal_weight=0 486 461 228 207 168 131 43 233 56
internal_count=506 486 461 228 207 168 131 43 233 56
shrinkage=0.1


Tree=17
num_leaves=11
num_cat=1
split_feature=10 2 10 6 5 6 4 4 10 5
split_gain=4.77474 1.05891 0.470574 0.52026 0.283114 0.275269 0.137256 0.153526 0.272727 0.362069
threshold=7.6655000000000006 0 6.6170000000000009 3.2400000000000007 2.9100000000000006 6.6650000000000009 1.5136000000000001 3.9312500000000004 6.3440000000000003 6.1450000000000005
decision_type=10 9 10 10 8 10 8 10 8 8
left_child=1 -1 4 -4 -3 -5 -6 -8 -9 -10
right_child=-2 2 3 5 6 -7 7 8 9 -11
leaf_value=0.29000308619663268 0.2518254182176044 0.013290868797217551 0.078466135538692403 -0.052649838937256249 0.45319771782992779 0.00050652733649488317 -0.27654145035839972 -0.35489401238737944 -0.078455326926400171 0.12338743871684071
leaf_weight=23 20 22 20 32 20 30 229 60 21 29
leaf_count=23 20 22 20 32 20 30 229 60 21 29
internal_value=0 -0.0485597 -0.0589633 0.00975607 -0.0737533 -0.0354839 -0.0805014 -0.0852508 -0.0545455 -2.38419e-08
internal_weight=0 486 463 82 381 62 359 339 110 50
internal_count=506 486 463 82 381 62 359 339 110 50
cat_boundaries=0 1
cat_threshold=2
shrinkage=0.1


Tree=18
num_leaves=10
num_cat=0
split_feature=10 4 12 10 4 8 5 8 3
split_gain=4.85389 0.798773 0.506572 0.328674 0.643809 0.271304 0.1244 0.289 0.149818
threshold=7.6655000000000006 1.4471000000000003 77.500000000000014 6.4780000000000006 1.5266000000000004 17.700000000000006 8.0050000000000026 14.750000000000002 1.0000000180025095e-35
decision_type=10 8 10 10 10 8 10 10 10
left_child=1 -1 3 6 -5 -6 7 -3 -9
right_child=-2 2 -4 4 5 -7 -8 8 -10
leaf_value=0.44082628854580963 0.22664287639584374 0.04198608909636279 0.26166557210430241 0.024058540794832536 0.0051615056628298416 -0.0548683747115042 -0.30363694907858374 -0.011576730251591222 -0.24476920685937409
leaf_weight=21 20 33 21 21 23 52 190 22 103
leaf_count=21 20 33 21 21 23 52 190 22 103
internal_value=0 -0.0526749 -0.0612903 -0.0684685 -0.0166667 -0.06 -0.0827586 -0.0620253 -0.084
internal_weight=0 486 465 444 96 75 348 158 125
internal_count=506 486 465 444 96 75 348 158 125
shrinkage=0.1


Tree=19
num_leaves=11
num_cat=0
split_feature=10 6 11 6 3 10 3 3 4 0
split_gain=4.85389 1.17073 0.486781 0.282662 0.462682 0.172892 0.248062 0.566121 0.0455357 0.0291667
threshold=7.6655000000000006 4.5750000000000002 223.50000000000003 9.8700000000000028 2.7990600000000003 6.3650000000000011 0.06653000000000002 0.081930000000000017 5.408500000000001 67.950000000000003
decision_type=10 8 8 10 10 8 8 10 10 8
left_child=1 -1 -3 4 5 -4 -7 -8 -5 -9
right_child=-2 2 3 8 -6 6 7 9 -10 -11
leaf_value=0.31188013223101141 0.20397858875625943 0.013463437546630347 -0.25972969540730212 -0.25637232181327746 0.36379580666825451 -0.051511547434852527 0.016004945200933048 -0.0040545668828834338 -0.17275873416428963 -0.019609742439226922
leaf_weight=22 20 22 69 204 20 43 38 20 20 28
leaf_count=22 20 22 69 204 20 43 38 20 20 28
internal_value=0 -0.0526749 -0.0633621 -0.0705883 -0.0449542 -0.059596 -0.0379845 -0.00697677 -0.0955357 -0.0791667
internal_weight=0 486 464 442 218 198 129 86 224 48
internal_count=506 486 464 442 218 198 129 86 224 48
shrinkage=0.1


Tree=20
num_leaves=11
num_cat=0
split_feature=10 4 11 10 3 4 4 8 3 0
split_gain=4.85389 0.798773 0.696156 0.367003 0.293689 0.401186 0.111952 0.3025 0.0375 0.0277778
threshold=7.6655000000000006 1.4471000000000003 228.50000000000003 6.4780000000000006 0.06653000000000002 3.7358000000000002 3.9312500000000004 14.750000000000002 0.028740000000000005 34.300000000000004
decision_type=10 8 8 10 10 8 10 10 10 10
left_child=1 -1 -3 6 9 -6 -4 -8 -9 -5
right_child=-2 2 3 4 5 -7 7 8 -10 -11
leaf_value=0.36036407902440315 0.1835807298806337 0.018796420945073888 -0.22442447949434097 -0.030928530223191433 -0.023689430923288107 0.027342502180078443 0.11755125733573774 -0.017279076804643821 -0.21127018369814499 -0.08719582580785401
leaf_weight=21 20 34 233 25 25 28 20 20 60 20
leaf_count=21 20 34 233 25 25 28 20 20 60 20
internal_value=0 -0.0526749 -0.0612903 -0.0721578 -0.0183674 0.0320754 -0.087988 -0.06 -0.0875 -0.0777778
internal_weight=0 486 465 431 98 53 333 100 80 45
internal_count=506 486 465 431 98 53 333 100 80 45
shrinkage=0.1


Tree=21
num_leaves=12
num_cat=0
split_feature=10 4 10 9 4 4 1 0 11 6 4
split_gain=3.82968 0.747917 0.644325 0.492941 0.441675 0.574359 0.839223 0.678981 0.495238 0.144981 0.27
threshold=7.6655000000000006 1.4471000000000003 6.4780000000000006 5.5000000000000009 2.7187000000000006 4.4281000000000006 394.78500000000003 85.300000000000026 223.50000000000003 9.8700000000000028 4.8375000000000012
decision_type=10 8 8 10 8 10 10 8 10 8 8
left_child=1 -1 9 4 -4 6 7 -6 -7 10 -3
right_child=-2 2 3 -5 5 8 -8 -9 -10 -11 -12
leaf_value=0.32432767112196315 0.16522265689257054 0.012525281010316705 -0.1661938617902213 -0.20918149653938337 0.074190382976552061 0.21187247911790871 -0.046470252676751291 0.018890418218502084 -0.063076353020609197 -0.20255676618673391 -0.18684711199273155
leaf_weight=21 20 20 28 50 26 21 23 21 39 207 30
leaf_count=21 20 20 28 50 26 21 23 21 39 207 30
internal_value=0 -0.0465021 -0.0548387 -0.0134616 0.013924 0.0384615 0.1 0.176596 -0.0333334 -0.0883269 -0.04
internal_weight=0 486 465 208 158 130 70 47 60 257 50
internal_count=506 486 465 208 158 130 70 47 60 257 50
shrinkage=0.1


Tree=22
num_leaves=12
num_cat=0
split_feature=10 4 10 9 3 6 9 11 1 0 1
split_gain=3.97217 0.462794 0.33837 0.379703 0.41624 0.875886 0.18095 0.430233 0.333333 0.102439 0.0363014
threshold=7.6655000000000006 1.4471000000000003 6.0940000000000012 5.5000000000000009 1.4194350000000002 11.160000000000002 2.5000000000000004 279.50000000000006 392.76000000000005 84.450000000000017 389.14000000000004
decision_type=10 8 8 10 8 8 10 10 10 10 8
left_child=1 -1 -3 4 6 -6 10 8 -8 -7 -4
right_child=-2 2 3 -5 5 9 7 -9 -10 -11 -12
leaf_value=0.29189490400976681 0.14870039120331313 -0.19984728843998179 -0.035242263029115921 -0.2120631550657589 0.17843187296125984 0.018841664606767613 -0.0025812353013721341 -0.018526818968348614 0.078041100815711306 -0.24124710540565789 -0.12718757958563554
leaf_weight=21 20 152 20 84 29 20 28 37 21 21 53
leaf_count=21 20 152 20 84 29 20 28 37 21 21 53
internal_value=0 -0.0547325 -0.0612903 -0.042492 -0.0213974 0.0428571 -0.0496856 -0.0186047 0.0428571 -0.0512195 -0.0863014
internal_weight=0 486 465 313 229 70 159 86 49 41 73
internal_count=506 486 465 313 229 70 159 86 49 41 73
shrinkage=0.1


Tree=23
num_leaves=9
num_cat=0
split_feature=10 4 6 0 4 11 10 4
split_gain=4.11726 0.516743 0.300405 0.179859 0.370156 0.298077 0.0812976 0.0460938
threshold=7.6655000000000006 1.4471000000000003 4.5750000000000002 71.65000000000002 4.2040000000000015 195.50000000000003 6.6325000000000012 5.7265000000000006
decision_type=10 8 8 8 8 10 10 10
left_child=1 -1 -3 4 -4 -6 7 -5
right_child=-2 2 3 6 5 -7 -8 -9
leaf_value=0.26270541360879024 0.13383035208298183 0.18462833811528925 0.018033411597200528 -0.17196598087673554 0.012060875236082758 -0.028614757997154485 -0.0057299527806562826 -0.19367120565388668
leaf_weight=21 20 20 35 236 24 93 37 20
leaf_count=21 20 20 35 236 24 93 37 20
internal_value=0 -0.062963 -0.0698925 -0.0752809 -0.0473684 -0.074359 -0.0897611 -0.0960938
internal_weight=0 486 465 445 152 117 293 256
internal_count=506 486 465 445 152 117 293 256
shrinkage=0.1


Tree=24
num_leaves=12
num_cat=0
split_feature=10 4 8 11 5 0 9 11 7 10 0
split_gain=3.97217 0.462794 0.296412 0.383562 0.304959 0.498058 0.389979 0.284582 0.438312 0.180198 0.025
threshold=7.6655000000000006 1.4471000000000003 18.650000000000002 228.50000000000003 6.1450000000000005 96.15000000000002 2.5000000000000004 387.50000000000006 0.54100000000000004 6.6170000000000009 58.750000000000007
decision_type=10 8 10 8 8 8 10 8 10 10 10
left_child=1 -1 3 -3 -5 6 -6 10 -9 -4 -8
right_child=-2 2 9 4 5 -7 7 8 -10 -11 -12
leaf_value=0.23643487224791102 0.12044731687468371 0.15069665135841465 -0.2470961132441746 -0.023725868978667408 0.12712674055281722 -0.062757575641923968 -0.0022917015318585036 0.096171889279162384 -0.09188678094810826 0.0099207906757915743 -0.14043636894464717
leaf_weight=21 20 21 182 82 21 57 20 20 22 20 20
leaf_count=21 20 21 182 82 21 57 20 20 22 20 20
internal_value=0 -0.0547325 -0.0612903 -0.0391635 -0.0504132 -0.025 0.0165048 -0.0146342 0.0428571 -0.090099 -0.075
internal_weight=0 486 465 263 242 160 103 82 42 202 40
internal_count=506 486 465 263 242 160 103 82 42 202 40
shrinkage=0.1


Tree=25
num_leaves=11
num_cat=0
split_feature=10 0 4 4 1 0 3 8 6 4
split_gain=3.32554 0.441223 0.544282 0.313542 0.102439 0.101819 0.371311 0.262083 0.0535617 0.132203
threshold=7.4795000000000007 33.400000000000006 4.4281000000000006 1.4471000000000003 393.71000000000009 76.600000000000009 0.2660050000000001 19.050000000000004 19.080000000000002 4.0054500000000006
decision_type=10 8 10 8 8 8 8 10 10 8
left_child=1 2 -1 -3 -4 6 -5 -8 -7 -10
right_child=-2 3 4 5 -6 8 7 -9 9 -11
leaf_value=0.030564832462261871 0.10840258518721556 0.21279138502311978 -0.16984144118529004 -0.073765281594231222 0.0089287102070883025 -0.084692630381489345 0.12884757893504925 -0.14104747919652824 -0.67489737439369246 0.016538192534507022
leaf_weight=20 24 21 21 76 20 222 20 23 39 20
leaf_count=20 24 21 21 76 20 222 20 23 39 20
internal_value=0 -0.0647303 0.0147541 -0.0762471 -0.0512195 -0.0825 -0.0579832 0.016279 -0.0928826 -0.0661017
internal_weight=0 482 61 421 41 400 119 43 281 59
internal_count=506 482 61 421 41 400 119 43 281 59
shrinkage=0.1


Tree=26
num_leaves=13
num_cat=0
split_feature=10 5 10 8 5 7 8 5 10 6 4 0
split_gain=3.0424 0.487528 0.309904 0.322344 0.214566 0.592885 0.135862 0.212287 0.165631 0.136508 0.0452381 0.0327586
threshold=7.4795000000000007 2.9100000000000006 6.3180000000000005 17.500000000000004 16.570000000000004 0.63900000000000012 14.850000000000003 9.9550000000000018 5.4205000000000014 13.31 6.4889000000000001 43.100000000000001
decision_type=10 8 10 8 8 8 10 8 8 8 10 8
left_child=1 -1 6 -4 11 -6 7 -3 -8 -9 -10 -5
right_child=-2 2 3 4 5 -7 8 9 10 -11 -12 -13
leaf_value=0.0038567482439926639 0.09756232666849414 0.084900886160271985 0.0037722213644080758 -0.0051190135932079172 0.026083474233280488 -0.40452226582345824 0.00056984043420244663 0.0051802470511791545 -0.16236646409626876 -0.1885280742985585 -0.10308642201259791 -0.046774508859227786
leaf_weight=37 24 20 28 20 22 24 20 20 190 43 20 38
leaf_count=37 24 20 28 20 22 24 20 20 190 43 20 38
internal_value=0 -0.0481328 -0.0573034 -0.0166667 -0.0423077 0.00869563 -0.0744409 -0.0397591 -0.0869565 -0.068254 -0.0952381 -0.0827586
internal_weight=0 482 445 132 104 46 313 83 230 63 210 58
internal_count=506 482 445 132 104 46 313 83 230 63 210 58
shrinkage=0.1


Tree=27
num_leaves=13
num_cat=0
split_feature=10 11 1 6 4 6 0 11 0 11 10 8
split_gain=2.87183 0.50654 0.24911 0.416099 1.13775 0.598961 0.323377 0.144643 0.0980406 0.154873 0.283137 0.133333
threshold=7.4795000000000007 228.50000000000003 394.78500000000003 11.670000000000002 4.2040000000000015 6.6650000000000009 27.800000000000001 279.50000000000006 96.15000000000002 306.00000000000006 6.3180000000000005 16.950000000000003
decision_type=10 8 8 10 8 10 10 10 8 8 10 10
left_child=1 -1 3 4 5 -3 -5 -6 9 -4 11 -11
right_child=-2 2 8 6 7 -7 -8 -9 -10 10 -12 -13
leaf_value=0.0048231842199664724 0.087806094001644658 0.10747270737143864 -0.030625177460022912 0.0099236251783713734 0.0021669987537212424 0.019474178951690891 -0.26508414110695872 -0.21392985863864125 -0.13390652206185324 0.0040992251121069511 0.0059367724673393034 -0.12304076889269738
leaf_weight=33 24 30 49 22 35 23 83 45 77 20 25 40
leaf_count=33 24 30 49 22 35 23 83 45 77 20 25 40
internal_value=0 -0.0377594 -0.0465479 -0.0243698 0.0127819 0.126415 -0.0714286 -0.0625 -0.071564 -0.0552239 -0.0294118 -0.0666667
internal_weight=0 482 449 238 133 53 105 80 211 134 85 60
internal_count=506 482 449 238 133 53 105 80 211 134 85 60
shrinkage=0.1


Tree=28
num_leaves=13
num_cat=0
split_feature=10 8 6 3 1 10 12 6 9 4 1 10
split_gain=2.90555 0.495873 0.616346 1.21248 0.548571 0.308524 0.273255 0.13136 0.11918 0.0597919 0.104762 0.0343503
threshold=7.4795000000000007 17.850000000000005 11.670000000000002 0.53556000000000015 393.99500000000006 6.7265000000000006 inf 18.695000000000004 3.5000000000000004 1.3387000000000002 394.17500000000007 6.4335000000000013
decision_type=10 10 8 8 8 10 8 10 8 10 8 10
left_child=1 2 3 4 -1 8 7 -4 -3 10 -10 -11
right_child=-2 5 6 -5 -6 -7 -8 -9 9 11 -12 -13
leaf_value=0.011194618909915976 0.0790254846014804 -0.021006515619447316 -0.035302629729643202 0.0086793488009872938 -0.039818673376998272 0.011283947885719854 0.0036893283228381837 -0.12839664429354108 0.014090296232701595 -0.13714372856371956 -0.096903993343500555 -0.10653786986640523
leaf_weight=35 24 22 71 32 40 20 20 23 20 152 22 25
leaf_count=35 24 22 71 32 40 20 20 23 20 152 22 25
internal_value=0 -0.039834 -0.0049774 0.0495327 -0.02 -0.0693487 -0.0561404 -0.0787234 -0.0792531 -0.0863014 -0.052381 -0.0943503
internal_weight=0 482 221 107 75 261 114 94 241 219 42 177
internal_count=506 482 221 107 75 261 114 94 241 219 42 177
shrinkage=0.1


Tree=29
num_leaves=13
num_cat=0
split_feature=10 0 7 8 12 6 3 6 10 10 4 0
split_gain=2.87183 0.722243 1.37231 0.298039 0.508564 0.625 0.347894 0.894548 0.19145 0.113366 0.0440476 0.0261905
threshold=7.4795000000000007 33.400000000000006 0.48850000000000005 18.650000000000002 92.500000000000014 7.9750000000000014 2.1987050000000004 11.160000000000002 6.4335000000000013 4.9715000000000007 1.6182000000000001 87.500000000000014
decision_type=10 8 8 10 8 10 8 8 10 10 8 10
left_child=1 2 -1 4 6 -6 9 -8 10 -3 -5 -9
right_child=-2 3 -4 8 5 -7 7 11 -10 -11 -12 -13
leaf_value=-0.0056741330030545753 0.07112293614133236 -0.040506534697144603 0.020869679291697651 -0.0011572189183934585 0.0087646252918194521 -0.10625727571073072 0.1449912995444346 -0.10790176872975975 0.0055813496967293263 -0.034472673065087861 -0.21059169695194715 -0.38602082682028699
leaf_weight=39 24 27 22 20 20 20 22 20 34 88 148 22
leaf_count=39 24 27 22 20 20 20 22 20 34 88 148 22
internal_value=0 -0.0377594 0.0639344 -0.0524941 -0.0269407 0.075 -0.0497207 0.00937498 -0.080198 -0.0826087 -0.0940476 -0.0761905
internal_weight=0 482 61 421 219 40 179 64 202 115 168 42
internal_count=506 482 61 421 219 40 179 64 202 115 168 42
shrinkage=0.1


Tree=30
num_leaves=11
num_cat=0
split_feature=10 0 7 10 10 0 7 6 1 0
split_gain=3.00789 0.61184 1.00197 0.36802 0.646504 0.400346 0.189332 0.371401 0.0845878 0.0366667
threshold=7.4795000000000007 33.400000000000006 0.48850000000000005 6.8295000000000003 7.0325000000000015 71.65000000000002 0.5485000000000001 14.4 375.27000000000004 95.100000000000009
decision_type=10 8 8 8 8 8 10 8 10 10
left_child=1 2 -1 6 -5 -6 -3 -8 -9 -7
right_child=-2 3 -4 4 5 9 7 8 -10 -11
leaf_value=-0.0051067197027491011 0.064010642527199485 -0.061227278267977893 0.018782711362528046 0.0095974189002484139 0.0070606650888473885 -0.080156167203572506 0.020611839834508927 -0.40826100021961609 -0.17582791932719999 -0.014993932722856746
leaf_weight=39 24 176 22 20 35 55 25 59 31 20
leaf_count=39 24 176 22 20 35 55 25 59 31 20
internal_value=0 -0.0460581 0.047541 -0.05962 -0.0153846 -0.0454546 -0.0793815 -0.0478261 -0.0777778 -0.0866667
internal_weight=0 482 61 421 130 110 291 115 90 75
internal_count=506 482 61 421 130 110 291 115 90 75
shrinkage=0.1


Tree=31
num_leaves=12
num_cat=0
split_feature=10 12 4 10 1 12 9 0 4 0 7
split_gain=2.97358 0.432574 0.435477 0.259603 0.388013 0.391147 0.399074 0.264864 0.156272 0.0378049 0.0280702
threshold=7.4795000000000007 77.500000000000014 1.4471000000000003 6.3650000000000011 393.99500000000006 77.500000000000014 1.0000000180025095e-35 43.100000000000001 2.8954500000000007 79.450000000000017 0.69650000000000001
decision_type=10 10 8 8 10 8 10 8 10 10 10
left_child=1 2 -1 7 5 6 -5 -4 -8 -6 -9
right_child=-2 -3 3 4 9 -7 8 10 -10 -11 -12
leaf_value=0.17415645686771844 0.057609578274479392 0.1445017485569304 0.0088821638484485634 0.0074726201454229707 -0.030946986807501461 0.0069284209680719206 -0.096918075255952529 -0.087898799997866039 0.010388415019888545 -0.0027822010533631184 -0.11859400498205641
leaf_weight=21 24 20 27 29 62 30 49 160 34 20 30
leaf_count=21 24 20 27 29 62 30 49 160 34 20 30
internal_value=0 -0.0439834 -0.0502165 -0.0569161 -0.0330357 -0.00140847 -0.0285715 -0.0815668 -0.0638554 -0.0878049 -0.0947369
internal_weight=0 482 462 441 224 142 112 217 83 82 190
internal_count=506 482 462 441 224 142 112 217 83 82 190
shrinkage=0.1


Tree=32
num_leaves=15
num_cat=0
split_feature=10 10 4 8 0 4 6 10 10 6 1 4 0 10
split_gain=2.77445 0.616038 1.03017 0.400739 0.38736 1.63487 0.3093 0.301532 0.678788 0.247337 0.230488 0.12803 0.0373418 0.0354167
threshold=7.6655000000000006 6.7815000000000012 1.3387000000000002 18.650000000000002 71.65000000000002 4.4281000000000006 8.0750000000000011 6.0390000000000015 6.3295000000000003 3.5500000000000003 391.18000000000006 2.0467000000000009 95.65000000000002 6.4335000000000013
decision_type=10 10 10 10 8 8 8 10 10 10 10 10 10 10
left_child=1 3 -3 4 5 -1 -7 12 -9 11 -4 -5 -6 -11
right_child=-2 2 10 9 7 6 -8 8 -10 13 -12 -13 -14 -15
leaf_value=0.016245818937294178 0.051848620447031382 0.070188126793526914 -0.0050805114482878402 0.022369007489252343 -0.09383939492824217 0.1334887297390083 -0.18636319725640568 0.022268570668519408 -0.022439239788362625 -0.14815075519975082 0.0010062442336036387 -0.062968450944052401 -0.21858319321780387 -0.074146536128554846
leaf_weight=21 20 20 21 20 59 29 37 27 28 136 20 24 20 24
leaf_count=21 20 20 21 20 59 29 37 27 28 136 20 24 20 24
internal_value=0 -0.0300412 0.0639344 -0.0435294 -0.0140272 0.037931 -0.039394 -0.0477612 0.00909089 -0.0754902 -0.0268293 -0.00909093 -0.0873418 -0.09375
internal_weight=0 486 61 425 221 87 66 134 55 204 41 44 79 160
internal_count=506 486 61 425 221 87 66 134 55 204 41 44 79 160
shrinkage=0.1


Tree=33
num_leaves=14
num_cat=0
split_feature=10 11 5 1 4 4 7 1 6 10 0 7 1
split_gain=2.80498 0.438361 0.921135 0.449498 0.428525 0.240396 0.264843 0.49 0.176263 0.235255 0.134444 0.0536842 0.12
threshold=7.4795000000000007 279.50000000000006 2.9100000000000006 392.79000000000002 1.4471000000000003 2.1676500000000005 0.75500000000000012 391.26000000000005 13.445000000000002 6.7265000000000006 46.95000000000001 0.6070000000000001 374.62000000000006
decision_type=10 8 10 8 8 10 8 8 10 8 10 8 10
left_child=1 2 -1 -4 -3 11 8 -8 9 -7 -11 12 -6
right_child=-2 4 3 -5 5 6 7 -9 -10 10 -12 -13 -14
leaf_value=0.025354243660049514 0.04666375840232817 0.15451294974205546 0.0017367266288848761 -0.014513732709998764 0.00087160170440101338 -0.094723694146593262 0.035426711686986939 -0.063617428337611803 0.016038140989203233 -0.018078402963429937 0.004971325644966669 -0.26512287185046074 -0.028298006762109518
leaf_weight=29 24 21 23 42 20 88 20 25 37 25 20 102 30
leaf_count=29 24 21 23 42 20 88 20 25 37 25 20 102 30
internal_value=0 -0.03361 0.0276596 -0.0384616 -0.0484536 -0.0564033 -0.0348837 0.0333333 -0.0529412 -0.0699248 -0.0111111 -0.0868421 -0.06
internal_weight=0 482 94 65 388 367 215 45 170 133 45 152 50
internal_count=506 482 94 65 388 367 215 45 170 133 45 152 50
shrinkage=0.1


Tree=34
num_leaves=13
num_cat=0
split_feature=10 6 3 1 4 0 10 5 4 11 4 0
split_gain=2.71469 0.488924 2.0788 0.347183 0.434152 0.297841 0.172891 0.230404 0.159964 0.155263 0.107375 0.0266083
threshold=7.6655000000000006 11.670000000000002 0.53556000000000015 393.99500000000006 4.4802500000000007 43.100000000000001 6.394000000000001 8.0050000000000026 1.5136000000000001 264.50000000000006 2.0685500000000006 45.050000000000004
decision_type=10 8 10 8 10 8 10 8 8 10 10 10
left_child=1 2 3 4 -1 -3 7 -7 -9 -5 -8 -10
right_child=-2 5 -4 9 -6 6 10 8 11 -11 -12 -13
leaf_value=0.0072710649908851975 0.04199738256209571 0.0032234858773102573 0.083007705497354867 -0.00067797404795139668 -0.066587136639153124 0.040485529083771649 -0.01155079705875442 0.0046805325904968704 -0.076866532328932313 -0.026932402961424941 0.029988370253135183 -0.17149665310360615
leaf_weight=34 20 27 27 36 39 26 21 20 31 59 20 146
leaf_count=34 20 27 27 36 39 26 21 20 31 59 20 146
internal_value=0 -0.0259259 0.0128205 -0.0285715 0.0232876 -0.0518901 -0.0621212 -0.0730942 -0.0847716 -0.0684211 -0.00243905 -0.0943503
internal_weight=0 486 195 168 73 291 264 223 197 95 41 177
internal_count=506 486 195 168 73 291 264 223 197 95 41 177
shrinkage=0.1


Tree=35
num_leaves=15
num_cat=0
split_feature=10 6 0 4 0 4 1 11 6 11 9 10 3 6
split_gain=2.71469 0.417932 0.385848 0.532766 1.11776 0.592469 0.493121 0.299555 0.165731 0.286186 0.298765 0.111111 0.040566 0.0371795
threshold=7.6655000000000006 4.620000000000001 59.550000000000004 4.4281000000000006 43.100000000000001 3.0992500000000005 379.39500000000004 431.00000000000006 14.4 274.50000000000006 16.000000000000004 6.0075000000000012 0.36907000000000006 9.1900000000000031
decision_type=10 8 10 10 8 10 8 8 10 10 8 10 8 10
left_child=1 -1 3 4 -3 6 -6 13 9 -4 11 -11 -10 -5
right_child=-2 2 8 7 5 -7 -8 -9 12 10 -12 -13 -14 -15
leaf_value=0.16152645719725386 0.03779764430588628 0.0056366963707257141 -0.10180346406453673 -0.071837839026369602 0.058909424973665026 0.0083326048361982239 -0.047691235534105023 0.019882746332455403 -0.012468502408571003 -0.1037490065933377 0.017466608680366032 0.00029697133745868728 -0.33883677315687888 -0.049282564345140445
leaf_weight=25 20 24 46 58 23 27 56 20 20 25 36 20 86 20
leaf_count=25 20 24 46 58 23 27 56 20 20 25 36 20 86 20
internal_value=0 -0.0259259 -0.0327549 -0.0035088 0.0384615 -0.0056604 -0.0493671 -0.0591837 -0.0613734 -0.0370079 -0.00123459 -0.0555556 -0.0905661 -0.0871795
internal_weight=0 486 461 228 130 106 79 98 233 127 81 45 106 78
internal_count=506 486 461 228 130 106 79 98 233 127 81 45 106 78
shrinkage=0.1


Tree=36
num_leaves=15
num_cat=0
split_feature=10 6 3 4 11 0 0 9 10 4 6 10 0 8
split_gain=2.59712 0.706944 0.714735 1.29205 0.886303 1.2936 0.2625 0.217291 0.443237 0.143257 0.128571 0.0960365 0.0395833 0.03698
threshold=7.6655000000000006 14.4 1.1723300000000003 1.7548000000000001 279.50000000000006 56.600000000000009 90.15000000000002 4.5000000000000009 6.410000000000001 3.5712000000000006 10.610000000000001 5.0275000000000007 6.3500000000000005 13.300000000000002
decision_type=10 10 10 10 8 8 8 10 10 10 10 10 10 10
left_child=1 2 4 -4 5 -1 -7 11 10 13 -9 -6 -13 -3
right_child=-2 9 3 -5 7 6 -8 8 -10 -11 -12 12 -14 -15
leaf_value=0.011801954731225729 0.034017879875297301 -0.10332866073101599 0.12650998932316979 -0.0072633088298188963 0.038772708908022861 -0.064955045456172963 0.0027779528442088389 -0.074559095304134501 0.0052124222350531345 0.0023281859171116383 0.0059810283850610354 -0.012657896080067564 -0.058550838494906277 -0.30495309584119112
leaf_weight=39 20 22 23 28 25 28 20 36 33 20 20 20 76 96
leaf_count=39 20 22 23 28 25 28 20 36 33 20 20 20 76 96
internal_value=0 -0.0176955 0.00632182 0.115686 -0.0124579 0.0724138 -0.0375 -0.0476191 -0.0101124 -0.0782609 -0.0642857 -0.0752066 -0.0895834 -0.0915254
internal_weight=0 486 348 51 297 87 48 210 89 138 56 121 96 118
internal_count=506 486 348 51 297 87 48 210 89 138 56 121 96 118
shrinkage=0.1


Tree=37
num_leaves=16
num_cat=0
split_feature=10 11 5 10 0 5 10 4 6 8 1 11 6 1 0
split_gain=2.65558 0.728967 1.17188 0.394536 0.364556 0.685899 0.864626 0.299074 0.655626 0.133586 0.225 0.0518519 0.107744 0.03 0.0267442
threshold=7.6655000000000006 279.50000000000006 3.2850000000000006 6.6325000000000012 18.650000000000002 6.0650000000000004 6.0075000000000012 9.2216000000000005 11.360000000000001 1.0000000180025095e-35 368.40500000000003 453.00000000000006 14.4 393.36500000000007 61.250000000000007
decision_type=10 8 10 10 10 10 10 8 8 10 10 10 10 10 8
left_child=1 2 -1 14 5 13 -7 9 -9 10 -6 -11 -13 -3 -4
right_child=-2 4 3 -5 7 6 -8 8 -10 11 -12 12 -14 -15 -16
leaf_value=0.013587571481934327 0.030616091887767285 -0.15350055983959127 -0.00028254349655109029 0.0035275484304479058 -0.2613166979622118 -0.088600068324923037 0.046413854868748848 0.021398544659583543 -0.046355102012193325 -0.10947161320216137 0.079241434495177579 0.019121368950990734 -0.44800026010499927 -0.019365510375325516 -0.09499865098154836
leaf_weight=32 20 30 20 21 20 26 36 20 38 126 20 22 32 20 23
leaf_count=32 20 30 20 21 20 26 36 20 38 126 20 22 32 20 23
internal_value=0 -0.0218107 0.05625 -0.021875 -0.0410257 0.00714283 0.0774193 -0.0604317 0.00344825 -0.0772728 -0.025 -0.0888889 -0.062963 -0.08 -0.0767442
internal_weight=0 486 96 64 390 112 62 278 58 220 40 180 54 50 43
internal_count=506 486 96 64 390 112 62 278 58 220 40 180 54 50 43
shrinkage=0.1


Tree=38
num_leaves=15
num_cat=0
split_feature=10 10 6 0 8 1 1 4 8 10 4 11 0 4
split_gain=2.74449 0.818325 0.856637 0.409756 0.400739 0.368668 0.662905 1.04585 0.28173 0.18596 0.313498 0.13834 0.113043 0.0433775
threshold=7.6655000000000006 6.7815000000000012 3.7850000000000006 81.90000000000002 18.650000000000002 393.24500000000006 376.74000000000007 4.4281000000000006 16.700000000000006 6.230500000000001 2.5016000000000003 223.50000000000003 37.000000000000007 1.6528500000000002
decision_type=10 10 10 8 10 8 10 8 8 10 10 10 10 8
left_child=1 4 -3 -4 5 6 12 -8 -7 13 -11 -10 -1 -6
right_child=-2 2 3 -5 9 8 7 -9 11 10 -12 -13 -14 -15
leaf_value=0.010955363587106748 0.02755448269899077 0.019258693362761904 -0.075314207676147105 0.0067204861126140608 -0.012097062210411291 0.0057041016125545622 0.065493190247822811 0.010149501743923896 -0.030753380834647348 -0.15970773583270348 0.014047600361476368 -0.03943744333067753 -0.17984678506410778 -0.15153400973268941
leaf_weight=20 20 20 21 20 20 30 21 32 22 27 26 70 26 131
leaf_count=20 20 20 21 20 20 30 21 32 22 27 26 70 26 131
internal_value=0 -0.0279836 0.0803278 -0.00243905 -0.0435294 -0.0140272 0.0313131 0.107547 -0.0508197 -0.0754902 -0.0245283 -0.0782609 -0.0565218 -0.0933775
internal_weight=0 486 61 41 425 221 99 53 122 204 53 92 46 151
internal_count=506 486 61 41 425 221 99 53 122 204 53 92 46 151
shrinkage=0.1


Tree=39
num_leaves=15
num_cat=0
split_feature=10 0 11 6 3 6 4 6 1 1 3 1 3 8
split_gain=2.62627 0.732037 1.3698 0.437247 0.819274 1.06402 0.640906 0.596634 0.135317 0.312282 0.137143 0.1 0.0410714 0.0396907
threshold=7.6655000000000006 35.300000000000004 279.50000000000006 14.795000000000002 0.54729500000000009 11.160000000000002 2.8001000000000005 12.415000000000001 372.86000000000007 390.09000000000009 0.22082500000000002 376.35500000000008 12.099150000000002 16.700000000000006
decision_type=10 8 10 8 8 10 10 10 10 10 8 10 10 8
left_child=1 2 -1 4 7 6 -6 13 12 -10 -11 -7 -5 -3
right_child=-2 3 -4 8 5 11 -8 -9 9 10 -12 -13 -14 -15
leaf_value=0.013250434410962318 0.024799034429091905 -0.0012779010188472975 -0.01142775338434722 -0.26986601865024534 0.080669702770629959 0.0099616042604262489 0.0045679878859572762 0.0057548471118501893 0.064872085772838775 0.0082658637252402221 -0.25191966611670058 -0.034120072614767995 -0.16275646452080847 -0.047135212539943079
leaf_weight=35 20 20 33 92 23 20 25 20 26 21 54 20 20 77
leaf_count=35 20 20 33 92 23 20 25 20 26 21 54 20 20 77
internal_value=0 -0.0197531 0.0764706 -0.0354067 -0.00243905 0.0704545 0.170833 -0.057265 -0.0671362 -0.0405941 -0.0733334 -0.05 -0.0910715 -0.0896907
internal_weight=0 486 68 418 205 88 48 117 213 101 75 40 112 97
internal_count=506 486 68 418 205 88 48 117 213 101 75 40 112 97
shrinkage=0.1


Tree=40
num_leaves=14
num_cat=0
split_feature=10 0 11 4 0 11 6 10 1 1 8 5 1
split_gain=2.71469 0.421146 0.874 0.363823 0.24694 0.449767 0.579449 0.325926 0.150577 0.171864 0.257944 0.149239 0.0393617
threshold=7.6655000000000006 35.300000000000004 279.50000000000006 1.4471000000000003 93.350000000000009 364.00000000000006 14.4 6.0390000000000015 389.78000000000003 390.24000000000007 16.850000000000005 1.2150000000000001 394.17500000000007
decision_type=10 8 10 8 10 10 8 10 8 10 8 10 10
left_child=1 2 -1 -3 5 8 -7 -8 -5 -10 -11 -12 -6
right_child=-2 3 -4 4 12 6 7 -9 9 10 11 -13 -14
leaf_value=0.011925390969865977 0.022319130986182503 0.10615537151181982 -0.010284978045912588 -0.032218161767343663 -0.14391373921861125 0.0091156540716589764 -0.13498950738406088 0.01908288322580547 0.0031050861813429111 0.0051172470571937871 0.0040174950416893788 -0.059812463093600603 -0.21528108316574068
leaf_weight=35 20 21 33 58 74 35 33 27 32 21 21 76 20
leaf_count=35 20 21 33 58 74 35 33 27 32 21 21 76 20
internal_value=0 -0.0259259 0.0470588 -0.0377991 -0.0445844 -0.0306931 0.0263158 -0.0333334 -0.0567308 -0.04 -0.0576271 -0.0793815 -0.0893617
internal_weight=0 486 68 418 397 303 95 60 208 150 118 97 94
internal_count=506 486 68 418 397 303 95 60 208 150 118 97 94
shrinkage=0.1


Tree=41
num_leaves=16
num_cat=0
split_feature=10 6 3 12 3 7 7 6 4 11 0 0 4 1 0
split_gain=2.53931 0.539219 0.519484 0.643494 0.462936 0.549356 0.680851 0.468125 0.463768 0.258511 0.25835 0.18607 0.180566 0.039899 0.037013
threshold=7.6655000000000006 14.795000000000002 0.068795000000000009 31.500000000000004 1.4194350000000002 0.53500000000000003 0.45550000000000002 10.875000000000002 1.8488000000000002 274.50000000000006 76.600000000000009 46.95000000000001 3.3765000000000005 396.10000000000008 93.350000000000009
decision_type=10 10 8 10 10 8 10 8 10 10 8 10 10 10 10
left_child=1 2 12 4 5 6 9 -8 -6 -4 -7 -3 -1 -13 -12
right_child=-2 11 3 -5 8 10 7 -9 -10 -11 14 13 -14 -15 -16
leaf_value=0.0048989860630175774 0.020087217887564179 0.007342155167850666 0.0056645046834579481 0.0091993163604972752 0.094069533711446982 0.00085660036923732052 0.0023411941541811279 0.0065535634429165768 0.0056997119445747124 -0.040598917880600639 -0.066085382065197415 -0.23480753187368797 -0.090374727665688798 -0.13732145253282033 -0.0070059078919075734
leaf_weight=31 20 30 20 20 23 34 27 20 27 27 57 79 51 20 20
leaf_count=31 20 30 20 20 23 34 27 20 27 27 57 79 51 20 20
internal_value=0 -0.0135803 0.00644255 0.0272727 0.0137255 -0.0073171 0.0489361 0.134043 0.1 -0.0361702 -0.054955 -0.0689923 -0.0634147 -0.089899 -0.087013
internal_weight=0 486 357 275 255 205 94 47 50 47 111 129 82 99 77
internal_count=506 486 357 275 255 205 94 47 50 47 111 129 82 99 77
shrinkage=0.1


Tree=42
num_leaves=15
num_cat=0
split_feature=10 10 6 4 5 7 0 5 11 10 8 11 4 3
split_gain=2.45382 0.943429 1.12 0.63774 0.48 0.477414 0.757531 0.701449 0.452174 0.407519 0.268466 0.230142 0.163631 0.135484
threshold=7.6655000000000006 6.7265000000000006 3.2400000000000007 2.1676500000000005 3.4250000000000003 0.46200000000000002 78.800000000000026 6.0650000000000004 288.00000000000006 6.2115000000000018 17.700000000000006 298.00000000000006 1.4784000000000004 0.13570500000000005
decision_type=10 10 10 10 10 8 10 10 8 8 10 8 8 8
left_child=1 3 -3 11 -4 13 7 8 -7 -9 -8 -1 -13 -5
right_child=-2 2 4 5 -6 6 10 9 -10 -11 -12 12 -14 -15
leaf_value=0.0070517786075736033 0.018078496098807764 0.025785371086137383 -0.060389838698954347 -0.12813874087471749 0.0083339172781131138 0.0050597387863761025 0.007605367387053516 0.0031317629137228662 -0.090901931491201668 0.0083653056752178139 -0.18717395421074612 0.071172533104706129 -0.14570070020258574 0.0048431029647341556
leaf_weight=26 20 20 20 42 30 20 22 31 26 38 42 21 128 20
leaf_count=26 20 20 20 42 30 20 22 31 26 38 42 21 128 20
internal_value=0 -0.00740743 0.1 -0.0254808 0.02 0.00788379 0.0340782 0.0826087 -0.0130435 0.146377 -0.053125 -0.0714286 -0.0865772 -0.067742
internal_weight=0 486 70 416 50 241 179 115 46 69 64 175 149 62
internal_count=506 486 70 416 50 241 179 115 46 69 64 175 149 62
shrinkage=0.1


Tree=43
num_leaves=16
num_cat=0
split_feature=10 10 6 6 3 7 8 9 7 5 0 12 1 1 0
split_gain=2.45382 0.709158 0.755714 0.569168 0.605011 0.893169 0.688144 0.67029 0.498678 0.48 0.26469 0.142283 0.116959 0.257331 0.0321429
threshold=7.6655000000000006 6.7265000000000006 3.2400000000000007 14.795000000000002 0.17062000000000002 0.50850000000000006 18.650000000000002 5.5000000000000009 0.50850000000000006 3.4250000000000003 73.350000000000009 33.500000000000007 372.86000000000007 390.69000000000005 95.90000000000002
decision_type=10 10 10 8 8 10 8 10 10 10 8 10 10 10 10
left_child=1 3 -3 4 8 6 -6 -7 11 -4 -5 -1 -12 -14 -15
right_child=-2 2 9 10 5 7 -8 -9 -10 -11 12 -13 13 14 -16
leaf_value=-0.04245819369952341 0.016270646488926843 0.023206833977523697 -0.054350854829059075 0.0045104594772063513 0.067897709888955424 -0.038152850850953414 0.0035119463889047731 0.015429269458108125 0.0041861771469236487 0.0075005255503019525 -0.23155120727321168 0.0066401076963069072 0.055585293161627282 -0.20453792077276473 -0.15570216196012113
leaf_weight=62 20 20 20 33 23 37 26 23 20 30 95 21 20 36 20
leaf_count=62 20 20 20 33 23 37 26 23 20 30 95 21 20 36 20
internal_value=0 -0.00740743 0.0857143 -0.0230769 0.0132075 0.0651376 0.165306 -0.0166667 -0.0417476 0.02 -0.0607843 -0.0759036 -0.0766082 -0.0473684 -0.0821429
internal_weight=0 486 70 416 212 109 49 60 103 50 204 83 171 76 56
internal_count=506 486 70 416 212 109 49 60 103 50 204 83 171 76 56
shrinkage=0.1


Tree=44
num_leaves=15
num_cat=0
split_feature=10 10 4 0 4 0 1 11 8 6 10 4 4 0
split_gain=2.59712 0.539773 0.675336 0.541989 0.648539 0.35763 0.328306 0.412088 0.274166 0.347262 0.500925 0.292972 0.0436306 0.0261905
threshold=7.6655000000000006 6.2115000000000018 5.6522000000000014 37.000000000000007 3.4178000000000002 35.300000000000004 392.79000000000002 407.00000000000006 16.700000000000006 19.530000000000005 6.1020000000000012 1.7548000000000001 5.4972000000000003 78.800000000000026
decision_type=10 10 10 10 10 8 10 8 10 8 8 8 10 10
left_child=1 5 3 4 -3 -1 7 -5 9 10 -7 -10 -13 -11
right_child=-2 2 -4 6 -6 8 -8 -9 11 13 -12 12 -14 -15
leaf_value=0.0095326108882629393 0.01464358184003416 0.015987841575499678 -0.072107884741113737 0.0069803504823135153 0.0048203017902925822 0.0037979001053370827 -0.094097385326214034 -0.0033056575518689946 0.012565345254157445 -0.0041792351599657203 -0.02695353765139364 -0.084316085315440825 -0.018608047907796257 -0.14348533502240213
leaf_weight=32 20 36 35 24 26 24 35 28 24 20 23 137 20 22
leaf_count=32 20 36 35 24 26 24 35 28 24 20 23 137 20 22
internal_value=0 -0.0176955 0.025 0.0543624 0.125806 -0.0437086 0.00344825 0.0538461 -0.0555556 -0.0101124 0.0489361 -0.0779006 -0.0936306 -0.0761905
internal_weight=0 486 184 149 62 302 87 52 270 89 47 181 157 42
internal_count=506 486 184 149 62 302 87 52 270 89 47 181 157 42
shrinkage=0.1


Tree=45
num_leaves=17
num_cat=0
split_feature=10 6 3 4 1 7 10 6 1 3 4 0 9 0 0 0
split_gain=2.36979 0.632329 0.842294 0.825 0.592585 0.553434 0.743952 1.21805 0.500595 0.726923 0.292899 0.264417 0.208333 0.123303 0.0330508 0.0291667
threshold=7.6655000000000006 14.795000000000002 2.1987050000000004 1.9590500000000002 377.87500000000006 0.41400000000000003 6.6170000000000009 6.5650000000000004 395.61000000000007 0.21285000000000001 2.8954500000000007 28.650000000000002 4.5000000000000009 59.550000000000004 58.050000000000004 47.800000000000004
decision_type=10 10 10 10 8 10 10 8 8 8 10 8 10 10 10 10
left_child=1 2 4 -4 -1 11 8 -8 9 -7 13 -6 15 -3 -13 -10
right_child=-2 10 3 -5 5 6 7 -9 12 -11 -12 14 -14 -15 -16 -17
leaf_value=-0.030295266613405349 0.013179223656030815 -0.039965466162175459 0.072935714160897933 0.00056505969535052198 0.0062968124346126642 0.0023312000610518765 0.0014590975857618723 0.0093684226270281251 -0.022445125947696157 0.0091600599462446294 0.0083274093054532764 -0.035451246251244302 0.0021925036583395328 -0.21579182613452308 -0.008586796433789649 -0.0088839151276382516
leaf_weight=48 20 25 20 24 20 39 22 24 20 21 20 39 32 84 20 28
leaf_count=48 20 25 20 24 20 39 22 24 20 21 20 39 32 84 20 28
internal_value=0 -0.00123459 0.0204482 0.15 0.0022364 0.0207547 0.0505376 0.16087 0.0142857 0.0833333 -0.0612403 -0.0493671 -0.0375 -0.0816514 -0.0830509 -0.0791667
internal_weight=0 486 357 44 313 265 186 46 140 60 129 79 80 109 59 48
internal_count=506 486 357 44 313 265 186 46 140 60 129 79 80 109 59 48
shrinkage=0.1


Tree=46
num_leaves=17
num_cat=1
split_feature=10 5 4 8 5 0 4 4 6 6 11 1 0 2 4 0
split_gain=2.39764 0.662849 1.14353 0.6 0.952381 0.501494 0.412623 0.89187 0.576276 0.4 0.398901 0.28439 0.305122 0.12268 0.0397959 0.03
threshold=7.6655000000000006 8.0050000000000026 6.0749500000000003 17.850000000000005 6.0650000000000004 93.350000000000009 3.6334500000000003 2.8954500000000007 12.035000000000002 6.9250000000000007 264.50000000000006 393.47000000000008 81.90000000000002 0 1.5435000000000001 34.300000000000004
decision_type=10 8 10 10 10 10 8 10 10 10 8 8 8 9 8 10
left_child=1 2 3 4 10 6 7 8 -3 -5 -1 12 -8 -10 -7 -4
right_child=-2 5 15 9 -6 14 11 -9 13 -11 -12 -13 -14 -15 -16 -17
leaf_value=0.044613501406972775 0.011861301290427662 0.0080810061644808265 -0.076287504748589599 0.0039632559431759251 0.037472616144576941 -0.092194890851583056 0.0085855444125174322 0.0049480823247355062 -0.033885735598634489 -0.12717461517732995 0.0020957329642501406 -0.027840929502058295 -0.014136324427967346 -0.017241576044008004 -0.15029861577639383 -0.0086332637774517145
leaf_weight=26 20 36 30 20 24 20 20 22 38 20 30 54 27 21 78 20
leaf_count=26 20 36 30 20 24 20 20 22 38 20 30 54 27 21 78 20
internal_value=0 -0.0032922 0.0470588 0.1 0.15 -0.0303798 -0.00366975 0.0367521 -0.00526318 -2.38419e-08 0.0785714 -0.0504951 0.00638295 -0.0661017 -0.0897959 -0.08
internal_weight=0 486 170 120 80 316 218 117 95 40 56 101 47 59 98 50
internal_count=506 486 170 120 80 316 218 117 95 40 56 101 47 59 98 50
cat_boundaries=0 1
cat_threshold=1
shrinkage=0.1


Tree=47
num_leaves=17
num_cat=0
split_feature=10 7 7 1 12 4 3 0 11 5 6 6 10 0 0 0
split_gain=2.53931 0.483528 0.473077 0.562398 0.396266 0.491505 0.380649 0.412632 0.780278 0.651232 0.327273 0.155056 0.139394 0.0368421 0.0307692 0.0267442
threshold=7.6655000000000006 0.67500000000000016 0.62750000000000006 383.30500000000006 87.500000000000014 4.4281000000000006 0.068795000000000009 88.550000000000011 346.50000000000006 4.9400000000000004 11.160000000000002 17.825000000000006 5.3760000000000003 77.90000000000002 45.750000000000007 58.750000000000007
decision_type=10 10 10 8 8 10 8 8 8 10 8 10 10 10 10 10
left_child=1 2 3 11 6 -6 14 8 9 -8 -9 -1 -12 -3 -5 -11
right_child=-2 13 -4 4 5 -7 7 10 -10 15 12 -13 -14 -15 -16 -17
leaf_value=-0.026619775407448545 0.010675171161384611 -0.00014950656158420057 0.074861627048438711 -0.038273145813529398 0.013065985820641028 -0.0019111634459966637 0.006283736913502265 0.001003859553444157 0.0072729055480327117 -0.004193506260652906 0.0060398549761597874 0.0035629628243552371 -0.037357761438780925 -0.20689876911239777 -0.037862747209877125 -0.0027106176708187671
leaf_weight=69 20 20 20 32 34 25 21 24 36 23 20 20 46 56 20 20
leaf_count=69 20 20 20 32 34 25 21 24 36 23 20 20 46 56 20 20
internal_value=0 -0.0135803 -2.38419e-08 -0.00769233 0.0129568 0.0864407 -0.0049587 0.0157894 0.06 -0.00625002 -0.0333334 -0.0775281 -0.069697 -0.0868421 -0.0807693 -0.0767442
internal_weight=0 486 410 390 301 59 242 190 100 64 90 89 66 76 52 43
internal_count=506 486 410 390 301 59 242 190 100 64 90 89 66 76 52 43
shrinkage=0.1


Tree=48
num_leaves=16
num_cat=0
split_feature=10 7 7 0 1 10 3 3 11 5 8 8 3 3 0
split_gain=2.36979 0.660177 0.650438 1.04833 0.40728 0.469476 0.8896 0.613065 0.779142 0.401004 0.302124 0.23772 0.182517 0.0893773 0.0361111
threshold=7.6655000000000006 0.63900000000000012 0.58450000000000013 93.350000000000009 389.41500000000002 6.6325000000000012 0.04062000000000001 0.13570500000000005 223.50000000000003 16.570000000000004 18.650000000000002 15.250000000000002 0.13972000000000004 5.6237200000000005 61.900000000000006
decision_type=10 10 10 10 8 10 10 8 10 8 8 10 10 8 8
left_child=1 2 4 -4 10 7 -7 11 -9 12 -1 -6 -10 -3 -12
right_child=-2 13 3 -5 5 6 -8 8 9 -11 14 -13 -14 -15 -16
leaf_value=0.0011925807465446789 0.0096076540452457952 -0.00013451760238241303 0.053669733111053192 -0.032691802288675943 0.0039464419828119466 -0.038858821353143863 0.0061194431240921728 0.12677728831958457 0.0011978588565703767 0.0063350035245397689 -0.092572007700154654 -0.082597923264604578 -0.0092418015798317269 -0.26652358318961317 -0.11379861179364298
leaf_weight=30 20 30 20 23 26 21 32 22 26 37 20 57 29 61 52
leaf_count=30 20 30 20 23 26 21 32 22 26 37 20 57 29 61 52
internal_value=0 -0.00123459 0.0164557 0.132558 0.0022727 0.024 0.107547 0.00152282 0.0491228 0.00869563 -0.0509804 -0.0638554 -0.0454546 -0.078022 -0.0861111
internal_weight=0 486 395 43 352 250 53 197 114 92 102 83 55 91 72
internal_count=506 486 395 43 352 250 53 197 114 92 102 83 55 91 72
shrinkage=0.1


Tree=49
num_leaves=16
num_cat=0
split_feature=10 0 11 6 0 3 1 9 6 11 5 0 0 1 8
split_gain=2.51065 0.693518 1.24962 0.409216 0.395185 0.539231 0.381425 0.377694 0.421367 0.819835 0.638311 0.266327 0.225 0.1492 0.230488
threshold=7.6655000000000006 34.300000000000004 298.00000000000006 19.830000000000002 53.650000000000013 3.6043400000000001 371.18000000000001 4.5000000000000009 15.695000000000002 274.50000000000006 13.360000000000001 76.950000000000017 21.650000000000002 395.16500000000002 19.900000000000002
decision_type=10 8 8 10 10 10 8 8 10 10 10 10 10 10 8
left_child=1 2 -1 4 5 13 -6 11 9 -9 -11 -8 -4 -3 -15
right_child=-2 3 12 -5 6 -7 7 8 -10 10 -12 -13 -14 14 -16
leaf_value=0.038021089909481588 0.0086468886407210736 -0.010413182812436826 0.0011661724062944116 -0.29185926950660357 -0.14049825055642981 0.055396099840844384 0.012871385225628723 -0.0050843044261357833 -0.10395225736103109 0.0043841175895970672 0.017941624279397893 -0.17094311639451173 -0.089936798364539258 0.0016402935794681264 -0.019451356454625479
leaf_weight=25 20 87 20 64 39 20 20 38 23 34 26 29 20 20 21
leaf_count=25 20 87 20 64 39 20 20 38 23 34 26 29 20 20 21
internal_value=0 -0.0115227 0.0846154 -0.0263658 -0.0131653 -0.0527027 0.0148325 0.0352941 0.0652892 0.0938775 0.166667 -0.0387755 -0.025 -0.0765625 -0.0268293
internal_weight=0 486 65 421 357 148 209 170 121 98 60 49 40 128 41
internal_count=506 486 65 421 357 148 209 170 121 98 60 49 40 128 41
shrinkage=0.1


Tree=50
num_leaves=15
num_cat=0
split_feature=10 10 6 5 8 7 4 1 10 6 6 3 1 4
split_gain=2.51065 0.77322 0.755714 0.48 0.388561 0.446464 1.37312 0.870471 0.323656 0.622071 0.216207 0.462185 0.434483 0.1375
threshold=7.6655000000000006 6.7265000000000006 3.2400000000000007 3.4250000000000003 18.650000000000002 0.48850000000000005 3.5138500000000006 395.61000000000007 6.3295000000000003 14.795000000000002 14.4 0.35173500000000008 392.99500000000006 8.0345500000000012
decision_type=10 10 10 10 10 8 10 8 8 8 10 8 8 8
left_child=1 4 -3 -4 5 13 8 -8 9 -7 11 -6 -13 -1
right_child=-2 2 3 -5 10 6 7 -9 -10 -11 -12 12 -14 -15
leaf_value=-0.034490820838558332 0.0077821997766491791 0.011584248037748941 -0.032790362867273305 0.0023608023469155318 -0.016780497315469288 0.01341343114581775 0.029396356004933968 0.020368996114559283 -0.042681710336675532 -0.036876837860181644 -0.156306784036784 -0.0047052688761225273 0.007035444132546885 0.1249100467900881
leaf_weight=44 20 20 20 30 55 26 25 23 43 36 80 29 35 20
leaf_count=44 20 20 20 30 55 26 25 23 43 36 80 29 35 20
internal_value=0 -0.0115227 0.0857143 0.02 -0.0278846 0.00138246 0.0307189 0.170833 -0.0333334 0.0129032 -0.059799 -0.0327731 0.025 -0.06875
internal_weight=0 486 70 50 416 217 153 48 105 62 199 119 64 64
internal_count=506 486 70 50 416 217 153 48 105 62 199 119 64 64
shrinkage=0.1


end of trees

feature importances:
RM=110
DIS=85
LSTAT=72
AGE=71
B=41
TAX=41
CRIM=36
PTRATIO=31
INDUS=25
NOX=21
RAD=13
ZN=13
CHAS=4

parameters:
[boosting: gbdt]
[objective: quantile]
[metric: quantile]
[tree_learner: serial]
[device_type: cpu]
[data: ]
[valid: ]
[num_iterations: 100]
[learning_rate: 0.1]
[num_leaves: 31]
[num_threads: -1]
[max_depth: -1]
[min_data_in_leaf: 20]
[min_sum_hessian_in_leaf: 0.001]
[bagging_fraction: 1]
[pos_bagging_fraction: 1]
[neg_bagging_fraction: 1]
[bagging_freq: 0]
[bagging_seed: 3]
[feature_fraction: 1]
[feature_fraction_bynode: 1]
[feature_fraction_seed: 2]
[early_stopping_round: 0]
[first_metric_only: 0]
[max_delta_step: 0]
[lambda_l1: 0]
[lambda_l2: 0]
[min_gain_to_split: 0]
[drop_rate: 0.1]
[max_drop: 50]
[skip_drop: 0.5]
[xgboost_dart_mode: 0]
[uniform_drop: 0]
[drop_seed: 4]
[top_rate: 0.2]
[other_rate: 0.1]
[min_data_per_group: 100]
[max_cat_threshold: 32]
[cat_l2: 10]
[cat_smooth: 10]
[max_cat_to_onehot: 4]
[top_k: 20]
[monotone_constraints: ]
[feature_contri: ]
[forcedsplits_filename: ]
[forcedbins_filename: ]
[refit_decay_rate: 0.9]
[cegb_tradeoff: 1]
[cegb_penalty_split: 0]
[cegb_penalty_feature_lazy: ]
[cegb_penalty_feature_coupled: ]
[verbosity: -1]
[max_bin: 255]
[max_bin_by_feature: ]
[min_data_in_bin: 3]
[bin_construct_sample_cnt: 200000]
[histogram_pool_size: -1]
[data_random_seed: 1]
[output_model: LightGBM_model.txt]
[snapshot_freq: -1]
[input_model: ]
[output_result: LightGBM_predict_result.txt]
[initscore_filename: ]
[valid_data_initscores: ]
[pre_partition: 0]
[enable_bundle: 1]
[max_conflict_rate: 0]
[is_enable_sparse: 1]
[sparse_threshold: 0.8]
[use_missing: 1]
[zero_as_missing: 0]
[two_round: 0]
[save_binary: 0]
[header: 0]
[label_column: ]
[weight_column: ]
[group_column: ]
[ignore_column: ]
[categorical_feature: ]
[predict_raw_score: 0]
[predict_leaf_index: 0]
[predict_contrib: 0]
[num_iteration_predict: -1]
[pred_early_stop: 0]
[pred_early_stop_freq: 10]
[pred_early_stop_margin: 10]
[convert_model_language: ]
[convert_model: gbdt_prediction.cpp]
[num_class: 1]
[is_unbalance: 0]
[scale_pos_weight: 1]
[sigmoid: 1]
[boost_from_average: 1]
[reg_sqrt: 0]
[alpha: 0.9]
[fair_c: 1]
[poisson_max_delta_step: 0.7]
[tweedie_variance_power: 1.5]
[max_position: 20]
[lambdamart_norm: 1]
[label_gain: ]
[metric_freq: 1]
[is_provide_training_metric: 0]
[eval_at: ]
[multi_error_top_k: 1]
[num_machines: 1]
[local_listen_port: 12400]
[time_out: 120]
[machine_list_filename: ]
[machines: ]
[gpu_platform_id: -1]
[gpu_device_id: -1]
[gpu_use_dp: 0]

end of parameters

pandas_categorical:[[0.0, 1.0]]
