tree
num_class=1
label_index=0
max_feature_idx=12
objective=regression
sigmoid=-1
feature_names=AGE B CHAS CRIM DIS INDUS LSTAT NOX PTRATIO RAD RM TAX ZN
feature_infos=[0:100] [0:396.89999999999998] 0:1 [0:73.534099999999995] [0:12.1265] [0:27.739999999999998] [0:37.969999999999999] [0:0.871] [0:22] [0:24] [0:8.7799999999999994] [0:711] [0:100]

Tree=0
num_leaves=31
split_feature=6 6 7 6 10 10 10 3 11 0 10 3 10 10 6 4 6 4 9 10 7 7 7 7 4 11 1 0 0 6
split_gain=16030.878571515728 3629.9166052867222 2747.621052625007 1849.9715041248346 1259.0676263923815 1493.576734432223 1117.1133837133239 1029.6735979421028 729.89113756127335 540.80003967285302 383.97745034818217 362.53444396297891 347.28552938767098 293.53656358471198 244.61530199220215 237.19219956773668 233.59391392836733 218.61867034307579 197.98531317922607 151.87906714047131 150.37709302714211 181.53866679482962 147.53454721445087 100.94065918513661 82.733054767863905 53.109426496347623 47.55669906644107 43.095443050679023 42.269766645216805 34.687118507061314
threshold=7.4749999999999996 4.6500000000000004 0.66349999999999998 14.434999999999999 6.5504999999999995 8.5510000000000002 7.4429999999999996 7.3855000000000004 264.5 54.100000000000001 8.2530000000000001 0.17970999999999998 6.9595000000000002 6.0049999999999999 9.4000000000000004 2.2771999999999997 19.899999999999999 1.9118999999999999 7.5 6.5314999999999994 0.51249999999999996 0.58450000000000002 0.52800000000000002 0.46199999999999997 2.0643000000000002 688.5 363.22500000000002 91.549999999999997 98.849999999999994 11.705
decision_type=0 0 0 0 0 0 0 0 0 0 0 0 0 0 0 0 0 0 0 0 0 0 0 0 0 0 0 0 0 0
left_child=1 6 4 14 13 12 -1 11 9 -3 -8 -5 -6 17 -4 -7 24 -2 -17 -10 23 27 -21 -15 -9 28 -13 -22 -18 -16
right_child=2 8 3 7 5 15 10 16 19 -11 -12 26 -14 20 29 18 25 -19 -20 22 21 -23 -24 -25 -26 -27 -28 -29 -30 -31
leaf_parent=6 17 9 14 11 12 15 10 24 19 9 10 26 12 23 29 18 28 17 18 22 27 21 22 23 24 25 26 27 28 29
leaf_value=3.377777809566922 1.4858333269755046 2.8319999885559071 2.5916666666666668 2.2323076908405013 2.7564705904792333 1.7079999828338623 4.7075000047683719 1.2080000114440914 2.4055555767483181 3.8720000267028811 3.9399999618530259 1.4819999821980794 3.4430769700270432 2.1814285823277064 2.1850000063578281 2.0536841944644326 1.1026666641235352 1.9473239415128465 2.5492857251848497 2.9060869548631754 2.0146666717529298 2.3910000038146975 2.4460000038146976 2.5450000286102297 1.5793333180745444 1.2200000029343825 1.7108695776566216 1.7707143102373395 0.87235293668859148 1.9629411865683164
leaf_count=18 12 10 12 13 17 10 16 10 18 10 11 15 13 21 12 19 15 71 14 23 15 10 10 12 15 13 23 14 17 17
internal_value=0 32.853448341632713 19.463076953398875 16.314197534396325 21.700438645848056 25.124657578664284 39.880000050862627 14.347107422253318 28.400000075219381 33.520000076293947 43.948148020991574 17.764705882352942 30.540000216166177 20.087741987166865 22.11951225559886 21.346511552500171 11.85714282989502 18.806024068809418 22.639393893155184 26.392156937543085 21.565277920828926 20.235897553272736 27.666666666666668 23.136363809758965 14.307999954223632 10.495555538601346 16.205263162914076 18.968965661936792 9.8031249642372131 20.548275947570801
internal_count=506 116 390 162 228 73 45 121 71 20 27 51 30 155 41 43 70 83 33 51 72 39 33 33 25 45 38 29 32 29
shrinkage=0.1


Tree=1
num_leaves=31
split_feature=6 6 7 6 10 10 7 7 3 8 10 3 6 4 5 7 6 6 4 4 10 1 7 0 6 3 6 6 5 3
split_gain=12985.011740559625 2940.2328843738505 2225.5729150870029 1500.7819688073214 1032.7926428723731 904.86171301087597 875.76698527487315 912.66176511943922 860.96823065818535 632.60987275811931 311.02162059861439 242.03896205670571 241.48405122400436 243.89716814272469 220.09053670090361 200.47657578791586 184.39206491315053 181.61038686185566 159.15940097700877 111.63814128237755 84.173111991181941 67.333547097101473 67.154670915591851 65.36873553546684 64.298839404587852 57.987508458414595 56.336887556381043 49.335632190136494 38.911454125206546 33.034849830451094
threshold=7.4749999999999996 4.6500000000000004 0.66349999999999998 14.145 6.1295000000000002 7.4429999999999996 0.62749999999999995 0.51649999999999996 5.6808650000000007 15.25 8.2530000000000001 0.17970999999999998 13.129999999999999 6.5450499999999998 3.3500000000000001 0.70649999999999991 11.705 9.4000000000000004 1.9897 2.0643000000000002 6.5314999999999994 379.86000000000001 0.51249999999999996 73.25 9.7750000000000004 33.158850000000001 16.085000000000001 20.535 8.3500000000000014 21.656649999999999
decision_type=0 0 0 0 0 0 0 0 0 0 0 0 0 0 0 0 0 0 0 0 0 0 0 0 0 0 0 0 0 0
left_child=1 5 4 17 18 -1 7 12 11 -3 -7 -5 24 -14 -11 29 -9 -4 -2 -17 -16 -18 -22 -20 -6 -21 -25 -23 -28 -10
right_child=2 9 3 8 6 10 -8 16 15 14 -12 -13 13 -15 20 19 21 -19 23 25 22 27 -24 26 -26 -27 28 -29 -30 -31
leaf_parent=5 18 9 17 11 24 10 6 16 29 14 10 11 13 13 20 19 21 17 23 25 22 27 22 26 24 25 28 27 28 29
leaf_value=3.0400000996059844 1.4123690945761544 3.2531368949196557 2.3324999491373699 2.0090769474322978 2.2646207427978511 4.2367499589920046 3.0039308027787643 2.0852546246846519 0.9991588929120232 2.7457995057106022 3.5460000471635293 1.4973924815654756 2.8014326993156877 2.2126062711079917 2.1383895313038548 1.0163308769464494 1.5067771657307942 1.8649477110968697 1.8748941019961709 1.2299018488989937 2.5434045230641082 1.663933128118515 2.2168200492858889 1.7933946701788135 1.9372604942321781 1.5136943896611528 1.4508959076621313 1.9470769119262687 1.7064461708068848 0.79555266062418628
leaf_count=18 14 11 12 13 15 16 11 15 17 16 11 32 17 12 17 16 15 27 38 18 17 16 10 31 10 12 11 10 13 15
internal_value=0 29.568103362774028 17.516769068057719 14.682777678525007 19.530394529041491 35.892000367906356 21.531815048091669 20.68106575012207 12.968895187222861 25.559999627126775 39.553333282470703 16.452124383714462 23.614360597398544 25.577803841952619 24.281915251413981 10.959339881554628 17.852531433105469 20.088099381862541 17.267105904695029 12.296491301578024 23.126977140253242 16.754965037834353 24.224473105536568 17.740308156577491 21.33676643371582 13.434188652038575 17.043434541875666 17.728345834291897 15.893189668655396 9.0371847152709961
internal_count=506 116 390 162 228 45 121 110 123 71 27 45 54 29 60 78 56 39 107 46 44 41 27 93 25 30 55 26 24 32
shrinkage=0.1


Tree=2
num_leaves=31
split_feature=6 6 7 6 10 10 10 8 11 3 3 8 10 8 10 4 6 4 6 9 10 10 3 7 1 6 3 3 6 6
split_gain=10517.859598703188 2381.5886023690982 1802.7140894623299 1217.327670970597 856.85189008380985 1088.6481263990354 732.9382911089051 698.73297360675679 561.86655649553722 421.15718346861649 359.92399397905865 272.62832426986279 243.532983675992 195.3178019863135 192.23279587442812 162.97116777814153 159.77352956689901 148.13592329018138 148.10608619708546 142.16896124216146 116.8753914541885 112.994730828721 100.75799903809821 211.60579674436667 53.041219647393518 41.348400437467717 34.37123682584388 27.651874843173573 25.70990779164913 30.537539154556271
threshold=7.4749999999999996 4.6500000000000004 0.66349999999999998 14.434999999999999 6.5504999999999995 8.5510000000000002 7.4429999999999996 19.899999999999999 264.5 0.094350000000000003 7.3855000000000004 17.5 6.8529999999999998 15.25 6.0049999999999999 2.2771999999999997 9.4000000000000004 1.9118999999999999 19.899999999999999 7.5 6.7264999999999997 8.5510000000000002 8.7544349999999991 0.51649999999999996 378.08499999999998 12.76 1.2280250000000001 0.19362499999999999 25.16 34.390000000000001
decision_type=0 0 0 0 0 0 0 0 0 0 0 0 0 0 0 0 0 0 0 0 0 0 0 0 0 0 0 0 0 0
left_child=1 6 4 16 14 12 -1 13 9 -3 24 -8 -6 -5 17 -7 -4 -2 -12 -17 -10 -22 23 25 -9 -16 -25 -18 -20 -30
right_child=2 8 3 7 5 15 11 10 20 -11 18 -13 -14 -15 22 19 27 -19 28 -21 21 -23 -24 26 -26 -27 -28 -29 29 -31
leaf_parent=6 17 9 16 13 12 15 11 24 20 9 18 11 12 13 25 19 27 17 28 19 21 21 22 26 24 25 26 27 29 29
leaf_value=2.7360000080532498 1.1960130453109741 2.2907299327850335 2.0992500543594361 1.3011645750565959 2.1979620320456363 1.3640046215057373 3.80351333618164 1.1394632772965863 1.9698551864624023 3.2085067939758307 1.1108885244889695 3.1454875564575198 2.7690664410591128 1.8559379577636719 1.7965618896484372 1.6466568244130988 1.7737156647902266 1.575895681515546 0.89033676236867909 2.066627093723842 2.4656841550554547 2.0475062052408854 1.9748686663309734 1.5990047555220757 1.412849268913269 2.0590766525268558 1.3879845252403848 1.5773662447929384 0.60266953815113411 0.82203170140584314
leaf_count=18 12 10 12 11 14 10 17 11 25 10 22 10 16 15 15 19 13 71 16 14 14 12 15 19 20 10 13 16 11 15
internal_value=0 26.611293274780799 15.765092363724342 13.214500093165739 17.577355292805454 20.402169410496541 32.302800538804796 11.618821264298495 23.003999938427562 27.496183633804321 10.361669221677278 35.598000844319664 25.025510501861572 16.212261420029861 16.246958966409007 17.17658260256745 17.923698588115414 15.209728907389813 9.0069962777197361 18.248260295752324 21.242359273573932 22.726789474487305 17.442654728889465 16.835804219831502 13.158413364041236 19.015677947998046 15.132777869701385 16.653849503089642 7.9060068187259489 7.2922463233654318
internal_count=506 116 390 162 228 73 45 121 71 20 95 27 30 26 155 43 41 83 64 33 51 26 72 57 31 25 32 29 42 26
shrinkage=0.1


Tree=3
num_leaves=31
split_feature=6 6 7 8 3 10 10 10 10 5 7 4 3 6 9 0 6 5 10 4 11 7 10 6 10 11 8 10 1 3
split_gain=8538.009954557172 2747.8855349603837 1422.3344027274288 851.68790839794383 813.24888755514257 604.29236016878713 523.1998873528064 779.35198061453775 248.44420364065445 239.65437736781678 226.97843331537297 215.31985537438777 204.0866079956304 201.09502647748741 187.32293773464698 164.18331705904711 139.05930457239629 129.13993565553574 121.84862331384102 94.736260527749891 90.817568307966212 77.711502336137073 72.783207353854323 71.675241082872162 62.227228142455715 57.670922176816021 51.574055411347217 51.125405570886869 47.873270029174364 44.905114473043568
threshold=9.6050000000000004 4.6500000000000004 0.66349999999999998 14.75 5.6808650000000007 6.9809999999999999 6.5504999999999995 8.5510000000000002 6.6784999999999997 6.0800000000000001 0.51249999999999996 4.5214999999999996 0.17970999999999998 17.98 16 73.25 16.085000000000001 14.48 5.6105 2.7785000000000002 329.5 0.70649999999999991 6.0705 34.390000000000001 6.165 453 19.149999999999999 6.0194999999999999 391.39499999999998 21.656649999999999
decision_type=0 0 0 0 0 0 0 0 0 0 0 0 0 0 0 0 0 0 0 0 0 0 0 0 0 0 0 0 0 0
left_child=1 5 6 -3 12 -1 15 11 14 -7 20 -8 26 19 24 27 -17 -9 -18 -6 -10 29 -23 -20 -5 -14 -4 -2 -24 -15
right_child=2 3 4 8 13 9 7 17 10 -11 -12 -13 25 21 -16 16 18 -19 23 -21 -22 22 28 -25 -26 -27 -28 -29 -30 -31
leaf_parent=5 27 3 26 24 19 9 11 17 20 9 10 11 25 29 14 16 18 17 23 19 20 22 28 23 24 25 26 27 28 29
leaf_value=2.3323145206157978 1.5031027180807932 2.8688333511352542 1.7481523922511508 1.4606867356733844 0.99847148577372202 2.9144536118758353 1.9711755642524129 1.7179867856642781 2.417103147506714 3.4716639885535607 1.8065967983669706 2.5883874511718754 1.1468724315816707 0.80103731304407122 2.0658048629760741 1.4788367049638618 0.92027142524719252 1.3545139996901803 1.1987672632390802 1.3958299732208252 2.0438439802689983 0.70411648273467997 0.88794018572027 1.4822512118021649 1.7343148287604837 1.3847109744423314 1.4508097171783447 1.7271840691566469 1.1902552938461304 0.5385710716247557
leaf_count=13 28 10 14 11 15 19 13 17 16 13 18 10 22 16 16 43 10 23 22 10 11 10 11 15 34 19 10 16 10 11
internal_value=0 22.439533251412907 13.620294470717942 19.866391905422869 11.277719141663733 29.072519832187229 15.380198778839885 17.756945110502699 19.034133263354033 31.408203274011612 20.816594780815972 22.395285585652228 13.926605026538555 9.2032904366412787 17.719202635718172 14.262773264699907 13.488815614912244 15.089899337291717 12.299864302290247 11.574148807525635 22.650345978913485 8.1813687250531952 9.2616321963648645 13.136931883322227 16.67427961561415 12.570902929073426 16.242596109708149 15.845868457447398 10.31899761018299 6.9410662209546121
internal_count=506 161 345 116 148 45 197 63 106 32 45 23 65 83 61 134 90 40 47 25 27 58 31 37 45 41 24 44 21 27
shrinkage=0.1


Tree=4
num_leaves=31
split_feature=6 6 7 8 3 10 7 7 10 10 10 3 3 6 8 5 5 4 10 6 10 7 4 7 4 6 3 11 4 3
split_gain=6915.7883358694089 2225.7874959271867 1152.0907603006053 689.8673132380718 658.73154872747546 503.61134702834534 424.23399872049777 310.88831794289581 306.74704005867898 290.06178643727071 247.96011910076413 211.96253924115808 165.31020075651941 162.88698399487839 145.72884864888329 137.10279200838704 138.53694173414806 123.21414050177736 121.53546074008409 110.85208399447765 89.177455654744335 82.837035638333873 76.73638426043226 62.946314610335321 62.995824230885773 53.479898416505421 48.173270943049829 46.713436591991012 45.748336687152914 44.723767154651796
threshold=9.6050000000000004 4.6500000000000004 0.66349999999999998 14.75 5.6808650000000007 7.4429999999999996 0.51249999999999996 0.62749999999999995 6.5504999999999995 8.5510000000000002 8.2530000000000001 0.066295000000000007 0.17970999999999998 17.98 19.899999999999999 4.0999999999999996 14.48 4.8896499999999996 6.3464999999999998 16.085000000000001 6.5709999999999997 0.60699999999999998 2.7785000000000002 0.70649999999999991 2.0643000000000002 30.715 0.37248999999999999 453 5.266 2.19577
decision_type=0 0 0 0 0 0 0 0 0 0 0 0 0 0 0 0 0 0 0 0 0 0 0 0 0 0 0 0 0 0
left_child=1 5 6 -3 12 -1 8 14 17 -10 -7 20 28 22 26 -13 18 -2 -17 29 -5 25 -6 -15 -25 -21 -8 -14 -4 -16
right_child=2 3 4 11 13 10 7 -9 9 -11 -12 15 27 23 19 16 -18 -19 -20 21 -22 -23 -24 24 -26 -27 -28 -29 -30 -31
leaf_parent=5 17 3 28 20 22 10 26 7 9 9 10 15 27 23 29 18 16 17 18 25 20 21 22 24 24 25 26 27 28 29
leaf_value=2.2068068557315406 1.6920961538950605 2.5819500732421878 1.2984735488891597 1.4108986059824626 0.89862434069315578 3.1409462094306946 1.2837775062112247 1.7805400891737506 2.1841826365544246 1.528201355252947 2.5241858308965504 2.0905389658610027 1.0321851730346681 0.62469596597883437 1.1934854548910392 1.3756494919459026 1.9884809911251069 1.3179089430606727 1.7712792960080233 1.0143558477100574 1.710255583594827 0.80675898790359502 1.2562470102310181 0.65417219003041571 0.94683619047466083 1.2719354322978429 1.5255325734615326 1.2462398378472581 1.5785194737570627 1.4201805455344063
leaf_count=18 12 10 10 24 15 16 17 11 13 14 11 15 22 27 23 12 16 33 22 19 17 11 10 12 19 14 16 19 14 14
internal_value=0 20.195579990837146 12.258264931734058 17.879752668841132 10.149947232491261 26.165268198649088 13.842178736241335 12.728446310997009 15.775741974512735 18.440441943981028 28.896734626204879 17.130719832654268 12.533944438054011 8.2829614690987459 12.238564728644857 18.253802886376015 17.45832685470581 14.17692199283176 16.316452475155103 11.516901126614323 15.350222308461259 10.444137733091008 10.416734085083007 7.3632318932434604 8.3354689998011438 11.236320351109359 14.009920842719801 11.31381237216112 14.618336717287699 12.792619756750158
internal_count=506 161 345 116 148 45 197 125 72 27 27 106 65 83 114 65 50 45 34 81 41 44 25 58 31 33 33 41 24 37
shrinkage=0.1


Tree=5
num_leaves=31
split_feature=6 6 7 10 3 10 8 6 8 10 10 10 8 4 3 6 10 6 10 6 6 3 0 0 9 4 4 5 0 4
split_gain=5622.8550365206756 1301.1799204994604 957.44404691304953 815.37772642231721 667.38199280717345 638.85290588945645 373.5183208731105 366.15475488455559 334.43325813045158 330.98906403433102 328.58886247626288 312.12236577953627 216.49084294327349 215.82997890089246 185.94583293401229 185.25827603766811 159.15905438053869 125.15523496917331 124.76821881175601 120.80811433348936 83.181489098308703 75.467137306210589 68.647320359656078 64.840471467399311 46.70039010893197 44.667283878199669 35.908234795349472 35.727142840285524 31.921017708296517 30.861603285240108
threshold=7.4749999999999996 3.3250000000000002 0.67500000000000004 7.1210000000000004 5.6808650000000007 8.5510000000000002 18.75 9.6050000000000004 18.75 7.4429999999999996 6.6784999999999997 8.5510000000000002 19.899999999999999 2.3197000000000001 0.17970999999999998 34.390000000000001 6.5504999999999995 17.109999999999999 6.7264999999999997 19.899999999999999 16.325000000000003 9.8700200000000002 61.649999999999999 99.650000000000006 6.5 4.8896499999999996 7.3081499999999995 8.3500000000000014 97.950000000000003 2.0643000000000002
decision_type=0 0 0 0 0 0 0 0 0 0 0 0 0 0 0 0 0 0 0 0 0 0 0 0 0 0 0 0 0 0
left_child=1 -1 6 18 14 9 10 -8 -7 -5 25 -12 -6 17 22 20 -17 -9 -3 29 27 -21 -4 -19 -16 -2 -27 -15 -23 -14
right_child=2 3 4 5 12 8 7 13 -10 -11 11 -13 19 15 24 16 -18 23 -20 21 -22 28 -24 -25 -26 26 -28 -29 -30 -31
leaf_parent=1 25 18 22 9 12 8 7 17 8 9 11 11 29 27 24 16 16 23 18 21 20 28 22 23 24 26 26 27 28 29
leaf_value=2.8108422215779623 1.3804009017944336 1.4336228238211739 1.5123767512185236 2.0702105435458091 1.1600939057090067 2.1642403862693089 1.6508330154418946 1.1902629102979387 1.427415350505284 2.8155333739060624 1.9706796964009603 1.3530366834004721 0.70547075748443577 1.0332640818187169 0.90538747310638434 1.2095505312869426 1.6452958234151205 0.69140063226222992 1.7692386388778687 0.79412898150357336 0.87451775868733739 0.59510746002197257 1.2205480876721835 0.99207085095919079 1.1184676388899486 1.0756738149202787 1.3107130417456991 1.222280332020351 0.38515173753102616 0.92686517378863165
leaf_count=15 25 36 14 11 11 11 15 14 14 13 18 15 10 14 18 19 15 16 16 11 12 14 19 13 24 13 13 35 15 17
internal_value=0 19.417722603370404 11.487371711853223 18.12702464113141 9.5372897924161428 21.054022244044713 12.746285356046782 11.816086697422602 17.516183662414551 24.73927076657613 14.440575769969396 16.899328723098293 7.4893138194695501 11.306060234705607 11.667184804280598 12.147433612221166 14.017911013434915 9.4472120750782107 15.36889228454003 6.814270870009465 11.104872437774159 5.7110498249530792 13.443541873585094 8.2618383374707456 10.271475678398495 12.849617976768345 11.931934283329891 11.682756891055982 4.8650967252665556 8.4486724182411468
internal_count=506 116 390 101 153 49 237 153 25 24 84 33 78 138 75 95 34 43 52 67 61 40 33 29 42 51 26 49 29 27
shrinkage=0.1


Tree=6
num_leaves=31
split_feature=6 6 7 10 3 10 8 6 8 10 10 10 8 4 3 6 10 6 10 6 6 3 0 0 11 4 3 4 1 0
split_gain=4554.5127658727579 1053.9557101100581 775.52972056229919 660.45591947167486 540.57939894957599 517.47092791292016 302.54985543173098 296.58533767473637 270.89091100613041 268.10118526186125 266.15696239321005 252.8190975823909 175.35757009137342 174.82227764238814 150.61611622557757 150.05919513166555 128.91883191421766 101.37573040705684 101.06226486007108 97.854575385076259 67.377001722144087 61.128373107304697 55.604337719162686 52.52078922905207 38.947567477077882 36.180490609214758 31.373139795205134 29.085667965139237 26.502870662174701 25.856023259374524
threshold=7.4749999999999996 3.3250000000000002 0.67500000000000004 7.1210000000000004 5.6808650000000007 8.5510000000000002 18.75 9.6050000000000004 18.75 7.4429999999999996 6.6784999999999997 8.5510000000000002 19.899999999999999 2.3197000000000001 0.17970999999999998 34.390000000000001 6.5504999999999995 17.109999999999999 6.7264999999999997 19.899999999999999 16.325000000000003 9.8700200000000002 61.649999999999999 99.650000000000006 453 4.8896499999999996 33.158850000000001 7.3081499999999995 354.505 97.950000000000003
decision_type=0 0 0 0 0 0 0 0 0 0 0 0 0 0 0 0 0 0 0 0 0 0 0 0 0 0 0 0 0 0
left_child=1 -1 6 18 14 9 10 -8 -7 -5 25 -12 -6 17 22 20 -17 -9 -3 28 26 -21 -4 -19 -16 -2 -15 -27 -14 -23
right_child=2 3 4 5 12 8 7 13 -10 -11 11 -13 19 15 24 16 -18 23 -20 21 -22 29 -24 -25 -26 27 -28 -29 -30 -31
leaf_parent=1 25 18 22 9 12 8 7 17 8 9 11 11 28 26 24 16 16 23 18 21 20 29 22 23 24 27 26 27 28 29
leaf_value=2.5297580019632977 1.242360809326172 1.2902605586581761 1.3611390726906913 1.8631894891912282 1.0440844969315963 1.9478163112293583 1.4857497024536135 1.0712366104125977 1.2846738134111677 2.5339800908015326 1.7736117151048447 1.2177330239613851 0.64089143492958744 1.0109300588950132 0.83261663263494323 1.0885954731389098 1.4807662328084312 0.62226056773215532 1.5923148036003114 0.71471606601368309 0.78706599076588946 0.53559671299798139 1.0984932560669749 0.89286378346956674 1.0254305934906005 0.96810645690331087 1.2094685554504396 1.1796417529766374 0.84252926111221316 0.34663656671841936
leaf_count=15 25 36 14 11 11 11 15 14 14 13 18 15 11 39 22 19 15 16 16 11 12 14 19 13 20 13 10 13 16 15
internal_value=0 17.475950463064784 10.338634514732238 16.314322311099215 8.5835607390777735 18.948620076082189 11.47165682559778 10.634478011357238 15.764565124511719 22.265343983968098 12.996518237250191 15.209395827669086 6.7403823893803816 10.175454205576925 10.500466222763061 10.932690233933299 12.616119847578162 8.5024908871151688 13.832003263326792 6.1328437568536449 9.9943852033771456 5.1399448022246359 12.099187540285515 7.4356545754547776 9.2443280447097056 11.564656266979142 10.514481194165288 10.738741049399742 7.6038051711188421 4.3785870630165622
internal_count=506 116 390 101 153 49 237 153 25 24 84 33 78 138 75 95 34 43 52 67 61 40 33 29 42 51 49 26 27 29
shrinkage=0.1


Tree=7
num_leaves=31
split_feature=6 6 7 10 3 10 10 11 4 0 10 8 3 9 4 11 6 6 7 10 8 9 11 8 0 0 6 10 7 11
split_gain=3689.1553981956458 853.70421883052404 628.17903631934314 534.96935750711054 438.39453432376285 419.15145630093502 250.7259846618872 321.36791578558405 283.49736309073887 231.64125888779381 217.16198472314863 161.22548293637146 141.91451618198789 115.75330252985441 140.27058660572584 195.70679169076902 103.81052072381635 86.078087300791594 94.088725508002426 83.881300283143901 65.949949711382942 58.829768441119995 49.802089531304773 47.19130186137636 45.039512739605016 39.733103509941429 39.70343164786027 38.856685431906726 26.378961347793847 22.437387059361299
threshold=7.4749999999999996 3.3250000000000002 0.67500000000000004 7.1210000000000004 7.3855000000000004 8.5510000000000002 6.1215000000000011 264.5 2.2771999999999997 47.5 7.4429999999999996 19.899999999999999 0.17970999999999998 4.5 3.2392500000000002 453 19.899999999999999 18.134999999999998 0.59099999999999997 6.5314999999999994 18.25 4.5 304.5 17.949999999999999 61.649999999999999 98.349999999999994 14.434999999999999 5.8704999999999998 0.6964999999999999 431
decision_type=0 0 0 0 0 0 0 0 0 0 0 0 0 0 0 0 0 0 0 0 0 0 0 0 0 0 0 0 0 0
left_child=1 -1 6 19 12 10 17 -8 25 -7 -5 -6 24 22 29 23 -13 18 -2 -3 -21 -19 -10 -16 -4 -9 -14 -23 -18 -15
right_child=2 3 4 5 11 9 7 8 13 -11 -12 16 26 14 15 -17 28 21 -20 20 -22 27 -24 -25 -26 -27 -28 -29 -30 -31
leaf_parent=1 18 19 24 10 11 9 7 25 22 9 10 16 26 29 23 15 28 21 18 20 20 27 22 23 24 25 26 27 28 29
leaf_value=2.2767822456359865 0.93725588244776581 1.0965669480237095 1.2250251701899939 1.6768705368041985 0.93967606371099299 1.1489932707377839 1.5460158228874208 0.61656563715501256 1.1236032746054907 1.7622150941328572 2.2805821125323957 0.68862071762914245 0.98031620979309086 1.1034892602400344 1.3210258657282046 1.5980545014142991 0.28759613524783745 0.6425273981690407 1.2678074312210084 1.4747034761640758 1.1720532615979513 0.7591569375991819 0.83926624229976121 1.0552049244151396 0.98864393736186784 0.87968523502349838 0.77166706762815784 1.0315187280828304 0.47342524623870852 0.89652305126190202
leaf_count=15 62 22 14 11 11 14 16 11 11 11 13 23 12 11 11 16 11 15 10 18 12 10 14 17 19 12 38 11 25 10
internal_value=0 15.72835546937482 9.304771065520935 14.682890075268132 7.7252047143730467 17.053758202766886 10.324491114996153 11.265605739844862 10.671686803345132 14.188108730316163 20.038809736569721 5.8819859785693032 9.2797265397496975 11.47240178320143 12.175731174762433 13.190600059249185 5.2266890083329152 9.2003819797601967 9.8316581977738267 12.448802801278921 13.536433903376262 7.9378295437329349 9.6437453651428218 11.596345799309868 10.889268846222848 7.5384542734726612 8.2174286174774167 9.0182263737633122 4.166441289914979 10.049339226314
internal_count=506 116 390 101 153 49 237 129 113 25 24 70 83 90 65 44 59 108 72 52 30 36 25 28 33 23 50 21 36 21
shrinkage=0.1


Tree=8
num_leaves=31
split_feature=6 6 0 8 3 11 6 10 8 5 9 3 7 4 6 8 1 6 7 10 3 1 1 11 10 0 10 10 0 10
split_gain=3022.3378401307054 1011.4680698336269 549.05967834758849 374.27806494382821 350.10618993332355 349.9035693719652 188.70201766962509 172.60651406838042 152.56483043145454 151.72363420003967 149.69385029507248 222.35662339199826 108.0225128109555 96.717567545083512 94.995587169029932 77.005786707673906 71.686219374871598 67.007673500887677 56.641689175448846 52.090036368261281 50.915410871354652 50.48863766595241 49.737208400389591 49.442426585710564 46.163834155906898 43.107260277341993 32.986282726884383 30.9025579820443 25.118085720250292 25.00539747068342
threshold=9.7750000000000004 4.6500000000000004 69.950000000000003 14.75 5.6808650000000007 400 15.024999999999999 7.4429999999999996 17.949999999999999 6.3049999999999997 6.5 8.0241349999999994 0.60699999999999998 7.7340999999999998 6.7349999999999994 20.949999999999999 393.16500000000002 19.899999999999999 0.70649999999999991 6.5504999999999995 0.101185 150.345 395.58499999999998 312 5.9515000000000011 97.450000000000003 6.3109999999999999 6.1479999999999997 35.799999999999997 6.3464999999999998
decision_type=0 0 0 0 0 0 0 0 0 0 0 0 0 0 0 0 0 0 0 0 0 0 0 0 0 0 0 0 0 0
left_child=1 5 8 -3 9 7 -6 -1 20 -4 14 19 25 15 22 -11 -15 27 -14 -12 -2 -20 -5 -21 -23 -8 28 -17 -10 -16
right_child=2 3 4 10 6 -7 12 -9 26 13 11 -13 18 16 29 17 -18 -19 21 23 -22 24 -24 -25 -26 -27 -28 -29 -30 -31
leaf_parent=7 20 3 9 22 6 5 25 7 28 15 19 11 18 16 29 27 16 17 21 23 20 24 22 23 24 25 26 27 28 29
leaf_value=1.2405257298396182 1.3802263553325944 1.7551556873321534 1.1771614154179892 1.2807015164693196 0.9143225066802082 2.0823705392725329 0.59011907815933218 1.7383663177490236 1.02160795211792 0.82951935903349927 0.93885753154754648 1.6478551517833364 0.40945558918488995 0.8407386711665561 0.82289163926068487 0.65202180972466095 1.1912963151931761 0.4869731921950976 0.37981009125709536 1.3425373224111701 1.0800911998748779 0.48732545650922338 1.0231820456186929 1.054474314776334 0.72710331167493558 0.8662833250485934 1.0527167876561483 0.87975945039228964 0.83511696595412033 0.98983412290874284
leaf_count=13 13 10 12 15 17 17 10 15 10 67 10 11 37 14 17 13 10 15 10 13 10 13 15 11 21 13 18 11 26 19
internal_value=0 13.197327082415661 7.9919372410896949 11.691983565811283 7.304334173580993 17.2450285381741 6.0544392407433056 15.072260447910853 10.340503562580455 8.3693854895905702 11.164094078648198 12.570485475328233 5.5495415576375446 8.0553336128592488 10.205190853639083 7.644908718764782 9.8680435617764797 6.5277526573492928 5.0064639743463495 11.306111167458926 12.497328094814135 5.7732957709919326 11.519417810440064 12.105084439118704 6.354235435233397 7.4621191335761026 9.4218560766290729 7.5640156169732409 8.8692001766628685 9.1100017229715977
internal_count=506 166 340 121 263 45 121 28 77 142 111 45 104 130 66 106 24 39 81 34 23 44 30 24 34 23 54 24 36 36
shrinkage=0.1


Tree=9
num_leaves=31
split_feature=6 6 0 8 3 11 7 10 8 5 9 3 6 4 6 0 8 7 6 1 10 10 5 3 11 0 10 10 6 6
split_gain=2448.0936392387957 819.28909220209607 444.73834476945558 303.16524056078197 283.58601844722216 283.42189499788401 156.37285331002204 139.81125266497747 123.57751396589993 122.89614169414381 121.25202344675927 180.10885790344673 91.192888532984171 78.341222317139909 76.946422091283239 66.989103607569177 62.374691473009079 58.091779862204476 54.276213494473495 47.360864030504217 44.20457893542789 42.192932955688775 41.447347885159161 41.241472210265783 40.048372179175203 30.337532543255293 26.718887585731864 25.031064688316746 24.749043771304514 52.440717344127734
threshold=9.7750000000000004 4.6500000000000004 69.950000000000003 14.75 5.6808650000000007 400 0.66349999999999998 7.4429999999999996 17.949999999999999 6.3049999999999997 6.5 8.0241349999999994 16.085000000000001 7.7340999999999998 6.7349999999999994 95.099999999999994 20.949999999999999 0.70649999999999991 19.899999999999999 150.345 5.9515000000000011 6.5504999999999995 3.3500000000000001 0.101185 312 99.650000000000006 6.3109999999999999 6.1479999999999997 34.390000000000001 14.145
decision_type=0 0 0 0 0 0 0 0 0 0 0 0 0 0 0 0 0 0 0 0 0 0 0 0 0 0 0 0 0 0
left_child=1 5 8 -3 9 7 12 -1 23 -4 14 21 -6 16 22 -15 28 -8 27 -19 -21 -12 -5 -2 -23 -14 -10 -18 29 -11
right_child=2 3 4 10 6 -7 17 -9 26 13 11 -13 25 15 -16 -17 18 19 -20 20 -22 24 -24 -25 -26 -27 -28 -29 -30 -31
leaf_parent=7 23 3 9 22 12 5 17 7 26 29 21 11 25 15 14 15 27 19 18 20 20 24 22 23 24 25 26 27 28 29
leaf_value=1.1164731630912192 1.2422037051274224 1.5796401262283326 1.0594452699025474 1.2029750490188595 0.92257094566638664 1.8741334746865665 0.36182019502827617 1.5645296541849774 0.79822801616456784 0.82208865207174553 0.84497177600860596 1.4830696322701193 0.4979850990431649 0.69044493675231922 0.81990015572971764 1.0293231793812343 0.58681963773874124 0.34182907223701475 0.43827587286631264 0.43859289884567265 0.66755162179470062 1.2082836077763481 0.95363387346267714 0.97208209991455075 0.94902687939730568 0.70616610731397356 0.94744510518180014 0.79178348454562109 0.85079973304972933 0.61660677989323931
leaf_count=13 13 10 12 10 13 17 33 15 36 23 10 11 14 10 36 14 13 10 15 13 24 13 20 10 11 14 18 11 17 27
internal_value=0 11.877594344587211 7.1927434981745835 10.5227852163236 6.57390073372384 15.520525556140475 5.448995285044032 13.565034261771611 9.3064532001297202 7.5324469259087472 10.047684671642545 11.313436953226725 7.0369607762592592 7.2498002391595104 9.1846717523806021 8.881239116191864 6.8804178519069028 4.6351629707962276 5.8749773624615793 5.3491994320078096 5.8710666508287996 10.17550009839675 10.367475986480713 11.247595289479131 10.894576072692871 6.0207560317856927 8.4796704583697853 6.8076140085856123 7.4656742562108969 7.1112844109535214
internal_count=506 166 340 121 263 45 121 28 77 142 111 45 41 130 66 24 106 80 39 47 37 34 30 23 24 28 54 24 67 50
shrinkage=0.1


Tree=10
num_leaves=31
split_feature=6 6 0 0 4 7 7 3 5 10 7 4 8 11 1 0 8 10 6 10 7 10 8 7 3 0 6 6 12 3
split_gain=1985.5514146218266 576.16119619621531 435.08171351229976 368.72555847574768 278.5963064810694 225.22213912283587 161.86583560718373 151.57635780051351 125.54305671023303 111.82105700049942 107.63973773474572 188.3741470563848 98.208677930878366 96.117582140903323 74.189155411728734 62.45965032552067 91.338049164260156 60.108352285071305 57.982354984635549 57.274050437908954 50.04479776027938 40.475568983512858 39.356030292658943 34.587076566873634 30.991889835042912 37.52741581054579 37.075053364230143 22.778304149697306 29.235119809882463 22.632376893100059
threshold=5.4100000000000001 10.039999999999999 82.950000000000003 69.950000000000003 2.4737 0.66349999999999998 0.62749999999999995 7.3855000000000004 3.3500000000000001 6.165 0.51249999999999996 4.8896499999999996 17.949999999999999 312 393.49000000000001 47.5 19.899999999999999 7.1814999999999998 19.899999999999999 5.759500000000001 0.51249999999999996 6.4365000000000006 20.949999999999999 0.755 0.14899000000000001 85.550000000000011 16.085000000000001 17.274999999999999 15 2.4126250000000002
decision_type=0 0 0 0 0 0 0 0 0 0 0 0 0 0 0 0 0 0 0 0 0 0 0 0 0 0 0 0 0 0
left_child=2 4 8 12 -2 6 10 24 -1 -6 11 -5 21 -4 -10 20 17 -17 23 -12 -11 -3 -21 -9 -7 -26 -27 -14 -29 -28
right_child=1 3 13 5 9 7 -8 18 14 15 19 -13 27 -15 -16 16 -18 -19 -20 22 -22 -23 -24 -25 25 26 29 28 -30 -31
leaf_parent=8 4 21 13 11 9 24 6 23 14 20 19 11 27 13 14 17 16 17 18 22 20 21 22 23 25 26 29 28 28 29
leaf_value=1.3247775228399981 1.3466729604280914 0.89593504758981535 1.4672999906539914 1.1447839173403649 0.62857951588100858 0.77412416636943826 1.070549476146698 0.42924625476201372 1.2053878116607661 0.88528516396232271 0.42108688354492191 0.5999610201517741 0.70043242684117069 1.9057462978363038 0.86212430491166969 0.76699953780454733 1.1961895772389004 1.0759755992889406 0.32800561570647091 0.69594480828805416 0.61732358932495124 1.1635366582870483 0.54883924761126124 0.66119909286499001 0.74590469056909736 0.67745150969578671 0.56967194263751675 0.72034561236699401 0.93679688527033889 0.3894005584716797
leaf_count=19 13 13 10 11 18 10 10 18 10 23 15 15 27 10 17 17 14 10 44 44 10 10 31 10 11 13 13 12 13 15
internal_value=0 7.0894996137950912 12.971398048328631 6.4488539210228781 9.1334644431159617 5.8853808373499374 6.8451924324035645 4.982871427075632 11.278427007405654 8.5211552355600446 6.5124077488636152 8.3046301511617813 8.4022272777557365 16.865231442451478 9.892589370409647 9.0648914704451684 9.889122491929589 8.8143511613210048 3.9959264729792872 5.9946546104219225 8.0408468679948282 10.122835739799168 6.3514117654164632 5.1208655408450534 6.1290010511875153 5.8189547795515795 5.3789300627824739 7.64118891954422 8.3290027427673348 4.7309798683438986
internal_count=506 440 66 335 105 260 126 134 46 92 116 26 75 20 27 74 41 27 72 90 33 23 75 28 62 52 41 52 25 28
shrinkage=0.1


Tree=11
num_leaves=31
split_feature=6 6 10 8 8 12 7 10 5 11 7 4 4 3 0 10 10 6 9 10 10 11 1 6 10 0 6 7 0 3
split_gain=1610.9792819166578 554.90959481259415 320.07454017244527 297.26389057327469 249.41333086032137 316.96151091023876 215.39920645094207 199.26528947188763 162.02921802580749 125.50172470945063 92.248781023191441 129.73770542563602 101.37813721502425 90.944879918088191 89.158096356893111 81.073460559122168 53.831105957505315 46.353125165961842 44.235088850435886 43.919219252361017 64.714663918829501 43.665940848527953 40.405658426318496 40.288157221218398 37.436459570107672 44.516055521801945 35.760160111678601 30.8632323817518 25.145696471496194 23.483562656279446
threshold=9.6050000000000004 3.3250000000000002 6.7264999999999997 19.649999999999999 18.75 31.5 0.66349999999999998 7.4429999999999996 3.6950000000000003 453 0.51249999999999996 5.7264999999999997 10.648 7.3855000000000004 35.799999999999997 8.5510000000000002 5.6340000000000003 25.16 4.5 8.5510000000000002 6.4045000000000005 312 378.08499999999998 16.325000000000003 6.3464999999999998 59.650000000000006 11.705 0.60699999999999998 98.849999999999994 2.7990599999999999
decision_type=0 0 0 0 0 0 0 0 0 0 0 0 0 0 0 0 0 0 0 0 0 0 0 0 0 0 0 0 0 0
left_child=1 -1 9 8 5 7 10 -4 -2 24 11 -5 23 18 -10 -6 -16 28 -8 20 -18 -7 -20 29 -3 -26 -21 -25 -15 -12
right_child=3 2 4 6 15 21 13 -9 14 -11 12 -13 -14 17 16 -17 19 -19 22 26 -22 -23 -24 27 25 -27 -28 -29 -30 -31
leaf_parent=1 8 24 7 11 15 21 18 7 14 9 29 11 12 28 16 15 20 17 22 26 20 21 22 27 25 25 26 27 28 29
leaf_value=1.5474997901916505 1.0925580310821534 0.5995737653512222 1.1168197848580097 1.0613548994064328 1.0164179960886635 1.0780368709564205 0.35007707118988041 1.6855751037597657 0.91023474080222 1.0322930812835693 0.53547484517097477 0.57365369995435078 0.8031757211685181 0.47718581064887672 0.46618115584055586 0.67693090053165661 0.66905741601620083 0.23721895447144142 0.44041033658114331 0.69349375854838957 0.93559414256702778 0.80008880725273723 0.6812392234802247 0.51458571420775523 0.85620388984680162 0.60342207821932714 0.45255350044795445 0.33162125647068025 0.31937978135214912 0.712425168355306
leaf_count=15 10 26 11 10 12 10 10 14 14 13 20 12 15 23 15 17 53 26 11 11 11 13 19 27 19 11 14 14 18 12
internal_value=0 9.6829922439889131 9.0879231695442986 5.8521192806354465 10.489536824938538 11.888456727067629 5.1392060919291414 14.353227634429931 7.0607299208641052 7.5238035830898564 6.1218309099023989 7.9533606334166089 5.6639484790238468 4.1290310454145773 6.7332002267999167 8.17408319382832 6.4142765677892246 3.4166869441075112 5.3222074151039127 6.7096358390336626 7.1486841589212418 9.2093579147173017 5.9293529828389486 5.177412438066038 6.8740061904702872 7.6351722558339441 5.58567214012146 4.521100457121686 4.0790511486006942 6.0183121636509895
internal_count=506 161 146 345 77 48 217 25 128 69 110 22 88 107 118 29 104 67 40 89 64 23 30 73 56 30 25 41 41 32
shrinkage=0.1


Tree=12
num_leaves=31
split_feature=6 6 0 1 11 4 0 10 7 7 0 5 10 10 11 3 7 0 8 10 6 3 7 3 9 7 11 6 4 2
split_gain=1310.0455129529655 373.50799645742882 307.88137491864381 247.4393696954503 207.20426807498916 197.90782879602011 153.77728477631081 107.86174056848267 101.45342725911178 98.394348143143588 92.139276623584465 154.47430270637506 84.873445348282075 74.44795443244152 71.944402048408392 71.036717382877214 76.747444946162886 48.280499592091473 76.651810381690666 41.292476481021367 40.676307632835687 43.023783821266079 37.998793965867435 37.916768777786842 28.977978103216174 26.788672078801483 24.054616083147266 23.541092482140584 22.769557342802273 21.00323678536688
threshold=5.4100000000000001 10.039999999999999 82.950000000000003 150.345 222.5 2.4737 41.299999999999997 5.5335000000000001 0.66349999999999998 0.70649999999999991 23.100000000000001 3.4249999999999998 6.165 6.7264999999999997 312 2.19577 0.59099999999999997 47.5 19.899999999999999 7.1814999999999998 34.390000000000001 0.25277499999999997 0.51249999999999996 15.100300000000001 16 0.52200000000000002 329.5 12.925000000000001 6.2949999999999999 1
decision_type=0 0 0 0 0 0 0 0 0 0 0 0 0 0 0 0 0 0 0 0 0 0 0 0 0 0 0 0 0 1
left_child=2 5 10 -3 -5 -2 13 23 15 -10 -1 -12 -7 -6 -4 20 -17 22 19 -19 25 -22 26 -8 -18 28 -14 -27 -9 -11
right_child=1 3 14 4 6 12 7 8 9 29 11 -13 17 -15 -16 16 24 18 -20 -21 21 -23 -24 -25 -26 27 -28 -29 -30 -31
leaf_parent=10 5 3 14 4 13 12 23 28 9 29 11 11 26 13 14 16 24 19 18 19 21 21 22 23 24 27 26 27 28 29
leaf_value=0.74071835884334236 1.1038690677055947 0.2580342925153673 1.1897375726699824 0.926141745703561 0.63516256570816032 0.49229017893473315 0.42422209978103631 0.64455473124980911 0.24819663747360834 0.58201084707094275 1.3400232505798337 0.84470361681545492 0.81304413080215443 0.96933607101440433 1.5690643501281738 0.56166983300989326 0.70573390483856191 0.61356836557388306 0.99675812721252444 0.86965852260589616 0.53126571814219148 0.79164055044000803 0.48163578152656561 0.1857369783023993 0.94093933538957053 0.55040214260419207 0.6083166382529519 0.3788609941800436 0.46233068108558656 0.46880033314228059
leaf_count=19 13 32 10 14 20 18 15 16 19 23 10 17 12 10 10 22 10 17 14 10 15 11 10 12 11 12 11 24 12 57
internal_value=0 5.7407499933784658 10.518463945100931 5.2249327456773216 5.5042293603860903 7.3864526408059259 5.3222202484376702 5.0739595812950355 5.2941111172067705 4.5276368266404274 9.0943136542792562 10.281553330244842 6.8703755269879876 7.4655373414357502 13.794009613990784 5.8646446116884849 6.9219553636950115 7.3440853550627425 8.0687466394610521 7.0841657188203602 5.3594850301742554 6.4142430103742161 6.4437486077799946 3.1822871245719768 8.2893674941289994 4.9309896007180214 7.1513098219166631 4.3604137698809309 5.6645870975085666 5.0134835589677094
internal_count=506 440 66 335 303 105 289 259 232 99 46 27 92 30 20 133 43 74 41 27 90 26 33 27 21 64 23 36 28 80
shrinkage=0.1


Tree=13
num_leaves=31
split_feature=6 6 0 1 11 11 3 7 7 0 10 10 7 7 11 10 7 8 5 2 4 3 0 8 10 1 0 3 3 6
split_gain=1063.7358515568121 329.13033450379589 245.90851279665458 202.41522368809274 171.45327046866259 166.61661988719516 122.72926774692678 152.739980759638 149.73900167227112 118.93549762919065 115.89774877761852 88.841084488884917 84.905313994159769 79.699420930215865 67.783359036416869 64.133179120546174 62.834107967432374 108.81426680720006 61.728287312721704 34.025094469002852 34.187598574733784 30.712584218555207 26.983314183858511 25.542081015533995 23.785226727787403 22.478554331943087 20.216210269753674 54.948987636342849 27.108220058957158 39.477484651683653
threshold=5.2000000000000002 9.7750000000000004 31.399999999999999 150.345 400 222.5 0.066295000000000007 0.62749999999999995 0.82050000000000001 41.299999999999997 7.4429999999999996 5.5335000000000001 0.66349999999999998 0.70649999999999991 329.5 6.7264999999999997 0.59099999999999997 21.050000000000001 4.6750000000000007 1 4.45465 15.100300000000001 88.450000000000003 19.899999999999999 6.4845000000000006 392.04500000000002 87.650000000000006 0.28174500000000002 2.19577 18.805
decision_type=0 0 0 0 0 0 0 0 0 0 0 0 0 0 0 0 0 0 0 1 0 0 0 0 0 0 0 0 0 0
left_child=2 6 14 -3 10 -5 25 18 -9 15 -4 21 16 -14 -1 -7 19 23 -8 20 -13 -11 24 -18 -20 -2 27 -15 29 -28
right_child=1 3 4 5 -6 9 7 8 -10 11 -12 12 13 26 -16 -17 17 -19 22 -21 -22 -23 -24 -25 -26 -27 28 -29 -30 -31
leaf_parent=14 25 3 10 5 4 15 18 8 8 21 10 20 13 27 14 15 23 17 24 19 20 21 22 23 24 25 29 27 28 29
leaf_value=0.87470363470224211 0.40310488700866698 0.23223086530342699 0.7297437824986196 0.83352756500244141 1.4069272586277553 0.56697715087370437 0.87746928691864012 1.2606016516685485 0.71335581719875329 0.38179989099502559 1.1887897274710917 0.70295954300807062 0.22337697541439222 0.38124170303344718 0.53741698969494223 0.87240246772766117 0.68437935590744015 0.44108798027038576 0.52704402446746801 0.45680490252259487 0.46342293240807275 0.16716327639296649 0.45712562203407292 0.91039741277694697 0.72140589461607096 0.57697202008346038 0.37538267016410826 0.70512843132019043 0.37268185891593114 0.65637193918228143
leaf_count=13 10 32 11 14 14 22 10 10 10 15 11 13 19 11 11 10 10 15 10 77 11 12 10 10 17 29 10 10 39 10
internal_value=0 5.1957352092623239 9.6805973947048187 4.716079077918959 11.333569508459833 4.9647824986861995 6.7342548758353828 7.5552036166191101 9.8697873443365101 4.804282824812951 9.5926675498485565 4.5819997348474297 4.7793802285685816 4.074873148548332 7.2011392240722971 6.6242256239056587 5.292219941230381 6.4468821116856168 6.5702743707819184 4.8920894861221313 5.9317192981640501 2.8640584006077714 5.9744855874293563 7.9738838434219357 6.4942001678325516 5.3239070391043635 4.5121352047193799 5.3547347840808683 4.2122268798619 5.158773046731949
internal_count=506 446 60 340 36 308 106 67 20 294 22 262 235 99 24 32 136 35 47 101 24 27 37 20 27 39 80 21 59 20
shrinkage=0.1


Tree=14
num_leaves=31
split_feature=6 6 3 0 11 7 7 7 10 5 6 9 1 11 10 5 11 10 10 3 3 7 6 7 6 7 0 6 0 7
split_gain=861.62599673372824 273.45840814595249 220.86392863107812 199.18589975457053 138.87714331616644 106.56829992010353 385.20606829213057 105.16256215623525 93.877177297875278 87.524287487854963 82.63473565713025 109.29812517765276 99.53718692059806 71.016025694178552 59.434757179976259 57.282093210263383 54.904518698038942 50.802979437422891 65.870304802958344 47.322842435330131 37.791903106323957 29.078009746454143 25.807887029220467 24.191825227831714 20.772278391738212 20.466856548925193 18.885046987527403 32.017433360430232 17.977760808455571 17.405032295442197
threshold=5.2000000000000002 12.199999999999999 0.14899000000000001 31.399999999999999 400 0.60699999999999998 0.70649999999999991 0.65100000000000002 7.4429999999999996 3.6950000000000003 34.390000000000001 4.5 393.16500000000002 278 6.423 4.0999999999999996 329.5 8.5510000000000002 6.4154999999999998 9.8700200000000002 10.753 0.755 18.134999999999998 0.51249999999999996 10.039999999999999 0.58450000000000002 85.550000000000011 16.085000000000001 93.349999999999994 0.44600000000000001
decision_type=0 0 0 0 0 0 0 0 0 0 0 0 0 0 0 0 0 0 0 0 0 0 0 0 0 0 0 0 0 0
left_child=3 5 9 16 8 14 -7 10 -5 -3 20 -12 -13 -8 -2 -16 -1 18 -11 26 22 -21 28 29 -15 -22 -9 -28 -4 -17
right_child=1 2 7 4 -6 6 13 19 -10 17 11 12 -14 24 15 23 -18 -19 -20 21 25 -23 -24 -25 -26 -27 27 -29 -30 -31
leaf_parent=16 14 9 28 8 4 6 13 26 8 18 11 12 12 24 15 29 16 17 18 21 25 21 22 23 24 25 27 27 28 29
leaf_value=0.78723325729370108 0.43887029147148138 0.84978585958480835 0.46373710632324211 0.65676939948038604 1.2662345205034529 1.188847045103709 0.71441187688282559 0.46468304225376678 1.0699107516895641 0.50353484769021317 0.35339717864990239 0.49461482025682912 0.9407923340797425 0.32949119508266445 0.75599490324656171 0.49514283140500376 0.48367528265172788 0.32414076030254368 0.79869377136230479 0.19018336629495025 0.3991480194605313 0.34042889232698242 0.22705991005196291 0.42651720921198533 0.51973872184753422 0.5894388294219971 0.48597175208005039 0.29432114284662975 0.3061730508009593 0.65672113577524827
leaf_count=13 50 10 14 11 14 12 14 14 11 31 14 10 10 11 15 12 11 10 10 40 13 19 17 15 12 10 11 42 15 15
internal_value=0 4.6761617012021253 4.1018581370341369 8.7125375673174865 10.200212486088276 5.7437773012580013 6.9651425766701598 3.6514454927116504 8.6334007558497508 5.7927515067037989 4.4009590595237258 5.6769506013130444 7.1770357716828581 5.3683875903889939 5.1844604928916862 5.882493456204732 6.4810251891613007 5.2623383519696256 5.7552482907365006 3.038747894444636 3.7722096041492792 2.3856751874594364 3.2488986350919888 5.2834021789687018 4.2875077426433563 4.8188315422638599 3.6138417707450352 3.3409768438564158 3.822384569151648 5.8490855605513961
internal_count=506 446 290 60 36 156 49 229 22 61 103 34 20 37 107 57 24 51 41 126 69 59 46 42 23 23 67 53 29 27
shrinkage=0.1


Tree=15
num_leaves=31
split_feature=6 6 10 1 8 12 10 11 11 0 9 10 7 7 10 6 3 8 10 1 7 6 9 0 3 6 11 6 8 11
split_gain=706.76091963204635 283.66324099895792 153.14932121259153 147.90055490901705 133.45996590294271 142.5702752262705 140.9755682198097 122.68807481705335 96.079646723181213 79.599226921052832 63.175744792146133 62.586531825557813 52.912981632149695 54.947413055366951 49.909342933369658 48.278692544483874 76.520646275989179 35.016826791861604 32.214851791474075 24.407315911809746 24.335423003938217 24.265605324191739 20.542318677761614 24.96367652044637 57.783961067253472 32.671829014832781 20.476653245123202 17.696020215792203 14.202764797790451 12.104083513019191
threshold=9.7750000000000004 3.3250000000000002 6.6784999999999997 150.345 18.75 31.5 7.4429999999999996 222.5 453 41.299999999999997 4.5 5.5335000000000001 0.66349999999999998 0.70649999999999991 6.7264999999999997 34.390000000000001 0.54528500000000002 20.949999999999999 8.5510000000000002 376.07500000000005 0.51249999999999996 29.609999999999999 4.5 87.650000000000006 2.19577 19.899999999999999 329.5 16.085000000000001 19.050000000000001 431
decision_type=0 0 0 0 0 0 0 0 0 0 0 0 0 0 0 0 0 0 0 0 0 0 0 0 0 0 0 0 0 0
left_child=1 -1 8 -2 5 6 -4 -5 20 14 -6 21 15 -14 28 17 -17 19 -7 -13 26 -11 -15 -24 -25 -26 -3 -19 -9 -21
right_child=3 2 4 7 10 18 -8 9 -10 11 -12 12 13 22 -16 16 -18 27 -20 29 -22 -23 23 24 25 -27 -28 -29 -30 -31
leaf_parent=1 3 26 6 7 10 18 6 28 8 21 10 19 13 22 14 16 16 27 18 29 20 21 23 24 25 25 26 27 28 29
leaf_value=1.0478242953618369 0.17673143355641516 0.52113508352866533 0.69342391490936262 0.69183423178536563 0.70700969858603024 0.70022072451455253 1.1433421929677328 0.36550836443901047 0.7269966308887188 0.31781267481190817 0.40587370395660405 0.5798416662216187 0.17873237936904557 0.25788579087571373 0.72296054601669324 0.39660422906279563 0.69000792205333716 0.36576557975748314 0.46521974533796301 0.44185341306634857 0.33678504079580307 0.12808016446920542 0.49566160931306724 0.55686040032993667 0.38456299841403963 0.1988564271065924 0.35275370359420777 0.21979899085485022 0.52687255541483569 0.33991508343640497
leaf_count=15 32 26 13 14 11 14 15 10 13 14 19 10 19 14 10 20 16 23 10 37 20 13 17 11 20 18 10 13 12 17
internal_value=0 6.3307053674775435 5.9186983224966667 3.8135036495870307 6.8425168834808394 7.8115252663309755 9.3445156386920392 4.0260947471478499 4.820826989153157 3.888368672352335 5.1629023532072704 3.7065221067795258 3.8721897707300936 3.3160306766083596 5.3772374279797077 4.2770408760098846 5.2700587039192515 3.919554457962513 6.0230364985764027 4.3633670881390572 4.2522767899291853 2.2645998464690313 3.6790985613013616 3.9124829421440759 3.5502326652711753 2.9659672779472253 4.7436247799131603 3.1305542265375457 4.5352519588036975 4.097617167013663
internal_count=506 166 151 340 82 52 28 308 69 294 30 262 235 99 32 136 36 100 24 64 56 27 80 66 49 38 36 36 22 54
shrinkage=0.1


Tree=16
num_leaves=31
split_feature=6 6 3 1 0 1 11 11 0 7 10 6 3 9 6 11 7 8 10 3 6 6 10 9 10 11 1 10 7 11
split_gain=573.41615561391336 226.04695314581204 126.65304684312559 163.53225646433475 123.87801868035194 122.06423050998001 102.81014804787924 99.132307552193197 63.744378124133164 59.166396836929607 54.842514734693623 45.479421455468582 48.408889833969624 70.733031709272154 47.417547379021016 67.87903961129166 43.618578249582015 42.642349791528545 40.42657007777143 31.623815707473341 27.020321312737593 25.867612253028256 32.125701019787812 23.109095375622246 25.428552339021735 16.158316521079712 16.019531380997137 16.004130717592048 11.637836186910306 11.540577717719316
threshold=9.6050000000000004 3.3250000000000002 0.22082499999999999 386.80000000000001 86.700000000000003 97.340000000000003 222.5 222.5 41.299999999999997 0.51249999999999996 6.5314999999999994 12.199999999999999 5.6808650000000007 4.5 34.390000000000001 431 0.51249999999999996 18.75 6.7264999999999997 1.56592 17.98 17.98 6.0390000000000006 5.5 7.1210000000000004 332 394.98500000000001 5.3944999999999999 0.46199999999999997 453
decision_type=0 0 0 0 0 0 0 0 0 0 0 0 0 0 0 0 0 0 0 0 0 0 0 0 0 0 0 0 0 0
left_child=1 -1 6 -4 16 -2 -3 -7 18 10 25 19 13 17 -15 26 -5 -13 28 -10 -19 -14 27 24 -12 -8 -16 -23 -9 -21
right_child=5 2 3 4 -6 7 9 8 11 -11 23 12 21 14 15 -17 -18 20 -20 29 -22 22 -24 -25 -26 -27 -28 -29 -30 -31
leaf_parent=1 5 6 3 16 4 7 25 28 19 9 24 17 21 14 26 15 16 20 18 29 20 27 22 23 24 25 26 27 28 29
leaf_value=0.94304187059402467 0.14467527030834132 0.76922088146209722 1.0240483045578004 0.55975943168004338 0.80449722766876219 0.62265079872948792 0.44748924459729866 0.34177786310513802 0.3503438323736191 0.28914074708114973 0.52910347901857813 0.39311910311381026 0.33926140027386803 0.35150903800748434 0.48837336626919803 0.72164516083896169 0.30397071540355686 0.29758939439287546 0.65066449880599986 0.4381309953602876 0.10839068359798856 0.22331769402538024 0.28969353998408603 0.45013643354177479 0.74120953083038332 0.2926631198479579 0.31349414587020874 0.074653836886088051 0.48784645318984987 0.58298564173958523
leaf_count=15 28 10 10 15 15 14 14 12 28 22 13 15 28 53 11 10 12 13 10 11 18 14 34 12 10 13 10 15 10 11
internal_value=0 5.7336933261119061 5.3538927733898163 6.6061502924332256 5.7408329702558971 3.4481590686500936 4.6611545713658025 3.6249394416339014 3.5047349543756385 4.3003147805020925 4.8002496323277875 3.3471227025963723 3.1522676437014368 3.5438430837713755 4.0896998941011375 5.0720968051783499 4.4607555777938277 2.5470610822996367 4.8395137116312981 4.208382062911987 1.8773207844745727 2.5928741578872385 2.2374342268421534 5.6263079251561843 6.2132350154545 3.7294333268094948 4.0509754703158416 1.4642259550505672 4.0817267678000713 5.1055831854993645
internal_count=506 161 146 52 42 345 94 317 303 84 62 271 221 130 84 31 27 46 32 50 31 91 63 35 23 27 21 29 22 22
shrinkage=0.1


Tree=17
num_leaves=31
split_feature=6 11 6 0 3 3 7 7 6 4 10 0 11 8 1 11 10 7 0 3 3 9 1 7 6 3 0 6 0 7
split_gain=465.68125240821882 158.27664272017864 139.39274648179708 131.31261758045912 84.175949682773535 82.428260395249254 73.932490143724863 288.16653603876171 67.34203708220798 70.222937454488601 59.643064184035893 108.97447947731018 50.145684818267455 45.163873795598306 40.308835573294857 31.641263477388748 24.049535503746711 24.888262271949657 15.679611338527934 20.713796909464236 15.454287494406572 29.103365963042336 15.010109628269333 15.87204603098337 19.808817922276319 27.264768235228701 17.278142213810675 13.727826520737096 13.622299616769936 9.8740486213466738
threshold=5.2000000000000002 222.5 12.199999999999999 82.950000000000003 5.6808650000000007 0.069080000000000003 0.60699999999999998 0.70649999999999991 34.390000000000001 2.50705 6.9595000000000002 17.100000000000001 688.5 19.899999999999999 391.18000000000001 312 6.4845000000000006 0.51249999999999996 89.849999999999994 0.083389999999999992 0.14899000000000001 16 97.340000000000003 0.60699999999999998 17.98 12.1477 97.950000000000003 9.4000000000000004 93.849999999999994 0.432
decision_type=0 0 0 0 0 0 0 0 0 0 0 0 0 0 0 0 0 0 0 0 0 0 0 0 0 0 0 0 0 0
left_child=3 5 6 10 8 -2 16 -8 20 -10 -1 -12 18 -6 -9 -5 -3 29 19 -11 -4 28 -15 -24 -25 -26 -27 -16 -22 -18
right_child=1 2 4 15 13 -7 7 14 9 12 11 -13 -14 22 27 -17 17 -19 -20 -21 21 -23 23 24 25 26 -28 -29 -30 -31
leaf_parent=10 5 16 20 15 13 5 7 14 9 19 11 11 12 22 27 15 29 17 18 19 28 21 23 24 25 26 26 27 28 29
leaf_value=0.38317682668566705 0.8163816142082212 0.30986957985621233 0.35695231854915621 0.72077224195003486 0.37815088927745821 0.41969150521538473 0.93194985191027324 0.52260043485598129 0.19008626838525136 0.35601687133312221 0.38030426383018479 0.81252341355596269 0.62048662619532224 0.12212763054385073 0.22751086737428389 0.97233242750167848 0.36920851290225987 0.29923187642668686 0.32398469224572185 0.53821233602670526 0.27221314508467914 0.34500711373984816 0.30986336708068851 0.28577651348378924 0.26100025971730551 0.20020836479961868 0.046936674965055367 0.38091691970825198 0.16332583653706093 0.48678260898590092
leaf_count=16 10 52 19 10 16 11 12 11 12 12 10 14 14 21 14 10 10 15 16 13 20 24 15 18 18 12 19 10 27 25
internal_value=0 3.4059710527431939 3.2735502647739998 6.3733743915955223 2.852761422233332 6.0859155711673552 4.0529980536412769 5.0907073078003338 3.3335599463705901 4.0926217742736881 5.3272999137639996 6.3243210117022199 4.5708237576383084 2.2184305962707316 3.640836035353797 8.4655233472585678 3.5748379071170064 4.0700257000140843 4.0128580244576062 4.507585129737854 2.7684805855982835 2.554117072950786 1.9756223172021723 2.1688084909465255 1.9606386745598778 1.6310820156822399 1.0626765167520893 2.9143005584677062 2.0966086145094098 4.5319001010486062
internal_count=506 446 425 60 276 21 149 47 157 67 40 24 55 119 35 20 102 50 41 25 90 71 103 82 67 49 31 24 47 35
shrinkage=0.1


Tree=18
num_leaves=31
split_feature=6 6 10 3 8 12 10 7 6 4 2 12 6 10 10 12 11 7 5 6 3 3 3 11 3 7 6 4 1 3
split_gain=387.92456502032746 156.93169780443213 90.483035163303157 81.576893204783119 81.369867456032352 84.568177550997234 105.588411413632 80.049410556014095 76.636647188325696 75.646167291488837 91.114810585994746 51.831795611393488 37.214088649632231 33.641960739441402 61.170770576051041 24.836615588570908 24.539950862304465 22.839931245073842 21.024888771202285 18.879425653936437 17.454309341812831 15.564889910728539 14.557700216210151 18.189240713004892 12.989915321732724 11.285802086972012 10.470659209481354 10.237749276570071 10.060044477822544 10.035221038895671
threshold=9.7750000000000004 3.3250000000000002 6.6784999999999997 5.6808650000000007 18.75 31.5 7.8254999999999999 0.62749999999999995 34.390000000000001 2.50705 1 34.5 17.98 8.5510000000000002 6.4365000000000006 72.5 312 0.60699999999999998 23.77 17.109999999999999 12.1477 0.052450000000000004 1.56592 278 0.438745 0.82050000000000001 24.030000000000001 3.65225 394.38 33.158850000000001
decision_type=0 0 0 0 0 0 0 0 0 0 1 0 0 0 0 0 0 0 0 0 0 0 0 0 0 0 0 0 0 0
left_child=1 -1 7 8 5 6 -4 21 19 -10 -11 -6 15 14 -12 27 -7 -14 20 22 28 -3 23 -2 -23 -21 -22 -5 -19 -28
right_child=3 2 4 12 11 16 -8 -9 9 10 13 -13 17 -15 -16 -17 -18 18 -20 25 26 24 -24 -25 -26 -27 29 -29 -30 -31
leaf_parent=1 23 21 6 27 11 16 6 7 9 10 14 11 17 13 14 15 16 28 18 25 26 24 22 23 24 25 29 27 28 29
leaf_value=0.77200694084167487 0.38635042111078899 0.21373514417144987 0.54140158821554729 0.29421113434319318 0.2727163315383031 0.5614421892166136 0.93901986642317348 0.54451696425676344 0.17107763861616454 0.64210373794331277 0.31820842466856303 0.54547942768443713 0.27176672194741275 0.23426479422129118 0.61452739780599419 0.18521006494346592 0.35633615031838417 0.17680299006402489 0.027594737646480402 0.14881484032992054 0.043794570663012566 0.37499592520973901 0.366900514350051 0.25250855114198095 0.2489136127325205 0.27005837341504429 0.10555062294006345 0.40929649688980796 0.31864828944206236 0.2411895009875297
leaf_count=15 12 18 17 26 19 10 11 16 12 17 19 11 19 13 11 18 14 10 12 17 10 22 21 66 13 14 12 11 10 10
internal_value=0 4.6351477702804669 4.3286986009291812 2.7702484236660361 5.0387875037438166 5.7954179859505253 6.9760876893997192 3.4848248323668605 3.1751113228389238 4.0027637469271822 4.4611612190802896 3.7272946679188559 2.1776230205289102 3.6863264580105626 4.2685871481895443 2.8155512959442355 4.417969998593132 1.7548994645308029 1.4690777872820036 2.716719211036196 1.7444155743936649 2.8930226255137965 2.9299677000051796 2.730996080602591 3.2816535200391499 2.0356998430384743 1.2863900599331828 3.284257015867813 2.4772563975304367 1.672046584161845
internal_count=506 166 151 340 82 52 28 69 202 72 60 30 138 43 30 55 24 83 64 130 52 53 99 78 35 31 32 37 20 22
shrinkage=0.1


Tree=19
num_leaves=31
split_feature=6 6 3 1 0 1 11 5 10 7 6 0 7 6 10 11 7 10 11 10 1 10 3 12 7 6 4 8 4 0
split_gain=316.07539610505319 124.84278266053934 77.021384747502452 107.87899748801374 76.455862730059494 73.47823479267845 66.815891009498728 64.104866798741568 48.066144377156434 52.841696472116837 58.963585309150176 108.66105064237229 45.551313421775717 40.975432442068154 36.488625091471988 36.38829251663816 34.359951726092788 32.757083110091116 27.127136458508872 26.924633032990812 20.739007689467144 26.781620841869312 17.303943860559514 16.48036907775986 16.325022298867111 14.34148548793992 13.084497179239747 12.735110948277963 12.720236723186275 20.046984819803441
threshold=9.6050000000000004 3.3250000000000002 0.22082499999999999 386.80000000000001 86.700000000000003 150.345 222.5 3.1050000000000004 6.0390000000000006 0.65100000000000002 34.390000000000001 96.75 0.51249999999999996 18.134999999999998 8.5510000000000002 298 0.70649999999999991 6.165 453 6.5504999999999995 388.94499999999999 6.9595000000000002 14.28495 6.25 0.52200000000000002 12.925000000000001 6.1387999999999998 20.949999999999999 2.50705 87.950000000000003
decision_type=0 0 0 0 0 0 0 0 0 0 0 0 0 0 0 0 0 0 0 0 0 0 0 0 0 0 0 0 0 0
left_child=1 -1 6 -4 15 -2 -3 -7 13 10 22 14 17 26 19 -5 -11 -8 -15 -12 -19 -22 24 28 -10 -26 27 -9 -18 -30
right_child=5 2 3 4 -6 7 12 8 9 16 11 -13 -14 18 -16 -17 23 20 -20 -21 21 -23 -24 -25 25 -27 -28 -29 29 -31
leaf_parent=1 5 6 3 15 4 7 17 27 24 16 19 11 12 18 14 15 28 20 18 19 21 21 22 23 25 25 26 27 29 29
leaf_value=0.69480624755223597 0.10606009117327631 0.58218538999557501 0.78469248294830329 0.47002757966518383 0.60024376392364509 0.51426167428493508 0.19609864746982403 0.32585622614080256 0.32168576079938149 0.10350243676015561 0.29990099370479578 0.71857753992080697 0.18512218360873789 0.21898986872817791 0.18197750061750406 0.22962547803626343 0.17405295277014377 0.25724503174424174 0.082129933610558523 0.53195544004440309 0.35647213917512161 0.5242667675018311 0.38222489207983018 0.35146733745932579 0.28226038465897235 0.1376413460209733 0.19799777330322699 0.21472927848498027 0.38139147054065348 0.19796494789994681
leaf_count=15 32 10 10 10 15 10 11 33 18 17 10 10 22 28 10 17 20 10 30 10 26 15 12 16 12 16 22 15 11 13
internal_value=0 4.2008036294986741 3.9185510083318573 4.895094271462697 4.1922774719340463 2.5039354005356089 3.3783355861743716 2.65149675402344 2.5692815728740701 2.9099126670163655 3.3969942137209355 4.331028685718775 3.0874405488194454 2.1035749988513999 3.3794464478890101 3.1866329345438213 2.2899906984832765 3.5260988017243724 1.4820024711561615 4.1592821687459942 3.8636720487300087 4.178604178312348 2.7528325088948398 2.6455644922330976 2.4738543144852407 1.9962093400868721 2.6185922360845972 2.9112905499835811 2.3295248986475845 2.8203543744360409
internal_count=506 161 146 52 42 345 94 313 303 175 98 40 84 128 30 27 77 62 58 20 51 41 58 60 46 28 70 48 44 24
shrinkage=0.1


Tree=20
num_leaves=31
split_feature=6 4 10 5 10 0 1 10 11 0 9 7 10 0 3 3 12 8 6 3 1 0 8 9 6 0 4 4 4 1
split_gain=256.0210728836928 102.13202224304996 91.293775913706668 80.35494793823716 78.314312226414131 76.814149542844746 59.540426808290476 57.996003501687596 52.369870977666324 31.041414484510369 28.991155117222206 50.850244767157847 59.07933932716719 127.5263076126206 28.933582292406982 34.214231932205394 37.908138211032565 27.856938507275231 37.301216797167335 23.220695135117978 25.136154648168514 21.998869075867589 17.496551594093404 13.710760873669614 12.589989005681261 11.750105567574309 11.645585261669424 10.36767705403804 10.188885562665348 21.78669312225108
threshold=9.6050000000000004 2.8126500000000001 6.9595000000000002 14.48 8.5510000000000002 47.5 97.340000000000003 7.6654999999999998 219 31.399999999999999 4.5 0.65100000000000002 6.6784999999999997 96.75 0.052450000000000004 33.158850000000001 6.25 18.75 17.98 12.1477 384.755 97.450000000000003 18.449999999999999 4.5 6.3250000000000002 42.349999999999994 3.39425 5.4333999999999998 2.2084999999999999 393.16500000000002
decision_type=0 0 0 0 0 0 0 0 0 0 0 0 0 0 0 0 0 0 0 0 0 0 0 0 0 0 0 0 0 0
left_child=1 3 14 -1 7 -6 -2 27 -8 23 17 12 -12 26 24 16 -16 22 -19 28 -21 -22 -11 -10 -3 -18 -14 -4 -13 -30
right_child=6 2 4 -5 5 -7 8 -9 9 10 11 19 13 -15 15 -17 25 18 -20 20 21 -23 -24 -25 -26 -27 -28 -29 29 -31
leaf_parent=3 6 24 27 3 5 5 8 7 23 22 12 28 26 13 16 15 25 18 18 20 21 21 22 23 24 25 26 27 29 29
leaf_value=0.37855918645858755 0.085573540761002487 0.26086424222359283 0.36267944127321233 0.77022856311364618 0.19570728211026439 0.52776080911809753 0.44261416842540102 0.70512802417461695 0.26991660378196014 0.18055302202701567 0.23677806468148319 0.27651955397040756 0.19671238384802228 0.6974831613898278 0.48755931218465176 0.16361243643543938 0.35165416672825806 0.20874403244392439 0.024596816640008581 0.24619129584836111 0.17546167309795102 0.0038144445046782494 0.35131870746612548 0.43170377552509315 0.12419875200305666 0.20856793820858002 0.33651595390759986 0.50336646275086838 0.10173814405997594 0.25418203318119054
leaf_count=10 28 13 10 11 19 11 12 13 11 15 70 27 11 10 15 11 12 22 22 14 14 16 10 10 14 11 13 11 15 25
internal_value=0 3.7807232682008922 3.4722527542284558 5.8371933613504678 4.3522339183837175 3.1746024201313654 2.2535418560539466 5.3913205344887345 2.3770074098597189 2.2963857334901077 2.2096353688237951 2.390635506496873 2.8930615158393405 3.9745221285368588 2.7312159844134984 3.18922934787614 3.6388123694219088 1.6456494325960891 1.1667042454196648 1.9198940202660926 1.3554937903007322 0.83916484514872236 2.4885929620265959 3.4695811413583302 1.9000065470183338 2.8322162265362949 2.7243931763029345 4.3637264299960368 2.2905449175567769 1.9701557476073503
internal_count=506 161 140 21 64 30 345 34 317 305 284 215 104 34 76 49 38 69 44 111 44 30 25 21 27 23 24 21 67 40
shrinkage=0.1


Tree=21
num_leaves=31
split_feature=6 11 0 8 7 7 3 8 5 8 12 10 6 11 7 0 0 10 11 3 11 6 10 9 10 4 8 5 4 4
split_gain=209.44712298161403 85.509326678869911 66.537144880705227 61.336298321976528 60.141745311423392 170.56212754279613 57.418743507334682 42.679408550701737 36.573389666187381 37.208288882716772 28.52552091489315 80.358076885828837 27.642967945189866 24.934213963473724 22.850800368108764 19.852895646443812 35.752832936272512 17.478457788353509 17.115316298106393 18.3125446672762 16.957801385608377 15.526135925495936 14.288034188747417 21.234004608532096 14.831566991784769 13.099738874390228 12.928951024470138 12.469543589032895 9.7170117979675581 8.600978905886393
threshold=5.2000000000000002 222.5 82.950000000000003 13.699999999999999 0.67500000000000004 0.62749999999999995 0.069080000000000003 19.050000000000001 2.9100000000000001 17.5 31.5 6.6784999999999997 34.390000000000001 298 0.6964999999999999 89.25 98.450000000000003 8.5510000000000002 329.5 12.1477 312 30.715 8.5510000000000002 7.5 6.4365000000000006 2.2771999999999997 21.600000000000001 8.3500000000000014 4.5214999999999996 4.8896499999999996
decision_type=0 0 0 0 0 0 0 0 0 0 0 0 0 0 0 0 0 0 0 0 0 0 0 0 0 0 0 0 0 0
left_child=2 6 8 -3 5 10 -2 13 -1 -10 15 27 -13 -6 -9 22 25 -15 -16 26 -4 -21 24 -24 -5 -17 -20 -12 -29 -18
right_child=1 3 20 4 7 -7 -8 14 9 -11 11 12 -14 17 18 16 29 -19 19 21 -22 -23 23 -25 -26 -27 -28 28 -30 -31
leaf_parent=8 6 3 20 24 13 5 6 14 9 9 27 12 12 17 18 25 29 17 26 21 20 21 23 23 24 25 26 28 28 29
leaf_value=0.50275674489411448 0.59336060404777502 0.44628100666132842 0.47880681842565526 0.21730662675227153 0.34108699751086535 0.54302385913975104 0.26227511472322723 0.022406249100135434 0.41427065225747906 0.18650555126369001 0.13853767390052479 0.32043829904869203 0.52636747576973641 0.2419034290556355 0.043193168432584833 -0.026794662922620768 0.25635546232972828 0.078570498824119539 0.17336877905405487 0.15138567065199215 0.66296871125698098 -6.3171982765197737e-06 0.051266920024698431 0.25260654643177982 0.32585870772600178 0.1146066747017597 0.29612344286658548 0.28361409674672516 0.15938486874103547 0.15721066832542419
leaf_count=11 10 11 10 59 16 17 11 18 13 16 24 16 11 19 14 10 21 10 39 21 10 10 11 10 16 19 11 17 10 15
internal_value=0 2.2295396507674861 4.2196144650379814 2.132207908748156 2.0702836968242035 2.3697144507750636 4.1993487154444056 1.5851300701696449 3.474982873350382 2.8860714826090583 2.1520202650404125 2.6483650671748014 4.0433537104615462 2.4087249112160256 1.2571498237352456 1.9115550813976652 1.4848007575250588 1.8558172897580241 1.4528926867795617 1.6293550822653888 5.7088776484131811 1.0254954553900226 2.2005033215197423 1.4714293259949911 2.4046440402666729 0.65847592762318152 2.0037480509281158 1.9098416677877015 2.3760327155943268 2.1504513149460158
internal_count=506 446 60 425 414 256 21 158 40 29 239 78 27 45 113 161 65 29 95 81 20 31 96 21 75 29 50 51 27 36
shrinkage=0.1


Tree=22
num_leaves=31
split_feature=6 3 1 4 11 11 5 1 7 10 10 10 6 7 6 1 10 12 11 9 12 0 4 9 0 4 0 0 6 0
split_gain=178.42270846310612 77.046257243208856 90.094746470013206 73.908699775360446 105.31524567775278 72.402932885226846 46.789574643297783 40.505337272468523 32.297636629137571 32.027425320871544 36.554181955359581 88.629295117661854 58.0901053389656 28.453216545779171 25.676190484889673 21.097162780436804 24.954627938223723 34.173090369116437 18.166646219812236 17.894113746640812 21.808280908408875 18.468691170204693 17.14350557119748 9.8950308011228003 15.335922335027675 9.8316116097125814 9.3473051737090032 9.0620788220283863 8.7811719726405215 7.7682180503644247
threshold=9.6050000000000004 0.22082499999999999 386.80000000000001 2.8126500000000001 278 222.5 3.1050000000000004 150.345 0.51249999999999996 6.0390000000000006 8.5510000000000002 6.6784999999999997 34.390000000000001 0.52800000000000002 18.134999999999998 386.02499999999998 6.9595000000000002 72.5 453 5.5 23.5 91.849999999999994 4.2546999999999997 5.5 99.650000000000006 4.2546999999999997 73.25 59.650000000000006 14.795 87.650000000000006
decision_type=0 0 0 0 0 0 0 0 0 0 0 0 0 0 0 0 0 0 0 0 0 0 0 0 0 0 0 0 0 0
left_child=1 5 -3 -4 -5 -1 -2 -8 15 14 11 23 -13 -6 25 -7 -17 -18 -16 22 21 -21 -12 24 -11 -9 -27 -10 -25 -30
right_child=6 2 3 4 13 8 7 9 27 10 19 12 -14 -15 18 16 17 -19 -20 20 -22 -23 -24 28 -26 26 -28 -29 29 -31
leaf_parent=5 6 2 3 4 13 15 7 25 27 24 22 12 12 13 18 16 17 17 18 21 20 21 22 28 24 26 26 27 29 29
leaf_value=0.48608345588048296 0.3944823753833771 0.64365251567214732 0.56488390964540569 0.52902579741044486 0.24949313998222347 0.13879958284087479 0.067969562695361682 0.22441570726600857 0.1778748547037442 0.19920817237833274 0.017723982887608663 0.25955960929393762 0.59257506240497937 0.037749494205821646 0.15698075741529466 0.23422598779201509 0.2435362146794795 0.50496723949909217 0.044982379411036777 0.24593823730945577 0.31315980106592178 0.061929359411199897 0.16715549283167896 0.24090606011450291 0.33866328199704493 0.19502427107409429 0.087338242014603953 0.04898028083145619 0.21914632171392442 0.12187715283093543
leaf_count=12 10 12 11 11 15 12 32 37 12 23 14 10 11 11 28 35 10 10 30 10 12 12 17 16 12 19 14 10 12 26
internal_value=0 3.0882186425838225 3.985746416946252 3.3730517320024469 2.696466299327644 2.5550338261308942 1.8133136063463231 1.7496864377646082 2.2441393453209253 1.8626887676192343 2.1407405349399364 2.4920661749148909 4.3399627520924522 1.5990928984605348 1.4825398669854621 2.5893341953129467 2.8514443844556809 3.7425172708928587 0.99050561895850919 1.5461894519053974 2.0471918525941231 1.4556975845586171 0.99670294792421399 2.0560456342325453 2.4702135281903401 1.8902253867792231 1.4933928904885596 1.1928641203452239 1.7876034807413816 1.5259373247819512
internal_count=506 161 60 48 37 101 345 335 89 303 175 110 21 26 128 67 55 20 58 65 34 22 31 89 35 70 33 22 54 38
shrinkage=0.1


Tree=23
num_leaves=31
split_feature=6 7 7 11 10 5 1 10 10 10 4 5 5 1 4 3 3 1 6 11 4 0 5 5 7 0 3 0 11 0
split_gain=145.0252239512879 66.507414284048764 235.89428062097943 96.736770052874277 56.019864911198852 38.272429900173165 32.174125689896073 24.292920097912884 27.399562229063463 88.006637740499627 35.813713173368512 22.826812682816353 20.914774290714405 23.314884197546348 20.548042476263902 20.279960170786964 30.567861416778584 29.938512057309381 13.29134280673145 16.754047782667676 13.80949311851225 12.764422952651504 12.483044012927323 13.664495619349637 11.14299379230016 11.356961142704165 10.674160194265085 10.22836042522178 8.9679019881530735 13.110196285308419
threshold=9.7750000000000004 0.60099999999999998 0.71550000000000002 278 6.6784999999999997 3.1050000000000004 150.345 5.9515000000000011 8.5510000000000002 6.6784999999999997 3.1221999999999999 3.6950000000000003 6.0800000000000001 393.38 5.4009 0.22922500000000001 0.61312 378.66499999999996 18.134999999999998 453 2.3197000000000001 99.650000000000006 18.84 9.125 0.755 91.099999999999994 1.2280250000000001 97.049999999999997 329.5 58.600000000000001
decision_type=0 0 0 0 0 0 0 0 0 0 0 0 0 0 0 0 0 0 0 0 0 0 0 0 0 0 0 0 0 0
left_child=1 4 -3 -4 28 -2 -7 18 9 24 -11 14 -13 -14 -6 -10 -17 -18 20 -20 -8 -19 23 -22 25 -9 -27 -26 29 -1
right_child=5 2 3 -5 11 6 7 8 15 10 -12 12 13 -15 -16 16 17 21 19 -21 22 -23 -24 -25 27 26 -28 -29 -30 -31
leaf_parent=29 5 2 3 3 14 6 20 25 15 10 10 12 13 13 14 16 17 21 19 19 23 21 22 23 27 26 26 27 28 29
leaf_value=0.24361541757458138 0.35503413438796999 0.68924010824412107 0.36832349629778616 0.021896328777074814 0.46509081777185185 0.061172607069602238 0.26288069757548244 0.2001732776174322 0.046622661069819805 0.27255944542586791 0.54019245225936174 0.13107004680416801 0.4158137834072112 0.22338321940863837 0.28952868143717447 0.32393607467412955 0.25209946334362032 0.1391807264089584 0.1507040105611086 0.037095815453816343 0.11010195896029469 -0.013794572511687872 0.051151542613903679 0.25326879670222602 0.18380869496613739 0.19023246037609437 0.090434350895470583 0.30907335376197642 0.10326982662081718 0.11608295415395074
leaf_count=19 10 16 19 14 12 32 11 40 19 10 10 11 10 17 15 10 12 10 25 27 15 12 12 12 16 17 29 11 19 14
internal_value=0 2.7632506551804492 3.7413340335597796 2.2135439492536313 2.3536259924403877 1.6229916040237773 1.5645870664523858 1.6669077102919954 1.8728776201985928 2.1302063229136672 4.0637594884261485 2.9725297097976391 2.4730060733854771 2.9465379866736905 3.6755629758592003 1.3296281366889913 1.7024606138213791 1.2504311629625804 1.2711223932165725 0.91715140024629926 1.6392522259056568 0.55739654270424088 1.3601470400507634 1.7373166462337528 1.7879845237079184 1.6120324543092486 1.273162609209185 2.3484244484592369 1.5799963457438235 1.8951073612340472
internal_count=506 166 49 33 117 340 330 298 196 133 20 65 38 27 27 63 44 34 102 52 50 22 39 27 113 86 46 27 52 33
shrinkage=0.1


Tree=24
num_leaves=31
split_feature=6 6 7 7 7 10 11 11 1 9 11 4 10 0 8 7 6 6 0 7 0 3 4 1 11 3 1 1 1 1
split_gain=117.47043305720058 55.047839632909927 37.161003564273983 122.46381499643229 47.4792325811311 37.440831505926155 36.274623922428717 33.067383058893824 26.071596937925619 21.417701009369353 36.345668420236393 72.418176942628691 66.760160677416081 24.220356955979298 17.180230044414145 20.556456856177803 19.791542730130384 16.900583561379875 20.251865387324671 15.777471421582504 13.160402997216103 23.591560266150832 12.999600336915236 16.295559593134154 12.197509501219542 10.888628291020447 9.6676459815811455 9.5314161781690601 8.7339795403276952 8.6919592902036342
threshold=9.7750000000000004 3.3250000000000002 0.62749999999999995 0.755 0.51249999999999996 6.4845000000000006 278 219 97.340000000000003 4.5 688.5 3.7972000000000001 6.165 69.950000000000003 18.75 0.45549999999999996 17.274999999999999 19.899999999999999 99.199999999999989 0.432 97.950000000000003 2.4126250000000002 2.2084999999999999 386.02499999999998 304.5 0.28174500000000002 391.88 394.89499999999998 396.28999999999996 393.995
decision_type=0 0 0 0 0 0 0 0 0 0 0 0 0 0 0 0 0 0 0 0 0 0 0 0 0 0 0 0 0 0
left_child=1 -1 4 -4 5 27 -5 -2 -9 14 13 28 -13 24 15 -10 29 18 22 -7 -19 -22 -15 -24 -11 -18 -20 -3 -12 -16
right_child=7 2 3 6 -6 19 -8 8 9 10 11 12 -14 17 16 -17 25 20 26 -21 21 -23 23 -25 -26 -27 -28 -29 -30 -31
leaf_parent=1 7 27 3 6 4 19 6 8 15 24 28 12 12 22 29 15 25 20 26 19 21 21 23 23 24 25 26 27 28 29
leaf_value=0.43140113870302832 0.30911396971593302 0.075686180485146387 0.61656097948551181 0.30300882975570853 0.05797463859382429 0.20460690894852515 0.067109336771748282 0.047819748068494455 0.045939574241638165 0.14221406326844141 0.19741505806644755 0.20117268508130848 0.54957203973423352 0.19651019888765672 0.2006889180703596 0.22153765305876735 -0.072892262935638399 0.1361367057476725 0.30395460182970213 0.30681042719886387 0.17260380105581136 -0.01021134340359519 0.0055665332291807449 0.14132183485974867 0.26546599012577821 0.058613264538785993 0.1681002126634121 0.19237512094633918 0.084556502802297484 0.071872224807739263
leaf_count=15 12 14 10 16 19 23 11 28 10 13 12 11 11 17 11 20 10 28 11 44 10 24 14 24 21 17 10 14 16 10
internal_value=0 2.4869255971006421 2.3054270086970354 3.1762037230907261 2.022806496130662 2.311418518169146 2.0690162891039141 1.4606924438232776 1.4010419345548852 1.4871740835827465 1.6455527247403756 2.3960153429210185 3.7537236240777103 1.4273949868971656 1.0364041049033403 1.6300496011972427 0.66537566971965134 1.2411322579347948 1.5572146881175668 2.7172563735173263 0.85367637577526756 0.43557816731524379 1.2382416150786659 0.91306723732697337 2.1834025338620826 0.099075136223325019 2.3926203556004024 1.3403065071574278 1.3292445505836181 1.3934763556434995
internal_count=506 166 151 37 114 95 27 340 328 300 222 50 22 172 78 30 48 138 76 67 62 34 55 38 34 27 21 28 28 21
shrinkage=0.1


Tree=25
num_leaves=31
split_feature=4 10 10 10 4 6 1 5 0 1 4 3 10 10 0 8 4 7 4 0 6 7 3 1 7 9 9 5 3 4
split_gain=104.57127553587588 87.254300855943256 164.87466148878798 131.68571053220558 38.264877427676083 71.249686732211046 45.440134702166063 30.327178578931125 77.155890003442124 26.950630016501179 21.672840724845866 17.726512841725839 14.108736266835535 27.049138535772443 44.281379499711221 18.834386025131778 15.229308768495883 13.895884259029955 12.643594943138694 11.373650129207791 10.018346737589027 16.723469863246816 9.0179639666430944 13.910287804012228 10.744159433701604 9.6675648529768807 8.5585742837278218 13.2060284303017 8.6022031217585866 7.5420127775245902
threshold=1.3454000000000002 6.6784999999999997 8.5510000000000002 7.6654999999999998 3.4596999999999998 4.5499999999999998 396.65999999999997 6.3049999999999997 63.049999999999997 363.22500000000002 6.5450499999999998 4.6053750000000004 6.1215000000000011 6.2210000000000001 97.049999999999997 18.75 5.266 0.63900000000000001 1.9118999999999999 99.650000000000006 12.199999999999999 0.58450000000000002 0.045749999999999999 396.17499999999995 0.54099999999999993 5.5 7.5 8.3500000000000014 0.64730500000000002 4.4280999999999997
decision_type=0 0 0 0 0 0 0 0 0 0 0 0 0 0 0 0 0 0 0 0 0 0 0 0 0 0 0 0 0 0
left_child=-1 9 3 4 17 -6 -7 8 10 11 -4 -2 15 14 16 29 -14 -3 -9 -13 -20 -22 -15 25 -25 -24 27 28 -17 -11
right_child=1 2 7 -5 5 6 -8 18 -10 12 -12 19 13 22 -16 26 -18 -19 20 -21 21 -23 23 24 -26 -27 -28 -29 -30 -31
leaf_parent=0 11 17 10 3 5 6 6 18 8 29 10 19 16 22 14 28 16 17 20 19 21 21 25 24 24 25 26 27 28 29
leaf_value=0.48192603766918185 0.13915191918611527 0.23639210164546964 0.19767664700746523 0.55077295800050097 0.10659632097619276 0.27924174229303994 0.53467739545381976 0.0020122518297284843 0.43377527773380281 0.22559709809720518 -0.010519610042683781 -0.021995312980193971 0.24058953191746357 0.059884144897971836 0.41506480768322929 0.115499567756286 0.070078139565885073 0.097201335430145266 0.16518221639096739 0.085872419463361022 -0.026190624589269813 0.12008661953387437 0.2362529979646206 0.16455079416433971 0.052591637894511226 0.14018984120339156 0.051940246913078671 0.16151727503830834 -0.0046555985103953973 0.13348431736230851
leaf_count=10 20 13 10 18 12 15 13 14 10 16 10 23 11 14 10 13 10 16 20 17 11 27 20 15 20 22 37 28 11 20
internal_value=0 1.5530765579002741 2.0876296781294204 3.0989448344013812 2.4705662051134785 3.1046470317523926 3.9783686697483063 1.2250373389562774 2.0697743823286148 1.2239868519611579 0.93578518482390771 0.62282955267583018 1.3700169651478771 1.6119363514981309 2.4186820398655628 1.1339036440700292 1.5939363079766433 1.5959719614735965 0.87306357088447029 0.23848473308316898 1.0789458939227565 0.77743206761385264 1.3371108972191155 1.471341705989915 1.0057413343872343 1.8593420156588156 0.88702872292965318 1.1486089419788466 0.60428449884057045 1.7442333102226257
internal_count=506 496 189 87 69 40 28 102 30 307 20 60 247 122 31 125 21 29 72 40 58 38 91 77 35 42 89 52 24 36
shrinkage=0.1


Tree=26
num_leaves=31
split_feature=4 8 11 4 10 10 2 7 6 10 8 1 1 5 6 5 0 5 6 8 5 3 6 4 0 4 7 12 3 0
split_gain=84.702734432070429 71.809478362983555 97.992323728055908 56.683473006090537 36.432189887398124 38.885849327344545 34.941883248194245 42.153948995850754 30.206322467719474 56.807159035376912 37.63920586052194 19.260962560267927 20.604196922113942 15.282712227509094 13.336903301230667 12.917421327249173 18.347505339865133 12.857524302320201 12.193587433683632 26.952237986905402 11.140126624083237 11.068819179752005 9.9412504113868394 9.7631347336623406 9.625408083352653 8.7398214938278471 25.105182981175325 8.3754969069502039 7.7690617226789556 7.5671187108215818
threshold=1.3454000000000002 17.850000000000001 237 2.6589 6.1479999999999997 6.2210000000000001 1 0.65100000000000002 7.7149999999999999 7.6654999999999998 16.5 392.65499999999997 395.22500000000002 3.4249999999999998 12.925000000000001 10.699999999999999 92.5 9.125 34.390000000000001 16.050000000000001 4.6750000000000007 1.128695 6.9699999999999998 6.8166000000000002 99.650000000000006 1.5905 0.61899999999999999 34.5 1.56592 98.349999999999994
decision_type=0 0 0 0 0 0 1 0 0 0 0 0 0 0 0 0 0 0 0 0 0 0 0 0 0 0 0 0 0 0
left_child=-1 2 -2 15 17 -6 7 -7 9 13 -11 14 -13 -4 -8 -3 -17 21 24 -20 -14 -5 -22 -19 27 -18 -27 28 -10 -28
right_child=1 3 8 4 5 6 11 -9 18 10 -12 12 20 -15 -16 16 25 23 19 -21 22 -23 -24 -25 -26 26 29 -29 -30 -31
leaf_parent=0 2 15 13 21 5 7 14 7 28 10 10 12 20 13 14 16 25 23 19 19 22 21 22 23 24 26 29 27 28 29
leaf_value=0.43373343527317049 0.50166739940643312 0.16227914961901579 0.075835187573518079 0.087987405874512425 0.34750323370099068 0.39060114576266358 0.13435662464238704 0.14457523802916208 0.12698253904365828 0.50521823883056627 0.23084912300109864 0.2788152653437394 0.22791197814724665 0.21071923048723315 0.017361434823588321 -0.021075885140869235 0.13665192643290056 0.1821759526218687 0.31982678353786459 0.087653408721089371 0.033190855993465947 -0.020955991916931593 0.14384507121097656 0.088810624027003848 0.044225156108538312 -0.05692368691166242 0.13443757634271275 0.07084832925062913 0.23365460092371163 0.0540233555957675
leaf_count=10 10 11 14 33 12 13 20 15 18 10 10 13 11 21 19 28 17 21 10 10 11 13 31 24 15 15 22 13 11 25
internal_value=0 1.3977688941635162 1.9985378828214508 1.1567824636849096 1.439733700739946 1.750993714263213 1.5954413573236619 2.5880155233400211 1.7698912077272932 2.3359036517414178 3.6803368091583253 1.3307549130526326 1.659988914023746 1.567656133217471 0.77358968063997913 0.59087998957483701 0.48479562908167317 0.94376994292814653 1.3655966048600612 2.0374009612947703 1.38326950624304 0.57199054324756493 1.1486420532067616 1.3238111070460743 1.129875778040865 0.7313212677364862 0.55715407512240833 1.3754558555249656 1.6744435561885094 0.91664054668805706
internal_count=506 496 142 354 236 145 133 28 132 55 20 105 66 35 39 118 107 91 77 20 53 46 42 45 57 79 62 42 29 47
shrinkage=0.1


Tree=27
num_leaves=31
split_feature=4 10 10 10 6 12 4 4 3 0 1 1 12 0 4 3 7 0 3 9 1 1 6 10 9 0 4 6 3 1
split_gain=68.609206967196428 61.689943306202508 119.86774745524815 90.786223576472139 30.374643903588094 27.21900414018836 19.413601358748679 18.980710414635325 32.39161425615913 29.147361211687311 18.272022048754366 22.680209667498332 18.259047780578435 13.444176997565052 19.621227113562327 16.416147673472508 11.77043307645102 15.119402841526544 11.577606102179317 10.740280016947509 10.079857854510649 9.6400561759635011 6.9036133914535043 8.9891239347829597 6.4622730291565809 6.1349751521250795 6.0302767864296953 16.44992572227838 5.951451362043322 5.7584545933288638
threshold=1.3454000000000002 6.6784999999999997 8.5510000000000002 7.6654999999999998 34.390000000000001 72.5 4.8896499999999996 2.2771999999999997 0.22922500000000001 87.950000000000003 352.21500000000003 367.19499999999999 23.5 73.25 3.7095500000000001 0.087665000000000007 0.60699999999999998 98.349999999999994 0.14899000000000001 3.5 396.17499999999995 392.41499999999996 10.175000000000001 6.1215000000000011 5.5 38.349999999999994 2.1223000000000001 4.5499999999999998 0.12697 396.17499999999995
decision_type=0 0 0 0 0 0 0 0 0 0 0 0 0 0 0 0 0 0 0 0 0 0 0 0 0 0 0 0 0 0
left_child=-1 10 3 4 19 7 -7 -4 12 -10 16 -12 -9 14 -13 21 -2 -18 28 -3 25 -16 -20 -24 -11 -17 -21 -28 -15 -25
right_child=1 2 5 -5 -6 6 -8 8 9 24 11 13 -14 18 15 20 17 -19 22 26 -22 -23 23 29 -26 -27 27 -29 -30 -31
leaf_parent=0 16 19 7 3 4 6 6 12 9 24 11 14 12 28 21 25 17 17 22 26 20 21 23 29 24 25 27 27 28 29
leaf_value=0.39036007642745973 0.11452278110664338 0.25970814851197332 -0.019034883959425819 0.45698105361726554 0.33630897115383829 0.30031929165124888 0.10327309727668764 -0.037896926857923202 0.27469164287405357 0.14340385943651196 0.24323412344480555 0.22526313012672797 0.12399550500241192 0.10697317424301918 -0.010045343780746827 0.245365422964096 -0.049326016342169363 0.082610359304817402 -0.012403620183467865 0.080970093905925758 0.10229540315011275 0.098569901668551299 0.049968749960347759 0.15550898602780175 0.029717685878276823 0.14197427522052417 0.068730066581205881 0.21741301633579579 0.19775021493434908 0.078756121967149817
leaf_count=10 16 11 18 18 14 10 10 19 14 10 12 18 11 26 13 12 19 16 10 10 23 22 59 17 10 11 11 23 10 23
internal_value=0 1.2579920043166155 1.7074660644546229 2.5697707174795457 2.0480211995596038 0.97197091922748324 2.0179619446396826 0.71685115693182477 0.97200115595478565 1.6402642509954817 0.98127996077888469 1.0901702679620939 0.21463631490866344 1.0241618597742597 1.308240513665357 1.0983758941982631 0.43469332080042244 0.10987755382167441 0.83020470987620021 1.713276487419551 1.4910644294451112 0.58227096215954843 0.66781317555439579 0.74779796114925179 0.86560772657394414 1.9591748273890952 1.4923252379945056 1.6930970906225198 1.321890188794997 1.1137608919292687
internal_count=506 496 189 87 69 102 20 82 64 34 307 256 30 244 99 81 51 35 145 55 46 35 109 99 20 23 44 34 36 40
shrinkage=0.1


Tree=28
num_leaves=31
split_feature=4 11 1 8 4 11 7 3 0 10 7 4 12 0 6 3 3 1 5 2 6 2 10 8 0 5 0 11 6 3
split_gain=55.57345738254844 56.004176551341175 47.542218023660439 44.591146039873706 30.360375518573846 37.094420640325751 41.255489906003419 65.624399082630731 30.080113600793055 60.938234358814555 28.632266389839174 36.007371101935519 34.402017935460776 16.044831136401619 29.502795907902986 15.959268388462549 15.774577198018861 13.532213168009228 11.047787903864297 9.7004385020545953 15.425686656421092 8.4479899096984923 21.205653308088067 8.3095632050887858 7.9971361102180651 10.670174244165423 13.282051034367548 7.7749146292626108 9.5782951240405936 9.0564755614632357
threshold=1.3454000000000002 219 395.35500000000002 16.5 10.648 688.5 0.66349999999999998 8.7544349999999991 91.549999999999997 7.8254999999999999 0.52200000000000002 4.8896499999999996 42.5 69.950000000000003 8.0749999999999993 12.1477 0.069080000000000003 388.94499999999999 14.48 1 6.7349999999999994 0 7.1814999999999998 21.600000000000001 81.049999999999997 8.3500000000000014 84.150000000000006 453 29.609999999999999 21.656649999999999
decision_type=0 0 0 0 0 0 0 0 0 0 0 0 0 0 0 0 0 0 0 1 0 1 0 0 0 0 0 0 0 0
left_child=-1 2 -2 8 10 6 7 -6 9 16 11 12 19 18 -15 -8 -3 -13 -12 -5 -21 22 -10 -19 -16 -26 -27 -28 -29 -30
right_child=1 3 -4 4 5 -7 15 -9 21 -11 13 17 -14 14 24 -17 -18 23 -20 20 -22 -23 -24 -25 25 26 27 28 29 -31
leaf_parent=0 2 16 2 19 7 5 15 7 22 9 18 17 12 14 24 15 16 23 18 20 20 21 22 23 25 26 27 28 29 29
leaf_value=0.3513240683078766 0.11522317335009574 0.076626796447313753 0.41649118729613044 0.044454383443702346 0.10342305882109537 0.27747514528386735 0.077028536661104721 0.40330592274665833 0.16214294298128643 0.43434737270528623 0.17466616130927026 -0.016729597141966226 0.2972253356128931 -0.12402787700295448 -0.00758059953192347 -0.075331173539161689 0.21958378020085789 0.06709481209297391 0.042203009184449913 0.2562932948768139 0.10650223236192356 0.16661620523248399 -0.039062225818634035 0.17079414855688813 -0.017874150400360427 0.18192498326301576 0.1094507889678845 0.06679739581184492 -0.080129900742322194 0.048724817950278519
leaf_count=10 10 13 11 11 27 17 22 10 11 11 17 16 16 10 19 10 19 34 10 10 22 14 10 10 15 10 26 63 10 12
internal_value=0 1.1321928047053065 2.7303022827420915 1.0615395435710486 0.92573022806984129 1.451613413559836 1.125622882143311 1.8447248150367994 1.7527741365707838 2.3130375063696573 0.78030915426874947 1.1657207723425216 1.7204382454944869 0.54143424515010941 0.42449591956242466 0.29416127223521471 1.6150750555098057 0.62024859040975566 1.2560573459637385 1.2546465764212054 1.5331193939782679 1.0644505679607392 0.66330957838467186 0.90662843107499858 0.53190073824577755 0.61680094367030136 0.71542190825797558 0.61597795110732856 0.46960408754427646 -0.098455087281763554
internal_count=506 496 21 475 397 86 69 37 78 43 311 119 59 192 165 32 32 60 27 43 32 35 21 44 155 136 121 111 85 22
shrinkage=0.1


Tree=29
num_leaves=31
split_feature=6 7 7 11 10 3 3 10 7 4 1 10 8 7 7 10 8 5 7 11 7 6 10 5 4 4 1 7 3 3
split_gain=49.966082466051489 45.855495616238102 221.0268128089001 54.889947443958107 23.651788684191786 18.757679340846664 20.730896227930742 28.402104725842534 18.018728357897373 50.092572001585069 26.380868135641606 14.703247189103905 16.572830405324396 11.585145895597471 10.768881959202492 10.76382605754273 9.5405837452553683 9.1709805343840287 13.753038847487804 8.6194648271934362 8.5140155749367104 7.8348115926492596 6.7899937110101884 8.288831416359109 13.012983051003907 11.441076927100406 18.455107124356608 9.3824765296067731 12.428566159802321 6.6289415729959433
threshold=9.6050000000000004 0.62749999999999995 0.71550000000000002 278 6.6784999999999997 5.6808650000000007 3.504645 6.4365000000000006 0.51249999999999996 4.7011000000000003 395.53999999999996 8.5510000000000002 17.949999999999999 0.43745000000000001 0.45549999999999996 7.4429999999999996 21.600000000000001 14.48 0.54849999999999999 400 0.50550000000000006 12.925000000000001 5.2744999999999997 23.77 1.95905 1.8148499999999999 396.65999999999997 0.70649999999999991 12.1477 0.19362499999999999
decision_type=0 0 0 0 0 0 0 0 0 0 0 0 0 0 0 0 0 0 0 0 0 0 0 0 0 0 0 0 0 0
left_child=1 4 -3 -4 20 6 8 -8 9 10 -2 12 15 -11 -15 -6 -10 18 -7 -13 -1 -19 -23 25 -25 26 -24 -27 -29 -18
right_child=5 2 3 -5 11 17 7 -9 16 13 -12 19 -14 14 -16 -17 29 21 -20 -21 -22 22 23 24 -26 27 -28 28 -30 -31
leaf_parent=20 10 2 3 3 15 18 7 7 16 13 10 19 12 14 14 15 29 21 18 19 20 22 26 24 24 27 26 28 28 29
leaf_value=0.090780968175882978 0.14408880040049551 0.65233202382922173 0.22922942042350769 -0.034781034982630181 0.18961274231735026 0.033409837159243491 0.091197720399269669 0.30952744368802421 0.082531325598175345 0.13026877714222984 0.36850688240744844 0.15145486801524052 0.10916439569555224 -0.046719863198020233 0.090261745018263673 0.31391265392303469 0.067115792483091338 0.12974929928779602 0.18821173732479413 0.023176491260528564 -0.0082978051494468335 0.10806942135095597 0.19679296070879154 -0.10969309085980056 0.039665440682853971 -0.043168624972595888 0.023704574363572255 0.10940621448680757 -0.022230745966617879 -0.045379772291264754
leaf_count=41 10 10 18 14 19 11 13 11 97 19 11 11 16 11 12 11 10 10 12 10 11 12 11 10 14 17 14 16 13 11
internal_value=0 1.521325418870225 2.4196465038472699 1.1372484618332237 1.2042709182900917 0.8466569352149288 1.0393504477872673 1.9126551023994882 0.92355314551824341 1.355363955750825 2.6164112907080423 1.5970268789678812 1.9135460061547549 0.72484028827221625 0.24748801958301794 2.3518937657276791 0.69301008581779744 0.5644985775197191 1.1417604594126991 0.90369926703472936 0.69821996895524741 0.4510197460364837 0.37191009679896253 0.2823794715302555 -0.2256728079325209 0.4541154533204898 0.99863464355468745 0.15818111080190408 0.50396542559409963 0.081895442679524422
internal_count=506 161 42 32 119 345 205 24 181 63 21 67 46 42 23 30 118 140 23 21 52 117 107 95 24 71 25 46 29 21
shrinkage=0.1


Tree=30
num_leaves=31
split_feature=6 7 7 11 10 7 2 1 6 7 7 10 0 1 5 10 8 1 10 6 10 11 5 0 3 6 1 4 0 3
split_gain=40.472526544990956 37.142953580218318 179.03172497213225 44.460858153448953 19.157948680237865 16.820206328399536 27.156792740409912 64.06163216948481 74.941880976721279 21.402653373825871 17.411394435615577 12.689193636403377 12.79381925456677 12.530314603522614 12.495389830478571 11.909630520809088 13.423992741918681 10.48494193840007 10.028465219053714 9.6377139634862132 8.7186985102711105 8.1558260780832263 7.9175399012902119 10.535831821459134 14.015286885088912 12.680757941213876 9.7777855392438298 7.8027504153425014 7.2723984794201506 7.0207595936642413
threshold=9.6050000000000004 0.62749999999999995 0.71550000000000002 278 6.6784999999999997 0.65100000000000002 1 395.53999999999996 17.620000000000001 0.6964999999999999 0.58450000000000002 8.5510000000000002 67.299999999999997 384.755 23.77 8.5510000000000002 17.949999999999999 219.29000000000002 6.8250000000000002 15.705 7.4429999999999996 341 20.734999999999999 87.650000000000006 0.28174500000000002 26.545000000000002 396.65999999999997 5.266 56.049999999999997 6.3405949999999986
decision_type=0 0 0 0 0 0 1 0 0 0 0 0 0 0 0 0 0 0 0 0 0 0 0 0 0 0 0 0 0 0
left_child=1 4 -3 -4 21 6 7 14 -9 13 11 12 19 -7 -2 16 20 -11 -12 -8 -6 28 23 24 -19 -25 -27 -17 -1 -14
right_child=5 2 3 -5 15 9 10 8 -10 17 18 -13 29 -15 -16 27 -18 22 -20 -21 -22 -23 -24 25 -26 26 -28 -29 -30 -31
leaf_parent=28 14 2 3 3 20 13 19 8 8 17 18 11 29 13 14 27 16 24 18 19 20 21 22 25 24 26 26 27 28 29
leaf_value=0.12892987556755542 0.11134170749608208 0.58709883093833926 0.20630647978848882 -0.031302932011229655 0.17065146941887702 0.057266360942351928 0.059868875844404104 0.11192611022429029 0.49017320364713673 -0.005138845276087523 0.089817169610233547 -0.02006575195118785 0.056623660257636488 -0.073258852174407571 -0.029532772600650778 0.13945189714431758 0.098247955576516693 0.059911793470382682 0.19687371124823891 0.16520667656471855 0.28252138603817334 0.00064020454883575442 0.13222488419463238 0.07920679079575671 0.21274769067764285 0.046487023342739443 -0.090139041095972053 0.017402071729302408 0.039968756542486307 -0.036200834214687352
leaf_count=20 17 10 18 14 19 12 16 11 10 16 21 19 44 19 10 11 16 15 15 19 11 15 24 36 10 11 10 10 17 10
internal_value=0 1.3691928806651084 2.1776818803378513 1.0235236212611198 1.0838438219570814 0.76199124726952738 0.9590978682948238 1.6105001146594684 2.9204377375897907 0.5146417620613124 0.74196378617327552 0.54120484169969263 0.69957995252014049 -0.22732963225984526 0.59165974126921761 1.4373241851467695 1.72219140317453 0.70317547701177052 1.3442406195940242 1.1705225337828908 2.1167043884595236 0.62839796938575232 0.81707191924160383 0.66921525893778333 1.2104615235328675 0.43182654639607981 -0.1857300734236127 0.81332932660977042 0.88055847907388529 0.39433939059057999
internal_count=506 161 42 32 119 345 192 48 21 153 144 108 89 31 27 67 46 122 36 35 30 52 106 82 25 57 21 21 37 54
shrinkage=0.1



feature importances:
LSTAT=149
RM=149
NOX=107
CRIM=97
AGE=87
DIS=74
TAX=67
B=59
PTRATIO=54
INDUS=39
RAD=26
ZN=15
CHAS=7

pandas_categorical:[]