tree
num_class=1
label_index=0
max_feature_idx=6
objective=regression
sigmoid=-1
feature_names=cylinders displacement horsepower weight acceleration model_year origin

Tree=0
num_leaves=31
split_feature=1 3 2 5 5 5 5 2 3 3 5 3 3 1 3 2 4 3 2 2 4 4 5 2 2 4 1 1 1 3
split_gain=13982.732877162663 2608.6582940067456 988.31960850729956 506.74874356105283 484.00969160106615 331.23604939090728 332.14399334966583 309.3424589526403 228.0495423741595 136.47317609769379 88.405348374319146 88.440230973574216 82.874121357843251 78.481672185265779 73.019249159973697 65.160494491577992 60.274068819147942 46.445909463500357 39.616329954144021 39.091017316015495 37.717333034677722 34.491752386986263 30.447084563296812 27.096774193549209 17.528125302012995 13.631014543399942 21.349102065007173 8.5444531522116449 4.2405837021069601 3.8659090909090992
threshold=190.5 2219.5 127 80 80 82 81 74.5 2792.5 4361.5 81 1964 3094 97.75 1834.5 101 17.649999999999999 3607 90.5 94.5 16.299999999999997 15.75 75 185 143.5 18.149999999999999 231.5 117.5 355.5 4500.5
decision_type=0 0 0 1 1 1 1 0 0 0 1 0 0 0 0 0 0 0 0 0 0 0 1 0 0 0 0 0 0 0
left_child=1 3 12 -1 -3 -6 -7 10 16 17 -5 14 19 -9 -12 -10 18 -4 21 -2 -13 -8 -14 29 -19 26 -24 -20 -26 -11
right_child=2 4 9 7 5 6 8 13 15 23 11 20 22 -15 -16 -17 -18 24 27 -21 -22 -23 25 -25 28 -27 -28 -29 -30 -31
leaf_parent=3 19 4 17 10 5 6 21 13 15 29 14 20 22 13 14 15 16 24 27 19 20 21 26 23 28 25 26 27 28 29
leaf_value=3.8666666030883792 2.2549999999999994 3.0881250262260438 1.7092307897714472 3.5639999771118163 2.8944444444444444 2.8771428925650464 2.7033333301544182 2.6874999999999996 2.2369999885559078 1.395 3.276999969482421 3.4963636224920109 1.72 3.0491666793823242 2.9036363601684574 1.8760000038146973 2.2200000000000002 1.594285719735282 2.3409090909090917 1.9818181818181817 3.2636842024953747 2.4581818147139121 1.9764285768781389 1.1500000000000001 1.444482757305277 2.0160000228881834 1.8136842125340511 2.4527777777777779 1.52 1.3090909090909093
leaf_count=12 10 16 13 10 18 14 12 12 10 10 10 11 10 12 11 10 10 14 11 11 19 11 14 10 29 10 19 18 10 11
internal_value=0 28.659030805075222 16.685380154882957 32.583505001264747 25.73076928945688 25.007894766958135 24.269791702429455 31.724705797083239 23.501219493586841 14.5855670417707 32.921311331576987 32.388235166961074 19.437837884232806 28.683333396911621 30.81428555079869 20.564999961853026 24.448387084468717 15.398484894723603 24.880769216097317 21.11904761904762 33.489999898274739 25.860869532046109 18.771698177985424 12.85483870967742 14.98301887512207 19.137209382168081 18.827272761951793 24.103448275862068 14.638461528680264 13.499999999999998
internal_count=398 227 171 97 130 114 96 85 82 97 61 51 74 24 21 20 62 66 52 21 30 23 53 31 53 43 33 29 39 21


Tree=1
num_leaves=31
split_feature=0 3 1 5 5 5 5 5 3 5 2 1 3 4 4 2 4 3 3 4 1 4 2 1 1 2 1 4 2 3
split_gain=11364.212373398361 1739.3432187863218 1182.7865083506767 389.44415152721922 256.90309419989353 255.76407652191847 216.04601825638383 250.70678591986507 215.95985109914909 198.55775262390671 127.22587053785173 124.02514959557448 83.215960482677474 73.985996818410058 68.66286601185675 96.660994534600832 65.595247934972576 62.853755557596742 52.860983999822565 46.26477983307268 39.086924117480521 28.08088472894724 25.373789834578929 25.205777968421899 29.10964286921444 18.822195776994249 14.033601436938625 12.487773540407943 6.3848136517899547 5.5717029236293456
threshold=4 2219.5 284.5 80 82 80 82 81 3094 81 146.5 93.5 3947.5 14.949999999999999 16.299999999999997 109 18.399999999999999 2737.5 4361.5 16.299999999999997 241 16.299999999999997 104 107.5 132.5 185 84 16.550000000000001 159 2377
decision_type=1 0 0 1 1 1 1 1 0 1 0 0 0 0 0 0 0 0 0 0 0 0 0 0 0 0 0 0 0 0
left_child=1 3 8 -1 -5 -3 -7 -8 14 -6 12 19 -4 -13 15 -2 17 23 28 -11 22 -22 -10 -9 29 -20 -21 -15 -12 -25
right_child=2 5 10 4 9 6 7 16 20 11 18 13 -14 27 -16 -17 -18 -19 25 26 21 -23 -24 24 -26 -27 -28 -29 -30 -31
leaf_parent=3 15 5 12 4 9 6 7 23 22 19 28 13 12 27 14 15 16 17 25 26 21 21 22 29 24 25 26 27 28 29
leaf_value=3.4800000508626305 1.7830797596981651 2.7781105921818661 1.6735644476754321 3.3215010036121719 3.1946439916437326 2.6282027076272403 2.7022858428955079 2.3980333518981936 1.8536994814872747 2.710340881347657 1.359891362623735 2.8005070079456669 1.3397232472896576 2.556642951965332 2.2222320652008061 2.1555684696544302 1.9294900703430178 1.9916260285810994 1.2044952091417813 2.8819003677368169 1.717607654224742 1.5040992191859655 1.6726622517903647 2.219959087371826 2.3554637562144887 1.0350000333786011 3.0494330596923831 2.398606414794922 1.2782950345207664 2.1248064875602721
leaf_count=12 19 13 14 11 11 17 10 10 16 11 22 11 16 10 10 11 10 11 19 10 11 14 15 10 11 10 10 10 17 16
internal_value=0 26.374029851427267 15.683597788368303 29.471119821071625 28.709851151420956 23.621060989521169 23.051791682996249 22.347766020359138 18.178363333145779 28.030991593452349 13.239745826137309 27.336315278084047 14.955158074696859 25.921958308066092 19.95302231311798 19.196589533487955 21.660252430859735 22.068071694209657 12.482946304713979 28.750672248102003 16.910749776022776 15.980429306030274 17.661008219565115 22.571687130217857 22.190971890011348 11.460485968096503 29.656667137145995 24.77624683380127 13.24323732425005 21.61403641333947
internal_count=398 204 194 96 84 108 95 78 96 73 98 62 30 31 40 30 68 58 68 31 56 25 31 47 37 29 20 20 39 26


Tree=2
num_leaves=30
split_feature=1 2 2 2 3 5 4 3 4 6 3 1 4 1 2 4 3 6 2 5 2 6 5 3 4 1 2 3 1
split_gain=9228.3615548874659 1785.3119714513305 648.75259894895134 440.52124470601848 252.20956387128535 206.15195198731817 150.48679489224014 87.615228047847268 81.684349593102525 78.891683655985616 49.218557498046721 48.928279362704416 46.258151376918249 49.517779515859729 41.830818769078178 40.850572683513747 29.577115564825363 29.266270040123345 26.584310832255142 24.29734469250252 17.726134255922716 16.809779029932542 15.271967615683934 14.055235968251509 11.571291563404884 14.837775535479523 8.7838091909052309 3.1214381968234193 1.531265330665974
threshold=190.5 70.5 127 84.5 2803.5 80 15.449999999999999 4361.5 18.899999999999999 2 3094 120.5 14.149999999999999 120.5 66.5 15.649999999999999 3607 3 94.5 75 185 3 73 2162 18.149999999999999 231.5 149.5 4500.5 345
decision_type=0 0 0 0 0 1 0 0 0 1 0 0 0 0 0 0 0 1 0 1 0 1 1 0 0 0 0 0 0
left_child=1 5 10 6 12 -1 23 16 14 -6 18 -8 -5 21 -7 -15 -4 -16 -2 -12 27 -14 -18 -3 25 -21 -24 -9 -28
right_child=2 3 7 4 9 8 11 20 -10 -11 19 -13 13 15 17 -17 22 -19 -20 24 -22 -23 26 -25 -26 -27 28 -29 -30
leaf_parent=5 18 23 16 12 9 14 11 27 8 9 19 11 21 15 17 15 22 17 18 25 20 21 26 23 24 25 28 27 28
leaf_value=3.1161430358886721 1.8204513359069818 2.6305424118041985 1.3800573495718149 1.9697777045400517 1.5391074700789018 2.8745777384440103 2.3203145874871156 1.1336982250213623 2.4907377945749385 1.8869968414306637 1.3811462688446046 2.0710533823285782 2.1708167244406309 2.168845923741658 2.7516865285237633 1.9020519429987131 1.1004231262207032 2.5308311080932619 1.5951695875688034 1.6037607397351945 0.93149997234344495 2.3218753374539896 1.2935167537016028 2.4774888483683268 1.6484361648559571 1.4680855148716978 1.1703785896301273 1.0565029577775435 1.2202615141868591
leaf_count=12 10 10 13 19 11 15 18 10 19 16 10 14 17 12 15 11 10 10 11 14 10 13 17 15 10 19 10 11 16
internal_value=0 23.226126456575773 13.498814301184046 21.334170573796982 20.059080220232108 27.383099945498184 23.548801187883342 11.797551160006179 26.614625963114076 17.452641345836497 15.728848418673953 22.112628102302551 21.036494798130459 21.516412483071381 27.425568771362304 20.412488025167715 12.448898748918014 26.633443603515627 17.024466105869838 15.215490467143509 10.410811132000338 22.362754567464194 12.117355886495337 25.387102737426758 15.542008555212686 15.256447011774236 12.376222078190294 10.932626088460285 12.010757739727314
internal_count=398 227 171 156 99 71 57 97 59 27 74 32 72 53 40 23 66 25 21 53 31 30 53 25 43 33 43 21 26


Tree=3
num_leaves=31
split_feature=0 3 1 5 5 5 5 5 5 1 1 2 3 3 4 4 2 4 3 1 2 2 1 1 4 1 2 1 1 4
split_gain=7477.9481852662575 1157.046038750661 766.83833817123741 275.45486549243651 203.35791338510171 191.85177211703558 163.80206005150103 188.56187023436723 145.84463287663675 144.17375562597954 89.6241609905519 88.720447799327303 63.785037746630223 60.878670282043458 59.894096057420029 48.73854222771115 38.366681469833566 35.55303781459952 35.124008062728535 22.19415959190701 16.494662520655766 26.034003199739345 15.301200114308813 27.138291676877998 12.367447273172729 10.042550765519991 9.795953415963595 10.724484426831168 4.9096071718672647 3.9449094124502153
threshold=4 2219.5 284.5 80 82 80 82 81 81 198.5 93.5 149.5 3958.5 3427.5 14.949999999999999 18.399999999999999 97.5 16.299999999999997 4498.5 165.5 94.5 104 107.5 137.5 16.550000000000001 84 156.5 371.5 241 13.1
decision_type=1 0 0 1 1 1 1 1 1 0 0 0 0 0 0 0 0 0 0 0 0 0 0 0 0 0 0 0 0 0
left_child=1 3 9 -1 -5 -3 -7 -8 -6 19 17 12 -4 20 -12 16 22 -10 26 -2 -11 -22 -9 -24 -16 -19 29 -28 -15 -13
right_child=2 5 11 4 8 6 7 15 10 13 14 18 -14 28 24 -17 -18 25 -20 -21 21 -23 23 -25 -26 -27 27 -29 -30 -31
leaf_parent=3 19 5 12 4 8 6 7 22 17 20 14 29 12 28 24 15 16 25 18 19 21 21 23 23 24 25 27 27 28 29
leaf_value=2.8376830418904624 1.5861389977591376 2.2726779570946327 1.359890848795573 2.7263197465376425 2.6006653352217244 2.144344930087819 2.2072216224670411 1.9244875717163088 2.1813866528597754 1.5363416618771024 2.272753490101207 1.1282934733799523 1.0769704201642205 1.3108540448275476 2.0608798599243165 1.5382601165771486 1.5991133308410646 2.3343503189086916 0.87773127257823946 1.7714714129765827 1.3229393005371097 1.5125486850738525 1.7280509031735936 1.9098558743794758 1.9036065483093261 2.4760722351074218 0.94120760330787112 1.0696568415715146 1.2183628638585411 1.0460578250885011
leaf_count=12 14 13 15 11 11 17 10 10 11 18 11 14 17 11 10 10 10 10 16 12 15 14 26 12 10 10 13 13 12 10
internal_value=0 21.369154962838866 12.697204004857959 23.895173291365307 23.25493655885969 19.123805337482029 18.630766758165862 18.01774620398497 22.650952038699632 14.705965916315714 22.055585676623927 10.72943723445036 12.095893710851669 13.959095696040562 20.853274991435388 17.4215006127077 17.773035000110493 23.257896361812467 10.066912882255785 16.716770355518047 14.611472555931579 14.144748654858819 18.14426451921463 17.854629993438721 19.822432041168213 24.052112770080566 10.479584932327271 10.054322224396925 12.62597776495892 10.94028619925181
internal_count=398 204 194 96 84 108 95 78 73 96 62 98 32 70 31 68 58 31 66 26 47 29 48 38 20 20 50 26 23 24


Tree=4
num_leaves=30
split_feature=1 2 3 2 3 5 3 4 4 4 0 3 1 4 4 1 2 3 1 3 2 2 4 1 3 3 4 3 1
split_gain=6075.4457791341119 1036.800066911921 570.34859111958212 237.03090468179289 172.28580146152672 143.97921081757522 130.23318631747316 100.17092040574062 78.957781378478103 58.855239951280964 56.400718602246343 46.773203889847537 36.730338871908316 35.72173828983432 30.82801480519629 30.462255517066296 30.335057666474313 25.628230913569496 23.521628441247231 22.335406591459105 40.31656281353753 13.720570856082759 11.957119464164862 8.7728626710568278 8.5414742078919517 4.965580907162348 2.5603950599397649 2.2566828493761477 2.1817064100869175
threshold=153 70.5 3745 84.5 3049.5 80 2792.5 15.449999999999999 12.699999999999999 18.899999999999999 6 4361.5 198.5 14.149999999999999 17.449999999999999 120.5 66.5 1992.5 241 2371 93.5 185 15.149999999999999 228 2162 4132 12.949999999999999 3975 355.5
decision_type=0 0 0 0 0 1 0 0 0 0 1 0 0 0 0 0 0 0 0 0 0 0 0 0 0 0 0 0 0
left_child=1 5 4 7 12 -1 13 24 -6 16 18 22 -2 -5 19 -9 -7 -18 23 -15 -21 28 25 -10 -3 27 -27 -4 -13
right_child=2 3 11 6 8 9 -8 15 10 -11 -12 21 -14 14 -16 -17 17 -19 -20 20 -22 -23 -24 -25 -26 26 -28 -29 -30
leaf_parent=5 12 24 27 13 8 16 6 15 23 9 10 28 12 19 14 15 17 17 18 20 20 21 22 23 24 26 26 27 28
leaf_value=2.5406066894531252 1.586521100997925 2.1336825752258295 0.97048848470052107 1.5807745997111002 0.98844980171748587 2.3418868509928386 1.416785656778436 1.8772993935479061 1.220352633794149 2.0157080600136204 1.4691503715515137 0.91851808808066648 1.3754226796767293 1.9049981410686787 1.6013471031188964 1.6764114159804124 2.0477813373912466 2.2517525877271378 1.1178207291497124 1.8470834541320802 1.587864875793457 0.7454688262939454 1.0890237418088047 1.3337066910483621 2.0143687438964846 0.9728489017486569 1.044408597946167 0.90778203444047412 0.85398068904876701
leaf_count=12 16 10 12 15 14 15 19 18 18 19 10 11 17 13 10 13 11 14 18 15 10 10 11 11 15 10 10 11 10
internal_value=0 19.143308872241153 11.319349879310245 17.545723790707797 12.889828677360828 22.248474241982045 16.462669988957845 19.131624000413076 12.012351418884707 21.606252007565256 12.534982078953794 9.3978228793424723 14.77773429408218 17.154756576295885 17.575697382291157 17.930560481163763 22.294608426094054 21.620052375793456 12.076147688196061 17.986809579949629 17.43396022796631 8.4187722975207908 9.9598704355734373 12.633490003388504 20.620942764282226 9.7218695795813268 10.086287498474121 9.4049844327180274 8.8778599330357135
internal_count=398 209 189 138 104 71 82 56 71 59 57 85 33 63 48 31 40 25 47 38 25 31 54 29 25 43 20 23 21


Tree=5
num_leaves=31
split_feature=1 2 3 5 3 3 5 5 3 4 3 3 3 2 3 1 1 1 2 2 6 2 2 1 1 1 4 1 3 1
split_gain=4921.1111796085315 839.80804244867613 462.13452790576412 204.65351020801609 172.65629953344614 135.78830765489693 126.37373201192167 116.62322042302549 106.26576965460117 65.938430340595914 49.365745591585437 69.193256669532275 66.45051068214525 47.735132374448767 40.531053464306751 39.612484353672698 39.552046851184059 29.75157018167738 24.097741705259978 40.105523785639889 20.698716742464057 11.113663480972264 10.115229519500645 21.256018933554969 9.7074719112279126 15.664856101676378 6.4515940712603879 3.3794771780671908 3.0187830361398937 1.7671819785120988
threshold=153 70.5 3727.5 73 2219.5 3049.5 72 80 2670.5 12.699999999999999 2132.5 1972.5 1829.5 91.5 4361.5 97.75 88.5 198.5 92.5 83.5 1 185 143.5 303 254 241 16.649999999999999 355.5 4132 355.5
decision_type=0 0 0 1 0 0 1 1 0 0 0 0 0 0 0 0 0 0 0 0 1 0 0 0 0 0 0 0 0 0
left_child=1 7 5 -3 15 17 -6 -1 18 -7 11 12 -9 -10 22 -5 -13 -2 19 20 -8 29 23 -4 25 26 -11 28 -24 -16
right_child=2 3 14 4 6 9 8 10 13 24 -12 16 -14 -15 21 -17 -18 -19 -20 -21 -22 -23 27 -25 -26 -27 -28 -29 -30 -31
leaf_parent=7 17 3 23 15 6 9 20 12 13 26 10 16 12 13 29 15 16 17 18 19 20 21 28 23 24 25 26 27 28 29
leaf_value=2.2865460952123007 1.4278689861297609 1.1434277057647706 0.86331522067387878 1.7155780255794522 1.2120286178588868 0.88960481030600413 1.5129812049865725 2.0691296577453619 1.5428319178129497 1.106065222422282 1.7420813846588137 1.9552731132507319 1.7363371531168621 1.294149215404804 0.82666628577492463 1.9459091663360597 2.2156641823904857 1.2378804206848146 1.570885119718664 1.8175945733722889 1.7164447975158699 0.67092194557189944 0.81020652850468966 1.0607218265533447 1.216708079251376 1.0243343932288034 1.1988128662109376 0.91486480712890639 0.88113822142283116 0.76858263015747053
leaf_count=12 16 10 12 16 10 14 10 10 19 15 10 10 15 13 11 14 14 17 17 19 10 10 12 10 11 14 15 10 12 10
internal_value=0 17.228978024715442 10.187414860599256 15.791151461393937 16.131532274186611 11.631566664751839 15.488942486899239 20.023626837931889 15.871744340116328 10.833638992862426 19.445626679113357 19.858853787791972 18.694541549682619 14.418045699596405 8.4942713660755373 18.23065891265869 21.071679035822552 13.299960887793338 16.702429277556284 17.135527415153309 16.147130012512207 7.5768951292960871 9.002104640007019 9.5304549607363622 11.326843946630305 11.11678473515944 11.524390443166096 8.6602309030645035 8.4567237496376038 7.990074021475654
internal_count=398 209 189 138 128 102 98 71 88 69 59 49 25 32 87 30 24 33 56 39 20 31 56 22 55 44 30 34 24 21


Tree=6
num_leaves=30
split_feature=1 2 3 5 3 3 5 5 3 4 4 0 2 1 3 1 2 2 2 3 6 1 4 2 1 3 4 3 3
split_gain=3986.1000119187884 680.24450577952666 374.67415179109776 165.76934905309099 139.8516114687809 112.9191009492406 102.36271894749007 94.464790592046484 86.07528924844155 51.874309865236683 42.678303498560126 42.329683100782859 38.665445377047035 32.086114461578291 30.61256396796216 24.098776185768656 20.89713446893802 19.519165870036886 32.485475784464143 18.519141465616485 16.765959513591042 16.16332024319945 9.2088854876201367 9.0020668167092026 6.9761043593043723 3.8795267759760463 2.1117149844033065 1.7770073005233371 1.6057041618375933
threshold=153 70.5 3745 73 2219.5 3049.5 72 80 2670.5 12.699999999999999 18.899999999999999 6 91.5 97.75 4361.5 198.5 66.5 92.5 83.5 1992.5 1 241 15.149999999999999 185 228 4132 12.949999999999999 3975 4500.5
decision_type=0 0 0 1 0 0 1 1 0 0 0 1 0 0 0 0 0 0 0 0 1 0 0 0 0 0 0 0 0
left_child=1 7 5 -3 13 15 -6 -1 17 -7 16 21 -10 -5 22 -2 -9 18 20 -18 -8 24 25 28 -11 27 -27 -4 -16
right_child=2 3 14 4 6 9 8 10 12 11 -12 -13 -14 -15 23 -17 19 -19 -20 -21 -22 -23 -24 -25 -26 26 -28 -29 -30
leaf_parent=7 15 3 27 13 6 9 20 16 12 24 10 11 12 13 28 15 19 17 18 19 20 21 22 23 24 26 26 27 28
leaf_value=2.0578914562861126 1.2850821107625963 1.0290849256515504 0.78431253830591863 1.5440202236175535 1.0908257579803466 0.80064432961600174 1.3616830825805666 1.90203556060791 1.3885486954136901 0.98358872731526725 1.6267019673397667 1.202303342819214 1.1647342975323018 1.7513182571956092 0.74810809612274176 1.1140923864701215 1.6556387641213157 1.4137966212104349 1.6358351155331261 1.8290271759033203 1.5448003101348884 0.90129352675543906 0.88824400901794442 0.60382975578308118 1.0846705089915882 0.78542657852172826 0.85041450023651122 0.72866812619295995 0.69274172349409624
leaf_count=12 16 10 12 16 10 14 10 15 19 18 19 10 13 14 10 17 11 17 19 14 10 18 11 10 11 10 10 11 11
internal_value=0 15.506080187108529 9.168673374034741 14.212036288302878 14.518379025161266 10.441557168960571 13.940048198310697 18.021264103096975 14.2845698595047 9.7311704528163858 17.501064009585622 10.154787649188126 12.976240962743759 16.407593059539796 7.6112626131843122 11.969964952179879 18.087235069274904 15.032186371939522 15.421974646739471 17.527362747192385 14.532416963577271 9.7572885472723776 8.0659619878839557 6.8192056379010602 10.219300927786991 7.8570954965990643 8.1792053937911984 7.576999933823295 7.1910666284107014
internal_count=398 209 189 138 128 104 98 71 88 71 59 57 32 30 85 33 40 56 39 25 20 47 54 31 29 43 20 23 21


Tree=7
num_leaves=31
split_feature=0 1 3 5 5 5 3 2 5 5 3 2 4 2 3 6 4 6 1 3 1 1 4 4 3 4 3 2 3 3
split_gain=3232.0112771699132 510.668589060464 330.60127925580673 241.75527913664337 131.69800841484903 139.54784488524456 108.06349851225968 84.015934116641802 80.035492179171342 65.591182158879747 48.250271816811619 75.262345132251085 46.538093732950074 42.14366117512327 26.355047696215479 25.57165037327286 16.433692578252703 15.760046059268461 20.352723582568615 11.790596976562483 13.049947217409908 11.455248847967596 9.5077938954182173 7.7564530943768659 7.5140341520013862 5.8625642860556582 5.2470096608799395 5.1573262137383153 3.1401178554247053 2.0972526710779675
threshold=4 112.5 3727.5 80 82 81 2092.5 87.5 82 80 2953.5 109 14.949999999999999 118 4361.5 3 14.350000000000001 3 134.5 3344.5 241 90.5 16.949999999999999 12.35 3958.5 16.949999999999999 3454 149.5 3835 4132
decision_type=1 0 0 1 1 1 0 0 1 1 0 0 0 0 0 1 0 1 0 0 0 0 0 0 0 0 0 0 0 0
left_child=1 3 7 -1 -5 -6 15 -2 -3 -10 11 -9 -8 19 24 -7 -11 -18 -19 20 -12 -17 -14 -16 28 -20 -21 -15 -4 -26
right_child=2 8 14 4 5 6 12 10 9 16 13 -13 22 27 23 21 17 18 25 26 -22 -23 -24 -25 29 -27 -28 -29 -30 -31
leaf_parent=3 7 8 28 4 5 15 12 11 9 16 20 11 22 27 23 21 17 18 25 26 20 21 22 23 29 25 26 27 28 29
leaf_value=1.9116139094034832 1.1884633357708272 1.4437475938063402 0.73538739204406722 1.7562855784098308 1.7258023806980678 1.5871628032011147 1.4238811753012919 0.89165990352630597 1.4118099021911623 1.2311497620173864 0.94164656570979555 1.2314528985456987 1.2286848204476495 0.80674113360318245 0.67258783487173213 1.4929899454116826 1.219714698791504 1.0014777183532715 1.2021913051605229 1.0343537473678586 0.79207605361938482 1.3517104235562414 1.1010169887542725 0.57121898863050669 0.66843598072345445 1.0939086723327638 0.93426869132302037 0.70990644585002549 0.81281329501758925 0.71909728700464426
leaf_count=15 13 13 10 15 14 17 11 16 10 14 14 11 14 11 13 12 10 18 10 10 10 11 10 18 13 10 11 11 11 22
internal_value=0 14.025896946589151 8.3247528088461493 15.363078790552477 14.821772016011751 14.359791605660085 13.818788261413575 9.5018684685787314 12.153842365040498 11.74151963657803 9.1723371541246461 10.30094086682355 12.535557229178293 8.7175267027385193 6.877035848025618 14.941615414619445 11.358200380879063 11.080155352751413 10.786210185603091 9.2720678965250656 8.793255190054575 14.254214784373408 11.754898905754089 6.1372850479618197 7.2865407552037924 11.480499887466431 9.8192824182056242 7.5832378972660415 7.7594381741115024 7.0028023038591654
internal_count=398 204 194 119 104 89 75 107 85 72 94 27 35 67 87 40 62 48 38 45 24 23 24 31 56 20 21 22 21 35


Tree=8
num_leaves=31
split_feature=1 2 3 5 5 5 3 5 3 3 2 5 3 4 4 3 2 2 6 4 5 2 3 2 3 3 4 2 4 4
split_gain=2630.732424436741 459.21107518312783 243.62729053436487 115.62095063421657 124.65831910376619 95.489902756346055 93.675868895194071 90.327322972596448 85.499741453941169 73.579153939654134 35.944821377384869 31.80532214113191 30.459116224370518 24.322188112806543 26.833945938043144 22.974834602022383 19.060113923530935 41.688588855355192 17.697212090469293 23.647213592530989 11.83175014803237 12.413478958306769 8.3951918548000322 5.8525120037684246 4.5954398395620046 6.5613618834672707 4.8681380212644854 4.1774326331862994 2.4739571597785925 2.760379362966205
threshold=153 77.5 3727.5 80 82 81 2792.5 82 2156.5 3049.5 118 72 2195 16.299999999999997 14.949999999999999 4498.5 109 96.5 3 15.449999999999999 72 143.5 2543.5 96.5 3344.5 3437.5 16.949999999999999 149.5 13.1 12.050000000000001
decision_type=0 0 0 1 1 1 0 1 0 0 0 1 0 0 0 0 0 0 1 0 1 0 0 0 0 0 0 0 0 0
left_child=1 3 9 -1 -5 -6 7 -3 18 16 24 -9 -13 14 22 20 17 -2 -7 -20 -4 -22 -14 -8 26 -26 -11 -12 29 -23
right_child=2 6 15 4 5 8 23 11 -10 10 27 12 13 -15 -16 -17 -18 -19 19 -21 21 28 -24 -25 25 -27 -28 -29 -30 -31
leaf_parent=3 17 7 20 4 5 18 23 11 8 26 27 12 22 13 14 15 16 17 19 19 21 29 22 23 25 25 26 27 28 29
leaf_value=1.6565990686416627 1.0534536405043169 1.4011137302105245 0.54459682464599612 1.6776728023182264 1.5421706644694011 1.4051360933404222 0.97210498332977269 0.94955986022949235 1.0622556358575821 0.84697561264038068 0.72606700333681951 1.2849913080533346 1.0035059261322026 0.99548957688467843 1.2342468914232756 0.51832004917992491 1.0770144159143622 0.77814030213789509 1.3934021759033208 1.1920614685331072 0.72628095269203197 0.6170234986713955 1.1330836391448975 0.8639152240753174 0.92944382667541547 0.82487039248148608 0.75250381946563727 0.63891580104827883 0.59376181822556717 0.68238415718078616
leaf_count=16 11 13 10 11 15 19 10 10 16 12 11 12 10 14 19 18 11 11 10 14 20 14 10 10 10 15 10 11 13 12
internal_value=0 12.567115774565336 7.4186737133712368 14.099911302623182 13.635708124497357 13.168799761179331 11.133668104807535 11.577660620212555 12.596026824692549 8.4672296561446849 7.879862398341082 11.155857995351155 11.411282517359806 11.085554842679006 11.49143245892647 6.1893322632230561 9.6953611951885801 9.1579697132110596 13.330341416735981 12.759534299373627 6.4518014209857881 6.6222816200579624 10.682947826385497 9.1801010370254517 8.3736680213441232 8.6669976615905764 8.0403388847004287 6.8249140219254931 6.2938057703849593 6.471899564449604
internal_count=398 209 189 101 85 74 108 88 59 102 69 75 65 53 39 87 33 22 43 24 69 59 20 20 47 25 22 22 39 26


Tree=9
num_leaves=30
split_feature=0 1 3 5 3 4 1 2 1 3 5 3 1 4 3 4 2 1 3 2 4 4 3 5 2 1 4 1 3
split_gain=2133.1132709501617 366.07366549980361 214.31951891442804 144.70771160348522 174.51043519899758 82.971946511417627 87.185932619844607 68.922612197507988 75.218853334715277 97.245201930055373 58.650585807684365 64.887280652392292 36.044803412957663 52.078789088914164 29.457414588267966 26.703423838905564 23.924863648329847 20.034111067966478 18.609612464473685 13.971311642459114 30.321809808056969 10.185059028438445 11.133361594782627 9.5837189178032531 10.06412927893598 6.8760844112421182 4.8005909122534831 2.3616424129602365 2.4959766100373599
threshold=4 93.5 3727.5 82 2520 18.399999999999999 109 69.5 85.5 1982.5 73 3028 97.75 14.949999999999999 2715.5 15.850000000000001 118 117.5 4498.5 94.5 15.649999999999999 18.149999999999999 3427.5 72 141 231.5 20 345 4217.5
decision_type=1 0 0 1 0 0 0 0 0 0 1 0 0 0 0 0 0 0 0 0 0 0 0 1 0 0 0 0 0
left_child=1 7 10 4 -3 6 12 8 -1 -10 -2 15 -5 -14 17 -12 21 -8 23 20 -19 22 25 -4 -25 -13 -7 -26 -29
right_child=2 3 18 5 -6 26 14 -9 9 -11 11 16 13 -15 -16 -17 -18 19 -20 -21 -22 -23 -24 24 27 -27 -28 28 -30
leaf_parent=8 10 4 23 12 4 26 17 7 9 9 15 25 13 13 14 15 16 20 18 19 20 21 22 24 27 25 26 28 28
leaf_value=1.2793018593507655 0.56006661256154378 1.6035534000396723 0.49013713359832761 1.0406163440031164 1.0479013222914477 0.78099344730377174 0.89488396644592294 1.1761196511132377 1.357082522999157 1.7879536533355713 0.84975489064266796 0.84453176151622422 1.4087244081497197 1.1267870426177979 0.85282380104064937 1.0516406440734865 0.64521491402073916 1.2164628939195115 0.46648805273903743 0.96983404500143866 0.9866075992584229 0.85347385589893054 0.660755171775818 0.65593134478518844 0.53252282142639162 0.73710605914776151 0.87897906780242929 0.55284857749938965 0.61369939872196744
leaf_count=17 12 10 10 17 13 10 11 14 11 10 19 11 10 19 15 10 19 11 18 14 12 13 10 19 13 13 10 13 14
internal_value=0 11.367649185891246 6.7360331790963395 10.584131077716226 12.894891821819803 10.172134976054346 10.515671196333859 13.657932886710533 14.356730498765645 15.622592517307826 7.6837917822543709 7.9469234441456038 11.562320812888768 12.240068238357019 9.7514508413890049 9.1937066768777775 7.3990944479451031 10.133704851071039 5.5703990349824402 10.485962068712389 10.965383923572043 7.7819021255412002 7.494052900987513 5.8066212543542832 5.9600534439086914 7.8634283939997358 8.2998625755310051 5.6754049420356747 5.8440085517035589
internal_count=398 204 194 152 23 129 109 52 38 21 107 95 46 29 63 29 66 48 87 37 23 47 34 69 59 24 20 40 27


Tree=10
num_leaves=31
split_feature=1 2 5 2 5 5 3 3 5 4 1 5 6 3 4 3 3 3 5 2 4 1 4 5 4 3 4 4 2 3
split_gain=1740.4546485940191 408.86149183253656 129.91280763434133 117.11485050628107 107.03131893600403 92.139418841588849 83.151930371186609 66.657869296789613 54.317091840790454 45.382602988714098 39.026746534786525 29.773770624063218 29.357542684347209 21.571588140101994 18.828437351690809 18.521953457374366 28.19251008467063 27.738778146427421 16.584608252889666 21.881042628534487 14.310614174163675 17.989574188453616 13.940072602767714 9.5838989265739656 3.9731901778316114 3.3744900894532748 3.5353748085137795 4.4436314860361108 0.22163439676376129 0.22023114727539905
threshold=198.5 84.5 80 127 80 82 2092.5 2953.5 73 14.949999999999999 254 82 2 2533.5 16.949999999999999 2715.5 2543.5 2325 73 191.5 15.449999999999999 241 16.850000000000001 72 16.649999999999999 3607 12.050000000000001 13.300000000000001 166 4247
decision_type=0 0 1 0 1 1 0 0 1 0 0 1 1 0 0 0 0 0 1 0 0 0 0 1 0 0 0 0 0 0
left_child=1 4 -3 10 -1 -6 12 8 -4 -8 20 -10 -7 22 -14 16 17 -13 28 23 -2 24 -11 -20 -22 -25 -27 -28 -5 -29
right_child=3 2 7 18 5 6 9 -9 11 13 -12 15 14 -15 -16 -17 -18 -19 19 -21 21 -23 -24 25 -26 26 27 29 -30 -31
leaf_parent=4 20 2 8 28 5 12 9 7 11 22 10 17 14 13 14 15 16 17 23 19 24 21 22 25 24 26 27 29 28 29
leaf_value=1.3513069910161635 0.74469709396362305 1.1738685911351985 0.6335264726118609 0.4331838583946227 1.303864449262619 1.0290056824684144 1.1034223590578351 0.56644646406173704 1.0159445126851401 0.90818689786470852 0.82241058690207347 0.91023368199666344 1.2874994351313669 1.0128949546813966 1.1295638269848294 0.75513855990241563 0.99444457803453723 0.70625288089116411 0.4657898922761281 0.39428701617501005 0.61524323781331391 0.51797222409929544 0.75522962916981096 0.61702606201171883 0.68492911391788069 0.50889977858616753 0.62207967801527542 0.53245656251907347 0.41212990880012512 0.5534437561035157
leaf_count=17 10 11 11 10 16 16 14 10 12 13 14 15 13 10 18 17 14 12 12 11 15 14 11 10 18 13 11 10 10 10
internal_value=0 9.9862549812897399 8.4926729319142353 5.7522210627794266 11.176453176885843 10.818592956474236 10.444689539859169 8.1002977365975859 8.4010178719037842 9.5189204514026642 6.7281271706164727 8.7256362233843117 11.390155842963685 8.8949720999773803 11.957948884656352 8.4289861054256043 8.7928692422262049 8.1957554817199707 5.0378980353935479 5.2486328923857055 6.3606938060961271 6.1295710117258926 8.3808148304621373 5.4662600141583066 6.5325371568853203 5.6458958122465344 5.5267219922759319 5.7102837562561035 4.2265688359737394 5.4295015931129456
internal_count=398 230 102 168 128 111 95 91 81 48 71 70 47 34 31 58 41 27 97 77 57 47 24 66 33 54 44 31 20 20


Tree=11
num_leaves=30
split_feature=1 2 5 2 5 5 3 3 4 1 1 1 4 4 1 3 3 3 4 1 4 5 3 4 5 3 3 4 2
split_gain=1409.768253644841 331.17780167814271 105.22937247083973 94.863022897523479 86.695375269000579 74.632927440445201 67.353065475563199 54.515464109050299 36.759908336702665 31.61166595691202 26.554715955774554 23.813819157254329 27.528905476817727 23.01335394050102 24.565590728283496 17.472988917745624 15.901538440402192 13.936219691770475 11.591595933753524 14.571558254874844 11.379644056900815 10.498399630404265 8.8684236379231152 6.4582903288821853 6.4315213828008382 3.2253309995885502 3.3497930310877564 2.4879188233953755 4.7543131676679877
threshold=198.5 84.5 80 127 80 82 2092.5 2792.5 14.949999999999999 254 142.5 90.5 16.75 14.149999999999999 121.5 2533.5 2953.5 4498.5 15.449999999999999 241 16.949999999999999 73 3745 16.449999999999999 72 3427.5 3077.5 13.1 148.5
decision_type=0 0 1 0 1 1 0 0 0 0 0 0 0 0 0 0 0 0 0 0 0 1 0 0 1 0 0 0 0
left_child=1 4 -3 9 -1 -6 11 10 -8 18 13 12 -7 -4 23 20 -9 21 -2 25 -10 -5 -23 -15 -24 26 -20 -26 -29
right_child=3 2 7 17 5 6 8 16 15 -11 -12 -13 -14 14 -16 -17 -18 -19 19 -21 -22 22 24 -25 27 -27 -28 28 -30
leaf_parent=4 18 2 13 21 5 12 8 16 20 9 10 11 12 23 14 15 16 17 26 19 20 22 24 23 27 25 26 28 28
leaf_value=1.2161762980853812 0.67022737503051766 1.0564817298542371 0.62689740856488552 0.38936498440228978 1.1734779983758927 0.95655968839472028 0.99308011872427804 0.66872124251197362 0.81246953691755019 0.7401695285524641 0.91338797410329198 0.93476398520999493 1.1573583788341946 0.87472905271193557 0.66508568922678635 0.91160546302795409 0.50980181455612184 0.374002887805303 0.56502976417541506 0.46617499079023095 0.67279863357543945 0.54991621199776153 0.39454443216323853 0.77639204372059223 0.51035012947885616 0.54051571130752574 0.6420138982626109 0.5085751390457155 0.41106295347213745
leaf_count=17 10 11 12 13 16 11 14 17 14 14 12 18 18 17 12 10 10 18 10 14 10 17 10 11 19 10 13 10 10
internal_value=0 8.9876294716544773 7.6434056408265061 5.1769989608299163 10.058807836845517 9.7367336256010031 9.4002205547533535 7.2902679679157973 8.5670283635457363 6.0553144300487682 7.7929936312139034 10.251140239390921 10.811933583226697 7.4835583751018229 7.8479336619377138 8.0054748479057753 6.0986219512091742 4.5341082565563244 5.7246243953704834 5.5166138943205487 7.5427332719167071 4.7150377352026442 4.8768262592228977 8.3609665632247925 4.6609138177365672 5.879283464316166 6.0854253561600391 4.8443675346863575 4.5981904625892636
internal_count=398 230 102 168 128 111 95 91 48 71 64 47 29 52 40 34 27 97 57 47 24 79 66 28 49 33 23 39 20


Tree=12
num_leaves=31
split_feature=3 5 2 3 5 5 2 5 1 4 1 1 3 3 2 3 3 4 2 4 3 3 2 3 1 4 3 2 4 3
split_gain=1145.1111098289184 179.5914647770569 148.02976318933725 144.94114466767223 82.488876184666879 69.8595580097126 58.295526262389558 39.418049722091837 39.098901430993465 21.213267925179935 37.497095221917334 37.375845697876684 21.539372382977945 21.027518132932528 20.610546769285747 19.99562045361381 14.228124686049114 11.141496812971809 9.4136829476028652 15.633837151704711 8.4061166343403784 8.1693251631788826 7.446251676266229 4.7876189813925976 11.479596363605879 3.5318060857047158 4.4597588168863922 3.1213942982087701 2.96867628617116 1.7719984816470742
threshold=2722.5 80 70.5 3607 82 81 86.5 73 96.5 15.449999999999999 90.5 82 1992.5 2325 127 2912 2533.5 14.850000000000001 156.5 12.35 2115 2227 123.5 3344.5 241 13.949999999999999 3975 104 11.050000000000001 2981.5
decision_type=0 1 0 0 1 1 0 1 0 0 0 0 0 0 0 0 0 0 0 0 0 0 0 0 0 0 0 0 0 0
left_child=1 8 9 6 -4 -6 -2 -7 -1 -3 11 -11 -12 20 -5 27 -15 -18 25 28 -9 -22 23 24 29 26 -16 -8 -20 -17
right_child=3 2 4 14 5 7 15 13 -10 10 12 -13 -14 16 18 22 17 -19 19 -21 21 -23 -24 -25 -26 -27 -28 -29 -30 -31
leaf_parent=8 6 9 4 14 5 7 27 20 8 11 12 11 12 16 26 29 17 17 28 19 21 21 22 23 24 25 26 27 28 29
leaf_value=1.2613145756721493 0.75271057381349449 1.0683472633361817 0.96557868548801962 0.51989742964506147 0.95558347702026369 0.48966281652450566 0.59644651963160578 0.83197474718093878 0.988105210390958 0.88973105870760394 0.71996336200020561 1.1468817853927613 0.90419373194376629 0.57226433436075852 0.49837330037897304 0.5897869157791138 0.77652478456497198 0.63360495567321784 0.36411454131205878 0.25839575041424145 0.67838676869869241 0.78753620386123657 0.4637940414249897 0.58946161905924477 0.43096030473709113 0.39391386806964879 0.41565887928009038 0.66882540962912829 0.4318963970456805 0.53673646309796508
leaf_count=10 17 10 14 16 10 10 13 10 11 13 11 10 15 15 11 10 10 12 12 11 16 12 16 15 10 20 16 11 14 17
internal_value=0 8.4249210244133366 8.0802800172851192 5.0281888497503182 7.3896703741966041 7.0557163665169167 5.8258334901354729 6.7615847896127139 11.182049081439065 9.3561520697706833 9.0852703220990243 10.015357224837594 8.2625011389072132 7.0102456728617346 4.1587561917304994 5.5114679660486141 6.4736411700377596 6.9856851426037876 3.9606194098790488 3.5833181916056454 7.5327290045587638 7.2516509805406839 5.2345030921347 5.418060839176178 5.2248627237371492 4.2576437732006642 4.4935734713519064 6.2962017754713697 4.0061246363016272 5.5638477890579789
internal_count=398 189 168 209 109 95 109 85 21 59 49 23 26 75 100 92 37 22 84 37 38 28 68 52 37 47 27 24 26 27


Tree=13
num_leaves=31
split_feature=1 2 3 2 3 4 6 4 3 4 3 1 1 3 1 4 2 2 2 2 3 1 3 5 1 1 1 2 4 4
split_gain=934.52007193014106 171.1060227427788 85.400118283387656 57.335616407392081 59.166056573937112 47.752162622232845 45.731834387056551 49.287008460829838 36.841354650319772 28.876577304576585 27.823247174118933 19.536127559880697 19.478023976503664 19.194922705730278 16.255302794531644 15.83763644488954 15.113504615804004 14.776392352137577 12.109763648539911 28.38978580703656 12.040200580669079 11.236390871754793 9.9051169068004583 6.3150520540082198 5.5981533918102286 5.6537762534587728 5.5305237316839566 14.772040977566917 6.1022237395251864 3.593009084832147
threshold=153 84.5 3727.5 66.5 2074.5 18.399999999999999 3 14.949999999999999 2675 14.949999999999999 3049.5 97.75 96.5 2617.5 119.5 12.699999999999999 77.5 91.5 109 96.5 1871 112.5 4683.5 72 254 241 304.5 149.5 13.1 17.149999999999999
decision_type=0 0 0 0 0 0 1 0 0 0 0 0 0 0 0 0 0 0 0 0 0 0 0 1 0 0 0 0 0 0
left_child=1 3 10 4 20 8 12 11 9 14 18 -8 -5 16 -3 -12 -9 -10 19 -2 -1 -11 23 -4 25 29 -25 -28 -29 -17
right_child=2 5 22 6 -6 -7 7 13 17 21 15 -13 -14 -15 -16 24 -18 -19 -20 -21 -22 -23 -24 26 -26 -27 27 28 -30 -31
leaf_parent=20 19 14 23 12 4 5 11 16 17 21 15 11 12 13 14 29 16 17 18 19 20 21 22 26 24 25 27 28 28 29
leaf_value=0.77881440562861304 0.64493753910064699 0.55240013798077914 0.30929587781429291 0.9743383765220639 1.127756221294403 0.42605678319931028 0.74293950254266894 0.54762971997261045 0.64120082060495998 0.85842076142628965 0.36757442355155945 0.92743942737579355 0.80579920709133157 0.77265656471252442 0.7169971346855164 0.46890880998812223 0.69609024524688723 0.48731737136840825 0.65984393249858508 0.41774204535917803 0.90996426854814816 0.71849735433405104 0.27015739411115647 0.33257875910827095 0.55051270831714982 0.41828001311847141 0.48313430696725845 0.39355504512786865 0.30112608194351198 0.54072405424985026
leaf_count=14 11 12 12 12 10 10 11 16 12 12 14 12 16 10 12 19 12 13 11 11 14 11 10 14 11 14 16 25 10 11
internal_value=0 7.4342600030191779 4.3657198698116986 8.1613104920687629 9.1895956977417601 6.3082183919301844 7.7222673705454623 7.2366117649391049 6.5926143030325575 7.1143164482522518 4.9865286841112022 8.3920033289038614 8.7803027970450263 6.5372958183288574 6.3469863633314771 4.6253382451292397 6.1125565937587192 5.611814270019531 5.7417450565280337 5.3133979222991252 8.4438933708838046 7.9150087107782783 3.6378750530467636 3.759472600051335 4.8670530839399859 4.7075345841321079 3.8825213056344254 4.0353501684525437 3.6714676993233817 4.9524106621742252
internal_count=398 209 189 127 38 82 89 61 72 47 102 23 28 38 24 69 28 25 33 22 28 23 87 77 55 44 65 51 35 30


Tree=14
num_leaves=31
split_feature=1 2 5 5 5 2 6 3 5 1 4 3 5 3 2 2 5 2 2 1 5 1 1 1 3 1 1 1 4 1
split_gain=760.5515561684133 178.1567562697237 73.68328996019045 51.853298563017233 51.808517408315311 49.429834798449065 43.972108862057212 31.382368050564764 33.965291842981514 26.111891565732094 25.397805388314737 21.700638202546997 18.931522592025431 16.319919304693144 14.661456115577948 12.194479481951248 9.3661865083049634 15.632843470063108 9.2855640264050407 7.4306759546054764 4.7401529848683595 4.5068060192318171 10.573644168657779 4.4770913694491128 3.3176282645102901 5.1340442510835373 2.8875075928128808 4.3148346072656523 3.853081536471052 0.2838443681649494
threshold=198.5 84.5 80 80 82 127 3 2953.5 73 254 14.949999999999999 2092.5 82 2432 111 71.5 73 191.5 89.5 96.5 72 145.5 119.5 109 3437.5 231.5 304.5 329 12.050000000000001 350.5
decision_type=0 0 1 1 1 0 1 0 1 0 0 0 1 0 0 0 1 0 0 0 1 0 0 0 0 0 0 0 0 0
left_child=1 3 -3 -1 -5 9 19 8 -4 18 15 -12 -10 -13 21 -8 29 20 -2 -6 -18 22 23 -14 25 -20 -22 -28 -29 -7
right_child=5 2 7 4 6 16 10 -9 12 -11 11 13 14 -15 -16 -17 17 -19 24 -21 26 -23 -24 -25 -26 -27 27 28 -30 -31
leaf_parent=3 18 2 8 4 19 29 15 7 12 9 11 13 23 13 14 15 20 17 25 19 26 21 22 23 24 25 27 28 28 29
leaf_value=0.89728541702908626 0.33528437889539281 0.80195094455372207 0.38522077256982978 0.87621155381202698 0.817037386894226 0.25690110735595217 0.80442965984344461 0.36080627918243408 0.68857566912968959 0.56196037275450572 0.68782968839009606 0.47265831679105763 0.51465116262435939 0.62693042159080514 0.66074169397354132 0.65490860541661577 0.30716722110907235 0.23525275181640282 0.49446031366075788 0.71146270275115975 0.33338933961155515 0.58737230777740479 0.45631847447819179 0.60927770614624022 0.3912812786442893 0.41153895258903506 0.42986956089735034 0.32822659100805018 0.40544771750768027 0.2807273268699646
leaf_count=17 13 11 11 16 20 10 10 10 12 14 15 16 10 12 10 12 12 11 14 10 12 10 18 10 14 16 16 14 12 10
internal_value=0 6.5608250429772816 5.5749040152512341 7.3464808619464748 7.0973966615694062 3.7619255284135718 6.8170229560450499 5.2794022599419392 5.4857404658823841 4.3959362926617471 6.3548220487741327 5.9077077799065165 5.7424384679113114 5.3877493313380649 5.5058898699694669 7.2287272106517442 3.2978557937576904 3.4562229684662897 4.0953863963746189 7.8184582551320396 3.6401722101833331 5.2764050637682276 5.1192161127140645 5.6196443438529968 4.3147739849307323 4.5023558775583901 3.7665055433150241 3.8901090139434453 3.6386711093095632 2.6881421711295843
internal_count=398 230 102 128 111 168 95 91 81 71 65 43 70 28 58 22 97 77 57 30 66 48 38 20 44 30 54 42 26 20


Tree=15
num_leaves=31
split_feature=1 2 5 5 1 3 5 4 2 3 2 1 1 3 4 4 1 2 4 1 3 5 2 4 5 2 1 4 3 3
split_gain=616.04676437003036 144.30697867076287 59.683460958375235 47.556007231260082 63.11080903029324 60.550856881596246 52.819417528221948 46.175249345410975 40.038171284594227 28.198547005398723 24.210782268127559 21.150631369015173 18.922913389420955 18.37254935293754 28.287369158956039 15.63022839067844 15.164839427131255 8.78842384522261 8.4788232173917777 8.7687056567918944 7.8587088636077169 7.1324020112881499 8.5091865804831741 5.8377029807527379 4.8144977819679298 4.5929472939819789 3.4780520063416134 3.3393009635190651 3.2722485541733022 2.4022453797259118
threshold=198.5 84.5 80 74 93.5 2045.5 82 14.949999999999999 127 2792.5 67.5 254 142.5 2634.5 17.949999999999999 14.149999999999999 121.5 96.5 15.449999999999999 241 4683.5 73 195.5 16.449999999999999 72 63.5 304.5 16.649999999999999 2167.5 4217.5
decision_type=0 0 1 1 0 0 1 0 0 0 0 0 0 0 0 0 0 0 0 0 0 1 0 0 1 0 0 0 0 0
left_child=1 3 -3 -1 5 10 -6 -8 11 12 25 18 15 14 28 -4 23 -11 -2 27 21 -10 24 -17 -23 -5 -26 -20 -9 -28
right_child=8 2 9 4 6 -7 7 13 20 17 -12 -13 -14 -15 -16 16 -18 -19 19 -21 -22 22 -24 -25 26 -27 29 -29 -30 -31
leaf_parent=3 18 2 15 25 6 5 7 28 21 17 10 11 12 13 14 23 16 17 27 19 20 24 22 23 26 25 29 27 28 29
leaf_value=0.47989282057835503 0.45219883680343625 0.72175584272904836 0.38508452326059345 0.73106917043526964 0.82612444270740859 0.993103747367859 0.74041673342386893 0.54057110349337267 0.24372656007607776 0.46382944345474231 0.5910800283605403 0.50576433794839049 0.62449437777201344 0.65828363418579106 0.39394469090870454 0.5922486768049352 0.42115640640258789 0.34568510406157554 0.34408150990804037 0.28447955676487519 0.21285147972404961 0.27645049591859183 0.23392596900463106 0.49875565225427804 0.30005040454367798 0.82283192634582525 0.34575680450156887 0.40796709391805863 0.61802510499954222 0.4011966813694347
leaf_count=13 10 11 12 12 11 10 15 12 15 10 11 14 12 10 14 17 12 17 15 14 10 12 10 11 12 10 27 18 10 11
internal_value=0 5.9047425557737769 5.0174136120899053 6.6118328077718616 6.8167698497357572 7.775364440540935 6.2442758580048876 5.8805602144022453 3.3857329847468507 4.7514620410217034 7.122130188074979 3.956342708896583 5.1130255265161395 5.3837318057599273 5.0506472123993769 4.8518136223921413 5.1521041393280029 3.8944226679978549 3.6858478073488201 3.5079455603944494 2.9680701969671497 3.0645708176253854 3.1952594044721789 5.555192743028913 3.3333238745408673 7.7277951403097669 3.4698404142260553 3.7892819209532305 5.7577746781435879 3.6180518991068791
internal_count=398 230 102 128 115 43 72 61 168 91 33 71 64 46 36 52 40 27 57 47 97 87 72 28 62 22 50 33 22 38


Tree=16
num_leaves=31
split_feature=1 2 3 5 1 1 5 3 5 5 3 1 1 4 1 2 3 2 2 3 4 3 1 2 4 3 5 3 2 3
split_gain=501.58457026921315 95.818594131335885 49.96301248647319 48.636322256514177 43.723858018535338 47.261305050784358 39.679839580453972 37.82683260149588 20.857951146991809 25.993699300630169 19.46109033701191 18.485539717054962 17.524348509519314 17.067916195212661 16.785948903319991 14.714625996214409 13.225490344220702 12.20176124989564 11.77338769612129 11.442993499006661 10.312535723746691 10.276323807927383 6.3128606255177147 10.867054636029707 4.9037977427638566 4.6974587316153702 2.6309262884447548 2.2364268709681596 2.3555859246550881 0.43423344207309356
threshold=153 69.5 3727.5 73 93.5 89.5 72 2398 73 75 3049.5 140.5 97.75 15.75 126 94.5 2132.5 63.5 89.5 2882.5 18.149999999999999 2195 304.5 149.5 13.1 3437.5 78 4460.5 177.5 2697
decision_type=0 0 0 1 0 0 1 0 1 1 0 0 0 0 0 0 0 0 0 0 0 0 0 0 0 0 1 0 0 0
left_child=1 4 8 -3 5 17 -5 12 -2 -10 19 14 13 -8 15 -9 -6 -1 21 -11 25 -14 -4 -24 27 26 -12 28 -25 -16
right_child=2 3 22 6 16 -7 7 11 9 10 20 -13 18 -15 29 -17 -18 -19 -20 -21 -22 -23 23 24 -26 -27 -28 -29 -30 -31
leaf_parent=17 8 3 22 6 16 5 13 15 9 19 26 11 21 13 29 15 16 17 18 19 20 21 23 28 24 25 26 27 28 29
leaf_value=0.55175207744945176 0.23509765890511602 0.28696126043796538 0.20734525612171961 0.34883900880813601 0.61031094464388747 0.86045940262930731 0.44247316122055047 0.56045885607600221 0.22877535089850426 0.41684492826461783 0.33162703275680544 0.57121015042066581 0.74436820983886731 0.61172283996235244 0.36495920300483692 0.41021380966359922 0.45141266465187074 0.69485511871484618 0.54099187417463823 0.55690405964851386 0.46007103919982911 0.61793485747443311 0.34485088236191697 0.26458562442234584 0.20671019926667214 0.30810991989241709 0.39499598678789649 0.23956404740993797 0.32813204288482667 0.39375140883705839
leaf_count=11 11 10 17 13 11 14 13 16 10 14 10 16 10 11 10 11 10 13 11 10 10 18 17 14 16 18 19 13 10 11
internal_value=0 5.4248480292028214 3.1767793494872945 5.0001970493793486 6.5044691643472445 7.1444265873808606 5.152381652593613 5.3227114977799062 3.6516255270324502 3.8088468272279905 3.9966361257765026 4.7812364902347326 5.8727813467146861 5.2004593064387636 4.470948152244091 4.9924791124131946 5.3464509702864147 6.2926622480154037 6.2865179868844843 4.7520289967457456 3.6785759695789269 6.6308962617601663 2.6200631413309052 2.7528114250728062 2.5296632028975576 3.4823771562982113 3.7314462332889953 2.7296896721865678 2.9106329878171286 3.8004083463123868
internal_count=398 209 189 150 59 38 140 127 102 91 81 64 63 24 48 27 21 24 39 24 57 28 87 70 53 47 29 37 24 21


Tree=17
num_leaves=31
split_feature=3 5 5 5 5 5 2 2 4 5 6 1 1 6 2 4 6 4 3 2 3 3 1 2 2 1 3 3 3 3
split_gain=411.32174238810421 93.939095016246029 64.930400898456355 78.706303431677043 95.036553351524162 100.7611479353684 57.595389258755404 31.78087338574187 23.691191730600849 23.126691841227967 17.822045727070417 16.81909421739465 19.594508494522302 14.213986611740211 15.167990379617549 13.017647566154778 11.999338061853678 8.641652159225373 8.2311913293033712 5.7138217958718087 6.5815965711637432 4.4972046176582126 4.3150513336007066 2.8708164651920924 2.7452267721821499 6.8441199142826008 2.5644538468337146 1.5328001002625911 1.2736239374483773 0.97662961110404467
threshold=2722.5 80 79 82 81 78 87.5 141 16.449999999999999 77 1 304.5 254 3 87.5 17.949999999999999 3 15.449999999999999 3631 96.5 2996.5 4683.5 306 172.5 75.5 121.5 3344.5 4330 3532.5 3975
decision_type=0 1 1 1 1 1 0 0 0 1 1 0 0 1 0 0 1 0 0 0 0 0 0 0 0 0 0 0 0 0
left_child=1 8 -3 10 16 -6 -2 11 -1 -7 -4 12 17 14 -11 24 -5 -8 -14 20 -19 22 -9 27 -15 -26 -21 29 -28 -24
right_child=6 2 3 4 5 9 7 21 -10 13 -12 -13 18 15 -16 -17 -18 19 -20 26 -22 -23 23 -25 25 -27 28 -29 -30 -31
leaf_parent=8 6 2 10 16 5 9 17 22 8 14 10 11 18 24 14 15 16 20 18 26 20 21 29 23 25 25 28 27 28 29
leaf_value=0.59719422459602345 0.46648537373791144 0.698285718758901 0.54341936707496641 0.70574119806289681 0.64289961244378779 0.48059419760337241 0.38376684188842775 0.2977813959121704 0.80986448287963864 0.48798193931579575 0.71963958306746034 0.43770657360553744 0.27945097762752658 0.29944816380739214 0.33543989215977493 0.23615633775206174 0.55082613706588723 0.40613806962966903 0.15711618120020088 0.25134458430111412 0.29991784095764162 0.16858919143676759 0.25682923197746277 0.1998873261468751 0.39238388099168481 0.2932673053307967 0.33029201239347472 0.27552118599414827 0.27982174515724184 0.21699177324771882
leaf_count=11 18 12 12 10 14 13 19 11 10 11 11 10 11 12 16 17 10 10 11 16 14 10 10 21 19 11 10 12 10 16
internal_value=0 4.9906020978534666 4.7413451398855875 4.5689211362160931 4.2735414967164953 3.9179140314196061 2.9548339063399718 2.7936802049854976 6.9846577615964982 3.5628115132150024 6.2769860081050703 3.1399780065828078 3.0174940729716626 3.3748964432540327 3.975866521122279 3.0998762381278864 6.2828366756439209 3.2499305556846569 2.1828357941386374 3.063813565671444 3.4417626957098642 2.3131920052692294 2.4028063039694514 2.295601486907167 3.3987171578974951 3.5604113658269245 2.8118474789791637 2.4595828746494495 3.0505687877535821 2.323138727591588
internal_count=398 189 168 156 133 113 209 191 21 99 23 111 101 86 27 59 20 79 22 60 24 80 70 59 42 30 36 38 20 26


Tree=18
num_leaves=31
split_feature=3 5 2 5 5 5 5 2 5 4 6 1 1 6 2 1 4 3 6 2 3 2 5 3 1 3 2 1 2 5
split_gain=334.69369411637035 74.815671662965542 52.453716319473187 51.888770459903753 60.97842154523596 75.471242756831771 87.248569560904343 25.560386140214405 23.755533182731824 19.189863830630657 14.47389089561932 13.731634997106426 15.628003654286431 11.513329312945643 12.286072254390945 11.48021903614881 10.544295154928932 6.6672649049578467 6.6329132218668292 9.994686304718698 3.861799720902809 3.7107166030373833 3.5804447520106919 3.392851881801505 2.7555180122727734 2.7185891327162039 2.2236345676087694 5.5437373134746508 1.6217399409014774 1.8951872048472183
threshold=2715.5 80 87.5 79 82 81 78 141 77 16.449999999999999 1 304.5 254 3 87.5 104.5 17.949999999999999 3631 2 109 4498.5 96.5 73 2996.5 306 3344.5 75.5 121.5 159 70
decision_type=0 1 0 1 1 1 1 0 1 0 1 0 0 1 0 0 0 0 1 0 0 0 1 0 0 0 0 0 0 1
left_child=1 9 -2 -3 10 15 -7 11 -8 -1 -5 12 18 14 -10 -6 26 -14 -4 21 22 23 -9 -20 -24 -23 -15 -28 -26 -30
right_child=2 3 7 4 5 6 8 20 13 -11 -12 -13 17 16 -16 -17 -18 -19 19 -21 -22 25 24 -25 28 -27 27 -29 29 -31
leaf_parent=9 2 3 18 10 15 6 8 22 14 9 10 11 17 26 14 15 16 17 23 19 20 25 24 23 28 25 27 27 29 29
leaf_value=0.53747480565851369 0.42557942114378283 0.62845714489618942 0.2193098759109324 0.48545303344726565 0.64121881008148174 0.597844077532108 0.45393571704626084 0.170453883210818 0.43918374668468119 0.72887803077697755 0.64767561283978536 0.39393591344356538 0.25150588046420697 0.26950334161520006 0.3018959039822221 0.48969178915023809 0.2125407026094549 0.14140456427227369 0.35606872320175165 0.37225924506783487 0.16589163199943657 0.23250203627873878 0.27823040485382083 0.27980393767356876 0.24006422474980355 0.29325063698566878 0.35314549772362963 0.26394057815725153 0.17163259197365155 0.23178310871124275
leaf_count=11 19 12 11 11 10 13 12 12 11 10 11 10 11 12 16 10 17 11 10 16 17 17 10 14 20 13 19 11 11 10
internal_value=0 4.508436030117414 2.6704555342571354 4.2821761812224537 4.1251255719879873 3.8664126826151635 3.5442252387334636 2.5143859235502277 3.2213190961249021 6.2861919857206798 5.6656432314352552 2.8205898973134769 2.711971524777343 3.0374068066824313 3.5782798804618694 5.6545529961585999 2.7898886203765869 1.9645522236824036 2.9149742979142399 3.0284118825835842 2.0818728106096387 2.8227287512962467 2.1960039271248712 3.1158093164364495 2.3116427730111515 2.5882642991840838 3.0588454561574117 3.2043702721595766 2.196847339955772 2.0027569518202828
internal_count=398 186 212 165 153 131 111 193 98 21 22 113 103 86 27 20 59 22 81 70 80 54 63 24 51 30 42 30 41 21


Tree=19
num_leaves=30
split_feature=3 5 5 3 5 5 5 2 6 4 3 1 3 1 1 4 4 2 2 4 3 3 1 3 4 1 3 3 4
split_gain=273.80736487558033 64.708450895572241 57.807249039749422 52.662948613349954 40.830055017798031 52.519898012478961 30.154173670973933 27.559071753154853 30.311137875591726 21.609843391821187 17.161890703109179 10.843626079641751 8.7339059963857721 6.8892091038509307 6.8053603094720643 7.4806981482338983 6.4113233888255081 4.9383878545515358 3.7453700983010094 6.3379078543114531 3.4636000733710262 12.291344749863384 2.8345478419140591 3.4522352781645509 1.9782834871962507 3.4114801227032103 1.7125300174929379 1.7111938209178135 1.5645369992766121
threshold=2578.5 80 82 3247.5 81 78 79 85.5 3 18.899999999999999 2092.5 231.5 3727.5 228 172 15.550000000000001 14.949999999999999 68.5 149.5 16.299999999999997 2297.5 2432 110.5 2162 11.800000000000001 345 4448 4132 17.25
decision_type=0 1 1 0 1 1 1 0 1 0 0 0 0 0 0 0 0 0 0 0 0 0 0 0 0 0 0 0 0
left_child=1 -1 -3 7 -4 -6 -5 -2 -9 10 17 14 13 -8 15 -10 24 -7 19 -15 22 -22 23 -12 -14 27 -27 -26 -17
right_child=3 2 4 6 5 9 12 8 11 -11 20 -13 16 18 -16 28 -18 -19 -20 -21 21 -23 -24 -25 25 26 -28 -29 -30
leaf_parent=1 7 2 4 6 5 17 13 8 15 9 23 11 24 19 14 28 16 17 18 19 21 21 22 23 27 26 26 27 28
leaf_value=0.5925063570079051 0.41408003105929025 0.56868066542288831 0.52094142735004423 0.3555787655023428 0.53805966744056111 0.37359374374151222 0.16450139358639718 0.43426817763935444 0.20013915106654168 0.22835240583670768 0.31544858843088153 0.18619375824928286 0.21751153749578142 0.31410443067550659 0.33245772123336792 0.31862672242251311 0.11130452843812795 0.47069076408039445 0.20058135747909547 0.21132709972560404 0.20592855155467982 0.35911241011186079 0.29667109088464216 0.39500421682993569 0.18203175913852945 0.17628687908872967 0.12631248955925306 0.23804237127304076 0.26397470176219939
leaf_count=19 19 17 16 13 13 10 12 11 15 19 10 17 17 15 16 11 13 11 10 10 10 11 11 12 12 16 12 10 10
internal_value=0 4.1933775267698481 3.9583629923207417 2.4999501121670757 3.7194724049025436 3.4966773591308948 2.1052136768853025 3.058163252969583 2.8010369517840443 3.2361353261673704 3.4774635140101116 2.5552674869912257 1.9567297263672268 2.2988654798332679 2.781933032692625 2.5407578417410455 1.7557249712059275 4.2445408772854574 2.5230431520513128 2.7299349829554558 3.1791556505141436 2.8616771556082226 3.3811874199997294 3.5884256755763833 1.8804240149181726 1.7802289525046944 1.5486928357609682 2.0749112829058007 2.9260195067950656
internal_count=398 159 140 239 123 107 140 99 80 94 75 69 127 47 52 36 80 21 35 25 54 21 33 22 67 50 28 22 21


Tree=20
num_leaves=30
split_feature=3 5 5 5 5 5 3 1 4 4 1 2 5 4 3 1 4 4 4 1 1 4 1 4 3 1 4 3 4
split_gain=221.78396366830702 52.413846131490573 46.823869701818467 45.728040696001699 47.705353933448123 40.47607308171132 37.253068741825473 23.030346408049581 16.190003706825792 16.13543552832715 13.519012739886307 15.132544419173428 10.894095194441149 8.6790807350782302 5.766710904234003 5.1281319354061452 10.342624586947068 10.176901610188338 4.407133136329918 3.4316820264977537 5.6996850297638417 3.2191936293634171 3.1807083545423183 2.7775852119142286 2.4973280443980173 1.5152831285252546 1.0143094397400318 0.73361561069587822 0.40116974273163919
threshold=2578.5 80 82 81 82 79 2092.5 241 17.949999999999999 16.449999999999999 90.5 64.5 80 15.649999999999999 3657.5 110.5 14.6 14.75 13.850000000000001 345 386.5 16.299999999999997 155.5 12.699999999999999 3264.5 231.5 16.949999999999999 4460.5 12.949999999999999
decision_type=0 1 1 1 1 1 0 0 0 0 0 0 1 0 0 0 0 0 0 0 0 0 0 0 0 0 0 0 0
left_child=1 -1 -3 -2 -5 25 10 12 15 14 11 -4 -7 22 23 16 -8 -17 19 -16 28 -18 -14 -9 26 -6 -15 -22 -21
right_child=3 2 6 4 5 7 8 9 -10 -11 -12 -13 13 24 18 17 21 -19 -20 20 27 -23 -24 -25 -26 -27 -28 -29 -30
leaf_parent=1 3 2 11 4 25 12 16 23 8 9 10 11 22 26 19 17 21 17 18 28 27 21 22 23 24 25 26 27 28
leaf_value=0.53325572202080174 0.40737453515713035 0.51181259470827445 0.53890648213299863 0.39329057676451551 0.36264769554138176 0.32782247334718706 0.26049559041857723 0.17622883617877955 0.17865632501515477 0.05912323689886502 0.33797930055542996 0.39003127370443613 0.20851166344558192 0.24492409192025663 0.2152142047509551 0.34939873119195292 0.41409459937871856 0.22911920652670018 0.1185441844557461 0.10947631475600333 0.21415222449736154 0.33919999996821087 0.13835095624838556 0.24523300017629351 0.2083701042028574 0.3088628162037243 0.28338447759548824 0.17672845005989077 0.13715066224336625
leaf_count=19 13 17 11 14 10 10 12 10 11 14 19 18 12 16 15 12 11 17 19 11 11 12 14 14 13 11 12 10 10
internal_value=0 3.7740397677586981 3.5625266849262904 2.2499551010789607 2.1450468123338258 2.0269806549076059 3.3475251608884067 1.8820953900725899 2.9072558050975204 1.5967134483844827 4.0354460293116672 4.4650118034975286 2.304608914130307 2.1592931201987304 1.7374807994998991 3.0998748379788594 3.357539336516389 2.788900443192186 1.602533898781985 1.741564583523493 1.5949297749570437 3.7501915620801891 1.7073282110863006 2.164812651773294 2.4459050137822222 3.3447466350737072 2.6140711435249875 1.963313795271374 1.2265457546427136
internal_count=398 159 140 239 226 212 123 191 75 114 48 29 77 67 100 64 35 29 76 57 42 23 26 24 41 21 28 21 21


Tree=21
num_leaves=30
split_feature=3 3 5 5 5 5 5 5 5 1 5 2 4 1 1 4 2 4 3 1 4 2 2 4 3 4 1 3 3
split_gain=180.48225987084516 44.210421469855191 37.895343969272972 36.829814896682819 48.120390020886816 43.810219713203423 25.328386918698925 21.665144269364077 19.786105570029406 19.264716202457123 16.592703693570456 14.440420141345214 13.239761295118058 10.468185163510384 10.130445310205971 7.997061171956716 5.8130036625912282 5.7756796110718653 5.7611081771077579 6.3391446410079482 4.5128971208338271 3.6066086457403657 2.7393234947560927 4.1348529201331701 1.6480922375390605 1.3784618702630951 2.3822388176965745 1.4042944932298127 1.3772207712492275
threshold=2398 3247.5 78 82 80 81 80 82 79 231.5 77 82.5 18.399999999999999 90.5 107.5 13.550000000000001 97.5 14.949999999999999 3727.5 228 14.949999999999999 87.5 149.5 16.299999999999997 2152.5 11.800000000000001 345 4448 4132
decision_type=0 0 1 1 1 1 1 1 1 0 1 0 0 0 0 0 0 0 0 0 0 0 0 0 0 0 0 0 0
left_child=2 6 -1 -4 -5 -6 -2 -8 -3 11 -7 -9 13 -12 24 -13 17 -17 19 -10 25 -19 23 -21 -15 -20 28 -28 -27
right_child=1 8 3 4 5 10 7 9 18 -11 12 15 -14 14 -16 16 -18 21 20 22 -22 -23 -24 -25 -26 26 27 -29 -30
leaf_parent=2 6 8 3 4 5 10 7 11 19 9 13 15 12 24 14 17 16 21 25 23 20 21 22 23 24 28 27 27 28
leaf_value=0.5390771603584289 0.39087405850489937 0.28830714775965766 0.48362434248129527 0.48282500276962914 0.44662552674611411 0.37415260835127401 0.34573929086327554 0.33716505949313824 0.12384387912849587 0.12348283844835617 0.19706163490811984 0.30423040926456452 0.16534602799836329 0.36879284739494328 0.22999484645468848 0.11973685659468175 0.2539599143382576 0.16365490176460962 0.17751322248402765 0.25896809935569765 0.088532172014506971 0.23714142862488244 0.16383446097373963 0.17595351308584214 0.31382465263207759 0.14633508212864396 0.14459675122052434 0.099342696492870655 0.19658351242542269
leaf_count=10 12 13 15 15 15 11 16 13 12 17 15 10 17 10 14 10 18 11 17 15 13 17 10 10 12 12 16 12 10
internal_value=0 2.0931784436600567 3.5181442187237204 3.3671258812349651 3.1649537422104714 2.8995341221861382 2.5280024762595854 2.3800662503178631 1.7080485862147594 2.2005118072653809 2.6020554237162012 2.4083171007753927 2.4177292875726435 2.6724856234356467 2.964931154416667 2.2185695943507282 2.0714741482266357 1.849730729468559 1.5877706524512665 1.8656442086113261 1.4245199382072316 2.0827172164406096 2.0806860659803661 2.2576226484775543 3.3881019570610742 1.5291404879804869 1.4455032974481583 1.2520215633724416 1.6917527771808885
internal_count=398 264 134 124 109 94 124 112 140 96 79 79 68 51 36 66 56 38 127 47 80 28 35 25 22 67 50 28 22


Tree=22
num_leaves=31
split_feature=3 2 4 5 3 6 5 2 5 0 2 3 2 2 3 1 1 4 3 3 4 4 2 3 5 3 5 2 1 4
split_gain=146.19063185153982 39.344382822854527 36.248520858207257 21.685444811461252 21.473628093511024 19.891244685254264 17.366779327066126 17.348735540547523 18.798808833473004 14.874536197819225 13.068908075574456 11.616562273557349 10.672597167890473 9.2585262117243587 7.7494075306875061 6.6606863110566223 13.247776059654257 6.822623205322742 5.5138782650341227 9.1585828101305253 6.1744356552162287 4.4562895794895212 2.827094745177817 5.3081657936418765 2.4672055700710303 2.0297949225498257 1.5706585706965797 1.304014321090051 3.0087098902636882 0.46968944796483925
threshold=2398 106 20.600000000000001 79 1931 1 82 66.5 82 6 88.5 2602.5 89.5 61.5 2922 97.75 110.5 16.449999999999999 3191.5 3607 14.949999999999999 15.75 96.5 3344.5 73 2125.5 70 168.5 345 17.449999999999999
decision_type=0 0 0 1 0 1 1 0 1 1 0 0 0 0 0 0 0 0 0 0 0 0 0 0 1 0 1 0 0 0
left_child=2 5 4 -3 13 6 -2 -6 -9 12 -11 -7 -8 -1 -5 21 17 -17 -16 -20 24 -10 -14 -24 -21 -23 -26 28 -28 -13
right_child=1 3 -4 14 7 11 9 8 15 10 -12 29 22 -15 18 16 -18 -19 19 20 -22 25 23 -25 26 -27 27 -29 -30 -31
leaf_parent=13 6 3 2 14 7 11 12 8 21 10 10 29 22 13 18 17 16 17 19 24 20 25 23 23 26 25 28 27 28 29
leaf_value=0.32871929049491877 0.31681428800026579 0.27441958693357615 0.49978157386183741 0.20882369370332787 0.38716969745499746 0.22428191783172743 0.078314673098234033 0.37873409149738463 0.17570960382620493 0.1859916739662488 0.32600368099908034 0.32772522211074828 0.22092492763812724 0.46479666709899903 0.059039862751960763 0.36918827295303358 0.20874598613556694 0.2610405707359314 0.20629156772047283 0.10435512199213631 0.060391389005459276 0.27671703669157893 0.12143780589103699 0.21017760221774762 0.11065814554691317 0.21446703240275383 0.1685810632317474 0.18264695865412553 0.10462178116043408 0.3583745107799769
leaf_count=10 12 13 10 14 14 14 13 13 15 15 12 10 13 10 10 14 17 10 16 19 13 11 14 13 10 10 19 12 12 10
internal_value=0 1.8838605984664438 3.1663298019722328 1.5149805769999174 3.0186293232104471 2.2878720505488297 2.0463308324308498 2.8361388492183042 2.6750520297222669 1.8780590252950788 2.4821923264750727 2.9414541701621868 1.5702930039392327 3.9675797879695893 1.3871421865969897 2.487262997147325 2.7628593397576635 3.2412673036257424 1.2987158216770973 1.3688462369402152 1.2381978717139539 2.1733893847299948 1.8261155426502227 1.6416437449278656 1.3527213684024497 2.4707417750642415 1.4635559499334052 1.5465732742274223 1.4382263146220677 3.4304986644536255
internal_count=398 264 134 138 124 126 92 104 90 80 27 34 53 20 125 77 41 24 111 101 85 36 40 27 72 21 53 43 31 20


Tree=23
num_leaves=31
split_feature=3 5 2 5 5 5 3 3 5 5 1 4 1 4 3 4 4 5 4 2 4 1 3 2 3 2 2 2 3 3
split_gain=119.19101945801026 36.062686792869499 43.943076719587452 32.815434851497798 28.092202622895002 23.447238251599742 21.641629794678124 14.812721362191155 18.446457121284084 13.581944503979003 11.845958502536689 11.87232179101747 11.390384464188401 16.020785971031728 7.5782726660571598 5.5660064811087864 9.6931805381674394 5.2708505229377067 7.6538243782382267 3.3305335517253525 4.104490364168015 4.9859239827265611 6.092113592009909 3.1845058591894713 2.6161965957934825 2.5310502200952456 2.1054814954137555 4.0305834798690938 1.6234319109949453 1.3982385198891762
threshold=2578.5 73 59 81 82 79 1931 1972.5 82 72 241 16.449999999999999 89.5 16.850000000000001 2432 15.75 14.75 80 15.649999999999999 118 13.850000000000001 329 4081 168.5 3886 104 101 88.5 4460.5 3527.5
decision_type=0 1 0 1 1 1 0 0 1 1 0 0 0 0 0 0 0 1 0 0 0 0 0 0 0 0 0 0 0 0
left_child=1 -1 -3 -2 -5 29 -4 -8 -9 -10 17 19 -11 14 15 16 -14 -7 25 -12 21 24 -23 -24 -21 -19 27 -20 -25 -6
right_child=3 2 6 4 5 10 7 8 9 12 11 -13 13 -15 -16 -17 -18 18 26 20 -22 22 23 28 -26 -27 -28 -29 -30 -31
leaf_parent=1 3 2 6 4 29 17 7 8 9 12 19 11 16 13 14 15 16 25 27 24 20 22 23 28 24 25 26 27 28 29
leaf_value=0.091668672263622297 0.31827069509487887 0.46349021537372703 0.3888076518263136 0.29208207236868994 0.27072469104420044 0.23282293222844599 0.14684759540991352 0.38043265434411855 0.15399646125733854 0.34674180189768478 0.17831622253764759 0.028082427329250745 0.2793041226895232 0.16276504453271629 0.35069628520445395 0.31282023741648746 0.16450288395086926 0.14143579567649531 0.15502845364389942 0.19626406899520324 0.080101595520973207 0.043084936589002615 0.089827596023678791 0.17881198128064474 0.12929460991173983 0.078849043635030591 0.15043748383011138 0.23278367996215821 0.12562639002095571 0.21905879855155944
leaf_count=10 13 13 14 14 11 10 11 13 12 15 11 14 19 16 11 13 12 14 12 14 20 10 12 12 10 12 14 15 11 10
internal_value=0 2.7550173045469903 2.8783951959503975 1.6377276162476626 1.5488571235436155 1.4582557537228327 2.7104937955737114 2.5753613519864005 2.6850526977229761 2.5365775957399483 1.3479823241844111 1.1433089464706809 2.6756398724608643 2.5083627992532622 2.7645700294863094 2.5789718238467518 2.3486493350036683 1.6510052470333101 1.5499270268465712 1.2640568007156252 1.1998977032856326 1.3155156012786471 1.1192032408383157 1.3158757765378271 1.6836012771042685 1.1254960242658854 1.8190783943367623 1.9822580159848764 1.5337539415644563 2.4612188509532382
internal_count=398 159 149 239 226 212 136 122 111 98 191 114 86 71 55 44 31 77 67 100 89 69 45 35 24 26 41 27 23 21


Tree=24
num_leaves=31
split_feature=3 5 2 5 5 5 4 6 5 5 3 0 2 5 2 1 1 4 2 5 1 2 1 2 4 2 3 4 2 4
split_gain=98.186524351511935 27.572418947072038 25.601396500809187 25.270256172773088 31.673901080685141 30.352031139842893 17.150814145606603 14.967863174174624 14.657001786693655 11.335980563529944 10.312365821793378 9.9165988380620433 9.9564904246256134 9.2133717789687353 8.4323653606486317 8.2341787556707118 8.08326899301764 6.3726486900541488 13.50184952474477 3.242575847776564 3.823814421152079 6.8912100341270772 5.5504355042610456 3.0510750819606045 3.6618561164350218 1.7808582313263202 4.4160489999566295 1.2570986255623211 0.47207041884776046 0.2526597166381066
threshold=2398 78 106 80 82 81 18.899999999999999 1 79 82 2602.5 6 88.5 77 89.5 90.5 107.5 11.800000000000001 172.5 78 254 136 165.5 149.5 13.1 96.5 3344.5 16.299999999999997 166 17.449999999999999
decision_type=0 1 0 1 1 1 0 1 1 1 0 1 0 1 0 0 0 0 0 1 0 0 0 0 0 0 0 0 0 0
left_child=1 -1 7 -3 -5 -6 13 9 -4 -2 -9 14 -13 -7 -11 -15 27 18 -10 -19 22 -22 -21 -23 28 -16 -27 -17 -25 -12
right_child=2 3 8 4 5 6 -8 10 17 11 29 12 -14 15 25 16 -18 19 -20 20 21 23 -24 24 -26 26 -28 -29 -30 -31
leaf_parent=1 9 3 8 4 5 13 6 10 18 14 29 12 12 15 25 27 16 19 18 22 21 23 22 28 24 26 26 27 28 29
leaf_value=0.41701707839965824 0.25445214478919903 0.36609377582867941 0.22348202742063084 0.36260000546773274 0.33652766744295759 0.28798860744996507 0.088904075883328923 0.17564168583069528 0.22869443572484524 0.055126726799286332 0.2763044810295105 0.14523663898309069 0.26744439502557121 0.12475568393866221 0.17824188654239362 0.27300626337528228 0.15598475754261018 0.15059364058754662 0.091491323336958891 0.080683852732181538 0.0081892681392756374 0.13727653070997733 0.17902618023482236 0.094787341220812393 0.046650621842812094 0.094221163860389173 0.17516115078559291 0.2249991720914841 0.1248077566921711 0.298783792257309
leaf_count=10 12 15 13 15 15 11 16 14 13 13 10 15 12 15 13 12 15 11 16 12 11 13 11 11 17 14 13 10 10 10
internal_value=0 2.5728362622990537 1.5218110917150185 2.4440189621621564 2.2765530727872063 2.0612157884430378 1.8136092911038217 1.8477109225969466 1.2242503765619535 1.6381838358938694 2.4146665689699791 1.5022331940941513 1.9955119722419314 2.0484203469185602 1.2509402316415086 1.8725333660840988 2.1259022282587514 1.1191511072069407 1.5299616682118382 0.99505208357004449 0.92893764185993111 0.79975415168390163 1.2771713979866193 0.954587017825129 0.81152602412590857 1.4783339448273183 1.33192268676228 2.5118485824628309 1.0908277715955461 2.8754413664340972
internal_count=398 134 264 124 109 94 79 126 138 92 34 80 27 63 53 52 37 125 29 96 85 62 23 51 38 40 27 22 21 20


Tree=25
num_leaves=31
split_feature=3 5 5 5 5 5 5 5 4 2 5 3 3 4 3 4 3 3 1 4 4 1 4 3 3 3 5 1 4 3
split_gain=79.790272979560768 28.85374096098144 23.977406485840902 23.097906395763061 22.724736978923261 27.960985699045409 23.646059863148821 21.810747316400182 14.640997731012277 9.5317192881533117 8.136969017081384 7.1891551902816104 8.7959201141845256 7.9076818308842007 7.1267813408693144 6.3348915299520172 8.0126336059597634 11.425420462432513 5.1028567699336094 4.8209689512219427 4.4627589628005069 4.1648441046227305 4.1576561991689047 3.9044018174579946 3.5347887235505291 1.6960450070647894 1.6902745321994175 1.6125421979923047 1.5915964353758909 1.0407210465668832
threshold=2508.5 80 81 79 82 78 81 82 19.100000000000001 84.5 74 2953.5 2644 17.75 2152.5 16.850000000000001 3191.5 3380.5 231.5 14.949999999999999 16.299999999999997 306 15.449999999999999 2900.5 3522.5 4068.5 72 148.5 12.35 4361.5
decision_type=0 1 1 1 1 1 1 1 0 0 1 0 0 0 0 0 0 0 0 0 0 0 0 0 0 0 1 0 0 0
left_child=1 -1 -2 18 -3 -6 -7 -5 9 10 -8 12 -9 15 20 16 -13 -18 -4 21 -12 -19 -11 27 -15 -23 -27 -14 -28 -30
right_child=2 4 3 7 5 6 8 11 -10 22 14 13 23 24 -16 -17 17 19 -20 -21 -22 25 -24 -25 -26 26 28 -29 29 -31
leaf_parent=1 2 4 18 7 5 6 10 12 8 22 20 16 27 24 14 15 17 21 18 19 20 25 22 23 24 26 28 27 29 29
leaf_value=0.34566424323452849 0.26659133881330493 0.32634000221888226 0.27286134958267205 0.22944736331701279 0.34709099476987665 0.29126400798559188 0.12684981714595447 0.074354312462466099 0.056455331047376003 0.087553071058713461 0.3050599900158969 0.025666441102153981 0.16952921806701593 -0.0027104018628597254 0.16855815484055453 0.17907041419636122 0.20532237670638342 0.15628695402826584 0.17653938220305876 0.041079432230729324 0.21687824924786889 0.067910310084698722 0.16481863826513291 0.22095052272081378 0.07943722754716874 0.068365120738744733 0.13541968003111451 0.11836513585665009 0.11973421871662145 0.07605369004110496
leaf_count=18 13 15 11 16 11 16 11 14 12 13 11 13 14 10 14 11 11 14 11 13 12 16 15 10 11 10 19 11 10 12
internal_value=0 2.2700389182144725 1.343602434694767 1.2710706102445659 2.1057399701040524 1.9547408328756042 1.7943767918846929 1.1712076936350313 1.5910561940717427 1.7531355967451083 2.023616882817199 1.0808948542754255 1.4134471732742933 0.9722610967357953 2.2481116348424472 1.0649000749338504 0.99724037377005914 1.088930731062733 2.2470036589286546 0.97608792897749774 2.590521252673605 1.0668140633813576 1.2894533920500959 1.6814087927341461 0.40319308780488516 0.96316068014825018 1.0522767834584503 1.4701702189445496 1.1421854605489388 0.95908475802703341
internal_count=398 148 250 237 130 115 104 215 88 76 48 199 49 150 37 129 118 105 22 94 23 81 28 35 21 67 51 25 41 22


Tree=26
num_leaves=31
split_feature=3 4 6 2 3 5 3 5 2 3 3 3 2 2 1 6 2 2 5 1 3 3 3 1 3 3 2 3 3 3
split_gain=65.199899480228055 30.701466391875215 23.795802205207167 14.057142267463064 13.661138201175049 11.979896392742063 10.847806093669817 11.572236463547597 10.071655203245143 9.2261463356551872 11.653066273598398 8.9549296473435902 5.9337464926104815 5.0050053823807445 8.0084580374043757 4.4395041880036672 8.6347651227291777 6.1062012610606615 3.8687827667016847 4.1266552512555563 4.9542704935158781 3.708798595364911 3.1435803092122541 3.0981850545961365 2.6011331836028617 3.0190315300045647 2.3424828970650537 2.1716094177347571 1.139454933221856 0.95476430532150403
threshold=2568.5 20.600000000000001 3 85.5 1931 79 1972.5 82 66.5 2432 2377 2996.5 61.5 172.5 386.5 2 75.5 84.5 71 177 3727.5 2162 3412.5 241 2860 2715.5 139.5 4057.5 3077.5 4228.5
decision_type=0 0 1 0 0 1 0 1 0 0 0 0 0 0 0 1 0 0 1 0 0 0 0 0 0 0 0 0 0 0
left_child=1 4 -2 11 12 -5 -6 -8 -9 10 15 -4 -1 18 -15 16 -10 21 -7 24 22 -17 23 28 25 -20 -24 -22 -21 -29
right_child=2 -3 3 5 6 13 7 8 9 -11 -12 -13 -14 14 -16 17 -18 -19 19 20 27 -23 26 -25 -26 -27 -28 29 -30 -31
leaf_parent=12 2 1 11 5 6 18 7 8 16 9 10 11 12 14 14 21 16 17 25 28 27 21 26 23 24 25 26 29 28 29
leaf_value=0.21289283320307725 0.25652936076124511 0.37162241339683533 0.12339532716820634 0.18398149484658943 0.083536987413059594 0.048850173316895965 0.28042808696627619 0.26288198729356133 0.13179002188146111 0.23449480384588242 0.050349507778882988 0.24556276450554529 0.32183085680007939 -0.00020655683026863975 0.10405853802666945 0.1478329284116626 0.2553897473674554 0.10061743066591376 0.067138481582514939 0.11774109434336424 0.065517826553653277 0.22546538114547732 0.1870736319571733 0.073517916690219537 0.046951323350270593 0.14153533056378365 0.12537651121616364 0.13060959302462066 0.16344668164849283 0.095798442028462882
leaf_count=10 12 10 12 17 11 12 12 12 10 16 10 12 10 13 17 16 13 17 12 12 17 10 16 11 15 10 10 13 10 20
internal_value=0 2.0207608056011472 1.1926152954743672 1.1206845542269568 1.9054231642156232 1.0359111800835263 1.7844475286565429 1.8744462717581412 1.7671576643076081 1.6547669414430857 1.509465657860825 1.8447904583687584 2.6736184500157831 0.96321775421916334 0.58876996921996272 1.6618854427202181 2.0165073628658834 1.472203950549281 1.0343154349152139 1.0791768350587418 1.1771281520161061 1.7769156407851439 1.3733898738430719 1.1685021309690042 0.79061754996812827 1.0095523111945526 1.6334397013370807 0.94553932026028631 1.3851636130024085 1.0951192575422199
internal_count=398 157 241 229 147 205 127 116 104 92 76 24 20 188 30 66 23 43 158 146 109 26 59 33 37 22 26 50 22 33


Tree=27
num_leaves=31
split_feature=6 5 5 0 5 5 2 4 5 1 4 4 2 4 1 4 4 4 4 3 3 4 4 1 3 4 5 2 3 2
split_gain=54.581290418952676 48.306987933267749 33.187766599812505 24.139628057378104 22.19515383123661 26.732769602200847 20.214235742647148 15.804449329510419 15.623566809951797 20.638033077820523 18.763019197532969 11.304408023184337 9.801063538324911 8.7198902927688664 5.1492415965324909 4.8193423877744976 4.672684915078321 8.3066234968248622 5.2879626283243155 3.8678368170498985 4.8627029725613014 4.6534005443356321 3.8585418658102739 2.4283373017254277 1.8396868329719638 3.5719731256035203 1.8030927548643803 1.3798041954656384 1.6691717589400099 1.3498866522263384
threshold=1 80 81 4 79 82 87.5 19.449999999999999 82 93.5 17.949999999999999 14.949999999999999 106 17.25 110.5 17.149999999999999 14.449999999999999 15.449999999999999 17.949999999999999 3216 3607 14.949999999999999 16.299999999999997 107.5 3231.5 15.350000000000001 73 185 4132 151
decision_type=1 1 1 1 1 1 0 0 1 0 0 0 0 0 0 0 0 0 0 0 0 0 0 0 0 0 1 0 0 0
left_child=4 13 -3 8 11 6 -6 12 -4 10 -10 -1 14 -2 -7 22 -11 -18 23 -14 -21 26 24 -19 25 -16 -22 28 -28 -30
right_child=1 2 3 -5 5 7 -8 -9 9 16 -12 -13 19 -15 15 -17 17 18 -20 20 21 -23 -24 -25 -26 -27 27 -29 29 -31
leaf_parent=11 13 2 8 3 6 14 6 7 10 16 10 11 19 13 25 15 17 23 18 20 26 21 22 23 24 25 28 27 29 29
leaf_value=0.27490201443433754 0.26394270068655407 0.29555519539862873 0.26940094991163777 0.0008953013203360817 0.30947868287563313 0.17725073328384988 0.10841035746037959 -0.02877193811264905 0.1447584598955205 0.16540826037526132 0.30807692011197413 0.13455574770147602 0.014881794676184654 0.39038029611110692 0.058030204537014164 0.1511148028075695 0.033939116746187208 0.18961311876773834 0.070733342909564581 0.1347173881317888 0.053829909606199516 0.010427164218642496 0.05581715371873644 0.12152555259791287 0.14890588939189911 0.13122828981528681 0.071922393888235098 0.056276985108852387 0.137682160238425 0.092684049407641092
leaf_count=11 12 16 11 11 10 13 10 11 17 12 12 12 10 10 12 20 15 10 12 14 19 11 18 11 10 15 16 10 12 15
internal_value=0 1.8460921057524946 1.6091068508946813 1.4150246738724679 1.0808997411041494 0.98565541691583602 2.0894452016800642 0.87849136014260998 1.5696925565460698 1.4307320355542339 2.1233851239888062 2.0167787526936634 0.94427760708599517 3.2141433497044174 1.1914897785649041 1.0907800691574812 1.0959497094775239 0.95641648590875172 1.2368825397482424 0.74096292400053732 0.80200879794267033 0.71005324171070594 0.93791899318722161 1.5394820315497262 1.1226609988087737 0.98695807469387853 0.80260320830469334 0.89735373910867944 0.97516394562499464 1.1268320977687836
internal_count=398 149 127 111 249 226 20 206 100 89 29 23 195 22 88 75 60 48 33 107 97 83 55 21 37 27 72 53 43 27


Tree=28
num_leaves=30
split_feature=6 4 5 5 0 5 5 2 4 1 2 3 3 4 4 5 5 2 2 2 3 2 3 4 1 3 4 2 3
split_gain=44.210844705298314 39.583420833005448 25.983170361878194 25.19847808453315 21.1529979800126 17.978076241968012 21.65354318268075 16.373530292241057 12.801603550848967 9.8907211864996896 8.3015311627139567 5.5281678326450958 7.8732370824777504 7.1979890250582059 7.9197875179996231 5.07255225122627 5.5159921929214448 4.266648394236654 3.4732070767082774 5.6746689637695269 2.9029692265155376 2.7068201140143238 2.5262648187701835 3.1353367684454163 3.2227454105139799 3.8216614311922719 1.2024164922311087 0.81916214810991139 0.40184670060045491
threshold=1 19.550000000000001 80 81 4 79 82 87.5 19.449999999999999 212.5 83.5 2297.5 2644 15.25 16.149999999999999 78 77 68.5 109 89.5 3344.5 96.5 3412.5 13.1 329 4276 16.449999999999999 149.5 4498.5
decision_type=1 0 1 1 1 1 1 0 0 0 0 0 0 0 0 1 1 0 0 0 0 0 0 0 0 0 0 0 0
left_child=5 2 -2 -4 11 9 7 -7 10 -1 26 13 -13 -5 -15 -12 -17 -16 19 -18 21 -21 -20 24 -24 -26 -8 -25 -27
right_child=1 -3 3 4 -6 6 8 -9 -10 -11 15 12 -14 14 17 16 18 -19 22 20 -22 -23 23 27 25 28 -28 -29 -30
leaf_parent=9 2 1 3 13 4 7 26 7 8 9 15 12 12 14 17 16 19 17 22 21 20 21 24 27 25 28 26 27 28
leaf_value=0.25627912029623978 0.26068928688764575 0.32020133793354039 0.25736141768949378 0.19761422841172471 -0.023837110847234728 0.27853081211447711 0.16719187579371708 0.097569322884082807 -0.025894742797721516 0.12399545443745762 0.12658418901264668 0.049265967134167157 0.15264706863806798 0.045745027959346776 0.11450673871570163 0.12947117964426677 0.031729436772210261 0.18672025879224141 0.0062364513985812666 0.12558978361388048 0.15245504692196846 0.062761079985648394 0.12299564175985077 0.053159190485110634 0.022423544641739381 0.10139772719280288 0.11928026556968691 0.019812754147193013 0.074367552115158594
leaf_count=10 18 15 14 19 10 10 11 10 11 13 19 17 13 10 18 15 14 15 10 12 10 16 11 13 15 11 10 17 11
internal_value=0 1.6614828928805037 1.4890354503668957 1.3155748164602394 1.1429027473809672 0.97280976885647319 0.8870898731803909 1.8805006749927997 0.79064222251899197 1.8151009176736292 0.84984984382903439 1.2930412099737187 0.94064444452524187 1.4635557739004013 1.2370640600836553 0.77817003823209274 0.71839090799987915 1.4733106602321973 0.65664224138100902 0.86154178214760924 1.0620539874622696 0.89687667254890713 0.53556524001892702 0.59623199976676211 0.75473402111917187 0.61345168703072073 1.4437682330608368 0.34262876560290656 0.87882639653980732
internal_count=398 149 134 116 102 249 226 20 206 23 195 92 30 62 43 174 155 33 140 52 38 28 88 78 48 37 21 30 22


Tree=29
num_leaves=31
split_feature=3 4 5 5 5 3 3 5 4 4 1 2 2 2 2 3 3 4 3 3 5 2 2 2 3 5 2 3 1 3
split_gain=36.783055326830095 22.654504973485984 13.387700216743752 10.434124434637511 11.823837603404996 8.5195743311953152 9.2374246684597949 9.9433395703495933 9.7529512774503644 19.735186852626413 19.46481588421932 15.935860868483452 6.4030042790837332 4.9230981109792111 3.8944572279789469 3.6695492605166322 7.7504368057529902 7.468124699393023 3.6628817193884768 3.6495981854248356 3.3117279674803655 4.0233252137491888 9.3796262305135301 5.1678537171882297 2.821640685337222 1.6541454082858955 3.506700902047406 2.171848470114508 1.4737645706905216 1.265401259001294
threshold=2508.5 20.600000000000001 81 79 82 1931 1972.5 82 14.6 15.149999999999999 89.5 71.5 85.5 89.5 61.5 2953.5 2644 17.75 3522.5 3527.5 71 118 136 143.5 2900.5 73 185 4330 329 3216
decision_type=0 0 1 1 1 0 0 1 0 0 0 0 0 0 0 0 0 0 0 0 1 0 0 0 0 1 0 0 0 0
left_child=1 5 -2 19 -5 14 -7 -8 12 -10 -11 -12 -9 -13 -1 16 -6 20 -19 -4 -17 29 -23 -24 -18 -25 27 28 -27 -22
right_child=2 -3 3 4 15 6 7 8 9 10 11 13 -14 -15 -16 17 24 18 -20 -21 21 22 23 25 -26 26 -28 -29 -30 -31
leaf_parent=14 2 1 19 4 16 6 7 12 9 10 11 13 12 13 14 20 24 18 18 19 29 22 23 25 24 28 26 27 28 29
leaf_value=0.15596118450164789 0.18617245646623465 0.29560825526714324 0.18472079417357837 0.1579382972791791 0.029460421630314423 0.042243865403262054 0.22853397645733575 0.12879958614706988 0.25740395623904011 0.23024253249168397 -0.0074992298303792884 0.10103677034378052 0.020453653236230218 0.1813161760568619 0.24421601131558421 0.023904569633305076 0.099539447396993649 -0.038281536251306522 0.045341272787614302 0.10292268902063371 0.084452771682005642 -0.026488713771104812 0.14352611303329468 0.04148499130418426 0.16239083528518677 0.096522797218390882 0.029800794366747142 0.12923905524340543 0.046258957833051687 0.12645588312298059
leaf_count=10 13 10 12 16 14 11 11 10 13 13 12 25 12 11 10 14 25 10 11 10 13 10 10 19 10 14 12 11 10 16
internal_value=0 1.5026798150250436 0.8736596413254738 0.81946198730277608 0.75234291529239605 1.3973607760651603 1.2950683687734654 1.3847779656159822 1.2815885928187829 1.4553798365884938 1.2169769442044809 0.92300134109488374 0.69701804559339176 1.2556658875611093 2.0008859790861608 0.68584723227736943 0.92343682461247156 0.6082346321145693 0.055208875309853328 1.4753983728587627 0.69826208089673247 0.75416668423491973 0.64555077986835052 0.76534524270774507 1.1749698679362024 0.66384283549180534 0.76449954882264137 0.92443952773298532 0.75579530807832873 1.0762690213219872
internal_count=398 148 250 237 215 138 118 107 96 74 61 48 22 36 20 199 49 150 21 22 129 115 86 76 35 66 47 35 24 29


Tree=30
num_leaves=31
split_feature=6 5 5 4 0 5 5 2 4 4 2 1 5 5 5 0 4 6 2 2 5 1 2 2 2 1 3 3 3 3
split_gain=31.730573761598237 31.092598968471975 21.044723424742187 14.644635207277304 13.713182822306081 12.387578517694493 14.382734355721368 12.919875157348152 10.925104787776533 8.796593669044924 8.3937862659342102 7.0896133685426292 6.35226657887047 7.2267117021951748 5.0692887401783437 4.4022890954364726 4.3946867883861103 5.4496701401482923 5.3228768174626246 4.5516155252309716 4.262033765974671 3.3451572912816765 4.2848954476560337 2.5517242063702188 3.260240005147498 8.4676177994275115 2.0461131720274928 1.6848708791615543 2.7644162032006037 0.90491557359221908
threshold=1 80 81 18.399999999999999 4 79 82 87.5 19.449999999999999 14.949999999999999 74.5 96.5 78 77 81 6 14.75 3 93.5 80.5 76 137.5 96.5 136 172.5 386.5 2092.5 4481 4147.5 3285
decision_type=1 1 1 0 1 1 1 0 0 0 0 0 1 1 1 1 0 1 0 0 1 0 0 0 0 0 0 0 0 0
left_child=5 10 -3 4 16 9 7 -7 12 -1 -2 -5 15 -14 -15 -8 17 -4 19 26 -16 -22 -23 29 27 -26 -18 28 -25 -24
right_child=1 2 3 11 -6 6 8 -9 -10 -11 -12 -13 13 14 20 -17 18 -19 -20 -21 21 22 23 24 25 -27 -28 -29 -30 -31
leaf_parent=9 10 2 17 11 4 7 15 7 8 9 10 11 13 14 20 15 26 17 18 19 21 22 29 28 25 25 26 27 28 29
leaf_value=0.21234956681728356 0.18955059101184205 0.22438806015998125 0.18834392368793487 0.2315386689522049 -0.026673296689987181 0.23206007292494171 0.069942861571908002 0.071312599182128913 -0.03409853478554975 0.088545697492857789 0.31360141992568974 0.1180036253549836 0.12187241746319666 0.11736036390066147 0.093796415195653321 0.1597808454185724 0.09745957288477157 0.097141305401333061 0.021596772099534672 0.15590587317943574 -0.012521212100982665 0.091150888251630882 0.02934600724620395 0.077923298869282009 -0.044617930528792454 0.070893596584598234 0.041042884644120932 0.10298264086246492 0.015510850264267488 -0.0069812352148195108
leaf_count=11 12 16 10 11 10 10 10 10 11 12 10 11 18 12 19 12 18 19 12 10 10 19 16 20 11 15 10 10 11 12
internal_value=0 1.3618193100200304 1.1716918447164921 1.017142113994572 0.83655193572591868 0.77839074196550162 0.70723610044409624 1.5168633605353534 0.62863151208572177 1.4775624369149623 2.4593733142722738 1.7477114715359428 0.68332784777471367 0.6189649867552004 0.54931553267918887 1.1894539821554313 0.97620825251399335 1.2859048412085092 0.79658423107117415 0.97993681320038284 0.4969277195608035 0.42934955653242557 0.47799531772034243 0.39129260476114913 0.49724155998052055 0.22023335113548315 0.77310755655967767 0.67290530217493449 0.55776946138470407 0.13777189048622468
internal_count=398 149 127 111 89 249 226 20 206 23 22 22 195 173 155 22 79 29 50 38 143 124 114 95 67 26 28 41 31 28



feature importances:
weight=230
horsepower=170
model_year=167
acceleration=162
displacement=154
origin=26
cylinders=12

feature information:
cylinders=4,8,6,3,5
displacement=[68,455]
horsepower=[0,230]
weight=[1613,5140]
acceleration=[8,24.8]
model_year=73,78,76,82,75,70,79,80,81,71,72,77,74
origin=1,3,2

pandas_categorical:None