tree
version=v2
num_class=1
num_tree_per_iteration=1
label_index=0
max_feature_idx=12
objective=regression_l1
feature_names=AGE B CHAS CRIM DIS INDUS LSTAT NOX PTRATIO RAD RM TAX ZN
feature_infos=[2.8999999999999999:100] [2.52:396.89999999999998] 1:0:-1 [0.0090599999999999986:88.976200000000006] [1.1295999999999999:12.1265] [0.46000000000000002:27.739999999999998] [1.73:37.969999999999999] [0.38500000000000001:0.871] [12.6:22] [1:24] [3.5610000000000004:8.7799999999999994] [188:711] [0:100]
tree_sizes=1111 1204 1383 1306 1304 1433 1658 1530 1444 1603 1593 1520 1516 1457 1522 1445 1599 1450 1616 1541 1529 1558 1636 1533 1705 1680 1692 1547 1600 1671 1463 1673 1625 1542 1708 1608 1628 1711 1549 1616 1649 1549 1542 1636 1618 1617 1714 1537 1634 1610 1480

Tree=0
num_leaves=14
num_cat=0
split_feature=6 7 6 10 10 6 10 9 8 5 5 0 3
split_gain=152.802 45.5678 22.9875 15.9866 15.5345 19.4464 12.1184 7.90204 7.06364 3.13498 3.09878 1.00606 0.164912
threshold=9.7250000000000032 0.51250000000000007 14.4 5.951500000000002 6.1445000000000007 7.6350000000000007 6.1750000000000007 4.5000000000000009 20.150000000000002 13.905000000000003 6.3050000000000006 77.90000000000002 0.042990000000000007
decision_type=8 8 10 10 10 10 10 8 10 8 8 10 8
left_child=4 3 6 -2 5 -1 7 -3 -9 -4 -5 -11 -6
right_child=1 2 9 10 12 -7 -8 8 -10 11 -12 -13 -14
leaf_value=21.600000762939452 21.090000724792482 20.900000762939452 20.990000629425047 21.835000705718993 22.160000610351563 21.170000648498537 21.250000762939454 21.210000705718993 21.035000705718993 20.460000705718993 21.420000648498537 20.450000715255737 21.980000686645507
leaf_count=28 27 28 21 21 20 28 39 37 33 27 20 83 94
internal_value=0 -0.392857 -0.578358 0.338235 0.770588 0.339286 -0.291971 -0.479592 -0.3 -0.877863 0.731707 -0.945455 0.982456
internal_count=506 336 268 68 170 56 137 98 70 131 41 110 114
shrinkage=1


Tree=1
num_leaves=15
num_cat=0
split_feature=6 6 10 8 11 3 9 0 3 8 10 3 0 0
split_gain=148.588 50.7473 40.0501 10.3558 8.03228 7.51304 7.3373 6.03727 6.7972 5.73985 4.8 3.33793 1.12769 0.163964
threshold=8.1800000000000015 14.4 6.5915000000000008 19.650000000000002 322.00000000000006 0.29025000000000006 4.5000000000000009 58.050000000000004 1.5076700000000003 19.400000000000002 6.0285000000000011 0.76730500000000001 84.90000000000002 23.350000000000005
decision_type=8 10 10 10 8 8 8 8 8 10 10 10 10 8
left_child=9 2 3 4 6 -3 -2 -6 -9 13 11 -5 -7 -1
right_child=1 5 -4 10 7 12 -8 8 -10 -11 -12 -13 -14 -15
leaf_value=0.36999984741210956 -0.016000061035156322 -0.13900002479553208 0.9764999675750734 -0.21625001430511476 0.043499932289123501 -0.69500007152557375 0.16199996948242196 -0.16100003242492669 -0.10500000000000008 0.1720000076293946 -0.059250054359436005 -0.11350010871887194 -0.66500005245208738 0.95499998092651384
leaf_count=20 36 23 34 29 21 38 28 26 22 20 21 20 77 91
internal_value=0 -0.344 -0.0632911 -0.231527 -0.0676692 -0.826087 0.1875 -0.304348 -0.5 0.89313 -0.542857 -0.714286 -0.930435 0.981982
internal_count=506 375 237 203 133 138 64 69 48 131 70 49 115 111
shrinkage=0.1


Tree=2
num_leaves=17
num_cat=0
split_feature=6 6 10 8 10 0 4 10 6 7 1 7 0 7 8 0
split_gain=123.084 47.8147 35.1473 12.6185 9.18573 7.80651 6.17399 5.92597 5.34545 4.9 4.48741 4.13103 1.65631 1.09028 0.772059 0.143965
threshold=7.8400000000000007 14.795000000000002 6.6270000000000007 17.700000000000006 6.4190000000000014 59.550000000000004 2.8666000000000005 5.8820000000000006 14.615000000000002 0.50850000000000006 390.09000000000009 0.57400000000000007 87.100000000000009 0.61900000000000011 17.850000000000005 72.600000000000009
decision_type=8 10 10 10 8 10 10 10 8 10 10 10 10 8 10 10
left_child=4 2 3 7 -1 10 13 8 -2 -9 -5 12 -7 -3 -6 -15
right_child=1 6 -4 5 14 11 -8 9 -10 -11 -12 -13 -14 15 -16 -17
leaf_value=0.082999862670898497 -0.13739999008178713 -0.25849998998641971 0.96034993839263905 -0.039550099849701148 1.0265000095367434 -0.15320010423660282 -0.12880012106895453 0.17579989624023434 0.14279985618591304 0.015100008964538603 0.052787432670593229 -0.27163760924339292 -0.21018758678436278 -0.61650007295608522 0.33299986267089854 -0.67550004291534427
leaf_count=20 24 22 36 29 70 25 21 20 20 20 33 27 21 21 32 65
internal_value=0 -0.333333 -0.0823529 -0.232877 0.819672 -0.422222 -0.829457 0.0714286 -0.181818 0.35 -0.16129 -0.643836 -0.826087 -0.925926 0.941176 -0.976744
internal_count=506 384 255 219 122 135 129 84 44 40 62 73 46 108 102 86
shrinkage=0.1


Tree=3
num_leaves=16
num_cat=0
split_feature=6 10 8 6 6 5 4 4 1 11 5 10 7 0 0
split_gain=117.13 43.8225 20.8987 16.8521 10.5014 8.16822 6.17399 5.37276 6.13723 7.12295 5.01032 3.23308 1.09028 0.150617 0.143965
threshold=9.7250000000000032 6.3650000000000011 19.900000000000002 14.795000000000002 6.8650000000000011 5.0400000000000009 2.8666000000000005 4.4281000000000006 396.66000000000003 407.00000000000006 7.0150000000000015 6.5915000000000008 0.61900000000000011 72.600000000000009 72.600000000000009
decision_type=10 10 10 10 8 10 10 10 8 8 10 10 8 10 10
left_child=1 2 4 7 -1 -6 12 8 9 -2 11 -3 -5 -13 -14
right_child=3 10 -4 6 5 -7 -8 -9 -10 -11 -12 13 14 -15 -16
leaf_value=0.28970002899169922 0.031664928674697994 0.15125493912696833 -0.23131564553976069 -0.23264999098777786 0.14919558992385848 -0.050102537274360696 -0.11592010896205895 -0.13715381240844735 0.049371116638183568 -0.1031257190942764 0.2114999824523924 0.96234994564056398 -0.55485006566047657 1.2604649394035343 -0.6079500386238097
leaf_count=26 25 29 39 22 33 39 21 22 26 31 26 61 21 20 65
internal_value=0 0.377289 -0.0218978 -0.587983 0.22449 0.0277778 -0.829457 -0.288462 -0.170732 -0.357143 0.779412 0.872727 -0.925926 0.975309 -0.976744
internal_count=506 273 137 233 98 72 129 104 82 56 136 110 108 81 86
shrinkage=0.1


Tree=4
num_leaves=16
num_cat=0
split_feature=6 10 10 6 8 3 11 0 4 5 11 8 1 7 0
split_gain=100.541 37.9881 17.0496 15.9192 12.6139 8.82457 6.18924 6.18687 7.13489 5.51294 5.37783 4.94869 4.48728 1.51463 0.521739
threshold=9.7250000000000032 6.1750000000000007 6.7055000000000016 16.205000000000002 19.650000000000002 0.43874500000000011 306.00000000000006 29.500000000000004 4.8375000000000012 6.9350000000000014 407.00000000000006 17.850000000000005 391.88000000000005 0.48850000000000005 69.950000000000017
decision_type=10 8 10 10 10 8 10 8 10 10 8 10 8 10 10
left_child=1 6 4 10 7 -5 -1 -3 9 -9 11 -2 -12 -4 -7
right_child=3 2 13 5 -6 14 -8 8 -10 -11 12 -13 -14 -15 -16
leaf_value=0.012322781789302618 0.088853458762168824 0.26073002609252927 0.93328994888305672 -0.082006586676835982 -0.12157970551609978 -0.56987505362510671 -0.1797698406100274 0.35742512300014478 -0.023124657001495488 0.070477130191326329 -0.15251131132960316 -0.065738679492473653 -0.0685908916473391 1.2378032857608798 -0.55409154641032221
leaf_count=29 30 24 55 21 24 23 38 31 23 21 29 29 32 28 69
internal_value=0 0.340659 0.553398 -0.553648 0.317073 -0.823009 -0.313433 0.474747 0.333333 0.538462 -0.3 -0.0847458 -0.508197 0.903614 -0.956522
internal_count=506 273 206 233 123 113 67 99 75 52 120 59 61 83 92
shrinkage=0.1


Tree=5
num_leaves=18
num_cat=0
split_feature=6 8 10 6 10 1 4 7 0 0 4 5 3 4 0 1 1
split_gain=84.1794 34.1784 22.1821 16.2327 9.40218 8.90931 7.12344 9.93773 6.76115 6.18687 7.13489 5.51294 4.44444 2.56364 0.9 0.9 0.583784
threshold=9.7250000000000032 19.650000000000002 6.1750000000000007 18.135000000000002 6.7055000000000016 358.63500000000005 4.4455500000000017 0.51250000000000007 76.600000000000009 29.500000000000004 4.8375000000000012 6.9350000000000014 8.3796900000000019 2.1363500000000006 31.600000000000005 386.74000000000007 394.69500000000011
decision_type=10 10 8 10 10 8 10 10 10 8 10 10 8 8 10 10 10
left_child=1 2 14 5 9 -2 7 -7 -9 -4 11 -11 -3 -5 -1 -10 -6
right_child=3 12 4 13 16 6 -8 8 15 10 -12 -13 -14 -15 -16 -17 -18
leaf_value=0.01579800347208966 -0.25856171430355296 -0.031467502761721632 0.23465702348327647 -0.65474589394867422 1.0106381168870928 0.038431416969597447 -0.1406436306201222 0.012081039363145862 -0.1449824877142909 0.32168261070013032 -0.020812191301345886 0.063429417172193858 -0.38010268903017064 -0.44138752346706378 -0.068902156554460345 -0.11368472568273554 0.73428601913070679
leaf_count=20 29 36 24 47 54 37 24 23 20 31 23 21 24 33 20 20 20
internal_value=0 0.333333 0.521127 -0.484979 0.676301 -0.294118 -0.177419 -0.06 -0.301587 0.474747 0.333333 0.538462 -0.333333 -0.85 -0.15 -0.55 0.945946
internal_count=506 273 213 233 173 153 124 100 63 99 75 52 60 80 40 40 74
shrinkage=0.1


Tree=6
num_leaves=21
num_cat=0
split_feature=6 10 0 7 6 6 6 4 10 4 11 9 1 1 1 3 4 3 12 0
split_gain=68.3959 35.2558 17.8066 16.2353 10.3269 7.42976 6.96655 7.36364 7.24286 6.11772 10.4392 5.84065 4.37758 3.17979 2.925 2.5 2.5 1.81275 1.27826 0.116667
threshold=9.6750000000000025 6.8030000000000008 62.900000000000006 0.66350000000000009 5.8950000000000005 18.135000000000002 5.495000000000001 4.2040000000000015 6.3650000000000011 4.4455500000000017 302.00000000000006 4.5000000000000009 392.89500000000004 394.98500000000007 387.03500000000003 0.82162500000000016 2.8910000000000005 5.6237200000000005 87.500000000000014 89.350000000000009
decision_type=10 10 8 10 8 10 10 8 8 10 8 10 8 10 8 10 8 8 8 10
left_child=1 2 4 5 -1 9 8 -8 16 10 -2 -12 -6 -14 -13 -7 -4 -5 -3 -19
right_child=3 18 6 17 12 15 7 -9 -10 -11 11 14 13 -15 -16 -17 -18 19 -20 -21
leaf_value=0.48764092433803108 0.14096296187937263 0.89649246848506936 -0.15879043680984994 -0.18927135223752245 -0.0087423332571981757 -0.18060717021219724 0.18938580457468035 -0.036530552643132097 0.021583254248308849 -0.11828456084520839 -0.12120097293144472 -0.055859497467666941 0.19953965445780747 0.018196237071835954 0.010377078745961299 -0.44983714212172043 -0.37581023566476124 -0.62627131218320109 1.0129591454960825 -0.57927131409054977
leaf_count=23 20 49 20 20 23 20 22 22 30 25 31 20 20 21 32 20 20 20 20 28
internal_value=0 0.296296 0.0845771 -0.440678 0.425287 -0.27381 -0.175439 0.136364 -0.371429 -0.15625 -0.0485437 -0.204819 0.21875 0.414634 -0 -0.65 -0.65 -0.852941 0.913043 -0.958333
internal_count=506 270 201 236 87 168 114 44 70 128 103 83 64 41 52 40 40 68 69 48
shrinkage=0.1


Tree=7
num_leaves=19
num_cat=0
split_feature=6 10 7 6 10 10 1 9 0 4 10 1 9 6 8 6 1 1
split_gain=66.1375 36.7867 19.6406 12.5656 11.7121 8.97619 8.8583 8.2881 6.48279 6.76128 5.90635 5.5254 4.69444 4.38531 4.08333 3.11606 0.960884 0.967867
threshold=7.7350000000000012 6.9720000000000004 0.52800000000000014 15.695000000000002 5.9455000000000009 6.7265000000000006 351.25000000000006 4.5000000000000009 73.350000000000009 5.4334000000000007 6.4375000000000009 390.81500000000005 3.5000000000000004 12.035000000000002 17.500000000000004 5.2650000000000015 379.39500000000004 99.070000000000007
decision_type=8 10 10 10 8 8 8 8 8 10 8 10 10 10 10 10 10 10
left_child=5 2 4 6 13 11 -4 -8 9 -6 -9 -1 -10 -2 -14 -7 17 -5
right_child=1 -3 3 16 8 15 7 10 12 -11 -12 -13 14 -15 -16 -17 -18 -19
leaf_value=0.17388022329515476 -0.10271866716496253 0.95089129943459483 -0.440602835166502 -0.52127740894889862 0.10328577741117791 1.0135730368874361 -0.14291139312886508 0.048762061112701718 -0.081379428626140546 -0.014686744285586074 -0.039222136403257939 -0.0038283872585143544 0.094681141081817091 -0.12301878744004267 -0.021783770840331229 0.20937169742776512 -0.38211794694525758 -0.23759425661455361
leaf_count=21 23 22 21 33 37 40 24 36 24 21 20 24 24 29 24 34 29 20
internal_value=0 -0.255814 -0.331507 -0.562842 -0.0989011 0.596639 -0.326733 -0.175 0.0615385 0.310345 0.0357143 0.244444 -0.138889 -0.5 0.0416667 0.810811 -0.853659 -0.773585
internal_count=506 387 365 183 182 119 101 80 130 58 56 45 72 52 48 74 82 53
shrinkage=0.1


Tree=8
num_leaves=18
num_cat=0
split_feature=10 0 7 8 6 0 5 4 4 10 3 6 6 5 0 0 0
split_gain=65.2391 35.6102 13.2397 11.2429 10.4041 11.9389 11.2339 8.47676 6.78522 6.43495 6.22924 5.64155 5.50291 5.13333 2.5 1.718 0.116667
threshold=6.8030000000000008 59.550000000000004 0.66350000000000009 17.500000000000004 5.495000000000001 46.95000000000001 6.0650000000000004 3.9677000000000002 2.7685000000000004 6.1020000000000012 8.3796900000000019 16.695000000000004 5.2650000000000015 9.1250000000000018 89.050000000000011 96.15000000000002 88.550000000000011
decision_type=10 8 10 8 10 10 8 8 10 8 8 8 10 8 8 10 10
left_child=1 4 3 -3 -1 6 -6 8 11 -9 -4 -5 -2 -11 -10 -13 -12
right_child=12 2 10 7 5 -7 -8 9 14 13 16 15 -14 -15 -16 -17 -18
leaf_value=0.19008974220602326 0.91221573319869231 0.16196095403140182 -0.12173090549383724 -0.00451775262004297 -0.080414656139839738 0.064074035672471302 0.057153070185622393 -0.22993851383164615 -0.0002656884119588199 0.011431985844735948 -0.58606402888746134 -0.30910679464053548 0.46165509700113072 -0.053749541775116684 0.064673962548675953 -0.27732483616599629 -0.53706035971091493
leaf_count=39 48 39 33 34 20 23 31 39 20 22 20 21 29 20 20 20 28
internal_value=0 -0.207459 -0.379747 -0.259574 0.274336 0.0540541 -0.215686 -0.357143 -0.182609 -0.604938 -0.728395 -0.36 0.792208 -0.333333 0.15 -0.609756 -0.958333
internal_count=506 429 316 235 113 74 51 196 115 81 81 75 77 42 40 41 48
shrinkage=0.1


Tree=9
num_leaves=20
num_cat=0
split_feature=10 7 6 10 1 6 9 1 3 4 8 11 4 6 10 7 1 0 0
split_gain=62.4871 27.2065 15.8407 15.0236 8.63757 10.3754 8.06827 7.78206 9.09365 7.57191 7.06012 6.3422 5.43763 4.70313 4.06 2.35111 1.09262 1.38789 0.116667
threshold=6.8030000000000008 0.53500000000000003 15.695000000000002 6.0705000000000009 376.35500000000008 6.1350000000000007 4.5000000000000009 371.18000000000001 6.3405950000000004 4.4802500000000007 19.050000000000004 407.00000000000006 4.4802500000000007 5.2650000000000015 6.2525000000000004 0.51250000000000007 379.39500000000004 92.800000000000026 50.350000000000009
decision_type=10 10 10 8 8 8 8 8 8 10 10 8 10 10 10 8 10 10 8
left_child=1 3 6 10 -5 -6 -3 -8 -9 11 12 15 -1 18 -11 -7 17 -4 -2
right_child=13 2 16 4 5 9 7 8 -10 14 -12 -13 -14 -15 -16 -17 -18 -19 -20
leaf_value=0.058206566293808493 0.55299416750821739 -0.12852057372848852 -0.42237160419313863 -0.043385985812409801 0.37806714844455791 0.1829489598750616 -0.13989009308613873 0.072446170156258025 -0.069621009004782061 0.028539299634856619 -0.12391395446557318 0.0031114049511117518 -0.07965157353186321 0.41548958730101759 -0.040172103452109198 0.058705229892510147 -0.32036075088020655 -0.30648670829197933 1.4109939309969872
leaf_count=20 20 31 25 21 29 25 20 33 20 22 37 31 21 29 21 20 29 24 28
internal_value=0 -0.212121 -0.505495 0.00404858 0.171598 0.256757 -0.25 -0.0684932 0.132075 0.12605 -0.358974 0.315789 -0.0731707 0.766234 -0.209302 0.555556 -0.846154 -0.755102 0.958333
internal_count=506 429 182 247 169 148 104 73 53 119 78 76 41 77 43 45 78 49 48
shrinkage=0.1


Tree=10
num_leaves=20
num_cat=0
split_feature=10 0 10 6 6 4 1 8 4 1 7 4 5 6 4 1 0 1 0
split_gain=54.7747 39.5227 16.5422 14.6768 9.35969 11.7556 8.2578 7.78567 6.92908 9.27795 6.95484 5.33655 4.9324 3.07731 2.91212 1.70572 1.6 1.12075 0.106977
threshold=7.0105000000000013 77.90000000000002 5.8695000000000013 19.830000000000002 5.2650000000000015 4.9906000000000015 354.22000000000008 17.500000000000004 3.9677000000000002 395.72000000000008 0.53500000000000003 2.4442500000000007 5.7500000000000009 7.7350000000000012 2.3004000000000002 64.835000000000022 90.15000000000002 384.38000000000005 94.850000000000009
decision_type=10 8 8 10 8 10 8 8 10 8 10 10 8 10 8 10 10 10 10
left_child=1 2 -1 6 -4 13 14 -8 9 11 -11 -9 -7 -6 -3 -5 -12 -2 -17
right_child=17 3 4 15 5 12 7 8 -10 10 16 -13 -14 -15 -16 18 -18 -19 -20
leaf_value=-0.059981795079298197 0.61095778654957411 -0.10064721222927453 0.44132525686249607 -0.41070173987561565 0.14893708381864101 -0.024201373729319187 0.14912161318713155 -0.022230992606893096 -0.072515145298464034 0.031045729454765338 -0.05159613938745089 0.082476159699438695 0.061645376881548947 0.032009254000901245 -0.2410562075305073 -0.45150599319648815 -0.20897944097440835 0.90956807296691877 -0.39300891158278883
leaf_count=26 20 20 23 20 33 26 26 37 29 22 20 23 22 39 24 20 20 33 23
internal_value=0 -0.187638 0.195266 -0.415493 0.328671 0.216667 -0.294118 -0.19774 -0.284768 -0.180328 -0.451613 0.1 -0.166667 0.472222 -0.681818 -0.84127 -0.7 0.886792 -0.953488
internal_count=506 453 169 284 143 120 221 177 151 122 62 60 48 72 44 63 40 53 43
shrinkage=0.1


Tree=11
num_leaves=19
num_cat=0
split_feature=7 10 8 5 10 10 3 1 11 5 6 1 3 1 11 1 1 0
split_gain=43.7468 33.0694 12.3449 9.31753 9.08651 7.43186 6.0828 5.96764 5.14245 4.51288 5.47337 4.95145 5.42432 4.17096 3.62143 2.57207 0.4 0.12
threshold=0.66350000000000009 6.543000000000001 20.950000000000003 4.1000000000000005 7.1740000000000004 5.8530000000000006 8.3796900000000019 364.46000000000009 264.50000000000006 5.7500000000000009 19.530000000000005 396.29000000000002 0.32185000000000002 391.47500000000008 302.00000000000006 393.29500000000007 392.89500000000004 87.500000000000014
decision_type=10 10 10 8 10 8 8 8 10 8 8 10 8 10 10 8 8 10
left_child=1 2 3 -1 8 15 -2 -7 -3 -9 11 12 14 -10 -11 -5 -6 -8
right_child=6 4 -4 5 16 7 17 9 13 10 -12 -13 -14 -15 -16 -17 -18 -19
leaf_value=0.0887553356719014 -0.081808472447585254 0.34042103113704947 -0.19389295347414226 -0.12046628684123739 1.5145988118851534 -0.085583408134277408 -0.47052186221266584 -0.029817596225507614 0.15387570744145834 0.037940998521395035 -0.058388207289022637 -0.01314204432378361 0.098497322791849848 -0.054745904443945115 -0.0075780432532400969 -0.22288475342615952 0.66676159358782883 -0.45930059320828254
leaf_count=33 34 31 36 26 20 21 20 27 20 28 30 30 34 21 20 25 20 30
internal_value=0 0.0521327 -0.116129 -0.0437956 0.517857 -0.112033 -0.738095 -0.0210526 0.305556 0.0414201 0.112676 0.214286 0.341463 0.0731707 0.125 -0.45098 0.9 -0.96
internal_count=506 422 310 274 112 241 84 190 72 169 142 112 82 41 48 51 40 50
shrinkage=0.1


Tree=12
num_leaves=19
num_cat=0
split_feature=10 0 6 4 1 8 6 1 4 3 6 1 6 7 10 7 7 0
split_gain=38.7908 25.355 15.7141 9.99597 7.59307 7.59331 6.51905 5.05418 4.80183 5.2042 4.7411 4.41084 4.03333 3.74403 3.44375 2.65662 2.5 0.1
threshold=6.9720000000000004 59.550000000000004 20.195000000000004 4.9906000000000015 171.09000000000003 17.500000000000004 6.1350000000000007 390.92500000000007 4.0419500000000008 8.3796900000000019 11.670000000000002 372.28500000000003 7.7350000000000012 0.61150000000000004 6.1445000000000007 0.48850000000000005 0.54100000000000004 93.850000000000009
decision_type=10 8 10 10 8 10 10 10 8 8 8 10 10 10 8 8 10 10
left_child=1 3 4 7 -3 10 -5 -1 9 12 -6 -12 -7 -4 -10 -2 -14 -15
right_child=15 2 13 6 5 8 -8 -9 14 -11 11 -13 16 17 -16 -17 -18 -19
leaf_value=0.041459127063880358 0.51602265853471607 -0.32285557512704827 -0.33286913507949478 0.05831357327692395 0.097669753129138226 0.21763315173269895 -0.041906490896111849 0.10818399911374606 -0.17496264524783067 -0.11457607112994204 -0.092852591994710215 0.020574068593507633 0.010087382130841149 -0.40377474253688617 -0.013836767336808366 0.78244834922338313 -0.057597455755083973 -0.34734309054543805
leaf_count=27 27 20 21 28 37 20 32 34 31 39 22 26 20 20 30 32 20 20
internal_value=0 -0.167785 -0.312883 0.22314 -0.207547 -0.159184 -0.0666667 0.508197 -0.2875 -0.151515 0.0823529 -0.125 0.0333333 -0.770492 -0.508197 0.694915 -0.15 -0.95
internal_count=506 447 326 121 265 245 60 61 160 99 85 48 60 61 61 59 40 40
shrinkage=0.1


Tree=13
num_leaves=18
num_cat=0
split_feature=10 0 6 4 1 6 4 7 9 0 3 8 1 9 10 6 7
split_gain=36.4142 24.0344 13.4087 8.91751 8.18452 7.08333 6.26939 6.45378 6.72269 9.07874 5.08345 4.6045 4.41903 3.35089 3.233 3.01278 2.65662
threshold=6.9720000000000004 59.550000000000004 20.195000000000004 4.4802500000000007 171.09000000000003 4.830000000000001 3.9677000000000002 0.52200000000000013 4.5000000000000009 87.950000000000017 5.7646650000000017 18.450000000000003 390.92500000000007 16.000000000000004 6.0285000000000011 8.9900000000000002 0.48850000000000005
decision_type=10 8 10 10 8 10 10 8 8 10 8 10 10 10 10 10 8
left_child=1 3 4 12 -3 -5 7 -6 -9 15 -11 -7 -1 -4 -8 -10 -2
right_child=16 2 13 5 6 11 14 8 9 10 -12 -13 -14 -15 -16 -17 -18
leaf_value=0.037313214357492262 0.46442039268124446 -0.29057001761434337 -0.28688216180008119 0.11560213964265637 0.042921497731021323 -0.046508917253753883 -0.020756607871063083 -0.096414768179448995 0.034844681189247599 -0.00031221144489652631 -0.2200936175300659 0.0088144524870802602 0.13780836328110022 -0.36877383709750716 -0.070099201318141277 0.029377079152291333 0.70420351430104522
leaf_count=23 27 20 30 20 36 27 34 34 22 37 29 21 30 31 22 31 32
internal_value=0 -0.14094 -0.282209 0.239669 -0.184906 -0 -0.134694 -0.047619 -0.137255 -0.0252101 -0.272727 -0.208333 0.54717 -0.704918 -0.428571 0.283019 0.694915
internal_count=506 447 326 121 265 68 245 189 153 119 66 48 53 61 56 53 59
shrinkage=0.1


Tree=14
num_leaves=19
num_cat=0
split_feature=10 11 6 5 4 3 9 5 0 6 7 11 1 4 4 1 0 7
split_gain=33.9163 20.48 12.7785 12.642 9.12165 8.56378 8.39692 8.03292 7.6327 5.86955 5.73596 5.26578 4.18739 3.09384 3.88235 3.08899 2.95396 2.90147
threshold=6.9810000000000008 407.00000000000006 14.4 4.1000000000000005 4.7143000000000006 5.7646650000000017 6.5000000000000009 18.840000000000003 97.550000000000026 6.5650000000000004 0.44395000000000007 278.00000000000006 394.06500000000005 2.4442500000000007 1.6182000000000001 395.58500000000004 54.100000000000009 0.48850000000000005
decision_type=10 8 8 10 10 8 10 8 8 10 10 10 8 8 10 8 8 8
left_child=1 3 6 11 8 7 10 -4 9 -5 -3 -1 -11 14 -7 -6 -13 -2
right_child=17 2 5 4 15 13 -8 -9 -10 12 -12 16 -14 -15 -16 -17 -18 -19
leaf_value=0.32463769995452907 0.37910515557910823 0.010982787226210001 0.0062844763696777058 -0.0079492065132136247 -0.060327210258344623 -0.24624978984014467 0.089928700794395952 -0.098488493287954351 -0.050910513231728065 0.0071412336638564614 -0.06326111072672376 0.042719891695110063 0.041467580293207719 -0.12603374349776006 -0.32651988457344694 -0.0058275860806434217 -0.00066520687414897142 0.90209458023124545
leaf_count=29 26 23 30 20 26 24 23 23 26 20 30 25 27 28 44 25 27 30
internal_value=0 -0.146667 -0.36 0.0666667 -0.111111 -0.530201 -0.0263158 -0.207547 0.0752688 0.253731 -0.245283 0.382716 0.446809 -0.708333 -0.823529 -0.45098 0.192308 0.678571
internal_count=506 450 225 225 144 149 76 53 93 67 53 81 47 96 68 51 52 56
shrinkage=0.1


Tree=15
num_leaves=18
num_cat=0
split_feature=10 8 6 1 10 11 5 0 1 9 8 10 7 0 10 7 6
split_gain=32.8346 20.0503 16.0902 7.08461 8.75214 6.1934 5.37876 5.20585 4.60506 6.74102 4.39133 4.81208 4.38783 2.34016 1.85192 1.33333 1.3
threshold=7.097500000000001 19.400000000000002 20.195000000000004 82.390000000000015 4.7660000000000009 329.50000000000006 4.6750000000000016 61.250000000000007 118.605 4.5000000000000009 20.550000000000001 5.8580000000000014 0.43000000000000005 71.65000000000002 7.4370000000000003 0.67500000000000016 15.695000000000002
decision_type=10 8 10 10 10 10 8 10 10 10 8 10 10 10 10 10 8
left_child=1 3 6 -1 -5 7 -3 12 16 13 11 -11 -6 -10 -2 -4 -8
right_child=14 2 15 4 5 -7 8 -9 9 10 -12 -13 -14 -15 -16 -17 -18
leaf_value=0.079793934293582683 0.14506282813175098 0.19819220157078449 -0.24559057127029682 0.082728833714035596 -0.007302341724181538 -0.076182023961524348 -0.059220093535693512 -0.0078339856500015525 -0.023893897875172956 0.031549544736249935 0.0094019405624141683 -0.026401101617319789 0.16964085831890402 -0.17019903530538408 1.2305462149367707 -0.46359780138279999 -0.15642396220244753
leaf_count=34 21 20 24 39 25 34 20 35 34 23 30 35 23 27 26 24 32
internal_value=0 -0.132898 -0.30855 0.115789 0.025641 -0.111111 -0.19457 0.0361446 -0.243781 -0.154362 0.0227273 -0.137931 0.25 -0.409836 0.744681 -0.833333 -0.5
internal_count=506 459 269 190 156 117 221 83 201 149 88 58 48 61 47 48 52
shrinkage=0.1


Tree=16
num_leaves=20
num_cat=0
split_feature=10 4 10 11 12 7 4 1 5 4 4 4 9 4 10 3 10 3 7
split_gain=31.299 14.4747 11.247 9.20004 7.14333 6.30375 6.03414 6.46056 6.21484 9.09091 4.80159 4.24856 7.11127 4.7021 4.13103 3.60738 3.24 2.0037 1.3913
threshold=7.097500000000001 2.1223000000000005 5.9455000000000009 407.00000000000006 31.500000000000004 0.63900000000000012 6.2047500000000007 392.76000000000005 8.0050000000000026 5.1085500000000001 4.3607000000000005 2.7685000000000004 2.5000000000000004 2.9756500000000004 5.682500000000001 1.6426200000000002 6.0390000000000015 0.36907000000000006 0.68600000000000005
decision_type=10 8 8 8 10 8 10 8 10 8 8 8 10 10 8 10 10 8 10
left_child=1 5 3 10 6 -1 7 8 9 -4 -3 -9 -13 -14 -7 -10 -15 -2 -16
right_child=17 2 4 -5 -6 14 -8 11 15 -11 -12 12 13 16 18 -17 -18 -19 -20
leaf_value=0.0094884492040758772 0.37275537246595364 0.069799687339605218 0.092889721529538963 -0.097285486026457951 0.2204196658049721 -0.16978738502138793 -0.044225104638346481 -0.035075575976689422 -0.084943570665435078 -0.050870212009619567 -0.051905099444993046 -0.0076485431949500082 0.12195610086651776 0.032266398806384801 -0.33899011146872793 -0.03278899012969632 0.0071317442784712528 0.70591397077958862 -0.24716387905897613
leaf_count=23 23 21 22 32 36 27 32 23 22 22 24 27 33 20 23 24 25 24 23
internal_value=0 -0.154684 -0.0633609 -0.402597 0.027972 -0.5 -0.032 0.0275229 -0.177778 0.0909091 -0.111111 0.171875 0.257143 0.410256 -0.643836 -0.434783 0.2 0.702128 -0.826087
internal_count=506 459 363 77 286 96 250 218 90 44 45 128 105 78 73 46 45 47 46
shrinkage=0.1


Tree=17
num_leaves=18
num_cat=0
split_feature=10 11 0 6 1 4 3 4 10 1 10 1 9 0 10 7 4
split_gain=26.041 15.812 14.1335 7.76276 6.89374 9.40786 8.88006 13.2073 5.80993 5.48181 7.28534 5.06288 4.01569 3.79943 3.10354 2.9697 1.82508
threshold=7.2045000000000003 223.50000000000003 43.100000000000001 5.8950000000000005 351.25000000000006 4.3607000000000005 6.6282400000000008 2.7187000000000006 6.0195000000000007 396.23500000000007 6.394000000000001 390.92500000000007 6.5000000000000009 98.600000000000009 6.3650000000000011 0.67500000000000016 2.0467000000000009
decision_type=10 8 8 10 8 8 8 10 8 8 8 8 8 8 8 8 10
left_child=1 -1 3 11 13 6 8 15 -6 14 -11 -3 -10 16 -7 -8 -4
right_child=-2 2 4 -5 5 9 7 -9 12 10 -12 -13 -14 -15 -16 -17 -18
leaf_value=0.25002752939863343 0.72017224272995584 0.015012238808596125 -0.29837389677365833 -0.0053104275336385955 0.032686701604902522 -0.058360444489615665 -0.069061588714353667 0.032264227927981184 -0.028581696276226511 -0.045436916149003539 0.0076670960091389517 0.23293541152347183 0.030605215059941317 -0.051231367914863317 -0.049478352033897902 -0.22223575090481767 -0.13994705051885781
leaf_count=24 38 20 23 39 30 31 22 22 30 31 24 26 34 23 37 32 20
internal_value=0 -0.123932 -0.166667 0.2 -0.253482 -0.187713 -0.0352941 -0.289474 0.170213 -0.398374 -0.163636 0.478261 -0 -0.545455 -0.588235 -0.555556 -0.72093
internal_count=506 468 444 85 359 293 170 76 94 123 55 46 64 66 68 54 43
shrinkage=0.1


Tree=18
num_leaves=20
num_cat=1
split_feature=10 2 6 3 4 6 12 3 4 5 7 11 0 1 4 0 4 3 4
split_gain=23.2616 14.5911 11.2342 14.7273 8.46332 12.3731 4.9 4.1137 8.51499 3.59723 4.82746 4.46476 6.41778 5.74331 6.49317 2.61937 2.8211 2.361 1.79272
threshold=7.4370000000000003 0 15.895000000000001 5.7646650000000017 6.4889000000000001 4.830000000000001 57.500000000000007 0.099245000000000014 4.0054500000000006 4.1000000000000005 0.48850000000000005 274.50000000000006 38.650000000000006 396.36000000000007 2.8405 77.90000000000002 1.6528500000000002 1.6426200000000002 2.0467000000000009
decision_type=10 9 8 8 10 10 8 10 8 10 10 10 10 8 10 10 8 10 10
left_child=1 -1 4 7 5 -3 -6 -4 17 10 -7 12 -11 14 -13 -5 -17 -9 -18
right_child=-2 2 3 15 6 9 -8 8 -10 11 -12 13 -14 -15 -16 16 18 -19 -20
leaf_value=0.16825280511976201 0.99819883192350223 0.28019453670407835 0.11155050210929628 -0.3001533671313652 -0.00073668324095343962 0.11995849588882966 -0.06912319093590398 -0.0053008844578746666 -0.13237953017774692 -0.00024827841867143264 -0.0012704084309550724 -0.035206209674910838 -0.049565140318758694 0.048371849844316556 0.0069077137804928416 -0.21085163182626784 -0.20546692109165987 0.025876325367938248 -0.1542442989825438
leaf_count=23 26 20 25 28 20 37 20 23 30 25 32 31 20 31 23 20 30 21 21
internal_value=0 -0.125 -0.164114 -0.343434 -0.027027 0.0502283 -0.45 -0.0707071 -0.189189 -0.0251256 0.15942 -0.123077 -0.377778 0.0117647 -0.185185 -0.616162 -0.71831 0.0909091 -0.843137
internal_count=506 480 457 198 259 219 40 99 74 199 69 130 45 85 54 99 71 44 51
cat_boundaries=0 1
cat_threshold=2
shrinkage=0.1


Tree=19
num_leaves=19
num_cat=1
split_feature=10 11 2 0 4 8 3 6 3 5 10 6 1 7 7 9 5 3
split_gain=22.8641 13.9188 11.2449 9.96762 9.4697 5.74257 6.23581 7.56575 8.20104 8.13518 7.24971 5.7041 5.26792 3.75309 5.59017 4.9581 1.76316 1.03404
threshold=7.4370000000000003 222.50000000000003 0 43.100000000000001 6.4889000000000001 17.500000000000004 0.072045000000000012 15.025 5.7646650000000017 8.3500000000000032 6.4860000000000015 5.495000000000001 395.57000000000005 0.57400000000000007 0.49600000000000005 7.5000000000000009 16.570000000000004 10.960800000000001
decision_type=10 8 9 8 10 8 8 8 8 10 8 10 8 10 10 8 10 10
left_child=1 -1 -3 4 11 12 -7 13 9 -9 16 -4 -5 14 15 -8 -10 -18
right_child=-2 2 3 5 -6 6 7 8 10 -11 -12 -13 -14 -15 -16 -17 17 -19
leaf_value=0.29698167219921423 0.89837894873115198 0.13063132730596189 0.1816224167007171 -0.009026251066089586 -0.026746617474935164 -0.035485340705845657 0.024143180129601483 -0.10335039547984728 -0.24104860330458014 0.022960085659812182 -0.16322502304441766 0.0012291630381451313 0.098117868793404922 0.0069945706268667255 -0.079968500340356394 -0.01199476509735007 -0.16101864017195144 -0.40119312408631491
leaf_count=20 26 22 34 33 22 31 23 26 21 35 32 32 21 25 34 22 27 20
internal_value=0 -0.116667 -0.152174 -0.187215 0.113636 -0.262857 -0.317568 -0.267925 -0.403727 -0.114754 -0.58 0.30303 0.037037 -0.0576923 -0.164557 0.0666667 -0.764706 -0.87234
internal_count=506 480 460 438 88 350 296 265 161 61 100 66 54 104 79 45 68 47
cat_boundaries=0 1
cat_threshold=2
shrinkage=0.1


Tree=20
num_leaves=19
num_cat=0
split_feature=10 11 1 9 6 11 9 10 1 0 5 1 7 7 3 10 0 8
split_gain=22.4701 10.471 9.1427 7.15843 6.70854 5.84804 8.25172 6.02201 6.30579 4.55394 5.87175 4.39942 4.1073 5.11537 3.57143 5.12 3.35873 3.01683
threshold=7.4370000000000003 222.50000000000003 99.070000000000007 4.5000000000000009 17.025000000000002 282.50000000000006 3.5000000000000004 5.815500000000001 387.9550000000001 14.300000000000002 3.4250000000000003 391.26000000000005 0.67500000000000016 0.75500000000000012 4.8848150000000006 6.394000000000001 81.90000000000002 19.650000000000002
decision_type=10 8 8 10 8 8 10 8 8 10 10 10 8 8 8 8 10 8
left_child=1 -1 -3 5 11 6 -4 -7 -9 -10 -11 14 -6 -14 15 -5 -12 -13
right_child=-2 2 3 4 12 7 -8 8 9 10 16 17 13 -15 -16 -17 -18 -19
leaf_value=0.26728350497929299 0.80854105385803698 -0.24396231621066936 -0.023083206178063878 -0.0025786138662750703 0.034716076577941915 -0.16223257106773162 0.090541569948448961 -0.064044763826990272 -0.047133715212128995 -0.016809818356057351 0.052298331262195324 -0.024699864352162672 -0.13215583720617624 -0.010787959638006762 0.12454027731679035 0.13182631082416893 -0.0040770979675793127 0.0062200248717271481
leaf_count=20 26 27 36 25 33 30 26 35 26 25 24 21 22 31 20 25 21 33
internal_value=0 -0.108333 -0.13913 -0.103926 0.0285714 -0.2287 0.0322581 -0.329193 -0.236641 -0.104167 0.0285714 0.177419 -0.186047 -0.358491 0.342857 0.2 0.244444 -0.037037
internal_count=506 480 460 433 210 223 62 161 131 96 70 124 86 53 70 50 45 54
shrinkage=0.1


Tree=21
num_leaves=19
num_cat=1
split_feature=10 11 1 2 0 4 1 7 7 6 3 5 9 3 10 7 10 3
split_gain=20.0919 11.2232 8.31731 6.92649 6.0859 9.22907 5.95841 5.68803 5.3655 3.819 5.01805 7.69231 4.12188 3.89423 3.75652 3.3683 2.6936 2.39523
threshold=7.4370000000000003 222.50000000000003 99.070000000000007 0 81.450000000000003 4.9906000000000015 396.10000000000008 0.48850000000000005 0.43745000000000006 17.025000000000002 5.6237200000000005 8.3500000000000032 4.5000000000000009 0.13972000000000004 6.1570000000000009 0.41200000000000009 5.1705000000000014 3.9376250000000002
decision_type=10 8 8 9 8 10 10 10 10 8 8 10 10 8 10 10 10 8
left_child=1 -1 -3 -4 5 6 7 -5 15 12 11 -11 13 -6 16 -7 -12 -14
right_child=-2 2 3 4 9 8 -8 -9 -10 10 14 -13 17 -15 -16 -17 -18 -19
leaf_value=0.24055515448136369 0.72768694847223336 -0.21956608458960236 0.13944318784098986 -0.0055874715472649331 0.0083042240137363166 -0.022390973891835843 0.024077402890099367 0.027354210003752044 -0.029939232004096362 -0.15550296121947263 -0.22088322817995767 0.028421563516816663 -0.0023207524796474035 -0.07156394050956294 -0.030444577657564056 0.026276551624814459 -0.17238730812022782 0.022412386888793635
leaf_count=20 26 27 21 39 20 30 28 33 21 26 22 26 39 32 20 22 27 27
internal_value=0 -0.133333 -0.165217 -0.13164 -0.160194 -0.017341 0.18 0.0277778 -0.287671 -0.263598 -0.38843 -0.153846 -0.135593 -0.346154 -0.565217 -0.115385 -0.714286 0.030303
internal_count=506 480 460 433 412 173 100 72 73 239 121 52 118 52 69 52 49 66
cat_boundaries=0 1
cat_threshold=2
shrinkage=0.1


Tree=22
num_leaves=20
num_cat=1
split_feature=10 11 1 2 11 5 11 8 6 11 3 8 10 6 3 1 10 0 0
split_gain=16.9832 11.3511 7.45007 5.75739 4.67441 5.35539 5.30097 6.08604 4.9422 4.64442 4.90607 3.75162 7.50183 5.74406 4.63201 5.6 3.72415 2.70226 1.20418
threshold=7.4370000000000003 222.50000000000003 329.75000000000006 0 407.00000000000006 16.570000000000004 249.50000000000003 20.950000000000003 17.025000000000002 278.00000000000006 0.06653000000000002 17.700000000000006 6.1445000000000007 9.5050000000000008 0.10726000000000001 392.76000000000005 6.7055000000000016 92.950000000000017 89.700000000000003
decision_type=10 8 8 9 10 10 8 10 10 8 8 10 8 8 8 8 8 10 10
left_child=1 -1 17 -4 6 -6 -5 9 18 -8 16 14 -13 -14 -12 -16 -11 -3 -7
right_child=-2 2 3 4 5 8 7 -9 -10 10 11 12 13 -15 15 -17 -18 -19 -20
leaf_value=0.21649963903322736 0.6549182536250101 -0.20312879669786083 0.14629506635871473 -0.039858224555545267 -0.072751688288702362 0.046402091841860484 0.11578873238371834 -0.12735338073323987 -0.099423212159927499 -0.059527472634855985 0.15138361210169934 -0.020388219910518757 -0.013601050021565798 0.02557940716513514 -0.023053289506243503 0.025172511106237219 0.0012626348608154815 -0.039491670660289205 -0.012026527954285271
leaf_count=20 26 33 20 28 24 20 29 22 32 22 20 32 22 30 28 35 21 21 21
internal_value=0 -0.1375 -0.169565 -0.123153 -0.150259 -0.340206 -0.0865052 -0.0421456 -0.205479 0.0041841 -0.047619 0.0299401 -0.119048 0.115385 0.180723 0.047619 -0.348837 -0.518519 0.0243902
internal_count=506 480 460 406 386 97 289 261 73 239 210 167 84 52 83 63 43 54 41
cat_boundaries=0 1
cat_threshold=2
shrinkage=0.1


Tree=23
num_leaves=19
num_cat=0
split_feature=10 7 4 11 7 1 0 9 4 4 11 5 4 0 3 7 0 3
split_gain=15.8103 9.50111 7.11506 6.38367 5.67922 5.33747 6.18339 8.25377 9.79535 8.20513 4.03333 3.25538 5.60107 3.71212 3.21823 3.37931 2.5 2.38695
threshold=7.4370000000000003 0.50850000000000006 4.3607000000000005 237.50000000000003 0.43745000000000006 99.070000000000007 81.450000000000003 4.5000000000000009 1.4124000000000001 4.9906000000000015 309.00000000000006 18.840000000000003 1.9310500000000002 95.500000000000014 0.61755000000000015 0.54100000000000004 50.350000000000009 1.9219800000000002
decision_type=10 8 10 10 10 8 8 10 10 8 8 8 10 8 8 10 10 8
left_child=1 2 10 -4 -5 -3 9 14 -9 17 16 12 -10 -14 -8 -16 -1 -7
right_child=-2 5 3 4 -6 6 7 8 11 -11 -12 -13 13 -15 15 -17 -18 -19
leaf_value=0.14041940450841892 0.58942642826250879 -0.17729659646085613 0.040575988440075685 -0.0011942546102050146 -0.024504609717539871 0.06082251495708562 -0.049366657012128723 0.064112777619879949 -0.27646706726002535 -0.011779139233358649 0.000643993518066921 0.002744879546433765 -0.035042460271994362 0.019005115549569497 -0.15033570704787796 -0.064447407958282008 0.1598260215564544 0.0093565569583379474
leaf_count=20 26 27 29 39 23 26 37 39 21 30 20 25 20 24 29 29 20 22
internal_value=0 -0.108333 0.0993377 -0.0769231 -0.258065 -0.203647 -0.165563 -0.25 -0.0852713 0.0769231 0.366667 -0.266667 -0.384615 -0.181818 -0.473684 -0.62069 0.55 0.333333
internal_count=506 480 151 91 62 329 302 224 129 78 60 90 65 44 95 58 40 48
shrinkage=0.1


Tree=24
num_leaves=21
num_cat=0
split_feature=10 11 0 4 11 7 7 7 11 4 0 1 5 4 6 1 5 8 8 11
split_gain=15.8103 7.72319 5.02692 5.71674 6.81966 4.99276 10.3155 6.2326 5.99154 5.78571 3.63887 4.83384 3.41899 4.27835 3.71279 3.42301 7.88182 3.27273 2.98807 1.88153
threshold=7.4370000000000003 222.50000000000003 43.100000000000001 6.4889000000000001 298.00000000000006 0.75500000000000012 0.67500000000000016 0.62750000000000006 274.50000000000006 1.9791500000000002 93.700000000000003 340.26000000000005 8.3500000000000032 2.7685000000000004 6.0200000000000005 395.72000000000008 10.300000000000002 17.850000000000005 18.450000000000003 431.00000000000006
decision_type=10 8 8 10 10 10 10 10 8 8 10 10 8 8 10 8 10 10 8 10
left_child=1 -1 3 4 17 6 7 8 -4 -8 12 -12 14 19 -10 16 -15 -3 -16 -14
right_child=-2 2 5 -5 -6 -7 9 -9 10 -11 11 -13 13 15 18 -17 -18 -19 -20 -21
leaf_value=0.18080773467906291 0.53048378543625818 0.26321543684654786 -0.049991307999285799 -0.023070442901613933 -0.010409623922634382 0.03634809860800061 -0.2657166655230615 0.075385984040009832 -0.057261216328536695 -0.031538214244794818 0.052983576515358524 -0.11428471786916923 0.00074351961226213356 0.064756432047574822 0.029365386830349394 -0.00089745464575905496 -0.0099927335786347271 0.0084209012625041883 -0.018357289864559336 -0.048768516107287413
leaf_count=20 26 22 30 22 23 20 28 20 20 28 22 31 20 24 24 34 20 22 29 21
internal_value=0 -0.108333 -0.134783 0.0786517 0.223881 -0.185984 -0.213675 -0.138983 -0.178182 -0.607143 -0.126531 -0.358491 -0.0625 0.0420168 -0.232877 0.179487 0.363636 0.454545 -0.0943396 -0.219512
internal_count=506 480 460 89 67 371 351 295 275 56 245 53 192 119 73 78 44 44 53 41
shrinkage=0.1


Tree=25
num_leaves=21
num_cat=0
split_feature=10 11 6 3 7 1 3 9 8 10 5 1 3 11 1 8 6 1 0 4
split_gain=15.6462 7.61775 4.73276 4.88788 6.65546 4.60785 7.22105 5.77561 5.45297 5.1976 5.39275 4.1381 4.03333 3.35317 2.91382 2.82353 3.7978 2.20417 3.6 0.9
threshold=7.4370000000000003 222.50000000000003 4.7200000000000015 0.059135000000000007 0.43745000000000006 372.28500000000003 10.147650000000001 6.5000000000000009 15.250000000000002 6.1245000000000021 5.160000000000001 394.38000000000005 0.086855000000000016 394.50000000000006 376.74000000000007 20.550000000000001 18.100000000000005 393.42500000000007 92.500000000000014 2.7811500000000007
decision_type=10 8 8 8 8 8 10 10 10 8 10 10 10 8 10 8 10 8 8 10
left_child=1 -1 -3 4 -4 15 7 8 17 13 -11 14 -12 -10 -9 16 -5 -7 -19 -14
right_child=-2 2 3 5 -6 6 -8 11 9 10 12 -13 19 -15 -16 -17 -18 18 -20 -21
leaf_value=0.16272696121115651 0.47743540689263214 0.15780721533963896 0.00035340059923854032 -0.021423147633534437 -0.051535094695682918 -0.00037528269009143859 -0.24066769883519995 0.02848680070859393 -0.013627629191037728 -0.018204150144875086 0.057224671094961724 0.020320064784396231 -0.028877433472014147 -0.035082501741882412 -0.015328350647511969 -0.17522414692100396 0.032913124229214129 0.076877215958458228 0.0031439628565173906 0.098876390167556505
leaf_count=20 26 21 22 39 34 24 21 21 33 32 20 21 20 26 20 25 21 20 20 20
internal_value=0 -0.104167 -0.130435 -0.15262 -0.428571 -0.112272 -0.0536913 -0.0108303 -0.0883721 -0.192053 -0.0434783 0.258065 0.133333 -0.423729 0.0731707 -0.317647 -0.2 0.15625 0.3 -0.05
internal_count=506 480 460 439 56 383 298 277 215 151 92 62 60 59 41 85 60 64 40 40
shrinkage=0.1


Tree=26
num_leaves=21
num_cat=0
split_feature=10 8 3 10 12 3 4 12 9 0 1 11 12 7 5 1 8 4 7 0
split_gain=10.533 5.55672 8.07 6.96542 4.67532 4.26667 3.84757 5.6443 4.28612 3.55584 3.54713 5.71538 3.27514 3.15976 3.05854 3.37894 2.21741 2.13374 1.96599 1.6
threshold=7.4795000000000007 20.950000000000003 0.64730500000000013 6.0705000000000009 1.0000000180025095e-35 0.081930000000000017 6.2684500000000005 31.500000000000004 2.5000000000000004 93.350000000000009 395.0750000000001 407.00000000000006 23.500000000000004 0.65100000000000013 5.7500000000000009 82.390000000000015 19.900000000000002 2.4780500000000005 0.52200000000000013 41.800000000000004
decision_type=10 8 8 8 8 10 10 10 10 10 8 8 8 10 10 10 10 10 10 10
left_child=1 3 5 12 9 -3 7 8 17 -4 11 -10 14 -13 -1 -16 -12 -5 -17 -7
right_child=-2 2 4 6 -6 19 -8 -9 10 -11 16 13 -14 -15 15 18 -18 -19 -20 -21
leaf_value=0.0033829524411043369 0.49224506956549874 -0.0088642432886828718 -0.13996797473149866 -0.022877020098941173 -0.0020837114520094956 0.031655303281204542 -0.025595196802191113 0.17142207912787982 0.0638872162140494 -0.050951669741893114 0.042778000655090409 0.0027566767228160319 -0.040783332256724772 -0.12514082367190441 0.029864608676340866 -0.085070718885865662 0.026771807992918006 0.0028496060868896224 -0.027387462359795126 0.0026134485079634118
leaf_count=22 24 24 35 21 22 20 34 24 26 20 29 23 23 20 20 21 24 26 28 20
internal_value=0 -0.0954357 -0.262411 -0.026393 -0.480519 -0 0.0748899 0.129534 0.0650888 -0.636364 0.163934 0.0144928 -0.22807 -0.209302 -0.142857 -0.246377 0.358491 -0.191489 -0.387755 0.2
internal_count=506 482 141 341 77 64 227 193 169 55 122 69 114 43 91 69 53 47 49 40
shrinkage=0.1


Tree=27
num_leaves=19
num_cat=0
split_feature=10 11 1 0 4 0 11 6 11 7 3 5 1 5 0 5 6 10
split_gain=10.9229 5.38225 4.47376 8.53452 7.87067 8.69698 10.337 6.70093 6.09524 5.92593 5.15814 4.82114 3.65928 6.2974 4.28571 2.69617 2.53968 1.93773
threshold=7.4795000000000007 222.50000000000003 395.0750000000001 94.050000000000011 4.4281000000000006 43.100000000000001 302.00000000000006 11.860000000000001 306.00000000000006 0.43000000000000005 11.369150000000001 10.300000000000002 361.22500000000008 13.360000000000001 84.450000000000017 8.3500000000000032 10.250000000000002 6.057500000000001
decision_type=10 8 8 8 8 10 10 8 8 10 8 8 10 10 10 8 10 10
left_child=1 -1 4 8 7 6 -6 -3 17 -10 11 -5 14 -14 -9 -7 -11 -4
right_child=-2 2 3 10 5 15 -8 12 9 16 -12 -13 13 -15 -16 -17 -18 -19
leaf_value=0.13840883007775667 0.4430205626089489 0.031263653050516108 -0.0065682050815045303 -0.023701988114918394 0.062877718028540391 -0.046905852602408517 -0.047088049395985369 -0.17110982264330918 -0.0089027118107649628 0.14604170207897926 -0.14242758733763861 0.021414539496731246 -0.0070624747293297936 0.10223383319184372 -0.019284640272638501 -0.090746230377656015 0.017740323061550357 0.0042458790957393688
leaf_count=20 24 33 26 22 38 22 28 21 27 21 30 35 26 21 35 25 24 28
internal_value=0 -0.107884 -0.12987 -0.0234742 -0.220884 -0.415929 -0.181818 -0.0588235 0.142857 0.333333 -0.264368 -0.0877193 -0.184466 0.0212766 -0.357143 -0.744681 0.555556 -0.111111
internal_count=506 482 462 213 249 113 66 136 126 72 87 57 103 47 56 47 45 54
shrinkage=0.1


Tree=28
num_leaves=20
num_cat=0
split_feature=6 3 6 1 9 4 7 1 8 3 1 12 5 10 1 12 7 7 10
split_gain=9.06566 4.42659 8.04299 7.59986 7.24657 6.12165 5.11742 4.50909 4.36905 7.33694 4.19864 5.76387 3.77104 4.32143 3.6 3.43636 2.9901 2.83338 2.53871
threshold=4.7200000000000015 11.369150000000001 17.115000000000006 396.10000000000008 6.5000000000000009 4.2040000000000015 0.67500000000000016 395.54000000000002 18.650000000000002 0.53556000000000015 390.81500000000005 20.500000000000004 4.8950000000000005 6.410000000000001 391.70500000000004 15.000000000000002 0.50150000000000017 0.49600000000000005 5.525500000000001
decision_type=8 8 8 10 8 10 10 10 10 10 10 10 10 8 8 8 10 10 10
left_child=-1 3 7 5 15 8 17 14 12 -10 11 -7 16 -14 -3 -5 -2 -4 -11
right_child=1 2 6 4 -6 10 -8 -9 9 18 -12 -13 13 -15 -16 -17 -18 -19 -20
leaf_value=0.30346651488814463 0.14232529488591014 -0.014335782540622689 -0.12818482860387484 -0.014399787649428576 0.022394640529089661 -0.046285849952755954 -0.26615730329275261 -0.021609292899439227 -0.017758952588771137 0.04302297572914178 -0.048522428847821077 0.02700100143489479 0.025363407648032424 -0.040807359690920468 0.056589946225686208 0.035615330024261031 0.0058566157512643718 0.00039636942395882002 -0.009008014677732934
leaf_count=37 26 20 22 22 25 25 26 22 30 20 26 22 36 28 20 20 23 23 33
internal_value=0 -0.108742 -0.263158 -0.047619 0.253731 -0.122677 -0.492958 -0 -0.0306122 -0.204819 -0.369863 -0.191489 0.0973451 -0.0625 0.2 -0 0.306122 -0.288889 0.0188679
internal_count=506 469 133 336 67 269 71 62 196 83 73 47 113 64 40 42 49 45 53
shrinkage=0.1


Tree=29
num_leaves=21
num_cat=0
split_feature=6 10 3 1 5 4 10 8 9 11 6 4 8 1 3 6 7 7 10 10
split_gain=8.78062 4.0619 5.64245 5.43871 8.44806 8.5254 6.09023 4.82447 4.79912 4.74543 5.10991 5.76 5.04382 4.42369 4.27253 3.07243 2.5 2.17779 2.10893 1.5
threshold=4.620000000000001 6.205000000000001 0.082545000000000021 396.10000000000008 1.2150000000000001 4.4281000000000006 6.7055000000000016 20.550000000000001 2.5000000000000004 688.50000000000011 15.025 2.6741000000000006 19.050000000000004 344.48000000000008 0.22082500000000002 14.615000000000002 0.58200000000000007 0.44395000000000007 6.3785000000000016 5.8735000000000008
decision_type=8 8 8 8 10 8 10 8 10 8 8 10 10 10 10 8 10 8 10 10
left_child=-1 2 -2 4 -3 6 14 8 -5 10 11 -4 16 -11 -6 17 -12 -7 -10 -14
right_child=1 3 9 7 5 15 -8 -9 18 13 12 -13 19 -15 -16 -17 -18 -19 -20 -21
leaf_value=0.30245654657747068 -0.03348005378152568 0.024065225415916203 0.12386359814807157 -0.0092820627054592819 -0.015399228934986199 -0.038886979917805146 -0.021903436434796222 -0.012263593969774434 0.013223388931325176 -0.10025330146793704 -0.00071932484229577656 -0.0019878782177171319 -0.1071318046917674 -0.0052293939328613703 0.028021911387123313 -0.027224153257495234 0.020039050882013677 -0.040980686005091374 0.091934525993096372 -0.032143585714274718
leaf_count=34 21 30 20 26 26 21 20 30 27 20 20 25 25 21 30 20 20 22 24 24
internal_value=0 -0.114407 -0.22449 -0.0362319 -0.147929 -0.251799 -0.0263158 0.140187 0.272727 -0.165714 -0.0746269 0.2 -0.213483 -0.463415 0.142857 -0.52381 0.05 -0.674419 0.45098 -0.428571
internal_count=506 472 196 276 169 139 76 107 77 175 134 45 89 41 56 63 40 43 51 49
shrinkage=0.1


Tree=30
num_leaves=18
num_cat=0
split_feature=6 1 5 12 4 11 0 6 3 9 4 0 6 9 10 6 6
split_gain=8.08774 4.9033 4.81571 7.82637 8.6259 4.22567 4.16961 5.65354 5.60466 8.78908 5.26316 3.61687 4.74971 3.60847 3.1962 2.86205 2.07879
threshold=4.620000000000001 395.16500000000002 8.3500000000000032 92.500000000000014 2.7685000000000004 276.50000000000006 91.65000000000002 14.230000000000002 11.369150000000001 6.5000000000000009 4.9906000000000015 64.800000000000011 14.095000000000001 4.5000000000000009 6.230500000000001 10.610000000000001 6.6650000000000009
decision_type=8 8 8 8 10 8 8 8 8 10 8 10 10 8 8 10 10
left_child=-1 2 5 4 11 -2 7 10 9 15 -3 -4 -13 -7 -14 -8 -15
right_child=1 6 3 -5 -6 13 8 -9 -10 -11 -12 12 14 16 -16 -17 -18
leaf_value=0.27221089191972397 -0.0016926850922676095 0.007285343999138761 0.035039889988099308 -0.065659832168088891 0.042758533268665216 -0.059762450605641962 -0.04513535831808433 0.076407519566540752 -0.11484340635020125 0.018035145793812293 -0.0083538564349133534 -0.058276023148322413 -0.088716099357619885 -0.034536280078348372 0.009555915140537774 0.0058297815984955648 -0.0013477760499135628
leaf_count=34 27 38 29 25 33 23 22 35 36 20 38 28 28 22 23 25 20
internal_value=0 -0.0932203 -0.186047 -0.0843373 0.0070922 -0.369565 0.0186916 0.153153 -0.126214 0.0447761 -0 -0.12963 -0.240506 -0.507692 -0.0588235 -0.191489 -0.333333
internal_count=506 472 258 166 141 92 214 111 103 67 76 108 79 65 51 47 42
shrinkage=0.1


Tree=31
num_leaves=21
num_cat=0
split_feature=10 4 9 5 8 7 9 3 10 4 6 5 5 6 10 4 7 3 1 4
split_gain=5.51475 7.37957 6.98531 9.59271 5.17847 4.7234 5.80993 4.17391 4.10298 3.88658 3.42857 3.40909 2.94594 4.76219 2.61497 5.95539 4.01994 2.53846 1.75325 1.6
threshold=6.1750000000000007 6.2684500000000005 2.5000000000000004 3.5400000000000005 17.850000000000005 0.82050000000000012 5.5000000000000009 0.09259000000000002 6.2525000000000004 7.3131000000000013 14.095000000000001 10.300000000000002 18.840000000000003 11.160000000000002 6.6655000000000006 2.4442500000000007 0.52200000000000013 9.7096000000000018 390.49500000000006 4.5215000000000005
decision_type=8 10 8 8 10 8 8 10 8 10 8 10 8 8 10 10 8 8 8 8
left_child=4 2 -2 -4 5 6 -1 19 -5 -3 -9 -12 14 -14 15 17 -17 -10 -16 -6
right_child=1 9 3 8 7 -7 -8 10 12 -11 11 -13 13 -15 18 16 -18 -19 -20 -21
leaf_value=-0.002377307702441911 -0.031117028051821195 -0.030880939104600814 0.14711262472686215 0.021124553183090457 -0.0074410835811892896 -0.015701311786406259 0.016231631214431098 0.0065326476016037919 -0.053115401928441844 -0.01037842497584336 -0.12954503819826754 -0.05590896052345258 0.13727406601777173 -0.0065236987409885931 -0.025751427816502571 -5.3960267486630188e-05 0.087131737809967372 0.032412273462681183 -0.0032277550342797671 -0.055544330445354721
leaf_count=27 20 20 29 22 20 27 20 21 26 22 22 32 25 32 20 24 33 22 22 20
internal_value=0 0.00946372 0.0690909 0.113725 -0.206349 -0 0.191489 -0.33913 0.0442478 -0.380952 -0.2 -0.333333 -0 0.192982 -0.0748299 0.00952381 0.22807 -0.25 -0.285714 -0.6
internal_count=506 317 275 255 189 74 47 115 226 42 75 54 204 57 147 105 57 48 42 40
shrinkage=0.1


Tree=32
num_leaves=20
num_cat=0
split_feature=8 6 6 5 3 11 3 1 6 11 6 8 0 8 10 1 4 4 7
split_gain=4.29646 4.65634 5.62262 5.11274 8.0519 7.48632 7.33333 6.55326 4.52163 4.39201 5.29613 4.67914 5.61805 4.52978 4.97689 4.11726 5.73019 3.81232 2.61509
threshold=15.250000000000002 24.070000000000004 21.180000000000003 2.9600000000000004 0.043980000000000005 254.50000000000003 0.017895000000000005 361.22500000000008 6.7400000000000011 306.00000000000006 9.6050000000000022 18.950000000000003 89.700000000000003 19.050000000000004 6.6455000000000011 386.51500000000004 3.4597000000000002 1.6528500000000002 0.62750000000000006
decision_type=8 10 10 10 8 8 10 8 8 8 8 8 8 10 8 8 10 10 8
left_child=8 2 3 5 -5 -2 -7 -6 -1 13 -11 -12 -13 14 -9 -8 -17 -14 -19
right_child=1 -3 -4 4 7 6 15 9 -10 10 11 12 17 -15 -16 16 -18 18 -20
leaf_value=0.23027854025506544 0.11141994048252375 -0.15628631234711207 0.022539795374786831 -0.04046424306673746 -0.08431170068738264 -0.03625898032299233 0.095188184117737162 0.0022213134844893292 0.00012316270356871328 0.10392837477880068 -0.028911478900072396 0.0075511777741962055 -0.17941900597347227 -0.008555933981537223 -0.023451848263144726 0.0051712115249667795 -0.031221651488428748 -0.010891169364455777 0.029171046116413104
leaf_count=22 21 25 21 23 37 22 20 33 37 33 20 32 20 22 25 25 21 25 22
internal_value=0 -0.100671 -0.0758294 -0.102244 -0.171233 0.0825688 -0.0454545 -0.122677 0.186441 -0.0603448 0.0394737 -0.0588235 0.030303 -0.25 -0.103448 0.121212 -0.0434783 -0.134328 0.0212766
internal_count=506 447 422 401 292 109 88 269 59 232 152 119 99 80 58 66 46 67 47
shrinkage=0.1


Tree=33
num_leaves=19
num_cat=1
split_feature=6 1 5 12 10 12 0 2 7 0 10 11 5 0 4 3 7 9
split_gain=5.18382 3.92963 7.64264 5.63052 5.46099 5.1518 5.08623 6.65059 4.71795 5.66154 4.334 5.1574 4.81333 3.66314 3.38084 3.36104 3.0375 1.6
threshold=4.620000000000001 396.66000000000003 8.3500000000000032 92.500000000000014 6.1245000000000021 15.000000000000002 81.450000000000003 0 0.48850000000000005 74.950000000000017 6.6270000000000007 336.00000000000006 5.160000000000001 94.050000000000011 4.0054500000000006 4.5488950000000008 0.71550000000000014 5.5000000000000009
decision_type=8 8 8 8 10 8 10 9 8 10 10 8 10 8 8 8 8 10
left_child=-1 2 10 6 5 13 7 15 -6 -10 11 12 -2 -3 16 -4 17 -8
right_child=1 4 3 -5 8 -7 14 -9 9 -11 -12 -13 -14 -15 -16 -17 -18 -19
leaf_value=0.20725068622955903 0.052070850583141141 -0.00059300031077853539 0.015050525412639537 -0.054808581462695738 0.057362817744156303 0.023644237933329038 0.0033672994028126624 0.13245454589802463 -0.03152829263387389 0.027896013737856863 -0.024997894306597958 -0.026328918711144667 -0.043378874289823705 -0.057991251001438829 -0.071222207929102235 -0.014821892925576209 0.013887884679707875 -0.025023404311348332
leaf_count=34 20 34 31 27 32 32 20 20 26 20 33 23 30 37 23 20 24 20
internal_value=0 -0.110169 -0.182131 -0.0594595 0.00552486 -0.145631 0.0126582 0.211268 0.205128 -0 -0.396226 -0.260274 -0.08 -0.295775 -0.149425 0.0196078 -0.03125 -0.2
internal_count=506 472 291 185 181 103 158 71 78 46 106 73 50 71 87 51 64 40
cat_boundaries=0 1
cat_threshold=1
shrinkage=0.1


Tree=34
num_leaves=21
num_cat=1
split_feature=4 8 9 10 9 3 6 11 0 0 8 10 2 4 1 3 4 3 10 8
split_gain=9.41374 9.78797 7.25098 8.14357 6.22222 5.7931 5.45248 5.44136 5.33622 4.90132 6.16421 5.28609 4.61741 5.36863 5.0381 4.42369 3.92727 3.31364 3.10303 2.90429
threshold=6.0749500000000003 15.250000000000002 2.5000000000000004 6.1020000000000012 5.5000000000000009 12.099150000000002 6.3950000000000005 394.50000000000006 93.550000000000011 94.65000000000002 18.650000000000002 6.6325000000000012 0 1.9791500000000002 394.93500000000006 0.056530000000000004 4.3607000000000005 0.13570500000000005 6.0075000000000012 17.700000000000006
decision_type=10 8 8 8 10 8 10 10 8 8 10 10 9 8 8 10 8 8 10 10
left_child=1 6 -3 4 8 -6 -1 9 16 10 11 15 13 -9 -15 -5 -4 18 -2 -11
right_child=17 2 3 7 5 -7 -8 12 -10 19 -12 -13 -14 14 -16 -17 -18 -19 -20 -21
leaf_value=0.36859977988940928 -0.010298142339463114 -0.066810102509724703 0.038047735552287423 0.0030136343531179223 0.017713177916689738 -0.088962312008653746 0.0054997018952435365 -0.25389541103644347 -0.079446726856973987 0.0023716106761671797 -0.0097949361187829719 -0.0062404550687910291 0.014521551606606309 -0.029271424757957121 0.036857594566535923 0.16938269479944063 -0.011280784687525625 -0.0014406950201347969 -0.044935587798742918 0.051572043547077763
leaf_count=20 20 22 20 21 27 29 27 20 28 22 38 25 26 28 20 20 24 20 24 25
internal_value=0 -0.0271493 -0.078481 -0.0455764 -0.25 -0 0.404255 0.0612245 -0.444444 0.178808 0.0576923 0.242424 -0.12766 -0.264706 -0.0833333 0.463415 -0.227273 -0.4375 -0.590909 0.446809
internal_count=506 442 395 373 128 56 47 245 72 151 104 66 94 68 48 41 44 64 44 47
cat_boundaries=0 1
cat_threshold=1
shrinkage=0.1


Tree=35
num_leaves=20
num_cat=0
split_feature=4 10 9 6 7 8 7 7 10 4 3 12 1 11 1 0 4 3 1
split_gain=7.98186 10.1608 9.1532 7.08816 5.04514 8.3646 5.20227 5.52649 6.95759 5.73061 5.15703 5.00982 4.68611 4.58824 4.96662 4.04739 3.75 3.19121 2.61462
threshold=4.3607000000000005 7.097500000000001 2.5000000000000004 5.1550000000000011 0.52200000000000013 18.450000000000003 0.71550000000000014 0.67500000000000016 5.8530000000000006 2.0685500000000006 10.147650000000001 87.500000000000014 395.16500000000002 274.50000000000006 392.11500000000007 42.350000000000001 2.7811500000000007 1.5076700000000003 390.24000000000007
decision_type=10 8 8 8 8 10 10 10 10 8 8 8 8 10 8 8 10 8 10
left_child=2 11 -1 -4 5 18 7 8 16 -10 -9 12 -2 -11 -15 -3 17 -6 -5
right_child=1 15 3 4 6 -7 -8 10 9 13 -12 -13 -14 14 -16 -17 -18 -19 -20
leaf_value=-0.060129092258752341 -0.042713826391132595 0.081555537404149447 0.43253274084711679 0.044372790867024392 -0.051147200759696969 -0.0080773146558950522 0.0096769262082172965 -0.0022652205844359229 0.033171835109882156 -0.012647664138349769 -0.23605777504305944 -0.022599019036496949 -0.00088169404579296895 -0.054191659679566233 0.046561071533348125 -0.00683025061833753 0.03072541252886829 -0.039725304718166314 0.1050394642982358
leaf_count=22 39 21 23 24 21 24 36 20 20 27 21 21 35 22 29 20 20 39 22
internal_value=0 -0.294118 -0.0108108 0.0287356 -0.00923077 0.228571 -0.0745098 -0.13242 -0.0561798 0.122449 -0.463415 -0.473684 -0.351351 -0 0.176471 0.121951 -0.275 -0.4 0.478261
internal_count=506 136 370 348 325 70 255 219 178 98 41 95 74 78 51 41 80 60 46
shrinkage=0.1


Tree=36
num_leaves=20
num_cat=0
split_feature=1 6 5 7 8 10 10 3 9 4 3 4 10 10 1 10 0 5 1
split_gain=6.00456 6.36688 5.77908 5.84599 5.09697 5.25455 4.75152 4.74644 6.92623 5.54029 4.57306 4.35509 4.03333 3.93932 3.88752 4.6686 5.03349 2.38095 1.9968
threshold=396.66000000000003 4.4150000000000009 8.3500000000000032 0.72900000000000009 19.150000000000002 6.3295000000000003 6.5540000000000012 11.369150000000001 6.5000000000000009 2.5188000000000006 5.2474100000000012 2.8666000000000005 5.8530000000000006 6.3785000000000016 394.17500000000007 4.9715000000000007 88.300000000000026 10.700000000000001 390.94500000000005
decision_type=8 8 8 8 8 10 10 8 10 8 8 10 10 8 10 10 10 10 10
left_child=1 -1 4 6 5 -3 14 8 11 -9 -5 12 -2 -13 15 -4 17 -17 -6
right_child=7 2 3 10 18 -7 -8 9 -10 -11 -12 13 -14 -15 -16 16 -18 -19 -20
leaf_value=0.28125055736062449 -0.00070660057010805142 0.029500346843877881 0.0033230113347890722 0.013492763139887743 -0.08340509747138701 -0.030935936729091652 0.10932919038527765 -0.26708851618246338 0.013239089489759694 0.022294170965022175 -0.023301591818772494 -0.013758159261566051 0.089668376231582414 0.0010801272596548729 -0.029145610501445242 0.0095427536028465099 -0.054241950083541469 -0.0029469906954902926 -0.017125067545728002
leaf_count=21 24 30 27 28 23 36 22 24 25 28 26 26 30 32 21 21 20 21 21
internal_value=0 -0.198738 -0.236486 -0.129032 -0.418182 -0.242424 -0.242424 0.026455 0.124088 -0.230769 0.148148 0.0178571 0.222222 -0.172414 -0.327273 -0.235955 -0.387097 -0.190476 -0.681818
internal_count=506 317 296 186 110 66 132 189 137 52 54 112 54 58 110 89 62 42 44
shrinkage=0.1


Tree=37
num_leaves=21
num_cat=0
split_feature=4 9 5 11 3 1 6 5 7 12 11 10 9 8 0 8 10 4 0 4
split_gain=5.67908 5.09865 7.58386 5.6391 7.14213 6.98803 5.76134 5.65296 4.97842 5.14678 4.58223 4.35429 4.20977 3.47549 3.00807 3.61423 3.30286 2.56 2.5 1.94444
threshold=6.2047500000000007 2.5000000000000004 2.9600000000000004 249.50000000000003 0.072045000000000012 375.27000000000004 24.735000000000003 6.660000000000001 0.72900000000000009 42.500000000000007 278.00000000000006 5.9305000000000012 4.5000000000000009 18.450000000000003 93.350000000000009 13.300000000000002 6.2525000000000004 3.5712000000000006 29.500000000000004 3.5138500000000006
decision_type=10 8 8 10 10 10 10 10 10 8 10 10 8 10 10 10 10 8 10 10
left_child=1 -1 -3 4 19 -6 8 -7 9 10 -5 -11 -12 18 15 -14 17 -17 -2 -4
right_child=13 2 3 6 5 7 -8 -9 -10 11 12 -13 14 -15 -16 16 -18 -19 -20 -21
leaf_value=-0.046590317912695411 -0.0054936339877258433 0.11097165540914666 -0.012966420136147062 0.047627991313889423 -0.018413664967000188 0.13489878470480329 -0.13986417334975484 -0.00060518170498866661 0.020518756092949977 0.067326955158690902 -0.025574495859211323 0.0026485978103135467 -0.0081945546913550164 0.0053569443998920723 -0.022386681894997908 0.0086794013564006189 -0.0045477283163060994 0.059535174536208761 -0.031845132246654022 -0.025675981826572783
leaf_count=24 20 22 21 29 28 20 20 21 21 22 35 27 27 21 34 25 25 20 20 24
internal_value=0 -0.0516854 -0.0261283 -0.0576441 -0.245614 -0.0434783 0.0175439 0.219512 0.0566038 0.0163934 -0.0564103 0.306122 -0.120482 -0.377049 -0.0381679 0.0515464 0.171429 0.333333 -0.55 -0.555556
internal_count=506 445 421 399 114 69 285 41 265 244 195 49 166 61 131 97 70 45 40 45
shrinkage=0.1


Tree=38
num_leaves=19
num_cat=0
split_feature=4 1 7 8 6 9 0 6 5 0 1 3 6 6 8 10 11 6
split_gain=5.42988 4.48398 5.82922 4.71661 4.27059 3.936 7.27294 5.6845 5.00124 4.84549 5.60764 4.40654 3.89069 3.69699 5.31948 6.83488 3.43453 2.86512
threshold=6.0749500000000003 329.75000000000006 0.72900000000000009 15.250000000000002 24.070000000000004 1.5000000000000002 33.400000000000006 21.180000000000003 10.300000000000002 98.250000000000014 395.35500000000008 0.12809000000000001 5.8950000000000005 13.445000000000002 20.950000000000003 6.410000000000001 309.00000000000006 18.695000000000004
decision_type=10 8 10 8 8 10 10 8 10 8 8 10 10 10 8 8 8 8
left_child=1 4 3 -3 -1 9 7 11 13 10 -5 16 -2 14 15 -8 -7 -10
right_child=12 2 -4 5 -6 6 8 -9 17 -11 -12 -13 -14 -15 -16 -17 -18 -19
leaf_value=-0.0012892266248128337 -0.0031949414378196653 0.11651616269515799 0.044855033509868039 -0.029691176837737032 -0.12212547928334026 0.0019537033174644946 -0.023349739579926167 0.095876859962268676 0.0072746328999077296 -0.084348330375939903 0.0091166095014941113 0.067501623392741558 -0.018658515508156625 0.017907039142762482 -0.036746825571403366 0.0022489613950916975 -0.017819460737262639 -0.019784308154915921
leaf_count=34 26 32 20 27 20 25 23 22 37 27 22 26 38 25 22 32 21 27
internal_value=0 -0.0633484 -0.0257732 -0.0543478 -0.333333 -0.0892857 -0.0307692 0.191489 -0.156627 -0.289474 -0.102041 0.0555556 -0.375 -0.294118 -0.402597 -0.236364 -0.130435 0.0625
internal_count=506 442 388 368 54 336 260 94 166 76 49 72 64 102 77 55 46 64
shrinkage=0.1


Tree=39
num_leaves=20
num_cat=0
split_feature=11 3 6 12 5 9 4 1 9 1 10 0 7 4 5 1 10 6 6
split_gain=3.61528 3.72048 9.47985 7.05474 6.66232 6.28089 4.9581 4.92769 6.34062 4.70003 4.45968 7.417 6.95684 4.26087 4.20746 3.98654 5.43763 2.31527 2.29206
threshold=222.50000000000003 0.13570500000000005 10.040000000000001 31.500000000000004 8.3500000000000032 4.5000000000000009 2.1021500000000004 390.41000000000003 2.5000000000000004 344.48000000000008 6.0390000000000015 97.100000000000009 0.60100000000000009 5.4334000000000007 6.660000000000001 386.74000000000007 6.4280000000000008 14.4 20.935000000000006
decision_type=8 8 8 10 10 10 10 10 10 8 10 10 10 10 10 10 10 10 8
left_child=-1 3 15 7 5 14 -7 -2 -9 18 11 12 -11 -5 -4 -3 -17 -12 -6
right_child=1 2 4 13 9 6 -8 8 -10 10 17 -13 -14 -15 -16 16 -18 -19 -20
leaf_value=0.063376856425031922 -0.032283061014089225 0.1654678290307329 -0.022504741618878301 0.070883436326399263 -0.063329677618473398 -0.064589815123836575 0.040369530158881166 -0.026722059153963331 0.00064046897061089683 -0.006675450924084992 0.094802694586233832 -0.060928672521528254 0.026396418272596558 -0.011342092935879223 -0.10107247768290151 0.0058037825510075082 -0.044256758457086681 0.00096097830813164371 -0.0023276077431141572
leaf_count=23 37 31 30 23 24 23 22 25 36 37 23 22 23 23 22 21 20 20 21
internal_value=0 -0.101449 -0.0442478 -0.236111 -0.131086 -0.340206 -0.0666667 -0.387755 -0.213115 -0.0117647 0.088 -0.0487805 0.133333 0.0869565 -0.576923 0.277778 0.0731707 0.348837 -0.288889
internal_count=506 483 339 144 267 97 45 98 61 170 125 82 60 46 52 72 41 43 45
shrinkage=0.1


Tree=40
num_leaves=20
num_cat=1
split_feature=7 2 10 6 7 1 3 10 5 7 8 3 0 10 4 7 4 1 3
split_gain=6.88699 4.09797 3.65642 2.99047 7.07911 8.34939 6.16699 6.55663 5.65355 6.4381 4.22861 4.37311 5.11579 5.18526 4.25562 3.26474 3.10303 1.718 1.718
threshold=0.75500000000000012 0 7.5650000000000004 24.070000000000004 0.67500000000000016 392.76000000000005 0.069620000000000015 5.8885000000000005 1.6050000000000002 0.49100000000000005 16.850000000000005 0.20823000000000005 41.800000000000004 6.4600000000000009 4.2040000000000015 0.59100000000000008 1.9310500000000002 393.24500000000006 0.043980000000000005
decision_type=10 9 10 8 8 8 8 10 10 10 8 10 8 8 8 10 10 8 10
left_child=1 -1 3 6 5 -5 7 -3 9 -8 -10 12 -12 17 15 -13 -6 -14 -9
right_child=-2 2 -4 4 16 -7 8 18 10 -11 11 14 13 -15 -16 -17 -18 -19 -20
leaf_value=0.095684793703574481 0.024926669131047775 0.0042665623497750715 0.33181381566168189 -0.031630734427198347 -0.19493586222235246 0.036154230518314283 0.021220788021999584 -0.045128715106429601 -0.024762424930666427 -0.02561377835696135 -0.0046768517636429866 -0.0063516680518336706 0.012106601477530532 0.0062841755217183607 -0.023515118822748527 0.0054956881194602406 -0.0081224472927555521 0.018487224855836006 -0.013718261265726995
leaf_count=21 20 25 20 30 24 37 20 21 29 28 20 37 20 35 24 34 20 21 20
internal_value=0 -0.0987654 -0.11828 -0.137079 -0.279279 -0.0746269 -0.0898204 -0.363636 -0.0223881 -0.333333 0.0454545 0.0994764 0.25 0.368421 -0.0526316 0.0704225 -0.590909 0.609756 -0.609756
internal_count=506 486 465 445 111 67 334 66 268 48 220 191 96 76 95 71 44 41 41
cat_boundaries=0 1
cat_threshold=2
shrinkage=0.1


Tree=41
num_leaves=19
num_cat=0
split_feature=4 9 0 1 7 11 6 7 6 6 5 10 8 11 0 3 0 0
split_gain=4.69532 4.10249 5.22017 10.1512 7.54516 5.65296 4.93896 4.94016 8.0727 4.14575 6.89285 3.85449 3.67549 3.20053 3.27273 1.84472 1.75819 0.4
threshold=5.9728500000000002 2.5000000000000004 59.550000000000004 1.0000000180025095e-35 0.41400000000000003 288.00000000000006 24.070000000000004 0.48850000000000005 14.680000000000001 15.895000000000001 7.6250000000000009 6.3180000000000005 18.250000000000004 298.00000000000006 96.050000000000011 19.447950000000002 29.500000000000004 6.3500000000000005
decision_type=10 10 10 10 10 10 8 10 10 8 8 8 10 8 8 8 10 10
left_child=1 11 4 -4 5 -3 7 -5 -9 10 -6 -1 16 -13 -15 -8 -2 -12
right_child=12 2 3 6 9 -7 15 8 -10 -11 17 13 -14 14 -16 -17 -18 -19
leaf_value=-0.041819292707069522 -0.0060635971910038226 0.072674051682733068 0.02782207138824493 0.035010354985675021 0.0038899878316058789 -0.0086676225125234662 -0.043888882445425104 -0.023644973694668538 0.0019034148779855542 0.004623094987569765 0.026762108511537975 -0.036606224874167384 -0.00049084384322952703 0.070250080314306726 -0.024124360746760234 -0.083459804889631256 -0.025157734599928362 0.0064629480515314697
leaf_count=32 20 21 33 21 38 20 23 36 38 36 20 35 27 22 22 21 21 20
internal_value=0 -0.0410959 0.0152905 -0.104651 0.148387 -0.219512 -0.223022 -0.0947368 -0.216216 0.280702 0.410256 -0.207207 -0.323529 -0.0886076 0.0909091 -0.5 -0.512195 0.7
internal_count=506 438 327 172 155 41 139 95 74 114 78 111 68 79 44 44 41 40
shrinkage=0.1


Tree=42
num_leaves=19
num_cat=0
split_feature=7 10 3 4 5 11 11 1 4 3 11 1 6 6 0 11 4 10
split_gain=3.80022 4.41638 2.77563 7.29138 2.78769 10 4.69214 3.0139 5.73016 5.22272 6.61939 5.363 3.79216 5.19314 3.96205 6.10326 5.4668 2.75238
threshold=0.71550000000000014 7.5650000000000004 15.431850000000003 1.6898000000000002 2.9600000000000004 254.50000000000003 237.50000000000003 383.30500000000006 3.8760500000000007 8.7544350000000009 407.00000000000006 394.52500000000003 20.935000000000006 13.985000000000001 94.450000000000017 271.50000000000006 5.1085500000000001 5.8390000000000013
decision_type=10 10 10 8 8 10 8 8 8 8 10 10 8 10 8 10 8 10
left_child=1 2 3 -1 5 -5 -6 8 17 10 12 -11 13 14 15 -9 -17 -8
right_child=-2 -3 -4 4 6 -7 7 9 -10 11 -12 -13 -14 -15 -16 16 -18 -19
leaf_value=0.064683992984400793 0.0039939831385826354 0.28317017856733245 -0.14841821495790289 0.055738615015690135 -0.027810731393799949 -0.049399362673250381 0.0042998245023611048 -0.01598627674615969 -0.0765760148469532 0.050510096904111991 -0.036222536785243169 -0.015785491942098061 0.041282734106652265 -0.013399629176187667 0.0058257683487427771 0.016961281837976828 -0.0030084570590217297 -0.0017980547517392866
leaf_count=24 36 21 20 20 28 20 20 36 36 30 30 26 31 21 29 21 29 28
internal_value=0 -0.114894 -0.135857 -0.118881 -0.150617 0.1 -0.178082 -0.145401 -0.309524 -0.0909091 -0.167513 0.178571 -0.0898204 -0.161765 -0.0782609 -0.186047 0.04 -0.0833333
internal_count=506 470 449 429 405 40 365 337 84 253 197 56 167 136 115 86 50 48
shrinkage=0.1


Tree=43
num_leaves=20
num_cat=0
split_feature=7 7 7 3 6 5 1 3 4 10 1 10 1 6 1 0 10 11 1
split_gain=3.70488 4.15107 4.35919 10.6076 3.86551 3.75653 4.56411 4.96242 6.20815 6.38352 8.69298 4.18028 4.06708 3.77143 2.91255 2.7808 6.4319 5.35172 1.79884
threshold=0.71550000000000014 0.67500000000000016 0.59100000000000008 1.4194350000000002 19.530000000000005 1.3950000000000002 375.27000000000004 0.043980000000000005 2.7685000000000004 6.6325000000000012 393.58000000000004 5.8695000000000013 394.46500000000009 12.760000000000002 349.2050000000001 43.100000000000001 6.3135000000000012 282.50000000000006 393.36500000000007
decision_type=10 10 10 10 8 10 8 8 8 10 8 8 8 8 10 10 8 10 10
left_child=1 2 5 -4 -3 12 14 -8 18 11 -11 -10 13 -1 -7 17 -17 -13 -9
right_child=-2 4 3 -5 -6 6 7 8 9 10 -12 15 -14 -15 -16 16 -18 -19 -20
leaf_value=0.10070736154350897 0.0035945848247244784 -0.00098219843442173284 -0.0076883341425640246 0.14519499630847887 -0.18527627780130534 -0.005175361880418095 -0.015835337248717708 -0.00043744787715667145 -0.0058055638399377336 -0.084752799377235996 0.012309006232448639 0.038975038753055462 -0.0060314251479887566 0.0016887709899252813 -0.038555310483851107 -0.014677159416122977 0.049832029148168644 0.0048723507717880928 -0.072134502813922557
leaf_count=20 36 20 29 27 21 20 37 20 24 20 26 23 32 22 22 22 38 26 21
internal_value=0 -0.110638 -0.0815851 0.178571 -0.414634 -0.120643 -0.170569 -0.120623 -0.0636364 0.0167598 -0.304348 0.12782 0.0810811 0.285714 -0.47619 0.211009 0.0666667 0.387755 -0.414634
internal_count=506 470 429 56 41 373 299 257 220 179 46 133 74 42 42 109 60 49 41
shrinkage=0.1


Tree=44
num_leaves=20
num_cat=0
split_feature=4 10 6 6 7 11 6 5 10 6 6 7 9 5 6 9 1 0 1
split_gain=7.0718 5.40049 6.09524 4.61875 6.46482 5.43243 5.72766 5.51772 7.29641 3.87195 6.90518 3.71359 3.62963 2.9409 2.52696 2.57103 2.49537 2.46257 1.97921
threshold=4.9906000000000015 6.0034999999999998 8.5900000000000016 7.7350000000000012 0.43200000000000005 688.50000000000011 24.735000000000003 8.3500000000000032 4.9160000000000013 18.100000000000005 14.4 0.43200000000000005 4.5000000000000009 10.300000000000002 23.035000000000004 5.5000000000000009 395.54000000000002 97.350000000000009 395.72000000000008
decision_type=10 10 10 8 10 8 10 8 10 8 10 8 10 10 8 8 8 8 8
left_child=3 2 -2 4 -1 6 7 16 17 10 13 -3 -6 -10 15 -7 -5 -9 -11
right_child=1 11 -4 5 12 14 -8 8 9 18 -12 -13 -14 -15 -16 -17 -18 -19 -20
leaf_value=-0.020880703664470701 0.036676294334522019 -0.0016124022333514178 -0.0053266450445669028 -0.050898801303900149 0.0094302799028460182 -0.0013975234585807074 -0.085534722048125733 -0.00028736468580099485 0.0029864705856789799 0.058420380853948656 -0.024395574949049426 -0.023979536482828578 0.16407723528799389 0.048904059132871859 -0.0057888307618256364 -0.025833333979877082 0.00040594265775979467 -0.039961788790769504 0.010874211338771644
leaf_count=22 21 29 21 32 27 21 21 27 21 33 29 36 27 23 24 22 22 20 28
internal_value=0 -0.327103 -0.047619 -0.037594 0.184211 -0.0897833 -0.0234375 0.0212766 0.104972 0.223881 0.0684932 -0.507692 0.37037 0.318182 -0.343284 -0.488372 -0.259259 -0.234043 0.409836
internal_count=506 107 42 399 76 323 256 235 181 134 73 65 54 44 67 43 54 47 61
shrinkage=0.1


Tree=45
num_leaves=20
num_cat=0
split_feature=4 11 10 1 9 11 3 3 6 1 6 0 9 6 3 6 4 0 4
split_gain=6.52117 5.72867 6.674 4.16182 3.86454 6.71637 6.46503 5.53547 4.67843 3.78758 3.54632 2.86202 2.69933 4.45873 3.47938 3.62789 3.3528 2.0964 1.72391
threshold=4.4455500000000017 336.00000000000006 6.0034999999999998 390.92500000000007 2.5000000000000004 302.00000000000006 0.13972000000000004 0.15660500000000002 11.160000000000002 1.0000000180025095e-35 8.3450000000000006 97.350000000000009 5.5000000000000009 13.31 1.6426200000000002 34.195000000000007 2.7377000000000007 74.450000000000017 1.8488000000000002
decision_type=10 10 10 10 8 8 8 8 8 10 10 8 8 10 8 8 8 10 10
left_child=4 2 10 -4 -1 6 -6 -7 17 11 -2 -10 13 -11 -14 16 18 -9 -16
right_child=1 -3 3 -5 5 7 -8 8 9 12 -12 -13 14 -15 15 -17 -18 -19 -20
leaf_value=-0.059615702250166436 0.039499304374220404 -0.035965609911692557 -0.00050589865505301645 -0.013976546392407131 0.077619947491872496 -0.0083767084896766882 -0.010369386617182919 0.098764743907287317 0.0407891444359227 -0.034443346781467633 -0.0034636385590719244 -0.0025862167641456327 0.015127659032217623 -0.0014095549303618782 -0.11105258680290504 0.052735896914298058 -0.038416583529402894 0.023602999035589357 0.0039594513858375539
leaf_count=22 20 20 30 38 33 34 39 20 21 21 22 20 24 24 22 22 21 21 32
internal_value=0 -0.307692 -0.218182 -0.411765 -0.0478723 -0.0225989 0.25 -0.0921986 -0.0403226 -0.101449 0.0952381 0.170732 -0.168675 -0.377778 -0.0909091 -0.175258 -0.28 0.268293 -0.148148
internal_count=506 130 110 68 376 354 72 282 248 207 42 41 166 45 121 97 75 41 54
shrinkage=0.1


Tree=46
num_leaves=21
num_cat=1
split_feature=7 2 10 8 12 3 6 5 1 11 3 1 10 0 10 6 0 10 4 1
split_gain=5.51474 4.83059 2.66338 2.71189 3.53878 4.72826 4.42112 5.18395 4.46294 4.45979 7.4799 4.67098 5.50175 5.26461 3.74034 3.65427 2.73222 4.9 2.72306 3.27797
threshold=0.75500000000000012 0 7.5650000000000004 14.850000000000003 31.500000000000004 0.043980000000000005 24.070000000000004 2.2450000000000006 394.17500000000007 278.00000000000006 0.13570500000000005 394.62500000000006 6.0940000000000012 89.350000000000009 6.870000000000001 34.195000000000007 87.500000000000014 6.394000000000001 1.5846000000000002 377.00500000000005
decision_type=10 9 10 8 10 8 8 10 8 10 8 8 10 8 8 8 8 8 10 10
left_child=1 -1 3 -3 5 -5 7 8 -7 16 -11 12 -12 -13 -6 -8 -9 -18 -17 -20
right_child=-2 2 -4 4 14 6 15 9 -10 10 11 13 -14 -15 -16 18 17 -19 19 -21
leaf_value=0.066079772427186795 0.017253581334100689 -0.025811317957695937 0.23454343494596375 -0.024763976406099175 -0.020878312240482446 -0.0004525942212001866 -0.066752203335360874 -0.00045585075656049415 -0.018172288172686103 -0.0038879259601653617 0.010061322683663576 0.02405371306373514 -0.05899337712024693 -0.012782796137020115 0.060073445870163417 0.023995417528836428 0.0032724415667786388 0.039270517640276031 -0.058546735128382821 -0.0014723366085231506
leaf_count=21 20 21 20 22 20 29 21 37 25 23 30 25 27 31 23 23 20 20 26 22
internal_value=0 -0.135802 -0.156989 -0.173034 -0.15566 -0.186352 -0.158774 -0.093633 -0.37037 -0.0234742 -0.132353 -0.0265487 -0.22807 0.178571 0.116279 -0.347826 0.168831 0.35 -0.239437 -0.375
internal_count=506 486 465 445 424 381 359 267 54 213 136 113 57 56 43 92 77 40 71 48
cat_boundaries=0 1
cat_threshold=2
shrinkage=0.1


Tree=47
num_leaves=19
num_cat=0
split_feature=4 10 6 1 0 0 3 10 5 6 6 8 7 11 4 9 8 11
split_gain=5.39379 4.22895 5.34964 3.42041 5.00138 4.75655 4.38186 5.04776 4.12767 4.05179 5.29 6.71614 4.04598 3.96825 3.70135 3.93023 3 2.04848
threshold=5.9728500000000002 6.4375000000000009 9.5350000000000019 1.0000000180025095e-35 74.950000000000017 45.050000000000004 0.013355000000000001 6.4780000000000006 8.3500000000000032 13.445000000000002 24.735000000000003 17.700000000000006 0.69650000000000001 306.00000000000006 2.4213000000000005 3.5000000000000004 19.900000000000002 453.00000000000006
decision_type=10 10 8 10 10 10 10 8 10 10 10 10 8 10 8 10 10 8
left_child=3 2 -2 4 -1 6 -5 8 -8 14 11 -11 -13 -9 -7 -16 -17 -6
right_child=1 -3 -4 5 17 9 7 13 -10 10 -12 12 -14 -15 15 16 -18 -19
leaf_value=-0.015432401179798383 0.018923816002651962 -0.019772299971726248 -0.014116190234684823 -0.037944752799621111 0.056340148329154266 0.00083200458949974634 -0.011180738184694939 0.076324989589168446 0.0072384205687307636 0.0090551904152972543 -0.06978170441057259 -0.022181567761323517 0.021446720295876 0.0041001652954749451 -0.0042878534009656022 -0.020502161639633698 -0.0098711354487100791 0.013257308942509916
leaf_count=39 22 25 21 35 20 28 23 36 27 22 20 33 25 20 36 30 20 24
internal_value=0 -0.352941 -0.162791 -0.0502283 0.13253 -0.0929577 0.0496454 0.150943 -0.08 -0.186916 -0.04 0.075 -0.103448 0.357143 -0.315789 -0.418605 -0.6 0.363636
internal_count=506 68 43 438 83 355 141 106 50 214 100 80 58 56 114 86 50 44
shrinkage=0.1


Tree=48
num_leaves=20
num_cat=0
split_feature=3 4 4 7 4 7 8 8 11 6 1 6 4 3 6 6 11 3 5
split_gain=2.55683 3.26901 2.37082 4.70529 3.71298 3.96072 3.54976 2.89497 4.40447 4.37302 6.43187 4.7619 4.04547 4.49143 3.66981 6.51455 4.10829 5.51117 2.51512
threshold=15.431850000000003 1.5435000000000001 1.8846000000000003 0.71550000000000014 2.4780500000000005 0.6070000000000001 20.950000000000003 19.650000000000002 228.50000000000003 10.250000000000002 392.79000000000002 7.5200000000000005 3.4178000000000002 0.25089500000000003 10.040000000000001 7.5200000000000005 304.50000000000006 0.099245000000000014 18.840000000000003
decision_type=10 8 8 10 8 10 10 8 8 8 10 10 8 10 10 10 10 8 8
left_child=1 -1 -3 4 18 6 7 8 -6 11 -11 -9 -10 14 15 16 17 -14 -4
right_child=-2 2 3 -5 5 -7 -8 9 12 10 -12 -13 13 -15 -16 -17 -18 -19 -20
leaf_value=0.074499827189912535 -0.10311790876073373 -0.0038182579706024459 -0.00075066351272390364 0.014202492306439753 0.095950128464738077 -0.027179310027719783 -0.062073982105522778 0.0038372916860751616 -0.041762065375925063 0.00053653414740360004 0.014986172784146668 -0.021429040217404174 0.016720394495703419 0.11130653621622032 -0.017342499108786314 0.017031434402386837 -0.029875427087403497 -0.03404314244013236 0.005457613063755762
leaf_count=25 21 26 39 20 22 25 26 27 24 35 23 21 28 20 35 20 24 22 23
internal_value=0 -0.0721649 -0.0913043 -0.0737327 -0.0966184 -0.136364 -0.107034 -0.076412 -0.148718 0.0566038 0.241379 -0.166667 -0.202312 -0.14094 -0.209302 -0.106383 -0.243243 -0.08 0.129032
internal_count=506 485 460 434 414 352 327 301 195 106 58 48 173 149 129 94 74 50 62
shrinkage=0.1


Tree=49
num_leaves=20
num_cat=0
split_feature=4 1 1 8 7 4 6 4 0 4 10 6 10 11 10 1 6 9 1
split_gain=4.30047 6.30592 8.82076 4.39291 4.1784 4.15181 4.13928 5 6.81901 4.81408 5.19149 5.00137 4.38541 4.62857 3.59275 4.58046 4.16864 4.53704 1.6
threshold=3.8760500000000007 383.30500000000006 390.92500000000007 18.650000000000002 0.49600000000000005 6.0749500000000003 5.1550000000000011 1.8846000000000003 67.950000000000003 1.4124000000000001 5.6380000000000008 10.545000000000002 5.8580000000000014 279.50000000000006 6.9410000000000007 392.26500000000004 10.410000000000002 7.5000000000000009 391.88000000000005
decision_type=10 8 10 10 8 10 8 10 8 10 8 8 8 10 8 8 10 10 10
left_child=6 -2 3 -3 5 -4 -1 9 -9 11 -11 -8 -13 -14 16 -16 18 -18 -10
right_child=1 2 4 -5 -6 -7 7 8 14 10 -12 12 13 -15 15 -17 17 -19 -20
leaf_value=0.21059009971082254 -0.061288700808950131 0.064603597532862447 -0.02107344403307785 -0.0010389618301992699 -8.7417156703040186e-05 -0.01530036961599386 -0.016309041453929751 -0.0074246827351611699 0.026665012789025867 0.0058500180123480135 -0.069841415302551016 -0.033787264938468023 0.051615285999911366 0.0036276463122748128 0.024747049273189159 -0.052045785856638466 -0.0029395816288545263 0.008599519001697687 0.076431125520676352
leaf_count=25 22 33 28 20 32 26 28 22 20 21 32 23 20 36 23 21 24 30 20
internal_value=0 -0.229814 -0.151079 0.169811 -0.348837 -0.518519 -0.0318841 -0.0625 0.0625 -0.1875 -0.433962 -0.0654206 0.0632911 0.214286 0.144928 -0.0909091 0.255319 0.0740741 0.5
internal_count=506 161 139 53 86 54 345 320 160 160 53 107 79 56 138 44 94 54 40
shrinkage=0.1


Tree=50
num_leaves=18
num_cat=0
split_feature=1 3 6 3 10 0 6 7 3 4 10 5 0 6 4 6 10
split_gain=3.8327 7.15064 4.38495 2.83373 11.9822 7.84723 4.84796 3.86237 5.58621 3.06332 2.76571 2.82177 2.74569 3.50303 2.61934 6.17544 6.10159
threshold=1.0000000180025095e-35 0.30131500000000006 15.895000000000001 0.072045000000000012 5.900500000000001 43.100000000000001 6.8650000000000011 0.46650000000000003 0.054610000000000013 3.7358000000000002 5.5625000000000009 4.1000000000000005 59.550000000000004 12.200000000000001 1.8846000000000003 17.510000000000002 6.3440000000000003
decision_type=10 8 8 10 10 8 8 10 8 10 10 10 10 10 10 8 8
left_child=1 -1 -3 4 10 -5 -7 8 -6 12 11 -2 13 -8 16 -16 -14
right_child=3 2 -4 5 7 6 9 -9 -10 -11 -12 -13 14 -15 15 -17 -18
leaf_value=-0.016714211951167356 0.1087620424559006 0.033215878795074261 0.0039264270310479079 0.036584559329776667 -0.0036011863946065151 0.062351638702568303 0.069207426594737248 -0.0062663237090657027 -0.05406708230981927 -0.02808390432620449 0.0094000227857286237 -0.025231472612879814 -0.0058557699091892346 -0.0021068389731489392 -0.0052669673543425336 0.01513222016413529 -0.056229348526197855
leaf_count=33 23 26 32 33 29 23 20 38 29 36 20 27 36 24 33 24 20
internal_value=0 0.0989011 0.310345 -0.127711 -0.228916 -0.060241 -0.12963 -0.458333 -0.62069 -0.181347 0.0857143 -0.04 -0.121019 0.0909091 -0.20354 -0.0526316 -0.357143
internal_count=506 91 58 415 166 249 216 96 58 193 70 50 157 44 113 57 56
shrinkage=0.1



feature importances:
LSTAT=121
RM=119
B=106
DIS=103
AGE=89
NOX=79
CRIM=78
TAX=61
INDUS=55
PTRATIO=52
RAD=42
ZN=15
CHAS=8

pandas_categorical:[[0.0, 1.0]]
