tree
version=v3
num_class=1
num_tree_per_iteration=1
label_index=0
max_feature_idx=6
objective=regression
average_output
feature_names=cylinders displacement horsepower weight acceleration model_year origin
feature_infos=1:4:3:0:2 [68:455] [46:230] [1613:5140] [8:24.800000000000001] 3:8:6:12:5:0:9:10:11:1:2:7:4 2:0:1
tree_sizes=995 995 995 995 995 1070 1070 1070 1070 1070 901 901 901 901 901 1132 1132 1132 1132 1132 1137 1137 1137 1137 1137 992 992 992 992 992 976

Tree=0
num_leaves=11
num_cat=1
split_feature=3 2 2 3 1 3 6 2 3 2
split_gain=10635.3 1525.41 1048.78 250.34 234.772 128.377 122.707 71.6399 66.3793 32.9934
threshold=2742.5000000000005 127.00000000000001 70.500000000000014 2212.5000000000005 198.50000000000003 4381.0000000000009 0 84.500000000000014 3267.5000000000005 146.50000000000003
decision_type=2 10 10 2 2 2 1 10 2 10
left_child=2 4 6 -4 -2 9 -1 -5 -6 -3
right_child=1 5 3 7 8 -7 -8 -9 -10 -11
leaf_value=34.767999566811412 23.033333273349292 16.447618987635011 30.449999845371011 27.803846179448271 20.871428527339106 12.71999976517567 31.790322561166644 25.637837832310158 18.553333238381235 14.813333085793346
leaf_weight=25 30 21 22 26 21 25 31 37 30 30
leaf_count=25 30 21 22 26 21 25 31 37 30 30
internal_value=0 -5.72031 6.245 4.03131 -2.70099 -8.93826 9.60507 3.01717 -4.00673 -8.0283
internal_weight=0 157 141 85 81 76 56 63 51 51
internal_count=298 157 141 85 81 76 56 63 51 51
cat_boundaries=0 1
cat_threshold=4
shrinkage=1


Tree=1
num_leaves=11
num_cat=1
split_feature=3 2 2 3 1 3 6 2 3 2
split_gain=10635.3 1525.41 1048.78 250.34 234.772 128.377 122.707 71.6399 66.3793 32.9934
threshold=2742.5000000000005 127.00000000000001 70.500000000000014 2212.5000000000005 198.50000000000003 4381.0000000000009 0 84.500000000000014 3267.5000000000005 146.50000000000003
decision_type=2 10 10 2 2 2 1 10 2 10
left_child=2 4 6 -4 -2 9 -1 -5 -6 -3
right_child=1 5 3 7 8 -7 -8 -9 -10 -11
leaf_value=34.767999566811412 23.033333273349292 16.447618987635011 30.449999845371011 27.803846179448271 20.871428527339106 12.71999976517567 31.790322561166644 25.637837832310158 18.553333238381235 14.813333085793346
leaf_weight=25 30 21 22 26 21 25 31 37 30 30
leaf_count=25 30 21 22 26 21 25 31 37 30 30
internal_value=0 -5.72031 6.245 4.03131 -2.70099 -8.93826 9.60507 3.01717 -4.00673 -8.0283
internal_weight=0 157 141 85 81 76 56 63 51 51
internal_count=298 157 141 85 81 76 56 63 51 51
cat_boundaries=0 1
cat_threshold=4
shrinkage=1


Tree=2
num_leaves=11
num_cat=1
split_feature=3 2 2 3 1 3 6 2 3 2
split_gain=10635.3 1525.41 1048.78 250.34 234.772 128.377 122.707 71.6399 66.3793 32.9934
threshold=2742.5000000000005 127.00000000000001 70.500000000000014 2212.5000000000005 198.50000000000003 4381.0000000000009 0 84.500000000000014 3267.5000000000005 146.50000000000003
decision_type=2 10 10 2 2 2 1 10 2 10
left_child=2 4 6 -4 -2 9 -1 -5 -6 -3
right_child=1 5 3 7 8 -7 -8 -9 -10 -11
leaf_value=34.767999566811412 23.033333273349292 16.447618987635011 30.449999845371011 27.803846179448271 20.871428527339106 12.71999976517567 31.790322561166644 25.637837832310158 18.553333238381235 14.813333085793346
leaf_weight=25 30 21 22 26 21 25 31 37 30 30
leaf_count=25 30 21 22 26 21 25 31 37 30 30
internal_value=0 -5.72031 6.245 4.03131 -2.70099 -8.93826 9.60507 3.01717 -4.00673 -8.0283
internal_weight=0 157 141 85 81 76 56 63 51 51
internal_count=298 157 141 85 81 76 56 63 51 51
cat_boundaries=0 1
cat_threshold=4
shrinkage=1


Tree=3
num_leaves=11
num_cat=1
split_feature=3 2 2 3 1 3 6 2 3 2
split_gain=10635.3 1525.41 1048.78 250.34 234.772 128.377 122.707 71.6399 66.3793 32.9934
threshold=2742.5000000000005 127.00000000000001 70.500000000000014 2212.5000000000005 198.50000000000003 4381.0000000000009 0 84.500000000000014 3267.5000000000005 146.50000000000003
decision_type=2 10 10 2 2 2 1 10 2 10
left_child=2 4 6 -4 -2 9 -1 -5 -6 -3
right_child=1 5 3 7 8 -7 -8 -9 -10 -11
leaf_value=34.767999566811412 23.033333273349292 16.447618987635011 30.449999845371011 27.803846179448271 20.871428527339106 12.71999976517567 31.790322561166644 25.637837832310158 18.553333238381235 14.813333085793346
leaf_weight=25 30 21 22 26 21 25 31 37 30 30
leaf_count=25 30 21 22 26 21 25 31 37 30 30
internal_value=0 -5.72031 6.245 4.03131 -2.70099 -8.93826 9.60507 3.01717 -4.00673 -8.0283
internal_weight=0 157 141 85 81 76 56 63 51 51
internal_count=298 157 141 85 81 76 56 63 51 51
cat_boundaries=0 1
cat_threshold=4
shrinkage=1


Tree=4
num_leaves=11
num_cat=1
split_feature=3 2 2 3 1 3 6 2 3 2
split_gain=10635.3 1525.41 1048.78 250.34 234.772 128.377 122.707 71.6399 66.3793 32.9934
threshold=2742.5000000000005 127.00000000000001 70.500000000000014 2212.5000000000005 198.50000000000003 4381.0000000000009 0 84.500000000000014 3267.5000000000005 146.50000000000003
decision_type=2 10 10 2 2 2 1 10 2 10
left_child=2 4 6 -4 -2 9 -1 -5 -6 -3
right_child=1 5 3 7 8 -7 -8 -9 -10 -11
leaf_value=34.767999566811412 23.033333273349292 16.447618987635011 30.449999845371011 27.803846179448271 20.871428527339106 12.71999976517567 31.790322561166644 25.637837832310158 18.553333238381235 14.813333085793346
leaf_weight=25 30 21 22 26 21 25 31 37 30 30
leaf_count=25 30 21 22 26 21 25 31 37 30 30
internal_value=0 -5.72031 6.245 4.03131 -2.70099 -8.93826 9.60507 3.01717 -4.00673 -8.0283
internal_weight=0 157 141 85 81 76 56 63 51 51
internal_count=298 157 141 85 81 76 56 63 51 51
cat_boundaries=0 1
cat_threshold=4
shrinkage=1


Tree=5
num_leaves=12
num_cat=1
split_feature=1 3 2 2 3 2 6 3 3 3 2
split_gain=10616.9 2019.18 849.041 228.001 193.644 185.032 92.1945 82.4547 62.6783 31.4731 30.8976
threshold=177.00000000000003 2212.5000000000005 115.50000000000001 84.500000000000014 2781.5000000000005 70.500000000000014 0 4381.0000000000009 3179.5000000000005 3958.5000000000005 92.500000000000014
decision_type=2 2 10 8 2 10 1 2 2 2 10
left_child=1 5 8 -3 10 6 -1 9 -2 -4 -5
right_child=2 3 7 4 -6 -7 -8 -9 -10 -11 -12
leaf_value=34.896551292001675 20.956521649430456 28.12222228586263 16.176190379875987 26.6217389971975 22.074999920147746 30.35833321374465 32.181818077040347 12.956521504306105 18.806060520067266 14.579999752460012 24.982608767500221
leaf_weight=29 23 27 21 23 20 24 22 23 33 30 23
leaf_count=29 23 27 21 23 20 24 22 23 33 30 23
internal_value=0 5.27293 -6.76303 2.15962 1.15815 9.13343 10.2109 -8.98619 -3.82529 -8.27732 2.2876
internal_weight=0 168 130 93 66 75 51 74 56 51 46
internal_count=298 168 130 93 66 75 51 74 56 51 46
cat_boundaries=0 1
cat_threshold=4
shrinkage=1


Tree=6
num_leaves=12
num_cat=1
split_feature=1 3 2 2 3 2 6 3 3 3 2
split_gain=10616.9 2019.18 849.041 228.001 193.644 185.032 92.1945 82.4547 62.6783 31.4731 30.8976
threshold=177.00000000000003 2212.5000000000005 115.50000000000001 84.500000000000014 2781.5000000000005 70.500000000000014 0 4381.0000000000009 3179.5000000000005 3958.5000000000005 92.500000000000014
decision_type=2 2 10 8 2 10 1 2 2 2 10
left_child=1 5 8 -3 10 6 -1 9 -2 -4 -5
right_child=2 3 7 4 -6 -7 -8 -9 -10 -11 -12
leaf_value=34.896551292001675 20.956521649430456 28.12222228586263 16.176190379875987 26.6217389971975 22.074999920147746 30.35833321374465 32.181818077040347 12.956521504306105 18.806060520067266 14.579999752460012 24.982608767500221
leaf_weight=29 23 27 21 23 20 24 22 23 33 30 23
leaf_count=29 23 27 21 23 20 24 22 23 33 30 23
internal_value=0 5.27293 -6.76303 2.15962 1.15815 9.13343 10.2109 -8.98619 -3.82529 -8.27732 2.2876
internal_weight=0 168 130 93 66 75 51 74 56 51 46
internal_count=298 168 130 93 66 75 51 74 56 51 46
cat_boundaries=0 1
cat_threshold=4
shrinkage=1


Tree=7
num_leaves=12
num_cat=1
split_feature=1 3 2 2 3 2 6 3 3 3 2
split_gain=10616.9 2019.18 849.041 228.001 193.644 185.032 92.1945 82.4547 62.6783 31.4731 30.8976
threshold=177.00000000000003 2212.5000000000005 115.50000000000001 84.500000000000014 2781.5000000000005 70.500000000000014 0 4381.0000000000009 3179.5000000000005 3958.5000000000005 92.500000000000014
decision_type=2 2 10 8 2 10 1 2 2 2 10
left_child=1 5 8 -3 10 6 -1 9 -2 -4 -5
right_child=2 3 7 4 -6 -7 -8 -9 -10 -11 -12
leaf_value=34.896551292001675 20.956521649430456 28.12222228586263 16.176190379875987 26.6217389971975 22.074999920147746 30.35833321374465 32.181818077040347 12.956521504306105 18.806060520067266 14.579999752460012 24.982608767500221
leaf_weight=29 23 27 21 23 20 24 22 23 33 30 23
leaf_count=29 23 27 21 23 20 24 22 23 33 30 23
internal_value=0 5.27293 -6.76303 2.15962 1.15815 9.13343 10.2109 -8.98619 -3.82529 -8.27732 2.2876
internal_weight=0 168 130 93 66 75 51 74 56 51 46
internal_count=298 168 130 93 66 75 51 74 56 51 46
cat_boundaries=0 1
cat_threshold=4
shrinkage=1


Tree=8
num_leaves=12
num_cat=1
split_feature=1 3 2 2 3 2 6 3 3 3 2
split_gain=10616.9 2019.18 849.041 228.001 193.644 185.032 92.1945 82.4547 62.6783 31.4731 30.8976
threshold=177.00000000000003 2212.5000000000005 115.50000000000001 84.500000000000014 2781.5000000000005 70.500000000000014 0 4381.0000000000009 3179.5000000000005 3958.5000000000005 92.500000000000014
decision_type=2 2 10 8 2 10 1 2 2 2 10
left_child=1 5 8 -3 10 6 -1 9 -2 -4 -5
right_child=2 3 7 4 -6 -7 -8 -9 -10 -11 -12
leaf_value=34.896551292001675 20.956521649430456 28.12222228586263 16.176190379875987 26.6217389971975 22.074999920147746 30.35833321374465 32.181818077040347 12.956521504306105 18.806060520067266 14.579999752460012 24.982608767500221
leaf_weight=29 23 27 21 23 20 24 22 23 33 30 23
leaf_count=29 23 27 21 23 20 24 22 23 33 30 23
internal_value=0 5.27293 -6.76303 2.15962 1.15815 9.13343 10.2109 -8.98619 -3.82529 -8.27732 2.2876
internal_weight=0 168 130 93 66 75 51 74 56 51 46
internal_count=298 168 130 93 66 75 51 74 56 51 46
cat_boundaries=0 1
cat_threshold=4
shrinkage=1


Tree=9
num_leaves=12
num_cat=1
split_feature=1 3 2 2 3 2 6 3 3 3 2
split_gain=10616.9 2019.18 849.041 228.001 193.644 185.032 92.1945 82.4547 62.6783 31.4731 30.8976
threshold=177.00000000000003 2212.5000000000005 115.50000000000001 84.500000000000014 2781.5000000000005 70.500000000000014 0 4381.0000000000009 3179.5000000000005 3958.5000000000005 92.500000000000014
decision_type=2 2 10 8 2 10 1 2 2 2 10
left_child=1 5 8 -3 10 6 -1 9 -2 -4 -5
right_child=2 3 7 4 -6 -7 -8 -9 -10 -11 -12
leaf_value=34.896551292001675 20.956521649430456 28.12222228586263 16.176190379875987 26.6217389971975 22.074999920147746 30.35833321374465 32.181818077040347 12.956521504306105 18.806060520067266 14.579999752460012 24.982608767500221
leaf_weight=29 23 27 21 23 20 24 22 23 33 30 23
leaf_count=29 23 27 21 23 20 24 22 23 33 30 23
internal_value=0 5.27293 -6.76303 2.15962 1.15815 9.13343 10.2109 -8.98619 -3.82529 -8.27732 2.2876
internal_weight=0 168 130 93 66 75 51 74 56 51 46
internal_count=298 168 130 93 66 75 51 74 56 51 46
cat_boundaries=0 1
cat_threshold=4
shrinkage=1


Tree=10
num_leaves=10
num_cat=0
split_feature=1 3 3 2 2 3 2 2 4
split_gain=10417.3 2156.44 768.123 393.259 388.855 151.829 95.3946 55.7243 34.605
threshold=198.50000000000003 2245.5000000000005 3727.5000000000005 74.500000000000014 92.500000000000014 2578.5000000000005 67.500000000000014 146.50000000000003 16.650000000000002
decision_type=2 2 2 10 10 2 8 10 2
left_child=1 3 8 6 5 -3 -1 -4 -2
right_child=2 4 7 -5 -6 -7 -8 -9 -10
leaf_value=35.010810372364126 18.794444392407691 28.88064522487376 15.460869346978701 29.295999864357796 23.287179455221093 25.637036945263855 32.417391158671315 13.457142622318527 20.386363520748596
leaf_weight=37 36 31 23 25 39 27 23 35 22
leaf_count=37 36 31 23 25 39 27 23 35 22
internal_value=0 5.43653 -6.68957 9.11366 2.21429 3.85612 10.5021 -9.26285 -4.1163
internal_weight=0 182 116 85 97 58 60 58 58
internal_count=298 182 116 85 97 58 60 58 58
shrinkage=1


Tree=11
num_leaves=10
num_cat=0
split_feature=1 3 3 2 2 3 2 2 4
split_gain=10417.3 2156.44 768.123 393.259 388.855 151.829 95.3946 55.7243 34.605
threshold=198.50000000000003 2245.5000000000005 3727.5000000000005 74.500000000000014 92.500000000000014 2578.5000000000005 67.500000000000014 146.50000000000003 16.650000000000002
decision_type=2 2 2 10 10 2 8 10 2
left_child=1 3 8 6 5 -3 -1 -4 -2
right_child=2 4 7 -5 -6 -7 -8 -9 -10
leaf_value=35.010810372364126 18.794444392407691 28.88064522487376 15.460869346978701 29.295999864357796 23.287179455221093 25.637036945263855 32.417391158671315 13.457142622318527 20.386363520748596
leaf_weight=37 36 31 23 25 39 27 23 35 22
leaf_count=37 36 31 23 25 39 27 23 35 22
internal_value=0 5.43653 -6.68957 9.11366 2.21429 3.85612 10.5021 -9.26285 -4.1163
internal_weight=0 182 116 85 97 58 60 58 58
internal_count=298 182 116 85 97 58 60 58 58
shrinkage=1


Tree=12
num_leaves=10
num_cat=0
split_feature=1 3 3 2 2 3 2 2 4
split_gain=10417.3 2156.44 768.123 393.259 388.855 151.829 95.3946 55.7243 34.605
threshold=198.50000000000003 2245.5000000000005 3727.5000000000005 74.500000000000014 92.500000000000014 2578.5000000000005 67.500000000000014 146.50000000000003 16.650000000000002
decision_type=2 2 2 10 10 2 8 10 2
left_child=1 3 8 6 5 -3 -1 -4 -2
right_child=2 4 7 -5 -6 -7 -8 -9 -10
leaf_value=35.010810372364126 18.794444392407691 28.88064522487376 15.460869346978701 29.295999864357796 23.287179455221093 25.637036945263855 32.417391158671315 13.457142622318527 20.386363520748596
leaf_weight=37 36 31 23 25 39 27 23 35 22
leaf_count=37 36 31 23 25 39 27 23 35 22
internal_value=0 5.43653 -6.68957 9.11366 2.21429 3.85612 10.5021 -9.26285 -4.1163
internal_weight=0 182 116 85 97 58 60 58 58
internal_count=298 182 116 85 97 58 60 58 58
shrinkage=1


Tree=13
num_leaves=10
num_cat=0
split_feature=1 3 3 2 2 3 2 2 4
split_gain=10417.3 2156.44 768.123 393.259 388.855 151.829 95.3946 55.7243 34.605
threshold=198.50000000000003 2245.5000000000005 3727.5000000000005 74.500000000000014 92.500000000000014 2578.5000000000005 67.500000000000014 146.50000000000003 16.650000000000002
decision_type=2 2 2 10 10 2 8 10 2
left_child=1 3 8 6 5 -3 -1 -4 -2
right_child=2 4 7 -5 -6 -7 -8 -9 -10
leaf_value=35.010810372364126 18.794444392407691 28.88064522487376 15.460869346978701 29.295999864357796 23.287179455221093 25.637036945263855 32.417391158671315 13.457142622318527 20.386363520748596
leaf_weight=37 36 31 23 25 39 27 23 35 22
leaf_count=37 36 31 23 25 39 27 23 35 22
internal_value=0 5.43653 -6.68957 9.11366 2.21429 3.85612 10.5021 -9.26285 -4.1163
internal_weight=0 182 116 85 97 58 60 58 58
internal_count=298 182 116 85 97 58 60 58 58
shrinkage=1


Tree=14
num_leaves=10
num_cat=0
split_feature=1 3 3 2 2 3 2 2 4
split_gain=10417.3 2156.44 768.123 393.259 388.855 151.829 95.3946 55.7243 34.605
threshold=198.50000000000003 2245.5000000000005 3727.5000000000005 74.500000000000014 92.500000000000014 2578.5000000000005 67.500000000000014 146.50000000000003 16.650000000000002
decision_type=2 2 2 10 10 2 8 10 2
left_child=1 3 8 6 5 -3 -1 -4 -2
right_child=2 4 7 -5 -6 -7 -8 -9 -10
leaf_value=35.010810372364126 18.794444392407691 28.88064522487376 15.460869346978701 29.295999864357796 23.287179455221093 25.637036945263855 32.417391158671315 13.457142622318527 20.386363520748596
leaf_weight=37 36 31 23 25 39 27 23 35 22
leaf_count=37 36 31 23 25 39 27 23 35 22
internal_value=0 5.43653 -6.68957 9.11366 2.21429 3.85612 10.5021 -9.26285 -4.1163
internal_weight=0 182 116 85 97 58 60 58 58
internal_count=298 182 116 85 97 58 60 58 58
shrinkage=1


Tree=15
num_leaves=13
num_cat=0
split_feature=1 2 3 3 2 3 3 3 3 2 2 2
split_gain=10424.8 1768.08 849.679 220.471 200.873 166.54 115.7 106.411 85.6918 35.1313 32.9859 17.486
threshold=159.50000000000003 76.500000000000014 3727.5000000000005 2147.5000000000005 84.500000000000014 3094.0000000000005 4338.0000000000009 2686.0000000000005 1966.5000000000002 106.00000000000001 92.500000000000014 146.50000000000003
decision_type=2 8 2 2 10 2 2 2 2 10 10 10
left_child=1 3 5 8 -3 -2 11 10 -1 -7 -6 -4
right_child=2 4 6 -5 7 9 -8 -9 -10 -11 -12 -13
leaf_value=32.142856680967498 21.717391131557676 28.447826026281415 16.147618830959942 30.016666803377955 26.627999843376962 19.295652061407811 12.749999765175669 23.089999846237987 34.776666318990877 17.54782608640436 24.905000094193309 14.857142622318527
leaf_weight=21 23 23 21 24 25 23 24 20 30 23 20 21
leaf_count=21 23 23 21 24 25 23 24 20 30 23 20 21
internal_value=0 5.43389 -6.44791 9.00143 2.39338 -3.99428 -9.01306 1.49466 10.1776 -5.09283 2.34765 -8.01219
internal_weight=0 163 135 75 88 69 66 65 51 46 45 42
internal_count=298 163 135 75 88 69 66 65 51 46 45 42
shrinkage=1


Tree=16
num_leaves=13
num_cat=0
split_feature=1 2 3 3 2 3 3 3 3 2 2 2
split_gain=10424.8 1768.08 849.679 220.471 200.873 166.54 115.7 106.411 85.6918 35.1313 32.9859 17.486
threshold=159.50000000000003 76.500000000000014 3727.5000000000005 2147.5000000000005 84.500000000000014 3094.0000000000005 4338.0000000000009 2686.0000000000005 1966.5000000000002 106.00000000000001 92.500000000000014 146.50000000000003
decision_type=2 8 2 2 10 2 2 2 2 10 10 10
left_child=1 3 5 8 -3 -2 11 10 -1 -7 -6 -4
right_child=2 4 6 -5 7 9 -8 -9 -10 -11 -12 -13
leaf_value=32.142856680967498 21.717391131557676 28.447826026281415 16.147618830959942 30.016666803377955 26.627999843376962 19.295652061407811 12.749999765175669 23.089999846237987 34.776666318990877 17.54782608640436 24.905000094193309 14.857142622318527
leaf_weight=21 23 23 21 24 25 23 24 20 30 23 20 21
leaf_count=21 23 23 21 24 25 23 24 20 30 23 20 21
internal_value=0 5.43389 -6.44791 9.00143 2.39338 -3.99428 -9.01306 1.49466 10.1776 -5.09283 2.34765 -8.01219
internal_weight=0 163 135 75 88 69 66 65 51 46 45 42
internal_count=298 163 135 75 88 69 66 65 51 46 45 42
shrinkage=1


Tree=17
num_leaves=13
num_cat=0
split_feature=1 2 3 3 2 3 3 3 3 2 2 2
split_gain=10424.8 1768.08 849.679 220.471 200.873 166.54 115.7 106.411 85.6918 35.1313 32.9859 17.486
threshold=159.50000000000003 76.500000000000014 3727.5000000000005 2147.5000000000005 84.500000000000014 3094.0000000000005 4338.0000000000009 2686.0000000000005 1966.5000000000002 106.00000000000001 92.500000000000014 146.50000000000003
decision_type=2 8 2 2 10 2 2 2 2 10 10 10
left_child=1 3 5 8 -3 -2 11 10 -1 -7 -6 -4
right_child=2 4 6 -5 7 9 -8 -9 -10 -11 -12 -13
leaf_value=32.142856680967498 21.717391131557676 28.447826026281415 16.147618830959942 30.016666803377955 26.627999843376962 19.295652061407811 12.749999765175669 23.089999846237987 34.776666318990877 17.54782608640436 24.905000094193309 14.857142622318527
leaf_weight=21 23 23 21 24 25 23 24 20 30 23 20 21
leaf_count=21 23 23 21 24 25 23 24 20 30 23 20 21
internal_value=0 5.43389 -6.44791 9.00143 2.39338 -3.99428 -9.01306 1.49466 10.1776 -5.09283 2.34765 -8.01219
internal_weight=0 163 135 75 88 69 66 65 51 46 45 42
internal_count=298 163 135 75 88 69 66 65 51 46 45 42
shrinkage=1


Tree=18
num_leaves=13
num_cat=0
split_feature=1 2 3 3 2 3 3 3 3 2 2 2
split_gain=10424.8 1768.08 849.679 220.471 200.873 166.54 115.7 106.411 85.6918 35.1313 32.9859 17.486
threshold=159.50000000000003 76.500000000000014 3727.5000000000005 2147.5000000000005 84.500000000000014 3094.0000000000005 4338.0000000000009 2686.0000000000005 1966.5000000000002 106.00000000000001 92.500000000000014 146.50000000000003
decision_type=2 8 2 2 10 2 2 2 2 10 10 10
left_child=1 3 5 8 -3 -2 11 10 -1 -7 -6 -4
right_child=2 4 6 -5 7 9 -8 -9 -10 -11 -12 -13
leaf_value=32.142856680967498 21.717391131557676 28.447826026281415 16.147618830959942 30.016666803377955 26.627999843376962 19.295652061407811 12.749999765175669 23.089999846237987 34.776666318990877 17.54782608640436 24.905000094193309 14.857142622318527
leaf_weight=21 23 23 21 24 25 23 24 20 30 23 20 21
leaf_count=21 23 23 21 24 25 23 24 20 30 23 20 21
internal_value=0 5.43389 -6.44791 9.00143 2.39338 -3.99428 -9.01306 1.49466 10.1776 -5.09283 2.34765 -8.01219
internal_weight=0 163 135 75 88 69 66 65 51 46 45 42
internal_count=298 163 135 75 88 69 66 65 51 46 45 42
shrinkage=1


Tree=19
num_leaves=13
num_cat=0
split_feature=1 2 3 3 2 3 3 3 3 2 2 2
split_gain=10424.8 1768.08 849.679 220.471 200.873 166.54 115.7 106.411 85.6918 35.1313 32.9859 17.486
threshold=159.50000000000003 76.500000000000014 3727.5000000000005 2147.5000000000005 84.500000000000014 3094.0000000000005 4338.0000000000009 2686.0000000000005 1966.5000000000002 106.00000000000001 92.500000000000014 146.50000000000003
decision_type=2 8 2 2 10 2 2 2 2 10 10 10
left_child=1 3 5 8 -3 -2 11 10 -1 -7 -6 -4
right_child=2 4 6 -5 7 9 -8 -9 -10 -11 -12 -13
leaf_value=32.142856680967498 21.717391131557676 28.447826026281415 16.147618830959942 30.016666803377955 26.627999843376962 19.295652061407811 12.749999765175669 23.089999846237987 34.776666318990877 17.54782608640436 24.905000094193309 14.857142622318527
leaf_weight=21 23 23 21 24 25 23 24 20 30 23 20 21
leaf_count=21 23 23 21 24 25 23 24 20 30 23 20 21
internal_value=0 5.43389 -6.44791 9.00143 2.39338 -3.99428 -9.01306 1.49466 10.1776 -5.09283 2.34765 -8.01219
internal_weight=0 163 135 75 88 69 66 65 51 46 45 42
internal_count=298 163 135 75 88 69 66 65 51 46 45 42
shrinkage=1


Tree=20
num_leaves=13
num_cat=0
split_feature=1 2 2 2 1 3 1 1 3 3 2 1
split_gain=10487.1 1902.41 1011.59 382.431 153.365 142.201 139.699 120.701 92.1342 53.2185 27.7045 13.7368
threshold=153.00000000000003 71.500000000000014 127.00000000000001 84.500000000000014 212.50000000000003 2686.0000000000005 93.500000000000014 113.50000000000001 4357.0000000000009 2393.0000000000005 146.50000000000003 241.00000000000003
decision_type=2 8 10 10 2 2 2 2 2 2 10 2
left_child=1 6 4 7 -2 9 -1 -3 10 -5 -4 -6
right_child=2 3 8 5 11 -7 -8 -9 -10 -11 -12 -13
leaf_value=35.448386680444102 21.907692188266008 30.752381089943736 16.160869456858567 25.034999958294719 19.387999967354624 22.949999884384958 32.195651939088712 27.36190467013158 12.857142622318527 27.314285724691921 14.624999765175669 18.304545308586231
leaf_weight=31 26 21 23 20 25 20 23 21 21 21 24 22
leaf_count=31 26 21 23 20 25 20 23 21 21 21 24 22
internal_value=0 5.74084 -6.14081 3.22038 -3.55567 1.62149 10.5484 5.54257 -8.91604 2.68787 -8.13798 -4.63372
internal_weight=0 157 141 103 73 61 54 42 68 41 47 47
internal_count=298 157 141 103 73 61 54 42 68 41 47 47
shrinkage=1


Tree=21
num_leaves=13
num_cat=0
split_feature=1 2 2 2 1 3 1 1 3 3 2 1
split_gain=10487.1 1902.41 1011.59 382.431 153.365 142.201 139.699 120.701 92.1342 53.2185 27.7045 13.7368
threshold=153.00000000000003 71.500000000000014 127.00000000000001 84.500000000000014 212.50000000000003 2686.0000000000005 93.500000000000014 113.50000000000001 4357.0000000000009 2393.0000000000005 146.50000000000003 241.00000000000003
decision_type=2 8 10 10 2 2 2 2 2 2 10 2
left_child=1 6 4 7 -2 9 -1 -3 10 -5 -4 -6
right_child=2 3 8 5 11 -7 -8 -9 -10 -11 -12 -13
leaf_value=35.448386680444102 21.907692188266008 30.752381089943736 16.160869456858567 25.034999958294719 19.387999967354624 22.949999884384958 32.195651939088712 27.36190467013158 12.857142622318527 27.314285724691921 14.624999765175669 18.304545308586231
leaf_weight=31 26 21 23 20 25 20 23 21 21 21 24 22
leaf_count=31 26 21 23 20 25 20 23 21 21 21 24 22
internal_value=0 5.74084 -6.14081 3.22038 -3.55567 1.62149 10.5484 5.54257 -8.91604 2.68787 -8.13798 -4.63372
internal_weight=0 157 141 103 73 61 54 42 68 41 47 47
internal_count=298 157 141 103 73 61 54 42 68 41 47 47
shrinkage=1


Tree=22
num_leaves=13
num_cat=0
split_feature=1 2 2 2 1 3 1 1 3 3 2 1
split_gain=10487.1 1902.41 1011.59 382.431 153.365 142.201 139.699 120.701 92.1342 53.2185 27.7045 13.7368
threshold=153.00000000000003 71.500000000000014 127.00000000000001 84.500000000000014 212.50000000000003 2686.0000000000005 93.500000000000014 113.50000000000001 4357.0000000000009 2393.0000000000005 146.50000000000003 241.00000000000003
decision_type=2 8 10 10 2 2 2 2 2 2 10 2
left_child=1 6 4 7 -2 9 -1 -3 10 -5 -4 -6
right_child=2 3 8 5 11 -7 -8 -9 -10 -11 -12 -13
leaf_value=35.448386680444102 21.907692188266008 30.752381089943736 16.160869456858567 25.034999958294719 19.387999967354624 22.949999884384958 32.195651939088712 27.36190467013158 12.857142622318527 27.314285724691921 14.624999765175669 18.304545308586231
leaf_weight=31 26 21 23 20 25 20 23 21 21 21 24 22
leaf_count=31 26 21 23 20 25 20 23 21 21 21 24 22
internal_value=0 5.74084 -6.14081 3.22038 -3.55567 1.62149 10.5484 5.54257 -8.91604 2.68787 -8.13798 -4.63372
internal_weight=0 157 141 103 73 61 54 42 68 41 47 47
internal_count=298 157 141 103 73 61 54 42 68 41 47 47
shrinkage=1


Tree=23
num_leaves=13
num_cat=0
split_feature=1 2 2 2 1 3 1 1 3 3 2 1
split_gain=10487.1 1902.41 1011.59 382.431 153.365 142.201 139.699 120.701 92.1342 53.2185 27.7045 13.7368
threshold=153.00000000000003 71.500000000000014 127.00000000000001 84.500000000000014 212.50000000000003 2686.0000000000005 93.500000000000014 113.50000000000001 4357.0000000000009 2393.0000000000005 146.50000000000003 241.00000000000003
decision_type=2 8 10 10 2 2 2 2 2 2 10 2
left_child=1 6 4 7 -2 9 -1 -3 10 -5 -4 -6
right_child=2 3 8 5 11 -7 -8 -9 -10 -11 -12 -13
leaf_value=35.448386680444102 21.907692188266008 30.752381089943736 16.160869456858567 25.034999958294719 19.387999967354624 22.949999884384958 32.195651939088712 27.36190467013158 12.857142622318527 27.314285724691921 14.624999765175669 18.304545308586231
leaf_weight=31 26 21 23 20 25 20 23 21 21 21 24 22
leaf_count=31 26 21 23 20 25 20 23 21 21 21 24 22
internal_value=0 5.74084 -6.14081 3.22038 -3.55567 1.62149 10.5484 5.54257 -8.91604 2.68787 -8.13798 -4.63372
internal_weight=0 157 141 103 73 61 54 42 68 41 47 47
internal_count=298 157 141 103 73 61 54 42 68 41 47 47
shrinkage=1


Tree=24
num_leaves=13
num_cat=0
split_feature=1 2 2 2 1 3 1 1 3 3 2 1
split_gain=10487.1 1902.41 1011.59 382.431 153.365 142.201 139.699 120.701 92.1342 53.2185 27.7045 13.7368
threshold=153.00000000000003 71.500000000000014 127.00000000000001 84.500000000000014 212.50000000000003 2686.0000000000005 93.500000000000014 113.50000000000001 4357.0000000000009 2393.0000000000005 146.50000000000003 241.00000000000003
decision_type=2 8 10 10 2 2 2 2 2 2 10 2
left_child=1 6 4 7 -2 9 -1 -3 10 -5 -4 -6
right_child=2 3 8 5 11 -7 -8 -9 -10 -11 -12 -13
leaf_value=35.448386680444102 21.907692188266008 30.752381089943736 16.160869456858567 25.034999958294719 19.387999967354624 22.949999884384958 32.195651939088712 27.36190467013158 12.857142622318527 27.314285724691921 14.624999765175669 18.304545308586231
leaf_weight=31 26 21 23 20 25 20 23 21 21 21 24 22
leaf_count=31 26 21 23 20 25 20 23 21 21 21 24 22
internal_value=0 5.74084 -6.14081 3.22038 -3.55567 1.62149 10.5484 5.54257 -8.91604 2.68787 -8.13798 -4.63372
internal_weight=0 157 141 103 73 61 54 42 68 41 47 47
internal_count=298 157 141 103 73 61 54 42 68 41 47 47
shrinkage=1


Tree=25
num_leaves=11
num_cat=1
split_feature=1 2 2 3 2 3 6 4 3 1
split_gain=10995 1973.61 852.8 298.099 193.756 160.431 138.748 119.091 86.6726 28.032
threshold=159.50000000000003 76.500000000000014 127.00000000000001 2147.5000000000005 92.500000000000014 3094.0000000000005 0 16.300000000000001 4381.0000000000009 329.00000000000006
decision_type=2 10 10 2 10 2 1 2 2 2
left_child=1 3 5 6 7 -2 -1 -3 9 -4
right_child=2 4 8 -5 -6 -7 -8 -9 -10 -11
leaf_value=35.25925867122222 21.890476060101903 27.849999857137121 15.903225702372954 29.803125206250041 23.196428668687261 18.394285559842505 32.08214268022018 24.740909005638233 12.999999765175669 14.427272475108863
leaf_weight=27 21 28 31 32 28 35 28 22 24 22
leaf_count=27 21 28 31 32 28 35 28 22 24 22
internal_value=0 5.44058 -6.77848 8.71531 1.78799 -3.80922 10.1272 2.96743 -8.93795 -8.22401
internal_weight=0 165 133 87 78 56 55 50 77 53
internal_count=298 165 133 87 78 56 55 50 77 53
cat_boundaries=0 1
cat_threshold=4
shrinkage=1


Tree=26
num_leaves=11
num_cat=1
split_feature=1 2 2 3 2 3 6 4 3 1
split_gain=10995 1973.61 852.8 298.099 193.756 160.431 138.748 119.091 86.6726 28.032
threshold=159.50000000000003 76.500000000000014 127.00000000000001 2147.5000000000005 92.500000000000014 3094.0000000000005 0 16.300000000000001 4381.0000000000009 329.00000000000006
decision_type=2 10 10 2 10 2 1 2 2 2
left_child=1 3 5 6 7 -2 -1 -3 9 -4
right_child=2 4 8 -5 -6 -7 -8 -9 -10 -11
leaf_value=35.25925867122222 21.890476060101903 27.849999857137121 15.903225702372954 29.803125206250041 23.196428668687261 18.394285559842505 32.08214268022018 24.740909005638233 12.999999765175669 14.427272475108863
leaf_weight=27 21 28 31 32 28 35 28 22 24 22
leaf_count=27 21 28 31 32 28 35 28 22 24 22
internal_value=0 5.44058 -6.77848 8.71531 1.78799 -3.80922 10.1272 2.96743 -8.93795 -8.22401
internal_weight=0 165 133 87 78 56 55 50 77 53
internal_count=298 165 133 87 78 56 55 50 77 53
cat_boundaries=0 1
cat_threshold=4
shrinkage=1


Tree=27
num_leaves=11
num_cat=1
split_feature=1 2 2 3 2 3 6 4 3 1
split_gain=10995 1973.61 852.8 298.099 193.756 160.431 138.748 119.091 86.6726 28.032
threshold=159.50000000000003 76.500000000000014 127.00000000000001 2147.5000000000005 92.500000000000014 3094.0000000000005 0 16.300000000000001 4381.0000000000009 329.00000000000006
decision_type=2 10 10 2 10 2 1 2 2 2
left_child=1 3 5 6 7 -2 -1 -3 9 -4
right_child=2 4 8 -5 -6 -7 -8 -9 -10 -11
leaf_value=35.25925867122222 21.890476060101903 27.849999857137121 15.903225702372954 29.803125206250041 23.196428668687261 18.394285559842505 32.08214268022018 24.740909005638233 12.999999765175669 14.427272475108863
leaf_weight=27 21 28 31 32 28 35 28 22 24 22
leaf_count=27 21 28 31 32 28 35 28 22 24 22
internal_value=0 5.44058 -6.77848 8.71531 1.78799 -3.80922 10.1272 2.96743 -8.93795 -8.22401
internal_weight=0 165 133 87 78 56 55 50 77 53
internal_count=298 165 133 87 78 56 55 50 77 53
cat_boundaries=0 1
cat_threshold=4
shrinkage=1


Tree=28
num_leaves=11
num_cat=1
split_feature=1 2 2 3 2 3 6 4 3 1
split_gain=10995 1973.61 852.8 298.099 193.756 160.431 138.748 119.091 86.6726 28.032
threshold=159.50000000000003 76.500000000000014 127.00000000000001 2147.5000000000005 92.500000000000014 3094.0000000000005 0 16.300000000000001 4381.0000000000009 329.00000000000006
decision_type=2 10 10 2 10 2 1 2 2 2
left_child=1 3 5 6 7 -2 -1 -3 9 -4
right_child=2 4 8 -5 -6 -7 -8 -9 -10 -11
leaf_value=35.25925867122222 21.890476060101903 27.849999857137121 15.903225702372954 29.803125206250041 23.196428668687261 18.394285559842505 32.08214268022018 24.740909005638233 12.999999765175669 14.427272475108863
leaf_weight=27 21 28 31 32 28 35 28 22 24 22
leaf_count=27 21 28 31 32 28 35 28 22 24 22
internal_value=0 5.44058 -6.77848 8.71531 1.78799 -3.80922 10.1272 2.96743 -8.93795 -8.22401
internal_weight=0 165 133 87 78 56 55 50 77 53
internal_count=298 165 133 87 78 56 55 50 77 53
cat_boundaries=0 1
cat_threshold=4
shrinkage=1


Tree=29
num_leaves=11
num_cat=1
split_feature=1 2 2 3 2 3 6 4 3 1
split_gain=10995 1973.61 852.8 298.099 193.756 160.431 138.748 119.091 86.6726 28.032
threshold=159.50000000000003 76.500000000000014 127.00000000000001 2147.5000000000005 92.500000000000014 3094.0000000000005 0 16.300000000000001 4381.0000000000009 329.00000000000006
decision_type=2 10 10 2 10 2 1 2 2 2
left_child=1 3 5 6 7 -2 -1 -3 9 -4
right_child=2 4 8 -5 -6 -7 -8 -9 -10 -11
leaf_value=35.25925867122222 21.890476060101903 27.849999857137121 15.903225702372954 29.803125206250041 23.196428668687261 18.394285559842505 32.08214268022018 24.740909005638233 12.999999765175669 14.427272475108863
leaf_weight=27 21 28 31 32 28 35 28 22 24 22
leaf_count=27 21 28 31 32 28 35 28 22 24 22
internal_value=0 5.44058 -6.77848 8.71531 1.78799 -3.80922 10.1272 2.96743 -8.93795 -8.22401
internal_weight=0 165 133 87 78 56 55 50 77 53
internal_count=298 165 133 87 78 56 55 50 77 53
cat_boundaries=0 1
cat_threshold=4
shrinkage=1


Tree=30
num_leaves=11
num_cat=0
split_feature=1 3 2 2 1 3 3 2 4 3
split_gain=10334.1 2157.12 668.298 219.385 155.575 73.3249 69.7604 59.4536 45.1563 8.06616
threshold=198.50000000000003 2212.5000000000005 127.00000000000001 92.500000000000014 93.500000000000014 3427.5000000000005 4403.5000000000009 85.500000000000014 16.950000000000003 3958.5000000000005
decision_type=2 2 10 10 2 2 2 10 2 2
left_child=1 4 5 7 8 -2 9 -3 -1 -4
right_child=2 3 6 -5 -6 -7 -8 -9 -10 -11
leaf_value=32.969999388474314 20.314705803201917 27.777419424574887 15.749999838535231 23.764102578605225 31.22564088129349 17.938095153134014 13.14999976517567 25.726922909956343 35.094999889153328 14.927272475108863
leaf_weight=20 34 31 26 39 39 21 20 26 20 22
leaf_count=20 34 31 26 39 39 21 20 26 20 22
internal_value=0 5.262 -6.69913 2.07709 9.13226 -4.1073 -8.79546 3.32753 10.5179 -8.14166
internal_weight=0 175 123 96 79 55 68 57 40 48
internal_count=298 175 123 96 79 55 68 57 40 48
shrinkage=1


end of trees

feature importances:
weight=124
horsepower=123
displacement=57
origin=15
acceleration=11

parameters:
[boosting: rf]
[objective: regression]
[metric: l2]
[tree_learner: serial]
[device_type: cpu]
[data: ]
[valid: ]
[num_iterations: 100]
[learning_rate: 0.1]
[num_leaves: 31]
[num_threads: -1]
[max_depth: -1]
[min_data_in_leaf: 20]
[min_sum_hessian_in_leaf: 0.001]
[bagging_fraction: 0.75]
[pos_bagging_fraction: 1]
[neg_bagging_fraction: 1]
[bagging_freq: 5]
[bagging_seed: 3]
[feature_fraction: 1]
[feature_fraction_bynode: 1]
[feature_fraction_seed: 2]
[early_stopping_round: 0]
[first_metric_only: 0]
[max_delta_step: 0]
[lambda_l1: 0]
[lambda_l2: 0]
[min_gain_to_split: 0]
[drop_rate: 0.1]
[max_drop: 50]
[skip_drop: 0.5]
[xgboost_dart_mode: 0]
[uniform_drop: 0]
[drop_seed: 4]
[top_rate: 0.2]
[other_rate: 0.1]
[min_data_per_group: 100]
[max_cat_threshold: 32]
[cat_l2: 10]
[cat_smooth: 10]
[max_cat_to_onehot: 4]
[top_k: 20]
[monotone_constraints: ]
[feature_contri: ]
[forcedsplits_filename: ]
[forcedbins_filename: ]
[refit_decay_rate: 0.9]
[cegb_tradeoff: 1]
[cegb_penalty_split: 0]
[cegb_penalty_feature_lazy: ]
[cegb_penalty_feature_coupled: ]
[verbosity: -1]
[max_bin: 255]
[max_bin_by_feature: ]
[min_data_in_bin: 3]
[bin_construct_sample_cnt: 200000]
[histogram_pool_size: -1]
[data_random_seed: 1]
[output_model: LightGBM_model.txt]
[snapshot_freq: -1]
[input_model: ]
[output_result: LightGBM_predict_result.txt]
[initscore_filename: ]
[valid_data_initscores: ]
[pre_partition: 0]
[enable_bundle: 1]
[max_conflict_rate: 0]
[is_enable_sparse: 1]
[sparse_threshold: 0.8]
[use_missing: 1]
[zero_as_missing: 0]
[two_round: 0]
[save_binary: 0]
[header: 0]
[label_column: ]
[weight_column: ]
[group_column: ]
[ignore_column: ]
[categorical_feature: ]
[predict_raw_score: 0]
[predict_leaf_index: 0]
[predict_contrib: 0]
[num_iteration_predict: -1]
[pred_early_stop: 0]
[pred_early_stop_freq: 10]
[pred_early_stop_margin: 10]
[convert_model_language: ]
[convert_model: gbdt_prediction.cpp]
[num_class: 1]
[is_unbalance: 0]
[scale_pos_weight: 1]
[sigmoid: 1]
[boost_from_average: 1]
[reg_sqrt: 0]
[alpha: 0.9]
[fair_c: 1]
[poisson_max_delta_step: 0.7]
[tweedie_variance_power: 1.5]
[max_position: 20]
[lambdamart_norm: 1]
[label_gain: ]
[metric_freq: 1]
[is_provide_training_metric: 0]
[eval_at: ]
[multi_error_top_k: 1]
[num_machines: 1]
[local_listen_port: 12400]
[time_out: 120]
[machine_list_filename: ]
[machines: ]
[gpu_platform_id: -1]
[gpu_device_id: -1]
[gpu_use_dp: 0]

end of parameters

pandas_categorical:[[3, 4, 5, 6, 8], [70, 71, 72, 73, 74, 75, 76, 77, 78, 79, 80, 81, 82], [1, 2, 3]]
