tree
version=v3
num_class=1
num_tree_per_iteration=1
label_index=0
max_feature_idx=12
objective=regression
feature_names=AGE B CHAS CRIM DIS INDUS LSTAT NOX PTRATIO RAD RM TAX ZN
feature_infos=[2.8999999999999999:100] [0.32000000000000001:396.89999999999998] -1:0:1 [0.0063200000000000001:88.976200000000006] [1.1295999999999999:12.1265] [0.46000000000000002:27.739999999999998] [1.73:37.969999999999999] [0.38500000000000001:0.871] [12.6:22] [1:24] [3.5609999999999999:8.7799999999999994] [187:711] [0:100]
tree_sizes=1680 1739 1673 1587 1663 1760 1843 1582 1763 1769 1769 1852 1772 1771 1853 1700 1776 1706 1777 1694 1703 1626 1798 1865 1703 1789 1703 1791 1793 1705 1805 1640 1802 1790 1721 1705 1798 1783 1783 1713 1783 1633 1883 1787 1715 1702 1808 1635 1897 1801 1884

Tree=0
num_leaves=20
num_cat=0
split_feature=10 6 10 6 3 6 6 4 7 6 6 3 7 10 1 4 8 0 0
split_gain=19263.8 6914.2 3728.01 1309.37 1246.89 623.03 534.171 331.286 256.759 200.099 173.652 142.316 123.703 110.684 71.5869 49.4243 45.7211 29.5377 19.6028
threshold=6.8375000000000012 14.365 7.4370000000000003 5.4400000000000004 7.0365050000000009 9.7250000000000032 5.4400000000000004 4.4583000000000004 0.53500000000000014 19.605000000000004 18.825000000000006 0.099245000000000014 0.68600000000000005 6.1445000000000007 378.08500000000004 4.4455500000000017 17.950000000000003 69.300000000000011 37.250000000000007
decision_type=2 2 2 2 2 2 2 2 2 2 2 2 2 2 2 2 2 2 2
left_child=1 3 6 -1 8 7 -2 11 -3 -6 14 -5 -11 -9 -10 16 -7 -18 -15
right_child=2 4 -4 5 9 15 -8 13 10 12 -12 -13 -14 18 -16 -17 17 -19 -20
leaf_value=23.266448794437903 23.758325779368285 22.281609057501385 24.78919237578889 22.70652574119449 21.696047467016893 22.509980260047755 23.141400726673307 22.373275716081068 21.866343897793133 21.514525722043789 21.683692389577431 23.071264855911139 21.195081284824148 22.7145257342729 22.099222696039519 22.230636853161592 22.431264869746542 22.28768361953378 22.576192387789291
leaf_weight=26 25 24 30 20 23 22 32 24 22 22 24 23 27 20 33 27 23 38 21
leaf_count=26 25 24 30 20 23 22 32 24 22 22 24 23 27 20 33 27 23 38 21
internal_value=22.5328 22.2516 23.8869 22.5957 21.772 22.5157 23.412 22.6863 21.9952 21.4527 21.9081 22.9016 21.3385 22.5438 22.0061 22.3482 22.3864 22.3418 22.6437
internal_weight=0 419 87 244 175 218 57 108 103 72 79 43 49 65 55 110 83 61 41
internal_count=506 419 87 244 175 218 57 108 103 72 79 43 49 65 55 110 83 61 41
is_linear=0
shrinkage=1


Tree=1
num_leaves=20
num_cat=0
split_feature=10 6 10 6 3 6 6 4 0 7 3 9 8 10 6 4 0 7 6
split_gain=15603.7 5600.5 3019.69 1075.98 1009.98 553.404 432.678 258.946 231.215 178.81 179.439 124.262 118.138 108.446 63.4375 40.0337 39.3126 44.3224 19.1221
threshold=6.8375000000000012 14.365 7.4370000000000003 5.0600000000000014 7.0365050000000009 9.7250000000000032 5.4400000000000004 4.4583000000000004 85.450000000000017 0.67500000000000016 13.441000000000001 4.5000000000000009 19.650000000000002 6.1445000000000007 17.295000000000005 4.4455500000000017 69.300000000000011 0.60100000000000009 6.7400000000000011
decision_type=2 2 2 2 2 2 2 2 2 2 2 2 2 2 2 2 2 2 2
left_child=1 3 6 -1 8 7 -2 11 -3 -6 -11 -5 -10 -9 -14 16 -7 -18 -15
right_child=2 4 -4 5 9 15 -8 13 12 10 -12 -13 14 18 -16 -17 17 -19 -20
leaf_value=0.75935509324073802 1.102967498779297 -0.21205468690022827 2.0307474319140115 0.16245509584744772 -0.73450098308649936 -0.040296507403254515 0.54773494461551309 -0.14357758300999801 -0.41826353855431081 -0.90868990336145683 -1.2903294129805132 0.49890599665434465 -0.53809849194117954 0.18899372901235309 -0.77178078798147354 -0.27195255946781904 -0.26996043494769506 -0.086771037101745607 0.059554085701704035
leaf_weight=20 25 24 30 21 22 30 32 24 32 28 22 23 21 21 26 27 28 25 25
leaf_count=20 25 24 30 21 22 30 32 24 32 28 22 23 21 21 26 27 28 25 25
internal_value=0 -0.253041 1.21867 0.0565802 -0.684741 -0.00616754 0.791258 0.14823 -0.483885 -0.972078 -1.07661 0.338327 -0.566466 0.0287408 -0.66737 -0.16618 -0.131772 -0.18355 0.118646
internal_weight=0 419 87 244 175 224 57 114 103 72 50 44 79 70 47 110 83 53 46
internal_count=506 419 87 244 175 224 57 114 103 72 50 44 79 70 47 110 83 53 46
is_linear=0
shrinkage=0.1


Tree=2
num_leaves=19
num_cat=0
split_feature=10 6 10 6 3 9 10 6 4 3 6 10 7 11 9 11 6 10
split_gain=12639 4542.98 2445.95 945.875 737.717 521.736 397.061 350.469 156.208 157.796 139.926 129.289 86.8082 77.6482 51.2397 50.9454 27.7083 10.0455
threshold=6.8375000000000012 14.895000000000001 7.4370000000000003 9.5350000000000019 5.776155000000001 6.5000000000000009 6.5475000000000012 5.4400000000000004 2.0037000000000007 0.69885500000000012 19.605000000000004 6.1215000000000011 0.68600000000000005 278.00000000000006 4.5000000000000009 298.00000000000006 13.345000000000001 5.9785000000000013
decision_type=2 2 2 2 2 2 2 2 2 2 2 2 2 2 2 2 2 2
left_child=1 3 7 5 8 6 11 -2 -3 -10 -6 -1 -12 -5 -15 -13 17 -16
right_child=2 4 -4 13 10 -7 -8 -9 9 -11 12 15 -14 14 16 -17 -18 -19
leaf_value=-0.18352837941298883 0.9926707515716553 -0.64610834396802463 1.8276726214090981 -0.005131227605872684 -0.68425680169692404 0.66869606009938509 0.43356787246922335 0.49296144358813765 -0.21254973740262142 -0.54745162179072693 -0.82750684178393819 0.18125142088780802 -1.091881381140815 -0.30836039617143829 -0.17134616002440453 -0.024793510511517527 -0.2498373275711423 -0.082504070912088667
leaf_weight=24 25 26 30 27 26 22 31 32 34 24 23 30 27 29 20 20 21 35
leaf_count=24 25 26 30 27 26 22 31 32 34 24 23 30 27 29 20 20 21 35
internal_value=0 -0.227737 1.0968 0.0310686 -0.646678 0.225897 0.13312 0.712132 -0.442433 -0.35113 -0.872423 0.00725664 -0.970269 -0.15638 -0.195272 0.0988334 -0.15212 -0.11481
internal_weight=0 419 87 259 160 127 105 57 84 58 76 74 50 132 105 50 76 55
internal_count=506 419 87 259 160 127 105 57 84 58 76 74 50 132 105 50 76 55
is_linear=0
shrinkage=0.1


Tree=3
num_leaves=18
num_cat=0
split_feature=10 6 10 6 7 3 6 4 6 3 1 6 8 5 0 3 0
split_gain=10310.6 4195.9 1374.55 1125 723.029 365.154 354.507 235.846 154.973 143.131 136.602 59.2229 38.3875 33.5439 15.8924 12.9193 7.86281
threshold=6.9755000000000011 14.365 7.4370000000000003 5.4400000000000004 0.6070000000000001 11.134250000000002 9.7250000000000032 4.4583000000000004 19.830000000000002 0.64730500000000013 393.38000000000005 7.5500000000000007 17.850000000000005 10.300000000000002 69.300000000000011 5.5111050000000015 88.450000000000017
decision_type=2 2 2 2 2 2 2 2 2 2 2 2 2 2 2 2 2
left_child=1 3 -2 -1 9 8 7 10 15 16 -5 -9 -8 14 -14 -6 -3
right_child=2 4 -4 6 5 -7 12 11 -10 -11 -12 -13 13 -15 -16 -17 -18
leaf_value=0.61259035202948486 0.74455509239282369 -0.13509469758719206 1.6449054527282716 0.48118115110056742 -0.43366484596179089 -0.98202708516802117 -0.040161970968950883 0.086530157385600937 -0.78504953934596144 -0.47121539157012421 0.13827084727012193 -0.10203004497433864 -0.17183612957596781 -0.095521100333758768 -0.29253419011831289 -0.53912104595275157 -0.22376718841493132
leaf_weight=34 39 20 30 21 26 35 33 36 26 29 26 31 24 35 20 21 20
leaf_count=34 39 20 30 21 26 35 33 36 26 29 26 31 24 35 20 21 20
internal_value=0 -0.17937 1.13601 0.0762951 -0.554924 -0.716473 -0.00438643 0.119754 -0.589152 -0.302065 0.291486 -0.000714115 -0.130744 -0.168582 -0.226699 -0.480784 -0.179431
internal_weight=0 437 69 260 177 108 226 114 73 69 47 67 112 79 44 47 40
internal_count=506 437 69 260 177 108 226 114 73 69 47 67 112 79 44 47 40
is_linear=0
shrinkage=0.1


Tree=4
num_leaves=19
num_cat=0
split_feature=6 10 6 6 10 7 3 4 9 11 6 3 6 6 9 6 10 0
split_gain=8415.63 3684.87 1263.53 638.36 627.64 446.581 239.169 196.898 140.462 124.478 94.0826 75.8898 75.8019 62.1728 36.495 25.3915 11.8985 3.82217
threshold=9.6050000000000022 7.0105000000000013 16.205000000000002 5.1550000000000011 7.4370000000000003 0.6070000000000001 10.753000000000002 4.4583000000000004 4.5000000000000009 278.00000000000006 14.365 0.69885500000000012 19.830000000000002 7.5500000000000007 4.5000000000000009 11.675000000000002 6.4155000000000006 79.450000000000017
decision_type=2 2 2 2 2 2 2 2 2 2 2 2 2 2 2 2 2 2
left_child=1 3 9 -1 -3 11 12 8 -5 -2 14 -4 -7 16 -11 -16 -9 -17
right_child=2 4 5 7 -6 6 -8 13 -10 10 -12 -13 -14 -15 15 17 -18 -19
leaf_value=0.61924903681501753 0.039958735058705015 0.82800331028371021 -0.18564569675922393 0.096829324598762812 1.4804148387908935 -0.46442830187933781 -0.88824569020952504 0.036440698493970559 0.45026554303324745 -0.2419820022881031 -0.33800881787413556 -0.43734286453412929 -0.6951701879501343 -0.099459324441850183 -0.031478322717788013 -0.12176661697171985 0.14552112486213448 -0.18210037091658229
leaf_weight=32 30 29 25 22 30 35 35 20 23 25 31 23 24 30 30 21 20 21
leaf_count=32 30 29 25 22 30 35 35 20 23 25 31 23 24 30 30 21 20 21
internal_value=0 0.492147 -0.337941 0.224203 1.15974 -0.55442 -0.681145 0.114277 0.277475 -0.143384 -0.186355 -0.306251 -0.558289 0.00936367 -0.137888 -0.101744 0.0909809 -0.151933
internal_weight=0 206 300 147 59 142 94 115 45 158 128 48 59 70 97 72 40 42
internal_count=506 206 300 147 59 142 94 115 45 158 128 48 59 70 97 72 40 42
is_linear=0
shrinkage=0.1


Tree=5
num_leaves=20
num_cat=0
split_feature=6 10 6 6 6 7 3 4 10 11 4 3 6 10 10 9 5 6 6
split_gain=6816.66 2984.75 1023.46 532.146 523.858 361.73 194.111 185.365 205.975 100.828 86.2599 61.4707 54.8224 46.3795 45.9446 27.0255 25.9412 20.2655 19.1665
threshold=9.6050000000000022 7.0105000000000013 16.205000000000002 4.620000000000001 3.9900000000000007 0.6070000000000001 9.870020000000002 3.0407000000000006 6.6050000000000013 278.00000000000006 2.2596500000000002 0.69885500000000012 18.825000000000006 6.0820000000000016 6.0985000000000005 4.5000000000000009 5.7500000000000009 24.090000000000003 12.020000000000001
decision_type=2 2 2 2 2 2 2 2 2 2 2 2 2 2 2 2 2 2 2
left_child=1 3 9 -1 -3 11 12 -5 14 -2 -11 -4 -7 15 -9 -12 -16 -8 -15
right_child=2 4 5 7 -6 6 17 8 -10 10 13 -13 -14 18 16 -17 -18 -19 -20
leaf_value=0.68123281419277193 0.035962860683600106 1.4165573596954346 -0.16708112490177154 0.40571831646375361 0.80559081286191947 -0.39225891913686484 -0.70881860256195073 -0.1378168449550867 0.31287086159206445 -0.31609106302261353 -0.26823803430253806 -0.393608574634013 -0.59391442995805011 0.024690565821670354 -0.024310173321282491 -0.12599521770196803 0.10749026662004846 -0.85117549657821656 -0.11041608119294757
leaf_weight=20 30 23 25 20 36 28 20 20 27 30 22 23 26 21 32 34 28 20 21
leaf_count=20 30 23 25 20 36 28 20 20 27 30 22 23 26 21 32 34 28 20 21
internal_value=0 0.442932 -0.304147 0.201782 1.04376 -0.498978 -0.613031 0.126278 0.0740465 -0.129045 -0.167719 -0.275626 -0.489352 -0.122299 -0.00655669 -0.181876 0.0371967 -0.779997 -0.0428628
internal_weight=0 206 300 147 59 142 94 127 107 158 128 48 54 98 80 56 60 40 42
internal_count=506 206 300 147 59 142 94 127 107 158 128 48 54 98 80 56 60 40 42
is_linear=0
shrinkage=0.1


Tree=6
num_leaves=21
num_cat=0
split_feature=10 6 10 6 3 6 6 3 4 0 7 6 6 10 4 11 8 10 0 3
split_gain=5532.84 1973.53 1087.94 436.026 332.902 218.664 177.425 113.552 177.058 73.7495 70.9102 107.669 66.9996 55.6695 37.9446 62.1916 31.6335 28.5177 14.8283 31.4912
threshold=6.8375000000000012 14.895000000000001 7.4370000000000003 5.0600000000000014 5.776155000000001 9.7250000000000032 5.4400000000000004 0.066025000000000014 3.8611500000000007 93.950000000000017 0.67500000000000016 19.605000000000004 7.8100000000000014 5.7440000000000007 4.4455500000000017 302.00000000000006 19.150000000000002 6.3740000000000014 69.300000000000011 1.6426200000000002
decision_type=2 2 2 2 2 2 2 2 2 2 2 2 2 2 2 2 2 2 2 2
left_child=1 3 6 -1 9 7 -2 12 -9 16 -6 -12 -5 -11 15 -7 -3 -10 -17 -20
right_child=2 4 -4 5 10 14 -8 8 17 13 11 -13 -14 -15 -16 18 -18 -19 19 -21
leaf_value=0.46842882543802261 0.66874202656745918 -0.11031492011887688 1.2131197547912598 0.089385951793796964 -0.42711575539274654 0.078664426729083067 0.31319226638879627 0.37563937038183215 -0.031115005413691207 -0.50495940387248994 -0.45599490851163865 -0.74840143498252421 -0.15519759518404802 -0.2718412279018334 -0.20702308386564258 -0.046063411816157897 -0.28190281147306617 0.1305675038136542 -0.22091772428580692 -0.069556250350756785
leaf_weight=20 25 21 30 21 22 20 32 25 24 20 20 34 24 21 30 20 22 20 28 27
leaf_count=20 25 21 30 21 22 20 32 25 24 20 20 34 24 21 30 20 22 20 28 27
internal_value=0 -0.150679 0.725682 0.0199001 -0.426803 -0.0176337 0.469135 0.0825258 0.163124 -0.289599 -0.578449 -0.640103 -0.0410586 -0.385557 -0.108979 -0.0780178 -0.198104 0.042377 -0.1198 -0.146613
internal_weight=0 419 87 259 160 239 57 114 69 84 76 54 45 41 125 95 43 44 75 55
internal_count=506 419 87 259 160 239 57 114 69 84 76 54 45 41 125 95 43 44 75 55
is_linear=0
shrinkage=0.1


Tree=7
num_leaves=18
num_cat=0
split_feature=6 10 7 4 8 3 10 6 8 8 6 10 9 5 1 0 5
split_gain=4516.41 2030 683.984 516.549 360.905 271.889 255.413 184.752 94.0805 78.9717 49.8997 47.9192 45.9677 40.0537 24.4892 19.5375 15.4525
threshold=9.6050000000000022 7.1210000000000013 0.6695000000000001 3.0407000000000006 15.000000000000002 9.870020000000002 6.6655000000000006 15.025 19.900000000000002 17.850000000000005 16.695000000000004 6.3740000000000014 4.5000000000000009 10.300000000000002 391.26000000000005 40.050000000000004 5.2550000000000017
decision_type=2 2 2 2 2 2 2 2 2 2 2 2 2 2 2 2 2
left_child=1 3 7 -1 -3 10 11 9 -9 -2 -4 16 -10 14 -11 -13 -5
right_child=2 4 5 6 -6 -7 -8 8 12 13 -12 15 -14 -15 -16 -17 -18
leaf_value=0.60697007576624562 0.056486720491100012 1.2257499740237283 -0.22215060287714006 -0.1182382763496467 0.68523040175437933 -0.67017382505612499 0.32915933777888617 -0.12340119336881945 -0.44101522397994997 -0.26168643554672599 -0.40944985151290897 0.15687883496284485 -0.24924927955865861 -0.036493355269942969 -0.11883110828697681 0.027667014807462694 -0.0038639113996867779
leaf_weight=24 37 21 25 21 30 39 36 31 25 20 33 22 25 35 30 25 27
leaf_count=24 37 21 25 21 30 39 36 31 25 20 33 22 25 35 30 25 27
internal_value=0 0.360536 -0.247568 0.180469 0.907797 -0.466004 0.102331 -0.143192 -0.260272 -0.0654584 -0.328717 0.0163756 -0.345132 -0.11854 -0.175973 0.0881491 -0.0539027
internal_weight=0 206 300 155 51 97 131 203 81 122 58 95 50 85 50 47 48
internal_count=506 206 300 155 51 97 131 203 81 122 58 95 50 85 50 47 48
is_linear=0
shrinkage=0.1


Tree=8
num_leaves=20
num_cat=0
split_feature=6 6 4 10 10 7 10 3 11 9 6 6 3 5 8 11 0 10 3
split_gain=3799.75 1499.62 693.774 549.809 278.941 229.484 146.535 138.168 87.1347 68.5253 66.1827 56.6286 52.9838 39.5537 30.8019 30.3769 28.2802 24.2364 12.56
threshold=5.1550000000000011 14.895000000000001 3.7972000000000006 7.0835000000000008 6.9470000000000001 0.6070000000000001 6.0985000000000005 13.441000000000001 264.50000000000006 7.5000000000000009 11.855000000000002 19.830000000000002 0.69885500000000012 13.360000000000001 20.150000000000002 298.00000000000006 43.550000000000004 6.5595000000000008 5.776155000000001
decision_type=2 2 2 2 2 2 2 2 2 2 2 2 2 2 2 2 2 2 2
left_child=2 3 -1 6 -4 12 9 11 -8 14 13 18 -3 16 15 -2 -10 -18 -7
right_child=1 5 4 -5 -6 7 8 -9 10 -11 -12 -13 -14 -15 -16 -17 17 -19 -20
leaf_value=1.1616716569120233 -0.024651062764503337 -0.10876340870471563 0.19809462927281857 0.49232769881685573 0.69914036613702779 -0.24705224180221561 0.238974243267016 -0.62228814322372961 0.095845394355781155 0.066810567937791346 -0.11885042904804533 -0.47167645201087 -0.30053660476207739 0.17531276918623762 -0.24747549459338189 -0.16415264244015154 -0.094368320435751232 0.054684422239661218 -0.35337268898263574
leaf_weight=22 27 34 20 24 25 25 22 29 33 20 26 30 25 23 20 37 24 20 20
leaf_count=22 27 34 20 24 25 25 22 29 33 20 26 30 25 23 20 37 24 20 20
internal_value=0 -0.107055 0.70145 0.0349804 0.476453 -0.347557 -0.00857644 -0.436927 0.0553464 -0.0995435 0.0232844 -0.365254 -0.190023 0.0602394 -0.139152 -0.1053 0.0258668 -0.0266171 -0.294306
internal_weight=0 439 67 276 45 163 252 104 148 104 126 75 59 100 84 64 77 44 45
internal_count=506 439 67 276 45 163 252 104 148 104 126 75 59 100 84 64 77 44 45
is_linear=0
shrinkage=0.1


Tree=9
num_leaves=20
num_cat=0
split_feature=6 6 10 10 7 0 10 3 11 7 6 5 6 0 10 3 0 11 1
split_gain=3077.8 1214.69 564.559 445.345 185.882 172.991 119.489 111.916 87.2504 82.2742 61.8197 50.6242 45.8692 45.4281 35.496 30.8973 33.5368 15.2892 12.2178
threshold=5.1550000000000011 14.895000000000001 7.4370000000000003 7.0835000000000008 0.6070000000000001 29.000000000000004 6.1385000000000005 13.441000000000001 264.50000000000006 0.60100000000000009 11.855000000000002 8.3500000000000032 19.830000000000002 70.500000000000014 5.9340000000000002 0.34057500000000002 59.650000000000013 298.00000000000006 377.67500000000007
decision_type=2 2 2 2 2 2 2 2 2 2 2 2 2 2 2 2 2 2 2
left_child=2 3 5 6 11 -1 9 12 -8 13 15 -3 18 14 -2 16 17 -10 -6
right_child=1 4 -4 -5 7 -7 8 -9 10 -11 -12 -13 -14 -15 -16 -17 -18 -19 -20
leaf_value=0.22740304580201276 -0.14787066571022336 -0.3003721415996552 1.0198546037077905 0.44309492930769923 -0.32057906497447264 0.62953398644924174 0.24954900443553926 -0.56005934559065718 0.13921880406726683 0.088604182588017513 -0.13186740296050198 -0.10468694725288795 -0.42450881312290828 -0.24112331637491785 -0.0061052131381901832 0.16482109129428865 -0.069553314646085107 0.025450430341340882 -0.2161343108241757
leaf_weight=23 38 20 24 24 21 20 20 29 21 23 21 39 30 24 33 21 24 27 24
leaf_count=23 38 20 24 24 21 20 20 29 21 23 21 39 30 24 33 21 24 27 24
internal_value=0 -0.0963496 0.631305 0.0314824 -0.312801 0.414441 -0.00771879 -0.393234 0.0568991 -0.0810985 0.0231009 -0.171021 -0.328729 -0.122184 -0.0819797 0.0580938 0.026965 0.0752241 -0.264875
internal_weight=0 439 67 276 163 43 252 104 134 118 114 59 75 95 71 93 72 48 45
internal_count=506 439 67 276 163 43 252 104 134 118 114 59 75 95 71 93 72 48 45
is_linear=0
shrinkage=0.1


Tree=10
num_leaves=20
num_cat=0
split_feature=6 6 4 5 11 10 3 7 7 8 10 1 0 7 7 0 10 0 4
split_gain=2493.01 983.898 501.707 386.484 343.056 202.859 160.719 102.266 141.892 109.505 93.2365 52.3441 47.7437 41.0423 75.2654 25.9304 24.8237 38.0144 16.3898
threshold=5.1550000000000011 14.895000000000001 3.7972000000000006 3.9850000000000008 264.50000000000006 6.9470000000000001 5.776155000000001 0.6695000000000001 0.60100000000000009 19.650000000000002 6.2935000000000008 346.39500000000004 93.950000000000017 0.67500000000000016 0.69650000000000001 74.65000000000002 5.9220000000000015 45.650000000000013 4.8375000000000012
decision_type=2 2 2 2 2 2 2 2 2 2 2 2 2 2 2 2 2 2 2
left_child=2 3 -1 4 -2 -4 11 8 9 10 16 -3 -13 -8 -15 -11 -5 -18 -12
right_child=1 6 5 7 -6 -7 13 -9 -10 15 18 12 -14 14 -16 -17 17 -19 -20
leaf_value=0.95954038771716044 0.56012660310320228 -0.32195122320471065 0.13945962458848954 -0.14295275956392289 0.053806676436215645 0.56674533718824394 -0.27479962334036828 -0.24635095067322255 0.22449539375046026 -0.096158307878067728 0.16774879543143992 -0.053965478867758071 -0.22809498555237251 -0.5803751684370495 -0.33958992551026101 -0.23780994378030301 0.08388108235029948 -0.090373869109598381 0.052408454093066131
leaf_weight=22 23 21 20 24 32 25 24 20 23 28 28 32 31 21 34 24 21 31 22
leaf_count=22 23 21 20 24 32 25 24 20 23 28 28 32 31 21 34 24 21 31 22
internal_value=0 -0.0867146 0.568175 0.0283342 0.26554 0.376841 -0.281521 -0.0306991 -0.00924119 -0.0394431 0.0109444 -0.185224 -0.139648 -0.383913 -0.431526 -0.161536 -0.0588283 -0.0200017 0.116999
internal_weight=0 439 67 276 55 45 163 221 201 178 126 84 63 79 55 52 76 52 50
internal_count=506 439 67 276 55 45 163 221 201 178 126 84 63 79 55 52 76 52 50
is_linear=0
shrinkage=0.1


Tree=11
num_leaves=21
num_cat=0
split_feature=6 6 4 5 10 10 3 7 7 8 0 5 1 10 3 0 0 0 10 3
split_gain=2019.34 796.957 406.383 313.052 295.687 164.894 130.182 82.8357 114.932 95.3014 71.1649 50.0694 42.9824 38.3805 36.7017 21.7995 19.8587 18.3071 17.4474 7.74614
threshold=5.1550000000000011 14.895000000000001 3.7972000000000006 3.9850000000000008 7.0105000000000013 6.9625000000000012 5.776155000000001 0.6695000000000001 0.60100000000000009 17.700000000000006 74.100000000000009 6.1450000000000005 378.08500000000004 5.9340000000000002 15.718000000000002 97.050000000000011 37.250000000000007 92.65000000000002 6.1625000000000005 0.11446000000000002
decision_type=2 2 2 2 2 2 2 2 2 2 2 2 2 2 2 2 2 2 2 2
left_child=2 3 -1 4 -2 -4 12 8 9 11 13 -5 -3 -11 15 -8 -15 -14 -12 -18
right_child=1 6 5 7 -6 -7 14 -9 -10 10 18 -13 17 16 -16 -17 19 -19 -20 -21
leaf_value=0.86358634016730562 0.063713248265641079 -0.26267299513022108 0.14343018965287643 -0.0051860761518279716 0.54571446299552917 0.52637301851873819 -0.35392787293954331 -0.22171585232019428 0.20204585749332027 -0.11989124200997814 -0.25402904983609914 0.20904957927763462 -0.045786718441092451 0.095464162022939753 -0.45187713270602026 -0.22710523242535802 -0.06865856472402812 -0.16353708310202966 -0.12352227852458048 0.018299538039025808
leaf_weight=22 35 30 22 24 20 23 33 20 23 31 20 20 23 21 23 23 20 31 21 21
leaf_count=22 35 30 22 24 20 23 33 20 23 31 20 20 23 21 23 23 20 31 21 21
internal_value=0 -0.0780431 0.511357 0.0255007 0.238986 0.339157 -0.253369 -0.0276292 -0.00831707 -0.0354988 -0.0774277 0.0921938 -0.166702 -0.0290405 -0.345522 -0.30184 0.0163849 -0.113384 -0.187184 -0.024119
internal_weight=0 439 67 276 55 45 163 221 201 178 134 44 84 93 79 56 62 54 41 41
internal_count=506 439 67 276 55 45 163 221 201 178 134 44 84 93 79 56 62 54 41 41
is_linear=0
shrinkage=0.1


Tree=12
num_leaves=20
num_cat=0
split_feature=6 0 10 4 7 11 10 1 3 4 8 6 0 11 10 7 3 4 6
split_gain=1652.87 1053.6 662.544 278.049 160.878 150.059 114.373 104.3 83.7341 58.0806 83.0697 50.3022 38.2762 30.1629 27.8684 25.4269 23.8306 11.7259 11.0392
threshold=9.6050000000000022 89.350000000000009 7.0835000000000008 2.0037000000000007 0.51250000000000007 274.50000000000006 6.5390000000000006 368.40500000000003 15.718000000000002 6.0721500000000006 17.700000000000006 19.830000000000002 82.550000000000011 282.50000000000006 6.0440000000000014 0.43400000000000005 4.5488950000000008 6.5450500000000007 16.695000000000004
decision_type=2 2 2 2 2 2 2 2 2 2 2 2 2 2 2 2 2 2 2
left_child=1 2 4 8 6 -4 13 16 11 10 -9 -2 14 -1 -12 -8 -5 -15 -14
right_child=3 -3 5 7 -6 -7 15 9 -10 -11 12 -13 18 17 -16 -17 -18 -19 -20
leaf_value=0.09084208682179451 -0.14649841912622963 0.88935284600371411 0.66242148943922741 -0.1490717087984085 -0.20715443064337191 0.2971105886542279 0.11023079718330078 0.16792740177363158 -0.441806635260582 -0.20280540481209758 -0.052895471867587834 -0.31373246722930187 -0.077811791212963222 -0.00094161932779984042 0.08621987365186215 0.25370104252050324 -0.29357124567031861 -0.10418864596973768 -0.16952249102649236
leaf_weight=22 35 21 22 25 23 23 21 20 26 20 36 37 35 22 24 30 21 22 21
leaf_count=22 35 21 22 25 23 23 21 20 26 20 36 37 35 22 24 30 21 22 21
internal_value=0 0.218108 0.141912 -0.149767 0.0346213 0.475707 0.0821499 -0.0827114 -0.287985 -0.0436917 -0.0202926 -0.232438 -0.0527444 -0.00476273 0.00275067 0.194625 -0.215039 -0.0525651 -0.112203
internal_weight=0 206 185 300 140 45 117 202 98 156 136 72 116 66 60 51 46 44 56
internal_count=506 206 185 300 140 45 117 202 98 156 136 72 116 66 60 51 46 44 56
is_linear=0
shrinkage=0.1


Tree=13
num_leaves=20
num_cat=0
split_feature=6 6 10 10 7 7 7 7 10 1 9 4 0 6 4 1 10 11 3
split_gain=1387.14 583.515 237.92 191.671 155.209 131.218 77.4043 88.341 69.8234 54.0576 48.3005 31.11 29.1428 24.7718 23.5569 22.546 29.6152 18.7154 9.04046
threshold=4.6950000000000012 12.020000000000001 7.0835000000000008 7.4795000000000007 0.6695000000000001 0.69650000000000001 0.58450000000000013 0.51250000000000007 6.4815000000000014 378.08500000000004 5.5000000000000009 5.3440000000000003 92.65000000000002 9.3350000000000026 3.9611500000000004 305.29500000000002 6.0440000000000014 278.00000000000006 0.10635500000000002
decision_type=2 2 2 2 2 2 2 2 2 2 2 2 2 2 2 2 2 2 2
left_child=3 2 6 -1 9 -6 7 8 17 10 -3 -10 14 -9 -11 -7 -17 -2 -19
right_child=1 4 -4 -5 5 15 -8 13 11 12 -12 -13 -14 -15 -16 16 -18 18 -20
leaf_value=0.33121014477745181 0.066501280529932538 -0.29413018009879371 0.34107885316566189 0.72249133767826224 -0.4405342425765662 -0.2643181696534157 0.20959973122924566 -0.20354063607752326 0.23663348942995072 0.039884831149663243 -0.094521018476397906 0.069304477855563165 -0.12945794211152722 -0.051368795173323684 -0.084434731415024514 -0.22121257145296444 -0.053078483100980525 -0.070463523788279622 0.012598476884886623
leaf_weight=31 22 22 27 21 29 23 20 20 20 35 27 25 34 23 27 22 20 38 20
leaf_count=31 22 22 27 21 29 23 20 20 20 35 27 25 34 23 27 22 20 38 20
internal_value=0 -0.0560349 0.0634953 0.489228 -0.163562 -0.26365 0.0236296 0.0014903 0.0440213 -0.0986777 -0.184141 0.143673 -0.0550556 -0.122146 -0.0142543 -0.184732 -0.141149 -0.0120327 -0.0418215
internal_weight=0 454 215 52 239 94 188 168 125 145 49 45 96 43 62 65 42 80 58
internal_count=506 454 215 52 239 94 188 168 125 145 49 45 96 43 62 65 42 80 58
is_linear=0
shrinkage=0.1


Tree=14
num_leaves=21
num_cat=0
split_feature=6 6 0 10 4 4 8 3 1 7 4 8 0 1 0 10 5 11 5 6
split_gain=1133.15 522.02 238.222 167.496 167.437 103.367 79.0668 63.8127 59.7009 57.6887 42.7441 50.8502 42.736 45.8532 36.3309 27.4075 21.4342 20.8808 5.13743 3.42246
threshold=4.4750000000000005 10.040000000000001 86.700000000000017 6.6655000000000006 2.0685500000000006 4.8375000000000012 17.500000000000004 15.718000000000002 368.40500000000003 0.51250000000000007 6.0721500000000006 17.850000000000005 99.65000000000002 351.25000000000006 73.350000000000009 6.1215000000000011 10.300000000000002 279.50000000000006 5.2550000000000017 17.240000000000006
decision_type=2 2 2 2 2 2 2 2 2 2 2 2 2 2 2 2 2 2 2 2
left_child=5 2 3 9 7 -1 -5 12 19 15 11 -10 13 -3 -13 -2 -16 -17 -19 -6
right_child=1 4 -4 6 8 -7 -8 -9 10 -11 -12 14 -14 -15 16 17 -18 18 -20 -21
leaf_value=0.66193334683775906 -0.084876075522466149 -0.33371001506845155 0.40623697993301211 0.3182490852589791 -0.14817467518150806 0.34781751642850312 0.069176787018775943 -0.36531390597721419 0.11314508836561193 -0.17754724165191874 -0.17499373165890575 0.026830530048985231 -0.058363319188356404 -0.15317816002951826 -0.16644748985194244 0.12918636068701744 -0.045042657965060434 -0.026724336174843107 0.042574904393404722 -0.20533143118023875
leaf_weight=20 22 24 21 26 22 22 25 26 24 20 20 38 20 34 26 20 33 23 20 20
leaf_count=20 22 24 21 26 22 22 25 26 24 20 20 38 20 34 26 20 33 23 20 20
internal_value=0 -0.045023 0.0900408 0.0474759 -0.12832 0.497396 0.196155 -0.22964 -0.0707396 -0.0247396 -0.0395665 -0.0171818 -0.184415 -0.227881 -0.0494277 0.0112152 -0.0985431 0.0447709 0.00550787 -0.175392
internal_weight=0 464 177 156 287 42 51 104 183 105 141 121 78 58 97 85 59 63 43 42
internal_count=506 464 177 156 287 42 51 104 183 105 141 121 78 58 97 85 59 63 43 42
is_linear=0
shrinkage=0.1


Tree=15
num_leaves=19
num_cat=0
split_feature=6 6 10 7 8 7 7 9 7 6 8 5 11 3 7 7 9 3
split_gain=917.851 423.338 174.421 130.81 124.727 100.222 85.5038 76.5502 47.0521 34.0472 27.6882 33.0012 23.2724 20.8235 11.9865 14.4422 11.8912 25.421
threshold=4.4750000000000005 10.200000000000001 6.7815000000000003 0.6695000000000001 17.150000000000002 0.69650000000000001 0.44600000000000006 6.5000000000000009 0.51250000000000007 20.195000000000004 17.850000000000005 8.3500000000000032 332.00000000000006 6.4914050000000012 0.58200000000000007 0.61150000000000004 4.5000000000000009 0.053660000000000006
decision_type=2 2 2 2 2 2 2 2 2 2 2 2 2 2 2 2 2 2
left_child=6 2 7 9 -4 -5 -1 8 12 10 -3 -12 16 -7 -13 -16 17 -2
right_child=1 3 4 5 -6 13 -8 -9 -10 -11 11 14 -14 -15 15 -17 -18 -19
leaf_value=0.31161527003754275 0.0047789294627450761 0.024281813772885422 0.40145789732535681 -0.36762276305335351 0.085322673045671912 -0.086792535101994875 0.59730254851281639 0.18839287104254421 -0.12788871744913716 -0.16795299415444506 -0.15367929113821852 0.0023160526430920552 -0.071958286068402239 -0.19840308432068143 -0.13164721293882892 -0.01706428507512266 -0.0095838262921287901 0.16037608864051955
leaf_weight=22 21 38 24 29 26 32 20 22 28 29 36 38 20 35 22 22 21 21
leaf_count=22 21 38 24 29 26 32 20 22 28 29 36 38 20 35 22 22 21 21
internal_value=0 -0.0405207 0.0778414 -0.117603 0.237068 -0.212318 0.447657 0.0179819 -0.0157933 -0.0684542 -0.0499576 -0.0738652 0.022022 -0.145097 -0.0388249 -0.0743557 0.0518571 0.0825775
internal_weight=0 464 183 281 50 96 42 133 111 185 156 118 83 67 82 44 63 42
internal_count=506 464 183 281 50 96 42 133 111 185 156 118 83 67 82 44 63 42
is_linear=0
shrinkage=0.1


Tree=16
num_leaves=20
num_cat=0
split_feature=6 6 0 10 4 1 11 3 4 7 4 8 6 0 10 5 4 3 10
split_gain=747.723 378.464 172.951 131.428 114.646 55.3663 45.554 41.8398 38.2087 35.9564 35.3391 35.6404 31.8179 26.814 25.5857 19.0554 16.212 12.1168 6.02169
threshold=3.9900000000000007 10.040000000000001 86.700000000000017 6.7815000000000003 2.0037000000000007 368.40500000000003 274.50000000000006 15.718000000000002 1.5772500000000003 0.51250000000000007 6.0721500000000006 17.850000000000005 17.925000000000004 73.350000000000009 6.1215000000000011 10.300000000000002 4.5006000000000013 4.5488950000000008 6.4660000000000011
decision_type=2 2 2 2 2 2 2 2 2 2 2 2 2 2 2 2 2 2 2
left_child=-1 2 3 9 7 17 -5 8 -3 14 11 -7 -10 -13 -2 -15 -16 -6 -18
right_child=1 4 -4 6 5 10 -8 -9 12 -11 -12 13 -14 15 16 -17 18 -19 -20
leaf_value=0.46022352720751913 -0.07866183873265982 -0.035163718499243261 0.34929900105510442 0.30161480352282527 -0.10688895626614492 0.10097852814942598 0.10087176048590873 -0.30062446433764239 -0.11331459597374004 -0.12318723415550979 -0.15170229906216265 0.03142268563571729 -0.27022532128861976 -0.14049431171554785 0.12107904283329846 -0.028145939515282711 -0.015321573101241014 -0.21090148914427986 0.051649455115199097
leaf_weight=33 22 20 21 20 24 24 26 26 24 23 20 38 28 26 20 36 29 21 25
leaf_count=33 22 20 21 20 24 24 26 26 24 23 20 38 28 26 20 36 29 21 25
internal_value=0 -0.0321086 0.0790047 0.0446036 -0.104119 -0.0586078 0.188151 -0.191892 -0.152627 -0.0108855 -0.0283514 -0.00845612 -0.197805 -0.0347204 0.0160201 -0.0752598 0.0441688 -0.155428 0.0156835
internal_weight=0 473 186 165 287 189 46 98 72 119 144 124 52 100 96 62 74 45 54
internal_count=506 473 186 165 287 189 46 98 72 119 144 124 52 100 96 62 74 45 54
is_linear=0
shrinkage=0.1


Tree=17
num_leaves=19
num_cat=0
split_feature=10 6 0 1 6 10 0 11 11 9 7 7 0 8 9 3 10 3
split_gain=626.608 305.407 323.665 92.9603 87.5399 80.5492 32.4275 26.8582 23.7853 22.7335 24.9132 33.4202 20.8556 19.1054 18.925 10.0014 7.5473 4.48004
threshold=7.4140000000000006 10.040000000000001 87.750000000000014 105.24000000000001 19.830000000000002 6.6655000000000006 62.350000000000009 329.50000000000006 282.50000000000006 4.5000000000000009 0.6695000000000001 0.71550000000000014 96.750000000000014 16.950000000000003 4.5000000000000009 0.26888000000000006 5.9390000000000009 0.14190500000000003
decision_type=2 2 2 2 2 2 2 2 2 2 2 2 2 2 2 2 2 2
left_child=1 2 5 -3 8 6 7 14 -5 16 15 -12 -6 -7 -1 17 -10 -11
right_child=-2 3 -4 4 12 13 -8 -9 9 10 11 -13 -14 -15 -16 -17 -18 -19
leaf_value=0.078364137580427221 0.42828898169100288 -0.25160213726939579 0.45069144286215307 0.037425171335538229 -0.10594516806304455 0.20022401858121155 -0.13676914537680293 -0.091677391148455772 -0.16034170486742544 0.0043308179825544361 -0.1875229485332966 -0.0069005230685607313 -0.22417744359353908 0.078913040046353605 -0.030547820142021887 0.044283970771357421 -0.077423753520048669 -0.06106337860903957
leaf_weight=39 32 33 20 33 25 20 21 23 21 20 20 21 37 37 27 32 23 22
leaf_count=39 32 33 20 33 25 20 21 23 21 20 20 21 37 37 27 32 23 22
internal_value=0 -0.028914 0.0705282 -0.0937074 -0.0731935 0.0249996 -0.0249938 0.00138011 -0.0398331 -0.0558678 -0.0324788 -0.095009 -0.176503 0.121478 0.0338092 0.00216634 -0.116998 -0.0299233
internal_weight=0 474 187 287 254 167 110 89 192 159 115 41 62 57 66 74 44 42
internal_count=506 474 187 287 254 167 110 89 192 159 115 41 62 57 66 74 44 42
is_linear=0
shrinkage=0.1


Tree=18
num_leaves=20
num_cat=0
split_feature=6 5 11 7 0 4 0 7 10 8 10 4 8 4 5 4 6 4 3
split_gain=517.9 250.296 200.394 152.56 124.115 107.649 62.2462 53.4965 50.3918 34.1595 21.9903 17.8335 17.4448 12.5972 19.1556 11.1802 7.22817 6.95202 4.30746
threshold=4.6950000000000012 4.1000000000000005 264.50000000000006 0.6695000000000001 49.050000000000004 1.7760500000000004 36.70000000000001 0.69650000000000001 5.7440000000000007 20.950000000000003 6.5710000000000006 2.0037000000000007 17.700000000000006 2.3749500000000006 7.0150000000000015 1.7322500000000003 10.805000000000001 5.4009000000000009 0.16953000000000004
decision_type=2 2 2 2 2 2 2 2 2 2 2 2 2 2 2 2 2 2 2
left_child=4 2 -2 5 -1 -3 17 -5 -8 12 -4 15 18 -14 -15 -9 -16 -7 -10
right_child=1 3 10 7 -6 6 8 11 9 -11 -12 -13 13 14 16 -17 -18 -19 -20
leaf_value=0.17679515265626833 0.34543308429419994 0.19482660591602327 -0.057828406587243079 -0.28677516672117959 0.49435359150171276 0.10201957580589115 -0.1887945675601562 -0.11822573173613776 0.058767836317420011 -0.14863583818078041 0.082853072676807638 -0.068676364998663628 -0.11848310851915317 -0.099847601403792702 -0.044047236025333406 -0.22269602173706518 0.025557580811751857 0.023972850471735002 -0.0060773432254791265
leaf_weight=32 28 20 25 29 20 21 30 21 20 29 20 31 22 30 25 20 37 25 21
leaf_count=32 28 20 25 29 20 21 30 21 20 29 20 31 22 30 25 20 37 25 21
internal_value=0 -0.034239 0.13539 -0.0667401 0.298933 -0.0287353 -0.0459324 -0.1721 -0.0686175 -0.0490234 0.0046967 -0.125912 -0.0303863 -0.0505053 -0.0342498 -0.169187 -0.00250888 0.0596029 0.0255545
internal_weight=0 454 73 381 52 280 260 101 214 184 45 72 155 114 92 41 62 46 41
internal_count=506 454 73 381 52 280 260 101 214 184 45 72 155 114 92 41 62 46 41
is_linear=0
shrinkage=0.1


Tree=19
num_leaves=19
num_cat=0
split_feature=6 7 7 10 7 4 7 8 4 0 1 0 5 7 1 10 11 9
split_gain=439.247 217.971 281.652 166.153 68.4005 50.8228 43.3321 40.9322 32.9529 37.9153 25.444 23.9085 39.3031 19.1555 16.12 16.0123 10.9321 14.9765
threshold=3.9900000000000007 0.6695000000000001 0.62750000000000006 6.6455000000000011 0.53500000000000014 6.0721500000000006 0.69650000000000001 17.850000000000005 3.2074500000000001 42.500000000000007 368.40500000000003 76.950000000000017 13.360000000000001 0.43745000000000006 377.67500000000007 6.1445000000000007 246.00000000000003 4.5000000000000009
decision_type=2 2 2 2 2 2 2 2 2 2 2 2 2 2 2 2 2 2
left_child=-1 2 3 4 5 7 -3 -2 -5 -10 -6 -12 -13 -7 15 -8 -9 -18
right_child=1 6 -4 8 10 13 14 16 9 -11 11 12 -14 -15 -16 -17 17 -19
leaf_value=0.35273850049936412 0.13499681989947754 -0.2580976487233721 0.37580279022455221 0.23457126479507207 -0.17188756287925774 -0.034460273524746302 -0.08855175734497607 -0.064593518432229755 0.16815160870552065 -0.011849366771903905 0.0019598759518101301 -0.213201850686561 -0.038434925987835857 -0.15463782868215017 -0.057334212561448418 -0.21218199279497971 0.07374218728925501 -0.027947954566528401
leaf_weight=33 31 29 20 21 36 36 20 20 25 22 29 22 31 21 30 22 28 30
leaf_count=33 31 29 20 21 36 36 20 20 25 22 29 22 31 21 30 22 28 30
internal_value=0 -0.0246097 0.0107622 -0.00997878 -0.0435973 -0.00222043 -0.15489 0.0377924 0.130428 0.0838958 -0.101805 -0.0710376 -0.11098 -0.0787362 -0.11332 -0.15331 -0.0008401 0.0211438
internal_weight=0 473 372 352 284 166 101 109 68 47 118 82 53 57 72 42 78 58
internal_count=506 473 372 352 284 166 101 109 68 47 118 82 53 57 72 42 78 58
is_linear=0
shrinkage=0.1


Tree=20
num_leaves=19
num_cat=0
split_feature=10 6 5 3 1 11 5 6 0 10 4 7 7 1 0 6 0 10
split_gain=360.909 163.217 264.701 63.024 55.3996 54.8628 52.4858 44.3496 34.156 20.2057 20.1507 22.7062 20.6658 21.553 23.7862 12.087 9.66604 6.9737
threshold=7.4140000000000006 10.040000000000001 13.360000000000001 15.718000000000002 105.24000000000001 264.50000000000006 4.4400000000000004 23.280000000000005 59.650000000000013 6.7165000000000008 6.2047500000000007 0.52800000000000014 0.5485000000000001 333.24500000000006 87.950000000000017 13.065000000000001 29.000000000000004 5.9505000000000008
decision_type=2 2 2 2 2 2 2 2 2 2 2 2 2 2 2 2 2 2
left_child=1 2 5 4 -3 6 -1 10 9 16 11 15 -13 -14 -15 -6 -7 -16
right_child=-2 3 -4 -5 7 8 -8 -9 -10 -11 -12 12 13 14 17 -17 -18 -19
leaf_value=0.21249411139975893 0.32504086478147659 -0.19302981753761952 0.39454847272485494 -0.21778276677315056 0.0009863022228945857 -0.070026005138284886 0.0076631731963877018 -0.15977146534456149 -0.11448200536948261 0.087948788770220498 -0.11897223532199859 -0.09681619095641214 0.080706413675631805 0.039905978664755822 -0.11767715787631459 0.10728166796267034 0.010468924439379149 -0.044385719319453114
leaf_weight=22 32 26 20 26 23 26 29 27 33 22 20 37 21 30 20 20 35 37
leaf_count=22 32 26 20 26 23 26 29 27 33 22 20 37 21 30 20 20 35 37
internal_value=0 -0.0219437 0.0507528 -0.0693104 -0.05452 0.00957968 0.0960216 -0.0391956 -0.028425 0.00579048 -0.0235439 -0.0133919 -0.0323172 -0.0102204 -0.0321682 0.050426 -0.0238404 -0.070102
internal_weight=0 474 187 287 261 167 51 235 116 83 208 188 145 108 87 43 61 57
internal_count=506 474 187 287 261 167 51 235 116 83 208 188 145 108 87 43 61 57
is_linear=0
shrinkage=0.1


Tree=21
num_leaves=18
num_cat=0
split_feature=6 7 7 11 10 8 0 7 9 3 4 4 7 10 6 10 10
split_gain=303.129 154.724 214.214 118.963 77.1792 47.3812 47.2708 35.0883 20.436 28.1826 19.2636 13.5461 12.7562 11.9781 9.45392 6.19235 4.11391
threshold=3.9900000000000007 0.6695000000000001 0.62750000000000006 222.50000000000003 6.5915000000000008 17.700000000000006 59.650000000000013 0.72900000000000009 4.5000000000000009 0.26042000000000004 1.9071500000000003 4.5006000000000013 0.58350000000000002 5.988500000000001 14.045000000000002 5.9840000000000009 6.3530000000000006
decision_type=2 2 2 2 2 2 2 2 2 2 2 2 2 2 2 2 2
left_child=-1 2 3 -2 6 -6 11 10 9 -8 15 -5 14 -13 -10 -3 -15
right_child=1 7 -4 4 5 -7 8 -9 12 -11 -12 13 -14 16 -16 -17 -18
leaf_value=0.29303009979652639 0.20152059841156006 -0.17818879538348742 0.32771010980010035 0.047634166599930944 0.14398324599391538 -0.022609030839896974 -0.21319744277000427 -0.052688612507001777 -0.061135390745820833 -0.077185246806878313 -0.10177384049672147 -0.084616754095380511 -0.1042907962575555 -0.022596397844608873 0.028325899016289485 -0.2559378496557474 0.033577930266884243
leaf_weight=33 25 21 20 37 38 31 25 37 27 39 23 24 31 32 21 20 22
leaf_count=33 25 21 20 37 38 31 25 37 27 39 23 24 31 32 21 20 22
internal_value=0 -0.020444 0.00935754 -0.00873067 -0.0248049 0.0691374 -0.0499291 -0.130208 -0.0883146 -0.130315 -0.175024 -0.00219746 -0.0542889 -0.0258355 -0.0219961 -0.216115 0.00028944
internal_weight=0 473 372 352 327 69 258 101 143 64 64 115 79 78 48 41 54
internal_count=506 473 372 352 327 69 258 101 143 64 64 115 79 78 48 41 54
is_linear=0
shrinkage=0.1


Tree=22
num_leaves=20
num_cat=0
split_feature=10 4 7 11 6 6 1 10 10 5 3 3 4 10 0 3 7 9 1
split_gain=250.875 147.056 89.7551 59.2448 32.9191 42.3832 37.5511 23.3208 20.2112 19.6903 15.4928 13.8297 11.2107 9.67562 8.48922 9.7888 6.34202 6.23173 2.09063
threshold=7.4795000000000007 1.4327500000000002 0.52800000000000014 223.50000000000003 8.1800000000000015 23.645000000000007 105.24000000000001 6.4660000000000011 6.3530000000000006 7.6250000000000009 0.061015000000000007 0.11230500000000002 3.6687000000000007 5.9340000000000002 94.550000000000011 3.6856650000000006 0.49100000000000005 4.5000000000000009 392.71500000000009
decision_type=2 2 2 2 2 2 2 2 2 2 2 2 2 2 2 2 2 2 2
left_child=1 -1 3 -3 -4 6 -6 9 12 13 -9 -12 14 -5 15 -8 18 -11 -15
right_child=-2 2 4 7 5 -7 8 10 -10 17 11 -13 -14 16 -16 -17 -18 -19 -20
leaf_value=0.23547929479655894 0.29092966653406621 0.17566182095380056 -0.19562589332461358 -0.1033747446205881 -0.16439801698381251 -0.16547828580845486 -0.039113625095171092 -0.0049808364574398314 0.042083328462072786 0.068233220758182667 0.14492170929908751 0.02732194855809212 -0.10384801644086838 -0.077141187414526941 -0.065406332410087711 0.04429936872329563 0.014688017638109159 -0.0088056275709753936 -0.031417742669582367
leaf_weight=22 28 21 20 27 22 33 34 35 35 21 20 20 25 20 38 24 20 21 20
leaf_count=22 28 21 20 27 22 33 34 35 35 21 20 20 25 20 38 24 20 21 20
internal_value=0 -0.0170419 -0.0292249 0.0157284 -0.0730107 -0.0613884 -0.0420908 -0.000735358 -0.0248423 -0.0265159 0.0436073 0.0861218 -0.044201 -0.0536613 -0.0286679 -0.0045979 -0.0312903 0.0297138 -0.0542795
internal_weight=0 478 456 225 231 211 178 204 156 129 75 40 121 87 96 58 60 42 40
internal_count=506 478 456 225 231 211 178 204 156 129 75 40 121 87 96 58 60 42 40
is_linear=0
shrinkage=0.1


Tree=23
num_leaves=21
num_cat=0
split_feature=6 7 7 11 8 0 10 10 3 11 11 4 10 10 3 6 10 10 1 0
split_gain=212.126 119.758 163.369 84.0151 56.5753 46.6913 45.5137 30.9333 30.8591 30.6855 16.8654 21.8562 15.7315 11.4085 10.3829 10.958 7.7344 5.97568 3.27645 1.24899
threshold=3.9900000000000007 0.6695000000000001 0.62750000000000006 222.50000000000003 17.700000000000006 73.350000000000009 6.6330000000000009 6.4155000000000006 9.870020000000002 306.00000000000006 322.00000000000006 6.0721500000000006 5.8050000000000006 5.9220000000000015 0.13408 8.0750000000000011 6.0440000000000014 6.3295000000000003 393.27000000000004 90.550000000000026
decision_type=2 2 2 2 2 2 2 2 2 2 2 2 2 2 2 2 2 2 2 2
left_child=-1 2 3 -2 6 13 10 8 16 -7 11 -5 -11 18 15 -15 -3 19 -6 -14
right_child=1 7 -4 4 5 9 -8 -9 -10 12 -12 -13 17 14 -16 -17 -18 -19 -20 -21
leaf_value=0.24512938888687077 0.17001001899316909 -0.075467131426557907 0.28713258303701877 0.099386385756290774 -0.07858289003372193 -0.19905384429123091 0.13647556927274257 -0.21279689329676332 -0.16651941415454663 -0.1451376392506063 -0.082604358978569506 -0.038604097739638139 -0.046913735605776309 0.02654212252569518 0.057509860210120681 -0.06901757468779883 0.0040088175907731054 0.0018747984617948532 -0.021342591606080534 -0.081831537541889016
leaf_weight=33 25 24 20 22 20 23 34 24 28 20 20 24 20 28 34 21 25 20 20 21
leaf_count=33 25 24 20 22 20 23 34 24 28 20 20 24 20 28 34 21 25 20 20 21
internal_value=0 -0.017102 0.00911664 -0.00667972 -0.0201881 -0.0477956 0.0424808 -0.11367 -0.0827732 -0.0971176 -0.00594068 0.0273914 -0.0681728 -0.00609239 0.0150499 -0.014412 -0.0349182 -0.0429384 -0.0499627 -0.0647985
internal_weight=0 473 372 352 327 227 100 101 77 104 66 46 81 123 83 49 49 61 40 41
internal_count=506 473 372 352 327 227 100 101 77 104 66 46 81 123 83 49 49 61 40 41
is_linear=0
shrinkage=0.1


Tree=24
num_leaves=19
num_cat=0
split_feature=10 4 8 11 6 5 9 3 1 0 10 6 1 1 4 1 4 11
split_gain=174.254 118.835 67.9974 43.8414 39.4614 22.2888 31.2568 16.8449 22.6499 18.8193 15.8773 15.2884 17.4209 15.7315 14.1535 12.1799 10.7365 8.14673
threshold=7.4795000000000007 1.4784000000000004 19.050000000000004 298.00000000000006 23.645000000000007 3.3500000000000005 3.5000000000000004 0.10993000000000001 105.24000000000001 91.65000000000002 6.7165000000000008 7.5500000000000007 395.10000000000008 385.52500000000003 2.9393500000000006 393.54000000000002 2.1647500000000002 329.50000000000006
decision_type=2 2 2 2 2 2 2 2 2 2 2 2 2 2 2 2 2 2
left_child=1 -1 3 5 7 -3 -7 -4 -9 14 11 -5 13 -13 -10 -8 -11 -16
right_child=-2 2 4 10 -6 6 15 8 9 16 -12 12 -14 -15 17 -17 -18 -19
leaf_value=0.18568466835588748 0.24246633340205467 0.12973004257186288 -0.11390880115316525 -0.12655060918303207 -0.17850809649184898 -0.065461766471465441 0.12284596863389015 -0.13379307715665728 0.054387570857196248 -0.029145688736914761 0.045343854075128386 -0.013704462047537853 0.046356964907185605 -0.12898844271898269 0.0075359861056009938 0.02759937793658725 -0.11347719823511748 -0.076670163571834565
leaf_weight=28 28 31 34 20 27 24 25 21 37 36 22 29 22 20 27 29 26 20
leaf_count=28 28 31 34 20 27 24 25 21 37 36 22 29 22 20 27 29 26 20
internal_value=0 -0.014203 -0.0266405 0.0127535 -0.0649979 0.0580007 0.0294929 -0.0497502 -0.036688 -0.0227208 -0.030892 -0.0493226 -0.0275682 -0.0607591 0.00812391 0.071695 -0.0645105 -0.0282964
internal_weight=0 478 450 222 228 109 78 201 167 146 113 91 71 49 84 54 62 47
internal_count=506 478 450 222 228 109 78 201 167 146 113 91 71 49 84 54 62 47
is_linear=0
shrinkage=0.1


Tree=25
num_leaves=20
num_cat=0
split_feature=6 7 7 11 8 4 0 10 6 4 8 10 7 8 10 11 1 4 8
split_gain=150.437 93.5209 119.45 60.9869 40.3438 38.155 35.9038 33.0004 29.142 28.7267 26.1623 19.5034 14.9138 13.5798 9.2902 7.50924 6.68731 6.32021 2.39262
threshold=3.9900000000000007 0.6695000000000001 0.62750000000000006 222.50000000000003 17.700000000000006 6.0721500000000006 73.350000000000009 6.6050000000000013 10.585000000000003 1.9283000000000003 20.150000000000002 6.1445000000000007 0.71550000000000014 20.950000000000003 5.9220000000000015 271.50000000000006 392.87000000000006 4.5006000000000013 19.150000000000002
decision_type=2 2 2 2 2 2 2 2 2 2 2 2 2 2 2 2 2 2 2
left_child=-1 2 3 -2 5 7 14 -5 -8 11 -10 12 -3 -12 18 -16 -7 -17 -6
right_child=1 9 -4 4 6 16 8 -9 10 -11 13 -13 -14 -15 15 17 -18 -19 -20
leaf_value=0.20643114151263778 0.14579961931705473 -0.15980503274635838 0.24649356231093408 0.031962431860821587 -0.018123990492895245 -0.071999102864753126 -0.1880509941794333 0.1905284895783379 -0.14686643170273825 -0.028076801107575496 0.027761271290866463 -0.21871773387704577 -0.043366072060201655 -0.067439869959508222 -0.028449730607322778 0.07407394948601724 0.0059712593303464191 0.0069684585905633867 -0.067038365826010707
leaf_weight=33 25 22 20 35 20 22 21 21 23 36 29 21 22 31 26 25 22 32 20
leaf_count=33 25 22 20 35 20 22 21 21 23 36 29 21 22 31 26 25 22 32 20
internal_value=0 -0.0144022 0.00876713 -0.00474005 -0.0162492 0.0366717 -0.0395624 0.0914247 -0.0828131 -0.0997386 -0.0561866 -0.139428 -0.101586 -0.021426 -0.00299269 0.0160861 -0.0330139 0.0364007 -0.0425812
internal_weight=0 473 372 352 327 100 227 56 104 101 83 65 44 60 123 83 44 57 40
internal_count=506 473 372 352 327 100 227 56 104 101 83 65 44 60 123 83 44 57 40
is_linear=0
shrinkage=0.1


Tree=26
num_leaves=19
num_cat=0
split_feature=10 4 8 6 11 5 9 10 6 1 0 10 6 1 1 4 1 3
split_gain=123.014 94.7909 49.9159 28.4759 26.2122 18.6017 26.0309 17.5533 15.2793 18.6041 14.9472 13.7042 13.2431 14.0002 11.5259 8.83675 7.89274 4.92199
threshold=7.7280000000000006 1.4784000000000004 19.050000000000004 23.645000000000007 298.00000000000006 3.3500000000000005 3.5000000000000004 6.7165000000000008 7.8900000000000015 105.24000000000001 91.65000000000002 6.0305000000000009 7.5500000000000007 395.13000000000005 385.52500000000003 2.1647500000000002 393.54000000000002 0.26888000000000006
decision_type=2 2 2 2 2 2 2 2 2 2 2 2 2 2 2 2 2 2
left_child=1 -1 4 8 5 -3 -7 12 -4 -10 11 17 -6 14 -14 -12 -8 -11
right_child=-2 2 3 -5 7 6 16 -9 9 10 15 -13 13 -15 -16 -17 -18 -19
leaf_value=0.16808074499879566 0.23126691871068697 0.11055123069090769 -0.10497220032848419 -0.150988309043977 -0.1139756194734946 -0.064269035868346688 0.098804882691743284 0.052506821453571322 -0.11769497450441123 -0.055913286209106454 -0.022921885559574154 0.055225679699919733 -0.0097734596194892099 0.046667318312185152 -0.10705127043738252 -0.098185331403062903 0.022927993523149656 0.010643376708030701
leaf_weight=28 22 32 32 27 20 25 26 25 21 25 39 38 29 21 21 26 29 20
leaf_count=28 22 32 32 27 20 25 26 25 21 25 39 38 29 21 21 26 29 20
internal_value=0 -0.0105121 -0.0214784 -0.0545638 0.0116071 0.0461139 0.0203389 -0.0217098 -0.0416113 -0.0296139 -0.017116 0.0110074 -0.042099 -0.021852 -0.0506301 -0.0530273 0.0587971 -0.0263325
internal_weight=0 484 456 228 228 112 80 116 201 169 148 83 91 71 50 65 55 45
internal_count=506 484 456 228 228 112 80 116 201 169 148 83 91 71 50 65 55 45
is_linear=0
shrinkage=0.1


Tree=27
num_leaves=20
num_cat=0
split_feature=6 7 7 11 10 1 4 0 6 10 10 3 4 0 1 8 0 6 1
split_gain=107.555 72.8606 86.7903 43.8144 30.0137 33.9825 28.2168 27.5829 19.8 18.506 17.586 12.1869 9.6949 9.87162 8.56436 8.33734 2.42827 2.42332 1.46814
threshold=3.9900000000000007 0.6695000000000001 0.62750000000000006 222.50000000000003 6.6455000000000011 389.78000000000003 1.5224500000000003 58.050000000000004 9.6050000000000022 6.2495000000000003 5.9505000000000008 7.0365050000000009 6.341400000000001 33.400000000000006 368.40500000000003 19.150000000000002 90.550000000000026 10.330000000000002 394.52500000000003
decision_type=2 2 2 2 2 2 2 2 2 2 2 2 2 2 2 2 2 2 2
left_child=-1 2 3 -2 7 -6 -3 12 -9 11 14 -8 13 -5 -10 -12 -17 -15 -16
right_child=1 6 -4 4 5 -7 9 8 10 -11 15 -13 -14 17 18 16 -18 -19 -20
leaf_value=0.17454720154178865 0.12435648311674595 -0.19387091238051654 0.21091066654771568 0.073785139352924398 0.15816343579441311 -0.0044122060139973962 0.03607761309969993 -0.14240662577477367 -0.13102918772825176 -0.11743464465526975 0.033955708170930542 -0.066345772333443173 -0.031670904713437746 -0.017599264638764517 -0.033008094616234301 -0.010479866219684483 -0.059167179585035361 0.027976260557770728 -0.071324470555409789
leaf_weight=33 25 20 20 31 20 36 21 22 21 34 30 26 38 28 20 20 21 20 20
leaf_count=33 25 20 20 31 20 36 21 22 21 34 30 26 38 28 20 20 21 20 20
internal_value=0 -0.0121777 0.00827285 -0.00324067 -0.0129958 0.0536505 -0.0875006 -0.0267677 -0.0545756 -0.0612363 -0.0399371 -0.0205821 0.00983411 0.0297985 -0.0793158 -0.00610474 -0.0354173 0.00139054 -0.0521663
internal_weight=0 473 372 352 327 56 101 271 154 81 132 47 117 79 61 71 41 48 40
internal_count=506 473 372 352 327 56 101 271 154 81 132 47 117 79 61 71 41 48 40
is_linear=0
shrinkage=0.1


Tree=28
num_leaves=20
num_cat=0
split_feature=6 0 11 8 0 3 6 6 1 10 1 10 3 6 1 4 0 0 7
split_gain=90.2808 324.07 81.192 71.8775 62.7226 34.5093 24.4704 23.9144 19.4373 13.6424 12.6792 15.7103 13.5092 10.4158 8.57638 8.99335 7.22398 5.34988 3.59636
threshold=9.5350000000000019 89.550000000000011 264.50000000000006 17.850000000000005 74.65000000000002 15.718000000000002 23.645000000000007 5.0600000000000014 105.24000000000001 6.6185000000000009 333.24500000000006 5.9220000000000015 0.69885500000000012 13.905000000000003 387.91500000000002 2.3749500000000006 40.050000000000004 85.450000000000017 0.52200000000000013
decision_type=2 2 2 2 2 2 2 2 2 2 2 2 2 2 2 2 2 2 2
left_child=1 2 3 -1 7 6 8 -4 -2 16 -10 12 13 -12 17 -16 -9 -13 -17
right_child=5 -3 4 -5 -6 -7 -8 9 10 -11 11 14 -14 -15 15 18 -18 -19 -20
leaf_value=0.21946103310790557 -0.10569296394075667 0.43379781723022459 -0.090911530020336306 -0.0072693329580404142 -0.19228445894661406 -0.14472788323003513 -0.10796192599039885 0.026214406122582863 0.060578051653618993 0.089941949668255722 -0.073091584444046023 0.082608506794786096 -0.10639266079222715 0.021395570332450528 -0.068730884566903114 -0.020264140323091012 -0.04461390376091004 0.010341649963742212 0.028266323518914144
leaf_weight=29 21 20 24 27 21 26 31 36 26 22 20 20 27 28 20 26 24 21 37
leaf_count=29 21 20 24 27 21 26 31 36 26 22 20 20 27 28 20 26 24 21 37
internal_value=0 0.0516055 0.00983582 0.110145 -0.0343948 -0.034574 -0.0242346 -0.0031148 -0.0136836 0.0225818 -0.00509607 -0.0136766 -0.0498048 -0.0179741 0.00817511 -0.0103088 -0.00211692 0.0455938 0.00823788
internal_weight=0 203 183 56 127 303 277 106 246 82 225 199 75 48 124 83 60 41 63
internal_count=506 203 183 56 127 303 277 106 246 82 225 199 75 48 124 83 60 41 63
is_linear=0
shrinkage=0.1


Tree=29
num_leaves=19
num_cat=0
split_feature=10 4 7 6 4 6 7 6 0 3 4 8 3 6 10 0 10 6
split_gain=76.4643 80.8935 28.9271 33.6069 23.96 17.2812 14.9704 13.7203 13.2346 11.3526 16.3338 17.239 8.24612 8.97831 7.78665 11.4858 8.43223 5.81433
threshold=7.7280000000000006 1.4784000000000004 0.52800000000000014 7.8900000000000015 4.2626000000000008 12.020000000000001 0.71550000000000014 21.650000000000002 63.050000000000004 0.17138 7.8271500000000005 15.750000000000002 0.036370000000000006 8.9050000000000029 5.8685000000000009 94.550000000000011 6.1100000000000003 9.8450000000000024
decision_type=2 2 2 2 2 2 2 2 2 2 2 2 2 2 2 2 2 2
left_child=1 -1 4 -4 8 -5 7 14 -3 10 11 -6 -13 -14 -7 16 -16 -10
right_child=-2 2 3 5 9 6 -8 -9 17 -11 -12 12 13 -15 15 -17 -18 -19
leaf_value=0.15669453623039384 0.18233312276954003 0.10192142717132811 -0.16750168174505234 0.03017781846023895 0.091834201392802337 -0.08792566207082321 0.016389701678417624 -0.12496837589603205 -0.018917337510819462 -0.075974298211244448 -0.079932196551690926 -0.060203037129461096 0.042339133672617581 -0.035235966384410865 0.03628765658608505 -0.081800887430155733 -0.042035785282927535 0.055581257005687806
leaf_weight=28 22 32 20 37 22 30 32 26 22 26 23 22 37 25 28 27 27 20
leaf_count=28 22 32 20 37 22 30 32 26 22 26 23 22 37 25 28 27 27 20
internal_value=0 -0.00828787 -0.0184184 -0.0437157 0.00665804 -0.0317557 -0.0452354 -0.0595252 0.053472 -0.0156919 -0.00354191 0.0130333 -0.00760498 0.0110589 -0.0443331 -0.0283846 -0.00216203 0.0165582
internal_weight=0 484 456 227 229 207 170 138 74 155 129 106 84 62 112 82 55 42
internal_count=506 484 456 227 229 207 170 138 74 155 129 106 84 62 112 82 55 42
is_linear=0
shrinkage=0.1


Tree=30
num_leaves=20
num_cat=0
split_feature=6 0 8 0 4 4 6 1 6 4 10 0 6 11 6 10 6 6 3
split_gain=68.8948 263.319 66.5318 59.7268 38.2813 20.9884 14.5192 13.0446 15.1557 11.2311 10.6119 8.51006 8.0441 7.19942 5.95347 5.56841 5.25553 5.09933 5.04652
threshold=9.5350000000000019 89.550000000000011 15.250000000000002 74.65000000000002 1.4577500000000003 3.6522500000000004 4.7750000000000012 105.24000000000001 23.280000000000005 6.2047500000000007 5.9220000000000015 49.800000000000004 18.100000000000005 306.00000000000006 14.680000000000001 6.3740000000000014 15.695000000000002 18.055000000000003 0.53556000000000015
decision_type=2 2 2 2 2 2 2 2 2 2 2 2 2 2 2 2 2 2 2
left_child=1 2 -1 5 -2 -4 -7 -6 9 10 14 15 13 -12 -9 -8 18 -16 -15
right_child=4 -3 3 -5 7 6 11 8 -10 -11 12 -13 -14 16 17 -17 -18 -19 -20
leaf_value=0.1523629583694317 -0.16390835507772863 0.38959236405789854 0.099816743497337615 -0.16644906779022323 -0.080882385931909093 -0.081949310546571563 -0.0015588859924011761 -0.055870187463792603 -0.085373965092003345 -0.076263486547395593 0.050750456899404529 -0.047063444980553225 0.078286655247211456 -0.026412643071186421 0.033873876680930455 0.05531092330136083 -0.051101987734436999 -0.036680494695901872 0.033853161188237599
leaf_weight=27 20 20 21 23 32 22 36 37 26 20 30 21 20 24 21 33 20 20 33
leaf_count=27 20 20 21 23 32 22 36 37 26 20 30 21 20 24 21 33 20 20 33
internal_value=0 0.0450808 0.00742921 -0.0176555 -0.0302026 0.00807575 -0.00912568 -0.0207535 -0.0130876 -0.00473452 0.00224391 0.00867565 0.0200745 0.00919369 -0.0267879 0.0256397 -0.00699726 -0.00054289 0.00847809
internal_weight=0 203 183 156 303 133 112 283 251 225 205 90 127 107 78 69 77 41 57
internal_count=506 203 183 156 303 133 112 283 251 225 205 90 127 107 78 69 77 41 57
is_linear=0
shrinkage=0.1


Tree=31
num_leaves=18
num_cat=0
split_feature=4 10 11 0 1 11 0 6 10 4 0 4 1 3 10 10 5
split_gain=63.2728 62.5188 22.8983 15.5583 18.4329 13.2068 25.1956 22.7556 14.1192 13.0441 6.30446 8.56379 7.31037 5.80332 5.39323 6.97975 7.2527
threshold=1.4784000000000004 7.7280000000000006 222.50000000000003 97.950000000000017 105.24000000000001 274.50000000000006 49.800000000000004 5.0600000000000014 6.6050000000000013 1.7508500000000002 36.70000000000001 5.4972000000000003 354.62500000000006 0.12697000000000003 5.7580000000000009 6.1750000000000016 10.300000000000002
decision_type=2 2 2 2 2 2 2 2 2 2 2 2 2 2 2 2 2
left_child=-1 2 -2 4 -4 6 -6 -7 10 -5 11 -9 -12 -14 -15 16 -16
right_child=1 -3 3 9 5 7 -8 8 -10 -11 12 -13 13 14 15 -17 -18
leaf_value=0.14610603355935642 0.076541732519865041 0.15609177249399098 -0.096551299267090288 -0.014996118098497392 0.0075295305448687738 -0.10040135951269241 -0.11545990846089778 0.080829744837246836 0.064170721447781506 -0.12154761864631265 -0.052211280624297529 -0.0086425068950199569 -0.0356191221314172 -0.029186262700844696 0.013805774779933873 -0.012121322861797103 0.086957236023052886
leaf_weight=28 25 22 26 20 36 21 31 20 38 27 33 23 36 27 33 37 23
leaf_count=28 25 22 26 20 36 21 31 20 38 27 33 23 36 27 33 37 23
internal_value=0 -0.00855851 -0.0165022 -0.0218991 -0.0152521 -0.00934774 -0.049376 -0.0001316 0.00766716 -0.0762066 -0.00158773 0.0329725 -0.00945064 -0.000405125 0.0101591 0.0215819 0.0438501
internal_weight=0 478 456 431 384 358 67 291 270 47 232 43 189 156 120 93 56
internal_count=506 478 456 431 384 358 67 291 270 47 232 43 189 156 120 93 56
is_linear=0
shrinkage=0.1


Tree=32
num_leaves=20
num_cat=0
split_feature=7 4 10 4 1 10 11 8 5 6 11 10 1 5 0 1 4 6 10
split_gain=53.1605 231.732 103.462 28.0411 25.6805 17.471 17.3561 10.5686 17.3922 15.9151 14.3711 10.5702 9.88394 7.88213 7.44358 6.97617 6.80965 4.08749 1.02246
threshold=0.6695000000000001 1.7508500000000002 7.7280000000000006 1.5224500000000003 362.63500000000005 6.2495000000000003 222.50000000000003 17.700000000000006 3.4250000000000003 5.7350000000000003 274.50000000000006 6.3165000000000004 387.91500000000002 6.3050000000000006 45.650000000000013 354.62500000000006 2.4579000000000004 14.645000000000001 6.0935000000000006
decision_type=2 2 2 2 2 2 2 2 2 2 2 2 2 2 2 2 2 2 2
left_child=1 -1 4 -2 16 15 -6 8 -8 -9 -11 14 -10 -14 -12 -5 -3 18 -16
right_child=3 2 -4 5 6 -7 7 9 12 10 11 -13 13 -15 17 -17 -18 -19 -20
leaf_value=0.34806664753239602 -0.17094481619307772 -0.1254427732391791 0.21477086217630481 -0.038578075733359744 0.077896208874881273 -0.093328013555968523 -0.05944235522377616 -0.10877149055479095 0.094690162485296089 -0.072896125497679945 0.032633290626108646 0.047175913548895297 -0.010774042722033828 0.066784374574199321 -0.063135584701712308 0.038492395728826526 -0.044819419980049138 -0.0043620955418137942 -0.03346837309322187
leaf_weight=20 20 22 21 23 24 34 24 20 22 34 24 35 38 20 26 24 20 34 21
leaf_count=20 20 22 21 23 24 34 24 20 22 34 24 35 38 20 26 24 20 34 21
internal_value=0 0.0161865 -0.00105404 -0.0649062 -0.0135055 -0.0387238 -0.00391262 -0.0105013 0.0152196 -0.0242898 -0.0145792 -0.000416545 0.0376182 0.0159702 -0.0162807 0.000777059 -0.0870507 -0.0307737 -0.04988
internal_weight=0 405 385 101 364 81 322 298 104 194 174 140 80 58 105 47 42 81 47
internal_count=506 405 385 101 364 81 322 298 104 194 174 140 80 58 105 47 42 81 47
is_linear=0
shrinkage=0.1


Tree=33
num_leaves=20
num_cat=0
split_feature=4 8 10 6 11 0 1 10 7 3 1 6 10 1 3 6 0 4 0
split_gain=46.4097 48.5239 95.4116 43.116 20.0692 13.0849 11.9291 11.8041 11.0673 9.10974 8.29692 8.2518 7.90178 6.435 6.118 4.23252 6.21294 7.66496 2.58673
threshold=1.4327500000000002 17.850000000000005 7.4795000000000007 5.660000000000001 254.50000000000003 45.050000000000004 392.71500000000009 6.0440000000000014 0.46650000000000008 0.22948000000000005 388.29500000000007 7.8900000000000015 5.4080000000000004 368.40500000000003 0.069620000000000015 9.0600000000000005 87.350000000000009 2.1647500000000002 77.750000000000014
decision_type=2 2 2 2 2 2 2 2 2 2 2 2 2 2 2 2 2 2 2
left_child=-1 2 4 -3 -2 8 10 9 -5 -7 11 -6 -11 -14 -8 -9 18 -18 -17
right_child=1 3 -4 5 6 7 14 15 -10 12 -12 -13 13 -15 -16 16 17 -19 -20
leaf_value=0.14204975027929653 0.097449272906496409 -0.161561185595296 0.22597165570958802 -0.012817951625791088 -0.061527930460870267 -0.092701508019220183 -0.0070830020308494572 -0.045998322380625685 0.082504772465853471 0.019982142746448519 -0.083796768991843518 0.020860010655897279 -0.091399191956861622 -0.024550484979732168 0.061569220883150901 0.006965936365581695 0.017459033840689166 -0.05463866624825945 0.057216684436425573
leaf_weight=22 21 23 23 29 20 37 25 23 21 21 23 31 24 36 27 21 29 30 20
leaf_count=22 21 23 23 29 20 37 25 23 21 21 23 31 24 36 27 21 29 30 20
internal_value=0 -0.00645681 0.0365756 -0.0297546 0.00694221 -0.0193369 -0.0081423 -0.0289955 0.0272176 -0.0515909 -0.0339355 -0.011449 -0.032812 -0.05129 0.0285633 -0.00731863 0.0015777 -0.0192008 0.0314785
internal_weight=0 484 170 314 147 291 126 241 50 118 74 51 81 60 52 123 100 59 41
internal_count=506 484 170 314 147 291 126 241 50 118 74 51 81 60 52 123 100 59 41
is_linear=0
shrinkage=0.1


Tree=34
num_leaves=19
num_cat=0
split_feature=3 4 5 11 10 4 9 1 5 8 6 0 10 3 4 0 8 10
split_gain=44.8792 167.371 40.228 43.2744 29.1965 28.381 22.9235 22.3065 19.6427 13.3244 20.4686 20.5978 7.16762 7.24195 5.85852 10.9543 4.39794 2.76457
threshold=15.718000000000002 1.5313500000000002 4.8950000000000005 264.50000000000006 7.1940000000000008 1.9283000000000003 3.5000000000000004 354.62500000000006 3.4250000000000003 16.500000000000004 5.5100000000000007 36.000000000000007 5.9220000000000015 0.78805500000000006 3.2986000000000004 82.550000000000011 19.650000000000002 6.2245000000000008
decision_type=2 2 2 2 2 2 2 2 2 2 2 2 2 2 2 2 2 2
left_child=1 -1 3 4 -3 7 -7 -4 -5 -8 -11 -12 13 -13 15 -14 -16 -17
right_child=-2 2 5 8 -6 6 9 -9 -10 10 11 12 14 -15 16 17 -18 -19
leaf_value=0.27014775708641697 -0.12796207554638386 0.048093549563334538 -0.17540300022810698 -0.051796709879850737 0.20662584056456887 -0.09625206750271649 0.060141856993238131 -0.036065558978804833 0.061753508388996126 -0.10247469754381613 0.084138695195317276 -0.013847483623151977 0.076650731671940198 -0.091532456576824184 -0.00085267274442947277 0.022013481771168505 -0.055845629065655746 -0.021699828033645951
leaf_weight=23 26 26 20 39 21 29 30 27 25 22 25 30 22 20 33 23 26 39
leaf_count=23 26 26 20 39 21 29 30 27 25 22 25 30 22 20 33 23 26 39
internal_value=0 0.00693128 -0.00631594 0.0460661 0.118927 -0.0231206 -0.0117655 -0.0953581 -0.00744116 -0.00269106 -0.0105452 -0.00126788 -0.0123309 -0.0449215 -0.000935606 0.0160278 -0.0250869 -0.0054836
internal_weight=0 480 457 111 47 346 299 47 64 270 240 218 193 50 143 84 59 62
internal_count=506 480 457 111 47 346 299 47 64 270 240 218 193 50 143 84 59 62
is_linear=0
shrinkage=0.1


Tree=35
num_leaves=19
num_cat=0
split_feature=6 0 4 5 11 5 6 3 10 7 4 3 4 3 0 6 0 0
split_gain=40.3946 178.159 54.1344 50.859 26.3082 30.8683 22.2772 8.81278 12.923 7.5623 10.1135 13.8405 7.95373 9.42278 5.9394 5.92052 6.79157 9.74708
threshold=9.5350000000000019 89.550000000000011 1.4577500000000003 9.7950000000000017 264.50000000000006 4.4400000000000004 4.9750000000000005 0.057845000000000001 6.4860000000000015 0.71550000000000014 2.0685500000000006 12.524750000000003 6.0721500000000006 1.1286950000000002 86.000000000000014 10.805000000000001 69.300000000000011 86.700000000000017
decision_type=2 2 2 2 2 2 2 2 2 2 2 2 2 2 2 2 2 2
left_child=1 3 -2 4 5 -1 -6 -8 -9 10 11 -4 13 15 -15 -12 -17 -18
right_child=2 -3 9 -5 6 -7 7 8 -10 -11 12 -13 -14 14 -16 16 17 -19
leaf_value=0.14870754066854716 -0.18212538044899704 0.31789707355201247 -0.092768635342104569 -0.12898190224170686 -0.085616878389667431 -0.0001610767382841844 -0.017252809915578728 0.00032868992699229202 0.1102386911213398 0.031623638612883434 -0.021045509154169723 0.0079077404331077232 -0.063413185579702255 0.0073907549614491671 -0.058025745498016479 0.073723934103663152 -0.039858693900433458 0.046072399096958566
leaf_weight=30 20 20 36 25 26 26 33 23 20 35 29 22 22 23 35 26 22 33
leaf_count=30 20 20 36 25 26 26 33 23 20 35 29 22 22 23 35 26 22 33
internal_value=0 0.0345191 -0.0231267 0.00354887 0.0245189 0.07959 -0.00571616 0.0216183 0.0514496 -0.01189 -0.0180311 -0.054581 -0.0068737 0.000530278 -0.0320847 0.0177273 0.0316089 0.0117
internal_weight=0 203 303 183 158 56 102 76 43 283 248 58 190 168 58 110 81 55
internal_count=506 203 303 183 158 56 102 76 43 283 248 58 190 168 58 110 81 55
is_linear=0
shrinkage=0.1


Tree=36
num_leaves=20
num_cat=0
split_feature=4 8 10 6 11 1 0 7 6 7 11 8 1 1 4 4 3 8 6
split_gain=35.5193 30.1214 64.3742 35.2272 14.2295 10.1423 9.23445 9.87281 10.0538 8.02818 7.44601 7.68063 6.80734 7.74061 6.79293 7.39696 6.17736 4.0189 1.7842
threshold=1.4784000000000004 17.850000000000005 7.4795000000000007 5.660000000000001 254.50000000000003 392.71500000000009 45.050000000000004 0.71550000000000014 23.645000000000007 0.46650000000000008 274.50000000000006 19.150000000000002 388.29500000000007 371.90000000000003 2.9393500000000006 2.4579000000000004 5.5111050000000015 16.050000000000004 12.965000000000002
decision_type=2 2 2 2 2 2 2 2 2 2 2 2 2 2 2 2 2 2 2
left_child=-1 2 4 -3 -2 12 9 8 10 -5 -8 -12 13 -6 15 16 -13 -7 -16
right_child=1 3 -4 6 5 17 7 -9 -10 -11 11 14 -14 -15 18 -17 -18 -19 -20
leaf_value=0.10946920295911176 0.079201505723453705 -0.14404074219257937 0.18302934403004856 -0.010461945806084009 -0.04905476559485708 0.057766192951904875 -0.070332165434956559 0.034455315883343038 -0.090391028292477138 0.070724779810933835 0.031154239748915038 0.0068450535048863717 -0.080296473340554675 0.029239466073720351 -0.038092093430459502 0.036496939353644849 -0.056582618855378214 0.0011077639736956166 -0.080331839583814152
leaf_weight=28 21 23 23 29 28 21 28 26 25 21 30 28 22 23 20 25 34 31 20
leaf_count=28 21 23 23 29 28 21 28 26 25 21 30 28 22 23 20 25 34 31 20
internal_value=0 -0.00641242 0.0275313 -0.0249771 0.00303503 -0.00976094 -0.0154021 -0.0236729 -0.0308698 0.0236365 -0.0228264 -0.014354 -0.033802 -0.0137456 -0.025104 -0.00942212 -0.0279379 0.0239891 -0.059212
internal_weight=0 478 169 309 146 125 286 236 210 50 185 157 73 51 127 87 62 52 40
internal_count=506 478 169 309 146 125 286 236 210 50 185 157 73 51 127 87 62 52 40
is_linear=0
shrinkage=0.1


Tree=37
num_leaves=20
num_cat=0
split_feature=7 4 10 4 7 6 10 4 10 3 8 5 1 5 6 10 4 3 5
split_gain=34.7075 158.68 48.223 29.65 16.6083 17.591 14.991 14.777 14.4193 10.8687 10.9502 9.58071 7.40452 6.6782 5.78627 7.04458 5.53129 4.34106 2.67584
threshold=0.6695000000000001 1.7508500000000002 7.7280000000000006 1.5224500000000003 0.52800000000000014 8.3450000000000006 5.8530000000000006 6.0721500000000006 6.2495000000000003 0.050020000000000002 16.850000000000005 5.160000000000001 393.23500000000007 8.3500000000000032 12.020000000000001 6.0035000000000007 7.3184500000000012 7.0365050000000009 6.660000000000001
decision_type=2 2 2 2 2 2 2 2 2 2 2 2 2 2 2 2 2 2 2
left_child=1 -1 4 -2 7 -6 -7 9 17 -3 -11 -12 16 18 -8 -16 -9 -5 -13
right_child=3 2 -4 8 5 6 14 12 -10 10 11 13 -14 -15 15 -17 -18 -19 -20
leaf_value=0.2877090772986412 -0.16148318581283094 -0.03275071740723573 0.14615817289976848 0.044179955834434154 -0.12406781297177077 -0.077040558755397795 0.042507321181862311 -0.016549117338250985 -0.075128357249366895 0.10415413390312876 0.08285166418010538 0.0060002006590366367 0.0071491384050912325 0.042947760685638062 0.021918433274214083 -0.049198715860644976 -0.085300412446260465 -0.016949493480989567 -0.042878638289957527
leaf_weight=20 20 26 21 21 20 35 24 22 34 21 22 24 36 32 26 30 25 26 21
leaf_count=20 20 26 21 21 20 35 24 22 34 21 22 24 36 32 26 30 25 26 21
internal_value=0 0.0130789 -0.00118765 -0.0524449 -0.00968837 -0.0375088 -0.022455 0.00671229 -0.0255219 0.0258653 0.0385655 0.0246527 -0.0269786 0.00802444 0.00142617 -0.01618 -0.053119 0.0103637 -0.0168099
internal_weight=0 405 385 101 364 135 115 229 81 146 120 99 83 77 80 56 47 47 45
internal_count=506 405 385 101 364 135 115 229 81 146 120 99 83 77 80 56 47 47 45
is_linear=0
shrinkage=0.1


Tree=38
num_leaves=20
num_cat=0
split_feature=3 4 1 8 6 4 0 9 4 6 4 7 1 7 3 11 0 0 3
split_gain=31.4449 119.68 22.7383 41.7579 25.8048 21.0943 12.7698 18.1429 16.0535 8.44781 11.8537 8.61291 7.80152 5.36779 5.34454 4.7232 4.00362 3.08985 2.47042
threshold=15.718000000000002 1.5224500000000003 354.62500000000006 14.750000000000002 3.9900000000000007 1.9071500000000003 64.90000000000002 3.5000000000000004 3.6522500000000004 7.4750000000000005 6.5450500000000007 0.44750000000000006 386.51500000000004 0.60100000000000009 0.12299 387.50000000000006 84.65000000000002 40.050000000000004 0.54251000000000016
decision_type=2 2 2 2 2 2 2 2 2 2 2 2 2 2 2 2 2 2 2
left_child=1 -1 5 -4 -5 -3 8 -8 -6 10 11 -10 -9 -7 17 16 -14 -11 -17
right_child=-2 2 3 4 6 13 7 12 9 14 -12 -13 15 -15 -16 18 -18 -19 -20
leaf_value=0.24527350354008376 -0.10711096995151961 -0.14075726625465212 0.12032605606484517 -0.1147989722713828 0.10611076161265375 -0.061455341428518301 -0.093742774914090457 0.038866743281045384 0.10648825590809186 -0.0027334851771593097 -0.022864861025110539 0.019864505732601342 -0.019698932522442193 0.0054263201705180113 0.022860290882764041 -0.062392432716759774 0.032588289947145514 -0.054196517169475558 -0.019628543156265679
leaf_weight=20 26 21 29 20 20 20 26 34 24 20 23 22 32 30 27 22 27 28 35
leaf_count=20 26 21 29 20 20 20 26 34 24 20 23 22 32 30 27 22 27 28 35
internal_value=0 0.00580184 -0.00460997 0.00488852 -0.00441061 -0.056651 0.00208282 -0.0166248 0.0221592 0.0104993 0.0357514 0.0650595 -0.00325764 -0.0213263 -0.0127326 -0.0156044 0.00422912 -0.0327536 -0.0361339
internal_weight=0 480 460 389 360 71 340 176 164 144 69 46 150 50 75 116 59 48 57
internal_count=506 480 460 389 360 71 340 176 164 144 69 46 150 50 75 116 59 48 57
is_linear=0
shrinkage=0.1


Tree=39
num_leaves=19
num_cat=0
split_feature=7 4 10 4 10 7 6 10 4 3 5 5 7 1 8 10 10 3
split_gain=25.963 119.413 37.6381 27.5581 12.9265 12.774 15.0141 11.911 11.4186 8.15296 8.16361 8.08976 6.74256 6.22418 5.98761 4.52727 7.72703 3.56186
threshold=0.6695000000000001 1.7508500000000002 7.7280000000000006 1.5224500000000003 6.2495000000000003 0.52800000000000014 8.3450000000000006 5.8530000000000006 6.0721500000000006 0.050020000000000002 5.160000000000001 7.6250000000000009 0.43745000000000006 386.21500000000003 17.850000000000005 6.3165000000000004 6.0035000000000007 7.0365050000000009
decision_type=2 2 2 2 2 2 2 2 2 2 2 2 2 2 2 2 2 2
left_child=1 -1 5 -2 17 8 -7 -8 9 -3 -11 14 13 -10 -12 16 -9 -5
right_child=3 2 -4 4 -6 6 7 15 12 10 11 -13 -14 -15 -16 -17 -18 -19
leaf_value=0.24955176025629044 -0.15048106975853445 -0.028121777917616643 0.12910986077927408 0.045204990765168554 -0.066372204731006232 -0.11294092010706663 -0.067721296657941174 0.02167389268248246 -0.049320101471883912 0.075127304016667257 0.030777962915599345 0.050914750448786295 -0.068495143561934438 0.018516753167894327 -0.041412313241097669 0.037506320685148239 -0.053402231662319256 -0.010167116151065924
leaf_weight=20 20 26 21 21 34 20 35 29 21 34 20 39 24 38 27 25 26 26
leaf_count=20 20 26 21 21 34 20 35 29 21 34 20 39 24 38 27 25 26 26
internal_value=0 0.0113119 -0.0010642 -0.0453596 -0.0194036 -0.00857425 -0.0329727 -0.0190652 0.00580915 0.0226456 0.0336453 0.0172454 -0.0238069 -0.00562857 -0.010693 0.00222179 -0.0138166 0.0145736
internal_weight=0 405 385 101 81 364 135 115 229 146 120 86 83 59 47 80 55 47
internal_count=506 405 385 101 81 364 135 115 229 146 120 86 83 59 47 80 55 47
is_linear=0
shrinkage=0.1


Tree=40
num_leaves=20
num_cat=0
split_feature=3 4 1 8 6 6 7 0 6 4 11 5 1 0 1 1 6 10 0
split_gain=24.6148 84.2545 17.9552 31.683 23.6368 17.9042 11.2752 10.4154 17.9373 8.87081 7.39653 8.57532 5.85892 5.32771 8.29993 4.64765 7.7428 3.28609 2.16813
threshold=17.339250000000003 1.5136000000000001 368.40500000000003 14.750000000000002 3.9900000000000007 13.275 0.61150000000000004 64.90000000000002 7.8900000000000015 3.8611500000000007 332.00000000000006 4.8950000000000005 105.24000000000001 98.050000000000011 387.91500000000002 390.66000000000003 8.6300000000000008 6.3810000000000011 88.450000000000017
decision_type=2 2 2 2 2 2 2 2 2 2 2 2 2 2 2 2 2 2 2
left_child=1 -1 5 -4 -5 -3 -7 9 -9 -6 11 -11 -8 14 -10 -13 -17 18 -16
right_child=-2 2 3 4 7 6 12 8 13 10 -12 15 -14 -15 17 16 -18 -19 -20
leaf_value=0.20576779641211035 -0.10107229727765787 -0.12061400368161823 0.11205263381394058 -0.10792192965745927 0.075820126298528467 -0.077357996929259543 -0.026788012743927538 -0.089617321869501707 0.056851229164749384 0.077990276502290123 -0.027520060842590673 0.046744382089894752 0.047995719008825044 -0.042457487744589649 -0.031181540550329748 0.027122966142307071 -0.05057109147310257 0.030661129616200922 0.0033672177616287679
leaf_weight=20 23 23 26 20 26 21 20 26 28 24 35 23 22 24 39 29 23 20 34
leaf_count=20 23 23 26 20 26 21 20 26 28 24 35 23 22 24 39 29 23 20 34
internal_value=0 0.00481297 -0.00386759 0.00553794 -0.00235204 -0.0450988 -0.0175297 0.0040268 -0.013132 0.0223652 0.0119934 0.0259628 0.0123844 0.000582639 0.00911952 0.00931402 -0.00724171 -0.00525131 -0.0150903
internal_weight=0 483 463 377 351 86 63 331 171 160 134 99 42 145 121 75 52 93 73
internal_count=506 483 463 377 351 86 63 331 171 160 134 99 42 145 121 75 52 93 73
is_linear=0
shrinkage=0.1


Tree=41
num_leaves=18
num_cat=0
split_feature=6 4 11 10 6 1 0 1 3 7 6 10 12 10 3 7 0
split_gain=25.0599 65.0978 16.0381 27.387 11.8691 8.52235 7.11435 7.01237 9.69992 11.223 6.4965 5.27929 3.86489 2.7519 7.00517 8.68204 5.41037
threshold=26.795000000000005 1.5224500000000003 264.50000000000006 7.221000000000001 5.3100000000000014 395.61000000000007 98.250000000000014 105.24000000000001 0.11915000000000002 0.45100000000000007 7.5500000000000007 6.4055000000000009 21.500000000000004 6.1750000000000016 3.6856650000000006 0.53500000000000014 79.450000000000017
decision_type=2 2 2 2 2 2 2 2 2 2 2 2 2 2 2 2 2
left_child=1 -1 3 5 12 -3 7 -6 9 10 -9 13 -4 14 15 -10 -17
right_child=-2 2 4 -5 6 -7 -8 8 11 -11 -12 -13 -14 -15 -16 16 -18
leaf_value=0.1773501368239522 -0.095619956919780147 -0.025768537628345002 -0.094338159412145628 0.13532897766147342 -0.051577958241105087 0.046542692503758837 -0.051190904023185858 0.044263586781919002 0.046063937729923059 -0.063465308292936048 -0.02587042964462723 0.056195411558166666 -0.032169930152595047 -0.014086468734249874 0.062979238107800484 0.019260543779186581 -0.042829813209310591
leaf_weight=21 26 39 20 21 25 28 31 25 32 39 28 29 20 37 26 23 36
leaf_count=21 26 39 20 21 25 28 31 25 32 39 28 29 20 37 26 23 36
internal_value=0 0.00517941 -0.00269768 0.0356833 -0.0118015 0.00445108 -0.0055837 -0.000870951 0.00373878 -0.0227492 0.00721165 0.0170552 -0.063254 0.00968458 0.0172019 0.00412269 -0.0186251
internal_weight=0 480 459 88 371 67 331 300 275 92 53 183 40 154 117 91 59
internal_count=506 480 459 88 371 67 331 300 275 92 53 183 40 154 117 91 59
is_linear=0
shrinkage=0.1


Tree=42
num_leaves=21
num_cat=0
split_feature=6 0 4 0 10 6 3 8 7 7 7 0 4 6 4 1 0 11 9 0
split_gain=21.7171 113.913 67.0273 39.9056 17.0552 15.6185 8.342 16.0044 5.88799 5.46394 4.49957 7.37471 7.09761 9.49522 6.96506 4.70517 3.01435 2.99013 2.86931 2.34576
threshold=9.5350000000000019 89.550000000000011 1.4577500000000003 74.65000000000002 7.1210000000000013 4.8450000000000006 0.053660000000000006 18.250000000000004 0.43200000000000005 0.71550000000000014 0.6070000000000001 97.950000000000017 3.9258500000000005 17.590000000000003 2.8954500000000007 392.31500000000005 74.100000000000009 304.50000000000006 5.5000000000000009 47.300000000000004
decision_type=2 2 2 2 2 2 2 2 2 2 2 2 2 2 2 2 2 2 2 2
left_child=1 3 -2 4 5 -1 8 -8 -7 10 12 15 13 14 18 -12 19 -9 -4 -14
right_child=2 -3 9 -5 -6 6 7 17 -10 -11 11 -13 16 -15 -16 -17 -18 -19 -20 -21
leaf_value=-0.073985116691751923 -0.19387952936813235 0.25190515708178285 -0.0021941327489912511 -0.11684915073215962 0.084315369138494134 0.022481273701414468 0.1080728223628324 -0.023956000482430684 -0.053332952957689056 0.032533443790993523 0.015818276074851919 -0.069340714452595542 -0.031003980338573458 0.071935567756493887 0.038294675254396032 -0.045308291018009185 -0.049131518512450421 0.030726126208901406 -0.053479628227651121 0.017429066523909572
leaf_weight=22 20 20 24 25 32 20 23 20 21 35 34 29 20 24 28 20 29 20 20 20
leaf_count=22 20 20 24 25 32 20 23 20 21 35 34 29 20 24 28 20 29 20 20 20
internal_value=0 0.0253104 -0.0169571 0.000545909 0.0191211 0.0025638 0.0187568 0.0416044 -0.0163504 -0.00445376 -0.00967373 -0.0286654 -0.000120361 0.017463 -0.000694456 -0.00682119 -0.0245842 0.00338506 -0.0255057 -0.00678746
internal_weight=0 203 303 183 158 126 104 63 41 283 248 83 165 96 72 54 69 40 44 40
internal_count=506 203 303 183 158 126 104 63 41 283 248 83 165 96 72 54 69 40 44 40
is_linear=0
shrinkage=0.1


Tree=43
num_leaves=20
num_cat=0
split_feature=6 0 4 0 10 6 3 8 10 11 4 7 4 6 0 9 0 6 6
split_gain=17.5908 92.2699 54.2921 33.4249 23.6476 12.2138 6.61764 13.7179 5.03581 4.47768 4.29334 6.50672 4.24147 4.68907 3.9085 3.58959 2.73662 2.21206 1.5624
threshold=9.5350000000000019 89.550000000000011 1.4577500000000003 71.15000000000002 7.1210000000000013 4.8450000000000006 0.066025000000000014 18.350000000000005 6.3810000000000011 291.00000000000006 2.0037000000000007 0.69650000000000001 3.9258500000000005 17.590000000000003 81.750000000000014 4.5000000000000009 52.400000000000006 12.865 13.185000000000002
decision_type=2 2 2 2 2 2 2 2 2 2 2 2 2 2 2 2 2 2 2
left_child=1 3 -2 4 5 -1 9 -8 10 -7 11 -4 13 15 16 -12 -14 -17 -10
right_child=2 -3 8 -5 -6 6 7 -9 18 -11 12 -13 14 -15 -16 17 -18 -19 -20
leaf_value=-0.066586604561995374 -0.17449157246854158 0.226714648604393 -0.060318047284252121 -0.09234608630649746 0.10133373673266635 0.017032043415831418 0.10539601237978787 -0.00017751052509993315 0.003137833029031754 -0.044266365603967149 0.034247846617585141 0.0046228400811001115 -0.028357467924555142 0.048207753002643586 -0.058906785901635887 0.010563815154297197 0.021728147044777872 -0.028928180109407453 0.039221064948166413
leaf_weight=22 20 20 36 32 29 26 20 32 20 22 21 27 24 25 20 23 20 37 30
leaf_count=22 20 20 36 32 29 26 20 32 20 22 21 27 24 25 20 23 20 37 30
internal_value=0 0.0227793 -0.0152614 0.000491319 0.0201655 0.000871375 0.0157121 0.0404277 -0.00400838 -0.0110631 -0.0101878 -0.0324862 -0.00192428 0.0103493 -0.0222524 -0.00133543 -0.00559128 -0.0137896 0.0247878
internal_weight=0 203 303 183 151 122 100 52 283 48 233 63 170 106 64 81 44 60 50
internal_count=506 203 303 183 151 122 100 52 283 48 233 63 170 106 64 81 44 60 50
is_linear=0
shrinkage=0.1


Tree=44
num_leaves=19
num_cat=0
split_feature=4 0 4 6 5 12 4 10 3 10 4 3 4 5 3 4 10 1
split_gain=20.0554 12.5543 20.6681 16.2548 30.3261 16.1521 12.8734 9.87981 9.52817 8.28062 7.75403 7.56484 6.95983 4.94661 5.29714 4.32779 3.60621 2.79259
threshold=1.4327500000000002 41.300000000000004 6.5450500000000007 9.0600000000000005 9.7950000000000017 37.500000000000007 3.2074500000000001 6.0440000000000014 0.19729500000000003 6.6895000000000007 4.9906000000000015 12.524750000000003 2.0685500000000006 9.7950000000000017 5.6808650000000007 3.0407000000000006 6.4000000000000012 389.41500000000002
decision_type=2 2 2 2 2 2 2 2 2 2 2 2 2 2 2 2 2 2
left_child=-1 2 5 4 6 10 -3 11 -9 -8 -2 12 -5 -10 -15 -14 -16 -17
right_child=1 3 -4 7 -6 -7 9 8 13 -11 -12 -13 15 14 16 17 -18 -19
leaf_value=0.093379443308169205 0.070571729150556387 0.045677361772819003 -0.034575261686665887 -0.065040382299874286 -0.15233119319785726 0.12283209332575401 -0.0038015616465021267 0.068027776082356772 -0.04067384149180725 -0.089616416597171969 -0.0081283115932056973 0.034963224811310117 0.013954809661954642 0.042142266221344475 -0.037455658648501748 -0.060839288979768757 0.0198013997213407 -0.013747452035108033
leaf_weight=22 21 22 39 37 22 24 22 30 20 23 31 22 35 38 22 20 22 34
leaf_count=22 21 22 39 37 22 24 22 30 20 23 31 22 35 38 22 20 22 34
internal_value=0 -0.00424452 0.0246049 -0.0132355 -0.0504629 0.0549737 -0.0170136 -0.00140255 0.0184876 -0.0476625 0.0236544 -0.0191425 -0.0285895 0.00391702 0.0147928 -0.0134357 -0.00882713 -0.0311889
internal_weight=0 484 115 369 89 76 67 280 132 45 52 148 126 102 82 89 44 54
internal_count=506 484 115 369 89 76 67 280 132 45 52 148 126 102 82 89 44 54
is_linear=0
shrinkage=0.1


Tree=45
num_leaves=19
num_cat=0
split_feature=4 0 4 8 6 5 4 10 3 6 4 3 4 4 0 4 4 9
split_gain=16.2448 10.1689 16.7412 13.9012 13.1664 24.5641 10.4275 8.00264 7.71782 7.02267 6.37422 6.12752 5.63746 4.54281 5.3923 3.50551 2.50154 2.47724
threshold=1.4327500000000002 41.300000000000004 6.5450500000000007 16.050000000000004 9.0600000000000005 9.7950000000000017 3.2074500000000001 6.0440000000000014 0.19729500000000003 6.0950000000000015 4.9906000000000015 12.524750000000003 2.0685500000000006 2.1777500000000005 91.65000000000002 3.0407000000000006 1.9478000000000002 4.5000000000000009
decision_type=2 2 2 2 2 2 2 2 2 2 2 2 2 2 2 2 2 2
left_child=-1 2 3 -2 5 6 -3 11 -9 -8 -5 12 -6 16 -15 -14 -10 -17
right_child=1 4 -4 10 7 -7 9 8 13 -11 -12 -13 15 14 -16 17 -18 -19
leaf_value=0.084041496433995 0.12104083978570999 0.041109622405333952 -0.0311177357696952 0.064329750220412804 -0.058536344499805493 -0.13709807314655997 -0.087063448037952185 0.061224999030431118 0.004680595885623585 -0.007562471803277732 -0.0042485479942776941 0.031466902352192183 0.012559329691742147 0.0079827350907419863 -0.055158291987719987 -0.010310767852934078 0.052932814827987132 -0.053901574455878953
leaf_weight=22 20 22 39 23 37 22 20 30 22 25 33 22 35 38 21 32 21 22
leaf_count=22 20 22 39 23 37 22 20 30 22 25 33 22 35 38 21 32 21 22
internal_value=0 -0.00382007 0.0221444 0.0494763 -0.011912 -0.0454166 -0.0153122 -0.0012623 0.0166389 -0.0428962 0.0239175 -0.0172282 -0.0257305 0.00352531 -0.0144912 -0.0120922 0.0282456 -0.02807
internal_weight=0 484 115 76 369 89 67 280 132 45 56 148 126 102 59 89 43 54
internal_count=506 484 115 76 369 89 67 280 132 45 56 148 126 102 59 89 43 54
is_linear=0
shrinkage=0.1


Tree=46
num_leaves=20
num_cat=0
split_feature=3 4 1 10 1 6 1 0 12 10 7 3 7 0 1 1 11 4 0
split_gain=17.301 69.9816 15.0261 21.3057 20.6366 10.1338 8.83818 8.56397 8.54823 6.70722 4.99234 11.5541 5.32382 4.87846 5.65691 5.78587 7.48721 4.34837 2.10313
threshold=15.718000000000002 1.5313500000000002 368.40500000000003 7.7280000000000006 338.77500000000003 4.8450000000000006 105.24000000000001 41.300000000000004 15.000000000000002 6.4815000000000014 0.49600000000000005 0.12697000000000003 0.47800000000000004 98.050000000000011 386.51500000000004 392.52500000000003 387.50000000000006 6.2950000000000008 28.600000000000005
decision_type=2 2 2 2 2 2 2 2 2 2 2 2 2 2 2 2 2 2 2
left_child=1 -1 4 5 6 -4 -3 9 10 18 12 -12 -9 14 -13 -16 -17 -10 -7
right_child=-2 2 3 -5 -6 7 -8 8 17 -11 11 13 -14 -15 15 16 -18 -19 -20
leaf_value=0.17450591869166365 -0.079450016411451205 -0.049859416512772446 -0.051167860546627565 0.10202566058862778 -0.11277410764180656 -0.0096064820208332756 0.031943785745118351 -0.0029297473281621935 -0.075031518725597338 0.078757179172142699 -0.056040324462468143 0.062350928240820114 0.068357163447548039 -0.034257436295350392 -0.037612363518300385 0.065495089907199142 -0.0070229892911655564 -0.011275851827813314 0.031395783981886409
leaf_weight=23 26 25 37 21 28 22 28 20 23 23 34 23 22 21 22 24 35 20 29
leaf_count=23 26 25 37 21 28 22 28 20 23 23 34 23 22 21 22 24 35 20 29
internal_value=0 0.00430354 -0.00426244 0.00415372 -0.0433301 -0.00163589 -0.00664263 0.00412727 -0.00491016 0.0339264 0.00374708 -0.00435283 0.034411 0.00970617 0.0185834 0.00615562 0.0224759 -0.0453777 0.0137085
internal_weight=0 480 457 376 81 355 53 318 244 74 201 159 42 125 104 81 59 43 51
internal_count=506 480 457 376 81 355 53 318 244 74 201 159 42 125 104 81 59 43 51
is_linear=0
shrinkage=0.1


Tree=47
num_leaves=18
num_cat=0
split_feature=6 4 11 1 1 8 6 1 3 0 4 4 6 0 5 10 8
split_gain=16.0071 45.866 9.34132 7.65444 24.3134 13.6376 14.6985 12.1516 6.11261 11.1306 17.3223 8.46481 3.48194 3.05678 3.90249 2.16706 2.04575
threshold=26.795000000000005 1.5224500000000003 219.00000000000003 371.90000000000003 338.77500000000003 15.250000000000002 4.5750000000000002 105.24000000000001 0.26888000000000006 87.950000000000017 3.2986000000000004 2.5575500000000004 6.5750000000000011 33.050000000000004 7.0150000000000015 5.9840000000000009 18.950000000000003
decision_type=2 2 2 2 2 2 2 2 2 2 2 2 2 2 2 2 2
left_child=1 -1 -3 4 7 -5 -7 -4 11 10 -10 -8 -13 -14 16 -11 -15
right_child=-2 2 3 5 -6 6 8 -9 9 15 -12 12 13 14 -16 -17 -18
leaf_value=0.14865735371907551 -0.076421419588419109 0.062679177309785575 -0.037674296347956576 0.057668270994173855 -0.098295714191215883 -0.079324740882962944 -0.06713673977748208 0.055490762700459786 0.12638093989342453 0.015073385508731009 0.0045297074730374981 0.024175121664608779 0.018371498331959762 -0.05125192026333774 0.0063233954793152705 -0.025560245056237493 -0.012116562795232643
leaf_weight=21 26 21 28 38 34 25 23 28 20 21 28 38 28 34 36 35 22
leaf_count=21 26 21 28 38 34 25 23 28 20 21 28 38 28 34 36 35 22
internal_value=0 0.00413949 -0.00247243 -0.00559614 -0.031591 0.00112668 -0.00580423 0.00890823 0.000644938 0.0199652 0.0553011 -0.0104562 -0.00220526 -0.010559 -0.019364 -0.0103226 -0.0358773
internal_weight=0 480 459 438 90 348 310 56 285 104 48 181 158 120 92 56 56
internal_count=506 480 459 438 90 348 310 56 285 104 48 181 158 120 92 56 56
is_linear=0
shrinkage=0.1


Tree=48
num_leaves=21
num_cat=0
split_feature=3 4 1 4 10 0 0 6 0 12 9 3 10 7 4 1 7 0 0 4
split_gain=14.7229 47.3395 11.246 18.0702 16.7935 7.00043 6.74772 7.85051 4.58063 7.23957 11.2638 6.75698 6.2998 5.06961 4.14914 5.07468 2.92096 2.87473 2.31052 2.07615
threshold=17.339250000000003 1.5136000000000001 354.62500000000006 1.9071500000000003 7.7280000000000006 98.350000000000009 96.050000000000011 4.8450000000000006 41.300000000000004 1.0000000180025095e-35 2.5000000000000004 0.079230000000000009 6.4815000000000014 0.46200000000000008 3.2986000000000004 391.38500000000005 0.60100000000000009 28.600000000000005 74.100000000000009 2.7533000000000003
decision_type=2 2 2 2 2 2 2 2 2 2 2 2 2 2 2 2 2 2 2 2
left_child=1 -1 3 -3 5 6 7 -4 12 10 -10 -12 17 -11 15 -13 -5 -9 -16 -17
right_child=-2 2 4 16 -6 -7 -8 8 9 13 11 14 -14 -15 18 19 -18 -19 -20 -21
leaf_value=0.15435305856168272 -0.078168413350763535 -0.11455942159518601 -0.044189798527372044 -0.035925132334232328 0.090942738453547167 -0.053213923991036916 0.059017035476863391 -0.018761472202216588 -0.063625053726136679 -0.0070111853148167331 0.066144426361374228 0.065625946670770638 0.069510601315161458 -0.074289998454263526 0.0056869821223829477 -0.010013961940703373 0.013092434397267719 0.028026208379466473 -0.036138790439814328 0.031311629414558416
leaf_weight=20 23 22 37 20 21 24 20 24 20 24 23 20 23 21 28 31 31 29 25 20
leaf_count=20 23 22 37 20 21 24 20 24 20 24 23 20 23 21 28 31 31 29 25 20
internal_value=0 0.00372231 -0.00278442 -0.0388075 0.00395835 -0.00099198 0.00264085 -0.000828453 0.00474228 -0.00280874 0.00678386 0.0163633 0.0258056 -0.038408 0.00712971 0.0229341 -0.00613014 0.00683933 -0.0140422 0.00619215
internal_weight=0 483 463 73 390 369 345 325 288 212 167 147 76 45 124 71 51 53 53 51
internal_count=506 483 463 73 390 369 345 325 288 212 167 147 76 45 124 71 51 53 53 51
is_linear=0
shrinkage=0.1


Tree=49
num_leaves=20
num_cat=0
split_feature=6 0 4 5 6 4 0 4 7 3 4 3 7 5 6 3 1 1 7
split_gain=13.3409 72.6796 64.4713 23.8091 17.7399 25.8451 5.79281 8.05996 4.60911 5.78087 8.09549 3.44099 6.09916 4.23924 4.15033 4.20507 3.34752 2.59168 2.19083
threshold=9.5350000000000019 89.550000000000011 1.4577500000000003 9.7950000000000017 3.8650000000000007 3.3460000000000005 41.300000000000004 5.4334000000000007 0.71550000000000014 13.982050000000003 2.0162500000000003 1.1286950000000002 0.47800000000000004 10.300000000000002 11.570000000000002 0.20892000000000002 333.24500000000006 389.65500000000003 0.46200000000000008
decision_type=2 2 2 2 2 2 2 2 2 2 2 2 2 2 2 2 2 2 2
left_child=1 3 -2 4 -1 -6 7 -7 9 10 -4 12 -12 14 -14 -16 -13 -9 -8
right_child=2 -3 8 -5 5 6 18 17 -10 -11 11 16 13 -15 15 -17 -18 -19 -20
leaf_value=-0.06677555853258009 -0.18680680144578221 0.20083367377519609 -0.054798773473926955 -0.090621742725372323 0.13018005004241354 0.0806221316382289 0.0027806965811621575 -0.022316035684198141 0.032942931268896379 0.043112065829336646 -0.029295286844883646 0.0052179285287857063 -0.027518333718383123 0.056899873159177931 0.056618515469811184 -0.0013592085704721255 -0.04298551389399697 0.023572278599021959 -0.042897555232048037
leaf_weight=23 20 20 35 25 21 20 21 20 35 22 35 25 23 23 22 29 34 32 21
leaf_count=23 20 20 35 25 21 20 21 20 35 22 35 25 23 23 22 29 34 32 21
internal_value=0 0.0198377 -0.0132906 5.67237e-05 0.0144046 0.0282353 0.00945597 0.0266727 -0.00102798 -0.00582226 -0.0105858 -0.00248392 0.00648963 0.0194017 0.00774687 0.0236508 -0.0225603 0.00592293 -0.0200584
internal_weight=0 203 303 183 158 135 114 72 283 248 226 191 132 97 74 51 59 52 42
internal_count=506 203 303 183 158 135 114 72 283 248 226 191 132 97 74 51 59 52 42
is_linear=0
shrinkage=0.1


Tree=50
num_leaves=21
num_cat=0
split_feature=6 7 0 1 4 10 0 4 10 11 11 6 1 11 1 6 10 1 9 10
split_gain=12.38 19.9797 15.557 16.5207 16.3978 9.09197 28.1144 11.7621 7.37023 5.48007 4.50385 5.7457 5.63627 3.29595 5.44674 5.10075 2.68895 2.03798 1.87531 1.57998
threshold=4.6950000000000012 0.46650000000000008 97.600000000000009 369.76000000000005 1.6362000000000003 6.8200000000000012 69.950000000000017 1.7572500000000002 6.5915000000000008 225.00000000000003 276.50000000000006 18.715000000000003 370.75500000000005 351.50000000000006 393.54000000000002 11.855000000000002 6.0250000000000012 305.29500000000002 4.5000000000000009 6.0615000000000014
decision_type=2 2 2 2 2 2 2 2 2 2 2 2 2 2 2 2 2 2 2 2
left_child=1 -1 5 -4 -5 7 -7 -2 9 -9 -11 12 17 14 19 -15 -17 -12 -16 -14
right_child=2 -3 3 4 -6 6 -8 8 -10 10 11 -13 13 15 18 16 -18 -19 -20 -21
leaf_value=-0.0027861545328050855 0.07891043065623804 0.12462454527616501 0.015895380616188049 -0.14979174114941132 -0.027570760606423668 0.04247982709732076 -0.11402462398012479 0.044988564580031067 0.048801589815411717 -0.042381848500420649 -0.017921906765550374 0.043090563382093723 0.019624698469820231 -0.056490424789843112 0.0074036284253515055 0.030604151012375954 -0.017404355707445317 -0.063065927466377611 -0.031314187003722925 0.056690745679256707
leaf_weight=32 22 20 25 21 23 22 24 23 32 30 20 26 23 21 29 20 28 20 22 23
leaf_count=32 22 20 25 21 23 22 24 23 32 30 20 26 23 21 29 20 28 20 22 23
internal_value=0 0.046218 -0.00529369 -0.0490198 -0.0859035 0.00254295 -0.0391747 0.00820375 0.00329666 -0.00181267 -0.00592117 -0.00120643 -0.00679731 0.00132235 0.0132067 -0.0153846 0.00259919 -0.0404939 -0.00929817 0.0381577
internal_weight=0 52 454 69 44 385 46 339 317 285 262 232 206 166 97 69 48 40 51 46
internal_count=506 52 454 69 44 385 46 339 317 285 262 232 206 166 97 69 48 40 51 46
is_linear=0
shrinkage=0.1


end of trees

feature_importances:
LSTAT=159
RM=142
DIS=124
AGE=106
NOX=87
CRIM=86
B=76
TAX=53
PTRATIO=48
INDUS=40
RAD=25
ZN=4

parameters:
[boosting: gbdt]
[objective: regression]
[metric: l2]
[tree_learner: serial]
[device_type: cpu]
[linear_tree: 0]
[data: ]
[valid: ]
[num_iterations: 51]
[learning_rate: 0.1]
[num_leaves: 31]
[num_threads: -1]
[deterministic: 0]
[force_col_wise: 0]
[force_row_wise: 0]
[histogram_pool_size: -1]
[max_depth: -1]
[min_data_in_leaf: 20]
[min_sum_hessian_in_leaf: 0.001]
[bagging_fraction: 1]
[pos_bagging_fraction: 1]
[neg_bagging_fraction: 1]
[bagging_freq: 0]
[bagging_seed: 3]
[feature_fraction: 1]
[feature_fraction_bynode: 1]
[feature_fraction_seed: 2]
[extra_trees: 0]
[extra_seed: 6]
[early_stopping_round: 0]
[first_metric_only: 0]
[max_delta_step: 0]
[lambda_l1: 0]
[lambda_l2: 0]
[linear_lambda: 0]
[min_gain_to_split: 0]
[drop_rate: 0.1]
[max_drop: 50]
[skip_drop: 0.5]
[xgboost_dart_mode: 0]
[uniform_drop: 0]
[drop_seed: 4]
[top_rate: 0.2]
[other_rate: 0.1]
[min_data_per_group: 100]
[max_cat_threshold: 32]
[cat_l2: 10]
[cat_smooth: 10]
[max_cat_to_onehot: 4]
[top_k: 20]
[monotone_constraints: ]
[monotone_constraints_method: basic]
[monotone_penalty: 0]
[feature_contri: ]
[forcedsplits_filename: ]
[refit_decay_rate: 0.9]
[cegb_tradeoff: 1]
[cegb_penalty_split: 0]
[cegb_penalty_feature_lazy: ]
[cegb_penalty_feature_coupled: ]
[path_smooth: 0]
[interaction_constraints: ]
[verbosity: -1]
[saved_feature_importance_type: 0]
[max_bin: 255]
[max_bin_by_feature: ]
[min_data_in_bin: 3]
[bin_construct_sample_cnt: 200000]
[data_random_seed: 1]
[is_enable_sparse: 1]
[enable_bundle: 1]
[use_missing: 1]
[zero_as_missing: 0]
[feature_pre_filter: 1]
[pre_partition: 0]
[two_round: 0]
[header: 0]
[label_column: ]
[weight_column: ]
[group_column: ]
[ignore_column: ]
[categorical_feature: 2]
[forcedbins_filename: ]
[objective_seed: 5]
[num_class: 1]
[is_unbalance: 0]
[scale_pos_weight: 1]
[sigmoid: 1]
[boost_from_average: 1]
[reg_sqrt: 0]
[alpha: 0.9]
[fair_c: 1]
[poisson_max_delta_step: 0.7]
[tweedie_variance_power: 1.5]
[lambdarank_truncation_level: 30]
[lambdarank_norm: 1]
[label_gain: ]
[eval_at: ]
[multi_error_top_k: 1]
[auc_mu_weights: ]
[num_machines: 1]
[local_listen_port: 12400]
[time_out: 120]
[machine_list_filename: ]
[machines: ]
[gpu_platform_id: -1]
[gpu_device_id: -1]
[gpu_use_dp: 0]
[num_gpu: 1]

end of parameters

pandas_categorical:[[0, 1]]
