tree
version=v4
num_class=1
num_tree_per_iteration=1
label_index=0
max_feature_idx=8
objective=binary sigmoid:1
feature_names=Age Employment Education Marital Occupation Income Gender Deductions Hours
feature_infos=[17:83] -1:4:0:2:5:3:1 -1:4:2:1:5:8:0:10:9:14:15:3:7:13:11:6 -1:2:0:1:4:5:3 -1:2:7:1:9:11:10:5:13:0:3:12:8:4 [609.72000000000003:481259.5] -1:1:0 -1:0:1 [1:99]
tree_sizes=4052 5912 5783 5997 5845 6034 5871 5897 5753 5678 5822 5957 5725 5770 5303 5645 5564 5508 5534 5601 5629 5341 5344 5958 5488 5373 6037 5496 5767 5816 5552

Tree=0
num_leaves=31
num_cat=3
split_feature=3 4 0 8 8 8 7 0 5 0 8 8 0 0 5 5 8 5 0 5 5 0 5 0 0 5 5 5 8 5
split_gain=361.371 134.881 24.9509 13.835 11.7551 8.17127 7.8084 6.11853 5.8844 10.6598 6.83837 5.2612 5.15376 4.88231 4.62766 4.44582 4.42574 3.82318 3.55679 3.47276 3.35683 3.0646 2.77087 2.49933 8.62454 5.18427 2.63956 2.42451 2.26075 3.39744
threshold=0 1 31.500000000000004 30.500000000000004 48.500000000000007 41.500000000000007 2 38.500000000000007 56318.030000000006 36.500000000000007 48.500000000000007 41.500000000000007 28.500000000000004 25.500000000000004 27097.545000000002 47640.350000000006 38.500000000000007 32239.695000000003 32.500000000000007 123098.33500000002 40403.080000000009 39.500000000000007 54296.495000000003 31.500000000000004 36.500000000000007 46703.295000000006 20946.475000000002 32623.385000000006 55.500000000000007 29386.665000000005
decision_type=1 9 2 2 2 2 1 2 2 2 2 2 2 2 2 2 2 2 2 2 2 2 2 2 2 2 2 2 2 2
left_child=1 5 11 -4 7 12 8 -2 9 10 -5 22 -1 -6 -7 17 27 -9 -16 -15 -20 -10 -3 -18 -25 26 -26 -14 29 -11
right_child=4 2 3 6 13 14 -8 15 21 28 -12 -13 16 19 18 -17 23 -19 20 -21 -22 -23 -24 24 25 -27 -28 -29 -30 -31
leaf_value=-1.2915606834429865 -1.3003464425259985 -1.2079023876322035 -1.0836734445414333 -1.1379645380139001 -1.3089237259697526 -1.200887016914318 -0.812836796633573 -1.2493932944494113 -0.80381703428200613 -0.96082610230060694 -0.96700535005804744 -1.0221534752050967 -1.1978002537984485 -1.1729747972495401 -1.1826470530478161 -1.271441602419908 -1.1104889542352809 -1.1144576496699703 -1.0231776546721132 -1.2811428579269266 -1.1296923192418427 -0.91672323595338479 -1.0866767816271443 -1.2925820388857374 -1.1237179390175791 -1.0801401067935381 -1.2099781685569475 -1.3089237259697528 -0.98725051705281941 -0.89825002446710656
leaf_weight=5.75935935974121 104.92832833528519 3.9595595598220807 6.6592592597007743 4.6794794797897321 4.3195195198059109 6.479279279708865 5.0394394397735587 5.0394394397735578 3.9595595598220807 14.938338339328764 4.6794794797897339 5.5793793797492981 3.5995995998382559 16.918118119239811 3.9595595598220816 45.354954957962036 5.0394394397735587 3.5995995998382568 6.2992992997169477 3.5995995998382559 5.5793793797492981 6.1193193197250366 3.5995995998382568 6.1193193197250393 4.8594594597816529 6.1193193197250357 13.138538539409636 4.3195195198059082 6.8392392396926871 20.697697699069977
leaf_count=32 583 22 37 26 24 36 28 28 22 83 26 31 20 94 22 252 28 20 35 20 31 34 20 34 27 34 73 24 38 115
internal_value=-1.17814 -1.07081 -0.990497 -0.94621 -1.27121 -1.17963 -0.932538 -1.28627 -0.942281 -0.955875 -1.05248 -1.09581 -1.2027 -1.21229 -1.12969 -1.25892 -1.19086 -1.19317 -1.10057 -1.19195 -1.07321 -0.872367 -1.15018 -1.17569 -1.18656 -1.15965 -1.18669 -1.25841 -0.934588 -0.924481
internal_weight=341.782 158.022 86.7504 73.6118 183.76 71.2721 66.9526 158.922 61.9131 51.8342 9.35896 13.1385 48.9546 24.8372 22.3175 53.994 43.1952 8.63904 15.8382 20.5177 11.8787 10.0789 7.55916 35.2761 30.2366 24.1173 17.998 7.91912 42.4753 35.636
internal_count=1899 878 482 409 1021 396 372 883 344 288 52 73 272 138 124 300 240 48 88 114 66 56 42 196 168 134 100 44 236 198
cat_boundaries=0 1 2 3
cat_threshold=4 10793 1
is_linear=1
leaf_const=-1.2915606834429865 -1.3003464425259985 -1.2079023876322035 -1.0836734445414333 -1.1379645380139001 -1.3089237259697526 -1.200887016914318 -0.812836796633573 -1.2493932944494113 -0.80381703428200613 -0.96082610230060694 -0.96700535005804744 -1.0221534752050967 -1.1978002537984485 -1.1729747972495401 -1.1826470530478161 -1.271441602419908 -1.1104889542352809 -1.1144576496699703 -1.0231776546721132 -1.2811428579269266 -1.1296923192418427 -0.91672323595338479 -1.0866767816271443 -1.2925820388857374 -1.1237179390175791 -1.0801401067935381 -1.2099781685569475 -1.3089237259697528 -0.98725051705281941 -0.89825002446710656
num_features=0 0 0 0 0 0 0 0 0 0 0 0 0 0 0 0 0 0 0 0 0 0 0 0 0 0 0 0 0 0 0
leaf_features=                               
leaf_coeff=                               
shrinkage=1


Tree=1
num_leaves=31
num_cat=4
split_feature=3 4 8 2 0 0 5 5 8 8 5 8 0 7 8 5 5 0 5 5 5 5 0 0 5 5 5 5 8 5
split_gain=290.199 93.1558 16.9091 12.6101 10.5405 10.4356 13.1383 8.49225 6.65097 6.54517 5.87976 5.00948 4.55087 4.0452 3.77727 3.53577 3.50101 2.612 2.30022 2.24837 2.03779 2.2616 1.96287 7.43254 3.95619 2.12091 1.76647 4.95559 3.32844 2.55154
threshold=0 1 37.500000000000007 2 38.500000000000007 36.500000000000007 63392.280000000006 115648.01000000002 41.500000000000007 41.500000000000007 78297.630000000019 48.500000000000007 28.500000000000004 3 38.500000000000007 27097.545000000002 30167.705000000005 32.500000000000007 40403.080000000009 32623.385000000006 100787.93000000001 140012.44500000004 31.500000000000004 36.500000000000007 46703.295000000006 20946.475000000002 13304.090000000002 21538.500000000004 55.500000000000007 29386.665000000005
decision_type=1 9 2 9 2 2 2 2 2 2 2 2 2 1 2 2 2 2 2 2 2 2 2 2 2 2 2 2 2 2
left_child=1 9 7 4 11 6 8 -3 -4 12 -6 -2 -1 26 19 -11 -10 -17 -19 -14 -12 -22 -16 -24 25 -25 -7 -28 29 -29
right_child=3 2 5 -5 10 13 -8 -9 16 15 20 -13 14 -15 22 17 -18 18 -20 -21 21 -23 23 24 -26 -27 27 28 -30 -31
leaf_value=-0.10900507753156569 -0.093694519772038229 -0.010185325332591486 0.01091897186337118 -0.10835807688508166 0.081099895258324561 0.13675856512939499 0.280261091171848 0.1585465094545967 0.20911402549842248 -0.020737349596745433 -0.080972202990722164 0.021393755263242276 -0.017892173074936027 0.30193993667014146 0.058675940769450388 -0.0040678579701855806 0.10091454681994501 0.12847347375443496 0.042455665527579844 -0.12701106580220098 0.062381299015480098 -0.048094456452374278 -0.11005391856362622 0.047537746564861184 0.083648037402028433 -0.029175178713647516 0.31268878014897838 0.16152822670648792 0.1348241799880957 0.22221348429229262
leaf_weight=5.4115281105041495 20.864863693714145 7.2291097939014417 6.3341230154037538 127.59403622150421 9.4929292351007479 4.0004811882972708 4.7755436152219763 5.0781470090150833 4.3326620310544959 6.4011486768722561 4.1710655838251096 4.6194162964820853 3.5620912909507743 4.2572286725044242 5.2187784910202017 3.9501090049743679 9.6536625772714597 6.8073888868093473 5.7218409031629562 4.0185538530349731 3.65699802339077 3.7564597427845001 5.7464078366756466 4.9987602531910005 6.4337397813796988 12.916660904884337 3.9933549165725699 9.0064273774623853 7.3424996435642234 30.029447689652443
leaf_count=32 124 38 35 750 54 20 24 26 22 36 24 26 20 20 28 22 49 35 31 24 21 22 34 27 34 73 20 45 37 146
internal_value=0 0.0908227 0.152954 -0.0884356 -0.0243362 0.18497 0.131008 0.0594358 0.0959318 -0.00150986 0.0227541 -0.072833 -0.0225904 0.208068 -0.0116885 0.0423366 0.134432 0.0668367 0.0891909 -0.0757369 -0.0250573 0.00640233 0.00206023 -0.00775732 0.0163847 -0.00777074 0.200718 0.205797 0.196593 0.208212
internal_weight=341.375 167.22 96.0327 174.156 46.5617 83.7254 25.096 12.3073 20.3204 71.187 21.0775 25.4843 48.3065 58.6294 42.895 22.8805 13.9863 16.4793 12.5292 7.58065 11.5845 7.41346 35.3143 30.0956 24.3492 17.9154 54.3722 50.3717 46.3784 39.0359
internal_count=1899 878 482 1021 271 418 130 64 106 396 121 150 272 288 240 124 71 88 66 44 67 43 196 168 134 100 268 248 228 191
cat_boundaries=0 1 2 3 4
cat_threshold=4 10793 34987 1
is_linear=1
leaf_const=-0.24541381176209998 -0.16298432695217571 0.26012726065476904 -4.8913726792111447 -0.11685048609901789 0.028306877430051714 -0.63585243104078593 -0.071710390440296132 0.18186704479451238 -0.82037858862399848 0.18672798831004203 -0.1312337291534334 0.15449701345359124 -0.11872587959234338 0.079121097841471061 0 -1.4292327115328971 -0.11694197632713782 0.42480715565785943 0.18562461732512717 -0.12701106580220056 -0.36930685836144622 0.052586270300774632 1.9958750095684081 0 0 4.6805107734675406 0.25936968356697893 -0.91450370931374891 0.025892170271444571 0.60478942811832903
num_features=2 2 2 3 0 2 3 3 2 3 2 2 2 3 2 2 3 3 3 3 2 2 2 2 3 3 3 3 3 3 3
leaf_features=0 8  0 8  5 8  0 5 8   0 5  0 5 8  0 5 8  5 8  0 5 8  5 8  0 5  0 8  0 5 8  0 8  0 8  0 5 8  0 5 8  0 5 8  0 5 8  0 5  0 5  0 5  0 8  0 5 8  0 5 8  0 5 8  0 5 8  0 5 8  0 5 8  0 5 8  
leaf_coeff=0.0044520427300372761 0.00057381884076028737  -1.2171317335674115e-05 0.0019624891892953493  -6.1177052335803147e-06 -0.0028971006643470206  0.0031293282926960764 1.4168289708166859e-06 0.1189824923454097   -0.00031169926693671581 1.4534156737851071e-06  -0.00014023501669272465 3.0101480461826184e-06 0.017328879612325165  0.0002935439541654539 -1.8912632357865615e-07 0.0083124384818050075  1.3184577246672407e-07 -0.0022692506862954545  0.015637572468837835 -1.967138390705054e-06 0.010789938142615486  1.5322720577158802e-06 -0.0044301019886051731  -0.0008297514594477807 1.0184625893591617e-06  0.013602017434886522 -0.0095883560511474848  0.0011755096358885388 -7.8146185550236388e-07 0.0021813299366059886  0.0017831140714638317 0.0029676734846518118  0.083584795477796806 -0.061296327370787655  0.02338274429394864 5.6266063057181568e-06 0.0093971069791018089  0.0060997416643011173 -1.862917417707542e-06 0.0020604618537366673  -0.0073794274710581977 8.1148595259173617e-06 -0.0040252120929804014  -0.00049194065792006474 5.0479650756472023e-08 -0.002336290024518667  -1.1102230246251566e-17 -1.3552527156068806e-21  0.013540997526789679 -1.6421297738107577e-06  -0.005672827934472058 7.8363108674842254e-07  -0.016815997599494637 -0.038458809324720282  0.001692860138878355 1.6410583824252855e-05 -0.0066100776585652395  0.0038592938251350464 -1.1739093694972254e-06 0.00015482859798799932  -0.0020434668917407306 2.0123450397256694e-06 -0.11689694078015692  -0.0008320911721769298 -1.9258689796224776e-06 0.0027803118090246716  0.015859613066405133 3.9142467506355501e-06 0.0058236298267354773  -0.0030096265722545645 1.5956875877499043e-06 0.0027410315603717652  -0.005298959646696977 -3.8133404903492392e-07 -0.0022608015417429962  
shrinkage=0.1


Tree=2
num_leaves=31
num_cat=6
split_feature=3 4 2 8 0 0 5 5 8 5 8 0 8 8 5 5 7 5 0 6 5 0 0 5 0 5 8 0 6 8
split_gain=236.682 67.9087 11.8857 11.6368 8.95928 6.95182 9.0415 6.24809 5.26336 4.56842 4.42635 4.01918 3.79045 3.22155 2.87345 2.73202 2.71023 2.09443 1.97842 1.91414 1.64727 1.60448 3.64992 3.51543 3.20537 1.71948 1.53425 1.62236 1.4535 2.04249
threshold=0 1 2 37.500000000000007 38.500000000000007 36.500000000000007 61032.000000000007 115648.01000000002 41.500000000000007 78297.630000000019 48.500000000000007 28.500000000000004 41.500000000000007 38.500000000000007 30167.705000000005 27097.545000000002 3 32623.385000000006 32.500000000000007 4 40403.080000000009 42.500000000000007 31.500000000000004 43206.560000000005 36.500000000000007 22758.170000000002 48.500000000000007 38.500000000000007 5 38.500000000000007
decision_type=1 9 9 2 2 2 2 2 2 2 2 2 2 2 2 2 1 2 2 1 2 2 2 2 2 2 2 2 1 2
left_child=1 8 4 7 10 6 12 -3 11 -6 28 -1 -5 17 -14 -10 -7 -13 -17 -11 -20 22 -15 25 -24 -23 -4 -28 -2 -30
right_child=2 3 26 5 9 16 -8 -9 15 19 -12 13 14 21 -16 18 -18 -19 20 -21 -22 23 24 -25 -26 -27 27 -29 29 -31
leaf_value=-0.10494933974233062 -0.11519421783524104 -0.0094265066594420785 -0.11700906253171027 0.014249101806721605 0.069725217348919052 0.16634674451444539 0.21984755739730089 0.13257703460018708 -0.018932510229719941 0.02051316706257926 0.018909459517261792 -0.016280176278522376 0.17190493246676139 0.051131753110318347 0.076654313609086325 -0.0040837581877450598 0.24536587220723716 -0.12378928919032542 0.1087880266002185 -0.06153436620268217 0.037341594621609672 0.051177331867635581 -0.10604466679242069 0.097592431057878876 -0.0060304579153707544 -0.030454893278484149 -0.10412438857798141 -0.027978358048814846 -0.1242495466134044 -0.026542239406932146
leaf_weight=5.0761962234973899 10.359965190291405 7.1941035538911802 105.99720138311386 6.1766994744539323 9.9098425209522265 58.735283836722374 5.9392097592353812 5.4425891190767288 6.3295543789863613 5.3528871089220047 4.667834296822547 3.5278313010931006 4.7154673039913169 5.3703617602586773 9.6456734240055066 3.9381248056888607 4.6868811547756186 3.7258601188659668 7.2044371515512449 6.0652983486652357 5.8452841192483902 3.7773389518260982 5.3867612779140455 4.6927460283040991 7.9098692983388901 8.142477408051489 9.1454959511756879 4.031452775001525 3.2981872260570562 6.0898002684116364
leaf_count=32 65 38 670 34 54 268 27 26 36 31 26 20 22 28 47 22 20 24 35 36 31 20 34 24 43 47 56 24 21 38
internal_value=0 0.0784442 -0.084135 0.129007 -0.0224066 0.154219 0.11118 0.051734 -0.00156086 0.0200462 -0.0686677 -0.0208452 0.0797556 -0.0108076 0.10793 0.0371445 0.172186 -0.0715023 0.0580383 -0.0230702 0.0767855 0.00167153 -0.0184465 0.0242776 -0.0465484 -0.00458599 -0.10426 -0.0808277 -0.0893684 -0.0608688
internal_weight=338.381 173.463 164.918 102.536 45.7438 89.8992 26.477 12.6367 70.9268 21.328 24.4158 47.6094 20.5378 42.5332 14.3611 23.3174 63.4222 7.25369 16.9878 11.4182 13.0497 35.2796 18.667 16.6126 13.2966 11.9198 119.174 13.1769 19.748 9.38799
internal_count=1899 878 1021 482 271 418 130 64 396 121 150 272 103 240 69 124 288 44 88 67 66 196 105 91 77 67 750 80 124 59
cat_boundaries=0 1 2 3 4 5 6
cat_threshold=4 10793 34987 1 2 1
is_linear=1
leaf_const=-0.24646011080980942 -0.13278605845455546 0.23472407933249909 -0.13574581338843963 -5.0791850880337739 0.025405426201070114 0.23567199580307802 -0.24456163831239053 0.14924661956464222 0.18556105838306616 -0.064894465081772532 0.13758056583417932 -0.10912067514308693 -0.60917441778613579 0 0.022473166882664944 -1.2425301206797561 0.079024332641299114 -0.12378928919032575 0.34939032343154397 -0.070847234748781671 0.16559879865887375 0 2.0651222523563777 0 0 4.6754017606490379 -0.1996475933938868 0.52163422892335098 -0.12311597548549252 0.66299394776125808
num_features=2 2 2 1 3 2 2 3 2 2 2 2 3 3 2 3 3 2 2 3 2 3 3 2 3 2 3 2 2 2 2
leaf_features=0 8  0 8  5 8  8  0 5 8  0 5  0 8  0 5 8  5 8  5 8  0 5  0 8  0 5 8  0 5 8  0 8  0 5 8  0 5 8  0 8  5 8  0 5 8  0 5  0 5 8  0 5 8  0 8  0 5 8  0 8  0 5 8  0 8  0 8  0 8  0 8  
leaf_coeff=0.0045970192512449163 0.00060746399702265035  -3.7391882284598667e-05 0.00051461393244629512  -5.7089370206012855e-06 -0.0025187588103803473  0.00053077718502032585  0.00011108748246311251 2.2062099025077792e-06 0.12545705072103033  -0.00024852772816336133 1.1983500167976736e-06  -0.00086661973598176631 -0.00058868506216677165  0.0041076790909776234 -1.1305734963882209e-08 0.0076356685027225259  1.0010844246956138e-07 -0.0016938863389475368  1.4651608765411324e-06 -0.0043681960380036492  -0.00062114723992451608 9.632881077330129e-07  0.012136041738910775 -0.0085966839137608525  0.0010845285762424584 -7.3379850485972716e-07 0.0020086470638819272  0.012048799518376764 -1.5012451503704988e-06 0.0080371603730911897  0.071036687833712628 -0.052105993867898805  0.0043632058018348244 -4.2724765943946621e-06 0.0018703685266403482  0.020439067145202865 4.549482984058798e-06 0.0082637530484095147  0.0013324490900917586 0.0022117469053931416  6.7762635780344027e-21 -5.551115123125783e-18  -0.0059471433247830999 6.6184698630728303e-06 -0.0033570351978560288  0.00056239865695845159 -1.158853641166602e-07  -0.00044469507601440364 4.155717652280677e-08 -0.0020902004792052761  -0.0042825048987799154 3.9117382013761963e-06 0.0052495921604094557  -0.017387847168820515 -0.039615469105342527  -0.0065397035376657314 -1.1142769007917057e-06 0.013298975867680297  -0.011709495013717009 0.011440421869487483  -0.0017807954898478862 1.1501322516989161e-06 -0.11620953173239741  -0.00083041838700554933 0.0021311859131248889  -0.0013852273127818893 -0.0086802520658089584  2.3731075282640293e-08 -4.7602000023627689e-05  0.0085680150792366277 -0.02254079543773746  
shrinkage=0.1


Tree=3
num_leaves=31
num_cat=5
split_feature=3 4 2 8 0 8 0 2 5 8 0 8 0 0 5 8 0 5 5 0 0 5 5 5 5 6 0 8 0 0
split_gain=195.248 52.23 11.204 10.0413 8.02535 6.56807 5.47043 4.23409 3.98578 3.98488 4.67709 3.96904 3.40021 3.30541 3.19821 3.17502 5.27349 2.92495 2.79356 2.46319 4.85889 2.15191 2.05558 1.90593 2.47134 1.76397 2.14939 1.70109 1.91419 1.63058
threshold=0 1 2 41.500000000000007 26.500000000000004 26.500000000000004 28.500000000000004 3 44383.265000000007 48.500000000000007 39.500000000000007 38.500000000000007 35.500000000000007 31.500000000000004 39451.380000000012 48.500000000000007 39.500000000000007 47117.580000000009 32239.695000000003 53.500000000000007 41.500000000000007 49195.090000000004 44056.680000000008 40403.080000000009 33897.615000000005 4 47.500000000000007 47.500000000000007 48.500000000000007 28.500000000000004
decision_type=1 9 9 2 2 2 2 9 2 2 2 2 2 2 2 2 2 2 2 2 2 2 2 2 2 1 2 2 2 2
left_child=1 5 4 6 -2 -1 -3 8 19 10 -6 -9 29 -7 15 16 -15 23 -17 20 -8 -12 -16 24 -14 -23 -27 28 -24 -5
right_child=2 3 -4 12 9 13 7 11 -10 -11 21 -13 17 14 22 18 -18 -19 -20 -21 -22 25 27 -25 -26 26 -28 -29 -30 -31
leaf_value=0.043591199035603767 -0.10312647844627143 -0.10726112780094646 -0.10048680391894041 0.060108802345012792 -0.075116622642522599 0.089693725644365077 0.037514775511745355 -0.1108224770202472 -0.035422912850590252 0.051932533612053626 0.077888667853392449 -0.01577080924103896 0.048919021788031529 0.023635771359922571 0.22987702923080758 0.20213099318434755 0.13507949285009643 0.15113687500153961 0.10685809579251407 0.0055812065892488286 0.18607373654662829 0.042511408516353093 0.20323361682174035 -0.0011028268027008963 0.13699367865566733 -0.097820276836014602 0.014389107546237626 0.12414308913756798 0.13201168055286427 -0.01755052526361793
leaf_weight=7.1050818711519232 10.21792797744274 5.8621782213449469 111.0911413282156 4.099475830793379 10.298964470624925 9.8732608854770643 5.3698672503232974 5.3493490964174297 5.0092973560094824 9.7453237026929838 3.7735980600118628 24.573982626199722 10.988310858607298 5.3572026044130352 5.6999123692512539 9.4452336728572828 20.471825882792473 4.083203896880149 4.5651622712612143 4.1655958443880072 3.7314869463443756 4.0538160055875778 11.894460096955305 4.2568156272172919 4.4867519438266745 3.3569401949644071 3.4734095484018326 7.6790719181299201 5.5271404087543479 7.9407527148723602
leaf_count=36 68 38 750 22 67 48 31 32 28 53 20 135 55 26 25 41 89 20 20 22 20 23 52 21 20 20 20 33 24 40
internal_value=0 0.0687812 -0.080124 0.0100493 -0.0206374 0.12185 -0.0160479 -0.00495426 0.0262265 -0.00229576 -0.0234713 -0.0245566 0.0522007 0.143891 0.151466 0.132757 0.111965 0.0740968 0.171087 0.0692721 0.0984228 0.0128162 0.175665 0.0581546 0.0744549 -0.00974481 -0.0407589 0.163354 0.180638 0.00889104
internal_weight=333.547 177.535 156.011 89.9171 44.92 87.6184 54.0618 48.1996 18.2762 34.7021 24.9567 29.9233 35.8553 80.5133 70.64 39.8394 25.829 23.8151 14.0104 13.267 9.10135 14.6578 30.8006 19.7319 15.4751 10.8842 6.83035 25.1007 17.4216 12.0402
internal_count=1899 878 1021 484 271 394 306 268 101 203 150 167 178 358 310 176 115 116 61 73 51 83 134 96 75 63 40 109 76 62
cat_boundaries=0 1 2 3 4 5
cat_threshold=4 4486 34987 518 2
is_linear=1
leaf_const=0.12848271495178878 -0.089223745895466777 -0.23551036140600135 -0.1095322419905554 -1.6611958651894925 0.10363780439148229 0.020017126840158994 1.1020102600420856 -0.18494902997771234 -0.46181912300532313 0.22826213668434364 0.32887208797142198 4.0060080661718533 0.38374250297332752 -1.5957579480602988 -0.068309910784955727 0.35361955845222326 0.040298231338738333 0.77875294605721734 1.684734199112353 -0.37108892080146633 0.1249585378136544 0.46141877084629002 0.34165084541219815 0.44500103131198565 0.65902868155433225 -0.13772039303391923 -0.57269852437064372 0.12794615427153105 -1.6720809619497232 -0.24441427734170704
num_features=1 1 2 0 2 2 2 3 2 3 2 3 2 3 3 3 3 3 3 3 3 3 3 3 3 3 3 3 3 3 2
leaf_features=8  0  0 8   0 8  0 8  0 8  0 5 8  0 8  0 5 8  0 8  0 5 8  0 8  0 5 8  0 5 8  0 5 8  0 5 8  0 5 8  0 5 8  0 5 8  0 5 8  0 5 8  0 5 8  0 5 8  0 5 8  0 5 8  0 5 8  0 5 8  0 5 8  0 5 8  0 8  
leaf_coeff=-0.0050994931092019722  -0.0006005731035839013  0.0032704983276143022 0.0011923339544932744   0.060249701976642901 0.0028472625762874515  -0.0083194408899976095 0.0023206810823450442  0.0007630438461206702 0.0011001071688790055  -0.025990399770874952 -4.0268442997679624e-06 -0.0012985300956334822  0.0016065288306781557 -0.00034959430368729509  0.0021018684787049713 4.9420404756971365e-07 0.0080248742676053871  0.001235133492909643 -0.0039812776222636825  -0.0044795787704474677 6.6005367636684447e-06 -0.0057146216827721925  0.0012120890110657702 -0.10182004572438928  -0.00082464521696230537 -2.8279588218725239e-06 -0.0043155667027520552  0.027136306077711937 -2.126886385032172e-06 0.017162907949861705  -0.0018670507281894012 1.1230297925880763e-05 -0.0016058055225419033  0.00084255976919971336 -1.637422087466512e-07 -0.0033164537883051629  -4.3878473178904366e-05 2.2391380106121557e-06 0.0010075935921176615  -0.007620845550763789 -7.7482624443873839e-07 -0.003484846307095757  -0.0099746663206920286 -2.9084945385021885e-05 -0.0013851460093038726  0.0050851246193674678 3.1133670676780624e-06 -0.00048215293783144614  0.012833961162190023 4.234033342464432e-06 -0.016505463772024245  -0.0078779505741416508 1.3596087491930731e-06 -0.0051312747408575393  0.001425179752115824 -1.6045771704193618e-07 -0.0044824619244728586  0.0026379511267522302 -1.3012145052421785e-05 -0.00013966324606055173  -0.0032985838299748327 -9.139079274790227e-06 -0.0006943469001305159  -0.0062610401709257248 1.2726611862483273e-07 0.0077177438259833199  0.0046324940522579185 1.9302548578049516e-07 0.0088175597328644054  -0.0041571626537729002 -1.3143700367728921e-07 0.0032547100788105857  0.0052580638449137851 -1.3171295144560457e-07 0.037923585231181889  0.013896493446861391 -0.0040905304126053425  
shrinkage=0.1


Tree=4
num_leaves=31
num_cat=4
split_feature=3 2 2 4 5 0 0 8 5 8 0 0 8 8 0 0 5 5 5 0 8 0 5 5 5 8 0 8 5 5
split_gain=161.944 44.4935 10.5039 8.25282 9.84824 7.78989 7.08335 4.71889 4.07266 4.07174 3.58766 3.7036 3.53263 3.20753 3.98821 3.17334 2.86181 2.83669 6.20077 2.6337 2.62731 2.30438 4.97085 3.50864 1.68383 1.67676 1.6226 1.60179 1.57923 1.45268
threshold=0 1 2 3 29134.335000000003 28.500000000000004 26.500000000000004 30.500000000000004 59732.775000000009 41.500000000000007 54.500000000000007 37.500000000000007 53.500000000000007 48.500000000000007 39.500000000000007 38.500000000000007 40617.340000000004 20946.475000000002 33632.600000000006 28.500000000000004 17.500000000000004 44.500000000000007 27469.245000000006 27647.070000000003 49195.090000000004 48.500000000000007 38.500000000000007 41.500000000000007 25754.010000000006 70200.60000000002
decision_type=1 9 9 9 2 2 2 2 2 2 2 2 2 2 2 2 2 2 2 2 2 2 2 2 2 2 2 2 2 2
left_child=1 3 6 4 -1 9 -2 20 10 -3 11 -6 15 14 -8 19 28 27 21 -5 -7 23 -23 -19 -16 -4 -27 -9 -17 -20
right_child=2 5 25 12 8 7 13 17 -10 -11 -12 -13 -14 -15 24 16 -18 18 29 -21 -22 22 -24 -25 -26 26 -28 -29 -30 -31
leaf_value=-0.045740258886369879 -0.099557649128442255 -0.048303082217514288 -0.11085586653192261 -0.024232669218270768 0.0090450034431880568 0.10308192153301693 -0.071069639804793236 0.13338120881953347 0.15904812016123313 0.088038525200078641 -0.020692622250780713 0.1277131701253704 0.028747626960350887 0.045468801731133962 0.067498068471159231 -0.040664599341187511 -0.072568140154024657 -0.0037024112647156301 0.12807290138732319 -0.11430983600063949 -0.012779202247857772 0.16975849343226063 0.048596891476823167 0.097817169409366758 -0.0091265463043592576 -0.096030370398327347 -0.016072918540578525 0.19852847724017852 0.037306308549200758 0.17652789356176665
leaf_weight=9.3215095251798648 9.5599813908338529 4.5283516794443113 91.691722393035889 4.7171595096588126 4.1615159660577792 3.6786507815122595 9.8262195587158221 8.7987908422946912 4.775503307580947 4.2425584495067596 4.6016551852226248 7.1463772654533386 6.4109008461236945 9.9925049096345884 3.9040999412536612 4.1778238266706484 7.3936862349510184 6.8510572686791438 44.08662936091423 10.407135128974913 4.1824319362640381 6.3280820399522764 7.2833801805973053 6.767025038599968 10.80512550473213 8.009660139679907 3.7152771502733222 6.6088782101869574 6.8678700178861618 7.1972358375787726
leaf_count=48 68 25 670 29 23 19 67 41 22 20 22 34 32 53 20 22 38 33 198 59 24 28 33 32 63 56 24 29 37 30
internal_value=0 0.0607038 -0.0763426 -0.00477108 0.029702 0.0991078 -0.019059 0.115865 0.0780584 0.0176464 0.053748 0.0840411 -0.0314134 -0.00229069 -0.0217416 -0.0522639 -0.0244163 0.122094 0.114395 -0.0862154 0.0414389 0.075828 0.104926 0.0467442 0.011211 -0.0969298 -0.0706943 0.161325 0.00781529 0.134873
internal_weight=328.039 180.534 147.505 69.9811 30.0066 110.553 44.0879 101.782 20.6851 8.77091 15.9095 11.3079 39.9746 34.5279 24.5354 33.5637 18.4394 93.9211 78.5134 15.1243 7.86108 27.2295 13.6115 13.6181 14.7092 103.417 11.7249 15.4077 11.0457 51.2839
internal_count=1899 878 1021 366 149 512 271 467 101 45 79 57 217 203 150 185 97 424 354 88 43 126 61 65 83 750 80 70 59 228
cat_boundaries=0 1 2 3 4
cat_threshold=4 58896 34987 518
is_linear=1
leaf_const=-0.056426586431036131 -0.085746757745383206 -0.35465013440614257 -0.13229145821556756 -0.33593520816308597 0.41944283056944898 0.0013837258107479045 0.10538432047599003 0.44956788298413813 0.12588672265388964 0.10233534426039342 -0.036945536811834503 0.15366908208896179 0.040104595445608564 0.20736870493217607 0.27539667347543856 -0.55878497713201092 0.20188116460321909 -0.47134688683969311 0.13366160251759993 0.11153428342853716 0.10436880849279939 -0.093226146388877856 0.81790711651341896 1.2481955192315355 0.069264056544175293 -0.20087599282516067 0.52519093256677007 0.29321667821230335 0.017769947144988408 0.44768616554895008
num_features=1 1 2 1 2 2 2 2 3 1 2 2 2 1 2 3 3 3 3 3 2 2 3 3 3 3 2 2 3 3 3
leaf_features=5  0  0 8  8  0 8  0 5  0 8  0 8  0 5 8  5  0 8  0 5  0 5  8  0 8  0 5 8  0 5 8  0 5 8  0 5 8  0 5 8  0 8  0 8  0 5 8  0 5 8  0 5 8  0 5 8  0 8  0 8  0 5 8  0 5 8  0 5 8  
leaf_coeff=5.4123523776884929e-07  -0.00059663514404175724  0.0020345836551534549 0.0069999118050826621  0.00060672389634631736  -0.008598075521003834 0.01308620978592352  -0.0070978706105488849 -4.4083896498001963e-06  0.00078515973170024684 0.0051544837675219449  -0.0082692113020691911 0.0023223743880024295  0.0039553448178559769 1.4341053399934221e-05 -0.017398310666492733  2.4215138326644424e-07  0.014914617189321966 -0.0080214260409010151  0.001612334583406111 -2.0133899696559393e-06  0.0016789769601020855 -2.5911994898797018e-06  -0.00018068950031349673  0.0010208502628579197 -0.0035903731508074633  -0.0037958202611453776 5.5836350860256293e-06 -0.0047664707489949  0.003134952087744192 1.0976861694471971e-05 0.0040175588391102189  -0.0037975464410043183 -2.479580517390629e-07 -0.0015172087123551004  0.0046291076665208883 8.5299487526768963e-06 0.0016867464268315502  3.3064151988371203e-05 -5.061020685928229e-07 0.00034661013936138074  -0.0060258046759141598 -0.00073225831984402578  -0.0035822556535451779 0.0019190243460086771  0.0038903331392166063 1.2483880681080779e-06 0.00069764975637307556  -0.01425141519268578 -3.4884210243970454e-08 -0.00064915776168806292  -0.007670913479559483 -3.7776946538299264e-05 0.0056065958170855856  -0.0012214206087740001 1.5983802884992069e-07 -0.0010066155914045265  -0.00085827558551814236 0.0023062716810824057  -0.0013776877177772901 -0.0085539751149705245  0.0016128447319044782 -5.2131532822472744e-06 -0.0017674640996950598  -0.00039253997201321169 -2.1124171628580131e-06 0.0027456596149177562  -0.0017143096807786806 -6.6415645354695939e-07 -0.0020058946485232987  
shrinkage=0.1


Tree=5
num_leaves=31
num_cat=3
split_feature=3 4 0 7 8 8 5 5 8 0 5 0 5 8 5 5 5 0 0 8 8 5 0 0 5 8 5 0 0 5
split_gain=134.838 35.9703 9.22264 6.4235 7.68285 5.36222 4.6793 4.07676 3.20831 3.34002 3.12716 3.08321 6.91846 3.05202 3.01527 2.6583 2.31663 2.29361 3.04453 2.27395 1.83227 2.06022 1.80909 1.9646 1.58941 1.0406 1.20353 1.19535 3.29337 4.42582
threshold=0 1 38.500000000000007 2 37.500000000000007 48.500000000000007 115648.01000000002 80018.655000000013 38.500000000000007 35.500000000000007 47640.350000000006 36.500000000000007 63392.280000000006 48.500000000000007 36356.030000000006 46703.295000000006 31960.595000000005 31.500000000000004 29.500000000000004 53.500000000000007 41.500000000000007 34750.085000000006 25.500000000000004 29.500000000000004 20946.475000000002 55.500000000000007 15130.985000000002 50.500000000000007 44.500000000000007 26510.045000000002
decision_type=1 9 2 1 2 2 2 2 2 2 2 2 2 2 2 2 2 2 2 2 2 2 2 2 2 2 2 2 2 2
left_child=1 8 13 4 6 10 -3 -7 16 17 14 12 19 -2 -4 20 -1 18 -10 -6 24 -22 -15 -24 -11 26 -13 28 29 -28
right_child=2 3 5 -5 11 7 -8 -9 9 15 -12 25 -14 22 -16 -17 -18 -19 -20 -21 21 -23 23 -25 -26 -27 27 -29 -30 -31
leaf_value=-0.0067093816574976296 -0.10564087093603938 -0.043917097617262486 -0.05755645702443251 0.18358453068777825 0.026499891762558975 0.092680390845961247 0.082268837206948511 -0.036953910453082689 -0.042887598861998083 0.030437673868721815 -0.072962766866149484 0.068219971700345036 0.16843184080468548 -0.11798056480190688 0.067426463310353721 0.064008829780933779 -0.12056861829995602 -0.08069481778875677 0.052111106698522661 0.10267962039331249 0.0025758824824507315 0.081371724368185419 0.024367023627267184 -0.069187498551553983 -0.034126019022429531 0.081551140546586659 0.027663380914769845 0.1000431980339859 0.17270563523518548 0.13499307171911232
leaf_weight=3.300352379679679 74.392661459743977 6.4304858818650228 4.4347761422395697 7.8131203800439826 16.243324294686325 4.437429800629614 5.412002220749855 5.3516037166118622 9.404528737068178 5.3119308501482037 35.105839744210243 4.7033903598785392 5.7490521669387809 3.0949032157659522 3.4180514812469482 9.7419492304325086 3.8970324471592903 6.365130975842475 5.2605625987052909 5.1640610992908469 9.0033192187547666 5.2549903243780127 3.8918754160404188 5.3033033609390259 13.511679634451864 10.028580740094183 5.1740230321884182 17.501968875527382 12.516629382967947 14.923183202743528
leaf_count=20 583 34 29 32 78 25 24 31 59 27 252 20 24 24 19 48 28 40 27 22 45 25 23 35 77 42 22 72 51 61
internal_value=0 0.0538387 -0.0727351 0.0882397 0.0895633 -0.0449821 0.0137497 0.0218101 -0.00444023 0.00206903 -0.0602021 0.0993218 0.0710334 -0.0980141 -0.00315592 0.0180963 -0.0683586 -0.0305673 -0.0088103 0.0448766 0.00457598 0.0316166 -0.0518489 -0.0295904 -0.0159065 0.111168 0.116586 0.121126 0.132439 0.107361
internal_weight=322.142 182.711 139.43 111.66 103.847 52.7477 11.8425 9.78903 71.0515 63.8541 42.9587 92.0042 27.1564 86.6827 7.85283 42.8239 7.19738 21.0302 14.6651 21.4074 33.0819 14.2583 12.2901 9.19518 18.8236 64.8478 54.8192 50.1158 32.6138 20.0972
internal_count=1899 878 1021 482 450 356 58 56 396 348 300 392 124 665 48 222 48 126 86 100 174 70 82 58 104 268 226 206 134 83
cat_boundaries=0 1 2 3
cat_threshold=4 10793 1
is_linear=1
leaf_const=-0.024207785466781085 -0.14990837713446689 0.088047586594653823 0.18935643937015811 0.18358453068777825 0.022614668737059418 0.11102875340690446 0.11267137495905857 -0.20788207738038589 -0.63985092249460118 0 -0.063968722686139762 -0.37938744230955168 -0.0092387240018268809 -0.11699874497228109 -1.5595587818553782 0.26833632110346389 -0.12214224790046641 0.65294319950152158 -0.37138718025669282 -0.592408581320646 0.11772301472395141 1.4545722410421718 0.31983967704231875 0.12186503546732014 3.8554363395378459 -0.022280049579603656 1.7104974683490868 0.21913118289238584 -0.015051347506687308 0.25083633486297002
num_features=2 2 2 3 0 3 3 2 3 2 3 3 3 3 2 3 3 2 2 2 3 3 3 2 2 3 2 3 3 3 3
leaf_features=5 8  0 8  5 8  0 5 8   0 5 8  0 5 8  5 8  0 5 8  0 8  0 5 8  0 5 8  0 5 8  0 5 8  0 8  0 5 8  0 5 8  5 8  0 8  0 8  0 5 8  0 5 8  0 5 8  0 8  0 8  0 5 8  0 8  0 5 8  0 5 8  0 5 8  0 5 8  
leaf_coeff=2.1848862211732131e-06 -0.0012116194933947007  0.0010294248091777703 0.00049933485519740859  -3.5337578327319062e-06 -0.00071872532461207954  -0.0052374216705806222 7.0589948673783592e-07 -3.619511806118858e-05   -0.00089301050641750208 -1.8819142245265993e-07 0.0008654508792485194  -0.00404139417001248 3.190204894585268e-08 0.0030637482591445498  2.175155200880385e-08 -0.0014619119714931684  0.0079220669462964476 -6.7196520854144938e-07 -0.0021164767113797988  0.013595473147981841 0.004948098620704439  0.0013054676462177174 1.2063874868103536e-05 -0.0051377866072151116  -0.00017659504383391589 -5.8403379401814115e-08 0.00018356496445921523  0.00022049184487850094 5.1944957534146262e-06 0.0091796699757624497  -0.0012080750046943312 -1.4342707345076209e-07 0.0052491878521252261  0.00012600483737053026 -6.6816364720478921e-05  0.011040989698262928 1.6482805920303928e-05 0.0092914724040855223  -0.0020431549763236024 -5.4260537109547766e-07 -0.0013155496706294902  7.5231553991101543e-09 4.1486586684963417e-05  -0.024329746662276011 0.0016594916274090489  0.015877345392053144 -0.0013949275549856146  0.013434608975323538 -3.5415822091904086e-06 0.0063537640417245418  0.00067373886928993355 6.915148778549159e-07 -0.0031836636307093452  -0.003226777333551545 -2.6398979820770662e-05 -0.0029455119191315049  -0.017662305470240725 0.0035766971286358418  -0.0026567028040326069 -0.0018154563163492233  -0.00093645798406600817 1.2229770074675951e-06 -0.097115501405301077  0.00038226748662374411 0.001315382717257252  -0.014437110109267848 -3.5628250971801817e-05 -0.006626314549225399  0.0014047882077914853 -7.4904757842626399e-07 -0.0038151872061343186  -0.00044636567957816457 2.8605977043782161e-07 0.0044827364257108652  -0.0035673642431236275 -3.0629953067286558e-07 0.0011213578110159884  
shrinkage=0.1


Tree=6
num_leaves=31
num_cat=5
split_feature=3 2 2 4 5 0 0 7 8 5 8 5 8 0 0 5 8 0 0 5 5 0 0 5 5 8 5 0 0 8
split_gain=112.861 31.5924 10.9265 6.12933 7.35175 5.98689 5.44642 3.25894 4.19215 5.26023 3.09628 2.85659 2.7993 2.79112 2.6603 2.43009 3.67155 2.55545 2.40906 2.30608 4.09248 3.3777 2.23222 2.14618 2.0956 2.09295 1.94882 1.90878 1.68094 1.59107
threshold=0 1 2 3 29134.335000000003 26.500000000000004 28.500000000000004 4 37.500000000000007 54800.880000000012 41.500000000000007 59732.775000000009 53.500000000000007 54.500000000000007 39.500000000000007 140012.44500000004 48.500000000000007 39.500000000000007 37.500000000000007 39451.380000000012 21538.500000000004 36.500000000000007 28.500000000000004 33632.600000000006 40617.340000000004 48.500000000000007 27647.070000000003 46.500000000000007 33.500000000000007 48.500000000000007
decision_type=1 9 9 9 2 2 2 1 2 2 2 2 2 2 2 2 2 2 2 2 2 2 2 2 2 2 2 2 2 2
left_child=1 3 5 4 -1 -2 10 8 9 -8 -3 13 14 18 22 16 17 28 -6 20 25 -22 -5 26 -16 -10 -23 -25 -7 -4
right_child=2 6 29 12 11 15 7 -9 19 -11 -12 -13 -14 -15 24 -17 -18 -19 -20 -21 21 23 -24 27 -26 -27 -28 -29 -30 -31
leaf_value=-0.044458008559349838 -0.092582097178575462 -0.047657332296416152 -0.1059503719633566 -0.020954237110307378 0.0075188654711598859 -0.020970414565046121 -0.026671689606147377 0.15747242087180466 0.099859834739267406 0.12068154724285562 0.07075818574479463 0.12868273883227038 0.022049685218271137 -0.023713209515492106 0.0054354895330804356 -0.063055603985896588 0.067557093459361173 0.018778232156880861 0.10242365679082893 0.11498467945132787 0.007305230555978046 0.091739292836196473 -0.10457853095323986 0.16122706704627407 -0.066248910020523355 0.17923925253467646 0.025822782170613595 0.074584967125041049 -0.11842518648963692 -0.065238033327066153
leaf_weight=9.1376926451921481 8.2896885499358159 4.4316651299595815 79.4977707862854 4.5240917503833762 4.1673415452241951 5.0955822765827241 6.5094404146075231 7.3180724531412116 10.288038522005079 3.8587252497673035 4.4009351283311844 5.0256843864917746 6.5195204466581336 4.5820024237036696 10.413507461547853 4.8475781753659239 8.7249742746353132 11.921258568763731 7.4673652499914169 35.650038316845894 8.2221861481666547 9.1325267031788879 10.841515101492403 4.9647540897130948 6.7032221853733054 4.9052815586328498 8.8140023648738843 5.2121380716562271 2.7118014767765999 10.917491339147089
leaf_count=48 68 25 670 29 23 38 37 31 46 18 20 22 32 22 56 32 44 68 34 152 40 40 65 21 35 21 39 22 21 80
internal_value=0 0.0482718 -0.0691724 -0.00685703 0.0229814 -0.0133328 0.0797453 0.0931099 0.0882819 0.0281688 0.0113444 0.0628099 -0.0300461 0.0423954 -0.0497522 0.00239106 0.0135411 -0.0103475 0.0684305 0.0954303 0.0819043 0.0636852 -0.0799571 0.0801685 -0.0226374 0.125488 0.059366 0.116853 -0.0548202 -0.0909728
internal_weight=315.096 183.09 132.006 69.3819 30.3801 41.5909 113.708 104.875 97.5571 10.3682 8.8326 21.2424 39.0019 16.2167 32.4823 33.3012 28.4536 19.7286 11.6347 87.189 51.5389 36.3456 15.3656 28.1234 17.1167 15.1933 17.9465 10.1769 7.80738 90.4153
internal_count=1899 878 1021 366 149 271 512 467 436 55 45 101 217 79 185 203 171 127 57 381 229 162 94 122 91 67 79 43 59 750
cat_boundaries=0 1 2 3 4 5
cat_threshold=4 58896 34987 518 1
is_linear=1
leaf_const=-0.055579770380831353 -0.075531941089506921 -0.34071528417537283 -0.12983221712220791 -0.35439708894630756 0.40209898501602626 -0.20839175953726966 0.10319785363440098 0.16051676021164632 0.57484938520068452 0.62054203304264066 0.068539613623136125 0.10297621508161736 0.032522229985666055 -0.060965457255726822 -0.18820646048241674 -0.22735229601218665 0.14903564530899588 -0.0061194337467920697 0.13715670353820572 0.12079275441555951 0.25965031629704854 -0.65948537654088568 -0.021844223511760675 0.25863289749427171 0.35248871595582759 0.23718616735555714 0.29681842660234853 1.8896309509443654 -0.091796322515870096 -0.13022444910032682
num_features=1 1 2 1 2 2 3 3 1 3 3 2 1 1 2 3 2 3 3 2 3 3 3 2 3 3 3 3 3 3 1
leaf_features=5  0  0 8  8  0 8  0 5  0 5 8  0 5 8  0  0 5 8  0 5 8  0 8  5  8  0 5  0 5 8  0 5  0 5 8  0 5 8  0 5  0 5 8  0 5 8  0 5 8  0 8  0 5 8  0 5 8  0 5 8  0 5 8  0 5 8  0 5 8  8  
leaf_coeff=5.6316152767092215e-07  -0.00073616108063547794  0.0014339412130415675 0.0070175336762546368  0.00067414016755878439  -0.0069577719979942 0.012509724776594278  -0.0071839520666323042 -3.9947734150512532e-06  0.0048364855909612814 7.889665429501166e-07 -0.00049331533119615918  0.0023348083244437365 -6.0962981674143865e-06 -0.0025461835517860913  -6.351309866710064e-05  -0.0017915579642732828 4.9935911042102656e-06 -0.011424030723242674  -0.0094831744064416638 -2.065674294399276e-07 -0.0013941757671997125  0.012967288119647159 -0.0067121093399483802  1.8711454672415948e-07  -0.00016663937102872619  0.0017259579608815689 -1.6653122253164561e-06  0.00034866736823752564 3.9982724316011214e-06 0.0016731561448001574  0.0022397727081438948 3.3870602830393298e-07  0.0012942296633267404 4.1975672768079128e-07 -0.002998869897050194  -0.00061891740688678758 -2.8255961491226792e-07 0.0019495984993476156  0.0012230826636300263 -2.2753902716019535e-06  -0.00076322028073416703 -1.1143950995516099e-07 0.00076827253954173677  -0.015180246733671111 -2.1666890074211634e-06 0.0064962326438736673  0.0074007398707146123 1.9689123112234028e-05 -0.0021684720517441635  -0.0015132702277977474 -0.0008020514395147394  0.0087975635905515048 -1.6163394387080229e-05 0.0024341793885642726  -0.0053551276698799114 -8.7871884519666264e-08 -0.0034487033143487666  0.0020467879630627463 4.9567253574731025e-06 -0.0040277431009946079  -0.007411058118195037 1.2717127504125511e-06 0.00091274046351936817  -0.0067082941167483593 -3.2328273511723211e-05 -0.005707841229994421  -0.00059260257651363448 4.0383339498957765e-08 -0.00019637749949003025  0.001157184488642149  
shrinkage=0.1


Tree=7
num_leaves=31
num_cat=6
split_feature=3 4 2 0 8 0 7 8 8 5 5 8 0 5 0 0 5 5 8 0 0 5 6 0 8 0 5 5 6 8
split_gain=94.6255 26.8802 10.1512 5.25968 4.89763 3.65466 2.96817 4.17342 2.16246 2.70894 2.03373 2.88485 2.14975 1.90866 1.89233 4.71968 1.82732 1.77062 3.72786 3.48519 1.69155 2.10771 2.45503 1.66088 1.96582 3.70184 3.05237 2.14868 1.58891 1.50297
threshold=0 1 2 26.500000000000004 41.500000000000007 28.500000000000004 3 26.500000000000004 37.500000000000007 34166.205000000009 140012.44500000004 48.500000000000007 39.500000000000007 48439.730000000003 31.500000000000004 36.500000000000007 40403.080000000009 35933.035000000011 48.500000000000007 36.500000000000007 34.500000000000007 99434.165000000023 4 31.500000000000004 47.500000000000007 43.500000000000007 49530.245000000003 91074.435000000012 5 41.500000000000007
decision_type=1 9 9 2 2 2 1 2 2 2 2 2 2 2 2 2 2 2 2 2 2 2 1 2 2 2 2 2 1 2
left_child=1 6 3 -2 5 -3 7 -1 9 -7 11 12 28 16 -10 -16 -6 18 19 -9 -4 22 29 -19 26 -26 -25 -28 -5 -22
right_child=2 4 20 10 13 8 -8 17 14 -11 -12 -13 -14 -15 15 -17 -18 23 -20 -21 21 -23 -24 24 25 -27 27 -29 -30 -31
leaf_value=0.0060910252514734921 -0.089432055634009064 -0.099016281807083412 -0.11021055275396521 -0.00029576612718918381 0.030790964114022219 -0.0015655315752760993 0.14930064202042792 -0.02850918782634676 0.050763208546479734 -0.12214478672653283 -0.059194479813982875 0.059001865715088322 0.016732884462725542 0.076389263907074317 -0.10050273174756075 0.0059745294176036003 -0.031542302933476526 0.059924357915363595 0.11661897123268275 0.06851499275492999 -0.058873000643308408 -0.1086278806379464 -0.095223918162592278 0.1708332319107462 0.12859804396405577 0.015291109470754015 0.055962463771893844 0.13788193801748355 -0.092762095796595473 0.020712930237559584
leaf_weight=6.5258211418986312 7.7515402585268012 4.9748379662632933 49.281346917152405 3.3603069856762886 24.599555626511577 3.9537870362401 7.3188902288675299 4.5703518241643932 6.2462802976369849 3.5236659348011017 4.6593594253063193 8.9743528217077237 12.029000058770178 7.1206436753273001 4.8485233485698691 29.440325006842613 5.8146746903657904 7.2640095055103293 12.95592027902603 19.491733655333519 5.3351620435714722 15.617935463786123 9.4686463177204132 10.055554062128069 6.618879705667494 5.1090772300958633 6.3571962565183622 6.4507719725370407 4.157764755189425 4.273664690554142
leaf_count=33 68 38 453 25 117 24 30 24 32 26 32 44 68 33 35 151 28 32 53 81 47 138 80 41 27 21 26 26 34 32
internal_value=0 0.0433173 -0.0658223 -0.01227 0.00193472 -0.0174285 0.0795981 0.0829451 -0.00897481 -0.0583872 0.00205837 0.0120648 -0.00948464 0.029785 0.000140211 -0.0090816 0.0188739 0.0893038 0.073372 0.0500862 -0.0878418 -0.0813872 -0.0590864 0.103394 0.112523 0.0792379 0.129596 0.0972215 -0.051433 -0.023476
internal_weight=308.15 183.24 124.909 40.9323 90.5223 52.9874 92.7182 85.3993 48.0126 7.47745 33.1808 28.5214 19.5471 37.5349 40.5351 34.2888 30.4142 78.8735 37.018 24.0621 83.9768 34.6954 19.0775 41.8555 34.5915 11.728 22.8635 12.808 7.51807 9.60883
internal_count=1899 878 1021 271 484 306 394 364 268 50 203 171 127 178 218 186 145 331 158 105 750 297 159 173 141 48 93 52 59 79
cat_boundaries=0 1 2 3 4 5 6
cat_threshold=4 4486 34987 1 2 2
is_linear=1
leaf_const=-0.0052038205879010868 -0.072285972953847019 -0.23104301168405783 -0.11938958394446963 0.2584749417587579 0.0068955378867109124 0.040444340294665683 0.14930064202042789 0.29035127268805783 0 -0.1022571770004916 -0.21963667949540808 0.13111013194952151 -0.0068384706939930602 0.25149709282681165 2.2784828664676753 0.362063692511083 0.36154485656839203 0.11982691725583834 0.32593692765561288 0.14017446394744298 0.20741966921966082 -0.089260335865383678 -0.27964620157753156 -0.019618297436011289 -0.1092722023632689 0.13543782770880738 -0.98807581578973336 0.52223709162355481 0.076384699376194479 -0.081024995653942972
num_features=1 1 2 1 3 2 3 0 3 2 3 2 3 3 2 2 2 2 3 2 3 3 2 2 3 3 3 3 3 3 3
leaf_features=8  0  0 8  0  0 5 8  5 8  0 5 8   0 5 8  0 8  0 5 8  0 5  0 5 8  0 5 8  5 8  0 8  0 8  5 8  0 5 8  5 8  0 5 8  0 5 8  0 5  0 5  0 5 8  0 5 8  0 5 8  0 5 8  0 5 8  0 5 8  0 5 8  
leaf_coeff=0.00065050367893232136  -0.00074037380693066097  0.0038186070845918074 0.00090601554772596357  0.00036985504030082609  -0.0097110703593159056 4.2933667482543775e-07 0.00042717910887032895  9.1305623935973115e-07 -1.506272203762038e-05  0.00088410364294919076 9.3010641610864529e-07 -0.0042957775496961269   -0.017386677455297029 -7.0017034227966067e-06 0.0099076119274132748  0.033394449265522756 -0.023882391307955688  -0.00013474651270324324 -6.9633749715775189e-08 -0.00022808847322048354  0.0021898510361232858 3.2798749733298606e-07  0.0010916487386923191 3.5270184646056231e-07 -0.0025936675252815401  -0.00055164605449477548 -2.5078733673199132e-07 0.0017682898613193112  -1.9735368342601403e-07 -0.0029045935010981517  -0.019949015831547002 -0.042643810137781207  -0.00029419068220858693 -0.0085525804683250339  -1.6948676431212395e-06 -0.0061870714658432639  -0.0025009727700891385 2.6278541455420426e-07 -0.00054579733024040511  -1.1532907721431058e-06 -0.0031984980286557498  -0.00087396268716829486 8.6878908891883081e-07 -0.0012420729876365224  -0.0062244004664765429 2.1412145884942911e-07 0.00019320620899176966  -0.00057854739757359221 4.4619068886506396e-08  0.0038384632379186105 6.6985237734938382e-09  0.0019692122730139649 3.1350245789819357e-06 -0.00098478613205301726  0.0020566659668203257 6.2384327359519885e-07 0.0023241169764097072  -0.0078648810613772442 -9.278351418576342e-08 0.004841073709513255  -0.0043253185845451569 7.7533639092289691e-07 0.029484903679955911  -0.0005592182494722598 -5.7896739817826516e-07 -0.0065566853220238924  -0.0072600029499397594 2.7649961055984667e-07 0.0011891732711168945  0.0033764294438015686 2.199343838303446e-06 -0.0038111898643832885  
shrinkage=0.1


Tree=8
num_leaves=31
num_cat=5
split_feature=3 2 2 0 4 5 0 5 5 8 0 0 8 5 0 0 5 0 5 6 5 8 0 8 0 5 0 8 5 5
split_gain=79.5778 23.3222 9.41421 4.61715 4.27205 5.74169 3.95614 2.45061 3.43989 2.26826 2.41158 4.08898 2.24166 2.10397 2.26901 1.77192 1.74464 1.73548 2.07556 2.27357 1.70143 2.28237 1.8101 1.64796 1.63236 1.6244 3.76264 1.7382 1.69819 3.02752
threshold=0 1 2 26.500000000000004 3 29134.335000000003 28.500000000000004 21538.500000000004 33632.600000000006 53.500000000000007 51.500000000000007 59.500000000000007 41.500000000000007 59732.775000000009 54.500000000000007 37.500000000000007 59732.775000000009 34.500000000000007 99434.165000000023 4 140012.44500000004 48.500000000000007 39.500000000000007 41.500000000000007 37.500000000000007 38195.715000000004 42.500000000000007 41.500000000000007 47117.580000000009 52477.80000000001
decision_type=1 9 9 2 9 2 2 2 2 2 2 2 2 2 2 2 2 2 2 1 2 2 2 2 2 2 2 2 2 2
left_child=1 4 3 -2 5 -1 12 -8 23 10 -6 -12 -3 14 15 -7 25 -4 19 -19 21 22 -5 -9 -18 26 -10 28 -27 -30
right_child=2 6 17 20 9 13 7 8 16 -11 11 -13 -14 -15 -16 -17 24 18 -20 -21 -22 -23 -24 -25 -26 27 -28 -29 29 -31
leaf_value=-0.044427155121074369 -0.086351120966300265 -0.044845906039703287 -0.10836941284489887 -0.048245052957380075 -0.062684426358612141 0.0042149460773912018 0.10981894963937944 0.015878690149425639 0.036787340319626272 0.018177643730998377 0.077384204704423309 -0.06516757722660961 0.056172005457617115 0.10649502118545376 -0.026693269315143944 0.085053266219658516 0.160935007407294 -0.021671222022779046 -0.10653748432928566 -0.092239836654414986 -0.055497925415654861 0.051829033254207992 0.014929823013625873 0.063751356004043802 0.090612577202166783 0.072168626098038299 0.15524576467712733 0.086166181887260884 -0.05455558527762612 0.066396867812495708
leaf_weight=9.0273390263319033 7.2513795793056479 4.2715434506535512 45.310554549098015 7.2462394237518373 23.307479985058311 4.2127595841884666 18.636928722262383 13.328015923500063 4.5548006296157819 6.5903436988592139 3.7389648705720884 4.35699762403965 4.5224511027336121 5.1277676522731772 4.5750543251633635 7.6089142709970474 4.8440330177545539 9.4478488638997078 14.394987583160399 8.8346177414059639 4.4840544015169135 9.1811151057481748 12.123331829905508 15.615533821284769 10.361505225300787 7.977342337369925 6.519277349114418 15.337024152278898 4.031968414783476 4.251716636121273
leaf_count=48 68 25 453 59 140 23 81 65 20 32 20 25 20 22 22 34 21 79 138 80 32 44 68 67 44 38 27 63 21 20
internal_value=0 0.0390357 -0.0626105 -0.0112908 -0.00824996 0.0169615 0.0657855 0.0769169 0.0698542 -0.0278331 -0.0463521 0.000667227 0.00710416 0.0505879 0.0331039 0.0562458 0.0839303 -0.0848244 -0.0781351 -0.055772 0.00176773 0.0107616 -0.00870417 0.0417068 0.113015 0.0735663 0.106523 0.0620159 0.0392379 0.00752494
internal_weight=301.072 182.798 118.274 40.2861 68.5456 30.5518 114.252 105.458 86.8212 37.9938 31.4034 8.09596 8.79399 21.5245 16.3967 11.8217 57.8777 77.988 32.6775 18.2825 33.0347 28.5507 19.3696 28.9435 15.2055 42.6721 11.0741 31.5981 16.261 8.28369
internal_count=1899 878 1021 271 366 149 512 467 386 217 185 45 45 101 79 57 254 750 297 159 203 171 127 132 65 189 47 142 79 41
cat_boundaries=0 1 2 3 4 5
cat_threshold=4 58896 34987 518 2
is_linear=1
leaf_const=-0.056340921068811944 -0.069037612721999153 -0.32546994268643348 -0.11858844607135986 0.16172236723025721 -0.12253809789529768 0.38497505385131003 6.6359582316977142e-05 0.036911682323250261 -0.42056873160034913 0.025716508250545368 2.8610206423111322 -0.37806528878825818 0.067666562095362801 0.085089283381504816 -0.045571005636888984 0.12445725221231499 0.38785956430613172 -0.047331675754532482 -0.085774580373567499 -0.2827483430045632 -0.21181397982944397 0.11578284711144385 -0.0072101943510080703 0.062781245187085236 0.17794800713684183 -1.1982064237013135 0.018883223272632678 0.20143497302406957 2.2510302096275154 1.7802267124039077
num_features=1 1 2 1 3 2 2 2 3 2 1 2 2 2 1 2 2 2 2 2 2 2 3 3 3 2 3 2 3 3 3
leaf_features=5  0  0 8  0  0 5 8  0 8  0 5  0 5  0 5 8  0 5  8  0 8  0 8  0 8  5  0 5  0 5  0 5  0 5  0 5  0 5  0 5  0 5 8  0 5 8  0 5 8  0 5  0 5 8  0 5  0 5 8  0 5 8  0 5 8  
leaf_coeff=6.034447782324949e-07  -0.00074768669188207681  0.0010450430737806383 0.0069151908035466449  0.00041159296543205051  -0.0091801068790089875 4.9904219850745329e-07 0.0011890405021882434  -0.00022247926069932089 0.001656004299724634  -0.0068948678415480212 -3.8837554489862972e-06  0.0012209331083843978 3.7738451559721958e-06  0.0011314086444381324 -4.4055482219148548e-06 0.0013297119696909861  0.0090790592141315688 3.6969492520298398e-06  -0.00011998855474077142  -0.049696117761443587 -0.0010474880838861279  0.0045668679100034472 0.00048706658814701154  0.010804377029815893 -0.0058696060220108821  1.5548988858315512e-07  0.0013428397054004505 -1.552219817983362e-06  0.00077561040785931743 -1.8705303773385778e-06  -0.0081919052183399895 3.8964140892096634e-07  -0.001085608843111341 1.2082071731545181e-06  -0.00061744690751235347 4.691584435578464e-08  0.0039610857595985486 -3.9467328016878262e-09  0.0021359520471363942 3.1685783802239104e-07  0.00093694976463106492 3.0097427349798239e-07 -0.002264203717911134  -0.00049259851398053285 -2.230862654986074e-07 0.0016031792446769167  -0.00028399423251580514 2.4473037294227284e-06 -0.001059090899341908  -0.0011946443368078042 -1.8825130680107927e-07  0.00074858622223816513 2.1529762154423072e-05 0.0082017961606501433  -0.0035472252575991185 8.9636776960652645e-06  -0.00049900374972785546 5.0678214240456292e-07 -0.0022087747332287244  -0.0022723084321161434 -4.643146291701504e-05 0.002494693465656117  -0.0034382045410269791 -3.5540942521742736e-05 0.010892247260856792  
shrinkage=0.1


Tree=9
num_leaves=31
num_cat=6
split_feature=3 2 2 7 0 5 0 2 5 5 5 0 0 5 5 8 5 0 0 5 8 5 5 0 5 5 5 8 0 6
split_gain=66.9217 20.8114 8.71356 6.72862 6.80472 4.31279 4.05071 2.89782 2.77884 3.33172 4.50385 3.14171 3.61423 2.76516 3.03154 2.45543 2.88801 2.67918 2.22529 2.09088 1.79605 1.58337 2.58841 1.58302 2.02637 1.51482 1.42347 1.8133 1.51923 1.46875
threshold=0 1 2 3 37.500000000000007 16330.520000000002 26.500000000000004 4 70200.60000000002 19430.205000000005 28251.555000000004 53.500000000000007 41.500000000000007 20435.400000000005 61032.000000000007 41.500000000000007 29386.665000000005 42.500000000000007 60.500000000000007 49195.090000000004 48.500000000000007 64004.205000000009 52477.80000000001 57.500000000000007 100787.93000000001 45388.020000000004 140012.44500000004 48.500000000000007 39.500000000000007 5
decision_type=1 9 9 1 2 2 2 9 2 2 2 2 2 2 2 2 2 2 2 2 2 2 2 2 2 2 2 2 2 1
left_child=1 7 6 4 21 -6 -2 8 9 -1 -11 12 -12 -7 18 17 -17 25 -15 -18 23 22 -3 -4 -25 -9 27 28 29 -8
right_child=2 3 20 -5 5 13 26 15 -10 10 11 -13 -14 14 -16 16 19 -19 -20 -21 -22 -23 -24 24 -26 -27 -28 -29 -30 -31
leaf_value=0.085366716768975476 -0.083317511199379191 -0.046561011735775086 -0.10336904860318222 0.12459479399312015 -0.082222728457687799 0.10940659636367561 0.0039331767385711756 0.0057862125063173446 0.10111875348225148 -0.076337779622642724 0.0052491147306599666 -0.048486611240469699 0.099609191086344959 0.011338797586705803 0.073033163632871725 0.16088150510409621 0.076461281391175598 0.10248632495907983 -0.06438328409713788 0.143614453538532 -0.052182008027243793 0.001529323724787284 -0.13970150987043056 0.029683813378653692 -0.11168831550596592 0.076954965387577387 -0.051956757356154792 0.045733441595822384 0.013335856652919743 -0.087911518558578358
leaf_weight=5.9022236913442603 6.7880530878901473 19.391471311450012 59.044913828372955 3.8946128338575354 4.4736982285976401 3.2582768797874442 3.2607229202985764 6.059087812900545 4.4841200560331336 5.7248339205980328 9.9563777521252685 4.7365052402019492 6.8532453775405875 31.872638523578644 7.2290206775069228 10.333799943327902 15.324420630931856 17.26458216458559 4.4190698638558379 6.6479829400777808 9.3175762817263585 4.9394366368651381 3.5262814611196509 2.092634290456771 1.9668195471167562 5.9059509485960007 4.3213764727115622 9.3532068580389005 12.206105649471281 3.7362358793616357
leaf_count=26 68 119 629 18 23 16 25 31 20 28 47 22 30 155 34 43 63 74 27 28 80 27 20 20 21 27 32 44 68 34
internal_value=0 0.035194 -0.0594849 -0.00332492 -0.0100427 0.0115795 -0.0103731 0.0647791 0.0215185 0.0172454 0.00250194 0.0234497 0.0437195 0.0205502 0.0138978 0.084544 0.117284 0.0772824 0.00211848 0.0967792 -0.0818614 -0.0498241 -0.0608922 -0.0992161 -0.0388115 0.0409152 0.00153221 0.00962661 -0.00795989 -0.0451101
internal_weight=294.285 182.198 112.088 83.0045 79.1099 51.2527 39.6657 99.1931 37.6573 33.1732 27.271 21.5461 16.8096 46.779 43.5207 61.5358 32.3062 29.2296 36.2917 21.9724 72.4219 27.8572 22.9178 63.1044 4.05945 11.965 32.8776 28.5563 19.2031 6.99696
internal_count=1899 878 1021 439 421 255 271 439 173 153 127 99 77 232 216 266 134 132 182 91 750 166 139 670 41 58 203 171 127 59
cat_boundaries=0 1 2 3 4 5 6
cat_threshold=4 174 34987 1 4 2
is_linear=1
leaf_const=0.04752904260787192 -0.065785606648969971 -0.011099058590594169 -0.12547309357156777 0.12459479399312012 -0.30952099870048999 -0.13221680061819827 0.2382783368462485 -0.11471608143595553 0.23156827372842237 0.26753274970231899 -0.044318855361698932 0.39133065421497409 0.44794173224526052 0.031227938581691997 0.1392832185937678 0.24616924797508091 0.07368686728522747 0.028070572317282938 0.25253678958032139 0.32385718559808796 -0.13458308992798715 -0.046684878570628668 -0.0080672666773921268 0.6106133342871175 -0.11181531964577403 0.40269266242754043 -0.2038391844694612 0.10257024268445997 -0.0073299739024918157 0.091904324379012803
num_features=1 1 2 2 0 2 2 3 3 1 1 2 2 2 2 2 2 2 2 2 2 1 2 2 3 3 3 2 3 3 3
leaf_features=5  0  0 5  0 8   0 5  0 5  0 5 8  0 5 8  5  5  0 5  0 5  0 5  0 5  0 5  5 8  5 8  0 8  0 5  5 8  8  0 5  0 5  0 5 8  0 5 8  0 5 8  0 5  0 5 8  0 5 8  0 5 8  
leaf_coeff=2.7889833793230874e-06  -0.00075721381417914735  -0.0012629255590280832 1.142062509583532e-07  0.00026906768572717844 0.00037782874695362902   0.0057980859283235271 -6.4670197603976114e-06  0.0027368429835557318 5.7439897028836041e-06  -0.008538950003797164 3.3771911127088001e-07 0.00022898224603091696  0.0040439745646011693 5.9386000150114408e-08 -0.0006165216232390504  -6.2342228987939373e-07  -1.3917735377299342e-05  0.00058856507370743522 6.9605990842736056e-07  -0.0073509633332563551 4.0187391631695569e-08  -0.0056262506230238879 -1.9383597627395583e-06  2.7949115423123173e-05 -5.6646025585521182e-07  -0.00080985102547356249 -1.6059084494460016e-07  -2.334148626002993e-07 -0.0015805610204429499  -1.0174529862640474e-06 0.0007770652675650636  -0.00069203728453188791 0.0030443868412170175  -0.0039347090525152289 -1.4720492395172348e-06  -2.0008504629577969e-07 -0.0031073823817072913  0.0014682876592232996  0.0036789993869089954 -3.6812372208034975e-07  -0.0015200725880196277 -1.5045829926221485e-06  -0.018020668646435613 3.1933116674174713e-06 0.010851272622007541  1.5687480453330238e-05 -4.0186988183000487e-10 -2.3036127920184059e-05  -0.0090608956715124925 4.7830587549994127e-08 -0.00015536486174780873  0.0020776050030528433 3.0527312780348624e-07  0.00081460656653812029 2.598687428397725e-07 -0.0019904463985066126  -0.00044052279676790875 -1.9881003100655979e-07 0.0014528457692882801  -0.0076673513242749188 2.7750455272152578e-07 0.0012209126875751153  
shrinkage=0.1


Tree=10
num_leaves=31
num_cat=5
split_feature=3 4 2 0 8 0 7 8 0 5 0 0 7 5 0 0 5 5 5 0 5 5 0 0 0 5 8 0 8 0
split_gain=56.3369 17.8883 8.20952 3.40463 3.28335 2.72849 2.69167 3.08076 1.79652 2.27996 1.71984 2.11963 1.67242 1.48268 1.45208 1.44378 1.49853 1.43371 1.40269 1.97061 1.77371 1.37488 8.61021 4.62016 1.6765 1.29269 1.66033 1.27271 1.26707 1.95719
threshold=0 1 2 26.500000000000004 41.500000000000007 28.500000000000004 3 26.500000000000004 56.500000000000007 99434.165000000023 31.500000000000004 43.500000000000007 4 59330.335000000006 53.500000000000007 35.500000000000007 47117.580000000009 26510.045000000002 39451.380000000012 36.500000000000007 29134.335000000003 30167.705000000005 51.500000000000007 47.500000000000007 42.500000000000007 44056.680000000008 47.500000000000007 28.500000000000004 48.500000000000007 40.500000000000007
decision_type=1 9 9 2 2 2 1 2 2 2 2 2 1 2 2 2 2 2 2 2 2 2 2 2 2 2 2 2 2 2
left_child=1 6 3 -2 5 -3 7 -1 12 -10 -7 13 -4 -12 17 27 -17 -13 19 20 -9 23 -23 24 -21 -20 -27 -6 29 -5
right_child=2 4 8 28 15 10 -8 18 9 -11 11 14 -14 -15 -16 16 -18 -19 25 21 -22 22 -24 -25 -26 26 -28 -29 -30 -31
leaf_value=-0.0025822260374348937 -0.079607219779379595 -0.093430434633496429 -0.098379000293623994 -0.048946936289814121 0.035845172269693873 0.036321887064693338 0.12795771723615423 0.059692220777695065 0.025214149388858572 -0.11335040008818105 -0.031628531521294224 0.069048914192319663 0.00056180644037798319 -0.10720937976307228 -0.02500294345783808 0.022973390261648113 0.086174280921063953 -0.0014460180460140165 0.12117398457360913 0.0531968109763628 -0.030478136179510174 0.17896949683120575 0.013658866254420419 0.11406719688814249 -0.01942707216525251 0.088571461822203115 0.035607179684025859 -0.031375101202924714 0.03021560185517759 0.011174565995239543
leaf_weight=6.5683052614331237 6.2331695258617392 4.3902954533696166 60.440816320478916 8.845775820314886 4.3740945607423765 6.6031406819820395 6.9435492455959311 4.298177167773245 2.8462647274136534 2.0375370010733604 13.085874594748022 4.4716842919588116 1.758108653128146 3.2376948818564406 12.031651355326174 20.968774981796745 4.5690990388393393 8.130608417093752 7.1445538550615302 6.0023021101951617 4.4298054054379463 6.0784178674221021 6.5415289402008057 7.3976275622844687 6.757001593708992 21.142190515995029 8.2198729664087278 7.9102983400225639 10.227806054055689 13.959747813642023
leaf_count=33 67 38 676 77 22 34 30 21 26 22 83 22 18 19 69 96 20 41 30 25 21 25 27 31 28 88 35 40 51 84
internal_value=0 0.0317939 -0.0564546 -0.00942112 -0.00151443 -0.0180009 0.0613963 0.0631909 -0.0791917 -0.0325954 -0.0110381 -0.0186734 -0.0955823 -0.0466196 -0.00015502 0.0207303 0.034281 0.0235678 0.0687288 0.0561529 0.0139271 0.067397 0.093281 0.0511914 0.0147371 0.0830265 0.0737442 -0.00744003 0.000970529 -0.0121453
internal_weight=287.646 181.297 106.349 39.2665 89.7732 51.9509 91.5233 84.5798 67.0827 4.8838 47.5607 40.9575 62.1989 16.3236 24.6339 37.8223 25.5379 12.6023 78.0115 41.5049 8.72798 32.7769 12.6199 20.1569 12.7593 36.5066 29.3621 12.2844 33.0333 22.8055
internal_count=1899 878 1021 279 484 306 394 364 742 48 268 234 694 102 132 178 116 63 331 178 42 136 52 84 53 153 123 62 212 161
cat_boundaries=0 1 2 3 4 5
cat_threshold=4 4486 18603 1 1
is_linear=1
leaf_const=-0.016199293717021834 -0.030289933945071824 -0.23741166628063157 -0.1139293301883214 -0.029011419110260308 -1.3457860709891094 -1.1120722068286455 0.12795771723615426 -0.81548199509727937 0.43262787264802294 -0.1211725232794521 -0.14343791276853182 -1.7051818551232829 -0.14568053907232398 -0.13509519432427056 -0.050801694249415878 0.18397581292333101 0.50893246193016572 -0.15815871553115796 -0.5025431605887889 0.67334803743381144 0.4282473958042296 0.16012961039339191 1.2643800581879994 0.0090672657993707169 0.26046389076409754 0.029946388342915499 -0.12115455560725259 -0.086344099315344647 0.15002910319403853 0.19307367566983447
num_features=1 1 2 1 2 2 2 0 3 2 2 3 3 1 3 2 3 3 3 2 3 3 3 3 3 3 2 2 2 2 2
leaf_features=8  0  0 8  0  0 8  0 8  0 8   0 5 8  0 5  0 5  0 5 8  0 5 8  0  0 5 8  0 8  0 5 8  0 5 8  0 5 8  5 8  0 5 8  0 5 8  0 5 8  0 5 8  0 5 8  0 5 8  5 8  5 8  0 8  0 8  0 8  
leaf_coeff=0.00078327554751264508  -0.002109381135307853  0.0043667172215816402 0.00084411043590479915  0.00048641306758697713  -0.0031909143218991857 0.0021726780409201674  0.047473976192044721 0.0026081749067339345  0.029641020164691056 0.0065967015879200954   0.013146926264637093 -1.1139836854222966e-06 0.010408371401378914  -0.0097517985092344453 3.0101036790815008e-06  0.00038194508049693709 -9.2445391978524324e-08  0.0050446508550559214 8.6150347798142949e-07 -0.002771064755585151  0.029307456922499767 1.0234852620372441e-05 0.0048873874236035064  0.0041607910319196046  -0.0021173646674288449 3.0640954533511185e-07 0.0019961024691956485  -0.00011186145063287745 0.00091489630737708332  -0.00066845936402261386 -1.2197659064514632e-06 -0.0017465116005246474  -0.0054327401822366729 -5.0951655569672692e-07 -0.0021524382969033418  -0.0023983193709975759 -3.7669150013880049e-07 0.0075031397985092802  1.5040886062041293e-05 0.00013042968584742187  -0.013820285888386508 -1.4325736077846485e-06 -0.0008810004701739427  -0.013452497324735913 -9.1008711453881336e-06 0.0057688440307146292  0.00060885480316703606 -1.1657194841585562e-06 0.00065136349948660135  -0.011676475466521802 -1.1340614279248078e-05 -0.0042646221281270802  0.001809830469678886 9.2963749433438428e-07 -0.00024290158110840121  -0.0043113509279115725 -1.289017646180843e-07 -0.001908852106533339  -4.1845749697161656e-08 0.0015928560058872778  4.064260830056271e-07 0.0021724096530568809  0.0074188712097853493 -0.0034329967967267616  0.0011349572850294018 -0.0029442336473427481  -0.0022877552693036872 -0.0017931902262853267  
shrinkage=0.1


Tree=11
num_leaves=31
num_cat=4
split_feature=3 2 2 6 5 0 5 0 5 8 0 8 0 0 5 5 8 5 5 0 0 5 0 5 5 5 8 5 5 0
split_gain=47.4394 17.3526 7.58583 6.62643 4.86979 4.32503 4.4425 3.33359 3.52604 3.0024 2.49103 2.22639 2.70695 3.69624 2.05869 2.18621 2.82191 1.93838 1.94661 1.86031 1.74498 1.70269 4.46284 1.54392 1.86121 2.61051 1.41783 1.36222 1.51181 1.95191
threshold=0 1 2 3 89918.320000000022 25.500000000000004 105751.86500000001 37.500000000000007 13304.090000000002 35.500000000000007 28.500000000000004 37.500000000000007 40.500000000000007 43.500000000000007 15130.985000000002 59732.775000000009 37.500000000000007 47117.580000000009 22758.170000000002 37.500000000000007 34.500000000000007 47117.580000000009 38.500000000000007 85814.590000000011 79476.60000000002 73780.295000000013 41.500000000000007 67187.835000000006 56318.030000000006 40.500000000000007
decision_type=1 9 9 1 2 2 2 2 2 2 2 2 2 2 2 2 2 2 2 2 2 2 2 2 2 2 2 2 2 2
left_child=1 10 3 4 -2 -4 9 20 -9 -7 26 -10 -13 -14 -12 16 -16 18 -15 -17 -3 22 -11 24 25 27 -1 28 -23 -30
right_child=2 7 5 -5 -6 6 -8 8 11 21 14 12 13 17 15 19 -18 -19 -20 -21 -22 23 -24 -25 -26 -27 -28 -29 29 -31
leaf_value=-0.038552826753921125 0.023855607236820696 -0.025015408873276041 -0.10935609592384626 -0.035050542702871799 0.19410608806898441 -0.11054730868569712 -0.09532196037016985 -0.092974889594083135 -0.046150339702886387 -0.08798559467834971 0.1136809361634156 0.089420144205291499 -0.058942701520162726 0.071506095167055986 -0.012748527118663195 0.14962303352935935 0.058536444477072715 0.065068261606730349 -0.005505755553756082 0.070964722433415867 -0.088582266699618287 -0.092956201407531192 0.061550172506244408 -0.0036178463179658616 -0.11584388027807016 0.043950460844878282 0.044919453108513439 -0.12026125651285513 -0.057694465774005943 0.066147101212476633
leaf_weight=3.7802812382578832 3.7210968360304832 19.951222330331806 24.046922720968723 7.6452121287584287 3.0631000474095345 5.2079790979623786 22.269496567547321 3.3817985802888861 5.6437043398618689 3.0766440331935865 7.6294227242469779 5.0477660298347464 6.213821902871131 4.0651869475841584 6.0441141277551642 4.4114404022693625 68.378376364707947 8.8567035943269712 17.040501207113266 9.4426251053810102 5.5114258453249922 3.4759892225265556 5.6812356561422348 7.5404664278030387 4.2001175731420508 2.9379767626523963 4.4072648137807846 2.9490878731012335 3.177729994058609 2.1229610666632652
leaf_count=22 23 127 309 55 20 62 250 18 37 30 33 24 31 19 34 20 298 40 83 41 32 30 40 66 40 22 19 27 29 18
internal_value=0 0.0288261 -0.0534507 0.0170027 0.100725 -0.0657236 -0.0594658 -0.00821256 0.00563959 -0.0396864 0.0541246 0.0127552 0.0208196 0.0112476 0.0638442 0.059537 0.0527471 0.0258042 0.00932757 0.0960113 -0.0387745 -0.0291909 0.00901824 -0.0418643 -0.0571526 -0.0403417 0.00637937 -0.0614617 -0.0417042 -0.00809512
internal_weight=280.922 179.806 101.116 14.4294 6.7842 86.6866 62.6397 75.7121 50.2495 40.3702 104.094 46.8677 41.224 36.1762 95.906 88.2766 74.4225 29.9624 21.1057 13.8541 25.4626 35.1622 8.75788 26.4043 18.8639 14.6637 8.18755 11.7258 8.77668 5.30069
internal_count=1899 878 1021 98 43 923 614 411 252 364 467 234 197 173 426 393 332 142 102 61 159 302 70 232 166 126 41 104 77 47
cat_boundaries=0 1 2 3 4
cat_threshold=4 175 169 2
is_linear=1
leaf_const=-0.38878789877250175 -0.015067917349005901 -0.080683607042803737 -0.10686492078938557 -0.035050542702871799 0.30609629109573167 -0.10442415498828056 -0.08176747191781325 -0.21748965524599484 -0.062902773450994695 -0.13264896589164579 -0.098206124330010885 -2.9222993476700143 0.44539688477109396 0.25849063170029751 0.14542185888131245 0.2464259537965745 0.046927401954466319 0.41471163305610192 -0.11406604088455055 0.14358956990984667 -0.37778079901663664 0.21510089114092923 0.76478271250151408 0.48816117806683013 -0.049013809743291864 4.2585742638106012 0.15210047045987096 -0.061791038286582993 0.52648981566251229 -0.11250678051170554
num_features=2 1 1 1 0 1 3 2 2 3 3 2 3 3 3 3 2 3 3 3 2 1 3 3 3 3 3 2 3 3 3
leaf_features=0 8  5  0  0   5  0 5 8  0 5  0 5  0 5 8  0 5 8  0 5  0 5 8  0 5 8  0 5 8  0 5 8  0 5  0 5 8  0 5 8  0 5 8  0 5  0  0 5 8  0 5 8  0 5 8  0 5 8  0 5 8  0 8  0 5 8  0 5 8  0 5 8  
leaf_coeff=0.0032106720069530418 0.007322013767309868  6.9928606164519269e-07  0.0019221277645272595  -0.00011665056710912225   -7.77643117499259e-07  -9.7534604559579297e-05 8.7371895849471148e-10 -7.5186464202547937e-05  0.00023606527182806205 -1.3423925542750781e-07  0.0052886768573205513 -1.6891100663865533e-05  -0.00036332578061015752 2.5955157920605567e-07 0.00073955456968586306  0.0017534004876145648 -1.9814118774133076e-06 0.0011653034878890522  0.0013892045275778421 1.5111112046681339e-05  0.074243484079299552 -5.2862557956279415e-08 0.0026418907304689211  -0.010652131200816229 8.6130478225993091e-07 -0.0021682254159843817  -0.002602967240858756 1.1448562070625994e-06 -0.0017500420071254741  0.0018182670508889753 -5.2048376168606429e-06 -0.004044793489120584  -0.0039017199576635523 2.6498565907787311e-07  0.00017324387494170869 -6.5960245946010849e-10 8.2089107294253119e-05  -0.0032333220495172066 -5.5166262738550947e-07 -0.0029035788165673706  0.00062546695136396491 4.6837788302872221e-07 0.0012927457248134316  -0.00079725776223530396 -2.0838566683404018e-07  0.0080506109815580377  -0.0027546695764404162 -3.4741908805335267e-06 -0.00032468194976131848  -0.014352703083059271 4.4612298629491892e-06 -0.0032585018409470481  0.0015629420833712154 -8.0671710027736757e-06 0.0047570770263653224  -0.00013566730336478372 -5.7349711196988395e-07 -0.00032254438172961143  0.0037867829195491602 -6.2522407451084952e-05 0.0098189758536969107  0.003747174851997315 -0.0041275524258964748  -0.00032051653694319397 1.7052970767740539e-07 -0.0013495510574653036  -0.0007032210142738027 -7.6757508636999927e-06 -0.001866918205489987  -0.0037037270262723632 3.8768341749607569e-07 0.0074076850988928911  
shrinkage=0.1


Tree=12
num_leaves=31
num_cat=5
split_feature=3 2 2 2 0 0 5 5 5 5 5 0 0 5 5 5 8 0 0 0 5 6 0 5 8 0 0 0 0 0
split_gain=39.9775 14.1006 8.88407 3.31117 2.77553 2.75177 2.98081 2.25788 2.4384 1.8739 3.0436 2.38592 3.05988 2.82332 2.38575 2.32179 1.82998 2.1249 3.04055 1.76108 1.97846 2.2201 1.66158 3.14707 1.64461 1.56501 2.54456 2.15763 2.11142 1.92691
threshold=0 1 2 3 26.500000000000004 37.500000000000007 13304.090000000002 70200.60000000002 15130.985000000002 28251.555000000004 26202.650000000005 30.500000000000004 34.500000000000007 31447.195000000003 44383.265000000007 59732.775000000009 37.500000000000007 40.500000000000007 43.500000000000007 34.500000000000007 99434.165000000023 4 41.500000000000007 30039.515000000003 47.500000000000007 48.500000000000007 45.500000000000007 57.500000000000007 54.500000000000007 51.500000000000007
decision_type=1 9 9 9 2 2 2 2 2 2 2 2 2 2 2 2 2 2 2 2 2 1 2 2 2 2 2 2 2 2
left_child=1 3 4 7 -2 -3 -7 8 -1 10 -5 -11 -13 -14 24 -16 -8 -18 -19 -4 21 -21 23 -10 -15 26 -20 28 29 -27
right_child=2 5 19 9 -6 6 16 -9 22 11 -12 12 13 14 15 -17 17 18 25 20 -22 -23 -24 -25 -26 27 -28 -29 -30 -31
leaf_value=0.088584211891388737 -0.071985729383886463 -0.035610901115194736 -0.10250668098655645 0.079592912672507801 0.0067359245935146063 -0.087814323951511161 -0.042789941897788605 0.08283992873213282 -0.098265475258445978 -0.0081190963533782391 0.17230576244796347 0.12685409824548924 -0.022879414658977554 0.13137714184012159 0.011377934993362662 0.089816851780076298 0.078773333858770611 -0.054498082825130967 0.0037110218025505773 -0.010862299953613576 -0.10067863935170474 -0.085584108185848287 0.019913728421840374 0.0045840987123996124 0.062025018681611865 -0.025713711635836148 0.10966249493538456 0.057825369659581877 -0.068959452278822317 0.061775436446265854
leaf_weight=3.30100393295288 5.2301089167594901 24.988733924925327 32.950855620205402 15.806646764278414 31.176223531365395 3.2341061681509009 5.4887171685695639 4.4509701728820792 4.3100588023662594 4.1806991994380942 4.5630208700895301 7.9637236148118964 3.8326654434204093 7.2922278642654437 9.6887080520391446 6.1810975372791281 5.1485806405544272 6.0624822825193396 4.4366981089115161 8.5559629499912262 11.008471705019472 7.4286787882447252 16.09409449249506 9.6053856015205366 6.4382936358451843 5.7306380271911639 4.634495347738266 6.1669929772615424 4.5845636874437323 4.4896486848592758
leaf_count=14 63 159 458 69 197 18 37 20 23 21 20 36 17 33 44 27 24 31 21 81 141 81 71 45 27 27 21 31 22 20
internal_value=0 0.0260736 -0.0505989 0.0488779 -0.00358771 -0.00751372 0.00503159 0.012607 0.00700716 0.065252 0.100362 0.0638775 0.0711485 0.0578794 0.0683361 0.0419289 0.0114555 0.0186727 0.0101025 -0.0745556 -0.0680556 -0.0455884 -0.00196619 -0.0272717 0.0988577 0.0231384 0.0578419 0.00812774 -0.0125739 0.0127192
internal_weight=275.025 178.674 96.3503 103.709 36.4063 74.9657 49.9769 37.7615 33.3105 65.9471 20.3697 45.5774 41.3967 33.433 29.6003 15.8698 46.7428 41.2541 36.1055 59.944 26.9931 15.9846 30.0095 13.9154 13.7305 30.043 9.07119 20.9718 14.8049 10.2203
internal_count=1899 878 1021 467 260 411 252 173 153 294 89 205 184 148 131 71 234 197 173 761 303 162 139 68 60 142 42 100 69 47
cat_boundaries=0 1 2 3 4 5
cat_threshold=4 175 2219 4 2
is_linear=1
leaf_const=-0.045059799911157675 -0.0046245242084708591 0.072515762793551986 -0.11671819495192821 0.10012651964755187 -0.035831226100368506 -0.21491282592343453 -0.058704932138221366 0.20257899509341321 0.17195259850949043 -0.47561629103273689 -0.39492584538520537 0.052458466865959966 1.1009452090419871 0.050130252372707677 0.044997201143656795 0.18174294229207605 -2.5288146418971795 0.48604433196601349 3.0624183053930665 -0.024019869011039585 -0.067816247901859583 -0.28969098325306958 0.2180322047001326 -0.046355966041266329 -0.072683354846608955 1.2731255532727119 -0.10101657179657196 0.76051312716268171 4.3835802472252912 -4.9062448472723652
num_features=1 1 1 1 1 1 2 3 1 2 2 1 2 2 3 2 2 3 3 3 2 2 2 2 2 3 3 3 3 3 3
leaf_features=5  0  0  0  5  0  0 5  0 5 8  5  0 5  0 5  5  0 5  0 5  0 5 8  0 5  0 5  0 5 8  0 5 8  0 5 8  0 5  0 5  0 5  0 5  0 5  0 5 8  0 5 8  0 5 8  0 5 8  0 5 8  0 5 8  
leaf_coeff=1.2653450782787587e-05  -0.002875672408590102  -0.0035514339087826864  0.0005716303584451188  -1.1387647386998574e-06  0.0010083988322453687  0.0052112510916040751 -1.6365442136462513e-05  -0.0003517587551223611 2.4293328747164455e-07 0.00071599671870438419  -5.7187025132743007e-07  -0.0030632688158274135 -7.1071282028669218e-06  0.014899059638509238 4.1743966656997743e-07  2.084084158895938e-05  0.0018649207022072289 1.9999421668470687e-07  -0.0062589521320679971 -2.7401065518320099e-05  0.00028953456450924174 -8.875496434288845e-07 0.0025252626230346299  0.0023494075747316507 -2.8508675258590802e-06  -0.0013881943283622245 -1.9595018294748825e-07  0.064250370478460897 -4.8011763663789367e-08 0.0023027558488732283  -0.011310472234075065 7.8381135527652695e-07 -0.0022980874283490718  -0.079608093520843512 1.2149161801473073e-06 0.0098836434434955503  -0.0010960935414090725 9.8306794533267985e-07  -0.00088865400174789058 5.027152711890352e-08  0.004255497434508532 -6.8963634550170283e-08  -0.0034365702675216909 -5.344107725253036e-07  0.001937831055259206 -2.7880120825035543e-07  -0.0021746348929440719 4.1845009196585757e-06 0.0013278127313183564  -0.0258316712430414 -5.1098677422495707e-07 0.00028566909565268809  0.0065885708955576664 -7.3981621832105594e-07 -0.0013370221666630046  -0.012923295275006642 3.7698939746601654e-07 0.0018713466631977483  -0.076668879524531525 -5.4816797412183878e-07 -0.0020938981115232514  0.094807491912787617 -4.572691465284712e-07 -0.0012092789645228039  
shrinkage=0.1


Tree=13
num_leaves=31
num_cat=6
split_feature=3 4 2 8 0 7 8 5 0 0 5 6 0 0 0 8 5 5 5 5 5 5 5 8 0 6 8 5 5 5
split_gain=33.6196 12.5838 8.10767 2.46468 2.39494 2.3678 2.1477 2.93965 2.09376 1.80645 1.93492 2.02966 1.63663 1.48535 1.63725 1.22048 1.7933 1.03165 1.47584 1.14538 1.76378 1.03037 0.923886 1.45817 1.11986 1.23202 0.904333 0.859807 2.89422 1.30922
threshold=0 1 2 41.500000000000007 26.500000000000004 3 37.500000000000007 115648.01000000002 28.500000000000004 34.500000000000007 99434.165000000023 4 56.500000000000007 31.500000000000004 36.500000000000007 37.500000000000007 34166.205000000009 47117.580000000009 40403.080000000009 26202.650000000005 18838.730000000003 91074.435000000012 140012.44500000004 48.500000000000007 39.500000000000007 5 48.500000000000007 13304.090000000002 20435.400000000005 30039.515000000003
decision_type=1 9 9 2 2 1 2 2 2 2 2 1 2 2 2 2 2 2 2 2 2 2 2 2 2 1 2 2 2 2
left_child=1 5 4 8 21 6 7 -1 -3 26 11 -11 -13 -10 -15 16 -16 18 19 20 -5 -2 23 24 25 -6 -4 -8 -29 -30
right_child=2 3 9 17 22 -7 27 -9 13 10 -12 12 -14 14 15 -17 -18 -19 -20 -21 -22 -23 -24 -25 -26 -27 -28 28 29 -31
leaf_value=-0.047311126767174472 -0.10932291516946285 -0.088724939849863724 -0.1074617166181767 0.029563004848669285 0.0064493199417582194 0.11257291041814871 0.013937705736346815 0.062820089897555942 0.031053527675234796 -0.0098899715348210997 -0.098962525323753617 -0.11085016194214346 0.0012721265486921661 -0.075889212318722601 -0.0053960635095015941 -0.0046446779218001794 -0.11746818576040462 0.048198185217733454 -0.041139324535556972 0.03388378992624496 -0.057554758888270011 -0.017185666081273209 -0.040491208551137532 0.045066015407843912 0.014226948152086041 -0.081232005063495899 -0.053885237771883358 0.13765809430698003 0.025970734602617687 0.060708544559717907
leaf_weight=5.0476178526878339 2.7698979750275603 3.942023277282714 26.629332978278402 5.0501540154218727 3.1925786435604095 6.4682900607585898 4.6251756101846686 4.6623735576868057 6.6200992763042441 8.483910895884037 10.125175401568411 5.2047498710453519 1.7361276820302007 4.6466386914253226 3.2390277832746497 29.898116730153561 2.5532285124063492 7.5140209048986426 5.2959736585617057 15.312958098948 4.3050855249166489 2.1603743657469749 3.7545373290777198 9.1268873512744886 11.975547380745409 3.2175820544362166 3.5732550472021094 4.3242999762296668 13.88888308405876 49.577943533658981
leaf_count=28 36 38 413 25 25 30 21 20 34 81 141 64 17 39 21 151 23 35 26 69 23 27 30 42 66 34 45 19 61 215
internal_value=0 0.0236617 -0.0477283 -0.00394813 -0.00326987 0.0488108 0.0497323 0.00556975 -0.0187248 -0.0717058 -0.0649965 -0.0427004 -0.0828049 -0.0128483 -0.0200535 -0.0127841 -0.0547975 0.0150666 0.00675833 0.0170414 -0.0105268 -0.0689497 0.0060409 0.012391 -0.00382934 -0.0375623 -0.101123 0.0556539 0.0585 0.0531066
internal_weight=268.922 176.972 91.95 88.3773 36.1974 88.5946 82.1263 9.70999 50.8991 55.7526 25.55 15.4248 6.94088 46.9571 40.337 35.6904 5.79226 37.4782 29.9642 24.6682 9.35524 4.93027 31.2671 27.5126 18.3857 6.41016 30.2026 72.4163 67.7911 63.4668
internal_count=1899 878 1021 484 260 394 364 48 306 761 303 162 81 268 234 195 44 178 143 117 48 63 197 167 125 59 458 316 295 276
cat_boundaries=0 1 2 3 4 5 6
cat_threshold=4 4486 2219 1 2 2
is_linear=1
leaf_const=0.00060619084343089831 -0.10627282140651317 -0.24382221051423869 -0.10586789262197023 -0.27785891841583743 0.24372476032211898 0.11257291041814871 0.038515256137581493 0.051901413838097814 -0.9925674689883579 -0.022792432604452142 -0.063894519059953581 -0.10257019578466497 -0.47688401151826554 0.54889483420043916 -0.25668199796498675 0.19079567757847826 -0.10385931084626279 0.20030135240641425 0.48293559387787471 0.038309472619807397 0.55575347294184352 0.032268127134145889 -0.34553265661694188 0.13522778664301818 -0.047674471258995869 0.13149916480391541 -0.32594633089782055 -0.073317829272008347 -0.018706314794620482 0.094446427763445945
num_features=2 2 2 2 2 3 0 2 2 2 2 2 2 2 2 3 2 3 2 2 2 2 2 2 3 3 3 2 2 2 2
leaf_features=5 8  0 5  0 8  0 8  5 8  0 5 8   5 8  5 8  0 8  0 5  0 5  0 5  0 5  0 8  0 5 8  0 8  0 5 8  5 8  5 8  5 8  5 8  0 5  0 5  0 5 8  0 5 8  0 5 8  0 8  5 8  5 8  5 8  
leaf_coeff=-2.4692202100713416e-06 0.001260410432350484  -0.00011374548643292571 -6.549883401835632e-09  0.0048113633480355135 0.00083001608846898782  -3.6394541947037951e-05 -2.0413058122881192e-05  4.4600135356594424e-06 0.0049567592765452978  -0.0082027050650459263 1.5984955229893207e-07 0.00022237529692353543   -1.1472233830331293e-05 0.0014897153407647358  1.3873938544264275e-07 -0.00092929273907590428  0.02590251191751243 0.0062503731455777062  -0.0010186670037206052 9.1655073265107711e-07  -0.00095423235006317783 5.486876242654859e-08  -0.00023920850429608455 4.137441285610949e-08  0.010582031864262598 -2.4253595301094655e-06  -0.0069187588326773408 -0.010200779524121118  0.0044315818863705954 4.8263600009984441e-07 -0.0006995640643446357  -0.00057202756947387877 -0.0041944067275132115  -3.1131644485515862e-05 -6.4455787120455669e-08 -0.00020634484176308978  -1.4738295190463796e-07 -0.0025675417734288054  -6.7604942869147097e-06 -0.0045202809353611989  -1.268243275468384e-06 0.00071417682251618826  -2.274750767740242e-05 -0.0017527184568264854  0.00048466408349575609 -3.9426556068552048e-07  0.0039416843500518998 6.8538272874011924e-07  0.00024165446899094558 3.3165594878944652e-07 -0.0022702298457370654  4.4563842648764899e-05 -3.2578274871134168e-08 0.0016094914085752643  -0.0085124735399949355 2.9846103707938355e-07 0.0010140843367697273  0.0017460923908153682 0.0039190580650913303  6.1637429255446097e-06 0.0022112558855708511  2.3007547619233402e-06 -0.00031647248258767635  -9.610133442760828e-09 -0.00070734000059148876  
shrinkage=0.1


Tree=14
num_leaves=31
num_cat=9
split_feature=3 2 4 2 7 4 5 0 0 5 6 8 0 8 0 8 8 5 5 5 5 5 6 0 5 5 0 0 0 7
split_gain=28.3109 11.5701 7.34959 5.58693 4.46874 3.29721 5.27918 3.23346 3.49312 2.45627 3.75238 2.16257 3.66672 3.17041 2.05959 2.03995 1.93376 1.84434 1.76127 1.75658 1.67436 1.51852 1.69979 1.40038 1.37729 1.8476 1.56915 1.04991 1.41525 1.03643
threshold=0 1 2 3 4 5 61032.000000000007 45.500000000000007 49.500000000000007 91074.435000000012 6 41.500000000000007 33.500000000000007 47.500000000000007 36.500000000000007 48.500000000000007 42.500000000000007 82863.660000000018 29386.665000000005 144356.73500000002 74709.99500000001 36865.170000000006 7 59.500000000000007 20946.475000000002 30039.515000000003 32.500000000000007 39.500000000000007 33.500000000000007 8
decision_type=1 9 9 9 1 9 2 2 2 2 1 2 2 2 2 2 2 2 2 2 2 2 1 2 2 2 2 2 2 1
left_child=1 4 3 14 5 7 15 -1 -9 10 -5 12 -3 -13 17 16 24 -2 -15 -8 -16 22 -4 -10 -7 -26 -27 28 -12 -23
right_child=2 11 21 9 -6 6 19 8 23 -11 27 13 -14 18 20 -17 -18 -19 -20 -21 -22 29 -24 -25 25 26 -28 -29 -30 -31
leaf_value=-0.055708593514413318 -0.059726712045378105 -0.033304663390147968 -0.081419048035271377 -0.09714203224266757 0.085764662529740326 0.034282832644255419 0.12759575127736283 0.087106131402709619 0.0031167182326085532 -0.099725393102072693 3.5868894582933876e-05 0.12590694416728646 0.053309408010738905 0.097052529631153295 0.10745386208147951 0.030068767048606698 -0.064405078066477592 0.042634299890802592 0.039824561840877758 0.040482543807136367 0.032472799779880691 -0.092879408787658727 0.045872682936547136 -0.070149658333988452 -0.066261868831217235 0.054299918663189443 -0.017282240307524451 -0.016966577237231214 0.12907042418309467 -0.018051050475368206
leaf_weight=23.217830654233694 3.0655133351683643 5.7554354891180983 2.4757133573293686 4.4969146065413961 5.5544752031564704 7.0304571762681034 4.1596320569515211 3.7739882618188849 7.0003980696201307 7.1759715229272834 1.847539208829404 8.9777153134345991 32.4167645201087 7.660995781421664 5.479309529066084 13.714414112269877 6.5496841520071021 4.1340175047516823 18.045145615935326 5.2189069464802742 6.5242001265287399 43.393659438937902 1.8204194866120804 4.1584753915667534 5.5842688530683544 4.0561364144086864 12.499063469469545 3.7987425848841667 1.5743049941956995 1.9334734827280033
leaf_count=137 27 33 29 47 26 37 19 19 35 94 28 39 152 36 28 63 31 33 79 25 39 610 21 25 33 25 64 31 14 20
internal_value=0 0.0214623 -0.0450595 -0.00457133 -0.00133677 -0.00646418 0.00883276 -0.0256402 0.00394031 -0.0350825 -0.0254345 0.0498328 0.0402501 0.074747 0.0271818 -0.00271516 -0.0153024 -0.000950352 0.0568798 0.0791196 0.0666998 -0.0701629 -0.0274812 -0.0241868 -0.00427715 -0.016522 0.000255875 0.0192243 0.0594014 -0.0896875
internal_weight=263.094 175.374 87.7198 38.0965 102.518 96.9633 58.8126 38.1507 14.9329 18.8935 11.7175 72.8561 38.1722 34.6839 19.203 49.434 35.7196 7.19953 25.7061 9.37854 12.0035 49.6233 4.29613 11.1589 29.1699 22.1395 16.5552 7.22059 3.42184 45.3271
internal_count=1899 878 1021 341 539 513 297 216 79 214 120 339 185 154 127 253 190 60 115 44 67 680 50 60 159 122 89 73 42 630
cat_boundaries=0 1 2 3 4 5 6 7 8 9
cat_threshold=4 58900 900 139 1 11401 1 2 1
is_linear=1
leaf_const=-0.04982497996841069 -0.264185676130203 -0.60110895722711322 -0.20248037409141695 -0.12528677768848481 0.085764662529740313 0.040755746109233118 0.15920173537826959 -1.0339019827961238 -1.4423621189204088 -0.15149695513113903 -0.78903167895181614 0.15773061735910687 0.013293751014275303 0.17465959816637452 -0.080603115230634625 -0.022471980843929453 -0.010249583884740333 0.61703085121598278 -0.0050557031779362663 -0.024881526658887588 0.35297528211834417 -0.099853386081633397 -0.14057229324718823 -0.39130537238584395 0.014345710990656358 -1.9123236754703612 -0.11256681434712945 -0.32188800563067366 -2.8666754825356637 0.13894567846700254
num_features=1 2 2 1 1 0 2 1 1 1 1 2 1 2 2 2 2 2 2 2 1 2 1 1 1 2 3 3 2 2 1
leaf_features=0  0 5  0 8  5  5   5 8  5  0  0  5  0 5  8  0 8  5 8  0 5  5 8  5 8  0 5  5 8  5  0 5  5  5  0  5 8  0 5 8  0 5 8  0 5  0 5  5  
leaf_coeff=-0.00016787224249413258  0.0036936939639328871 1.6475225175398945e-06  0.014616116570984806 0.0036886448968169784  4.9899830385642851e-06  5.133675883206587e-07   4.7278108782473909e-06 -0.0018524720750575764  -3.4784912225638832e-07  0.023657969920384405  0.026789550768996129  3.3964750300775898e-07  0.028089328906895295 7.9274434852670233e-07  -0.00071418084831549329  0.00026426737196473261 0.00074331798442326411  -7.4036279087533777e-07 -0.0011633229284775837  0.0041593497662895332 -3.5500253166845719e-07  6.1326232312027448e-07 0.00055140916410627294  1.6337136143604044e-06 -0.0023643162230957415  -0.014967149556290216 -1.228658043302158e-06  8.1384877866065474e-08 0.00072257693743929541  3.1799940100955253e-07  -0.0056350783881327499 -4.3198902701161188e-07  5.7349491047206338e-08  7.8026196660853433e-06  0.0049484843310559253  -5.7987538606319503e-06 0.0017012561528228832  0.0026605634947145518 -1.254629176999098e-06 0.048712726245838667  -3.3247725876492386e-05 -6.9841033389638644e-07 0.0032990486799149427  0.0037810944817030737 2.0393802469679723e-06  0.077062106228985891 1.6354630023482873e-06  -1.6451929482177169e-06  
shrinkage=0.1


Tree=15
num_leaves=31
num_cat=7
split_feature=3 4 2 0 5 8 7 6 0 0 2 8 0 5 0 8 5 0 0 5 8 5 8 5 5 0 5 5 0 6
split_gain=23.8275 9.45464 6.65948 4.82641 2.95553 3.25598 2.82649 2.69167 2.34106 1.87193 4.36276 2.41079 2.09183 2.06171 1.87291 1.85072 1.8296 3.81714 2.51911 1.5181 1.20408 1.24816 0.959521 1.41896 1.15466 1.49448 1.86607 0.937475 0.819404 1.4602
threshold=0 1 2 25.500000000000004 105751.86500000001 35.500000000000007 3 4 62.500000000000007 44.500000000000007 5 41.500000000000007 33.500000000000007 27097.545000000002 51.500000000000007 48.500000000000007 30039.515000000003 37.500000000000007 29.500000000000004 13304.090000000002 41.500000000000007 17560.060000000001 38.500000000000007 32239.695000000003 42737.520000000004 43.500000000000007 56991.460000000006 28251.555000000004 56.500000000000007 6
decision_type=1 9 9 2 2 2 1 1 2 2 9 2 2 2 2 2 2 2 2 2 2 2 2 2 2 2 2 2 2 1
left_child=1 19 7 -4 5 -5 8 -2 9 10 16 27 -13 -11 -15 -16 -3 18 -18 -1 21 -21 23 -23 -24 26 -26 -12 29 -7
right_child=2 6 3 4 -6 28 -8 -9 -10 13 11 12 -14 14 15 -17 17 -19 -20 20 -22 22 24 -25 25 -27 -28 -29 -30 -31
leaf_value=-0.07619023935168838 0.1135739387238318 -0.05488980688612663 -0.10643681675798072 -0.10989915506545955 -0.079453305583176648 -0.0082467113122115434 0.10454419546043828 0.0010137882584110353 -0.029563048221200889 0.098870847727700953 -0.011785814874330369 0.12523949505294016 0.055036648407843863 0.07234010538222567 0.044748222505170271 -0.028373244823433137 0.01571556670682393 0.076065203924674141 -0.083746011516336802 0.03442645997945868 0.010818087843100767 -0.010373408943004633 -0.033241061849570278 -0.11417183534692649 0.024632597802055095 0.046433857519282806 -0.068918953861964963 0.044134633296086294 0.026650957995509858 -0.052140566589315096
leaf_weight=3.3735440000891677 4.7292370945215225 7.4720386043190983 17.313242513686419 4.6154605448245993 18.36515773832798 19.279621567577124 6.5422321259975424 3.8572399392724019 5.0625269040465346 9.1032893061637861 4.0641580671071997 7.1489361971616772 10.446741104125975 13.062227949500086 10.74889901280403 5.1054658144712439 5.5735852271318418 5.1084404289722434 4.6885541304945946 4.1592890024185172 23.306406497955322 2.603726301342248 18.455311648547649 2.6650392673909664 4.3692547082900983 5.3397126197814933 4.1644307002425194 11.426953125745056 3.328275501728057 12.487973880022766
leaf_count=21 30 37 310 67 261 168 32 30 26 40 18 32 46 57 47 21 26 22 23 22 115 18 114 27 29 25 25 55 27 128
internal_value=0 0.0194443 -0.042453 -0.0530579 -0.0462809 -0.0309397 0.037346 0.0291087 0.0366778 0.0402472 0.0286091 0.0447169 0.0835593 0.0573676 0.0443018 0.0212014 -0.009945 0.00543369 -0.0297263 -0.00940765 -0.00739088 -0.0175542 -0.0233046 -0.0628766 -0.0168554 0.00494193 -0.0210205 0.0294637 -0.0205557 -0.0255016
internal_weight=257.967 173.991 83.9762 75.3897 58.0765 39.7113 105.554 8.58648 99.0118 93.9493 55.9294 33.0868 17.5957 38.0199 28.9166 15.8544 22.8426 15.3706 10.2621 68.4367 65.0632 41.7568 37.5975 5.26877 32.3287 13.8734 8.53369 15.4911 35.0959 31.7676
internal_count=1899 878 1021 961 651 390 482 60 450 424 259 151 78 165 125 68 108 71 49 396 375 260 238 45 193 79 54 73 323 296
cat_boundaries=0 1 2 3 4 5 6 7
cat_threshold=4 10793 137 1 2 276 2
is_linear=1
leaf_const=-0.13576861629984746 0.1135739387238318 0.051756163643841196 -0.10358939823682789 -0.098088262045637725 -0.11836738436002606 -0.063164115582569028 0.10454419546043828 0.001013788258411035 0.11043376965343797 -0.44842912190042061 1.7629220943988486 0.11844636966496012 0.18110753891991749 -0.03811576460743709 -0.4195200228448272 -0.52887971550005664 0.32098248535696111 0.31099133782900029 -0.90924232453788822 2.357250015469373 0.03991985975090917 0.037949535061238215 3.5005274415598251 -0.10789141892018038 6.2251859604026327 0 0 -0.23611051818433354 0.133714020737942 0.088453603095059924
num_features=1 0 2 1 3 2 3 0 0 1 2 3 2 2 2 3 3 2 2 2 2 2 2 2 2 3 3 3 3 3 3
leaf_features=5   0 5  0  0 5 8  0 5  0 5 8    0  0 5  0 5 8  0 8  0 8  0 5  0 5 8  0 5 8  0 5  0 5  0 5  5 8  5 8  5 8  5 8  5 8  0 5 8  0 5 8  0 5 8  0 5 8  0 5 8  0 5 8  
leaf_coeff=6.0879633080437479e-06   0.001970044287026196 -9.5690683540332687e-06  -0.00013305486306127711  -0.0001962303326737691 3.8293865359665991e-08 -0.00020655403340635869  0.00065716563921927595 7.2002747537864805e-08  -0.0010539079784689189 -7.1616742055576124e-08 0.0021718435800023709    -0.0020596132011659776  0.0084454626884667757 6.0091968240034994e-06  0.0028212266633282804 6.1261876603178191e-06 -0.050600127721630452  0.00029071846960375679 -3.9971917788683703e-05  -0.00031744137784692764 -0.0021908291482274577  0.0015571468729346451 5.6906862803432993e-07  0.007400019775338107 -2.6273226591086263e-07 0.0016245885453726073  0.0073454420190437464 -5.7292802023531004e-07 0.0020276043435860816  -0.011586187921347092 -5.7036448508908789e-08  -0.0041510146862737685 -7.1330515500990539e-07  0.022107027808536107 1.4335954508997211e-06  -4.9101800776912929e-05 -0.039049054613625782  4.7091332849557451e-08 -0.00058333299188500359  3.8437424372236843e-06 -0.0054487683825919335  -1.1140802401184537e-06 -0.087474698634378012  -2.2491207065291347e-08 -0.00017523754823670635  -0.0041040157566569315 -2.3419111551505663e-06 -0.14860775642393947  -0.0058135326130253186 -6.0165955926037172e-07 0.0099506817704169484  0.0053263090397486891 -2.632530580926496e-08 -0.006358008196327725  0.005490746114369483 2.6102343026415489e-07 0.0013327964051364771  -0.0023572968238189554 1.2631390482175721e-06 -0.0010803596020955758  0.00043362903789935238 -1.1915137514114623e-06 -0.0019060281069774089  
shrinkage=0.1


Tree=16
num_leaves=31
num_cat=5
split_feature=2 3 0 4 5 5 8 0 7 0 0 8 0 5 0 5 4 8 5 0 5 5 0 0 0 5 8 5 5 5
split_gain=20.2514 13.2757 5.1387 4.24489 3.51189 2.97197 2.86207 3.7409 3.37773 2.7593 3.48341 2.60049 2.47041 2.88053 1.90308 1.6838 1.61259 3.72827 2.33469 2.463 1.59191 3.08586 1.58774 1.45218 1.39224 1.30623 1.06694 1.00443 2.16695 1.35312
threshold=0 1 29.500000000000004 2 79476.60000000002 41420.005000000005 38.500000000000007 56.500000000000007 3 45.500000000000007 59.500000000000007 41.500000000000007 37.500000000000007 52477.80000000001 52.500000000000007 112964.78500000002 4 48.500000000000007 30949.395000000004 51.500000000000007 57611.885000000009 48206.475000000006 49.500000000000007 42.500000000000007 49.500000000000007 66758.250000000015 55.500000000000007 27647.070000000003 19837.380000000001 33632.600000000006
decision_type=9 1 2 9 2 2 2 2 1 2 2 2 2 2 2 2 9 2 2 2 2 2 2 2 2 2 2 2 2 2
left_child=2 3 11 9 20 16 -3 8 26 27 22 -1 13 -7 -14 -6 17 24 19 23 21 -4 -11 -18 -5 -22 -8 28 -2 -29
right_child=1 6 4 5 15 12 7 -9 -10 10 -12 -13 14 -15 -16 -17 18 -19 -20 -21 25 -23 -24 -25 -26 -27 -28 29 -30 -31
leaf_value=-0.072548124651383175 -0.026126486773262653 -0.10747150076197853 0.062535874686042214 -0.033618696274699954 -0.0357404200775693 0.069625011106974541 -0.078650019571156249 0.051257280729402638 0.07924770054674718 0.078720522314822905 -0.068367132892347041 0.023282392488080533 0.091504180402821433 -0.03520955089943277 0.023377083932494078 0.034834568479325125 0.051035186279009527 0.048610247520843322 -0.020084334390361478 0.11321294611609774 0.14247866215169344 -0.0091026033369995176 0.0039804455683052995 -0.025351908894462778 -0.10492598068944084 0.062301844706414478 -0.016050042948047877 0.018593687385051901 -0.13427721249110211 -0.049971958890241974
leaf_weight=5.4812137521803361 3.704702831804755 15.386329885572193 45.87308881431818 12.241622991859915 6.0890507809817773 4.180270269513132 28.540566675364975 2.9850068241357794 1.5345713421702374 4.4531633853912371 4.9427708387374869 5.8581397198140621 10.27044126391411 7.026543602347374 6.8251464143395415 7.5999355688691139 6.164555490016939 5.1250639110803595 8.6296290010213834 3.9284044206142417 3.894648648798464 6.9199444130063048 7.8575790300965309 4.1737895756959915 3.5269471630454055 4.2486940585076809 3.0097723752260199 3.57716887444258 3.705838855355978 14.730562001466749
leaf_count=60 22 287 214 67 42 21 442 33 16 23 29 32 46 37 34 49 33 25 45 18 21 34 40 19 21 25 32 20 24 88
internal_value=0 -0.021535 0.0355462 -0.00103441 0.0492118 0.0132866 -0.0597498 -0.0559582 -0.0656315 -0.0230329 0.00254493 -0.0230401 0.0403849 0.00389494 0.0643055 0.00344184 -0.0011935 -0.0172361 0.014598 0.0458087 0.0594937 0.0531457 0.0310162 0.0201962 -0.049568 0.100647 -0.0726782 -0.049148 -0.0802101 -0.0365748
internal_weight=252.485 166.52 85.9647 115.064 74.6254 72.0924 51.4562 36.0699 33.0849 42.9718 17.2535 11.3394 28.3024 11.2068 17.0956 13.689 43.79 20.8936 22.8964 14.2667 60.9364 52.793 12.3107 10.3383 15.7686 8.14334 31.5503 25.7183 7.41054 18.3077
internal_count=1899 1422 477 612 385 366 810 523 490 246 92 92 138 58 80 91 228 113 115 70 294 248 63 52 88 46 474 154 46 108
cat_boundaries=0 1 2 3 4 5
cat_threshold=170 4 11401 1 514
is_linear=1
leaf_const=-0.42787104951899552 -0.019954239259946507 -0.10398242616206232 0.058055892648828336 -0.14830051511607395 0.093356223561430349 0.70558204289925475 -0.040608686820827702 -0.093740949142805619 -0.39042752861813029 -0.91516016735899941 -0.172515473553608 0.72961002170805367 -0.078922713938619896 0.31120129548433584 0.088103534842348105 0.16614255462973271 -0.077722259134527155 0.43144581156109219 -0.36244790237026553 0.18847135682646582 -0.07526863863840845 0.7243944093732978 -1.1039853073002419 -0.55925140175050392 -0.45016148766121378 -1.4190279361800067 -0.063165654964848272 1.044711619902001 -0.080973614651023249 -0.13142862959949878
num_features=2 2 1 2 3 2 2 2 2 2 1 1 2 2 2 2 2 2 2 1 2 2 2 1 2 3 2 2 2 2 2
leaf_features=0 8  0 5  8  0 5  0 5 8  0 5  0 5  0 8  0 8  0 8  0  0  0 8  0 5  0 5  0 5  0 5  0 5  5 8  5  0 5  0 5  0 5  0  0 5  0 5 8  0 5  0 8  0 5  0 5  0 5  
leaf_coeff=0.010988658981376798 0.0018302512024794106  0.007113307067426744 -1.7502669311441543e-05  -0.00012879732229308384  -0.00011247197550682265 3.2208099269302783e-07  0.00082340862490354056 1.7676978733077506e-06 0.00093478910233835144  -0.0019276215894261817 -4.3292289413439295e-07  -0.026124757163465209 4.8681673136882682e-06  -7.6953115077910139e-05 -0.00083328245034819393  -0.00059927741063958706 0.0041556426783251168  -0.012819477584141179 0.02248721820388835  0.021007373113304341  0.0016050498016133121  -0.018968213000426018 -0.0036414135879974164  0.0031629848143658102 2.3546786665198039e-07  -0.01081939008190993 -3.0883986020535199e-07  -0.00099987235724470209 -6.6751384371011803e-08  -0.0022479023141642046 -1.8764728867564766e-07  0.0046684096674940887 -1.7038795686708608e-06  -3.2683732680537188e-06 -0.0051103338153990208  9.5870704253782534e-06  -0.0029841043933981127 5.0077362989325381e-06  6.7211843709502617e-06 3.4891315654567157e-06  -0.0027149195697098536 -1.17734018894401e-05  0.020489952060241762  0.010874696609221513 1.4894692864092805e-06  0.0033506292841017694 2.3399594739380912e-07 0.0037118841636076374  0.0018919248689062531 1.9178213392133728e-05  0.0015369875151441206 -0.00014761156506327701  -0.015549166005054051 -1.4718048054217161e-05  -0.0018962639648446578 5.932570564985175e-07  0.0024088060899511822 -3.0750621777546629e-08  
shrinkage=0.1


Tree=17
num_leaves=31
num_cat=7
split_feature=3 2 2 4 5 5 0 5 4 5 5 0 0 5 0 5 5 5 5 8 5 8 6 5 5 6 5 0 0 8
split_gain=17.136 7.8097 5.92558 2.76018 2.8906 2.46575 2.50099 2.44383 2.11159 5.61679 4.97585 1.98561 1.94691 2.18872 2.1349 3.32524 1.89955 2.08972 1.80522 1.71319 3.19114 1.58338 2.283 1.44052 1.39968 1.1776 1.35922 1.17671 1.13254 1.08915
threshold=0 1 2 3 17932.775000000005 33632.600000000006 42.500000000000007 17932.775000000005 4 50520.56500000001 43206.560000000005 34.500000000000007 62.500000000000007 59732.775000000009 47.500000000000007 29386.665000000005 99434.165000000023 85814.590000000011 61032.000000000007 41.500000000000007 27647.070000000003 35.500000000000007 5 42127.220000000008 36356.030000000006 6 61032.000000000007 43.500000000000007 50.500000000000007 48.500000000000007
decision_type=1 9 9 9 2 2 2 2 9 2 2 2 2 2 2 2 2 2 2 2 2 2 1 2 2 1 2 2 2 2
left_child=1 3 21 12 -5 -6 -7 -3 9 28 -10 29 13 14 19 -16 17 25 27 20 -1 22 -2 -21 -17 26 -13 -12 -9 -4
right_child=2 7 11 4 5 6 -8 8 10 -11 18 16 -14 -15 15 24 -18 -19 -20 23 -22 -23 -24 -25 -26 -27 -28 -29 -30 -31
leaf_value=-0.047722557131278445 0.026861439117293318 -0.067401147626799079 -0.10518335681773335 0.074002098742586564 -0.046290664454751079 -0.018206238508267143 0.059713734504214938 0.0088423137672729284 0.0082295848137408766 0.10957044981076568 -0.12113700502240088 0.032215403971181104 -0.013552271495577493 0.097636233111698348 0.13039911455660072 -0.00070777753199914378 -0.09338871028488907 0.054914755905728224 -0.021594219272021098 0.065719521619341179 0.045836910746878221 0.0070060618182835391 -0.11563856261718192 0.011436077258627605 0.069707688935653711 -0.087824878338218837 -0.06088651408418301 -0.051562947024171628 -0.06022537912204682 -0.039575635294507042
leaf_weight=6.2291025295853606 1.9358405247330666 7.1151474043726912 19.1693409383297 4.8921705633401862 10.956984207034113 9.7786828093230742 7.1173564642667762 8.3693636134266871 24.543114453554153 5.8086839392781249 5.4380883760750311 2.7203367576003075 4.5062227472662917 9.9539316669106466 6.8004798889160183 4.5666645467281324 7.6206830888986579 2.3441170118749133 6.3372534886002532 17.029686912894253 8.7899797782301885 29.986591961234808 2.6817987225949755 6.8569865971803656 7.3926399499177933 4.5788302384316939 3.7021502293646336 4.3961204960942268 3.3142997883260241 2.9151249676942816
leaf_count=28 20 45 413 21 58 51 35 47 143 27 37 31 21 50 32 20 141 27 36 77 44 209 31 30 33 66 38 23 20 45
internal_value=0 0.0162364 -0.0376769 0.032338 0.00238145 -0.00934316 0.0146171 -0.0104751 -0.0053162 0.0185819 -0.0161748 -0.0613477 0.0439923 0.054333 0.0468582 0.0745674 -0.0535563 -0.0308108 -0.063215 0.0334973 0.00703351 -0.00107685 -0.0558987 0.0501367 0.0428195 -0.0490768 -0.0214519 -0.0900358 -0.0107501 -0.0965232
